-4.49216e-06
-3.21903e-09
-4.7772e-131
-0.0361671
0.0474663
0.0325194
0.0207911
0.00123748
0.116201
0.0207911
-0.0106509
4.69362e-322
0.000140654
0
0.00126529
-3.22613e-206
-0.0890135
0.0110269
-0.000305745
9.5664e-154
-8.37841e-07
-0.0419164
0.219377
0.014086
0.000322064
0.00126529
0.056036
0.0121176
0.00255976
0.0039566
0.0810814
0.124153
-0.000174444
-1.23027e-14
0.00242267
-0.0883536
-1.1142e-09
0.0299344
-1.71838e-05
0
0.0781613
0.123193
-7.69453e-10
0.00621789
-0.0225598
-0.13797
-0.000301781
0.0060051
-3.85698e-06
-0.0684939
0.0525595
0
-9.35922e-09
0.0324716
1.73911e-321
-3.26335e-08
0.0542835
-7.61114e-11
-1.4164e-12
0.00629809
0.00706481
0.00386489
-9.23903e-322
-0.0595151
-2.07508e-322
0.0361701
-0.0413824
0.0151679
-0.0599002
0.00198286
-0.06244
-0.0615955
-0.0600686
-3.01276e-07
-0.100242
-0.0209029
-3.13109e-05
0
-0.063205
-0.0482974
0.0129071
-0.0159078
0.00190627
0.00231727
0.00313102
0.0989615
-0.0312824
-0.0199353
0.0474646
0.0361701
0.0093206
-0.0438065
-0.184234
0.0295079
-0.106517
-0.0320286
0.178723
0.00442858
0.0158637
0.0464198
-9.35922e-09
0.00706481
-2.6104e-06
0.00663397
-2.83939e-10
-8.13611e-06
0.00271076
0.00369588
-1.78155e-08
0.194196
-0.0505724
-0.0164575
0.0124374
-0.0586613
-3.95253e-322
-3.4475e-10
-0.0522414
-3.74502e-11
-0.0637754
-0.115477
0.103183
-3.51174e-07
-0.017746
-0.122425
0
-0.06373
-0.0103425
-7.66397e-10
-2.51724e-06
-1.40067e-05
0
-0.0240615
-4.68238e-11
0.0138285
-0.0496074
-0.0633512
0.00339274
-3.26335e-08
-0.0276565
-0.0115044
-0.0705109
-0.00537133
0.0327726
0.314003
-0.0355109
-2.80071e-09
0.0323259
0.0201002
-1.33758e-07
-0.197299
-0.0454814
-0.0530972
0
0.00442238
0.252713
-0.0883536
0.0323977
0.00035941
-0.0382118
0.0543831
-0.05743
-7.40298e-08
-0.0475332
-0.0712878
0.00706481
-0.0190318
-0.0269445
0.00683419
-0.000116403
-0.0266905
0.0155362
-0.168113
-0.00944339
-4.79307e-08
-0.0873115
-0.00558228
0.025516
0.153208
-0.0207702
-0.000109282
-9.35922e-09
2.97737e-213
0.00167676
0.0134157
-0.0148867
0.00580235
-0.00879651
0.199729
-0.00699226
0.014086
-0.0346265
0.0521801
-0.0956711
0.0542835
-0.136983
-0.0679279
0.0168671
0.0169418
0.0285006
-0.0330124
0.00423922
0.0160198
-1.98535e-12
0
-0.0924293
0.00706481
0
0.47634
-0.18286
-0.0164575
-1.22778e-11
-0.000182527
-0.0234134
-0.122871
0.0508358
0.0207911
0.0987308
-1.94902e-06
-0.0333981
-1.74218e-06
0.0769267
-0.0454277
-0.00611506
0.0112248
-6.86751e-322
-8.23492e-09
-2.33391e-05
-0.0123884
-0.000350325
-3.26335e-08
0.103914
0.0166083
0.00434351
-0.0531016
0.0161082
0.199582
-0.0263171
-0.0560986
0.00790525
0.00117208
0.0907529
-0.0555287
0
-0.021315
0.116726
1.68475e-05
-4.2553e-13
0.0618659
-0.0555793
-2.6027e-11
0.0687298
-0.0546037
-1.90047e-11
-0.00662642
2.97737e-213
0.0327726
0.031833
-5.05537e-13
0.0209244
-0.0701491
-0.0326115
-0.0823291
0.00179781
-0.0207702
9.5664e-154
-0.0112349
-0.0185962
0.0076849
-0.061603
-0.183518
-0.0251702
0.00516669
-0.0120486
-0.052958
5.3244e-06
0.0241867
-0.0243448
-4.7772e-131
0.0754286
-3.08073e-07
-2.07892e-132
0.00123748
0.100388
0.0585111
0
-2.09744e-11
-0.00384974
-0.0563107
0.103484
-0.0886218
0.00483615
-0.023775
-0.00557659
-9.57512e-05
-0.0104233
0.0291781
0.00188148
0.0730966
0.0040701
0
-0.0516131
0.0396088
0.000167352
-3.74502e-11
0.0502603
0.0782822
4.69362e-322
0
-0.0973071
-0.00228864
-5.58251e-05
-1.61029e-09
-3.3025e-05
-0.0657429
0.0312557
-6.57107e-322
-0.0148867
0.0945698
0.0605025
-4.60692e-14
0.0726496
0.63785
0.00837711
5.63797e-08
0.0292941
0.0151113
-0.0657317
0.0028122
0
0.0400172
0.232786
0.044248
-0.0115879
-0.0600686
-0.0345234
-0.0678569
0.000373692
0.00183431
-0.0292743
-0.0315564
-0.0548885
0.0156196
-0.130654
-0.0221257
-1.74218e-06
-1.20738e-07
0.0606014
-0.0261434
0.00582136
-0.210002
-0.00756137
-0.00029807
0.000639774
0.0617747
-0.000301781
0.0388155
-3.01276e-07
-0.0790181
0.0298418
0.00117208
0.449111
-0.0103076
-1.61294e-05
-0.126808
-3.54054e-08
-0.018627
-0.0483478
1.78358e-321
0.0156443
0.00629809
0.0620298
0.0097143
-0.0600573
-6.5773e-06
-0.026384
0.00706481
-0.0269491
0.0123382
0.0391644
0.00706481
-0.103727
0.0169418
0.153256
-2.1148e-06
0.0533395
-0.00622416
0.012109
0.0806645
0.00111991
0.00516669
0.00230832
0.00706481
-0.0208888
-0.051621
-5.05537e-13
0.042482
-1.40067e-05
0.0104168
0.000326882
-8.23492e-09
-2.6104e-06
0.089633
0.0513737
0.0381592
-1.06182e-09
0.00442238
0.0989577
-1.98535e-12
-0.0201275
0.038591
0.03521
0.00115787
-2.07892e-132
0.0428607
0.0255027
-0.00420577
0
0.129317
0.00242267
-0.0885183
0.0369423
0.00408862
0.152871
-1.65625e-05
0.00790525
0.189328
-1.90047e-11
-0.0182279
-0.0424875
-1.39366e-06
-0.0172868
-0.178724
0.0189551
-0.010651
0.00231727
0.0542835
0.0533142
-4.41189e-06
-0.148737
0.0215183
0.0562089
0.068123
-0.00699226
0
0.00591144
1.17094e-321
-0.0315542
-0.0111558
-0.0212745
-0.0873031
-1.20738e-07
-4.82038e-10
0
-0.0164575
0.00706481
0.250035
-6.97033e-10
0.017244
0.0130589
-0.022631
0.000320321
0.011285
0.00483615
0.0800733
0.369438
0.0159207
-0.109781
0.0443213
0.000512148
0.0437564
0.0128302
0.0806145
0.0576456
-0.00750587
-1.54749e-05
-0.000137497
-0.0827044
0.0166081
-0.101044
-0.0148339
-0.307253
-0.0737658
0.0458861
0.000160858
-0.305412
-0.00201944
-0.00454734
-1.87699e-12
0.00271624
-0.130151
-3.26335e-08
0.00306214
0.0178809
-0.00146438
-0.059275
-0.0251702
1.20058e-321
0.021719
-4.79307e-08
-0.0259646
-0.0660785
-0.0164575
-0.0589956
0.0152154
0.00313102
0.0097143
0.00483615
4.11677e-06
-1.93571e-07
8.04479e-05
0.0174642
-0.0418842
-0.0688152
0.0183754
-1.5239e-07
-0.0148415
-1.59801e-14
0.00284594
0.0451865
0.0097143
0.00718431
0.140396
0.804045
0.0126374
0.000135151
-3.03541e-06
-0.000235305
-0.073902
-0.0197097
0.000512148
-0.0224142
-0.0437477
0.0174791
0.225223
0.00284605
0.00150995
-0.032043
-6.88155e-08
-1.9198e-05
-7.91607e-05
0.00134818
0.188248
-0.000215771
0.0415435
-0.050514
0.0220184
-0.101941
0.173357
0.00929692
0.147052
0.074947
0.0383468
0.0456386
0.00339111
0.167401
-0.0362302
0.116919
0.0441937
-0.0366091
-0.010651
0.0048839
0.0314483
0.168986
0.259781
-0.0196023
0.0211353
0.0217308
-0.00799108
0.00402177
-7.66397e-10
-5.05537e-13
0.000218042
0.0728307
-0.0597603
0.0781948
-0.11645
-9.8183e-05
0.0343068
-0.00979885
-0.0183592
0.00402815
-0.0450215
-0.00585744
-0.0138253
0.0782664
6.84445e-05
0.0341728
-0.028141
-2.56925e-06
-0.00784726
0
0.022253
-0.230534
-0.0178887
0.00242263
0.00706481
-2.6104e-06
-4.60787e-11
-0.355997
0.132099
0.0108598
0.000322064
0.0356199
0.109866
0
-0.0368098
0.00414966
0.0159762
0.0804871
-0.00286012
-0.0065036
0.0145511
0.0412464
-0.0663352
0.0438033
0.0199506
-0.0613735
-2.31257e-10
-0.0265451
-0.0778718
-1.44749e-07
-3.4527e-08
0.21868
0.138856
-0.0595296
0.0297703
-1.93571e-07
-0.0195696
0.0877215
-1.20738e-07
0
0.0987833
-7.66397e-10
0.0299167
-7.69453e-10
-3.26335e-08
0
-0.367774
0
0.0135983
-0.0418195
0.0221313
0.2235
0.00442238
0.00241411
-1.85435e-05
-0.0270626
-1.72642e-06
-2.01806e-07
-0.00493271
-0.00993397
-0.120827
0.0318145
-0.0371035
-1.7616e-07
-5.76569e-07
0.014086
-3.67322e-05
0.00707165
0.00279208
-0.0737486
0.115485
4.11677e-06
-0.0501964
0.125737
0.00160241
1.04742e-321
0.000179669
0.0489078
-8.5439e-06
0.0494532
-0.00622416
-3.40815e-06
0.117068
-0.0553126
0.0389832
-0.0287752
-0.0291899
0.146992
0.000143293
-2.5721e-11
-4.7772e-131
0.218273
1.23725e-223
-0.0220196
0.102063
0
-0.000126819
-0.0387286
0.0173043
0.0843116
0.0629636
0.0900147
-0.0773138
-3.19482e-09
0.080054
-0.0326115
0.303775
-0.0365178
-2.07892e-132
0.323901
-0.0185518
0.00706481
-3.26593e-08
-9.41035e-14
-0.00825107
0.00721526
-0.0183592
-0.130116
-0.0322497
0.163312
-0.0657429
-3.26335e-08
-0.108274
0.0628378
0.0164514
-0.0246143
0.00183431
0.00580204
0.0665022
-0.0938178
0.0256536
-0.0164575
0.0471783
-0.0668682
0
0.0662276
0.0589323
0.0386421
-9.95633e-07
0.0234412
-1.68228e-09
-0.0841213
0.0283089
0.00704616
-0.277618
-0.146513
0.0513925
0
-0.0566002
0.0548933
-0.101005
-0.0784379
0.116901
0.0161135
-0.0586716
-0.000235305
0
-0.0177162
0.160908
-1.08694e-321
0.020403
-0.0184404
0.0662588
0.0508731
-0.00471775
-1.39366e-06
-0.0455189
-6.13179e-05
-0.017264
-2.60866e-12
0.00408862
-4.2553e-13
-1.23027e-14
1.57113e-321
0.141144
-3.03541e-06
-0.0282969
-0.121563
-0.00126849
0
-1.90047e-11
-7.88742e-05
-0.000143031
-0.0158819
2.37623e-05
-0.0154475
0.0792087
0.118292
0.179194
0.00193087
0.145877
-0.00699226
-0.0664831
0.0153252
-1.37237e-08
0
0.165979
-2.6104e-06
-0.130179
-0.285219
-0.00558228
0.0418987
0.0662104
-0.105532
-0.00558228
-0.00261601
-1.55875e-06
-5.07871e-05
0.261901
0.0456959
0.0395846
-0.00304247
0.0381317
0.00442238
0.0344546
0.0105565
-0.0322497
0.00706481
0.273015
0.0120809
-2.58494e-11
-8.38335e-05
0.0361701
-0.000235314
-0.00770612
0.245819
-0.0148881
0.0354256
-0.157873
0.0776001
0.000162148
-0.000245599
-0.0681292
-5.48473e-05
-0.0914076
0.106565
-0.0326115
-0.000382297
0.188048
0.0274964
0.0923841
-0.0509121
0.00428176
-2.58494e-11
-0.00420577
0.00708649
0.0540995
0.0444292
-0.0206069
-1.52296e-07
0.00402815
0.0100754
-0.071414
0.0136036
0.0381317
0
-0.0148867
0.00705668
-1.10335e-07
-0.033505
0.00790525
-0.000174444
-0.0234134
-0.0270997
-0.00146438
0.0111273
-2.83939e-10
0.00185186
0.011285
0.0166919
-2.58494e-11
0
-0.0132945
0.0543831
0.00261498
-0.0411126
0.135835
0.024282
-3.26335e-08
0.00867714
-0.122994
0.0182532
-0.0474543
-0.0224571
0.0661338
-0.0437641
-2.07892e-132
0.0349093
-5.58251e-05
5.63797e-08
-0.0849573
0.107317
-0.0176875
0.0369576
-3.3323e-07
0.0214975
-1.20738e-07
-0.068835
0.0110269
0.108081
0
0.153102
0.0891622
-0.0591368
-0.0195696
0.0277074
0.0116683
3.20834e-05
0.00742672
-0.144557
-9.84105e-13
0.038591
0.00217586
0.00706481
-2.1148e-06
-2.31257e-10
1.18576e-321
0.0528444
-3.22613e-206
-1.93571e-07
-1.06182e-09
0.00183431
-0.133986
0.014086
-2.00544e-06
0.00758611
0.124417
0.0104168
-1.07627e-09
-0.0114773
0.00442238
-0.0232786
-2.56925e-06
-0.00332735
-0.00905437
-6.95947e-203
-9.35922e-09
-0.0234098
-0.062564
-0.0103534
-1.15342e-06
0.133457
-0.0253626
-0.0233662
0.0440505
-0.0271129
0.00123748
0.0618659
-3.22613e-206
0.00774826
-0.00244716
0.0399936
0.0546731
-5.58251e-05
0.0169418
-9.41035e-14
-9.31536e-06
-0.00332735
-0.126231
4.43934e-06
0.018605
0.0135983
-1.22778e-11
0.0142484
-0.000238072
0.0526562
0.000736384
0.0387924
-1.94168e-321
-0.0247686
0.123193
-0.0114962
-0.00631318
0
1.78358e-321
-0.0406452
0.0483031
-0.0373377
0.0079421
0.0410375
0.0277535
0
0.0294542
-4.2553e-13
0.0555823
0.0243863
-0.00930675
0.0715589
-0.0656911
-0.0533386
0.127133
0.00264093
0.00241411
0.011721
0.0166083
-0.0982124
-0.0537338
-0.0933251
-0.162446
4.17227e-126
0.000195643
0.00706481
-0.0127504
0.0429249
-0.0234189
0.226502
-0.000191179
0.00867718
-0.0422564
-1.22778e-11
-0.0142759
0.1664
0.0104168
0.0250207
-0.0320286
-0.000186424
-1.69847e-05
-0.0182562
0.0169418
-0.100823
0.0212096
0.00706481
-0.0240615
-0.0246143
0.0874259
0.026212
-0.0246143
0
-0.0393821
-0.000130474
-4.66581e-06
-0.0238674
-0.0218349
-0.114487
1.65424e-223
0.0822541
0.0228057
0.0309938
0.00339111
-0.0348171
0.00442238
0.0180132
0.00706481
0.0430782
0.00621789
0
-0.118066
-1.11269e-15
-0.029631
-0.0692914
-1.11269e-15
0.0161243
-0.135226
-6.04604e-06
0.0424311
0.00107381
-1.69847e-05
-1.26738e-05
-2.06824e-14
-0.0451376
0.0213664
0.0179969
0.0086547
-0.0480999
-0.00558228
-3.21903e-09
-3.03541e-06
0.00179781
0.053889
0.00271076
0.0827532
-0.0353407
-0.00304247
-0.0948628
0.036519
-0.0999376
-0.000109735
-1.55875e-06
-7.9161e-05
0.189195
-0.0485272
-0.0207702
-0.122255
-0.00699226
-7.69453e-10
-0.0516131
0.00241411
4.31396e-05
-1.70156e-05
-0.02473
-0.074683
0.00242267
-0.000671943
0.269687
0.0341728
-0.0878454
0.00397177
0.267065
4.69362e-322
-0.0591769
0.0729416
0.0921774
-3.26335e-08
0.119201
0.0529043
-0.0589584
1.74256e-05
0.0595388
-0.000109735
0.197486
0.00706481
0.00706481
-0.000195578
0.142471
0.0535973
0.00242267
0.00706481
0.000815298
-0.0434515
0.017244
0.00219131
0.0599152
0.0138721
0.0909862
-0.000109735
0.0390569
-0.0164575
-0.0919769
0.253038
0.0928847
0.0649598
-0.0321261
0.0332099
0.0541269
-0.0646013
0.00580235
0.0779161
0.0156196
-0.032398
0.00580235
-0.0234098
-0.043861
-0.0148339
-3.26335e-08
0.0409814
0.0435116
0.171859
0.000664538
0.0360496
0.265507
-1.73911e-321
0.27117
-0.0148867
-0.0672932
0.147213
0.065577
-0.00945281
-2.83939e-10
0.00621834
-9.41035e-14
0.0216734
0
-0.0198841
-0.000235305
-0.100896
-0.0711295
-0.000191811
-0.0211239
-0.0911274
-3.22613e-206
-0.00213687
0.0850697
-0.0135462
0.0528444
-5.95067e-10
-3.54983e-133
0.0146509
-0.0251702
-3.54054e-08
-1.55875e-06
0.0111273
0.014086
0.0455873
0.0960483
-1.61294e-05
0.0326749
1.58101e-321
-1.6986e-05
-0.126066
-0.0147119
0.0097143
-0.0515428
0
0.0576512
0.0562269
0.0153252
-3.27968e-08
-0.00406363
-0.0592229
0.00111049
0.0930267
-5.95067e-10
0.0128302
-0.177822
0.161114
0.117086
0.0576512
0.0240005
0.0613181
-1.5389e-05
-0.0281087
-0.177253
0.0989577
0.011285
-3.37362e-07
-2.11967e-07
0.0929963
0.342962
-0.0336413
0.0125087
-3.92127e-08
1.78358e-321
0.019472
-8.40833e-10
0.0845685
-0.0164575
-0.0146334
0.0856222
-3.51098e-07
8.08831e-05
-0.0262272
-0.0465413
0.183743
-0.0411933
-0.0423202
-0.0970975
-0.306374
-5.44132e-05
-0.014251
0.0237635
-1.14445e-13
0.250042
0.0448307
0.00551175
-3.1243e-10
0.0066189
1.01229e-05
-0.246035
-0.0619509
0.0434779
-0.0194924
0.00516668
0.0295124
0.0338855
-0.0214897
-0.18986
0.026212
-0.000191761
-0.000191761
-0.0472655
-4.96435e-202
0.0764441
-0.0113781
-7.46451e-07
-0.0692914
-0.0321632
-0.00146438
-7.46451e-07
0.00183431
-0.0646632
0.0459614
4.17227e-126
0.00718431
-0.147802
0.006436
-0.0964707
0.0673142
-0.0411119
0.00910942
0.0439422
0.0104168
0.0121239
0.00241411
0.00161386
-0.0534441
0.000272154
-0.163238
0.00183562
-0.0428236
-0.0174683
0.0135309
-0.0600686
0.0403001
-0.000195578
-0.163782
0.0155579
0.01843
0.471981
-1.92817e-06
0
-0.0234134
0.280392
0.0299344
0
0.0418178
0.0448306
0.0282025
-0.0048879
-7.97181e-06
-0.00945788
-2.40848e-05
0.0120775
-0.000908866
-0.0820701
0.00223635
0.0309127
-8.13187e-08
-0.0946837
0.0710307
5.63797e-08
-9.90083e-08
1.14539e-225
0.00264093
0.0085588
0.0675552
0.00414966
-0.016589
-0.00908783
-0.0325451
-1.6638e-09
0.0347548
-0.0276124
0.0391644
0.0399681
0.0492084
0.00134046
0.082474
-0.0314079
-0.0129919
-0.0828543
0.130308
0.00742672
0.00742672
-8.23492e-09
-0.000211011
-0.000102981
0.0212759
-0.00699226
-0.0623864
-0.0164575
-8.2976e-07
0.178132
0.00239341
0.00442238
0.057476
-0.0406243
-0.127085
-0.0157288
-6.3113e-05
0.037277
0.000572657
6.35687e-05
0.0439422
-0.0815891
-0.010651
-0.218845
0.0660129
0.000424676
0.135376
0.0381317
-0.0434222
-0.0826329
0.00271624
0.000312353
0.042645
-0.101281
-0.0259646
0.000218042
-0.0447002
-8.13611e-06
-0.040468
-1.61294e-05
0.0290908
-1.14919e-13
-6.88155e-08
-3.4475e-10
0.00442238
0.0652402
-0.130534
-0.231283
0.0186815
-1.22778e-11
-0.0162207
0.0338819
-0.311982
4.69362e-322
-2.18567e-06
-0.0246912
-0.00420577
0.0183754
-0.0489755
-0.0345844
0.102069
2.97737e-213
0.0673105
0.00631176
0.0381317
0.020006
-0.0763528
0.0556342
-0.000247204
-0.0917244
0.0474663
-0.0678474
0.00706481
-0.0555315
0
0.0827532
0.0168627
0.222396
0.0543985
-0.0197096
0.0420196
0.00706481
0.000924402
0.0738798
-7.69453e-10
0.00706481
-0.00558228
-0.0632204
-1.70857e-05
-0.0145699
-0.0197097
-7.69453e-10
0.00257685
0.0135116
0.012104
0.0236699
-0.00990401
0.0200742
-0.0314186
0.00414966
-0.000130473
-8.54307e-06
-0.000301781
0
-5.81324e-05
0.0337449
-0.185093
4.11677e-06
-1.93571e-07
0.000803484
0.00483615
-9.41035e-14
0.00183431
0.0277339
-1.29018e-06
-3.54054e-08
-8.41249e-05
0
-0.0604832
0.0161243
0
5.38206e-08
-0.009904
0.0549579
0.00134467
-0.078933
0.00910942
-0.000211011
-4.7772e-131
0.00385121
-0.232051
0.111412
-0.0214897
-0.0341356
-0.0166661
-0.0572582
-0.0438269
-0.0966429
0.00120737
0.0161243
-0.0271095
0.00732615
-2.6104e-06
-0.0346715
0.000143293
-0.0754368
0
-1.59859e-12
4.43934e-06
0.0961805
-0.170171
-8.85343e-05
0.0944543
-4.7772e-131
-2.11512e-06
0.0145538
-0.000191761
-3.08073e-07
-0.0148867
-6.04604e-06
-0.0340089
8.99794e-05
0.00200308
0.0637602
-0.050514
-0.230211
-0.0294105
-1.11706e-10
0.00370523
-7.91607e-05
0.0224059
0.0601582
0.0443922
0.0199231
-0.101371
-4.60692e-14
0.0268283
-0.0173116
-0.0366184
0.0441354
-0.0136747
0.0267673
0.0149236
0.000218042
0.195821
-0.00933826
-0.0183592
-0.00631318
0.291438
-0.000174444
-3.54983e-133
0.0183536
0.0927856
-0.0214897
0.000284338
0.0126727
0.0395597
0.175345
0.0409814
-0.0381093
0.00263722
-3.26995e-05
-0.000220356
0.020741
0.0295079
-1.74218e-06
0.862667
0.0543234
0.0116683
0.047368
0.00478957
-0.00648075
0.00758611
-0.0321261
0.0390862
0.0352675
0.0913576
0.00790525
-0.139285
0.00117211
-0.0925809
-0.0404423
0.000512148
-0.0123214
-0.077043
-9.41035e-14
-1.93572e-07
0.000493198
-0.0002307
-0.0514057
-1.53731e-10
0.0070145
0.0522823
0.122797
-0.0406243
-4.7772e-131
-0.0620963
-0.461667
-0.0423485
-0.160803
0.0913916
0.0110711
1.02365e-224
-0.0866631
-3.76738e-05
0.0128302
-3.22613e-206
-0.0653273
0.0215183
-0.0162502
0.0442039
-0.000121243
-0.124304
0.223095
-7.46451e-07
-8.06117e-07
-0.0893227
-3.22613e-206
0.00706481
0.0830409
-3.03541e-06
-7.61114e-11
-7.61114e-11
0.0526282
-0.016116
0.0404176
-0.0907742
0.00255976
-0.0450215
0.017665
0.00442238
-0.00718744
0.00256193
-0.0066153
-0.00496557
-4.96435e-202
0.0135017
0.0533888
-0.0366543
1.46213e-05
1.86111e-213
-0.0449371
0.0782263
0.101181
-2.87361e-10
-0.0104862
-0.373324
2.73665e-05
-0.000191761
-0.0322881
0.0674975
0.113107
-0.00631312
-0.0646767
0.00242267
0.0784962
0.10728
-0.00662642
0.000305584
0.0227677
0.0636095
0.0401418
0.00242267
-4.60692e-14
-0.115603
0.119757
2.76628e-05
-0.0174472
-0.0148787
0.0767491
-0.0200501
-5.44132e-05
0.0344914
1.3241e-321
0.0234412
0.000417156
0.031609
0.00231727
0.280822
0.0608745
0.0322492
0.0232537
-0.0725339
0.0938673
-6.97033e-10
0.0637353
5.3237e-06
-3.54054e-08
0.135896
-0.0695438
-0.0154026
-1.87699e-12
0
-3.22613e-206
0.110307
-0.0485503
0.020034
-0.0124342
-0.199771
0.0232537
-0.132717
-7.69453e-10
0.000882135
0.00706481
-7.91607e-05
-0.294276
-1.93571e-07
0
-0.00444235
-0.00613897
-0.134955
0.0622644
-0.180227
0.00790525
0.0822541
-3.25575e-05
0
-0.0328469
-0.0596508
0.0121794
-0.164306
-0.0330627
0.014086
-0.0916978
-3.4475e-10
-3.46756e-08
-0.050039
-0.0399277
0.0529885
0.0161243
-0.0698825
5.71098e-06
0.0654046
-0.0488449
-2.58494e-11
0.314466
-0.0275296
-9.33151e-08
-0.130874
-3.81784e-05
-8.54307e-06
-0.078881
-0.0432637
-0.0241062
-0.0509428
0.182126
0.0101652
0.0013623
0.00706481
0.104371
0.0806645
-0.0765075
-6.9729e-05
-1.23027e-14
0.0567748
-0.00261601
0.0128302
-0.0998106
0.00264093
-0.0927389
-0.0818335
0.0105565
0.0153992
-1.2416e-09
0.300533
-0.0424224
0.0309127
0.00219131
-0.032025
-0.00947483
-2.58494e-11
-0.22565
-0.0301758
0.0207911
-0.0593848
-0.0767078
0.0268283
-3.21903e-09
0.00111991
0.0324225
0.203352
0.0559829
0.0243256
-0.0462753
-0.00685902
0.00103827
-3.68368e-05
-0.00558228
0.0930267
-0.028605
-0.00669733
0.0448562
0.0281314
-0.0492844
0.105376
0.00480425
-3.11904e-06
-0.000908866
-0.502832
5.63797e-08
4.17227e-126
-3.26995e-05
0.0482776
-3.26335e-08
0.117804
0.201519
-0.0373226
-1.75613e-05
-0.0485272
0.0161243
0.014086
0.0279147
0.00204421
0.0128302
-0.0393151
-0.000195578
0.0800963
-1.09316e-06
0.0146596
0.0822541
0.0188215
0.0802045
0.0319938
-0.0315304
0.0097143
0.000246375
1.46213e-05
0.101788
-0.0354737
-0.00339698
-0.0102968
-2.58494e-11
-0.0366543
-0.0215743
0.0598229
-0.000561255
0.0240275
-0.0213251
-0.000121653
-3.545e-06
0.00775282
0.0169418
-4.60787e-11
0.0477364
-5.44132e-05
0.0257146
-0.0197097
0.00091616
0.0765012
0.0585111
-0.000220347
-1.93571e-07
-0.0307884
0.00566211
0.0135983
-0.0315744
0.0462811
0.102261
0.0140225
-0.0168558
0.0563353
-0.00558228
0.11873
-8.85343e-05
-0.134595
0.0327726
-1.58595e-321
-0.0255519
0.0927025
-0.119227
-3.68289e-05
-0.0613317
-0.00721308
-2.29488e-06
0.0312557
1.57113e-321
-3.88216e-05
-1.43743e-09
0.064943
0.00442238
0.00728516
-0.0580869
-0.00333873
-0.00019179
0.0344914
0.144981
-4.19927e-08
0.0836254
0.0124194
0.0766222
-0.0234403
0.0280614
-0.00801893
-0.243392
0.0236418
0.0017682
-0.100752
0.0661845
0.0116722
0.00358201
-0.0600686
-0.0818335
0.0156196
0.0721957
0.00232316
-0.0975202
0.011285
-0.0115519
0
0.125599
-3.22613e-206
-3.26335e-08
0.0606014
0.00695568
-0.00201735
-6.57836e-06
-0.102027
-0.0848505
-0.0225306
0.125737
0.0136031
0
-0.000130295
0.103875
0.000923248
4.11677e-06
0.0174642
1.57113e-321
0.000179669
-0.0188626
0.144341
0.00415364
-0.0382118
0.218839
-0.165838
-0.000125747
0
0
-0.0193038
0.163589
0.0199231
-0.000248598
-0.0233662
-0.00514346
0.00442238
-0.0268867
-0.00917309
-0.0692914
0.0673105
-4.96043e-05
-0.010651
-0.0241062
0.00271624
0.00590429
0.00183431
-0.00721308
-0.0216113
-0.0502847
-0.034818
0.0459921
0.00566211
0.152695
-0.0537338
0.020403
-9.35922e-09
0.0101652
-0.062039
0.0161243
-0.021317
-2.33391e-05
0.00241411
-0.0185787
0.00549101
0.0325911
0.0621039
-0.0416159
0.165231
-0.0220687
-0.1047
-3.01276e-07
0.0284934
-0.00012754
-0.040867
0.369254
-0.0340439
0.0166363
0
-0.084499
-0.0246398
0.0474663
0.0360833
0.00164529
-7.61114e-11
-3.26335e-08
-1.90047e-11
-0.0252018
-0.125936
0.000141155
0.00483615
0.00270887
-1.23027e-14
0.0292358
-0.0990897
-0.0234134
-0.167186
-0.00836443
-0.0725339
-0.0153501
0.00116631
0.0442039
0.0178579
0
0.0728213
0.00150995
-0.0240615
0.0343996
-8.40833e-10
0.0434629
0.0548871
0.0862902
0.0234607
0.115519
-0.0157288
-0.171936
-0.0481425
0.019472
-7.61114e-11
-0.0882741
0.173867
0.000167352
-2.58494e-11
-0.0275296
-0.0198956
-9.41035e-14
0.0748594
0.00184631
0.0217295
0.019472
0
-0.0344448
0.000924402
0.0305128
0.0309127
0.00136363
-0.000235305
1.43279e-321
0.000135151
0.00250812
0.0169416
-0.000197265
0.0572806
-0.0122714
0.0305128
0.0292358
-0.0722478
-0.0174472
0.0341728
-7.88742e-05
0.0937704
0.108093
0.0159207
-0.00213763
0
1.57113e-321
0.0166083
5.63797e-08
0.100183
-0.0104849
-2.09182e-05
-0.095444
0.0413368
0.0395846
-0.0943352
-3.74502e-11
-3.19482e-09
0.0391644
0.0662588
0.0574926
0.0201546
-1.68228e-09
0.0173835
-1.24548e-09
0.0336994
0.0214322
0.00130359
-0.0505142
0
-7.69453e-10
0.0305099
-2.29488e-06
-0.00403718
-0.010651
6.35687e-05
-0.060436
0.0159207
0.307024
0.164108
0.0358512
-0.0152854
0.000267228
0.0200907
0.0753303
-3.29635e-08
-0.0974367
0.0280578
-0.0999172
0.0594263
0.00209524
-0.00135753
0.0294542
-0.0133736
4.46702e-05
-2.09744e-11
-0.0108863
-0.0292716
0.000120972
-0.0755254
0.00408862
0.0249923
0.00706481
0
0.0175869
-0.000235305
-0.0164575
0.0434554
-0.0269445
0.00123748
0.0653447
-0.00309438
-0.0371035
0.014086
-8.23492e-09
-0.0960112
-1.5874e-06
-1.6638e-09
-0.214831
0.0110269
0.11283
4.11677e-06
0.0013623
-1.30807e-06
-3.07496e-12
0.0179052
0.213212
0.010165
0.0104028
0.0188544
0.35895
-3.21903e-09
0.00368169
-7.91607e-05
-3.22613e-206
0.189894
-0.0864752
0.0845685
0
-0.00201947
-0.00825843
-4.49216e-06
0.0300921
-0.00993265
0.00614675
0
-1.22778e-11
0.00487591
-2.56925e-06
0.00442238
-0.000235305
-1.41454e-07
0.0344914
0.0626233
0.0312557
-0.00558228
-0.0592716
0.0471908
-0.00224575
-0.0269824
0.198184
-0.00635037
-0.104111
0.000781172
0.0344914
-1.53731e-10
-0.0684939
-0.137681
0.0158205
0.0440237
0.00368169
0.00263771
-0.131131
0.039325
0.0207911
0.0112613
0.0161048
-0.0756154
-0.000708941
0.0405842
-0.00974883
-0.102579
0.000366685
-0.0695104
0.00344638
-0.000331283
0.0418977
-1.37237e-08
0.00134467
1.83461e-14
0.0178357
0.00126529
-7.69453e-10
-0.0344081
-0.0200154
-0.00622416
-0.0950115
-0.0123214
0.00883869
-0.00930675
0.00414966
0.0274827
0
-0.0362811
-0.074975
-1.26738e-05
0.0608595
-4.7772e-131
-3.1243e-10
0.00017801
0.000902156
0.0430782
0.00109774
0.0589984
-0.0761732
-0.0595296
0.0106833
-0.0925261
0.0558947
0.0430782
0.0128302
-0.100274
-1.74218e-06
-0.0148867
-0.0183339
0.178166
-0.141474
4.11677e-06
-6.86751e-322
-3.26335e-08
-1.9198e-05
1.78358e-321
-0.0321261
0.00219126
0.00111991
-5.44132e-05
0.0830592
0.038647
-0.000113839
-0.11096
-0.0261434
-0.08793
-0.0495846
0.00402815
0.00279208
-4.66581e-06
0.0297237
0.0118121
-2.31257e-10
-1.38832e-321
-2.87361e-10
-2.58494e-11
0.000294394
-4.7838e-10
0.00631189
0.0618659
-0.0528372
-0.0371643
0.0420342
0.0101652
0.112155
-0.0166661
-0.000121243
-0.0889109
-0.00174075
0.0127192
0.0564641
0.0088997
0.160059
-0.0148867
0.136916
0.0128302
-0.196812
-0.0234134
-6.97033e-10
0.0952951
-0.0944536
0.111226
-0.045344
0.0156621
-0.0685701
-0.0138183
0.0243924
0.199895
-0.0284071
0.0299344
0.000424676
0.151486
-0.175665
-3.08073e-07
0.00241411
0
0.00103579
0.0135983
0
0.00270922
0.000775246
-0.00622416
0.00580235
-0.0651189
-0.037486
-0.0157919
-9.95633e-07
-0.000248598
-0.00302793
-6.57107e-322
-0.0206896
-1.70156e-05
-0.00586747
0.000246634
-0.0232043
-0.0251702
-0.0159612
-0.00240724
-0.0929294
0.00117208
0.03617
-0.0809273
-0.000125747
0
-0.0906748
-0.0606063
0.00428176
0.0132104
-0.128936
-0.0247806
-2.63528e-192
0.0361701
-0.000174444
0.0200343
-0.0902115
0.0434173
0.0327726
-0.0143138
0.0754286
0.000160858
-0.00973639
-0.106058
-0.108474
-9.41035e-14
-2.58494e-11
-1.56863e-05
0
-0.12897
-0.009904
0.0010741
-0.000235305
-5.88581e-06
0.000143245
0.0141104
-7.69453e-10
-2.06824e-14
-6.80916e-07
-0.0686623
0.00706481
-0.000191179
-9.41035e-14
0.0145893
-0.0808058
-0.0102738
0
-0.0641144
-0.0883536
0.00706481
-0.0156676
-0.16047
0.0166919
0.0893142
0.106838
0.0299344
0.0508731
-0.0622839
-0.121042
-2.07508e-322
-0.0962716
-9.23903e-322
-0.0454786
-0.000127933
0.0008702
1.42785e-321
-0.0167343
-0.00571039
-0.0185962
0.00706481
0.00790525
-0.000121321
-4.52062e-07
-1.29018e-06
-0.0454814
-0.0319079
0.00250127
-0.0406499
0.0496409
-0.0625495
-0.00223752
0.0136852
-4.82038e-10
-0.0521049
0.106488
-0.0426796
-0.188438
-1.26738e-05
0.00115787
-0.0825772
-9.41035e-14
0.135585
-0.010651
0.00631189
-0.0202585
0.000686939
-0.0931589
-0.0643582
-0.0208807
0.0020003
-0.0423485
-1.33758e-07
-5.99939e-05
-0.0577544
-0.00932919
-0.0858462
0.0436699
-8.47492e-07
-0.232698
-0.062564
0.0344914
-0.0167034
-0.11883
-0.0340439
0.0456959
0.00270922
-0.0291987
-4.35173e-07
0.0343068
0.143229
0.0169418
-0.0017605
0.102061
0.0347381
0.150241
0.0169418
0.000381036
-0.0155326
-0.0144354
-0.0483478
0.208058
0.0241309
-0.0065036
0.0086547
0.0793391
-0.0164575
-1.39366e-06
0.00790525
0
-0.000174444
-0.0066153
-0.0829576
0.035921
-1.14919e-13
-2.22687e-12
0.0263674
0.00232316
-0.0533386
0.00132765
0.00483615
-0.000126819
-1.43743e-09
-0.250357
5.63797e-08
-0.0241062
-0.0105077
0.0908518
0.000120972
4.39193e-05
0.0161243
-0.111032
0.0649929
0.107056
-2.29488e-06
-2.6104e-06
9.5664e-154
-0.0782105
0.0201546
0
1.49233e-05
4.69917e-05
-9.23903e-322
0.00402815
0
-0.121971
0.022387
0.140022
-0.0454615
0.0218903
-0.0687892
-1.78155e-08
0.0250085
0.0674805
-0.0883778
0.0161243
-4.96435e-202
0.00631189
2.9142e-05
0.122745
0.0332099
-0.00558228
0.00790525
-0.263009
-1.5239e-07
-0.00937613
0.000609371
-2.17139e-05
-8.85343e-05
0.195632
0.0945994
0.0161048
-0.0843265
-0.0403458
3.63692e-214
-1.90047e-11
0.00706481
-0.125479
6.28159e-225
0.0124194
0.159189
0
0.00232316
0
0.281529
-1.70156e-05
0.021428
0.00274834
0.0831613
-0.000220347
0.000941346
-3.08073e-07
0.114928
-3.26335e-08
-0.293927
-0.0797822
-0.00481836
0.289848
0
-0.016589
-9.95633e-07
0.0106823
-0.0491926
0.00758611
0.0136039
1.68475e-05
-0.043861
-0.0649127
0.0890772
-0.220041
0.315232
3.57734e-06
-0.00373597
-0.00201944
-0.170825
-9.23903e-322
-0.0990576
-0.161341
0.00121881
0.122654
-0.0294932
0.0359908
0.0135017
-3.4475e-10
-0.00631318
-3.26335e-08
-0.0110772
-0.0233994
-1.5239e-07
0.00385536
-0.126416
0.24594
-0.00358359
-5.48473e-05
0.134047
0.00111991
0.0285006
0.141196
1.7342e-06
-0.104184
1.91472e-07
0.0169418
-0.0122714
-1.69847e-05
0.0247673
0.014086
-0.0385263
0.00706481
0.0273494
-0.00784726
0.0224059
-0.0104357
-0.103455
-7.86829e-07
0.0338112
-0.0214897
0.0526562
-0.0122714
-0.0185962
-0.033026
0.00232316
-3.69917e-05
0.0077531
-0.169011
0.0874589
-7.88742e-05
-0.01971
0.0332099
0.0809291
-0.112492
4.17227e-126
0.00296093
0.0963835
0.0638311
0.0135983
0.0143688
-0.00823575
-0.0220394
-0.0214897
0.0174768
-0.050514
0.0299344
0.00348056
0.138684
0.0228031
-1.72245e-05
0.00271076
-1.32094e-07
0.234836
-0.00721308
0.125737
0.0438457
0
-1.2154e-321
-8.13187e-08
-6.97262e-05
0.012465
0.0404176
0.0206853
0.0968853
0.0243524
-1.8007e-07
-9.35922e-09
-0.0336452
-0.0437773
0.0159207
-0.010651
-0.0134966
0.00442238
-0.0341356
0.0145542
0.064159
0.0799325
0.00282709
-0.00946495
-5.05537e-13
0.0140699
-2.53049e-06
-0.00949314
-0.0110948
0.0294542
-1.14445e-13
0.0617997
-0.0947724
0.00111049
0.00242264
-7.66397e-10
-9.38725e-322
-2.19912e-15
-4.7772e-131
0.049311
0
0.0211353
-0.0677032
0.0029949
-2.48078e-05
1.73449e-06
-0.259801
-0.119582
0.143102
-0.040638
0.00255976
-0.0315564
0.105054
0.00805385
-1.09316e-06
0.090852
-5.05537e-13
-0.0890135
0.0111273
-0.0474543
0.00706481
-0.0801974
0.347859
0.0214135
0.0173399
-2.58494e-11
-0.00869441
5.63797e-08
0.0823003
0.0104168
-1.14445e-13
-0.0483478
-0.0207702
0.073445
-4.79307e-08
-0.000121758
-3.51098e-07
5.63797e-08
0.0169121
-2.58494e-11
0.00160241
-0.0613317
0.0151679
0.0165725
-0.0154203
0.0531364
-0.0585721
0.0443574
-3.45027e-09
0.0304194
-0.0524014
0.162264
0.0183754
-0.00905437
0.0291781
-0.0276069
-0.0426637
0.0609518
0.144168
0.014086
0.0169418
-1.20738e-07
-3.11904e-06
-0.0262272
-0.0774997
-0.00190992
0.000477795
-3.21903e-09
-0.0285396
-0.0298881
-7.69453e-10
-0.00316816
-0.00975364
-0.0100996
-2.58494e-11
0.00706481
0.00279208
-0.00558228
-1.14919e-13
1.78358e-321
0.0754286
-0.0413298
4.69362e-322
-6.57107e-322
-0.0146011
0.0448307
-6.57107e-322
-0.0240615
-0.158858
-3.95539e-05
0.018605
-6.95947e-203
-0.0288451
-1.38532e-10
0.00188148
0.0042932
0.0111273
-0.0774372
-0.0118686
0.0128978
0.0781289
-8.41249e-05
-7.69453e-10
1.12732e-213
-0.0705468
0.014086
-0.0106552
0.111929
0.0152293
0.0534957
0.0415866
0.172607
0.0124194
-0.0251702
0.00758611
-0.0323534
0.0661845
-0.0752773
-0.0474543
6.13102e-10
-0.122511
0.0399938
0.00516669
-0.0743403
-0.00721308
-0.0246143
-0.0465616
0.000801408
0.000179669
-9.7825e-322
0.0182172
-0.000204113
0.0923841
0.136255
0.0224059
-0.0222982
0
0.0748594
0.00242248
-0.114146
-0.212034
-0.000301781
-0.00201944
-0.0151741
0.0104168
1.3241e-321
-0.0146334
-3.74502e-11
-4.29083e-05
0.00790525
-0.00188714
0.021719
0.0201124
-4.60787e-11
0.0156196
0.00706481
-0.00526785
4.17227e-126
0.0258285
-0.0174472
-0.085181
0.0597902
-0.0952073
0.0662588
0
-0.0506522
0.165448
-0.0554524
-1.93571e-07
-4.7772e-131
-0.0594439
0.128774
-0.0195696
-0.0272112
-0.0178887
-0.00077631
0.00758611
0.0298418
-4.2221e-08
-3.26335e-08
0.0273627
0.026212
-0.0591761
0.0549704
-0.0247628
-1.07036e-09
-0.0597262
0.00442238
0.0314557
0.0894729
0.0448307
-0.0678846
0.00105483
-0.0239547
-0.0667011
0.0528444
0.011285
0.0147167
-7.61114e-11
-0.213889
0.0651859
-0.0366543
1.86111e-213
-0.0775385
-1.39366e-06
-0.0411997
-0.263592
-1.11706e-10
-0.00022731
-1.94168e-321
-0.0647464
-5.77174e-06
0.0240938
0.11366
0.000368624
-0.0114302
0.020152
0.156514
-4.43456e-129
0
-0.017809
-0.0159453
0.011285
0.00442238
-0.0233404
-9.7825e-322
-0.118436
-0.0344719
0.115245
0.0508555
-1.06182e-09
-2.34724e-05
0.0380039
0.19248
-5.49052e-08
-0.00558228
0.00442238
0.00587351
-0.0179907
0.00706481
0.0256536
-0.0493246
-0.00905437
-0.0598602
-0.0362965
-0.0658087
0.00390001
0.0159207
0
0.00769354
0.000135151
-9.41035e-14
0.017244
0
0.200172
-3.54983e-133
-0.0178887
-8.37841e-07
-0.0002307
-3.26335e-08
0.00442238
4.17227e-126
-0.0121684
-2.77643e-07
0.0338819
-0.0568574
0.0835469
0.0159207
-0.122487
-0.011448
0.0927532
-0.0633512
0.439822
-0.00554409
0.0104168
0.0782344
0.0461638
-4.82038e-10
-1.93571e-07
-1.15342e-06
0.0386413
0.000388576
0.00368169
9.92022e-05
0.0166408
-3.13278e-05
-0.0307884
-0.0185962
0.169195
4.12061e-05
-0.0104836
0.0696395
-3.51098e-07
-0.0164575
0.00553621
0.00217259
0.0442039
-1.78155e-08
0.0130541
0.0268283
0
0.0779257
0.00790525
-0.0406243
0.050352
-0.0772377
-0.0124465
0.0437417
-4.79307e-08
0.0767682
-0.0188541
0.00241411
0.00414966
0.242281
-0.00201944
-3.54054e-08
0.023238
-0.137154
-2.2368e-06
-0.0285324
-3.54054e-08
0
0.00105446
4.17227e-126
0.00238998
0.0469811
-0.0433275
0.0435116
-0.0179775
0.0903585
0.0683434
-0.00332735
0.00364264
-1.64601e-05
-0.0135874
0.0447426
-0.0660471
0.0880896
0.0474843
0.0345156
-1.20738e-07
0.00279208
-7.92086e-05
-0.154448
-1.43346e-05
0.000253266
-0.0371643
-0.0183592
0
0.00179766
0.0576512
0.00121881
0.00582136
-0.00022167
0.04535
-0.0587476
-0.0996224
0.0596081
0.109352
-0.0315164
-0.0492251
-0.0359911
0.111799
0.000875282
-0.0351965
0.0505429
0.000742607
0.029958
0.137892
-0.0981135
0.00842802
0.0247519
-0.0787697
0.040141
0.380375
-0.0126953
-0.0413495
0.0121239
0.0178357
0.00369588
0.00790525
-2.74082e-06
0.0116683
-0.0432079
0.0216144
0.0747535
-0.0476879
0.0535431
-0.00491049
0.0342203
0.000767771
-0.0341356
-0.0647464
-0.0214897
0
-0.0347941
0.0136852
0.0878305
-0.000182527
-0.0348171
0
-2.42563e-08
-0.0285858
0.0305314
0.0611872
-8.13611e-06
0.00706481
-7.27133e-05
1.52984
-0.0633008
0.222593
-0.080904
0.0764375
-1.5874e-06
-1.11216e-15
-0.0581632
0.00442238
-0.0575569
-2.31257e-10
-7.74731e-09
0.00208627
-0.00537201
0.375923
0.00598397
0.032472
-0.000126819
-0.0282524
0.0251867
0.00580235
0.0159207
-5.73524e-05
-0.0340439
0.0381317
-0.0818497
0.152267
0.00706481
0.0451865
0.00161389
-2.6104e-06
-0.101332
0
0.00489756
0.0767919
-0.0623143
-0.0234098
-0.0529419
-0.0351757
-0.0273541
0.0448307
0.0939496
0
-3.19482e-09
-9.41035e-14
0.0302668
1.42785e-321
0.0122902
-0.0487574
1.73911e-321
-3.76738e-05
0.00103083
-6.79844e-07
0.0396646
-0.158925
-0.0169162
0.0416971
1.86111e-213
0.162909
-0.0435772
-3.26335e-08
0.0104168
0.0949623
0.0025744
-0.127085
0.031812
-0.000116329
0.0818435
0.0528444
0.0104028
-5.81324e-05
-1.4164e-12
0.0110269
0.0104168
0.0909862
-0.0284764
0.0558947
-4.88649e-15
0.0321324
0.0086547
-0.114665
-0.0167833
0.0790175
0.0699803
0.0167303
0.0438374
-0.0234134
0.014086
-0.105037
0.000512148
0.0201546
-0.0366543
-0.00022731
-6.57107e-322
0.039325
-0.117421
-0.0587248
-0.0341183
-0.0300324
0.00334927
-5.13576e-08
-0.0241062
-0.0179775
0.0528591
-0.0148535
0.00598259
0.00631189
-3.26335e-08
0.067576
0.0156196
-0.021326
-1.56811e-06
0.0137103
0.0892748
0.00483615
0.0211353
-0.0241394
-0.0165413
-0.0555181
-0.0431224
-0.0695438
0.0854619
0.0814384
0.0640995
0.0287568
-0.0291359
1.58101e-321
-5.97819e-322
-0.0326947
-0.293352
-0.0259646
-0.0838242
0.00580235
1.3954e-05
-0.0144759
-0.0587179
0.0981232
0.0068127
0.0136246
0.0511807
-0.086172
-0.212411
0.00566744
0.0965603
0.00109774
-3.54983e-133
-0.057917
0.0156196
3.57742e-06
0.00368149
-0.0409208
0.000135151
0.0506378
0.0533847
0.0766121
-0.0175586
0.000873253
-0.0148867
0.00111991
-0.000301781
-0.0919978
0.0482776
-0.0632473
-0.0164575
-0.0173706
-0.0974367
-0.0114773
-4.41189e-06
-0.254386
0.00231727
-9.18962e-322
-0.0243281
0.156283
-0.030957
0.247407
0.0173318
0.208412
0.00263771
-0.0463947
0.0814541
0.020403
0.0086547
-0.0685951
-0.0240441
-1.20738e-07
0.0311831
0.109683
-1.22778e-11
-0.0486075
-0.0253951
-0.0366543
0.0280578
0.00470193
-6.57107e-322
-0.0207702
0.0161135
0.0584978
-2.19912e-15
0
0.021334
-1.69847e-05
0.0240938
0
-0.0900494
0.0232976
0.0141155
0.00706481
-0.0892621
0
-0.0474543
-9.35922e-09
-0.0407136
-5.62079e-05
-0.165093
0
0.0579662
-3.26593e-08
-1.1142e-09
-3.42442e-09
-3.08073e-07
-0.011075
0.113107
-0.0940288
-1.11269e-15
-1.93571e-07
-1.22778e-11
0.0806645
-3.80687e-07
-0.08033
-0.000220347
0.10356
0.0201546
-3.30506e-05
-0.0362905
-1.65625e-05
0.0110564
0.196219
0.106287
-0.14502
-3.46756e-08
-1.53731e-10
-3.26335e-08
-0.0470156
-0.0115879
0.0451538
-0.00332735
0.00402177
0.0505429
-8.23492e-09
0.119216
-0.0229927
0
-0.0433275
-9.18962e-322
-0.00993265
0.00491963
-1.93597e-07
-0.0466002
0.00408862
-0.00933851
0.0708103
-0.0182562
0.0139437
0.168327
0.0169418
0.00275814
0.0161243
-3.26335e-08
-1.56863e-05
-8.84378e-322
3.57742e-06
0.0593093
-0.00261611
0.0617165
-1.64494e-05
-0.0235334
0.258364
-0.0438242
-1.87699e-12
0.0472699
0.0692198
-0.0480999
-6.86751e-322
-0.000426988
-0.0185962
0.0434695
-0.0486075
0.082299
-8.31263e-09
0.0239515
-9.95633e-07
2.97737e-213
0.0265052
-0.0114773
-0.0455189
-0.0164575
0.0148276
-0.00465477
8.77335e-12
0.00368169
0.00845639
-0.000125711
-0.0883536
0.00286001
-0.0046622
0
0.00267789
-0.0853731
-0.00012174
-2.28322e-05
0.107489
0.0794427
-0.0899654
0.00217586
-2.58494e-11
0.0166613
-6.97033e-10
0.408322
0.0616246
0.0105565
-1.22778e-11
0.0419921
0.0542835
-0.0586904
0.0174791
-0.0589956
-0.00920727
-0.0830261
0.042838
-0.0164575
-1.71838e-05
-0.0275296
2.97737e-213
-2.18401e-08
0.0687631
0.00706481
-0.0778301
0.0762101
0.000512148
0.0529727
0.0489343
0.0166083
0.014086
0.0138439
0.0305099
-0.000235305
-0.00784726
-0.0486075
-6.97033e-10
-0.0391856
-0.089142
-3.81497e-15
-0.00261601
0.0373125
0.0448307
0.0114958
-4.7772e-131
-0.0251702
-0.0589834
-0.033877
-0.000191761
0
1.67535e-05
-5.48473e-05
0.00706481
0.0750874
0.0239522
0.0400888
-0.00352226
0.0149236
-0.0461449
-0.00817962
0.0120544
0.0185312
0.0337471
0.492546
-0.0570078
0.0106832
0.0902096
-0.0541547
0.019942
2.97737e-213
0.0234412
-0.0782811
-0.0183592
0.0381613
-0.101986
0.149979
-0.0148339
-0.0249873
0.0371395
0.0429218
-0.0138759
-0.0240615
0.00580235
-1.31894e-06
0.0172644
-3.19482e-09
0.020403
-0.000235305
-0.0984995
0.0913916
-0.0516131
-0.000181473
-8.38335e-05
1.58101e-321
-1.07618e-09
-3.95539e-05
-1.75325e-06
0.0193544
0.00516669
-7.72969e-05
0.0456959
-0.000106885
0.104157
-3.26335e-08
-0.00902409
-0.149839
-0.0151418
0.149983
-0.138612
0.0207911
0.156361
0.00621789
0.0434685
-3.21903e-09
0.00564769
-0.0241062
-0.000187583
-0.0426851
-7.91607e-05
1.3241e-321
-0.000126819
0.0804096
0.0581441
-2.29488e-06
0.00706481
0.140936
0.00692349
0.00706481
0.0661994
0
0.167532
0.0233829
0.00621789
-0.0528508
-0.356846
0
-1.07618e-09
-0.0174472
-9.01709e-05
-0.0744922
0.0292238
0.00580235
-3.37362e-07
0.022296
-0.0217094
0.0252945
0.00409447
0.0416991
0.0166083
-1.6638e-09
-0.0817603
-0.101435
-0.0965968
0.390322
-9.41035e-14
0.00442238
-0.0459983
0.0371395
0.0120775
-0.156529
0.0458324
-0.0030779
0.0229628
0.327501
-0.25234
-1.14445e-13
0
-0.038415
-0.0332236
-1.5239e-07
-0.0525006
-1.37237e-08
0.401365
0.0598229
-0.0479848
0.014086
-2.19617e-05
0.0409814
-0.122526
0.00707165
-0.0671455
0.00377108
0.586153
-0.0104836
0.0509029
-3.54983e-133
-0.062564
-0.0455189
0.38882
0.00181153
0.00566211
-0.332581
-0.0170025
-1.29018e-06
0.0659906
-3.26995e-05
-0.0438625
0.0420196
0
0.0562089
-0.0122714
-1.31894e-06
-0.027134
-2.33391e-05
0.014086
-0.161454
0.0135983
0.0328498
0.00631194
0.00981177
-1.37192e-07
0.0451073
-0.00994736
0.017244
-0.00558228
-0.0285324
-7.69453e-10
-0.0343987
-0.00229051
-3.92127e-08
-0.129933
0.0577196
0.0376777
-0.0247636
0.0574926
-0.0870262
-0.115989
-0.0283358
-0.0480999
0.069345
-0.0151194
0.0618659
0.152344
0.00270922
0.0696395
-0.00022731
0.0160215
0.00850728
-1.4164e-12
-0.0250942
0.0492976
0.219596
0.0380396
-0.0002307
0.0292358
0.0110269
0.00397937
-1.46047e-07
-2.07892e-132
0.00706481
-0.0152765
0.0712664
0.0442401
-0.00933826
-0.0245211
0.0753042
0
0.0472426
0.0422481
-2.1148e-06
-0.00423924
3.39157e-126
0.0312557
1.42785e-321
0.00483955
-7.72969e-05
0.0696395
0.0149236
0.0128302
-8.41249e-05
-8.99199e-322
0.011721
-0.0142192
0.00232316
0.00115787
-0.0179775
0
0.00483615
0.0397956
0.0160215
0.00368169
0.362222
-0.00502098
-0.0200501
0.0850697
0.0482378
0.0415866
-0.0284353
1.53887e-127
-0.0214897
-4.35173e-07
0.193005
-0.250357
0.011285
-0.0506522
-3.21903e-09
-2.33391e-05
0.521151
0.00631189
0.103416
-0.0133739
-1.43743e-09
-0.050514
0.0394517
-0.0587247
0.00117208
-4.43456e-129
-0.1458
1.23725e-223
0.00706481
0.185208
0.0626882
0.0764896
0.268732
0.00790525
-0.0104836
-0.127831
-0.0521266
0.0381317
0.0881236
-0.0305793
0.0404176
0.00580235
-0.000688902
0.00831756
-0.000191179
-0.00699226
0.012104
9.5664e-154
-2.42563e-08
-5.95773e-08
0.135205
0.00502641
-0.000181468
0.0391644
-0.0150533
-0.0148867
-0.0287752
0.000564555
-0.0269445
0.0156196
-4.7772e-131
0.196888
-2.33151e-05
-1.93571e-07
-0.0371035
-0.193933
-0.0123101
0.000816145
0.00231727
0.000816122
0.0396646
0.0166083
-0.0821764
0.0166083
0.011721
0.0494379
0.0219576
-0.0312381
-0.000195578
0.00706481
0.09056
0.0164451
-0.010651
-0.207551
0.013325
0.109796
0.00706481
0.00794695
0.211713
-3.08073e-07
-0.100575
-0.062564
0.011349
0.0832612
0.0291781
-0.050514
-0.0426512
0.0990758
6.18026e-06
-0.000997143
-3.54983e-133
-2.23734e-09
-1.61294e-05
-0.000174444
-0.0428236
0.0810814
0.0139088
4.48682e-05
-1.15342e-06
-0.0743403
0.0571346
0.0673105
-4.66581e-06
-0.17775
0.0389104
0.00440445
-0.0321261
0.0280578
-0.0979621
-0.0845
1.58101e-321
-3.37362e-07
-0.0224571
0.00183562
-0.000129516
-1.15342e-06
-1.14919e-13
0.0139476
0.0892711
-0.0703566
-0.246563
-3.1243e-10
-0.0509402
-0.000130473
0.0451917
-0.0152068
0.0506621
-5.07307e-05
-0.0686626
-0.0637983
-0.0917445
-0.106689
-3.42442e-09
0.000493501
-2.58494e-11
0.122809
0
0.0585111
-0.0027572
-0.322714
-0.0963603
-0.0414615
-0.0653273
0.0169418
0.000141155
0.0913977
0.020791
-2.83939e-10
-9.41035e-14
0.163415
-0.00558228
0.0140554
0.0654046
-0.0126942
0.0375326
-0.024669
0.00708649
0.0224059
0.0494532
9.5664e-154
-0.0129453
0.01106
0.00706481
-0.000235305
0.0485103
0.0673105
-2.35176e-05
0.0168671
-0.0258958
-0.0190936
0.085322
-3.92127e-08
0.0542835
-0.0165878
0.00115787
-0.000235305
-0.028605
-0.0380157
-0.125435
-0.0561999
-0.000119758
-3.545e-06
0.0441541
0.0302821
0.0385302
-0.00022731
0.184218
-0.00146438
-0.0301207
-0.00700158
-0.0249873
0.00183431
-0.0528372
0.0269449
0.0494532
0.00255976
0
-0.00230694
-4.88649e-15
0.0112849
-0.0582592
0.0691083
0.0749452
-0.00783936
-2.6104e-06
0.00706481
0.0385302
-0.0409814
-0.000191761
0.021719
0.0448567
-0.000213633
5.49999e-05
-0.040468
0.109129
0.113432
0.0395846
0.0041154
0
0.0116683
0.0456959
0.043762
0.282591
-0.105657
-4.60692e-14
-3.08073e-07
0.0732473
-0.0107888
-0.0103277
0.00227144
-1.06718e-321
0.0232976
0
-0.124233
0.0648932
-0.00729107
0.00567256
0.00566211
0.0161243
0.021719
0.0373555
-0.0349131
-0.0183339
-0.0183339
0.0914641
-2.58494e-11
0.115486
-0.0541762
-0.101347
-0.202583
-0.010651
0.0958312
-0.000142347
0.0101629
-0.0528372
-3.92127e-08
0.0200294
0.0386602
0.0237246
-0.113666
-0.00558228
0.029262
-0.0274767
0.00200327
-0.154039
0.00255976
-0.0047908
-0.0587247
-4.87001e-08
0.369809
0.114457
-3.97475e-05
1.57113e-321
-9.15682e-09
-1.22778e-11
-0.156257
-0.0214897
-0.227362
-0.0129342
-0.00721308
0.0913916
-0.0148339
0.0338819
0.00706481
0.0247817
0.00111991
-2.58494e-11
-8.41249e-05
-0.00650474
-0.0275296
0.0250574
0.0526071
0.0264823
0.00111049
0.0512446
0.016941
-0.00367747
-0.0404747
0.119626
0.173447
0.0618659
-0.0443048
0
-0.079715
-0.0452761
-0.107873
0.000689137
-0.0160544
-0.000228116
0.168101
0.00394764
0.0654046
-0.344031
0.014086
0.00188148
0.0616128
0.0913497
-0.0281993
-2.77643e-07
0.0104168
-0.0661306
-0.0853603
-0.0257998
4.69362e-322
-0.0648976
-0.0695438
-0.0151425
5.78202e-06
-1.53731e-10
-0.234531
-4.7838e-10
0.0806645
-3.22613e-206
4.17227e-126
-0.0221451
0.0436783
0.0302174
-0.0486888
0.0217746
-0.0246143
0.00929692
-0.0362811
-7.86829e-07
-0.010804
0.0823755
0.00580235
-0.157857
-0.0914894
0.0373304
-0.000663041
0.127241
0.0224116
-6.57107e-322
-3.21903e-09
0.0993622
-0.0439267
-0.063804
-1.39403e-06
-0.0259646
0.0487635
-0.00631318
-0.0183592
0.0086547
-0.194228
0.0291781
-3.42442e-09
0.000736384
0.0448307
0.00367745
-0.0392474
0.026212
0
-2.31257e-10
0.00622091
0.089633
0.0381317
0.0266036
1.14539e-225
-0.0980296
0
0.128581
0.0893639
-1.37237e-08
0.0908615
-0.0600686
-0.0142173
0.00407428
0.00967965
0.0760118
-2.87361e-10
-3.26335e-08
0.0705261
-0.0289085
-0.0241062
-4.7772e-131
-0.126562
0.0874259
0.124606
-0.000384704
-1.22778e-11
-2.33391e-05
0.000859257
-1.11269e-15
-0.000130473
-0.0326115
0.288017
-0.0182562
0.00386375
-0.0591761
0.0105541
-0.221389
-0.0314186
-0.0056381
-8.47492e-07
-0.0113247
0.0216734
0.00768682
0.00699698
0.00164529
0
-0.0065036
-0.000211011
-3.69917e-05
0.00440445
0.146339
0.0696395
-0.0252018
0.0104168
-0.00905437
6.84445e-05
-0.00993265
0.0105565
3.20834e-05
-3.37362e-07
0.212494
-0.000248163
-2.51724e-06
-3.21903e-09
0.0394517
-1.29018e-06
0.00115787
-2.29488e-06
-0.0450228
0.0459022
0.0110707
-0.00349165
0.00440918
-7.69453e-10
0.0276472
1.12732e-213
-0.056881
0.0490982
-4.60692e-14
-3.545e-06
0.0493138
0.0509563
0.208873
-0.0474543
0.0349093
-3.26335e-08
-0.0241062
0.0298418
-1.40067e-05
-3.545e-06
0.0542462
-1.08694e-321
-0.0536186
-2.83939e-10
-0.0164575
1.53887e-127
-0.096522
0.320075
-0.0893085
-2.22687e-12
-0.0104836
0.01106
-0.131855
-0.0120983
0.000816145
-0.0123214
-4.02456e-07
-3.81497e-15
0.00219131
-0.0183621
0.144014
0.000736384
0.00706481
1.73911e-321
-0.0343389
0.0234412
0.0391644
-0.142127
0.0250766
0.0451865
-5.44132e-05
0.0086547
4.46702e-05
-7.86829e-07
-0.0299743
-0.0828655
-0.0127443
-3.95539e-05
-1.9198e-05
-0.211095
-0.0174472
0.0234412
0.245919
-5.73524e-05
0.0341728
0.00609694
-0.0227981
-0.0250942
-0.0151194
0.0294542
-0.0199353
-0.250693
0.124153
0.0106833
0.285675
0.0170484
-0.000109282
0.0168671
-0.0924685
0.0441541
-0.12618
-0.0532654
-0.206932
1.35703e-225
0.0540338
-0.0701617
-3.26992e-05
-0.00586747
-1.93647e-07
1.74233e-05
-0.0474156
0.00706481
4.69362e-322
4.11677e-06
0.132203
0.0467029
-3.5456e-06
0.0787482
-0.0336452
0.0913896
-4.43456e-129
-0.0890135
0
0.132297
0.00111991
-1.33758e-07
-0.0251061
-2.56925e-06
-0.013799
0.0569288
0.0234412
-1.69847e-05
0.00867718
-2.77643e-07
-0.0399277
0.000689137
-1.5239e-07
0
-1.00343e-07
5.38206e-08
-4.63431e-05
0.0939496
-0.0252408
0.00150995
0.0201546
-0.00930675
0.00414966
-8.23229e-10
-0.0513105
0.00566211
0.128102
-0.0182562
-0.0131426
-0.000220659
-0.143899
0.00706481
0.106735
-9.35922e-09
0.00643286
1.66006e-321
-2.1148e-06
0.225492
-0.00656431
-0.000119915
0.276343
0.0294444
0.0183754
-0.0616563
-5.62079e-05
0.0216697
0.014086
-1.93571e-07
0.0693692
0.0528284
0.0908167
0.0202514
-0.0178887
0.0763835
-7.95966e-05
0.014086
0.00424718
-3.22613e-206
-0.00631318
0.0666117
-7.69453e-10
-4.40064e-05
0.0662543
0.0101652
-2.06824e-14
0.0552383
-0.000235401
-9.31536e-06
-8.8577e-09
0.0938773
-0.016461
-1.40067e-05
0.0441541
0.00967965
0.00231727
0.0562089
0.0300247
3.39157e-126
-0.0183592
0.0730779
-0.0366184
-0.0172868
-0.123581
-0.0509402
-0.00312372
0.00706481
-0.00010275
0
-0.127085
-2.63528e-192
-0.0453831
-0.0332236
-0.0585376
-0.042317
0
-0.0145541
-0.0613317
0.0147167
-1.93571e-07
2.22942e-164
0.0232596
-0.0319101
0.0327579
-0.070438
-0.0183276
0.0623974
-0.0713512
-0.0101371
-0.00533546
0.0701742
-1.11269e-15
-0.0600048
-0.0533711
0.0288735
0.0121268
0.0813065
-0.0207702
-5.31817e-05
0.0213665
-5.13576e-08
0.173866
0.0437058
-0.010651
-0.000235372
0.00742672
0.218527
-0.00817927
0.00631189
0.0827532
-0.0513484
-6.04604e-06
0.00405592
0.0344914
5.63036e-08
-0.0381026
-1.74218e-06
-1.90047e-11
0.0120461
-3.06906e-05
0.0941435
0.00107381
-0.121012
0.103416
-1.9198e-05
0.0243596
0.0149236
0
-2.6027e-11
0.00284602
0
1.66006e-321
-0.0336452
0.0505422
-3.26335e-08
-1.5874e-06
-1.23027e-14
-0.0346715
-0.0174383
0.188296
0.00140226
-0.0498854
0.135292
-0.0066153
0.000762577
0.0121147
0.0105565
-0.0271119
0.0389727
0.0183119
0.00200327
-0.0783125
-0.00875461
-0.0757173
0
0.0905963
0.0013623
0.00516669
0.0294542
-0.112457
-0.000130473
-8.41249e-05
-8.59986e-08
-0.0945377
-0.169886
0.00706481
-2.63528e-192
-0.0404736
0.145113
-0.12833
0.035786
0.0341728
0.0237992
-0.0423723
-0.114846
-2.1148e-06
0.0228057
0.00397158
0.00242267
-0.0607952
0.0336195
-0.000247153
-0.126703
0.00279208
9.66924e-06
0.0344914
-1.11706e-10
0.0268283
-0.0474492
0.131792
-9.31536e-06
0.000366685
1.57113e-321
-0.0411901
-0.0569265
-7.35344e-05
-0.0366543
0.00706481
-0.0246143
-0.00023385
-0.0497492
-0.126231
-0.0319079
-0.0454786
0.0441541
0
-3.01276e-07
-0.020134
-0.00784749
-0.0349131
0.0704619
-0.337015
0.0634528
-0.0906053
0.099086
-0.0538033
0.00631189
0.1902
0.0508731
-0.043861
0.0169418
-0.00933826
-0.0327822
0.0058516
0.0268283
1.68475e-05
-0.0586613
0.00212169
-3.88216e-05
-3.21903e-09
0.0277072
-0.0392474
-0.0063897
-0.0127469
-4.82038e-10
-0.00022731
-0.053706
0.00397177
-3.03541e-06
-0.0253191
-0.0122341
-7.69453e-10
0.175779
0.0344914
0.0201546
-1.65625e-05
0.0114717
0.0211353
-0.0122448
-0.0259137
0.0697559
0.0212855
0
0
0.050222
-3.26335e-08
0.0077531
0.000257855
0.0930867
-0.0101371
0.00947882
-0.032043
-2.56925e-06
0.0360833
-0.0867877
-0.000215771
-3.21903e-09
-0.0207702
-0.000239988
0.0216697
0.305542
-1.53731e-10
-0.11165
0.238375
0.269138
0.0509563
-0.00875461
0.00433608
0.035786
0.0294542
-0.0634583
-1.86565e-05
-0.00946495
0.0139845
-0.077043
-5.48473e-05
0.0171651
0.00105483
-6.88155e-08
-0.0619388
-8.50765e-10
-5.49052e-08
0.00105484
-1.11528e-07
-0.123068
0.07046
-5.48473e-05
-0.00558228
-0.121584
-8.38335e-05
0.00338098
-0.0122714
6.13102e-10
-0.0423485
-2.18567e-06
0.0120775
-1.38532e-10
-0.023775
-3.32135e-05
-1.22778e-11
0.039053
0.103926
0.000294394
0.00631547
-0.115042
-9.35922e-09
-0.0255519
-8.38335e-05
-0.0206873
0.00197425
-3.42655e-05
2.31981e-213
0.175111
-1.93571e-07
0.0708203
-0.00622411
-0.0293665
-0.0197689
0.00483615
-0.168969
0.0493138
0.0150096
-0.010651
5.63587e-08
-0.0185962
0.0196142
-2.1148e-06
0.035382
-0.0265451
-4.7772e-131
-0.0199353
0.0441541
-0.0114393
0
-0.0256104
-0.00611506
9.5664e-154
0.00706481
0.183151
0
-0.0178887
-0.0346083
-0.016589
0
0
0
-2.42563e-08
-4.60692e-14
-4.2221e-08
0.113552
0.0327655
-3.22613e-206
0.00168637
-3.29851e-14
-2.07892e-132
0.114452
0.0436699
-0.0123251
0.0783078
0.0765865
-3.4527e-08
-5.44132e-05
-0.26398
-1.21046e-321
-3.32515e-05
0.0224059
-1.87699e-12
-3.08073e-07
-0.0002307
-3.08073e-07
0.0166919
-0.55308
-2.1148e-06
0.179442
-0.0545378
-0.0589956
-9.35922e-09
-0.00263675
0.0173835
-0.0826329
0.019472
0.705105
0.0235309
-0.0883536
0
-1.11216e-15
0.224096
-0.13541
0.0207911
-0.0259646
0.0124194
-0.029587
0.0128302
0.0686097
0.0126727
0.0396646
-0.0129796
-0.0244199
0.027519
0.00150995
-4.41189e-06
-0.0066153
-2.09744e-11
0.00706481
0.00227144
9.92022e-05
-1.69847e-05
6.57867e-05
-0.0781453
0.0256443
0.0371395
-9.8183e-05
0.0377217
0.0207911
0.0900147
-0.0248936
-0.0146933
2.22942e-164
-8.54777e-07
-0.0240615
0.00242267
-0.00547916
-0.0248171
-0.0489126
-0.0169855
0.00805379
0.0344914
-0.009904
-0.0894074
-9.41035e-14
0.0542835
0.0256536
-8.38335e-05
0.0302328
0.0135983
0.0097143
-0.00690808
0.00111046
0.0299313
0.0396165
0.0517652
-0.0124342
-0.0597757
0.302344
-1.22778e-11
-7.69453e-10
-0.114292
-9.82388e-08
-0.00328107
0.000655439
0.156816
-0.0797623
0.0220235
-0.000235305
-2.07892e-132
3.49655e-127
0.0341728
-0.0322497
0.0723491
-5.95067e-10
-0.0366565
0.0371395
-0.0883536
-2.07892e-132
-4.74349e-06
0
-0.0976362
-0.0754368
-0.0605096
-2.23734e-09
0.014086
-7.91639e-05
-0.0924267
0
-8.38335e-05
-0.0905119
-0.0695438
0.0108598
0.0106833
-0.0657429
0.00706481
-1.11601e-07
-9.31536e-06
-0.0122714
0.0840565
2.47143e-05
0.0157309
0.0312208
0.0355943
-0.0106621
-1.93571e-07
0.000274318
0.0120775
0.0140699
-0.0499
0.0992311
-0.010651
-1.99143e-12
-0.033877
0.0166919
-3.22613e-206
-0.0234098
0.112892
-9.57512e-05
0.00326114
-6.97033e-10
0.0109877
-1.93571e-07
-0.0865143
0.012061
-0.0516131
0.000512148
0
0.0110269
-1.38532e-10
-0.290038
0.044433
-4.43456e-129
-0.166029
0.0315636
0.151732
0.0286242
0.0975865
0.014086
-2.87361e-10
-0.075746
-3.26431e-08
0.000882135
-1.07618e-09
-4.60692e-14
0.142158
-8.23492e-09
-0.115042
-2.2949e-06
-0.0292163
4.69362e-322
-0.0675961
0
0.00716886
-0.0214897
-0.0199353
0.00706481
0.00105484
0.0170293
-2.23734e-09
-0.0275359
0.00805379
-2.58494e-11
-0.000247153
-0.0340971
0.0104168
-5.95773e-08
0.0357283
-0.0354355
-0.115042
0.0240938
-1.10177e-321
-0.0269445
0.014086
0.0923452
-0.00680573
-0.0240727
-0.0930014
0.0160375
-0.000153221
0.029262
0.00483615
-1.32094e-07
-7.74731e-09
0.177492
1.68475e-05
-0.00557356
0.0228057
0.00232316
0.0175341
-0.0075878
-0.00665275
0
0.050607
1.66006e-321
-0.0794373
-0.116458
-1.32094e-07
0.173386
-0.058759
-6.86751e-322
-0.179327
-0.000174868
0.0855394
-7.74731e-09
0.0801838
-2.18401e-08
-0.00930675
-0.0113084
-0.201233
0.0210085
-0.0387787
-0.000331013
0.0365446
-3.21903e-09
-0.0903797
-2.58494e-11
-1.93571e-07
0.0232
0
-3.21903e-09
0.0839483
0.00706481
0.00706481
-0.0550114
0.158141
-2.31257e-10
-0.0998128
-3.17677e-05
0.0298418
-6.95947e-203
0.0496098
-0.127039
-0.0201355
0.0020003
0.000875596
-9.35922e-09
-0.0065036
-0.179155
0.0411418
0.0264978
0.00339111
-7.88742e-05
0.00818939
-0.0695438
0.021501
0.0664435
-0.0610054
-0.000301781
-0.00699226
0.0434777
-0.0742284
-0.00930675
0.00117208
0.0344797
0.0661377
-0.0474543
0.166173
-0.148009
-0.0286269
0.00380633
0.00554772
-0.00105226
4.69362e-322
0.0366799
-0.0319175
0.164888
0.248271
-0.0705828
-0.000235305
-0.00993265
-0.0759253
0.00971436
0.0533888
0.029262
-1.43743e-09
-0.17975
0.0223915
0.0285006
-0.0234363
-0.000235305
0.10356
-1.24548e-09
0.368743
-0.0828543
0.0558368
0.0309458
0.0375671
-0.0501709
-0.0271214
0.101052
0.185645
-0.0815891
-0.00930675
-1.2902e-06
0.112715
-0.173755
0.0723053
4.69362e-322
0.114512
0.139796
0.019472
0.0144171
-1.38532e-10
-0.140937
-1.65625e-05
-0.0517926
-0.0455189
0.0686784
0.0960483
-0.000392495
-0.144389
0.00373339
0.00183562
0.0458068
0.00615439
0.0387919
0
0.0161135
-0.00969962
0.000294394
0.0152394
-0.0654155
0.0228057
-1.90047e-11
0.0318228
0.000512148
-7.88742e-05
0.017244
0.0149234
-0.000159918
0
-0.0104836
0.00242267
-0.0307164
0.0533888
-2.07508e-322
-2.6104e-06
-0.00946495
5.70591e-08
0.011285
-1.65625e-05
-2.40385e-08
0.00748937
-0.102052
0.017244
0.00684446
-9.35922e-09
-0.0181636
0.116067
0.0396646
-0.000174444
-0.0794374
-2.6104e-06
0.0571346
-5.15032e-06
-0.145708
-0.168234
0
0.0211189
0.00483615
0
0.114641
0.0497957
0.212048
-0.0198279
-0.0826329
0.00483615
3.57742e-06
0.000605456
0.039325
0.0396646
0.282797
-0.0607952
-0.0924625
-0.0148867
-0.0485272
-0.0413824
-0.00010275
-0.0322497
-0.0145699
-0.0622161
1.01229e-05
0.00442238
0.0939496
0.0327184
0.0458497
-2.83939e-10
0.0259159
0.00105484
0.054694
-0.0266448
-0.0617711
-4.60692e-14
-0.0336769
-0.102025
-3.58159e-05
-0.10258
-1.53731e-10
0.00706481
0.000512148
-0.0528372
0.0484757
-2.6027e-11
0.145106
-0.0156759
0.106593
0.0161933
0.187938
-3.26335e-08
0.191417
0.144208
0.00576544
-0.00358939
0.0311421
-0.00558228
0.00929692
0.00348979
-0.00784726
0.176527
-3.19482e-09
-1.37237e-08
-0.00449534
-4.88649e-15
0.0077531
0.00384419
-0.0178887
-0.0406939
-0.0718981
-0.0258408
-0.0725277
-1.74483e-05
-0.339851
-1.5055e-08
-0.0428236
0.00134467
-0.000235305
0.00566211
0.0379231
-9.41035e-14
-1.23027e-14
-1.58595e-321
0.0587112
-0.14283
0.0205223
0.0106287
-0.259851
4.69362e-322
0.0203313
0.0309127
0.014086
-0.0322317
0.0479519
0.0279906
0.0101652
-0.0320547
-0.0755268
0.0402212
0.0528442
0.039495
0.026212
0.128023
-0.029322
0.00442238
0.000141155
0.014086
0.0542835
-1.98535e-12
0.0108667
0.014086
-9.57512e-05
-9.31536e-06
-3.92127e-08
0.000178955
0.454348
0.0110269
0.00397937
-0.0224288
0.0933377
-0.142625
-3.92127e-08
0.0197103
-0.0585005
-0.0114738
0.0798175
0.0266829
0.026646
0.0441937
0.0418987
-0.050039
-2.83939e-10
0.355822
-0.000143031
-0.0177162
-0.0764204
-7.61114e-11
0.0423943
-0.00204296
-9.7825e-322
-0.0849691
-0.000125747
0.00409447
0.0533888
0.0972288
0.0140256
-3.4475e-10
0.0931386
0.00241411
0.241197
-0.00945397
-3.25575e-05
0.0607325
-1.23516e-322
0.0512659
0
5.63797e-08
0.0243739
-0.0204001
-0.129645
0.00417063
-9.41035e-14
0.0392402
0.0344914
-0.314822
0.220615
0.21386
-0.0215143
-0.0921435
0.00385127
0.00442238
0.0311831
-0.0276084
-1.31894e-06
0.0201546
0.10356
0.380103
-0.115042
0.13039
-1.65625e-05
-0.0757281
0.00857086
0.0340583
0.0177666
-2.6027e-11
5.63797e-08
-0.0396322
0.00706481
0.0114922
-0.143057
1.01229e-05
-0.0633629
0.00706481
0.00255976
-3.26335e-08
-0.00661743
-0.0843503
0.144014
-0.0104633
-0.00662642
0.00706481
0.134473
0.125341
0.00874453
-0.0930093
-0.0591761
0.019924
-0.000195578
-0.0590804
-0.00512081
-5.44132e-05
0.0110269
0.145136
6.84068e-06
-0.0123402
-9.41035e-14
0.0415372
0.000688786
-0.00571039
-0.12558
0.000493501
-4.88649e-15
0.0748594
-0.0353111
-2.58494e-11
0.0436699
0.0396049
0.0199502
0.000493501
0.0386138
-3.26335e-08
0.00461772
0.00706481
0.0285006
0.00586112
-0.0486075
0.000509029
0
-8.37841e-07
-0.0584109
-0.0589956
0.0135017
0.0578841
0.0166083
0.00183431
-0.0164575
-1.7616e-07
0.00516669
0.0227677
0.0952563
-9.57512e-05
-0.0152477
0.162188
-0.00135753
-4.7772e-131
0.0239515
0.0559829
0.0591146
-0.000248598
0.0237638
-6.81281e-07
-0.033639
0.00706481
-4.7838e-10
0.0505662
0.0597714
0.00696724
0.0105541
0.0187319
4.69362e-322
-0.000840289
-0.0457635
-0.0404406
0.00580235
0.0964663
0.0353699
0.00442238
-0.20378
-3.54983e-133
-0.00332555
-1.15342e-06
-0.053195
-0.0285324
1.02365e-224
0.00284605
-1.69847e-05
0.00516669
-0.11814
0.0042932
-0.010651
0.00442238
-0.000182527
-0.015238
-2.33151e-05
-0.426944
2.19365e-321
-0.0791028
-9.18962e-322
0.00631189
0.00706481
-0.149791
-5.76569e-07
-0.000105429
-0.0895894
-0.000225536
0.141355
-0.080836
-0.181073
0.067402
-2.60866e-12
-2.18567e-06
-0.0182562
0.0105541
-1.93571e-07
0.154455
5.3244e-06
0.0192234
-9.95633e-07
-2.07892e-132
0.0254776
0.0923841
0.107567
0.0827123
0.118847
0.00428859
0.00442238
0.00232316
-0.000908866
0.00397177
0.0414111
-0.162458
-0.00593074
-2.83939e-10
0
0.0234412
-6.95947e-203
0.0207911
0.0213665
0.0234412
-0.050514
0.0640572
0.381619
-0.0355986
0.0656476
0.00709818
-1.07618e-09
-0.0587248
0.0310782
-1.93571e-07
-0.126565
0.00483615
-2.07892e-132
0.0723668
0.101963
-1.26738e-05
0.00706481
-0.00721308
0.00111991
-0.0980296
0.0234412
0.354368
1.14539e-225
0.563919
0.00263651
0.0970886
-0.0414479
-3.26431e-08
-0.10341
0.00241411
-0.00622915
-1.70156e-05
0.0543831
-0.0214897
0.0161243
-0.00325041
0.09382
-9.35922e-09
-0.114489
0.158674
-0.0536116
0.0259943
0.032472
-0.0758049
0.00111991
-0.0362811
0.0856222
-8.47492e-07
-0.0143534
-0.0599051
-1.43058e-11
-1.2416e-09
9.51162e-214
0.0973794
9.5664e-154
-3.22613e-206
0.035786
0.0602672
-0.0493246
0.135768
0.142983
0.00627282
0
2.73665e-05
-2.87361e-10
0.0709353
-3.03541e-06
0.236349
0.0266983
0.0832042
-5.58251e-05
0.00114605
0.0140185
-5.99939e-05
-2.58494e-11
-1.93571e-07
0.0590339
-2.80071e-09
0.00442238
-0.100248
-0.0247628
-2.21744e-06
0.0220184
-3.71128e-05
-2.09744e-11
-0.0207048
0.111399
-0.0165051
-0.117434
0.00630079
0.0126727
-0.0246143
0.0892718
-7.69453e-10
-0.00699226
0.00442238
0.018605
0.00207241
0.02619
-3.81497e-15
0.0755974
-0.110237
0
0
-5.77174e-06
-7.69453e-10
-0.107933
0.102534
-0.0285324
-6.5773e-06
-0.0489141
0.0451865
0.000669534
-0.00631318
-7.69453e-10
0.000408782
0.231335
-2.6104e-06
-0.366567
0.104519
0.0311918
0.0881056
-0.0269445
-0.00800523
0.0434317
-0.0381114
0.00790525
-0.0065036
-0.0634083
-8.89377e-07
-8.68513e-05
0.0184155
0.0202105
0.000868753
-0.137154
0.0621039
0.0927702
-0.000105429
0.0369421
0.0375124
0.188932
0.0637903
-0.0261999
-0.0234341
-6.04604e-06
-4.60692e-14
1.42785e-321
0.00706481
-0.124805
-0.105784
0.0166083
0.0126727
0.00790525
-0.414496
-5.44132e-05
0.0105565
-1.71838e-05
-0.00699382
0.0685697
0.0262473
-0.00420577
-0.0570032
0.287949
0.000551702
0.00706481
0.0980395
0.0291611
0.0105565
0.00442238
-0.0488433
-0.0908508
-0.029521
-2.83939e-10
-2.07892e-132
0.073692
-0.0182562
0.00162689
-5.99939e-05
0.00968463
0.0453345
-0.0164575
-0.306786
-1.1142e-09
0.0279906
0.000882135
-9.15682e-09
-0.204009
0.135205
-3.21903e-09
-0.0987437
0.103206
-0.146791
-0.0129953
0.00706481
-2.58494e-11
-0.116577
-1.06718e-321
0.00440445
-0.0251061
0.0380075
0.254542
0.240798
0.240798
0.101319
0.0242258
0.418661
0.00255976
0.0449491
-0.017243
0.00706481
0.0126727
0.00117208
0.00706481
0.014086
-0.0233662
0.0092054
0.0168671
0.00408862
-9.95633e-07
0.000866368
0
-0.190789
-0.0271119
0.140476
-9.18962e-322
-0.00923958
-0.0553139
0.0104227
0.0764456
-3.37362e-07
-0.0178935
-0.010794
-0.000159918
0.00442238
-0.0246283
-0.0207639
-3.4475e-10
0.127706
0.00706481
-0.00979885
-0.0526204
-0.0844991
0.490937
0.00123748
-0.000174444
-0.0653273
0.211819
0.0318654
-0.0330941
0.306347
-0.0198768
-0.00558228
0
-0.11295
4.17227e-126
0.174183
1.42785e-321
0.0598229
0
0.195763
0.0322134
0.000561296
-2.09744e-11
9.5664e-154
-0.00319518
-0.041936
0.0250148
-1.5239e-07
-1.00343e-07
-0.0475176
-0.000125711
0.0689404
-0.0258258
-0.000211011
-1.88445e-05
0.0435116
0.054041
-2.07892e-132
0.000510406
-0.00558228
4.57749e-08
0.00183562
0.0337471
0.0173835
-7.69453e-10
-2.1148e-06
4.46702e-05
0.0217308
-0.0116044
0.00706481
0.0542835
0.03521
2.29878e-05
0
-0.0899942
0.00184631
-0.157296
-0.0251702
-0.00153394
0.0192012
0.162939
0.0422709
-2.43124e-06
-0.000305745
-1.22778e-11
0.0888275
-0.0111431
0.0117963
-0.351681
-5.31832e-05
-0.0721324
-6.91692e-322
0.0850697
1.86111e-213
0.000669534
0.0237102
0.0493254
-0.00930675
-0.0110085
0.0526023
0.033591
-0.0913769
0.0140699
0
-3.26335e-08
-0.0664258
0.0161243
-0.114063
0.0097143
9.5664e-154
-0.0680954
-0.0516212
-0.0520172
1.46214e-05
-0.0353436
-0.0671349
-0.0245352
-1.38532e-10
0.147305
-2.40385e-08
-0.0543561
0.0277339
0.0254281
-0.0681093
-3.51098e-07
0.0341247
-0.000235305
-0.0589631
-0.0148867
0.0201546
0.00706481
-2.09182e-05
0.125599
-7.69453e-10
0.0189482
0.0104168
0.0553085
-0.000247153
0.161046
-0.0430907
0.00706481
-0.0355455
0.216335
-0.0179775
-7.69453e-10
-0.0281087
-0.018257
0.0135998
-0.0573932
0.0437191
0.172164
-3.81784e-05
0.0240135
-0.000235305
0.139497
-0.0412654
0.00471491
0.0365799
0.0344914
0.128242
-0.0815492
0.160658
0.0396646
1.86111e-213
-0.0646013
-0.0148867
0.0470576
-0.0948048
-6.97262e-05
1.73911e-321
0.00255972
-2.36257e-08
0.0414595
-0.0281547
0.00241411
-0.0452522
0.0238431
0.0673105
-5.31817e-05
0.0116632
-5.44132e-05
-1.71838e-05
-0.0947709
-0.0717686
0.072409
0.0795818
-3.25575e-05
0.0441937
0.1664
0.00848801
0.0753722
-0.00661661
0.0277074
-0.0285812
0.00414966
0.0821426
-3.22613e-206
0.0127256
-0.017264
0.0361831
0
-0.080707
-0.000125747
-0.0154475
-0.0483478
0.0455153
1.14539e-225
-2.58494e-11
0.00706481
0.0252527
-9.35922e-09
0.0104168
-0.0551026
-0.0210428
0.0247112
0.00442238
0.0236418
-0.0379566
-0.0207702
-0.0567305
-0.0333737
0.0830409
-2.6027e-11
-0.000204113
0.00156707
0.0179969
-0.000541769
0
0.0657659
-0.010651
0.0441725
0.0105541
0.0190523
-0.00699226
-1.90047e-11
-5.44132e-05
-0.000301781
-1.63716e-05
0.0195378
0.0374316
0.216519
0.0295079
-1.10177e-321
0.165213
0.000657614
-0.000220347
0.0169418
-0.0710481
0.113568
0.00483615
0.0300261
0.0224059
-0.0269445
0.011721
-3.22613e-206
0.0383383
0
0.102278
-0.000160265
0.0267673
-5.95067e-10
-0.0002307
-0.0187011
0.123193
-0.0730146
-0.0647464
-0.0351634
-0.0215743
-0.325435
0.00369588
5.63797e-08
0.00442238
0.126017
-0.0312933
-0.0246868
-0.0105513
-0.0642519
-0.00932919
-2.1148e-06
0.0572352
-0.00420577
0.014086
0.00397177
-0.014135
-0.0506187
-0.0259646
0.125599
0.176567
-1.68228e-09
-0.00860323
-3.54983e-133
0.0597714
-0.0605096
0.000448892
0.0273336
-2.40385e-08
-0.0148339
-0.0443434
0.13497
-0.0138253
0.00706481
-0.0288451
-0.00479265
-2.42563e-08
0
-0.0194148
0.0395846
0.104259
0.00181153
0.00115787
-0.0505724
0.0286289
-0.0881588
-0.198369
0.103577
0.0124194
0.00582136
0.0344914
-0.00558228
-0.0430184
-1.06718e-321
-0.00631318
-0.0826329
0.00576668
0.00976597
-0.0274486
0
-0.0956146
0.0136039
-1.98535e-12
0.0673105
0.00111991
-3.11904e-06
0
-0.047961
-0.0631384
-0.0164575
0.156563
-2.58494e-11
-1.32094e-07
-0.0164575
-0.00974883
0.11152
4.69362e-322
5.63797e-08
-0.0457354
5.49999e-05
-0.0950673
0.00190627
-0.000191761
-0.0002307
-9.35922e-09
-0.0399277
-0.0275483
-0.00012174
0.0143885
-0.0468547
-0.0269815
0.00429291
0.0097143
0.021739
0.0448307
0.0448307
0.0637602
-3.92127e-08
0
-0.00384755
0.0201546
-0.0320286
-0.0251061
6.84445e-05
0.0670363
-2.61346e-09
-0.0136701
-5.6182e-05
-0.205056
0.00442238
0.0284998
-0.00930588
-0.0214052
0.00126529
-0.0525983
-0.0179775
0.0140554
-0.00261601
-0.143659
0.00631189
0.0147167
0.00706481
-7.88458e-10
-0.0345805
0.00367008
-2.40385e-08
0.0572806
-3.21903e-09
0.0474663
-0.129059
-5.48473e-05
0.0306305
-0.0423211
-0.00729107
-0.0423722
1.23725e-223
0.00102936
0.233937
-8.41249e-05
0.00706481
-1.76797e-05
-0.0414383
-0.0544632
0.226599
0.00706481
0.0270295
-0.132729
-0.0115845
-0.0154475
-0.00579329
-0.0207702
-0.000312755
0.0294444
-1.11216e-15
0.0549579
0.00706481
-0.0388478
-1.73911e-321
0.00706481
0.0295079
0.00156395
-4.82038e-10
-0.0623143
-0.0791221
0.00190627
0.0429218
-9.84105e-13
0
-0.0276199
0.00083668
-0.123829
-0.11828
0
2.97737e-213
-0.00558228
0
-0.000116403
-0.0625657
0
-0.0465781
0.00255976
-0.000235305
0.00706481
0.00239341
0
0.0353409
0.00359345
-2.33797e-06
0.177492
-0.00197378
-9.41035e-14
-0.13921
-0.00729107
-3.06906e-05
-9.35922e-09
1.42785e-321
0.00483615
0.0662588
0.0193703
1.35703e-225
0.042645
-9.8183e-05
-0.00784942
-2.84014e-07
0.00397098
-2.31257e-10
-0.0804613
-0.0927389
0.0458068
-0.0725339
0.128026
1.67535e-05
-4.60787e-11
-0.00674904
0.00241411
0.459151
0.0697646
0.00442238
0.00621789
-0.00950312
0.253063
0.026386
-0.0104836
0.0217308
0.0456642
9.16519e-05
0.00566211
1.3241e-321
-0.0234098
-0.121028
0.0800909
-8.59986e-08
0.00790525
0.00706481
0.00117208
-0.0613317
0.0855394
-2.53049e-06
-5.58294e-322
0.130159
-3.21903e-09
0.0957592
8.77335e-12
-2.31257e-10
0.014086
-1.06718e-321
0.0236699
0.173486
0.0217308
-0.00250311
0.0418322
-4.49216e-06
0.0128302
0.000246375
2.23961e-05
-7.69453e-10
-3.26431e-08
0.0850972
-0.0770308
0.0536477
1.91472e-07
-6.97033e-10
-4.2221e-08
0.0448307
0.177492
-1.93571e-07
-5.58251e-05
0.0508731
0.00706481
-2.58494e-11
0.0133603
0
0.388865
0.00758611
0.0474663
0.0249421
-0.0692914
5.63797e-08
0.209397
-1.44749e-07
-0.0771239
-3.46756e-08
-1.84459e-06
0.0209929
-0.0396492
-0.00312544
-0.171663
-2.40385e-08
-0.0348816
0
0.00160241
-0.0664247
-2.60866e-12
-0.0453089
-1.93571e-07
0.0781314
0.159874
0.0120775
0.102815
0.00706481
-0.120228
-0.000181537
0.00219131
0.011721
-9.18962e-322
0.0979807
-0.000312755
0.301651
0.0171177
-0.0976543
-3.21903e-09
-0.0047417
-0.0493435
0.0542835
0.0120775
-0.000130473
0.0169418
-2.58494e-11
0.0112822
-0.0672352
-0.0785276
-4.48233e-129
-0.245461
0.135321
0.00516669
0.64591
-2.58494e-11
0.0418987
0.00105484
-2.53049e-06
-0.00201944
-3.80687e-07
0.0121268
0.0030069
-0.111742
-0.000109539
-0.00839505
0.111341
0.0566852
-1.70156e-05
-0.0399277
-0.0269444
0.00706481
-0.0707646
-9.35922e-09
-1.93571e-07
0.0315636
-5.44132e-05
0.01106
0.0597371
-3.11904e-06
0.00242267
0.0267673
-9.7825e-322
0.0261802
-0.0433275
-0.0148538
0.177687
-5.44132e-05
-0.056532
0.0227677
0.0383383
-0.000235305
0.00269775
0.00161386
0.0383414
-0.0233404
-0.109398
0.0173319
-4.88649e-15
-2.58494e-11
-3.54983e-133
-5.31817e-05
0.0154747
0.0278382
-0.0458005
0.0126727
0.00190627
-0.0698246
-0.106099
0.000272154
-0.0207089
-0.0734914
-2.89236e-06
3.57742e-06
-0.0470156
0.00706481
0.0104028
0.0105565
-0.047961
-0.000159918
0.119866
0.0351519
-1.59801e-14
-0.0133692
0.0169418
-0.0254448
-0.137385
-0.0312381
4.17227e-126
-1.93571e-07
-2.07892e-132
0.0232655
-0.00949314
1.53887e-127
0.0743758
0.0097143
-0.0483478
-0.0466002
-0.0233994
-0.0872936
-0.00420577
-0.0159812
-1.38532e-10
-5.99939e-05
0.0793268
4.17227e-126
-1.90047e-11
-7.69453e-10
-0.0340439
0
-0.0600779
-4.2221e-08
0.0528444
0.0441937
-1.43346e-05
-0.000133574
-3.24022e-05
-0.00558228
-0.117555
0.00706481
0.0217599
-1.1142e-09
0.0014668
-0.046281
-0.0276124
0.0097143
-0.0962839
-0.0164575
0.134853
0.198154
-0.0373069
1.01229e-05
0.00631189
-6.95947e-203
-0.0435292
0.0572806
-0.0164575
9.51162e-214
0.0783585
0.0493253
-1.11269e-15
-8.13611e-06
0.020403
0.025386
-0.213219
-2.17961e-129
0.324633
-0.0280071
-1.93571e-07
-0.0646013
-8.85343e-05
0.146799
-0.0199353
-1.31894e-06
0.0407977
-7.61114e-11
-0.000109282
0.00271624
-0.0198313
0.0183754
0
0.0159207
-0.0629683
0.216115
0.0105565
-0.0624502
0.00560476
0.000272154
0
0.00313082
0.038591
-5.6512e-13
0.135142
0.0528444
0.00631189
0.0409814
0
5.63797e-08
-7.69453e-10
0.00279208
-3.26335e-08
-0.0323057
0.0562089
9.5664e-154
-2.09744e-11
-0.205194
-5.95067e-10
-9.41035e-14
0.0126406
0.0504675
-0.0671312
0.0593302
0.0731923
0.0295043
0.275179
0.0163186
0.00385121
0.166693
-7.61114e-11
0.00105484
-5.99939e-05
0.00264034
0.0822229
-1.43743e-09
0
-0.000409749
-0.0282892
-0.0951889
-0.0148867
-0.049174
-0.155257
-0.013822
0.00109774
-0.080904
-1.91178e-07
-0.0174511
0.0341359
-0.0182562
-3.22613e-206
0.0423187
-0.0423042
0.000512148
0.00551175
-3.54983e-133
0.159044
0.0794789
-1.1142e-09
-0.162395
0
0
0.0105565
-0.0124063
-2.29488e-06
0.0448307
-1.70156e-05
-0.0589956
-1.07618e-09
-8.38335e-05
0.0031919
-0.0411809
-4.60787e-11
-0.05743
0.0184155
-0.033877
-0.0220196
0.0506627
-0.0201355
0.00483615
0.0140256
-0.0121167
0.0418006
-0.0485977
-0.0776781
0.0267286
0.0120775
0.0188124
-0.00721308
-6.57107e-322
-0.0117707
-3.26995e-05
-0.14487
-0.00631318
-0.0396248
0.0305099
-0.0285324
-0.119996
0.0294447
0.037605
0.0852281
-7.61114e-11
-1.90047e-11
6.18026e-06
0.00635073
0
0.00242263
-0.0214897
0.000305393
-0.221262
0.00115787
0.0386785
1.74265e-05
-0.0832494
-0.000247979
-0.000126819
-0.00930322
-0.0690009
-0.0162625
0.0877215
0.00867718
0.0913916
-0.0214897
-0.0319079
0.0855394
0.0156312
0.00442238
-0.0764113
-0.0757494
-0.049464
-5.10108e-12
0.00889011
0.0654046
-0.0607097
-1.14445e-13
-0.071783
5.63797e-08
1.04742e-321
-0.0174472
-0.041276
0.0487547
-0.114968
0.0657659
0.161233
0.0135983
-0.0245348
0.0077531
0.0395148
-0.0556056
0.115029
0.0420073
-0.108068
4.69362e-322
0.0529049
-0.16185
-0.0636936
0.00566211
0.096823
0.00706481
0.0294542
-4.43456e-129
-0.0183339
-1.38532e-10
-1.6638e-09
-9.35922e-09
0.015564
-0.101253
0.00629044
0.00442238
-0.0518447
-0.000908866
-0.0544804
-0.0356394
-0.0164729
-3.22613e-206
-0.00017519
0.000333124
-7.91607e-05
0.0236699
-3.4475e-10
0.0277089
-4.96435e-202
0.0638614
-0.0268867
0.0097143
-0.0372248
-0.00558228
-0.0910473
0.0200294
0.0373125
0.00428176
-0.00864678
0.161731
0.0314786
0.014086
-4.51058e-09
0.0402212
0.00168637
-0.038216
0.024282
-0.0238674
-5.6512e-13
-0.0560988
-0.0392474
-0.0533638
-6.97033e-10
0.0154176
0.00368169
0.0136246
-1.93571e-07
-3.21903e-09
0.000816145
0.0135017
0.0304871
-0.000120423
0.00706481
-0.0755176
-3.26335e-08
-0.0516591
0.00790525
0.0152456
-0.000151411
-9.23903e-322
-0.00662642
-0.178973
-0.0403458
-0.058487
-1.86565e-05
-1.79581e-10
8.77335e-12
-0.0319515
-1.43346e-05
-8.47492e-07
-3.26335e-08
-0.179013
-0.000121321
0.00255976
-0.0591339
0.042645
-0.0100165
0.024282
-0.0354559
0.0420887
-0.0608988
-0.0246143
-2.09182e-05
-3.4475e-10
0.263736
0.0149209
-2.00544e-06
0.0687301
0.0634063
0.0947774
-0.000109282
0.0025744
-0.160135
-0.0122714
0.0670363
-0.0606064
0.00706481
-0.0164575
-1.11269e-15
0.000968095
0.011721
0.000322064
-0.0875126
-4.74349e-06
0.105376
-8.37841e-07
0
-0.0390837
0.00516669
0.0116683
0.0686615
0.019967
-0.0214897
-0.00022731
-0.0653286
-0.0848298
0.00566211
-0.0826583
0.0339522
-4.7772e-131
0.00758611
-0.00801611
-0.0358954
1.42785e-321
-1.73911e-321
-0.00475229
-2.02931e-07
0.214961
0.0105565
-0.0544717
0.140106
-2.87361e-10
0.014086
0.0264597
-0.00976602
-3.22613e-206
-0.000301781
-0.0655279
0.0120775
-3.80687e-07
-0.0695438
-1.65625e-05
0.0396646
0.0227677
-0.050514
0.0170745
-0.0492144
0.00706481
0.0211353
0.00339912
-2.06824e-14
0.000870197
0.00442238
0.00414966
0.000639774
0.00442238
-0.0696469
0.124125
0.00385121
0.0547935
0
0.0237364
-0.0503443
-1.43058e-11
-2.42563e-08
-0.0492354
0
-1.23516e-322
-0.0250349
0.0237635
-8.38335e-05
-0.0530192
-3.95539e-05
-0.0340439
-0.0325451
0.0687302
-0.010651
-0.137869
-0.00963878
-0.0148867
0.0691921
0.020412
0.136171
-0.0615844
0.0187396
0.0611884
-0.00721308
0
0.0486958
9.5664e-154
0.00183562
0.0666131
-0.05743
0.0114602
-0.0930512
0.0247112
-0.0222906
0.0402212
0.0371395
-0.0201056
-0.0549877
0.0620989
0
-0.0275296
-0.00558228
-0.0892292
0.0361612
0.043762
-0.0141406
-0.000235305
-2.31257e-10
0.0418987
0.0439623
0.13114
0.019472
0.0136278
-0.000100111
-0.00022731
0.0779856
0.00164529
0.0550897
-0.0482832
0.0168671
-0.00497091
-6.91692e-322
-0.0164575
-0.0862702
0.029262
-0.112381
-3.21903e-09
0.0120051
-1.55875e-06
-0.0213479
0.0342805
0.0183754
0.00811677
-0.0958226
0.0440352
-0.0764561
0.00462639
-0.0215079
0.0766028
-0.000235309
-0.0932605
-0.0246143
-0.0445712
-0.152022
-0.00622416
0.0097143
-0.0384004
-0.0791079
-0.00012174
-0.0600686
-0.0307884
0.0183754
0.014086
0.0702655
-0.0393932
-0.00406315
0.0806645
-0.0182562
0.00239144
-0.0475477
0.00566208
-0.0315564
0.00397177
-0.059253
0.00338098
0.232387
-2.58494e-11
-1.22778e-11
0.0267672
0.0343131
0.0602672
-0.00930675
-0.0134966
-3.74502e-11
-0.0695438
0.0256536
-9.35922e-09
-0.0585721
0.00442238
0.178971
-0.0927389
-1.44805e-07
-0.00721308
0.0340898
-0.0171548
0.0136039
0.0221901
0.0216697
0.048139
0.0300915
-0.010651
0.0607753
-0.0240615
-0.0980288
0.0305099
0.00580232
0
-0.030957
0.0368601
-1.65625e-05
0.0192822
-0.010651
-3.54983e-133
-1.10177e-321
-0.00721308
0
0.00017801
0.0128818
-0.0423485
0.0268283
0.0535112
0.008726
0.0341728
-8.54307e-06
-0.154431
4.69362e-322
0.0194909
-2.58494e-11
-0.0102441
0.000493198
0.0305314
-0.0200501
0.0760539
0.073462
0.0121268
0.197115
-0.009904
-1.20738e-07
0.000473662
-2.33391e-05
-4.2553e-13
-0.086554
-0.00622416
-0.0393748
-4.19927e-08
-0.0497492
-4.79307e-08
-1.2416e-09
0.0166083
-1.11269e-15
-5.48473e-05
-4.82038e-10
5.63797e-08
-4.35173e-07
-0.0637366
0.0856222
0.0912703
0.0395846
0.0450434
-0.0180614
-0.169529
-0.0601325
-0.101791
-0.0161075
0.0161243
-0.0928516
-2.6104e-06
0.0442039
-0.0873977
0.00910937
-0.0066153
0
-0.0039754
0.0531541
-0.0255031
-9.41035e-14
-0.0129794
-0.0107011
0.0135983
0.101966
0.00706481
-5.76852e-06
0.000555448
0.0110269
-0.0322497
0
1.17094e-321
-0.0168043
-0.010651
0.136517
0.0552283
-1.65625e-05
0.00790525
0.099719
-0.0794373
-0.0526338
-0.000235305
0.00241411
-0.00786338
-1.93571e-07
-3.54983e-133
-0.0214897
0.0400968
0.0650144
0.0343018
0.0192865
0.0189704
-0.0353874
0.00190627
-1.37085e-05
0.0279906
-0.0943187
-0.0483635
-0.0195201
0.0713545
-0.0445956
-0.00571039
-0.0241062
-4.79307e-08
-0.0600686
-1.93571e-07
0.0670363
0.124839
0.0696702
-2.07892e-132
-0.0328296
-1.14445e-13
0.0527822
4.69362e-322
-3.22613e-206
-0.0990076
-3.51098e-07
-0.118516
0.0105541
1.00817e-06
-0.0138253
-0.0305724
0
-0.045415
0.105129
0.0110719
0.00183543
-0.0659179
-0.00930675
0.0531289
-0.174497
0.000322064
0.00551175
-2.6104e-06
0.0207911
-0.0306799
0.0291781
-0.0485272
-8.40833e-10
0
-0.0855598
0.0848096
0.00790525
0.053565
0.0172045
-0.00817927
0.00409444
-0.00933826
0.011721
0.093417
0.0266208
0.278162
-0.0576022
-8.38335e-05
-0.0646013
-0.0108492
0.102552
-0.0883536
-0.0400306
0.0405704
-0.127097
0.0885652
0.00167004
-9.7825e-322
0.029262
0.168049
-3.26995e-05
-0.0399262
-0.0221075
-0.150044
-0.000109735
-0.00558228
0.102498
-0.00558228
0.00706481
-0.0581948
0.0822541
0.107387
0.01106
-0.0240615
-3.01276e-07
0.0717121
4.70205e-08
-0.0454814
0.195449
-1.6638e-09
-5.13576e-08
0.00339111
-3.26995e-05
0.0222625
0.00168637
0.00378339
-0.0568529
-0.218794
-2.58494e-11
0.106293
0.0442039
-0.101253
0
-0.028064
-0.0129996
-0.0111914
-0.0371643
0.0441938
0.0480105
0.100612
-0.0316043
0.0149102
-0.047961
-9.7825e-322
-0.022327
0
0.02173
-0.0124708
0.038591
-0.0587695
-0.0725339
-0.00699226
0.0077531
-1.54148e-321
-0.0374871
-1.93571e-07
-0.0174472
0.0709007
-0.00479265
-0.010651
-7.81731e-10
-0.048846
-0.00662642
-0.000220347
-0.0917813
-4.79307e-08
7.31425e-05
1.58101e-321
-9.12006e-08
0.000179669
0.0086547
0.111106
0.0748594
-0.00417896
-0.0749314
0
0.0378023
0.00778696
-0.0689812
0.0108677
-4.59437e-05
0.11105
-0.0157288
-0.0217981
-0.0107888
-0.000235305
-0.0993868
1.53887e-127
-0.000125747
0.000669534
0.13137
0.0597714
-7.69453e-10
-0.0101371
0.0521801
0.160313
0.029262
0.0295078
-3.51098e-07
0.0297812
-0.000174444
-0.176641
-7.91607e-05
3.57742e-06
-2.18567e-06
-0.0431379
-3.68289e-05
-3.37362e-07
0.0169418
0.0999377
0.0631516
-0.0199185
0.000512148
-4.79307e-08
0.0104028
0.0097143
-0.129273
0.198154
-0.0220394
-0.000235305
0.000634016
0.0351108
0.00134467
0.125537
-0.0404736
-6.57107e-322
-0.0377016
0.0839338
-0.0744482
-0.0206873
-0.010651
-0.000235305
0.00428176
0.0267673
-0.0423067
0.00483615
-0.10281
0.0127851
-3.40815e-06
0.0416587
0.0178357
-0.054062
0.0213664
0.000493198
-0.0335369
0.112502
0
0.0330957
-0.114619
0.0296731
0.0334494
-0.0132904
0.0240938
-0.00576666
-0.0755176
0
-0.0497768
0.120097
0.016292
0.01618
-9.35922e-09
0.0651593
0.0473339
-7.88742e-05
-0.101247
0.0144019
0.00254116
0.00509293
0.139864
-0.0399277
-3.22613e-206
-0.03787
0.00183562
0.0417489
-0.00905437
0.00706481
0.00263944
0.026212
4.43934e-06
0.0312557
-0.114619
0.00706481
-0.0497942
0.0401956
-0.0382053
0.0252945
0.00775282
-2.87361e-10
0.00367563
-0.0131481
0.0128302
-0.0204728
0.00179736
0.0110269
-0.0941372
-0.048249
0.00991939
0.0135017
0.103387
-1.1142e-09
0.0379967
0.00292029
0.00241411
0.199963
0.0498383
0.0362873
0.0175067
-1.06718e-321
-2.09182e-05
-9.31536e-06
-0.103455
0.039495
-1.6638e-09
0.022906
-0.00879651
0.0574926
-1.69847e-05
0.000493198
0.00495994
-0.00462045
-7.87307e-07
-0.0220394
0.012104
0.00175035
0.0344914
-0.0882612
-0.114675
-0.0371035
0.00818963
-1.70156e-05
0
0.00145275
-2.60866e-12
-0.0454745
0.0166083
0.149943
0.00614675
0.0445643
-1.43743e-09
-0.0470901
-0.00558222
0.0166919
0.0136039
0.0576512
0.00231727
-0.000235305
0.00231727
0.17625
0
0.00607102
0.119671
-0.0725339
-0.0305093
1.18576e-321
0
0.177595
0.00706481
0.1664
1.22034e-321
-0.00938135
-0.00933826
-2.20688e-09
-3.51098e-07
0.00530752
4.17227e-126
0.0685807
1.35703e-225
-5.39529e-06
-0.0179775
-0.0336769
0.23489
0.0305314
-0.0075658
0.0518208
-1.09316e-06
0.00790525
0.264624
0.00308884
3.50787e-322
0.0727846
-0.0119168
0.0799278
-0.0613295
-0.00261601
-0.0409713
0.00948143
-1.91178e-07
-0.03737
0.0854483
0.162942
-0.0272422
0.145411
0.0209483
-2.2368e-06
-1.53731e-10
0.0220354
0.0496448
0.00706481
-0.0766679
0.00641178
0.00433608
-0.0224571
0.0138081
-0.152845
-0.023775
-0.156947
0.00551175
-0.0051413
0
0.20484
0.0628471
0.0673105
-0.0297326
-0.0176817
0.139525
-1.93571e-07
0.0200294
-0.0322694
0.00112349
-0.0592229
6.84445e-05
-0.0684939
-7.91607e-05
-1.90047e-11
-0.000235305
0.00815134
1.54643e-321
-0.0509437
-0.0647464
-0.0277032
0.0886173
0.0122899
-0.0646767
0.24128
0.0156196
-7.69453e-10
0.143102
-0.0259706
0.00241411
0.000873253
-0.0646013
0
-3.26335e-08
-0.0623609
-4.31271e-05
-0.0123214
-0.0261443
0.0121308
0.0747285
0.159689
0.0273336
0.00706481
0
-9.41035e-14
-0.0177102
-0.0322497
0.00414962
-0.0065036
0.0224059
0.00178902
-1.07618e-09
0.00408862
0.039495
0.105323
0.00790525
0.0907056
-0.0285324
-0.0282877
-4.82038e-10
-0.0250942
-1.93571e-07
-1.69847e-05
-0.000746123
-8.8577e-09
-0.00879651
-2.18567e-06
-0.0183339
0.017538
0.0116259
0.00888775
-0.165582
-0.115386
0.114821
-2.18567e-06
0.028103
-0.127978
-5.06967e-07
0.0906916
-0.0387911
-8.13187e-08
-2.09744e-11
-1.29308e-09
-0.1603
0.00117208
-5.76569e-07
-1.70857e-05
3.39573e-127
0
-0.0535518
0
0
0.0174642
-4.41189e-06
0.0110269
0.00184631
0.0927702
0.00102936
-0.000186578
-0.0492144
-1.14445e-13
0.0121266
0.0374702
4.11677e-06
0.0781314
-0.0310624
0.0383383
0
0.00631189
-6.97033e-10
0.00668412
0.0418987
0
-0.0794407
0.0335731
0.12077
-0.0433377
0.00551175
-0.0528326
-0.080904
0.294754
4.2656e-08
0.0097143
-0.00201947
0.0538873
0.0490999
0.0685016
-1.22778e-11
0.0264444
0.000294394
-0.000240578
-8.41249e-05
-5.95067e-10
-8.40833e-10
-9.35922e-09
-0.063205
0.00219131
-0.0634583
0.0442039
-0.0632473
-3.40815e-06
0.0396646
0.0354243
-7.91607e-05
0.248091
0.00338098
-0.102579
-0.0185962
0.00150995
0.0399965
0.0187396
-1.70156e-05
-0.0114773
0.0298418
-7.72969e-05
-0.0853603
-3.03541e-06
0.0511291
-0.0194477
0.000796514
0.146098
-0.0561934
-3.22613e-206
0.0151679
0.0294542
-0.000235305
0.075106
0.0528444
-0.0127443
-0.0982822
-0.00786338
0.00241411
0.056312
-0.0306075
0.00242267
-0.0403632
-0.0181454
-0.0199353
0.0604749
-0.05815
0.00368169
9.65869e-224
-0.0145699
-3.44343e-09
0.0987015
-3.51098e-07
-0.105259
0.0820247
0.190647
0.141341
4.17227e-126
-0.0348171
-0.0581714
-0.00586747
-2.09744e-11
-0.000116403
0.0620535
0.00631189
0.24128
0.0682065
-6.86751e-322
0.107624
0.0207855
-0.017543
-0.0998415
-2.58494e-11
0.0253154
-3.40822e-06
0.0789713
0.0436699
0.00629677
-0.03787
-2.18567e-06
0.00898649
0.0341728
-7.69453e-10
0.038647
-4.60692e-14
0.147607
0
0.188562
0.00582136
-0.0214897
-0.0814689
-3.4475e-10
0.113058
0.0972898
0.00279208
0
-1.69847e-05
-1.74218e-06
-0.0104621
0.0810814
0.0110269
0.00483615
-0.0765938
-7.69453e-10
0.0558556
0.0490999
-0.0870367
-0.000908866
0.0201546
0.0211353
-0.0507997
-0.0533132
-1.74218e-06
-7.46451e-07
-0.000191761
0.0656757
0.0262151
-0.0207702
0.0264984
-0.094747
-0.0647319
9.5664e-154
-0.0974367
-0.0661401
0.0442442
-0.0164575
0.0236573
-0.00938135
-3.97372e-05
0.0231601
-1.93571e-07
0.0110269
-0.0398575
-0.205457
0
0.0617726
-0.0221358
-0.0183339
-0.000178686
-0.00884733
0.000875282
-0.000125711
0.146975
-0.046979
-6.97033e-10
-0.00201944
-0.0200433
-0.0122642
0.082404
0
-0.0989941
-0.000130473
0.0107021
0.114286
-1.71838e-05
-0.00558228
0.00085212
0.0127192
0.0151064
-7.69453e-10
0.0216734
0.0111273
0.0412417
-0.0898199
0.00744612
0.0143688
0.000143293
-0.170132
-1.2154e-321
0.00631189
0.0864508
0.0784962
0.00708649
0.0429218
0.0745712
-6.70427e-05
-9.18962e-322
0.00408862
0.0126727
0.0300089
-0.0066153
-0.00558228
-7.91607e-05
-2.18567e-06
-8.5439e-06
0.00242267
0.00136442
0.120331
0.0268097
-0.0210748
-0.0276124
0.0277075
-4.60787e-11
-1.77001e-07
-3.40815e-06
-0.102522
0
-5.58251e-05
-0.0170775
0.0670396
-0.00558228
-0.0329199
0.0166919
-9.23903e-322
0.113414
-0.0167194
-0.0111429
0.0824588
-0.114063
0.19809
-1.59801e-14
0.0450664
0.0660838
-0.097124
-0.00122965
0.0085588
0.00155035
-0.00786338
-0.0528372
-0.000125747
-0.0524704
-0.00849127
0.302639
0.0552476
-9.41035e-14
-0.0322879
0.231147
0.0321131
0.0420196
-0.00786338
-0.0865916
-3.54983e-133
0.014086
3.39157e-126
0.0425428
-1.07618e-09
-0.05743
0.081069
-0.00639235
0.00442238
-3.04477e-06
0
-8.13611e-06
0.0371395
-0.00334248
0.00867718
-1.70156e-05
0.00261498
0.149958
0.0418987
0.10473
0.0416973
-0.0163059
0.0169418
-0.203646
0
0.00184631
0.0042932
1.23725e-223
-0.0630656
0.132214
0.0913576
0.0571346
0.0460875
1.53887e-127
-0.0200688
0.0913576
0.0129469
0.0891275
-0.00726295
-0.000289501
0.0574926
-3.4475e-10
-0.0818335
-0.191459
0.00693439
0.995975
0.011285
-0.0713862
-0.0994932
0.00442238
-3.51098e-07
0.0618659
0.0136246
0.239096
0
0.0409814
-6.57107e-322
-0.0387416
0.011721
-1.11601e-07
0.00153439
-2.6215e-06
0.0169418
-1.55875e-06
-0.0486075
0.0228057
-0.0455189
-7.66397e-10
0
0.093417
0.001133
0.0960483
0.0654409
0.0315636
-0.0148868
-0.0885594
0.0618444
0.357887
-9.23903e-322
0.0811616
-0.0285324
0.00580235
-2.1355e-06
-0.0974367
-0.0232372
0.0830551
-0.089084
-0.0116031
0.0557851
-0.0148867
0.0256536
-0.0941795
0.0169416
-0.0100986
-0.0430907
0.0532956
0.000512148
0.0822075
-0.0883536
0.0314432
0.0213664
4.69362e-322
0.00264093
0
0.0415866
0.0211353
0.0701779
-2.07892e-132
-0.166793
0.0488144
0.07698
-1.43058e-11
-0.000235305
0
0.01106
-3.07496e-12
0.0396646
-0.00474295
0.0882609
0.0110354
-0.000100111
0.0315636
-4.82038e-10
-0.0406626
-0.0063897
-3.21903e-09
1.3735e-321
0.0268097
0.00706481
0.0474663
-0.00596798
0.0965767
-0.042537
0.00208936
0.14428
-0.0605179
0.0360833
-0.0127443
0.0338819
0.029259
-0.0170775
-0.0233662
0.0477364
-0.00474467
5.38206e-08
0.000495125
-0.0455189
-9.35922e-09
0.0696389
-0.0623143
-0.0208888
0.0441511
-0.000174444
-0.0958041
-9.15682e-09
-4.52062e-07
-0.0538891
-0.0320286
0.0539244
-9.35922e-09
-1.14445e-13
-6.20022e-05
-0.0157288
0.00790525
0.00442238
-0.000963057
0.00181153
-0.00650474
-2.87361e-10
-0.000160265
4.17227e-126
-0.0348171
0.00105055
-0.0921368
0.0591275
0.0597916
0.00442238
9.94748e-05
-1.5788e-07
-0.0548692
9.5664e-154
0.00564312
-8.38335e-05
-0.0246143
-0.0102968
0.0413686
-0.022494
0.0044633
0
0.0066727
-0.0336773
-0.0340439
-0.109822
-1.70156e-05
-0.0148867
-0.0830297
-0.00729107
-0.0513337
-0.0063367
-0.00930675
-0.0349153
0.01723
0.0498824
-0.0660985
0.163146
-1.37085e-05
-0.0315304
-0.00012174
0.00706481
-0.0470132
-0.0319277
0.00402474
-1.4105e-05
0.0395846
0.060712
0.012104
-4.79307e-08
-0.0383858
0.029262
0.00279208
-0.0783797
3.93617e-223
-9.8183e-05
0.12594
-0.0883536
0.0811118
-0.118351
0.0216813
0.00188148
0.112249
-0.0476331
0.0881056
0.00279208
0.019472
0.0110269
-0.00699226
0.0859271
-0.0275296
0.000322064
0.000557964
-0.00234342
0.0297428
0.0820625
0.00117208
0
-4.96435e-202
-0.0573953
-0.00247967
-0.0600686
0
0.0110719
0.109783
1.73449e-06
-0.0119268
-0.000100174
-0.0751426
-0.150375
0.00758611
0.000736384
-3.19482e-09
-0.0930414
0.0247851
0.0135162
-0.0544804
0.126923
-1.29018e-06
0.088944
-0.0500531
0.0247834
0.0678162
-1.5239e-07
-8.54777e-07
0.0207911
-0.0198257
0.101864
-0.026384
0.0518122
0.0649929
0.0852455
9.5664e-154
0.0359403
0.00566153
-0.0653273
0.0139613
-3.79029e-05
-2.19912e-15
0.00442238
0.0320498
-0.0486075
0.0211353
-1.54817e-10
0.0364065
0.00706481
-0.00622857
9.80965e-05
0.0214135
0.0338819
0.0559829
-0.00799718
-1.43346e-05
0.011285
0.00242267
-1.38532e-10
-0.00536965
-0.0109696
0.0140554
0.0435116
-3.26431e-08
0.00150995
-0.0756504
0.143797
0
-0.0454615
0.0151679
0.0298058
-0.0878204
-8.2976e-07
-0.11438
0.0635015
0.0781314
-0.101881
0.0424311
0
0.00377546
0.358832
0.0183782
-0.0586613
-0.0521001
0.029262
1.66006e-321
0
-0.000782566
-0.00558228
-0.0183154
-0.0702314
0.029262
0.00168757
-3.30576e-05
0.0439422
-0.248835
-8.23492e-09
0.0715408
-0.136585
0.0442731
0.000512148
0.00111991
-0.124538
-0.0208438
-0.0196631
0.00157623
0.000816145
0.0199599
-0.109172
0.080915
-4.41189e-06
0.0294542
0.00442238
0.00707165
-2.33391e-05
0
0.061256
0.00433608
-0.000289501
0.00105484
0.0105565
-0.000191761
0.0508731
0.162306
-1.87699e-12
-1.93571e-07
-3.26335e-08
-8.54777e-07
-1.30807e-06
-0.00993265
-0.00771499
-0.018378
-0.00786338
0.00629809
4.17227e-126
0.0589984
-2.18567e-06
-0.0211856
-2.07892e-132
-0.0315744
-0.384961
0.0535431
-7.69453e-10
0.0494532
0.0344914
0
0.0058143
0.0285153
0.0940336
-3.22613e-206
-0.024461
0.014728
-0.000125711
-0.0480999
0.0232537
0.00414966
-1.69847e-05
-0.00699226
0.128581
0.0341728
-0.017177
0.0265438
0.0132867
0.0511807
-0.0166136
-9.41035e-14
0
-0.0156869
-5.99939e-05
1.12732e-213
0.0692234
-0.062853
0.0496237
-0.0607952
0.0719665
0.0953465
-0.0836183
-9.41035e-14
0.000267228
-0.00798135
0.0543831
-9.41035e-14
0.000816145
-5.20774e-09
0.0521199
0.00150916
0.0824588
0.0279317
0.0348924
-0.000235348
-0.0161044
0.0097143
-0.06192
0.0687927
0.136614
-0.0271119
0.121917
1.58101e-321
0.115405
-9.77741e-06
0.0309576
-0.0123187
-0.0591761
-0.0809147
-0.00631457
-0.0217979
9.43665e-322
-0.0981135
-0.0204689
-0.010651
0.0119295
0.0396646
-0.00699226
0.0801507
-2.6027e-11
-0.114318
0
0.017244
-1.90047e-11
0.00111049
0.00706481
-0.000120423
-0.084499
0.0232976
0.00902529
0.0343627
-0.000236893
0.0870261
-2.41141e-06
0.0461017
6.35687e-05
-0.0211999
0.00154998
-0.000127933
0.019472
-5.62079e-05
0.0279906
0.00442238
-0.063249
0.0271869
-0.03787
-1.61294e-05
0.00868166
-0.0138253
0.00442238
0.00821964
-0.00699226
0.00167004
-0.0701601
-8.37841e-07
-3.54983e-133
-0.0870561
0.0126727
-0.0571995
-1.38842e-05
4.69362e-322
0.00105484
0.00183562
-0.0938591
0.0622226
-0.0508124
-0.101222
-0.126839
0.00773362
-0.058678
-0.0315997
-0.0164575
-0.237186
-5.99939e-05
-8.26764e-05
-0.063584
-0.0770055
-0.00406763
-8.83692e-08
-0.127962
0
0.0104168
0.0456487
0.0171747
0.0061551
0.0542873
-0.0575872
0.00201956
-3.01276e-07
-0.00491049
0.0505429
0.105491
0
-0.0887429
0.0115122
-0.00296498
0.0455153
0.00706481
-1.56863e-05
0.0444155
-0.0905954
1.82804e-321
-0.0214897
-0.0178649
-0.0244618
0.0301029
-0.00560579
-0.166294
-0.00790807
-0.041876
0
-0.00012174
0.00397177
-0.0535641
-1.53731e-10
-0.00558228
0.00243742
-9.32179e-05
0.0485638
0.0312557
0.000162148
-0.0692914
-0.0259646
-0.211435
-0.0552479
-0.0135734
0.0251365
0.0354246
-0.00558228
0.121709
0.00241411
0.0396646
0.02376
-6.97033e-10
-0.0141746
-3.54983e-133
-0.000191761
0.00701259
-8.47492e-07
-0.00405739
-0.150319
0
0.00631189
0.00769185
0.0110269
-9.35922e-09
0
-8.31263e-09
0.0396646
-0.0156246
-0.0281087
-1.43058e-11
0.508437
0.0550847
0.000372528
-0.0287891
4.17227e-126
0.0271488
-0.0794373
0.00442238
0.0668955
-3.545e-06
-4.96736e-05
-0.180395
-0.0268867
-7.69453e-10
-4.79307e-08
-0.0565849
0.0244697
0.0344914
0.0314583
6.84451e-05
-0.000235338
-2.18401e-08
0.00790525
-0.0418776
-1.5239e-07
0.00758611
-0.0261238
0.043892
-0.101791
-0.0185962
-8.8577e-09
3.87409e-05
0.0101409
1.42785e-321
-0.0151741
-0.0841972
-0.0065036
0.0333189
-9.35922e-09
0.0731253
-0.028605
0.148093
-0.0388478
-7.69453e-10
0.0224059
-2.53049e-06
-0.0994145
0.0340682
-0.0653273
-5.95067e-10
0.144807
0.0086547
-0.0933486
0.00948286
-0.0711205
0.0375326
-0.0241062
0.00706481
-0.110482
0.0143688
-0.0174472
0.0199231
-1.74218e-06
0.0793344
-1.43743e-09
-0.000247153
-0.000121431
-0.00135753
0.0328931
-0.00993265
-6.04604e-06
0.0244636
-8.41249e-05
0.0222411
-0.0276621
-0.0544804
0.00706481
0.102855
-0.0306766
0.0124194
0.000968095
-0.055676
-8.68521e-05
-0.0555315
0.000159002
1.35703e-225
0.0232653
0.0169418
0
0.0174642
0.0224057
-0.0275296
-0.0506523
-0.04406
-0.136148
0.0731923
-0.0346916
0.0174898
0.0320955
-2.36257e-08
0.0030069
-0.13068
-0.0529419
-0.0179775
-0.0539111
-3.01276e-07
0.00706481
0.00175035
0.000502833
0.00183543
-0.00974883
0.00483615
-0.102855
0.00768644
-0.0673671
-0.0393621
-2.58494e-11
-0.061164
0.0126893
0.00566211
0.212902
-8.38335e-05
-0.00993265
-1.5239e-07
0.0877893
-0.000125747
-0.16158
-1.92796e-05
-3.92127e-08
-8.84779e-05
-0.0684304
-2.07892e-132
0.15169
-0.03787
0.0092479
6.13102e-10
0.0893627
-0.120414
0.0280578
0.0596351
-0.0233994
0.00580235
-0.015238
0.00442238
1.58101e-321
0.0216728
0.000294394
-1.74218e-06
0.0202814
0.000135151
-0.0366543
-0.00588449
0.0104168
0.138519
-3.545e-06
-0.033877
-0.0221451
0.0436699
0.0721825
-2.42563e-08
-0.0336769
0.0396646
0.0122055
-0.269275
-0.0557815
0.00580235
0.0693692
-8.45565e-10
-8.31263e-09
-0.239649
0.0305822
-0.000333193
0.0396646
-0.0312661
0.0200294
0.00706481
-1.74218e-06
-0.000174444
-0.0367491
-2.83939e-10
0.0434695
-0.122979
0
-2.53049e-06
-3.08073e-07
-6.97033e-10
-0.0566554
-9.35922e-09
-0.158854
-9.41035e-14
0.0236418
-0.127962
-0.0747075
-0.00111711
0.00161383
1.73911e-321
-0.010651
-7.0925e-06
-0.000174444
0.00706481
-0.0994932
-6.79844e-07
-0.0702314
0.00161518
-9.31536e-06
0.0434685
-2.61346e-09
0
0.0244699
-0.0852617
-0.0129073
0.0929548
-0.0317304
0.133655
0.00217708
0.0460395
-3.92127e-08
-3.24022e-05
0.0684052
-0.000195578
-0.0610286
-1.68228e-09
8.77335e-12
-1.63716e-05
-0.0617711
-0.0280071
-1.65625e-05
0.0440505
0.0236699
-3.37362e-07
-0.159714
-0.0424224
0.0166613
-1.65625e-05
-0.00640211
-2.58494e-11
0.00706481
0.01029
-1.22778e-11
0
-0.000211011
-0.0826313
0.00782609
0.00706481
0.0183639
-0.0698961
-0.163012
-0.00423871
-5.48473e-05
0.268013
-4.40064e-05
0.058165
-0.04986
-0.197158
-0.0366184
-5.99939e-05
-3.03541e-06
0.00442238
-0.149484
0.019472
-1.40067e-05
-6.95947e-203
0.0839525
1.23725e-223
-0.00680572
0.0292358
0.0812488
0.00706481
0.000512148
0.0142922
-0.101791
0.0116873
0.0796816
0.039325
-2.58494e-11
-2.58494e-11
9.5664e-154
0.0367839
0.149546
0.0101355
-0.0617685
0.0213664
-0.000103113
0.00706481
0.0285006
-0.280841
0.260373
-0.0141406
0.226713
-0.0436088
-0.0208729
-0.00201944
0.066941
-2.07892e-132
0.125599
0.0753146
-0.0346105
0.00580235
-0.0589867
-0.0172868
0.0136925
-9.12006e-08
0.000664538
0.011285
-0.084289
-0.0584995
-0.245735
4.69362e-322
-0.0538298
-0.0600686
-0.00558228
0.082404
-0.00015273
5.49999e-05
0.249367
-0.0296638
0.000736384
0.0996504
-0.0828686
-9.41035e-14
0.0295079
-9.41035e-14
-0.0630575
0.0147624
0.0903091
0.0381266
-1.54749e-05
0.0110268
0.0292842
0.0185841
0.0381592
-0.0182562
-0.0148339
-0.0381071
-0.0928537
-0.00661743
-3.60129e-05
-0.00720837
-3.26997e-05
-0.0544804
0.0121268
-0.098747
0.0157906
-3.26431e-08
0.00910942
-1.7616e-07
-0.00851996
-0.0202756
-0.0853603
-0.061164
-0.000159918
-2.63528e-192
0.00429245
-0.009904
3.57742e-06
-1.43346e-05
0
0.00742672
-3.26995e-05
0.0585144
0.0923841
-2.07892e-132
-0.000235458
-0.0060877
-5.48473e-05
0.0327726
-0.000220659
0.020232
0.0335533
-0.000126819
-0.000102981
-0.0596823
0.358427
-6.97033e-10
-0.000109282
-0.00680572
-0.0329666
-9.57512e-05
0.0295079
-9.8183e-05
0.00394431
-0.00858517
0.0430782
0.0169657
-0.0607952
-0.000158924
0.0294542
-0.0615844
0.0161243
-6.95947e-203
0.000715906
-0.0105935
-0.0189351
-0.0650113
-0.00022731
0.106287
-0.0659594
0.00546235
0.000248539
-2.17139e-05
-3.92127e-08
1.01229e-05
0.014086
1.58101e-321
0.000272154
0.0156196
-0.108607
0.0268283
-0.0232509
-7.69453e-10
-0.0134966
0
9.5664e-154
-0.00622416
-5.05537e-13
0.0874259
-0.0327497
0.0323496
-0.0954721
0
0.0086547
0.00111991
-0.00611506
-0.00946691
-0.0207126
-0.0725339
0.0765012
0.0253154
0.0692948
0.00175035
0.026212
-0.0514882
0.276343
-0.0370275
0.0200294
0.0371395
0.0299344
-2.18567e-06
-1.06182e-09
-0.0705224
0.127948
0.00183562
4.69362e-322
-0.125232
0.0200741
0.0100177
-0.00396338
0.00433608
-0.0688714
0.0153843
-3.54983e-133
0
0
-0.0689125
0.0550897
-0.000109791
0.0877215
-0.0201356
0.000218042
-0.0124342
0.000218042
1.86111e-213
0.0232537
-0.0265451
-0.00959732
-0.0575432
0.00387743
0.0318711
-0.0664671
0.000375981
0.024958
-0.0596262
0.0946306
-2.06824e-14
0.0859294
0.10453
-0.000908866
0.011285
0.0340583
-0.0107348
-0.0653273
-0.00699226
0.0128067
0.0183859
-3.3323e-07
0.0957354
-0.00558237
-0.0277572
0.0104826
0.000512148
-2.31257e-10
0.0562384
-0.151189
-2.06824e-14
-8.2976e-07
-1.55875e-06
-0.06373
-0.00690995
0.038218
0.0086547
0.00267847
0.0987681
0.0762629
-0.0214897
0.00805379
-0.0397191
0
0.00271624
0.0834037
-3.7698e-13
0.0408526
-0.0185962
-0.0620959
0.0232649
-0.0183339
-0.0371643
-0.000191761
0.0518179
-0.0182562
-0.169237
-0.0430907
-0.143067
-0.0550011
-0.0828543
-9.7825e-322
0.0879788
-1.54817e-10
-9.35922e-09
-0.100474
0.0806135
-0.0872936
-0.0159584
-3.70255e-05
0.0810144
-0.11515
-0.0698579
0.0217308
-4.60692e-14
0.0725273
-0.00558228
-0.000235305
0.00440426
-3.21903e-09
6.18026e-06
0.0493519
0.0557994
-0.00161051
0.0236699
0.0607325
-0.0454837
0.0343687
-0.0450215
-0.0615844
0.0708295
0.0434685
-0.0498799
-0.153468
-1.5239e-07
0.00706481
-9.15682e-09
0.000939566
4.11677e-06
-0.0646013
0.0764557
-3.01276e-07
-0.467963
0.0545866
0.111023
0.103662
0.00351132
0.0175425
-4.43456e-129
-0.0402219
0.00269644
-0.000195578
0.00971428
-0.0237926
0.00397937
-0.0873031
0.0438376
-2.81611e-05
-0.00784726
0.00188069
-2.58494e-11
0.0167734
0.00483615
0.0169418
-0.0501578
-0.055676
4.46702e-05
-0.0382118
-0.0576022
0.0152293
0.003651
-0.00228864
0.00227144
-0.0183592
-0.0208739
0.030249
0.0654046
0.00706481
-0.00817927
-0.0591373
0.301651
0.0373088
0.0429218
-0.0157288
-1.1142e-09
0
0
-0.0415058
-0.000305745
-0.0388478
-3.54983e-133
8.20149e-322
0.0679209
0.00483615
0.00123748
0.0386602
0.000639774
0.0395846
-2.33717e-05
-0.124373
0.247195
-0.000159918
4.17227e-126
-0.0646013
0.0295124
-0.0604778
-0.0620389
0.00516669
-0.0544804
0.0285153
0.0147167
0.0116781
-0.0183621
-0.0231482
0.0156196
-0.0121167
0.108081
-0.00420577
-9.23903e-322
-0.0252442
-0.0661753
-0.079102
-2.21742e-06
-2.6104e-06
0.201425
0.0042932
-0.0528372
0.0344914
0.00385121
0.0913576
0.0233291
0.0140256
0.00369245
-5.97819e-322
-0.000130473
-4.81619e-08
-0.0980288
-0.023775
-0.0586614
0.000429472
0.0628378
0.00358342
-0.0288451
-8.38335e-05
-4.82038e-10
0.0349093
0.23489
0.0025744
-0.0208343
-0.00361958
0.0145893
-6.04604e-06
-0.445622
-2.42563e-08
-0.0974367
0.191759
-0.0265137
0.0546962
0.017244
-0.093889
-0.000235305
0.0850697
0.0843507
-0.038236
0.00409447
-0.118099
0.0227677
0.0159207
-0.0883536
-0.0082276
0.0521801
0.107732
0.0520171
-1.11104e-07
0.0342279
0.00867718
0.157802
0.00368169
-0.0348729
-1.65625e-05
0.00516669
-0.03787
0.0767694
0.0104168
0.000512148
-0.0981135
-7.69453e-10
0.0503747
0.0217517
0.0642937
0.0136039
-2.31257e-10
-1.06718e-321
-8.26764e-05
0.00790525
-0.0471705
0.0591328
-2.58494e-11
0.014086
-2.44328e-05
-0.010651
0.0086768
-0.0434774
0.0013504
0.376772
-0.0510421
0.00566211
-9.35922e-09
-0.0125024
4.1339e-05
-0.0130681
0.00706481
-0.0345815
0.017244
-0.000100174
0.0122482
-0.0114773
-0.0800524
-0.0591761
-0.0224133
-7.91607e-05
-1.65625e-05
0.00385121
-1.10177e-321
-0.138523
-2.6104e-06
0.0349161
-6.97033e-10
-0.0421324
-0.0251702
-0.00901177
0.0086547
-0.0155463
0.00408862
0.0295079
-0.00246216
-2.58494e-11
-0.0433275
-0.0973017
-0.0454216
0.0359231
-0.0480186
5.38206e-08
-0.159016
0.479378
0.0850697
-7.66397e-10
0.000143293
-1.93571e-07
0.00264093
0.101319
-0.0399277
-0.0536115
-0.0261921
-0.0417765
0.0349169
0.0508731
-1.63716e-05
-0.0445005
0.0378551
-0.000106885
-0.0230331
0.0124194
-0.138326
0.0401938
-7.69453e-10
-3.76738e-05
-0.140952
-0.0214897
0.0762712
0.0224059
0.12761
-1.65625e-05
-0.110206
-7.69453e-10
0.12795
-0.0150077
0.00166945
-0.00558228
0.012104
0.0304821
-0.0882206
1.86111e-213
-1.23027e-14
0.117753
0.0272255
0.00706481
-9.84105e-13
-2.40385e-08
-4.96435e-202
8.66569e-07
-1.93571e-07
-6.95947e-203
-0.0632473
0.00284605
0.250989
0.028649
0.0511807
0.00790525
0.0913576
-0.107576
0.000257855
0
-1.5874e-06
-1.14445e-13
-1.37237e-08
-1.29018e-06
-0.0402219
-0.114681
-1.74218e-06
-0.00974883
-0.0394081
-9.41035e-14
0.0562089
-9.41035e-14
0.00442238
0.00086891
0.0198441
0.0106833
-3.22613e-206
0.0731599
-0.0669666
0.0168099
-0.0605096
-0.00963083
0.0354246
0.0119422
-5.13576e-08
0.0312557
0.0446843
-0.0423485
-0.00558228
-0.0275483
-2.31257e-10
-2.07892e-132
-0.00672846
-0.0234118
-7.69453e-10
-3.74502e-11
-4.30064e-12
-8.13611e-06
-3.81497e-15
-0.0241223
6.35687e-05
-9.31536e-06
-1.00343e-07
-0.0397653
-7.86829e-07
0.014086
-9.7825e-322
-0.0065036
-1.14445e-13
0.0782263
0.134258
-0.0487144
0.0720005
-2.56925e-06
0.0267535
-0.00558228
-0.00558228
0.0361701
-0.0531913
1.53887e-127
0.1026
-9.35922e-09
-2.61424e-05
-0.0233404
0.0153082
-0.0455189
0.039325
-3.3323e-07
5.63797e-08
-3.81784e-05
5.63797e-08
-1.91178e-07
0.0606992
0.161882
0.0299344
-0.00699226
-2.58494e-11
0.00495994
0.0175338
-0.0194969
0.0161243
0.0265262
-0.0361911
-1.11216e-15
0.136228
-1.53731e-10
-1.54817e-10
-0.000125747
-0.032152
-1.54148e-321
-8.47492e-07
0.0614033
0.00314637
-1.74218e-06
-2.6104e-06
0.0911495
-0.12621
-0.0273607
9.65869e-224
0.00275814
-0.0211906
-4.79307e-08
-2.1148e-06
-4.41189e-06
0.0574428
-2.22687e-12
-5.55917e-05
0.00183562
1.54643e-321
0.369801
0
-3.19482e-09
0.0585111
-0.0223505
-0.0215032
-0.0810601
1.53887e-127
-0.0587247
-0.258212
0.0553695
0.0451865
-7.69453e-10
0
-1.5874e-06
0.0332282
0.0327511
0.0406381
0.000322064
-0.000235305
0.00264093
0.00706481
0.024282
0.0829925
0
-1.93571e-07
-0.000137497
-0.0500881
-0.0179907
-0.0217979
-7.69453e-10
-0.043861
0.000381036
-9.95633e-07
-0.0247628
0.0139143
-9.41035e-14
-0.00146438
-0.00350646
2.73665e-05
-0.271052
0.01106
0.0166083
0.113333
0.00160241
-8.37841e-07
-0.0698961
0.00706481
-0.0828655
0.0542835
-9.41035e-14
0.00184631
0.0360833
0
0.0760448
0.00712571
-0.0925458
0.00631189
-0.00188714
-0.0208888
-5.58251e-05
-0.0002307
0.0822541
0.00516669
-1.93571e-07
-7.69453e-10
-0.0246143
-0.0169375
-0.196021
0.0169418
0.00414966
-0.0702314
0.0361693
0.00442238
0.030249
-0.0382118
-0.0246143
0.0535403
3.49655e-127
0.736253
-0.00303284
0.0111273
0
9.5664e-154
-0.0755176
-2.07892e-132
0.0140475
0.00227144
-9.35922e-09
0.20075
-1.1142e-09
-6.5773e-06
0.00442238
-0.0216251
0.0725624
0.0149236
0.0312557
-0.0647464
1.42785e-321
-0.0002307
-0.0132773
0.0301018
-0.000102741
-0.0281894
-0.000284415
0.0104168
-0.0082276
0.00631189
0.431891
0.014086
0.0120818
4.17227e-126
-1.90047e-11
-5.20774e-09
-0.0794328
0.00442238
-0.0535368
-0.00077631
-0.000126403
0.118005
-0.00558228
-7.91607e-05
1.74265e-05
-0.131153
-0.0227376
0.00989943
0.00718431
-0.00734439
0.00190627
-0.0646013
-0.0533386
-0.0201764
-0.0911891
-0.0110146
-0.0355109
-0.0151741
0.00242267
0.0257411
-0.031423
