-3.62114e-06
-5.63121e-16
-6.20335e-165
-0.00953244
-0.0189991
-5.82703e-09
0.00424923
-0.02444
0.0324638
0.00424923
0.0115885
1.52172e-321
1.98463e-05
0
-0.0250186
6.55932e-49
-3.04168e-07
0.0345117
0.0508174
-0.0134293
0.0359541
-0.000540726
0.139001
-1.12885e-06
0.0090116
-0.0250186
-0.197042
0.0353925
0.000730022
-0.03906
-0.0318758
-0.0913162
-1.16082e-07
-1.32396e-45
-0.00293586
0.000288177
0.00142672
0.0053128
-3.99083e-05
0
0.105582
0.0150281
4.47936e-50
-4.81812e-05
-0.0558624
0.0262498
0.0353982
-6.76121e-05
0.00423068
-9.25561e-05
0.0264101
0
-2.45955e-08
0.0805871
1.63775e-199
-5.9141e-15
0.0686627
0.000327589
-6.85535e-13
0.0188183
0.00446353
0.00558951
1.72923e-321
-0.0597946
-1.59583e-321
0.0191228
0.0928831
-0.00103684
-0.0979457
-0.0473493
-0.106391
-0.0416013
-0.0373162
0.00557926
0.134456
-0.0826173
0.00595732
0
-0.106133
-0.00560308
0.025104
-0.0689412
0.00417844
0.0551747
-0.000138101
0.795226
0.167887
0.0255035
0.0745475
0.0191228
0.0420177
0.00516411
-0.213987
-0.0223254
-0.15403
0.00822464
0.139071
0.0345381
-4.80924e-05
0.0483419
-2.45955e-08
0.00446353
-9.04526e-06
0.02886
-3.39728e-06
-2.71124e-07
-0.0102411
0.0364048
-6.59672e-06
0.260043
-0.0839269
-0.0153191
-0.0160323
0.0759396
-1.09189e-321
0.00143894
0.00213531
-5.18428e-05
-0.0560573
-0.00505082
0.0824933
0.0146489
0.0442263
-0.0270711
0
0.0227654
-0.0604209
-1.43023e-05
0.0125292
0.000208702
0
-0.0348774
-0.0115029
0.0197887
0.0372753
-0.0545442
-0.00877197
-5.9141e-15
-0.0400629
0.00867239
0.105312
-0.0207881
0.067564
0.228333
-0.0495991
-1.76248e-11
-0.0505835
0.0173459
-5.85011e-05
-0.136707
-0.041377
-0.0237511
0
-4.01525e-09
0.492063
0.000288177
-4.44358e-06
0.0132836
-0.0192448
0.0405632
-0.0589302
-9.63636e-07
-0.172824
-0.094283
0.00446353
-0.0384076
-0.0479849
0.0322545
0.00939172
-0.0304078
-0.0492833
-0.0576314
-0.0527039
0.00661796
-0.206588
-0.00573351
0.00377651
-0.031566
-0.00633851
-1.93006e-09
-2.45955e-08
-0.00124092
0.000233709
-0.035822
0.0394341
-3.48912e-07
-0.0240128
0.142026
-0.0210015
-1.12885e-06
-0.0395302
0.063243
-0.02712
0.0686627
-0.0679107
-0.138619
0.0211399
0.00378664
-1.16472e-06
-0.0250666
-0.0488435
-0.0057184
-1.10184e-15
0
-0.019222
0.00446353
0
0.589616
-0.0166706
-0.0153191
-2.55894e-13
-0.0219548
-0.0110091
0.0903444
-0.0660565
0.00424923
-0.0784011
0.0146025
0.08609
-1.11661e-13
0.0719814
-0.0621058
-0.0149613
0.0845072
-1.01778e-321
-2.95415e-11
0.00595733
-0.0296199
-8.937e-07
-5.9141e-15
0.0269065
-4.37825e-05
0.00328486
-0.0156693
-0.000911762
0.128921
0.183071
-0.0223276
-0.0381935
-1.91136e-06
-0.0422483
-0.0677205
0
0.0199786
-0.0200701
2.78134e-05
-3.2841e-11
-0.0155198
-0.0603297
-7.50951e-170
-0.0729617
-0.124783
-7.85311e-12
0.0655738
-0.00124092
0.067564
0.0238618
-3.7904e-05
-0.00457844
-0.0722087
0.0137658
-0.0960163
-0.0378985
-0.00633851
-0.0134293
0.0889207
-6.08424e-06
-0.0349945
-0.0673523
-0.0609542
-0.0317563
-0.0341865
-0.00653891
-0.0524732
2.89948e-05
0.0770072
0.0266254
-6.20335e-165
0.0588499
-2.79887e-07
2.33352e-49
-0.02444
0.483204
0.0127628
0
-3.69827e-08
-1.68928e-05
-0.107222
0.0208147
0.0192518
0.00842671
-0.014783
-0.00208465
0.00891509
0.0161415
0.00109293
-0.0312926
-0.158501
0.120239
0
-0.0424614
0.033777
9.54539e-07
-5.18428e-05
-8.82166e-05
0.261029
1.52172e-321
0
0.0336836
-0.00760703
-3.1762e-06
-5.18641e-06
0.0775746
0.0656734
0.0215193
-1.29445e-321
0.0394341
0.011775
-0.106136
-4.61885e-06
0.0878788
0.167796
-0.078648
0.0112991
0.00606258
0.0899096
-0.0234725
0.00159247
0
-0.440146
0.106167
-0.139001
-0.0298615
-0.0373162
-0.00188281
-0.0993024
-0.00572332
0.0205537
-0.00394206
-0.01335
-0.0195207
-8.23785e-11
-0.03803
0.0150704
-1.11661e-13
8.78163e-49
0.110038
0.00473199
-2.07311e-06
-0.152175
-0.0692624
-0.0750611
0.00171201
0.22056
0.0353982
0.0674701
0.00557926
-0.109765
0.0208738
-1.91136e-06
0.0788328
0.0197585
-3.4744e-07
0.0173243
0.00580199
-0.0634489
0.00491201
7.26276e-322
-0.013102
0.0188183
0.262097
0.0182393
-0.121228
-2.49957e-13
0.000574841
0.00446353
-0.0615856
-0.0543109
0.00218409
0.00446353
-0.0926015
0.00378664
0.0253648
0.00423068
0.0239083
-0.000402301
-0.0472881
0.0717694
-0.00440058
-0.0341865
0.0035989
0.00446353
1.78901e-05
-0.0245227
-3.7904e-05
0.0189794
0.000208702
0.0195663
0.000267949
-2.95415e-11
-9.04526e-06
-0.0378477
0.0269374
0.0157732
-3.32411e-06
-4.01525e-09
0.0770678
-1.10184e-15
0.0444375
0.0102074
0.0661601
2.82211e-07
2.33352e-49
-0.0410713
0.0537028
-0.0582761
0
0.0157882
-0.00293586
-0.109838
0.0811956
-8.02591e-08
0.272504
-1.84964e-06
-0.0381935
0.0322656
-7.85311e-12
0.0928073
0.00717943
-1.92494e-07
-0.00717484
-0.156932
-3.57522e-05
0.000617018
0.0551747
0.0686627
-0.000107627
0.00716986
-0.228092
0.102385
0.0377664
0.0505338
-0.0210015
0
0.0121737
-1.54643e-321
-0.0565163
0.0952255
-0.0675355
-0.0693356
8.78163e-49
-8.98771e-06
0
-0.0153191
0.00446353
-0.00740449
0.0127599
0.00251571
-0.0163939
-0.127725
0.0090116
-6.25969e-05
0.00842671
0.110923
-0.0642238
-2.71336e-06
-0.0155924
0.00624712
0.00198526
-0.000123316
0.0179737
0.0226258
0.0417494
0.0388677
0.0173415
-1.57836e-06
-0.0903322
-4.48205e-05
-0.105096
-0.0103278
-0.385311
-5.94665e-05
0.0236947
9.32062e-07
-0.190348
0.00646835
0.0765415
-8.52033e-07
0.0287902
-0.155753
-5.9141e-15
0.0756833
0.00816437
-0.0369907
-0.0264989
-0.0317563
9.23903e-322
-2.76702e-06
0.00661796
-0.00205594
0.0523002
-0.0153191
-0.00538406
-0.0599042
-0.000138101
0.0182393
0.00842671
-0.0146718
-1.2302e-06
0.000773544
0.023863
0.0136331
-0.0231441
-0.0488456
-3.78047e-10
-0.129815
-1.58895e-14
0.00430111
0.0156798
0.0182393
-9.23413e-06
0.140654
0.237043
-0.0137908
0.00299651
-3.36173e-09
0.00165671
-0.0602382
0.00578663
0.00198526
-0.0629717
-0.0127657
0.02712
0.0638421
0.00430114
-0.0150119
-0.0653417
-1.11459e-08
-5.96266e-05
-4.5769e-13
0.00258253
0.0862359
-1.37509e-05
-0.0277481
-0.0201835
0.00137611
-0.171474
0.127824
0.00345892
-0.0558773
-0.000203951
0.0167189
0.0662453
0.00661354
0.149633
0.04425
-0.0165937
-0.000440878
-0.00710568
-0.0159382
-0.0316868
0.0803783
0.118331
0.290206
-0.0631712
-0.000104292
-8.37253e-13
0.0121904
0.0717013
-1.43023e-05
-3.7904e-05
-0.00389784
0.090788
-0.023091
0.106393
-0.0373652
0.00356968
0.000168668
-0.014194
-0.00640449
0.029228
0.00112609
0.00499418
0.000699048
-0.190411
4.0713e-05
0.00601398
0.0268395
0.0116346
-0.0111232
0
0.00634932
-0.186896
-0.0311111
0.0118413
0.00446353
-9.04526e-06
-2.59265e-10
-0.0802342
0.0807321
0.00852815
0.0090116
-3.13418e-06
0.0373784
0
-0.0207808
-3.66526e-09
-0.0793581
0.0400265
-0.029433
-0.0231611
-0.0468233
0.10347
-0.0742519
-0.0341009
0.0677354
0.0355727
0.00124757
-0.0369546
-0.025894
-5.58337e-16
-1.9944e-09
0.0645947
0.0853797
-0.0266237
-0.0158873
-1.2302e-06
0.00649937
-0.0368879
8.78163e-49
0
0.0941714
-1.43023e-05
-0.0151733
4.47936e-50
-5.9141e-15
0
0.0685466
0
0.00635498
-0.00499241
-0.0117308
0.161258
-4.01525e-09
0.00356451
-0.0130067
-0.103988
-3.93409e-08
-1.23023e-06
0.0381286
-0.00693223
-0.139146
0.0295836
-0.0683362
0.0444052
0.0359676
-1.12885e-06
-3.66045e-08
-0.020036
-0.0173527
-1.95582e-05
0.0739242
-0.0146718
-0.0236504
0.102684
0.00895359
1.17588e-321
1.2481e-05
0.150606
-1.44157e-07
0.0380998
-0.000402301
-7.21075e-08
0.0757291
0.0288925
0.00238786
0.0034877
0.0868346
0.00649296
-0.0391652
-5.8112e-13
-6.20335e-165
0.138006
-5.22381e-213
-0.0847173
0.0418495
0
0.00235215
0.069782
-0.000112578
0.0861472
-0.0558498
0.0159967
-0.0669457
-4.61699e-06
0.0758886
0.0137658
0.0863497
0.10256
2.33352e-49
0.25451
0.00578691
0.00446353
0.00192638
-1.21285e-09
-0.0279964
0.00436207
-0.00639551
0.00575796
-0.0304302
-0.142335
0.0656734
-5.9141e-15
-0.160732
0.055126
-0.00491257
-0.0545369
0.0205546
-1.15576e-05
0.0600852
-0.0543221
-1.47567e-09
-0.0153191
0.00782851
0.0188942
0
0.117825
0.00634061
0.201331
0.01991
0.0101653
-1.5887e-13
0.00363407
-1.08397e-07
0.0285424
-0.0145963
-0.00478284
-0.0437315
0
-0.0901368
-0.0137142
-0.135735
0.125292
0.139197
-5.74387e-05
-0.0505919
0.00165671
0
0.0778292
0.0764279
8.84378e-322
0.0111889
0.0972319
-7.36387e-06
0.0349934
-0.00743702
-1.92494e-07
-0.0639264
0.00107644
0.00547039
-6.5959e-44
-8.02591e-08
-3.2841e-11
-1.32396e-45
-1.08694e-322
0.0172426
-3.36173e-09
0.127578
-0.0670122
-0.0953599
0
-7.85311e-12
0.00328486
-0.0104694
-0.0255081
0.00171736
-0.0622709
0.0276859
-0.0392829
0.0634627
0.0119639
0.00739672
-0.0210015
-0.00271942
-1.21285e-09
-1.12277e-08
0
-0.0193435
-9.04526e-06
-0.165807
-0.385704
-0.00573351
0.00918298
0.0286553
-0.144703
-0.00573351
0.0335005
-0.0357958
-5.37264e-05
0.454642
-5.15966e-09
0.0136873
-0.0368819
0.0456611
-4.01525e-09
0.0362513
0.0135957
-0.0304302
0.00446353
0.149503
-0.161285
0.00192638
-9.14584e-08
0.0191228
0.0016567
-0.0219274
0.240153
-0.018439
0.0280744
0.0200748
0.0776967
9.32062e-07
-2.84707e-05
-0.0536412
-1.34654e-05
-0.0600783
0.12772
0.0137658
-0.0809907
0.22364
0.0106694
0.00930524
0.0980414
0.00278223
0.00192638
-0.0582761
0.0280098
-0.0050998
0.0498138
0.0110708
0.0156832
0.029228
0.0374569
-0.0464712
-0.0249298
0.0527822
0
0.0394341
0.00446326
-2.05572e-07
-3.47514e-07
-0.0381935
-1.16082e-07
-0.0110091
-0.0718757
-0.0369907
-0.000177843
-3.39728e-06
0.019598
-6.25969e-05
-4.11756e-05
0.00192638
0
-0.0357616
0.0405632
0.00114245
0.0190287
0.0381112
0.0619296
-5.9141e-15
0.0129393
-0.0352567
-0.000177296
0.0663231
-0.0558623
0.0582124
-0.0882887
2.33352e-49
-0.0544093
-3.1762e-06
0.0112991
-0.0807539
0.0693745
0.0489395
0.042723
-0.0819028
-0.0648505
8.78163e-49
0.152912
0.0345117
-0.0268715
0
0.0122312
0.176186
-0.0874381
0.00649937
-0.0465913
0.0611077
1.488e-05
-0.0203718
0.0592671
-6.57183e-45
0.0121338
0.00308274
0.00446353
0.00423068
0.00124757
-1.12225e-212
0.039261
6.55932e-49
-1.2302e-06
-5.39945e-06
0.0205546
0.0878597
-1.12885e-06
9.47398e-51
0.0161342
0.0037689
0.0195663
-3.92603e-08
-0.0338178
-4.01525e-09
0.0255331
0.0116346
-0.0372532
0.00140367
-0.05091
-2.45955e-08
-0.0275282
-0.0473479
0.0132278
-6.88424e-09
-0.0682908
0.0608395
-0.00476677
0.00121366
-0.0195366
-0.02444
-0.0155198
6.55932e-49
0.0161351
-0.0191956
0.0333821
0.0419352
-3.1762e-06
0.00378664
-1.21285e-09
0.00968715
-0.0372532
-0.114074
0.00103521
0.0329245
0.00635498
-2.55894e-13
0.0219739
0.0358486
-7.48382e-05
-0.0205552
-5.2658e-11
-7.46039e-322
-0.0679034
0.0150161
0.0384986
-0.0103123
0
7.26276e-322
0.123896
0.033486
-0.101071
0.0198144
0.070856
-0.034962
0
-5.85034e-07
-3.2841e-11
0.0023936
-0.0139803
0.0147715
0.049184
-0.0482181
-0.0385763
0.105165
-0.00314074
0.00356451
0.0519783
-4.37825e-05
-0.112288
-0.137203
0.0241405
0.10235
8.62975e-51
0.000994521
0.00446353
0.0177002
0.0365839
0.0617355
0.193365
-0.000190275
-1.89052e-08
-0.0277712
-2.55894e-13
-0.0294839
0.00250566
0.0195663
0.081709
0.00822464
-2.30334e-09
0.0227891
0.0101779
0.00378664
0.00635611
0.0537032
0.00446353
-0.0348774
-0.0545369
-0.0180887
0.0733942
-0.0432378
0
0.0502039
-1.52623e-05
-3.05626e-05
-0.0332944
-0.103918
-0.105651
-0.0336491
0.0973226
0.0419583
0.00417832
0.00661457
0.049427
-4.01525e-09
0.013988
0.00446353
-1.1692e-05
-4.94685e-05
0
-0.0449507
-6.57834e-08
0.0349254
-0.0686241
-6.57834e-08
-7.69349e-08
-0.0352933
-2.07555e-06
-0.0240828
-0.052492
0.0227891
-8.15116e-05
-1.28733e-06
-0.137079
0.000186198
-0.0162129
-5.6548e-06
-0.0409588
-0.00573351
-5.63121e-16
-3.36173e-09
-0.0378985
0.0664981
-0.0102411
0.0264618
-0.040183
-0.0368819
0.112304
0.00446295
-0.00866053
-0.00360964
-0.0357958
-4.81337e-13
0.0561973
0.037583
-0.00633851
-0.246808
-0.0210015
4.47936e-50
-0.0424614
0.00356451
-0.0363798
0.011663
0.0363937
-0.0444642
-0.00293586
0.0622104
0.505934
0.00601398
-0.0242003
-0.00487997
-0.0762852
1.52172e-321
0.00426713
0.0392319
-0.0224896
-5.9141e-15
0.0967654
0.0481982
0.138631
4.17188e-05
-0.0314142
-0.00360964
0.142666
0.00446353
0.00446353
-0.100801
0.171496
0.0506382
-0.00293586
0.00446353
0.00549458
0.0727954
0.00251571
-0.00704608
0.0551792
-0.0167811
0.07003
-0.00360964
-0.000152003
-0.0153191
-0.109755
-0.107627
0.0634469
0.0374221
0.0462208
0.0722719
0.0591471
-2.55576e-07
-3.48912e-07
0.0321175
-8.23785e-11
0.0694079
-3.48912e-07
-0.0275282
-0.0491585
-0.0122542
-5.9141e-15
0.0173958
-0.00444468
0.0932496
-0.0249125
-0.0555874
0.0190946
-8.49793e-322
0.355226
0.0394341
0.0251828
0.113405
0.0290368
0.107277
-3.39728e-06
0.0649598
-1.21285e-09
-4.40435e-05
0
0.0429583
0.00165671
-0.0787883
-0.0629133
0.0259841
0.00487562
-0.00674222
6.55932e-49
0.00112307
0.0399568
-0.0161275
0.039261
-3.75548e-08
-3.9152e-45
0.0205977
-0.0317563
0.00580199
-0.0357958
-0.000177843
-1.12885e-06
-0.14125
-0.0412768
-3.4744e-07
0.0818583
-2.05037e-321
-0.0272756
-0.0462821
0.0510791
0.0182393
-0.0552979
0
-1.03228e-07
0.0404737
-1.09858e-191
-1.61676e-05
-0.0133854
0.010361
5.12858e-07
0.074781
-3.75548e-08
0.0179737
-0.135041
0.151815
0.0256481
-1.03228e-07
0.027218
0.0965428
4.19089e-05
0.00527715
-0.0773578
0.0770678
-6.25969e-05
0.0146066
-3.84271e-06
0.20357
0.254284
-0.0445727
0.00595672
0.0129393
7.26276e-322
0.00088447
-5.18641e-06
0.0810951
-0.0153191
2.16385e-25
-1.03728e-06
0.0143213
4.48337e-05
-0.106818
0.0026004
0.0795014
-0.148634
-0.0645177
-0.00530652
-0.118576
0.0154196
0.0584434
-0.0147763
-1.03801e-06
0.0334623
0.0058449
0.0616873
-8.87405e-07
-0.0133999
1.12893e-05
-0.107505
-0.0912746
0.0247516
-0.0634898
-0.0341866
0.0427157
0.0541658
-5.71423e-05
0.09867
0.0733942
-6.3882e-11
-6.3882e-11
-0.0106087
-0.00712113
0.0304813
-0.0445406
0.0115631
-0.0686241
-0.0179452
-0.0369907
0.0115631
0.0205546
0.003397
-0.0906736
8.62975e-51
-9.23413e-06
0.41356
-0.0775405
-0.0522959
-0.0506954
0.0125573
-4.96059e-06
0.00806486
0.0195663
0.00023216
0.00356451
-0.0110956
-0.0503391
0.00134111
-0.0975779
0.0205546
0.00220784
0.112614
-0.101554
-0.0373162
0.115657
-0.100801
0.023648
-1.79708e-07
0.0192355
0.220424
-3.74508e-06
0
-0.0110091
0.136899
0.0053128
0
-0.0028242
0.00578639
0.0177763
0.0317439
-5.27489e-09
-0.0372372
-1.18665e-06
-0.046203
-0.0658619
0.0329432
0.000919133
-0.0142386
-6.59393e-07
-0.0978628
0.0310336
0.0112991
0.00348119
3.00077e-199
-0.00314074
-1.53411e-06
0.0377619
-3.66526e-09
-2.51639e-07
-0.00997208
-0.0757638
-5.5987e-05
0.0648458
2.81062e-08
0.00218409
0.0487141
0.0447908
0.00136625
0.121358
-0.0149422
0.0002215
-0.0318108
0.00531268
-0.0203718
-0.0203718
-2.95415e-11
-5.64694e-06
-3.4744e-07
-0.121983
-0.0210015
-0.0734251
-0.0153191
-1.03448e-05
-0.120749
0.0539268
-4.01525e-09
0.0426422
-0.0418428
-3.08534e-05
-0.010944
-3.65309e-05
0.0752814
-0.00325728
-0.0231149
0.00806486
-7.92942e-07
0.000289429
-0.0510923
0.19131
-0.0376649
-0.0424924
0.0527822
-0.0526278
-0.114885
0.0287915
-0.0108243
0.057874
0.0633009
-0.00205594
-0.00389784
0.0499736
-2.71124e-07
0.000711081
-3.4744e-07
0.00445782
-2.58339e-13
-1.11459e-08
0.00143894
-4.01525e-09
0.0107209
-0.0540429
0.125092
-0.0228889
-2.55894e-13
0.128841
0.00202736
-0.196109
1.52172e-321
-1.91559e-06
-0.102087
-0.0582761
-0.0488456
0.000230697
-0.139069
0.0199037
2.70667e-32
0.00250589
-0.000145923
0.0527822
-0.0607544
-0.0228613
0.0356371
-4.6142e-10
-0.0814161
-0.0189991
-0.0231796
0.00446353
-0.0500881
0
0.0264618
0.00378664
-0.129661
0.0394796
0.0170857
-0.0410466
0.00446353
0.000286007
0.0986112
4.47936e-50
0.00446353
-0.00573351
0.138621
0.00708835
-0.0342401
0.00578663
4.47936e-50
0.0766097
-0.053182
-0.000202002
-1.60037e-05
0.00203188
0.0783994
-0.00968837
-3.66526e-09
-1.52623e-05
0.0560095
0.0353982
0
-3.49693e-05
0.0660309
-0.0905142
-0.0146718
-1.2302e-06
-0.0916176
0.00842671
-1.21285e-09
0.0205546
0.0333595
4.73552e-51
0.00580199
-0.0343579
0
0.00113024
-7.69349e-08
0
0.000260583
0.0020319
-0.0246957
-2.83577e-08
-0.078966
-4.96059e-06
-5.64694e-06
-6.20335e-165
0.000808061
0.138735
-0.24477
-5.71423e-05
0.0425914
-0.00739006
-0.110686
0.0156795
-0.0800219
0.00945771
-7.69349e-08
-0.0700573
-0.0189471
-9.04526e-06
0.00354648
-0.0391652
0.000576847
0
-6.52756e-08
0.00103521
0.09801
-0.156743
-9.19305e-05
-0.0508761
-6.20335e-165
0.00422979
0.00327513
-6.3882e-11
-2.79887e-07
0.0394341
-2.07555e-06
-0.00971316
7.43922e-05
-0.114098
0.0432608
-0.0201835
0.230577
0.00593641
-1.73932e-11
0.0129379
-1.21331e-09
0.0127831
-0.109229
0.0885408
0.00993904
-0.105364
-4.61885e-06
0.00637283
-0.0206989
-0.0812004
0.0620305
0.00281482
0.0192439
0.00894492
-0.00389784
-0.112383
3.07339e-06
-0.00639551
-0.0103123
0.270397
-1.16082e-07
-3.9152e-45
0.0345809
-0.0451332
-5.71423e-05
0.0410763
-0.017689
0.0163779
0.0779681
0.0173958
-0.0593519
0.0148907
-0.0497385
0.0031989
0.00424895
-0.0223254
-1.11661e-13
0.531473
0.0892603
0.0611029
0.0369021
-0.038736
0.0698284
0.0161342
0.0462208
0.0558372
0.083658
0.0506818
-0.0381935
-0.0897846
1.96033e-05
0.000621995
0.0314682
0.00198526
-2.38204e-06
-0.0187056
-1.21285e-09
-1.23023e-06
0.00410113
0.00353263
0.00785622
-1.61675e-05
0.0332957
0.00299142
-0.00408957
-0.0418428
-6.20335e-165
0.0765523
-0.379008
0.0272897
-0.017436
0.0977773
0.0176953
-0.0016336
-0.0137807
-0.0587515
0.0179737
6.55932e-49
-0.0516337
0.102385
-0.00805576
-0.000429589
0.0619027
-0.0080146
0.138787
0.0115631
-2.65759e-05
-0.0881353
6.55932e-49
0.00446353
0.0254902
-3.36173e-09
0.000327589
0.000327589
0.0763671
0.0790052
0.0129915
-0.0805651
0.000730022
0.00112609
0.0150601
-4.01525e-09
-0.0667263
0.0572486
-0.0337972
-0.11596
-0.00712113
-0.0246343
0.0661184
-0.0235869
-0.0157164
-8.74496e-322
0.100213
0.0130022
0.151853
-2.36469e-14
-0.0231912
0.03744
-0.029319
-6.3882e-11
-0.00343926
0.171419
0.045435
0.000986798
-0.147119
-0.00293586
0.0152116
0.0955767
0.0655738
1.6503e-05
-0.0509269
0.0658639
0.0142428
-0.0163654
-4.61885e-06
-0.0975942
0.0980409
0.0017264
0.00228844
0.244903
0.00991629
0.00212201
0.0154196
0.0350102
-2.12448e-322
0.0101653
0.124311
0.0959041
0.0551747
0.257065
-0.000331915
-0.0205625
0.00364323
-0.0420706
0.017648
0.0127599
0.0945492
0.0127889
0.00580199
0.0213362
-1.01833e-08
-0.0153191
-8.52033e-07
0
6.55932e-49
0.0509534
-0.0431292
0.0520336
0.00225912
-0.144503
0.00364323
-0.0759133
4.47936e-50
-8.20774e-07
0.00446353
-4.5769e-13
-0.109734
-1.2302e-06
0
0.000823766
-0.0154623
-0.0268994
-0.0201599
-0.0864897
-0.0381935
0.0973226
-2.67327e-10
0
-0.0129658
0.0352744
0.0141595
-0.0338215
-0.0603375
-1.12885e-06
-0.0694063
0.00143894
-4.36334e-06
-0.0278171
-0.0223036
-0.0845952
-7.69349e-08
-0.117362
0.00718115
0.0442539
-0.0547508
0.00192638
0.40739
0.01013
-1.76248e-11
-0.192211
-5.92174e-15
0.0560095
-0.0225656
-0.0325321
-0.0349074
0.0383863
0.0440265
-6.6986e-06
7.61153e-05
0.00446353
0.019468
0.0717694
0.0259374
-1.85527e-06
-1.32396e-45
0.0220918
0.0335005
0.0179737
0.0505828
-0.00314074
-0.104995
-0.0989192
0.0135957
0.00966294
-0.0500647
0.0705382
0.0040269
-0.0142386
-0.00704608
0.0320742
-0.206561
0.00192638
-0.142214
-0.0428035
0.00424923
0.115643
0.00603629
0.00637283
-5.63121e-16
-0.00440058
0.0387635
0.239454
-0.0196228
0.0360086
0.0080432
-0.0140842
-0.0885711
0.00119546
-0.00573351
0.063482
-0.0257297
-0.00313767
0.109012
0.0593386
-0.0174129
-0.0360212
0.100625
-3.63525e-05
-0.0658619
-0.361014
0.0112991
8.62975e-51
-0.0497385
-9.77283e-05
-5.9141e-15
0.0127879
-0.0954168
-0.110788
0.0587567
0.037583
-7.69349e-08
-1.12885e-06
-0.00703757
0.0806476
0.0179737
-0.00796702
-0.100801
-0.0438919
-1.87357e-06
-0.024634
0.0973226
-2.16701e-05
0.254974
-0.0407091
-0.0824622
0.0182393
6.77045e-05
-0.0157164
-7.61309e-05
-0.0818117
0.126947
0.0572209
0.00192638
-0.0235869
-0.00789264
0.0410986
-0.0020734
0.00863171
-0.0255073
-1.65818e-05
-1.79716e-07
-1.7457e-05
0.00378664
-2.59265e-10
-0.0949229
0.0154196
0.0844956
0.00578663
0.012726
-0.0019012
0.0127628
0.00319892
-1.2302e-06
-0.021067
0.0322564
0.00635498
0.00258857
0.0382508
0.0420786
-0.0178479
-0.00650734
0.0250322
-0.00573351
0.131072
-9.19305e-05
-0.142268
0.067564
-1.12153e-321
-0.00651225
0.0457248
-0.0685807
-2.28709e-06
-2.09137e-05
-0.0207875
0.00358939
0.0215193
-1.08694e-322
0.00532094
0.00815917
-0.070478
-4.01525e-09
-0.00395732
-0.0554609
-0.087312
-2.18711e-06
0.0350102
-0.0724841
-2.45955e-08
0.155488
-5.72935e-06
-0.00188877
-0.0215841
0.00948857
-0.0372251
-0.127148
-0.0147929
-0.0430901
-0.117643
0.0582661
0.00597642
0.113394
-0.0373162
-0.0989192
-8.23785e-11
0.0133722
-4.00621e-05
0.0049338
-6.25969e-05
0.0162417
0
-0.0858593
6.55932e-49
-5.9141e-15
0.110038
0.0971946
0.0218254
-3.32411e-06
-0.0192242
0.0847821
-0.0535962
0.102684
-0.00179893
0
-1.69543e-05
0.0573082
0.000286
-0.0146718
0.023863
-1.08694e-322
1.2481e-05
-0.0768797
0.0465195
-0.0158155
-0.0192448
0.228047
-0.125162
-9.42208e-08
0
0
-0.0421878
0.111713
0.00993904
0.0014649
-0.00476677
-0.0130212
-4.01525e-09
-0.0488238
-0.00638005
-0.0686241
0.000581582
0.00639572
0.000289429
-0.0349074
0.0287915
0.0501983
0.0205546
-0.0207875
-0.120664
-0.0641673
0.0440304
0.0560092
0.0322564
0.304732
-0.137203
0.0111889
-2.45955e-08
-5.64222e-06
0.025417
-7.69349e-08
0.0690977
0.00595733
0.00356451
-0.024242
0.0351653
-5.64353e-05
-2.85523e-05
-0.0645457
0.140133
-0.0281647
0.00405544
0.00557926
-0.0150995
-0.0606508
-0.047562
0.228336
-0.0319425
0.00198396
0
-1.51379e-06
0.0474388
-0.0189991
0.0504774
0.000129732
0.000327589
-5.9141e-15
-7.85311e-12
-0.0485533
-0.0571907
-0.0412524
0.00842671
0.188272
-1.32396e-45
0.0624706
-0.132756
-0.0110091
-0.179955
0.00577278
-0.0420706
0.0510972
-2.03264e-06
-0.000429589
0.0373157
0
0.0543058
-0.0150119
-0.0348774
0.0911403
-5.18641e-06
-0.000149203
0.0266559
0.319841
0.0140307
-0.0362142
-0.010944
-0.0369014
-0.00458349
0.00088447
0.000327589
0.155426
0.0473602
9.54539e-07
0.00192638
0.01013
-0.00746727
-1.21285e-09
0.0444245
8.33402e-05
-8.37253e-13
0.00088447
0
0.00279308
0.000286007
0.0519319
-0.0142375
0.0536976
0.00165671
-3.7549e-322
0.00299651
0.0239328
0.00378541
-0.00362555
-0.0404766
-0.0105567
0.0519319
0.0754099
-0.0703814
0.00228844
0.00601398
0.00328486
-0.0356329
0.191554
-2.71336e-06
-0.0132869
0
-1.08694e-322
-4.37825e-05
0.0112991
0.0510197
-0.0231821
-1.48326e-05
0.0159615
-0.0150637
0.0136873
-0.0657086
-5.18428e-05
-4.61699e-06
0.00218409
-7.36387e-06
0.0424425
-1.39432e-09
-1.5887e-13
-0.000112578
-2.92296e-07
0.0429726
0.00633752
0.000632094
-0.0201847
0
4.47936e-50
0.0122564
0.00358939
0.010371
0.000289429
-0.0231149
0.033278
-2.71336e-06
-0.0120925
-0.0247833
0.487129
-0.015321
0.000914233
-8.88132e-05
0.0878871
-3.39754e-06
-0.0800963
0.00421356
-0.069201
0.0763343
-0.0305037
-0.0438126
-5.85034e-07
-0.0949589
3.00293e-05
-3.69827e-08
0.00194614
-0.011076
1.24303e-05
0.0357226
-8.02591e-08
-0.0572693
0.00446353
0
-0.0341208
0.00165671
-0.0153191
0.0453333
-0.0479849
-0.02444
0.0250972
0.0397657
-0.0683362
-1.12885e-06
-2.95415e-11
-0.0906396
-2.42841e-06
-0.0162837
-0.343729
0.0345117
0.0581516
-0.0146718
7.61153e-05
-5.20539e-08
-1.3692e-09
0.21564
0.111706
0.0443996
-0.000144465
-2.36476e-07
0.112905
-5.63121e-16
-1.03188e-09
-4.5769e-13
6.55932e-49
-0.018015
-0.0611286
0.0810951
0
0.00646835
-0.037226
-3.62114e-06
0.00293864
-0.00692776
0.010517
0
-2.55894e-13
-0.0092943
0.0116346
-4.01525e-09
0.00165671
-2.53868e-06
0.0350102
0.0875029
0.0215193
-0.00573351
-0.0025362
0.00893401
-0.0140854
0.0345855
0.12941
-0.0133046
0.0478731
-0.000243944
0.0350102
-1.61675e-05
-9.25561e-05
0.00442534
-0.000153871
-0.00245942
-1.03188e-09
0.000979738
0.0896881
-8.0588e-06
0.00424923
-0.0532304
-0.0477627
0.0228857
0.0170083
0.0557201
-0.0241089
-0.0703302
0.00385888
0.0020884
0.00165671
-0.0578231
0.029093
-1.12277e-08
-2.83577e-08
1.23022e-321
0.0430207
-0.0250186
-0.0134293
-0.0464596
0.056604
-0.000402301
-0.0961675
-2.38204e-06
-0.0611424
0.0147715
-3.66526e-09
-0.102729
0
0.100904
-0.0578398
-8.15116e-05
-0.0318755
-6.20335e-165
-8.87405e-07
0.000476999
0.178769
0.00191469
0.00133645
-0.0158003
0.0100579
-0.0266237
0.0270855
-0.0523515
0.0791622
-1.1692e-05
0.0179737
-0.0110477
-1.11661e-13
0.0394341
-0.0340508
-0.000634062
-0.138496
-0.0146718
-1.01778e-321
-5.9141e-15
-5.96266e-05
7.26276e-322
0.0462208
-0.00704608
-0.00440058
0.0154196
0.138231
0.0455473
-7.38367e-05
-0.0400216
0.00473199
-0.10236
0.00313473
0.029228
-0.0173527
-3.05626e-05
-0.00299827
0.0414137
0.00124757
4.64422e-322
-2.36469e-14
0.00192638
-0.000141884
-1.94e-06
-0.000143409
-0.0155198
-0.0205096
0.00125797
0.0201954
-5.64222e-06
-0.102708
-0.00739006
0.0619027
-0.139398
-0.0125976
0.0481886
0.0559413
-0.0968091
-0.0375732
0.0394341
-0.0523048
0.0179737
-0.0960034
-0.0110091
0.0127599
-0.00559237
0.161961
0.197549
-0.0592454
-0.0908914
0.140367
0.0088699
0.0173955
-0.0949337
-0.027081
0.0053128
-0.0376649
0.075919
-0.0984775
-2.79887e-07
0.00356451
0
-0.0387585
0.00635498
0
0.0202035
0.00110935
-0.000402301
-3.48912e-07
0.0099481
0.0640965
0.138411
0.01991
0.0014649
-0.00106873
-1.29445e-321
0.133202
0.011663
-0.116603
0.0148853
-0.0337975
-0.0317563
-0.0130597
-0.0859958
-0.0827004
-1.91136e-06
0.0191228
-0.0604539
-9.42208e-08
0
-0.0428016
-0.0364503
0.00278223
0.0740784
-0.0534034
-0.0222105
-1.49407e-213
0.0191228
-1.16082e-07
0.0509978
0.0287566
-1.68101e-06
0.067564
-3.55727e-322
0.0588499
9.32062e-07
0.0034005
-0.0352564
-0.00145302
-1.21285e-09
0.00192638
0.0531285
0
0.185835
0.0020319
0.000686558
0.00165671
-3.81363e-06
-0.0325472
0.063869
4.47936e-50
-1.28733e-06
0.0251231
-0.0946887
0.00446353
-0.000190275
-1.21285e-09
0.0176378
-0.110835
0.00874349
0
-0.0482171
0.000288177
0.00446353
-0.0531062
-0.0871531
-4.11756e-05
0.126736
0.200975
0.0053128
0.0349934
-0.0480626
0.00822433
-1.59583e-321
-0.065365
1.72923e-321
3.20022e-05
-2.00981e-06
0.00255788
4.98379e-50
-0.0596953
-0.0414342
-6.08424e-06
0.00446353
-0.0381935
0.0339681
-8.3841e-13
4.73552e-51
-0.0413749
0.0026004
-0.109432
-0.0755959
0.021275
-0.0707465
0.123713
0.00635498
-8.98771e-06
0.0298473
0.064608
0.0143161
0.0566449
-8.15116e-05
2.82211e-07
-0.0345379
-1.21285e-09
0.108539
0.000289429
-0.000143409
0.006062
0.0554179
-0.00244533
-0.00940366
0.00161496
-0.0458957
0.0273002
-5.85011e-05
-1.78412e-07
-0.0209955
0.00657577
-0.0370516
0.0705719
-2.62681e-09
-0.066738
-0.0473471
0.0350102
0.00592804
-0.111897
-0.0319425
-5.15966e-09
0.0202035
0.0228039
-6.96769e-07
0.000168668
-0.0141981
0.00378664
0.181254
0.0821486
0.0457212
0.0507574
0.00378664
0.000482337
-0.069715
-0.0719155
0.00491201
-0.107657
-0.0721577
-0.0231611
-5.6548e-06
0.0559363
-0.0153191
-1.92494e-07
-0.0381935
0
-1.16082e-07
-0.0337972
-0.0909213
-6.87421e-05
-2.58339e-13
-3.90231e-45
-0.0763725
-4.00621e-05
-0.0385763
0.0116629
0.00842671
0.00235215
0.00815917
-0.123574
0.0112991
-0.0349074
-0.0388757
0.0620624
1.24303e-05
0.00939267
-7.69349e-08
-0.0416531
-0.0631511
-2.86978e-05
0.00358939
-9.04526e-06
-0.0134293
-0.000911762
-1.25403e-08
0
2.01675e-06
0.000132563
1.72923e-321
0.029228
0
-0.0175886
0.000550247
0.277495
0.11178
0.0284543
0.0232825
-6.59672e-06
0.0952286
0.000571222
-0.0255082
-7.69349e-08
-0.00712113
-0.000143409
-0.0130786
-0.0238201
0.0722719
-0.00573351
-0.0381935
-0.238591
-3.78047e-10
0.0167348
0.00941892
0.0262737
-9.19305e-05
-0.0679044
0.0834965
-0.0477627
-0.0284273
-0.0163163
5.03947e-322
-7.85311e-12
0.00446353
0.029374
-1.09858e-191
-5.72935e-06
-0.0126968
0
-4.00621e-05
0
0.235731
0.011663
0.114664
-0.0285368
-0.101692
0.00319892
0.00353072
-2.79887e-07
0.467123
-5.9141e-15
-0.196062
-0.0780152
-0.0398294
0.430261
0
-2.51639e-07
0.01991
0.0469955
-0.00198568
0.0161342
-0.0249295
2.67753e-05
-0.0491585
-0.0127941
0.0246935
0.0268159
0.153659
0.0056466
-0.00565017
0.00646835
-0.137306
1.72923e-321
-0.111364
0.0670052
-0.0334425
0.0156907
0.0474315
0.00109227
-0.0227097
0.00143894
-0.0103123
-5.9141e-15
-0.0101308
-0.10117
-3.78047e-10
0.00359389
-0.213087
0.427526
0.0107782
-1.34654e-05
0.158446
-0.00440058
-1.08333e-07
-0.122776
0.000539068
-0.0353296
2.49955e-07
0.00378664
-0.0105567
0.0227891
-0.0303156
-1.12885e-06
-0.118097
0.00446353
0.2434
-0.0111231
0.0127831
0.00999796
0.0427815
0.0231306
-0.0193611
-5.71423e-05
-7.48382e-05
-0.0105567
-6.08424e-06
-0.0586691
-4.00621e-05
0.00462415
-1.74569e-05
-0.00696387
-0.131638
0.00328486
-0.0672442
0.0722719
0.120493
-0.0357961
8.62975e-51
-0.0269216
0.0437487
-1.74398e-05
0.00635498
-1.11349e-06
0.00339151
0.0495487
-5.71423e-05
0.0321484
-0.0201835
0.0053128
0.00362512
0.0899285
0.0419492
0.0149012
-0.0102411
-2.51408e-06
0.360631
-0.0207875
0.102684
0.0677555
0
-8.89318e-322
-6.59393e-07
-1.85525e-06
0.104067
0.0129915
0.0724158
0.0151209
-0.0569715
-1.73957e-06
-2.45955e-08
0.0021414
-0.0649202
-2.71336e-06
0.00690739
-0.0489967
-4.01525e-09
0.0425914
-0.0489816
0.0410986
0.0695183
0.0155992
-0.0738916
-3.7904e-05
-0.105471
-6.51104e-05
0.0657566
-0.134863
-5.85034e-07
-1.03801e-06
-0.039975
0.00845356
5.12858e-07
-0.00293586
-1.43023e-05
8.99199e-322
-5.06497e-13
-6.20335e-165
0.06132
0
-0.000104292
-0.259244
0.0471258
0.00208512
0.000539068
0.000723859
-0.0515293
-0.0719846
0.0414658
0.000730022
-0.01335
0.0433884
0.0470238
-1.87357e-06
0.0620625
-3.7904e-05
-3.04168e-07
-0.000177843
0.0663231
0.00446353
-0.00589479
0.442183
-1.61065e-05
0.00457464
0.00192638
-0.0287811
0.0112991
-0.0110559
0.0195663
-1.03801e-06
0.00491201
-0.00633851
0.0545938
0.00661796
-1.10345e-05
0.0143213
0.0112991
-0.0137688
0.00192638
0.00895359
-2.09137e-05
-0.00103684
-0.0497833
0.0705194
0.0507669
-0.0580675
0.0201554
0.00192638
-0.0185475
-0.0223298
-0.0174505
-0.0488456
0.00140367
0.00109293
0.00809791
-0.0695782
-0.00012774
-0.0360219
-1.12885e-06
0.00378664
8.78163e-49
-3.63525e-05
-0.106818
-0.0421376
0.0109461
0.062828
-5.63121e-16
-0.0308217
0.194652
4.47936e-50
-0.002169
0.0026942
-0.0159726
0.00192638
0.00446353
-0.0173527
-0.00573351
-2.58339e-13
7.26276e-322
0.0606164
-0.0599812
1.52172e-321
-1.29445e-321
-0.05819
0.0058449
-1.29445e-321
-0.0348774
-0.068335
-9.69652e-10
0.0329245
-0.05091
0.000304791
-1.71371e-09
-0.0312926
-4.27798e-07
-0.000177843
-0.135885
0.200891
0.0525472
0.0129753
-0.0343579
4.47936e-50
-0.0350865
0.0546426
-1.12885e-06
-0.00130011
0.392959
-0.000154607
0.117302
-0.0558388
0.164477
-5.72935e-06
-0.0317563
0.0161342
0.000625791
0.0582661
-0.000144202
0.0663231
2.32848e-05
-0.160385
-0.0477023
-0.0341865
-2.11409e-05
-0.0207875
-0.0545369
-0.00550081
-0.0232447
1.2481e-05
-1.51678e-321
0.0248574
0.0480622
0.00930524
0.0113753
0.0127831
0.0153042
0
0.0444245
-0.00293709
0.053337
0.19955
0.0353982
0.00646835
-0.0292263
0.0195663
-2.12448e-322
2.16385e-25
-5.18428e-05
-0.000145522
-0.0381935
0.000119732
-2.76702e-06
-0.00121129
-2.59265e-10
-8.23785e-11
0.00446353
0.0455817
8.62975e-51
-0.00931682
0.00228844
0.107891
-0.0712108
-0.0599653
-7.36387e-06
0
-3.01235e-06
0.381152
-0.140872
-1.2302e-06
-6.20335e-165
-0.0296587
-0.0310001
0.00649937
-0.00524726
-0.0311111
-0.0143817
0.0161342
0.0208738
0.0121093
-5.9141e-15
-0.0609292
0.0733942
-0.031687
0.10176
-0.0698295
-0.0510905
0.002815
-4.01525e-09
0.0272402
-0.00340374
0.0058449
-0.0827521
-5.08747e-05
-0.0529972
0.00117842
0.0505601
-6.25969e-05
0.0227819
0.000327589
-0.0532703
-0.07867
-0.0235869
-8.74496e-322
-0.112628
-1.92494e-07
-0.0385927
0.00798677
-1.73932e-11
0.0157451
-7.46039e-322
-0.0231532
-1.21267e-07
0.123209
0.0274388
-0.0816333
-0.100148
0.0335972
-0.128867
-2.07534e-06
0
-0.0541018
0.0198505
-6.25969e-05
-4.01525e-09
-0.0856971
-1.51678e-321
0.114362
-6.01397e-05
0.158014
-0.0309815
-3.32411e-06
-0.0441099
0.0396772
0.0524045
-1.79569e-14
-0.00573351
-4.01525e-09
0.035682
0.000113631
0.00446353
-1.47567e-09
-0.0550788
0.00140367
-0.0415389
-0.0702226
-0.0653104
-1.58461e-05
-2.71336e-06
0
0.0166284
0.00299651
-1.21285e-09
0.00251571
0
0.144999
-3.9152e-45
-0.0311124
0.0359541
0.00353263
-5.9141e-15
-4.01525e-09
8.62975e-51
-0.035206
-2.39199e-08
0.00202736
-0.0474605
0.0105738
-2.71336e-06
-0.0927496
0.0981959
-0.046625
-0.0545442
0.454173
0.124836
0.0195663
0.0948588
0.170411
-8.98771e-06
-1.2302e-06
-6.88424e-09
0.00332848
6.26957e-05
-1.03188e-09
3.75953e-06
0.0686803
-1.94306e-05
-0.021067
-6.08424e-06
0.0616589
-0.000882621
-0.0231821
0.0511684
0.0143213
-0.0153191
0.0528187
0.0055353
-0.000429589
-6.59672e-06
-0.0223783
0.00637283
0
0.0532571
-0.0381935
-0.0418428
0.0345036
-0.0860727
-0.0807807
0.0581676
0.00661796
0.0509204
0.0408504
0.00356451
-3.66526e-09
0.139861
0.00646835
0.00580199
0.00793321
-0.185376
-1.64366e-15
-0.0140448
0.00580199
0
0.0356868
8.62975e-51
-0.0526744
0.00348057
0.0263237
-0.00444468
-0.00739003
0.0169518
0.0814087
-0.0369256
0.0387247
-6.954e-05
-0.0200252
0.0042479
0.142296
0.116917
0.0598512
0.0123302
8.78163e-49
-0.0173527
0.00661796
0.00801237
-0.000216483
0.00012029
0.00125797
-0.00639551
0
-0.0378985
-1.03228e-07
-0.0334425
-2.07311e-06
0.0979269
0.00463781
-0.00972433
-0.104507
-0.045569
0.102089
0.0102099
-0.08247
-0.0356556
0.0684626
2.20068e-05
0.0127396
0.0161577
-0.0803854
0.089352
0.103493
-0.0903323
0.0695373
0.0758305
-0.0415407
0.0200458
0.32997
-0.00779028
-0.0462184
0.00023216
0.0430207
0.0364048
-0.0381935
-2.4353e-06
0.0611029
-0.019708
0.102413
-8.34836e-06
-0.0129152
0.0746239
0.0605972
-0.00182366
0.0935111
0.0425914
-0.0231532
-5.71423e-05
0
-0.0220284
0.00635498
-0.0955151
-0.0219548
0.049427
0
-1.73804e-06
-0.0341363
0.0316362
-0.0267722
-2.71124e-07
0.00446353
-5.86963e-05
-2.10472e-321
-0.0343586
0.354326
-0.0664112
-0.0502838
-2.42841e-06
-8.73427e-09
-0.0472076
-4.01525e-09
0.0075401
0.00124757
-5.0872e-05
-0.0402946
-0.00929745
0.426921
0.0205546
0.0414785
0.00235215
0.0926022
-0.016479
-3.48912e-07
-2.71336e-06
-2.90645e-05
-0.0319425
0.0527822
-0.0989196
0.264195
0.00446353
0.0156798
-0.0111005
-9.04526e-06
-0.0183191
0
-0.033184
0.030946
-0.0710644
-0.0275295
-0.03701
0.00206717
-0.109844
0.0058449
0.0176843
0
-4.61699e-06
-1.21285e-09
0.0316331
1.16105e-321
-0.00905407
4.05662e-05
1.63775e-199
-0.0587515
-0.00541538
0.025279
0.0337802
-0.0386379
-0.0205784
0.0354906
-8.74496e-322
0.152661
0.0397813
-5.9141e-15
0.0214927
0.0374628
-0.033144
-3.08534e-05
0.00946365
1.2413e-05
-0.0107357
0.039261
-0.000144465
-3.49693e-05
-6.85535e-13
0.0345117
0.0195663
0.07003
-0.123422
0.0791622
-9.14869e-10
0.0548114
-5.6548e-06
-0.073348
-0.000174357
-0.0691053
0.112212
0.0337345
0.0582236
-0.0110091
-1.12885e-06
-0.0897319
0.00198526
-1.39432e-09
-0.0235869
0.0157451
-1.29445e-321
-8.0588e-06
0.0108807
-0.0745788
-0.0278198
-0.0177973
0.167491
-3.90399e-45
-0.0349074
-0.00739003
-0.0041604
0.0168746
0.00160853
-0.000143409
-5.9141e-15
0.0410811
-8.23785e-11
-0.00915298
-0.0357958
0.0279123
0.0405639
0.00842671
-0.000104292
-0.0329811
-0.0625331
-0.0537838
-0.0443671
-1.25619e-07
0.0234154
-0.0214768
-0.0720065
0.0260946
-0.0546268
-2.05037e-321
-1.6897e-321
-0.0753134
-0.23648
-0.00205594
-0.0561915
-3.48912e-07
-0.00411639
-0.059223
0.00237165
-0.0572118
-6.669e-07
0.100481
-4.05736e-07
-0.00041268
-0.144444
-0.0702679
0.0675142
0.00133645
-3.9152e-45
-0.018001
-1.73812e-06
0.00531901
-1.23123e-06
0.0337346
0.00299651
0.0366501
0.0807752
0.112807
-0.0478299
-0.0331372
0.0394341
-0.00440058
0.0353982
-0.0859
-9.77283e-05
-0.0871501
-0.0153191
-0.0625686
-0.0800963
-0.0338178
0.00716986
-0.207949
0.0551747
1.19564e-321
-0.00258251
0.134129
0.0122582
0.236434
0.0195449
0.127079
0.000979738
-0.036454
0.162324
0.0111889
-5.6548e-06
0.0199481
-0.0228957
8.78163e-49
0.0222313
0.0164897
-2.55894e-13
-0.00308037
-0.0536638
-0.0235869
0.00421356
-0.00724075
-1.29445e-321
-0.00633851
-5.74387e-05
0.0624705
-5.06497e-13
0
0.0115997
0.0227891
0.123209
0
-0.0356866
0.0744902
-0.0291922
0.00446353
0.0014646
0
0.0663231
-2.45955e-08
0.121928
-1.9379e-07
-0.0231584
0
-0.0499457
0.00192638
0.00143894
-1.15863e-09
-2.79887e-07
0.0127167
0.045379
-0.0543265
-6.57834e-08
-1.2302e-06
-2.55894e-13
0.0717694
0.0356868
0.0270418
0.00319892
0.0992517
-1.25403e-08
-0.0354172
0.173074
-1.84964e-06
-0.0252359
0.172259
0.00677532
0.0229561
-4.36334e-06
-1.61675e-05
-5.9141e-15
-0.0315427
-0.0298493
-0.0340587
-0.0372532
0.0717013
0.0161577
-2.95415e-11
-0.14827
0.020195
0
0.0263237
1.19564e-321
-0.00692776
-0.0308844
0.00192515
-0.0423789
0.00143886
0.0162623
-0.0099408
0.0101779
0.0756536
0.231888
0.00378664
0.000356617
-7.69349e-08
-5.9141e-15
0.0531285
-1.58101e-322
0.00531901
0.0726374
0.0369817
0.000377741
0.00594058
-0.0490904
-0.0401655
-0.0609141
-8.52033e-07
0.0157582
0.0886278
-0.0409588
-1.01778e-321
0.11272
-6.08424e-06
-0.000205903
-0.00308037
-0.0110559
-8.13391e-11
-1.32914e-06
0.01991
-0.00124092
-0.0562844
-0.0338178
-0.0639264
-0.0153191
0.00220774
0.0304883
5.44262e-05
-1.03188e-09
-0.093269
0.0205635
0.000288177
0.00711223
-0.0413668
0
0.0201841
-0.104003
-4.43775e-06
-0.00522391
0.156791
-0.000114752
-0.0945983
0.00308274
0.00192638
0.00264201
0.0127599
0.241278
0.0256661
0.0135957
-2.55894e-13
-0.0348324
0.0686627
-0.125417
0.02712
-0.00538406
0.0152173
-0.0181524
0.0360147
-0.0153191
-3.99083e-05
0.01013
2.70667e-32
-1.006e-09
0.0411846
0.00446353
-0.046523
-0.0928961
0.00198526
0.0393265
-0.0463317
-4.37825e-05
-1.12885e-06
-0.0341865
0.0122564
0.00165671
-0.0111231
-0.00308037
0.0127599
-0.0303515
-0.0258547
-1.05639e-06
0.0335005
-3.56872e-05
0.0058449
-0.0181469
-6.20335e-165
-0.0317563
-0.008824
-0.0908466
-6.3882e-11
0
5.95749e-05
-1.34654e-05
0.00446353
0.205232
0.0535361
0.00245393
0.00764417
0.00894492
0.0161179
-0.0229048
0.00249225
-0.0540034
0.0660309
0.726219
0.0367809
0.0337035
0.0904797
0.0191664
0.038074
2.70667e-32
0.0101653
-4.9695e-05
-0.00639551
0.0157738
-0.0711584
0.00737563
-0.0103278
0.00239183
-0.00708612
0.0360148
-0.16088
-0.0348774
-3.48912e-07
-4.47252e-06
0.0654261
-4.61699e-06
0.0111889
0.00165671
0.176367
0.0977773
-0.0424614
-3.91239e-10
-9.14584e-08
-2.05037e-321
-3.80474e-08
-9.69652e-10
-4.74095e-07
-0.144741
-0.0341865
-0.000204176
-5.15966e-09
0.00538055
0.0426077
-5.9141e-15
-0.0856275
-0.103103
-0.0508231
0.164016
-0.0494337
0.00424923
0.151715
-4.81812e-05
0.0196532
-5.63121e-16
0.0320399
-0.0349074
-2.42007e-07
-0.0374288
-4.5769e-13
-2.12448e-322
0.00235215
0.209534
0.0137252
0.00358939
0.00446353
0.134293
0.0252668
0.00446353
-0.030286
0
-0.00761358
0.164802
-4.81812e-05
0.0976468
-0.305657
0
-3.80474e-08
0.00228844
-0.0343579
-0.134212
-5.34515e-09
-3.48912e-07
0.0146066
-0.0209646
0.128473
0.196164
-0.0497372
0.0365097
-4.37825e-05
-5.5987e-05
-0.000570937
-0.0932739
0.0507865
0.438054
-1.21285e-09
-4.01525e-09
0.0206665
-0.00708612
-0.046203
-0.131462
0.0474368
-0.0293
-0.096081
0.234506
0.0177721
-1.03801e-06
0
2.02839e-05
0.00611996
-3.78047e-10
0.0425204
-1.12277e-08
-0.0151253
0.0410986
0.0011751
-1.12885e-06
0.011663
0.0173958
-0.0399597
-0.020036
0.168467
0.0287915
-0.0951873
-0.0231821
0.00590012
-3.9152e-45
-0.0951475
-0.0639264
0.141223
-0.0443471
0.0322564
0.142896
0.12141
4.73552e-51
-0.066352
-0.0497385
-0.0849543
-0.0410466
0
0.0377664
-0.0105567
-4.47252e-06
-0.0710848
0.00595733
-1.12885e-06
-0.132552
0.00635498
0.0321968
0.0111557
0.0322564
0.0112979
0.022195
-0.0907077
0.00251571
-0.00573351
-0.0140448
4.47936e-50
0.146148
-0.0535103
0.0129393
-0.239993
-0.0160307
-0.129673
-0.0338734
0.0424425
0.0278078
-0.138239
-0.0625527
-0.0409588
0.108782
0.0475645
-0.0155198
0.0478408
0.0202035
0.0511684
0.0157451
-0.0057184
-0.07079
-6.85535e-13
-0.0378283
0.0459273
0.0816262
0.0157694
0.00353263
0.0624706
0.0549763
0.0678309
-0.0502121
2.33352e-49
0.00446353
-0.000135886
0.0422083
0.125688
3.11144e-06
-0.0251502
0.366795
0
0.023965
0.0250395
0.00423068
-0.00884651
-6.88657e-12
0.0215193
1.16105e-321
2.81179e-07
-0.000204176
0.0511684
0.00894492
0.0179737
-0.0343579
1.44761e-321
0.0519783
0.00112525
-4.00621e-05
2.82211e-07
-0.00739003
0
0.00842671
-0.0404354
-0.00571944
-1.06472e-09
0.263278
-0.00557454
0.00212201
0.0399568
0.00669403
-0.0558388
-0.0147436
-1.222e-05
-5.71423e-05
-6.96769e-07
0.0833757
-0.123574
-6.25969e-05
-3.01235e-06
-5.63121e-16
0.00595733
0.546986
-0.000143409
0.0828077
-0.0471635
0.00815917
-0.0214244
-0.0269049
-0.0745788
-1.91136e-06
-2.07534e-06
-0.05095
-5.22381e-213
0.00446353
0.229195
0.171361
0.112405
0.149673
-0.0381935
-0.0231821
-0.268076
0.00410272
0.0527822
-0.042803
0.000595674
0.0129915
-3.48912e-07
0.0130936
-0.00149579
-0.000190275
-0.0210015
-0.000202002
-0.0134293
-1.73804e-06
-3.84233e-06
0.0076824
0.103194
-3.91239e-10
0.00218409
-0.052473
0.0394341
0.0034877
-0.0112833
-0.0479849
0.00815743
-6.20335e-165
0.117325
0.0161301
-1.2302e-06
-0.0683362
-0.153517
-0.0098033
0.00549458
0.0551747
0.00549458
0.0337802
-4.37825e-05
0.000139036
-4.37825e-05
0.0519783
0.00230367
0.0716532
0.0328903
-0.100801
0.00446353
-0.0971308
-0.00407299
0.000289429
-0.176375
0.0547411
0.06358
0.00446353
0.00446271
0.141461
-2.79887e-07
-0.032507
-0.0473471
0.0435233
0.0203064
0.00109293
-0.0201835
0.0562571
0.0587887
0.0129322
7.90505e-323
-3.9152e-45
-6.62994e-07
-3.4744e-07
-1.16082e-07
0.00220784
-0.0318758
0.0205369
0.000283523
-6.88424e-09
-2.11409e-05
0.0490079
0.000581582
-3.05626e-05
-0.214867
0.0660766
0.0165928
0.0462208
0.00421356
-0.0230343
0.0199085
-2.05037e-321
0.0146066
-0.0558623
0.0205546
0.656661
-6.88424e-09
-2.58339e-13
-0.0373528
0.0790983
-0.0730726
-0.206212
-8.87405e-07
-0.0419351
-1.52623e-05
-0.163813
0.00660845
0.0349878
0.0112454
-0.094687
0.0886732
0.1429
-0.0144485
-1.15863e-09
1.12586e-06
0.00192638
0.0841829
0
0.0127628
-0.00829421
-0.150728
-0.0942529
-0.156078
-0.0516337
0.00378664
-0.0412524
-0.0229699
0.00424923
-3.39728e-06
-1.21285e-09
-0.0265719
-0.00573351
0.0203851
0.0442539
-0.01793
0.0335054
0.07621
0.0280098
0.0127831
0.0380998
-0.0134293
-0.0493044
0.0149443
0.00446353
0.00165671
0.0191171
0.00250796
0.00208512
0.0211399
-0.0209943
-0.0832276
0.0808206
0.0129393
0.0686627
0.0503819
2.82211e-07
0.00165671
-0.0257297
-0.000220661
-0.0795145
-0.0677401
-0.0451576
-1.79716e-07
0.00441741
0.0554645
0.0127831
0.0157451
-0.0424585
-0.0369907
-0.0583093
-0.0113143
0.00239183
0.0205546
-0.0205096
0.0029965
0.0380998
0.000730022
0
0.034652
-9.14869e-10
0.0128721
-0.0259392
-0.0373169
0.0866302
0.0297441
-9.04526e-06
0.00446353
0.0127822
-0.0223661
-6.3882e-11
-2.76702e-06
0.0380699
-7.49742e-05
0.000213569
0.000711081
0.0420619
-0.097619
0.0136873
0.0480571
0
0.0611029
-5.15966e-09
-0.0409231
0.271992
-0.0950437
-4.61885e-06
-2.79887e-07
0.0504499
0.00188315
0.128891
0.00363495
-1.00789e-321
0.0744902
0
0.138779
0.0945495
0.0537033
0.0238111
0.0322564
-7.69349e-08
-2.76702e-06
0.00147969
-0.000104231
-0.0340508
-0.0340508
0.0558996
0.00192638
0.258363
-0.0454155
-0.0531635
-0.0868693
0.000289428
0.104755
0.0756547
0.00358375
-0.0205096
0.0129393
-0.025257
0.0140061
0.0652059
0.0524625
-0.00573351
-5.34514e-09
0.0759071
3.08816e-06
0.0414834
0.000730022
0.0861285
-0.0746332
0.00661796
0.100006
0.162519
-1.23117e-06
-1.08694e-322
-4.24185e-09
-2.55894e-13
-0.000826816
-5.71423e-05
-0.0874044
0.0412418
-0.0207875
0.0977773
-0.0122542
0.00202274
0.00446353
-0.0649772
-0.00440058
0.00192638
-0.0343579
-0.0397235
0.01013
-0.000130035
0.10288
0.179638
5.12858e-07
0.0292682
0.0281648
-0.010313
-0.0253474
-0.185117
-0.0171811
-0.0155198
-0.015159
0
0.0404713
0.010668
-0.105478
-0.0537774
-0.0105566
0.0157185
0.0954964
0.00595741
0.0442539
-0.385375
-1.12885e-06
-0.0312926
0.0143344
-0.0416858
0.0309029
-2.39199e-08
0.0195663
0.0460175
0.104371
0.0463539
1.52172e-321
-0.0121161
-1.01833e-08
0.196446
0.000167661
-1.61675e-05
-0.0199888
-1.94e-06
0.0717694
6.55932e-49
8.62975e-51
-0.0541018
0.0323756
-0.0482927
-0.0108821
0.00266908
-0.0545369
0.00345892
0.100904
0.0231306
-0.0458612
-0.0159793
-3.48913e-07
0.105823
-0.0676937
0.0186599
-0.0312248
0.255929
0.0187608
-1.29445e-321
-5.63121e-16
0.0361198
-0.110939
-0.0822447
0.00143875
-0.00205594
0.26361
-0.0103123
-0.00639551
-5.6548e-06
-0.284802
0.00109293
-1.15863e-09
-0.0205552
0.0058449
0.0148502
0.0905304
0.0733942
0
0.00124757
-0.0573418
-0.0378477
0.0527822
-0.0316113
3.00077e-199
-0.0903322
0
0.0383056
0.103463
-1.12277e-08
0.106239
-0.0373162
-0.0279147
-0.000216563
0.0162038
-0.11418
-2.36469e-14
-5.9141e-15
0.0410879
0.105458
-0.0349074
-6.20335e-165
-0.0821607
-0.0180887
-0.0799751
-0.00600902
-2.55894e-13
0.00595733
-0.0993623
-6.57834e-08
-1.52623e-05
0.0137658
0.292746
0.0101779
-0.0390879
-0.031687
0.0214169
-0.04169
-0.00968837
-0.00573668
-2.62681e-09
-0.043101
-3.94246e-05
0.036485
-0.0643578
0.000129732
0
-0.0231611
-5.64694e-06
0.00462415
0.0165928
0.1344
0.0511684
-0.0485533
0.0195663
0.00140367
4.20004e-05
-0.00692776
0.0135957
1.488e-05
0.0146066
0.211762
-0.0718776
0.0125292
-5.63121e-16
-0.0269049
4.73552e-51
2.82211e-07
0.00358939
0.00112609
0.0253244
-0.0399087
0.00867608
0.0297104
4.47936e-50
0.0119165
-0.0350865
0.00335552
0.137629
-4.61885e-06
-1.79716e-07
0.0447909
-0.000197773
-0.157013
0.0663231
-0.0544096
-5.9141e-15
-0.0349074
0.0208738
0.000208702
-1.79716e-07
0.0225596
8.84378e-322
-0.0736577
-3.39728e-06
-0.0153191
-1.222e-05
0.189879
-0.0531519
-0.0221923
-3.90231e-45
-0.0231821
0.0149443
-0.104541
0.017441
0.00549458
-3.66937e-06
0.0143213
-1.05639e-06
-0.00704608
-0.0456568
0.0178008
-0.0205552
0.00446353
1.63775e-199
-0.0495977
0.0101653
0.00218409
-0.0929142
-0.0511835
0.0156798
0.0154196
-5.6548e-06
3.00293e-05
0.0231306
-4.05845e-05
-0.0745741
0.0176442
-9.69652e-10
-5.96266e-05
-0.171845
0.00228844
0.0101653
0.197171
-2.90645e-05
0.00601398
0.0336401
-0.0488239
-0.0378283
0.0475645
-1.64142e-06
0.0255035
-0.150544
-0.0913162
0.0270855
0.183751
-0.0982856
-1.93006e-09
0.0211399
-0.0523321
0.00441741
-0.111688
0.152953
-0.203096
-2.11656e-212
0.0565852
0.0623463
-0.0497351
-0.116603
0.000326359
5.32693e-05
-0.040964
0.00446353
1.52172e-321
-0.0146718
-0.0025497
0.117653
-2.1727e-07
0.134136
0.0021414
0.0377868
-2.07534e-06
0.00192608
0
0.124174
-0.00440058
-5.85011e-05
0.00424517
0.0116346
-0.0376591
0.0771041
0.0101653
0.0227891
-1.89052e-08
-2.39199e-08
-0.0223036
-0.0537774
-3.78047e-10
0
-1.50026e-06
0.000260583
-2.42841e-06
0.0176843
0.4265
-0.0150119
-1.39432e-09
0.0147715
-3.66526e-09
0.001437
-0.0731661
0.0322564
0.04205
0.0101779
-0.0190368
0.0582757
-0.161799
0.00446353
0.0833567
-2.45955e-08
-0.0013719
-0.0162277
0.00423068
0.0735513
0.00622754
0.00546518
0.249357
0.0850072
-0.0488456
-0.0314588
-1.9379e-07
0.0108567
-1.12885e-06
-1.2302e-06
0.108569
-0.062893
-0.0214011
0.0351563
-0.0311111
0.0107081
-6.9677e-07
-1.12885e-06
0.0738234
6.55932e-49
-0.0103123
0.0738008
4.47936e-50
-8.25998e-05
-1.0985e-05
-5.64222e-06
-1.28733e-06
0.000564507
0.0129558
0.00968715
-1.48772e-09
-0.0410134
-0.0153192
0.000208702
0.0102194
0.0162038
0.0551747
0.0377664
0.0223012
-6.88657e-12
-0.00639551
0.148204
-0.0812004
-0.00717484
-0.109692
-0.0419351
0.0582656
0.00446353
-5.20802e-08
0
-3.08534e-05
-1.49407e-213
-0.0452967
0.00611996
-0.0693124
0.0367316
0
-0.0622588
-2.09137e-05
0.00984258
-1.2302e-06
3.18459e-183
-0.10855
0.00259848
0.045253
0.0609683
0.0797148
0.102693
-0.124234
6.04481e-05
0.0276228
0.0186346
-6.57834e-08
-0.0679549
-0.0365722
0.00487552
0.000232163
0.0890749
-0.00633851
0.00107672
0.000191003
-3.90399e-45
0.197094
0.00159016
0.000289429
0.0353524
-0.0203718
0.0798572
-0.037226
-0.000143409
0.0264618
-0.143374
-2.1149e-10
-0.0497386
0.0350102
0.0116267
0.180171
-1.11661e-13
-7.85311e-12
-0.0394241
-0.0225968
0.00565588
-0.052492
0.101723
0.0828077
-5.96266e-05
-0.0278712
0.00894492
0
-7.50951e-170
0.00430114
0
-0.0162277
0.0021414
0.18791
-5.9141e-15
-2.42841e-06
-1.32396e-45
0.00354648
-0.0891664
0.12458
-0.0690813
-0.00478963
-0.0133954
-0.0337972
0.00168258
-0.0227476
0.0135957
-0.0394467
0.00218409
0.0301657
3.08816e-06
0.131624
-1.13141e-321
-0.0250555
0
0.0834163
7.61153e-05
-0.0341865
-5.85034e-07
-0.0158488
-1.52623e-05
-0.0343579
0.0125804
-0.0388072
-0.201899
0.00446353
5.31275e-183
-0.0253455
0.160961
-0.0335149
0.0662939
0.00601398
-0.0449696
-0.0432539
-0.0704522
0.00423068
0.0419583
-0.0048812
-0.00293586
0.0330364
0.0431913
-4.6142e-10
-0.0688245
-0.0173527
-0.0784322
0.0350102
-1.73932e-11
0.00637283
-0.0371445
0.0578178
0.00968715
0.00385888
-1.08694e-322
0.0442505
-0.0125761
-7.31572e-05
-0.0235869
0.00446353
-0.0545379
0.100862
0.000939751
-0.114074
0.0026004
3.20022e-05
0.00441741
0
0.00557926
0.00212192
-0.00296514
-0.000104231
0.0133044
-0.19362
0.038076
-0.118598
0.0185415
1.65413e-05
-0.000143409
0.258034
0.0349934
-0.0491585
0.00378664
3.11144e-06
0.0137657
-0.0232625
0.00637283
2.78134e-05
0.0759396
-0.0456266
0.00532094
-5.63121e-16
-0.0465947
0.0905304
-0.00945548
-0.00918561
-8.98771e-06
0.0157451
-0.0475934
-0.00487997
-3.36173e-09
0.00350639
1.22353e-05
4.47936e-50
0.0887486
0.0350102
-1.39432e-09
-1.84964e-06
0.0195663
-0.000104292
0.0754334
0.13498
0.183541
0.00811701
0
0
0.153366
-5.9141e-15
-1.74569e-05
-0.0254164
-0.031468
6.04481e-05
-0.122848
-0.0653417
0.0116346
0.0504774
-0.307171
-1.37509e-05
-5.63121e-16
-0.00633851
0.0141653
0.0108567
0.189459
-1.61675e-05
-0.0567242
0.143927
0.0652029
-0.000197773
-1.13141e-321
-1.36192e-09
0.0662939
-5.85034e-07
-0.100881
-0.0683123
-0.0738916
0.023161
-0.0253235
-1.34654e-05
-0.0376414
0.00143894
-1.11459e-08
-0.0510719
0.0127437
-1.79569e-14
-2.74217e-09
0.0342948
0.110977
0.032201
-1.34654e-05
-0.00573351
-0.125848
-9.14584e-08
0.00660328
-0.0105567
2.32848e-05
0.0273002
-1.91559e-06
-0.046203
-1.71371e-09
-0.014783
-8.10693e-13
-2.55894e-13
0.0558372
0.0231965
-0.000141884
0.0051756
-0.0250474
-2.45955e-08
-0.00651225
-9.14584e-08
0.129613
-0.0302592
0.000368111
-6.17582e-322
0.0247049
-1.2302e-06
0.0806406
0.0108968
-0.160062
-0.00438269
0.00842671
-0.279401
0.0447909
0.0938084
0.000289429
0.0112991
-6.08424e-06
0.0117851
0.00423068
0.107948
-0.0369546
-6.20335e-165
0.0255035
0.00441741
-3.20281e-06
0
-0.0427525
-0.0149613
-0.0134293
0.00446353
-0.0119721
0
-0.0311111
-0.0411391
-2.51639e-07
0
0
0
-1.73804e-06
-4.61885e-06
0.0121093
-0.0160798
-0.0317743
6.55932e-49
-0.000105921
-1.28733e-06
2.33352e-49
0.107693
0.0705719
0.0677879
0.0203712
0.0588501
-1.9944e-09
0.0154196
-0.237478
8.20149e-322
-9.41398e-07
0.0127831
-0.0134301
-2.79887e-07
-0.0473774
-2.79887e-07
-4.11756e-05
-0.539454
0.00423068
-0.0235821
-0.0374252
-0.00538435
-2.45955e-08
0.0425836
-0.000112578
-0.114885
0.00088447
0.327801
0.0289169
0.000288177
0
-8.73427e-09
0.109181
0.167896
0.0108672
-0.00205594
-5.72935e-06
0.0444117
0.0179737
0.0165698
-0.017689
0.0337802
0.0193569
-0.00673012
-0.021234
-0.0150119
0.00716986
-0.0337972
-0.00124096
0.00446353
0.00363495
3.75954e-06
0.0227891
0.000550925
-0.0985174
0.00968714
-0.00708612
0.00356968
0.0554448
0.00424923
0.0159967
-0.0318066
0.0342822
-0.0231314
-0.00010286
-0.0348774
-0.00293586
0.025009
0.0816226
-0.0441802
0.090763
0.0357247
0.0479495
0.0020319
0.0319445
-1.21285e-09
0.0686627
-1.6169e-05
-9.14584e-08
0.00514703
0.00635498
0.0182393
-0.00984873
5.12858e-07
-0.0458166
8.89843e-06
-0.0091557
0.00225912
-0.023384
0.219221
-2.55894e-13
4.47936e-50
-0.0830541
0.00348119
0.0538637
0.0890076
0.138147
-0.0498858
-0.00807468
0.00165671
2.33352e-49
-4.36996e-11
0.00601398
-0.0304302
-0.0031684
-3.75548e-08
-0.0235889
-0.00708612
0.000288177
2.33352e-49
-1.32739e-09
0
0.0503858
0.000576847
-0.0188919
-6.62994e-07
-1.12885e-06
-4.61699e-06
-0.0192129
0
-9.14584e-08
0.00385843
-1.01833e-08
0.00852815
0.0270855
0.0656734
0.00446353
-2.63576e-08
0.00968715
-0.0105567
0.0511156
0.000283618
0.0809598
0.00751549
0.0662939
0.00731126
-1.2302e-06
-0.0578882
-0.046203
-0.105471
-0.0148342
-0.0182268
0.000289429
-1.89004e-06
-0.0908466
-4.11756e-05
6.55932e-49
-0.0275282
-0.0473454
0.00891509
0.0104172
0.0127599
-0.0221382
-1.2302e-06
-0.0698291
-0.0462725
-0.0424614
0.00198526
0
0.0345096
-1.71371e-09
-0.331325
0.0508248
-2.07534e-06
-0.00160267
0.00619703
-0.0776229
0.0146603
0.154062
-1.12885e-06
-2.36469e-14
0.0271268
-1.15003e-10
-8.20774e-07
-3.80474e-08
-4.61885e-06
-0.0814906
-2.95415e-11
-0.0250474
0.00551577
0.0150714
1.52172e-321
0.00242577
0
0.00423145
-5.71423e-05
0.0255035
0.00446353
-2.74217e-09
-0.0439329
-6.62994e-07
0.0180719
0.0357247
0.00192638
-4.6142e-10
-0.0308657
0.0195663
-3.84233e-06
0.0329648
-0.0570294
-0.0250474
0.123209
5.31275e-183
-0.0479849
-1.12885e-06
0.0251024
-0.0466566
-0.0427395
-0.0773406
-7.69349e-08
-1.44333e-06
-5.34514e-09
0.00842671
-2.51408e-06
-5.0872e-05
-0.0490858
2.78134e-05
0.0917587
0.0419583
-4.00621e-05
0.0273336
-0.0211673
-0.0154479
0
-7.57251e-05
-0.0162277
-0.0721219
-0.153853
-2.51408e-06
0.096208
-0.0280886
-1.01778e-321
-0.184027
-0.0300063
1.86739e-05
-5.0872e-05
0.099095
-1.006e-09
0.0147715
-0.0447289
0.031024
0.0801171
-0.0533861
0.0685189
0.056622
-5.63121e-16
0.0590039
0.00192638
-1.2302e-06
0.0279524
0
-5.63121e-16
0.264353
0.00446353
0.00446353
-0.0291025
0.135213
0.00124757
-0.157939
0.00336524
0.0208738
-0.05091
0.103714
-0.0819141
-0.0586082
-0.0458957
0.000433159
-2.45955e-08
-0.0231611
-0.240537
0.0762365
-0.0377277
0.00661457
0.00328486
-0.00420819
-1.01833e-08
-0.0855908
0.101512
0.00103747
0.0353982
-0.0210015
-0.00273638
0.0733501
0.0147715
-1.91136e-06
0.122148
0.0530778
0.0663231
0.088849
-0.0685593
0.0200596
0.162196
-0.0337042
0.00843884
1.52172e-321
0.026133
0.00166405
0.1604
0.112243
-0.0229619
0.00165671
-0.00692776
0.08141
0.0295383
0.0661184
-5.34514e-09
0.00815917
-0.021851
0.0125666
-1.08333e-07
0.00142305
0.00165671
0.0992517
-2.92296e-07
0.0825352
-0.0318108
0.11166
-0.102936
8.90755e-05
-0.0337037
0.00285447
0.0484403
0.536033
-7.92942e-07
0.0147715
-3.69827e-08
0.0881681
-0.213022
-0.0413637
1.52172e-321
0.242351
0.118866
0.00088447
-5.28367e-05
-1.71371e-09
-0.0674546
-1.84964e-06
0.0483453
-0.0639264
-0.00295227
-0.0285169
0.100194
0.0644178
-0.0469193
0.0205546
0.0455729
0.00299043
-5.34964e-11
0
-5.74387e-05
-0.051062
-0.000141884
0.00189375
-0.0983244
0.0419583
-7.85311e-12
-0.0121606
0.00198526
0.00328486
0.00251571
0.00894369
0.000524761
0
-0.0231821
-0.00293586
0.163787
0.0661184
-1.16105e-321
-9.04526e-06
-0.0738916
4.8045e-06
-6.25969e-05
-1.84964e-06
-1.72399e-08
-0.0351877
0.0136171
0.00251571
0.00766246
-2.45955e-08
0.0301425
0.033661
0.0337802
-1.16082e-07
-0.0721219
-9.04526e-06
0.0490079
-7.21076e-08
-0.0713785
-0.0841182
0
-0.000104294
0.00842671
0
0.0194738
0.00707596
-0.0862779
-0.016214
-0.114885
0.00842671
0.00531901
-0.0235369
-8.0588e-06
0.0337802
0.359452
0.0330364
0.0528751
0.0394341
0.037583
0.0928831
-5.20802e-08
-0.0304302
-0.0342008
-0.0389118
1.12893e-05
-4.01525e-09
0.0176843
-0.0429558
0.0353265
-3.39728e-06
0.000812919
0.00143894
-0.0313576
0.0574892
0.060789
-4.61885e-06
-0.000154115
-0.0192197
-1.97816e-05
-0.0863863
-1.61675e-05
0.00446353
0.00198526
-0.0205096
-0.025509
-7.50951e-170
0.0157763
-0.0987648
0.00911015
0.036012
-0.122067
-5.9141e-15
0.0456003
0.00207778
-0.0541882
-0.00676374
-0.0439472
-0.00573351
0.00345892
0.00581499
-0.0111231
0.0294447
-4.61699e-06
-1.12277e-08
-0.0431081
-9.14869e-10
-1.74569e-05
-0.0162281
-0.0311111
-0.0374145
0.105544
0.0476731
-0.0982241
-4.81996e-06
-0.283386
0.0204637
0.00220784
-2.83577e-08
0.00165671
0.0322564
-0.119308
-1.21285e-09
-1.32396e-45
-1.12153e-321
-0.00541931
-0.033158
0.0565916
-0.0312815
-0.0578175
1.52172e-321
0.0819508
-0.0142375
-1.12885e-06
0.000740394
0.0619136
0.0383092
-5.64222e-06
0.00822415
-0.0975525
0.0281102
0.0392518
-1.51338e-05
0.0733942
0.0970221
0.0832597
-4.01525e-09
-0.0412524
-1.12885e-06
0.0686627
-1.10184e-15
0.0579281
-1.12885e-06
0.00891509
0.00968715
0.0129393
0.00591641
0.375637
0.0345117
0.0678309
-0.0472715
-0.114526
-0.106826
0.0129393
0.00738972
0.0297258
0.0472036
0.00456066
0.170145
0.0488296
-0.000440878
0.00918298
-0.0278171
-3.39728e-06
0.519162
-0.0104694
0.0778292
-0.0496809
0.000327589
0.00575807
0.00855347
-1.51678e-321
-0.160418
-9.42208e-08
-0.0497534
0.0661184
-0.0691026
0.00264928
0.00143894
-0.0695098
0.00356451
0.148911
0.00247731
-2.67327e-10
0.0462069
-0.0477882
0.0991219
0
0.0112991
0.0553517
0.00447422
-0.110782
0.0130715
-1.21285e-09
0.00757475
0.0350102
-0.205263
0.269664
0.0878572
0.0740834
-0.115811
0.00106864
-4.01525e-09
0.0222313
0.0782108
-4.47252e-06
-1.25403e-08
0.0992517
0.389467
-0.0250474
0.117506
-1.84964e-06
-0.0161915
-5.74626e-06
-0.000188589
-2.07788e-05
8.62975e-51
0.0112991
-0.0609388
0.00446353
-0.00526218
0.0983368
1.12893e-05
0.0241801
0.00446353
0.000730022
-5.9141e-15
0.000120816
0.00965175
0.021282
-0.0286484
0.0655738
0.00446353
0.382837
0.0444445
0.00290264
-0.0851326
-0.031687
0.141263
-0.100801
0.00531244
-0.00480473
0.0154196
0.0345117
0.120932
-0.0281538
-0.0137839
-1.21285e-09
0.0383077
-0.0528854
-0.0414342
-0.00371797
1.12586e-06
-9.14869e-10
0.045672
-0.0613492
0.00192638
0.0705719
0.0611994
0.0256529
1.12586e-06
0.0145773
-5.9141e-15
-0.127559
0.00446353
-1.08333e-07
0.0137347
-0.00308037
0.00194891
0
0.0359541
-0.125492
-0.00538435
-0.0246343
0.0496836
-4.37825e-05
0.0205546
-0.0153191
0.0444052
-0.0341865
-0.0509269
0.263018
0.00891509
-0.0342519
0.177687
-0.0438126
-6.20335e-165
-1.32914e-06
-0.0196228
0.0328663
0.0014649
0.0801268
0.0334382
0.0994603
0.00446353
-1.94e-06
0.0885059
0.0187791
-2.59437e-05
0.0214169
0.045314
1.52172e-321
-0.00944625
-0.0409648
-0.0165845
-3.48912e-07
0.0444499
-0.00141804
-4.01525e-09
-0.0556476
-3.9152e-45
0.0522253
-6.88424e-09
-0.0479108
-0.0140448
-0.0016336
0.00430114
0.0227891
-0.0341865
-0.251069
-4.27798e-07
0.000289429
-4.01525e-09
-0.0219548
0.0817738
0.0161301
-0.378721
-1.28457e-321
-0.157044
1.19564e-321
-0.000143409
0.00446353
0.072096
0.0359676
-6.12267e-08
-0.0196569
0.00178505
0.0508554
-0.0989483
-0.213821
0.0941668
-6.5959e-44
-1.91559e-06
0.0101779
0.0214169
-1.2302e-06
0.162589
2.89948e-05
0.000269252
0.01991
2.33352e-49
0.0110056
0.00930524
0.077716
-0.129159
0.140157
-0.0625828
-4.01525e-09
-4.00621e-05
-0.0658619
-0.00487997
0.0609797
-0.118101
-0.0382353
-3.39728e-06
0
0.0101653
-0.05091
0.00424923
0.000191003
0.0101653
-0.0201835
0.0454349
0.373482
-0.161047
0.175952
0.0594811
-3.80474e-08
-0.0745788
0.0569504
-1.2302e-06
-0.0189566
0.00842671
2.33352e-49
-0.0749496
0.0371553
-8.15116e-05
0.00446353
-0.0207875
-0.00440058
-0.0903322
0.0101653
0.448632
3.00077e-199
0.639966
-0.0791575
-0.0251703
-0.042467
-1.15003e-10
0.00916673
0.00356451
0.0427352
0.011663
0.0405632
-5.71423e-05
-7.69349e-08
0.0658936
0.0351526
-2.45955e-08
-0.105655
0.400262
1.65414e-05
0.0111829
0.0414785
0.0222753
-0.00440058
0.100904
-1.03728e-06
-2.62681e-09
-0.043576
-0.190866
-3.84441e-09
-0.0500647
3.0337e-200
0.0338775
-0.0134293
6.55932e-49
0.0662939
0.0678021
-0.0550788
0.158409
0.0462763
0.0398758
0
-0.029319
-2.36469e-14
0.114832
-3.36173e-09
-0.0820707
-0.0150463
-0.101546
-3.1762e-06
3.70719e-05
-0.00754669
-1.78412e-07
0.00192638
-1.2302e-06
-0.123623
-1.76248e-11
-4.01525e-09
-0.0316038
-0.0698295
0.0158394
0.00137611
0.0726519
-3.69827e-08
-0.120496
-0.0225958
-0.0132855
-0.0564711
0.00198459
-0.017689
-0.0545369
0.0675351
4.47936e-50
-0.0210015
-4.01525e-09
0.0329245
0.0119818
-0.000203131
-1.05639e-06
0.0614114
-0.12456
0
0
-1.21267e-07
4.47936e-50
-0.0421098
0.0539566
-0.0140448
-2.49957e-13
-0.0373003
0.0156798
2.16759e-05
-0.0103123
4.47936e-50
0.0148863
0.0842927
-9.04526e-06
-0.314756
0.0210147
-0.0269481
-0.026542
-0.0479849
0.0230573
0.019652
-0.0670957
-0.0381935
-0.0231611
0.0517381
0.0251556
1.14623e-321
0.00372529
0.0154866
0.0230063
-0.185376
-2.85523e-05
-0.0582879
-6.12267e-08
0.103191
-0.0329935
0.124264
0.0482667
-0.000399232
-0.0480908
-2.1149e-10
-4.61885e-06
1.16105e-321
0.00446353
-0.0446166
0.0215127
-4.37825e-05
-0.017689
-0.0381935
-0.383488
0.0154196
0.0135957
-3.99083e-05
-0.0567973
0.16033
0.0256048
-0.0582761
0.0242965
0.292704
-0.00524632
0.00446353
0.138467
0.0238821
0.0135957
-4.01525e-09
-0.0424328
-0.0835483
-0.0132857
-3.39728e-06
2.33352e-49
0.0740818
0.0101779
2.37681e-07
-1.78412e-07
-7.3824e-06
0.0560453
-0.0153191
-0.170868
0.00143894
0.0383092
-8.20774e-07
-4.24185e-09
-0.465689
0.0076824
-5.63121e-16
-0.0204433
0.079768
0.0528261
0.0021818
0.00446353
0.00192638
-0.00351848
-1.00789e-321
0.0165928
0.00424517
-0.0088968
0.164911
0.140991
0.140991
-0.0207698
0.0424601
0.155138
0.000730022
-0.0223144
0.0167174
0.00446353
-0.017689
-1.91136e-06
0.00446353
-1.12885e-06
-0.00476677
0.0909755
0.0211399
-8.02591e-08
0.01991
-0.000217348
0
-0.218653
-0.0394467
0.0152733
1.19564e-321
0.0620168
-0.00538406
-0.0170604
-0.0297053
0.0146066
0.118401
-0.01018
0.000524761
-4.01525e-09
-0.0543282
-0.0497732
0.00143894
0.116659
0.00446353
-0.014194
0.0761145
-1.5138e-06
0.257001
-0.02444
-1.16082e-07
-0.0516337
0.149347
0.0127316
-0.0109782
-0.159704
0.0178129
-0.00573351
0
-0.00371877
8.62975e-51
0.0602254
1.16105e-321
0.0410986
0
-0.0450369
-0.0231219
0.000158966
-0.00124096
-0.0134293
0.0154068
0.00397481
0.0837803
-3.78047e-10
-1.50026e-06
0.000111175
0.0205635
-0.0223432
0.0242866
-2.18144e-05
-0.0358031
-0.00444468
0.0566987
2.33352e-49
0.00198526
-0.00573351
0.0112988
0.0205546
0.0659791
-0.000112616
4.47936e-50
0.00423068
3.00293e-05
-8.37253e-13
-0.010921
0.00446353
0.0686627
0.0661601
0.000283579
0
-0.157656
8.33402e-05
0.0707163
-0.0317563
0.0953363
0.00719195
0.0703836
0.0327944
-5.11977e-05
0.0508174
-2.55894e-13
0.0384939
0.0569444
-0.0597025
-0.074737
0.00923588
-0.0505551
-1.12225e-212
0.0399568
-8.74496e-322
2.16759e-05
0.0049105
0.0615365
0.0147715
-0.0206092
0.0289348
0.0137993
-0.0790569
-0.105471
0
-5.9141e-15
-0.112997
-7.69349e-08
-0.0621702
0.0182393
-0.0134293
-0.0285986
-0.0423794
-0.0537975
-0.0157003
-0.0781466
-0.0965709
0.000429831
-1.71371e-09
0.230177
-1.72399e-08
0.00264677
0.0333595
0.106757
0.0196882
0.0143213
0.0675764
0.00165671
0.0929625
0.0394341
-1.39432e-09
0.00446353
-1.48326e-05
-0.0858593
4.47936e-50
0.130051
0.0195663
0.0744288
-4.6142e-10
0.126079
-0.0477323
0.00446353
-0.0625768
0.0854314
-0.00739003
4.47936e-50
0.00527715
0.046132
-0.0192802
0.00137025
0.0581474
0.129502
-5.92174e-15
-0.0162493
0.00165671
0.0790472
-0.0875547
0.0703294
-2.20544e-05
0.0350102
0.0993799
-0.113792
-0.315235
0.0337802
-8.74496e-322
-2.55576e-07
0.0394341
0.0394336
-0.010702
-1.85525e-06
1.63775e-199
0.00215997
-6.28386e-12
-0.0045627
0.0789926
0.00356451
0.00465872
0.100548
0.000581582
0.00107672
-0.121546
0.0154196
-3.99083e-05
0.0220051
-0.0771784
0.095113
-0.000111983
-2.67327e-10
-0.000440878
0.00250566
5.46459e-05
-0.0285685
-0.0337973
-0.0465913
-0.030541
-3.66526e-09
0.132181
6.55932e-49
-0.00896853
0.00547039
0.12279
0
-0.0868247
-9.42208e-08
-0.0622709
0.00491201
0.0597214
3.00077e-199
0.00192638
0.00446353
-0.0341819
-2.45955e-08
0.0195663
0.00325385
-0.0282817
0.0576547
-4.01525e-09
-0.0147929
0.100771
-0.00633854
-0.0176425
0.0191228
0.0254902
-7.50951e-170
0.0480622
-0.000845041
-0.0162129
0.0495635
0
0.0863245
0.000289429
0.0823616
0.0214169
0.0371883
-0.0210015
-7.85311e-12
0.0154196
0.0353982
-1.41301e-09
0.0014354
0.09606
-0.0917604
-0.0223254
5.31275e-183
0.220646
0.00027223
0.00319892
0.00378664
0.0817572
-0.0787308
0.00842671
0.0223014
0.0127831
-0.0479849
0.0519783
6.55932e-49
-0.000122114
0
-0.0884089
0.0234165
0.0192439
-3.75548e-08
0.00353263
0.0568082
0.0150281
-0.0408672
-0.0231532
0.111511
-0.00789264
-0.0622147
0.0364048
0.0112991
-4.01525e-09
0.03266
-0.0132544
-0.0686349
-0.105719
0.0158562
0.00651979
0.00423068
0.0805331
-0.0582761
-1.12885e-06
-0.00487997
0.0335854
-0.0427778
-0.00205594
-0.0858593
0.0353214
-1.5887e-13
0.0908924
-3.9152e-45
0.0187791
-0.0188919
0.00125324
-6.2405e-05
-1.72399e-08
-0.0122542
-0.0119643
-0.0141489
0.000694431
0.00446353
0.00610679
-0.0253075
-1.73804e-06
0
-0.107535
0.0136873
-0.0437158
-0.0443471
2.82211e-07
-0.0839269
0.447756
0.118252
0.255618
0.106314
-5.72935e-06
-2.07311e-06
0.0350102
-0.00573351
-0.207873
-1.00789e-321
-0.0103123
-0.114885
0.0444077
0.0214622
-0.0838096
0
-0.0604812
-0.0136304
-1.10184e-15
0.000581582
-0.00440058
-3.63525e-05
0
-0.0482496
0.00267145
-0.0153191
0.214808
0.00192638
-2.51408e-06
-0.0153191
-0.0241089
-0.0296585
1.52172e-321
0.0112991
-0.04096
0.000213569
-0.114709
0.00417844
-6.3882e-11
0.00353263
-2.45955e-08
-0.0223036
0.0070724
-4.43775e-06
0.0400234
0.0229413
0.123086
-4.27949e-07
0.018236
0.0420797
0.0058449
0.0058449
0.0432608
0.0129393
0
-1.49772e-05
-1.39432e-09
0.00822464
0.00424517
4.20004e-05
0.0367038
-4.27618e-05
-0.00782192
0.000327305
-0.270204
-4.01525e-09
0.0231305
0.014782
-0.0709612
-0.0250186
-0.0940282
-0.00739003
0.0203851
0.0335005
-0.101961
-0.000143409
0.00984258
0.00446353
-7.85311e-12
0.0400964
0.00136443
-1.72399e-08
-0.0404766
-5.63121e-16
-0.0189991
-0.215075
-1.34654e-05
-0.00345798
-0.0020188
0.0537033
-0.0432447
-5.22381e-213
-0.00976446
0.212827
-0.0343579
0.00446353
-5.34669e-08
-0.0520943
-0.0765491
0.0330097
0.00446353
-0.00240793
0.0219976
0.0727667
-0.0622709
-0.00573915
-0.00633851
-1.86327e-06
0.0850072
-8.73427e-09
-0.0246957
0.00446353
-0.0642393
-8.49793e-322
0.00446353
-0.0223254
-0.000881397
-8.98771e-06
-0.0710084
0.105756
0.00417844
0.0360148
-6.57183e-45
0
0.00563523
-0.0492697
-0.0439804
0.0629172
0
-0.00124092
-0.00573351
0
0.00939172
-0.0473473
0
-0.0963545
0.000730022
0.00165671
0.00446353
0.0539268
0
-0.0310314
-0.0676024
0.0156812
-0.0490858
0.000289409
-1.21285e-09
-0.306997
0.0537033
-0.0225968
-2.45955e-08
1.16105e-321
0.00842671
-7.36387e-06
0.0373855
-2.11656e-212
0.057874
0.00356968
-0.0204977
-1.50748e-10
8.13605e-08
0.00124757
-0.0743996
-0.104995
0.0455729
-0.0420706
0.0488069
5.95749e-05
-2.59265e-10
0.0872078
0.00356451
0.0129672
-0.104135
-4.01525e-09
-4.81812e-05
-0.0276247
0.0831653
-0.0436883
-0.0231821
0.00192638
-0.107283
0.00533621
0.0322564
-2.12448e-322
-0.0275282
-0.101753
0.0774983
0.0125804
-0.0381935
0.00446353
-1.91136e-06
-2.09137e-05
1.86739e-05
-6.51104e-05
6.62048e-322
0.0943295
-5.63121e-16
0.0158095
5.44262e-05
0.00124757
-1.12885e-06
-1.00789e-321
-1.60037e-05
0.11971
-8.37253e-13
-1.38087e-06
0.0513792
-3.62114e-06
0.0179737
6.77045e-05
0.00689639
4.47936e-50
-1.15003e-10
-0.112217
-0.124358
0.0354681
2.49955e-07
0.0127599
0.0121093
0.0058449
-0.0490858
-1.2302e-06
-3.1762e-06
0.0349934
0.00446353
0.00192638
-0.002064
0
0.463663
0.0161342
-0.0189991
0.0441247
-0.0686241
0.0112991
0.0378544
-5.58337e-16
-0.0211269
-4.36334e-06
0.0242578
0.00047403
0.106446
0.00356001
-0.129732
-1.72399e-08
-0.0593289
0
0.00895359
-0.109605
-6.5959e-44
0.00205588
-1.2302e-06
0.00220817
0.222006
-0.046203
0.0758505
0.00446353
-0.0841341
-2.41796e-07
-0.00704608
0.0519783
1.19564e-321
-0.065466
-1.86327e-06
0.0613014
0.0238625
-0.12795
-5.63121e-16
-0.0310377
0.00102749
0.0686627
-0.046203
-1.52623e-05
0.00378664
0.00192638
0.0496032
-0.0601257
0.0720117
-2.07534e-06
-0.267805
0.0174334
-0.0341865
0.0137619
0.00192638
0.0104305
-2.74217e-09
-6.51104e-05
0.00646835
0.0356868
0.000232163
-0.0602707
-0.136438
-2.98657e-06
0.0157633
0.0725537
0.0739816
0.011663
-0.0223036
-0.0366859
0.00446353
0.0442625
-2.45955e-08
-1.2302e-06
0.00619703
0.0154196
0.0149443
0.0946828
-3.63525e-05
-0.00293586
0.0192439
-1.51678e-321
0.000379404
0.0263237
0.0150621
0.210955
0.0154196
0.0189232
-0.0509269
-0.000122114
0.00165671
-0.0218862
-0.0110956
0.0101585
-0.0856971
-0.090987
-5.67371e-06
-9.14869e-10
0.00192638
-3.9152e-45
0.00107672
-0.00167943
0.0883935
-0.0291914
-0.017689
0.00417844
-0.0593647
-0.0700484
0.00134111
-0.0451475
-0.0664239
-3.15005e-09
0.00531901
-0.0315427
0.00446353
-0.000144465
0.0135957
-0.0482496
0.000524761
-0.0207862
0.0661251
-1.58895e-14
-0.0394896
0.00378664
0.0035063
0.0325854
0.0328903
8.62975e-51
-1.2302e-06
2.33352e-49
-0.0531367
0.0657566
-1.222e-05
0.00470652
0.0182393
0.00491201
-0.0423789
-0.10117
-0.0425635
-0.0582761
-0.100929
-1.71371e-09
-1.78412e-07
0.113486
8.62975e-51
-7.85311e-12
4.47936e-50
-0.0319425
0
-0.0276304
0.0121093
0.039261
-0.000440878
-0.000216483
0.0154196
-0.000761255
-0.00573351
0.0844063
0.00446353
-0.0130786
0.00143894
2.5131e-05
-0.0560129
2.81062e-08
0.0182393
-0.0330514
-0.0138801
0.0448095
0.115817
-0.0527999
1.12893e-05
-0.000143409
-0.05091
0.0494898
-0.0404766
-0.0153191
3.0337e-200
0.0506984
0.061535
-6.57834e-08
-2.71124e-07
0.0111889
-0.0285469
-0.0783576
-1.8947e-32
0.140727
0.0758106
-1.2302e-06
-2.55576e-07
-9.19305e-05
0.0677833
0.0255035
-4.47252e-06
-0.141932
0.000327589
-1.93006e-09
0.0287915
-0.00345416
-0.0488456
0
-2.71336e-06
0.0705942
0.0763529
0.0135957
-0.0457996
0.0322273
0.00134111
0
-0.000139331
0.0102074
-4.40015e-05
0.019794
0.039261
-0.000143409
0.0173958
0
0.0112991
4.47936e-50
-0.0173527
-5.9141e-15
-0.0543363
0.0377664
-0.0134293
-0.00124096
-0.222036
-3.75548e-08
-1.21285e-09
0.0493452
0.064395
0.0459282
0.0726523
0.0454193
0.0136263
0.129329
-0.00746226
0.000808061
0.220525
0.000327589
-2.74217e-09
-1.78412e-07
0.0177973
-0.00192062
0.00815917
0
0.00165659
-0.0549729
-0.0186829
0.0394341
-0.0110967
-0.0559991
-0.0317285
0.00133645
-0.0664112
-1.05664e-09
-0.073515
-8.81396e-05
0.0101779
6.55932e-49
0.159536
0.02763
-0.0142424
0.0616873
-3.9152e-45
0.0318287
0.139464
0.00143894
-0.214191
0
0
0.0135957
-0.0552335
0.00358939
0.0058449
0.011663
-0.00538406
-3.80474e-08
-9.14584e-08
-0.0808579
-0.00736162
-2.59265e-10
-0.0589302
0.00372529
-0.0908466
-0.0847173
-0.0883465
-0.0586082
0.00842671
0.00264928
-0.0267691
-0.0343508
0.0848441
-0.139425
-0.0846776
-0.046203
0.0453271
-0.0207875
-1.29445e-321
-0.0380519
-0.0497385
-0.0558711
-0.0103123
-0.11908
0.0122564
-0.0140448
-0.144139
0.0794279
-0.182532
-0.0345683
0.000327589
-7.85311e-12
0.0129322
-0.0446804
0
0.0036821
-5.71423e-05
1.6502e-05
-0.221593
2.82211e-07
0.0366669
5.78863e-05
-0.228089
0.00157519
0.00235215
0.0124072
-0.0507984
0.0527947
-0.0368879
-1.89052e-08
0.0977773
-5.71423e-05
0.0026004
1.86739e-05
-0.0215001
-4.01525e-09
0.12063
-0.0944068
-0.0820247
-0.0535567
-0.0152428
0.0442539
0.0560935
-1.03801e-06
0.0285846
0.0112991
1.17588e-321
0.00227622
-0.056348
-0.0575955
-0.0983841
0.0863245
0.184542
0.00635498
-0.0356948
-1.74569e-05
-0.0521333
-0.0817785
0.0804941
0.0107514
0.17034
1.52172e-321
0.104909
0.0407788
-0.0992248
0.0322564
-0.0790097
0.00446353
-5.85034e-07
-2.07534e-06
-0.0340508
-1.71371e-09
-5.5987e-05
-2.45955e-08
0.0825481
-0.0465588
0.00657577
-4.01525e-09
-0.0454282
-0.0658619
-0.0454275
-0.0487238
-0.0436853
6.55932e-49
0.011563
0.00111427
-4.5769e-13
-1.60037e-05
0.00143894
0.00433063
-0.00712113
0.0346207
-0.0488238
0.0182393
-0.100471
-0.00573351
0.212903
0.025653
-3.56872e-05
0.00278223
-0.0264288
-0.0399588
0.061975
-1.12885e-06
-4.67318e-08
0.0281102
-0.000105921
0.184063
0.0619296
-0.0332944
-4.40015e-05
-0.0151916
0.0905304
-0.0867263
0.0127599
0.0136287
-1.03188e-09
0.100481
-1.2302e-06
-5.63121e-16
0.00549458
-0.0246343
0.00112091
2.89006e-05
0.00446353
-0.0872767
-5.9141e-15
-0.0116607
-0.0381935
0.0179565
-0.0146725
1.72923e-321
0.0655738
-0.0211726
-0.0163163
-0.0888113
-0.0683123
0.00191021
5.44262e-05
0.132307
0.0017099
-2.62681e-09
-5.9141e-15
-0.0230974
0.0339681
0.000730022
-0.00257872
0.057874
-0.00692785
0.0619296
-0.0493822
0.271884
0.00117807
-0.0545369
-1.48326e-05
0.00143894
0.126021
0.0331002
9.47398e-51
0.0665507
0.127443
-0.0731317
-1.93006e-09
-0.033144
-0.137828
-0.0105567
0.0367038
-0.0364503
0.00446353
-0.0153191
-6.57834e-08
-0.042902
0.0519783
0.0090116
-0.139483
-1.32739e-09
-0.0360212
0.0359541
0
-0.0144451
-0.0341865
0.0611029
0.166485
0.0516111
-5.71423e-05
0.0157451
-0.0516382
0.000300366
0.0322564
-0.103934
-0.0623425
-6.20335e-165
0.0161342
0.123829
0.0376801
1.16105e-321
-8.49793e-322
0.00411383
-1.2548e-06
0.122855
0.0135957
-0.0287365
-0.00285955
-2.36469e-14
-1.12885e-06
-0.0830619
0.00170158
6.55932e-49
0.0353982
0.227451
-0.0462152
0.0356868
-1.01833e-08
-1.84964e-06
0.0337802
-0.0509269
-0.0201835
0.0115998
-0.0953276
0.00446353
-0.000104292
0.013924
-1.28733e-06
0.00255326
-4.01525e-09
-3.66526e-09
0.00171201
-4.01525e-09
-0.123689
0.0211884
0.000808061
0.113861
0
0.0355859
0.135424
-3.84441e-09
-1.73804e-06
-0.0953424
0
-0.0477882
-0.128958
-0.0147763
-9.14584e-08
0.0115524
-9.69652e-10
-0.0319425
-0.0757638
0.0665555
0.000289429
-0.131898
0.00143712
0.0394341
0.15645
0.0122763
0.0291902
0.000960072
-0.0341119
0.0018087
-0.0207875
0
0.0146256
-0.0134293
0.0205546
0.0329675
-0.0589302
0.051978
0.0427771
0.0576547
0.0232336
0.0281102
-0.00708612
0.00220625
-0.0666034
0.114481
0
0.01013
-0.00573351
-0.0751742
0.0443429
-0.0409231
-0.0368051
0.00165671
0.00124757
0.00918298
-0.000108152
-0.0395833
0.00088447
0.00632591
0.00356594
0.0157451
0.119544
0.000129732
0.0165119
0.0118771
0.0211399
0.0340421
-7.80624e-322
-0.0138801
-0.0687002
-5.34514e-09
-0.165158
-5.63121e-16
0.000227725
-0.0357958
-0.0396108
0.0480458
-0.0488456
0.0292279
-0.0969446
0.0233327
0.0932604
0.00320182
0.0116058
0.0313188
0.00165671
-0.0987744
-0.0545369
-0.0304325
-0.0780983
-0.000402301
0.0182393
-0.0105964
-0.00491072
-4.43775e-06
-0.0373162
-0.021067
-0.0488456
-1.12885e-06
0.0971886
0.00788304
0.160125
0.0717694
0.0101779
-0.0683514
0.079687
0.0322564
-0.01335
-0.00487997
0.0103956
0.00660328
0.2017
0.00192638
-2.55894e-13
0.0192439
-0.0870411
0.0678021
0.0147715
-0.0489967
-5.18428e-05
-1.01833e-08
-1.47567e-09
-2.45955e-08
-0.0580675
-4.01525e-09
-0.328191
-0.104995
-0.00014741
-0.0207875
0.000119754
-0.010336
-0.0249295
-0.0133419
0.0108567
-5.9094e-09
-0.00773646
0.000289429
0.00846633
-0.0348774
-0.0903219
0.0122564
-3.48913e-07
0
0.012242
0.0454989
-1.84964e-06
0.0710487
0.000289429
-3.9152e-45
5.31275e-183
-0.0207875
0
0.000476999
0.0388214
0.0110726
0.00637283
0.112182
0.0034211
0.00601398
0.0560095
-0.119418
1.52172e-321
0.00660322
0.00192638
-0.0214671
0.00410113
0.0316362
0.00212201
0.0571078
0.0692619
0.000232163
-0.020294
0.0101911
8.78163e-49
0.00122307
0.00595733
-3.2841e-11
-0.02345
-0.000402301
0.0831446
-2.45955e-08
0.000939751
0.00661796
-0.0500647
-4.37825e-05
-6.57834e-08
-1.34654e-05
-8.98771e-06
0.0112991
-6.96769e-07
0.0233351
-1.03728e-06
0.324262
0.0136873
0.0735604
-0.00739012
0.100039
-0.094148
-0.0856407
-0.00834936
-7.69349e-08
-0.109255
-9.04526e-06
-0.000429589
-0.168508
0.006613
-0.0337972
0
-0.0161236
0.0387707
-0.0148204
-1.21285e-09
-0.0111464
0.186825
0.00635498
-0.0913701
0.00446353
-1.21267e-07
0.00237863
0.0345117
-0.0304302
0
-1.54643e-321
-0.0589125
0.000289429
0.32721
-0.0282364
-1.84964e-06
-0.0381935
0.0408972
-0.0721219
-0.0803607
0.00165671
0.00356451
0.0801
-1.2302e-06
-3.9152e-45
-5.71423e-05
0.0156725
8.59674e-322
0.0226254
0.00720499
-9.89755e-06
0.026808
0.00417844
-3.25062e-07
0.0383092
-1.57955e-11
-0.0410497
-0.0204491
-0.0816166
-0.086851
-0.0414342
-0.0349074
0.00661796
-0.0373162
-1.2302e-06
0.0367038
0.122871
-0.128881
2.33352e-49
0.0984865
-1.03801e-06
0.048858
1.52172e-321
6.55932e-49
0.19345
0.0143213
-0.084293
0.0214169
0.0169536
0.000699048
-0.0548858
0
-0.0475639
0.0340903
0.0122197
0.0205534
-0.00295218
0.0147715
0.0842961
-0.0952972
0.0090116
0.0616873
-9.04526e-06
0.00424923
-0.0279145
0.00109293
0.037583
-5.18641e-06
0
-0.0670412
0.0161416
-0.0381935
0.0281949
-0.0174508
-0.037226
-0.0497372
3.11144e-06
0.0519783
0.157659
-0.0153308
0.0751303
-0.0215643
-9.14584e-08
-2.55576e-07
0.0620173
0.22129
0.000288177
-0.0207487
0.106639
-0.0026353
0.0675618
0.0205166
-1.51678e-321
-5.34514e-09
0.107563
-0.0497385
-0.0369855
0.0378625
0.0754691
-0.00360964
-0.00573351
0.209449
-0.00573351
0.00446353
-0.0210916
0.0973226
0.0828078
0.0149443
-0.0348774
0.00557926
0.0905357
0.0112991
-0.0413749
0.211845
-5.5987e-05
-3.90399e-45
0.00661457
-0.0497385
0.01841
-0.000105921
0.0192458
-0.0182545
-0.0899505
0.00192638
0.157102
-0.000429589
-0.0465588
0
-0.109568
-0.10627
0.0146414
0.00125797
0.0108582
0.0587562
0.050707
-0.0971266
0.000726925
-0.0482496
-1.51678e-321
-0.0342048
0
0.0115631
0.0317073
0.0102074
0.018158
-0.0420706
-0.0210015
-1.74569e-05
-1.09858e-191
-0.0718056
-1.2302e-06
0.00228844
0.0360741
-0.0253075
0.000289429
-2.55894e-13
-0.0382656
0.0655738
0.00319892
-0.0171566
0.00661796
0.00375024
-2.05037e-321
-6.74205e-10
1.2481e-05
0.00192073
0.000560685
0.0444245
1.26824e-06
0.0370891
0
0.00308686
0.10667
-0.0987969
0.0134817
-0.000145525
-0.0211475
-0.010944
-0.0252266
0.00188315
0.00165671
0.0193246
-1.222e-05
-9.42208e-08
2.16759e-05
0.0725536
0.0187791
4.47936e-50
6.04481e-05
0.063243
0.0281896
-5.34514e-09
-0.0223254
0.0143213
-5.78204e-05
-1.16082e-07
-0.196797
-4.5769e-13
0.00531901
-1.91559e-06
-0.0443676
-1.23071e-06
0.0146066
0.00378664
-0.00340392
-0.050864
-0.0462421
0.00198526
0.00661796
-0.000144465
0.0182393
-0.0835955
0.115817
0.0495487
0.00165671
0.000226832
0.0599994
-2.83577e-08
0.105104
-0.0253455
-1.29445e-321
-0.0271672
0.000281444
-0.0408729
0.129613
0.000289429
0.00165671
0.00276606
0.0192439
0.0316754
0.00842671
-0.0554984
0.0427169
-7.21075e-08
0.0314584
0.0430207
-0.0158645
0.000186198
0.00410113
-0.016828
0.041513
0
0.0422318
-0.0658449
0.157973
-0.0643814
-0.0220918
0.123209
0.0528542
-0.0872767
0
-0.00236151
-0.0925574
-0.0156343
-0.00571126
-2.45955e-08
0.0299446
0.171617
0.00328486
-0.0325846
0.0594991
-0.0409763
0.0772851
0.160829
-0.0208646
6.55932e-49
-0.023124
0.0205546
0.128519
0.00140367
0.00446353
0.000979778
0.0733942
0.00103521
0.0215193
-0.0658448
0.00446353
0.00778277
0.0698012
-0.0707736
0.196164
-1.7457e-05
-2.36469e-14
-0.0319597
0.0268211
0.0179737
0.0583113
-0.0378985
0.0345117
-0.0610521
0.0160726
-0.0119932
-0.0246343
0.0694262
0.00143894
0.0753907
-0.0300097
0.00356451
-0.120215
0.152663
0.0117277
0.0288464
-1.00789e-321
-1.48326e-05
0.00968715
0.0995175
-1.51338e-05
-5.5987e-05
0.0905953
-0.0240128
0.0424425
0.0227891
0.00410113
-5.43221e-07
-0.0150683
0.0231287
0.0495487
-0.000202002
0.00297017
0.0350102
-0.039955
-0.142398
-0.0683922
0.00638639
0.011663
0
0.0145354
-6.5959e-44
0.0545941
-4.37825e-05
-0.0248532
0.010517
0.0379374
0.00815917
-0.0455935
0.00556559
-4.11756e-05
-0.0249295
-1.03228e-07
0.0551747
0.00165671
0.0551747
0.319331
0
-0.0380747
0.0724762
-0.0420706
-0.0362513
-1.12225e-212
0
0.0340437
0.00446353
0.00250566
1.15611e-321
-0.0196204
3.11144e-06
0.00815917
0.0143213
2.78545e-07
8.62975e-51
0.0298538
-2.11656e-212
-2.94499e-11
-0.00739003
-0.000154115
0.0715856
0.0316362
0.000292264
-0.0523578
-1.87357e-06
-0.0382025
-0.0428512
0.0439585
-5.62025e-213
0.0020793
-0.0227868
0.0174182
-0.00653857
0.0335005
-0.01358
0.0303644
-1.05664e-09
-0.0296089
0.00473605
0.185271
-0.154933
0.0861042
-0.050904
-1.64366e-15
-1.61675e-05
-0.0103889
-0.00464525
0.00446353
0.125132
-4.01423e-05
-1.36192e-09
-0.0558623
0.0888261
-0.0141556
-0.014783
0.0477341
0.0616873
-0.023085
0
0.0596636
0.0782679
0.000581582
-0.120361
-0.0318364
0.113622
-1.2302e-06
0.025653
0.019393
0.00091843
0.010361
4.20004e-05
-9.25561e-05
-7.13584e-13
-7.85311e-12
0.00165671
0.0758858
2.38199e-58
-0.0419353
-0.0231532
0.0861762
0.0947312
-0.0210787
-0.147119
0.174871
-8.23785e-11
4.47936e-50
-0.0719846
-0.0175496
0.00356451
-0.0331372
-2.55576e-07
0
-5.9141e-15
-0.0259884
0.0227886
-2.38204e-06
-0.0518856
0.161189
0.0568422
0.03994
-6.2405e-05
0.00446353
0
-1.21285e-09
-0.00370399
-0.0304302
-3.66526e-09
-0.0231611
0.0127831
-0.000174732
-3.80474e-08
-8.02591e-08
-1.51338e-05
0.087006
-0.0381935
0.0834163
-0.0140448
-0.0202952
-8.98771e-06
-0.0378283
-1.2302e-06
0.0227891
0.0026932
-1.48772e-09
-0.0240128
-1.91559e-06
-0.0340508
0.00145993
-0.0412561
0.097922
0.310224
-0.0190944
-0.0187453
-1.91559e-06
-0.0114409
-0.145804
-8.56367e-13
0.083625
-0.0536001
-6.59393e-07
-3.69827e-08
0.00124413
-0.0938087
-1.91136e-06
0.0359676
0.00708835
-1.13536e-07
0
-0.124759
0
0
0.023863
0.00716986
0.0345117
8.33402e-05
-0.0582879
-0.00976446
0.0033648
-0.0953276
-0.0162287
0.000230933
-0.0733167
-0.0146718
0.000281793
-0.0515578
-0.000122114
0
-0.000143409
0.0127599
0.0329852
0.00918298
0
-0.0721219
-0.0703919
0.052642
-0.106518
0.0616873
-0.0376249
-0.0664112
0.0981246
0.0112991
0.0182393
0.00646835
0.0489391
-8.32965e-06
0.12627
-2.55894e-13
0.0815266
-0.000141884
-0.0336759
-0.0343579
-3.75548e-08
-5.18641e-06
-2.45955e-08
-0.106133
-0.00704608
-0.100881
-0.000429589
-0.0871501
-7.21075e-08
0.0337802
-0.161257
-4.5769e-13
-0.0678952
0.00660328
-0.0703302
-6.08424e-06
-0.0150119
-0.0574949
-0.0341139
0.011663
-0.0338178
0.0208738
-0.000204176
0.104371
-3.36173e-09
0.0377929
-0.0887234
6.04358e-05
0.095063
-0.129069
6.55932e-49
-0.00103684
-5.85034e-07
0.00165671
-7.15255e-06
0.039261
0.0177002
-0.117104
0.0801
0.00356451
0.103471
0.0455364
-0.00293586
-0.053219
-0.109697
0.0255035
-0.0467675
-0.110751
-1.03188e-09
-1.98547e-212
-0.0342008
-1.16649e-09
-0.166438
0.0143213
0.0602604
0.0659332
0.182842
-0.0784597
8.62975e-51
0.049427
-0.0149932
-0.116603
-3.69827e-08
0.00939172
0.0582263
-0.000143409
0.174871
0.0884193
-1.01778e-321
0.0730898
-0.0652918
-0.0930723
-0.164242
0.00192638
0.0107393
0.000327517
-0.0438667
0.0705719
0.0188139
-0.023124
-1.91559e-06
0.0177002
0.00601398
4.47936e-50
0.0455473
-4.61885e-06
-0.0192367
0
-0.0629857
-2.07311e-06
-5.71423e-05
-0.0155123
0.00143894
-0.032842
0.186485
-0.0173527
0
0.0227891
-1.11661e-13
-0.023502
-0.0318758
0.0345117
0.00842671
0.0580962
4.47936e-50
-0.0642656
-8.32965e-06
0.0152433
-0.0658619
-1.39432e-09
-0.000104292
-0.158648
0.0437267
-1.11661e-13
0.0115631
-6.3882e-11
0.000383393
0.0690702
-0.00633851
0.0471178
-0.134604
-1.67481e-05
-0.0134293
-0.0800963
-0.0431482
0.0871303
-0.0153191
-0.0544799
-0.0196204
-0.0357958
0.0166811
-1.2302e-06
0.0345117
-0.105101
-0.154847
0
-0.0176994
0.0783062
-0.0340508
0.0222427
-0.00107177
2.20068e-05
0.0205635
0.0549174
-0.0110932
0.0127599
0.00646835
0.0566449
-0.0867474
0.00591949
0
0.0282638
-1.52623e-05
0.0844435
0.171319
-3.99083e-05
-0.00573351
0.0508177
0.0481886
-0.0207766
4.47936e-50
-3.94246e-05
-0.000177848
0.00765011
0.00660345
-0.00739403
-1.11349e-06
-0.0391652
0.0166394
-8.89318e-322
-0.000143409
0.125035
0.0152278
0.0280098
0.0360148
0.0831125
-0.0069417
1.19564e-321
-8.02591e-08
-0.017689
-0.0646455
-0.0337972
-0.00573351
-4.5769e-13
-1.91559e-06
-1.44157e-07
-0.00293586
0.00546385
0.0185285
-4.89082e-09
0.0359625
2.81062e-08
-0.0622744
-2.59265e-10
0.0444
-7.21075e-08
-0.0977346
0
-3.1762e-06
0.121054
0.0702839
-0.00573351
-0.10128
-4.11756e-05
1.72923e-321
-0.00591032
-0.0274659
0.105047
0.0266037
-0.0621702
0.203629
-1.58895e-14
0.0692717
0.115489
-0.078471
-0.102942
-1.53411e-06
0.0372263
0.0801
-0.0205096
-9.42208e-08
-0.0140457
-0.0105349
-0.00784414
0.0254112
-1.21285e-09
-0.00343803
0.24002
-0.195799
-0.0410466
0.0801
-0.00681795
-3.9152e-45
-1.12885e-06
-6.88657e-12
0.072991
-3.80474e-08
-0.0589302
0.0459566
0.00347481
-4.01525e-09
-2.79572e-08
0
-2.71124e-07
-0.00708612
-0.0432187
-1.89052e-08
0.011663
0.00114245
0.0898549
0.00918298
0.0485311
0.0621299
-0.0145024
0.00378664
-0.00784434
0
8.33402e-05
-4.27798e-07
-5.22381e-213
-0.00408376
0.00780835
0.0506818
0.0490079
-0.0924518
-1.222e-05
-0.0356064
0.0506818
0.0308111
-0.0307215
-0.0999409
0.0608121
0.0424425
0.00143894
-0.0989192
0.0921123
0.0197808
0.117758
-6.25969e-05
-0.170418
0.0885931
-4.01525e-09
0.0143213
-0.0155198
0.100481
0.0182664
0
0.0173958
-1.29445e-321
-0.0167764
0.0519783
-2.63576e-08
-0.0726837
-6.93273e-05
0.00378664
-0.0357958
-0.00308037
0.0419583
-0.0639264
-1.43023e-05
0
0.157659
-0.0707941
-0.0412768
0.157574
0.00619703
0.0394295
0.396409
0.111026
-0.04486
1.72923e-321
-0.00184263
-0.0140448
-3.48912e-07
0.0264306
-0.0800963
-0.0124175
0.131945
-0.0990948
0.0312435
0.0692439
0.0394341
-1.47567e-09
-0.0820739
0.00378541
-0.0573332
-0.0477323
0.0209502
0.00198526
0.226024
0.000288177
0.134627
0.000186198
1.52172e-321
-0.00314074
0
-0.0558388
-0.000104292
-0.0240693
2.33352e-49
-0.107265
-0.0408666
-0.0927076
-3.84441e-09
0.00165671
0
0.0149443
-1.3692e-09
0.0337802
0.0474202
-0.00333905
0.0160439
0.00356594
0.00619703
-8.98771e-06
0.0107135
-0.00945548
-5.63121e-16
1.43773e-321
-4.89082e-09
0.00446353
-0.0189991
-0.0367957
0.0141637
-0.0286641
-0.0496541
-0.0827379
-0.0210515
0.109508
0.0177002
0.00202736
0.111255
0.121054
-0.00476677
-0.0949229
0.0489308
0.000260583
0.0136482
-0.0639264
-2.45955e-08
0.087136
-0.0710084
3.58775e-06
0.0044174
-1.16082e-07
-0.0756243
-4.24185e-09
-8.3841e-13
-0.094794
0.00822464
0.0836876
-2.45955e-08
-1.03801e-06
-2.94436e-05
-0.010944
-0.0381935
-4.01525e-09
0.0422084
-0.0443471
-0.0397235
-2.36469e-14
0.0234165
8.62975e-51
0.049427
-0.0580329
-0.109269
0.109786
-0.0306419
-4.01525e-09
0.000445771
-9.13302e-06
-0.0831458
-0.0134293
0.0218848
-9.14584e-08
-0.0545369
0.0572209
0.0388295
-0.0243177
0.041075
0
0.0618619
-0.0292833
-0.0550739
-0.157253
0.011663
0.0394341
-0.00998551
0.0537033
-0.071988
-0.00822717
0.0147715
0.0179087
0.00445789
0.0677521
-0.0206435
-0.156245
-3.25062e-07
-0.0824622
-4.43775e-06
0.00446353
-0.0393639
-0.113637
0.029228
0.00368989
0.0136873
-0.101571
-0.000202002
0.00661796
-0.013228
-5.34514e-09
-0.0173527
-0.0278756
-3.79595e-214
0.00356968
-0.13278
0.000288177
0.0750355
-0.126706
-5.96033e-05
-0.0312926
0.170401
0.0896881
-0.026542
-0.0173527
0.00088447
0.00211012
-0.0210015
0.0937328
0.01013
0.0090116
0.0595131
-0.0157809
-0.000123238
0.0310077
-1.91136e-06
0
-0.00712113
0.00136834
-0.0635676
-0.0373162
0
0.0122197
0.127063
0.000539068
-0.010372
-0.0895275
0.134977
-0.016946
0.0161342
-0.0205552
-4.61699e-06
-0.0778426
0.0758865
0.0447253
-0.0454275
0.00233871
4.73552e-51
0.209271
-0.0321886
0.0758865
0.034126
-3.78047e-10
-0.00010286
0.00424923
-0.0162121
0.0965209
0.000574841
0.0643949
-0.0631511
-0.055975
-0.0134293
0.0510832
0.068224
-0.0516337
0.0528994
0.0227732
-5.06497e-13
-4.01525e-09
0.000999063
-0.00308037
-0.000104292
-1.15436e-07
-0.0490811
0.00446353
0.00676756
0.00535414
-1.61065e-05
0.00202736
-0.0196228
-0.123409
-0.000216483
-6.25969e-05
-0.0016883
-1.71371e-09
-0.0439192
0.0803954
0.0366128
-0.00444468
-1.15003e-10
-0.0150119
0.00244889
-0.0469362
0
0.11178
-0.00103684
-0.0518397
0.0559139
-1.03448e-05
-0.092314
-0.0237135
0.000281793
-0.0597499
-0.0240828
0
-0.063355
0.26301
-0.0041643
0.0759396
-0.0998673
-5.34514e-09
-0.0162277
0
-0.0397773
-0.00573351
0.00345895
-0.0511155
-5.34514e-09
0.159804
0.0775746
0.00806486
0.132711
-2.95415e-11
-0.180992
-0.089333
0.0481133
0.00198526
-0.00440058
-0.25534
0.00652767
0.0268446
-0.0426904
0.00549458
-0.000190456
-0.0495624
0.191599
0.00716986
-5.85034e-07
-4.01525e-09
-0.020036
0.00595721
0
0.00634883
-1.36192e-09
0.0608121
-2.74217e-09
0.0135957
-6.3882e-11
0.0349934
0.0179323
-8.52033e-07
-1.2302e-06
-4.61885e-06
-0.00010286
-5.20539e-08
-0.00692776
-0.0522106
0.0101734
0.0801
0.0188183
8.62975e-51
-0.0158003
-1.91559e-06
-0.0761324
2.33352e-49
0.00258857
-0.292008
0.0746239
4.47936e-50
0.0380998
0.0350102
0
0.0282908
0.0450263
0.0917744
6.55932e-49
-0.0532594
-0.0918564
0.0205635
-0.0409588
0.00364323
-3.92452e-09
0.0227891
-0.0210015
0.0383056
0.00601398
0.00532031
-0.0124856
0.0178327
-4.05736e-07
-0.084444
-1.21285e-09
0
0.178768
-1.78412e-07
-0.0350865
0.0690022
-0.101911
0.10374
0.0330364
0.0643937
0.0052719
0.000510017
-1.21285e-09
0.000914233
-0.0999411
0.0405632
-1.21285e-09
0.00549458
6.53637e-51
0.00725864
0.00811871
0.0266003
0.0116147
0.122541
0.013766
-0.0233567
0.0182393
-0.0655275
0.0155491
0.0562341
-0.0394467
-0.0696599
-2.05037e-321
-0.0728893
-4.4193e-06
-0.0535418
0.0846149
-0.031687
-0.0664002
-0.0103125
-0.0252254
-6.86751e-322
-0.0903323
0.0337006
0.000289429
0.060824
0.0337802
-0.0210015
0.0157866
-7.50951e-170
-0.125124
0
0.00251571
-7.85311e-12
5.12858e-07
0.00446353
2.89006e-05
-1.51379e-06
0.0744902
-0.0343629
0.0733682
0.00165428
0.00549565
0.0896306
-0.0869707
-0.0231149
-0.0226129
0.046106
-2.00981e-06
0.00088447
-1.9379e-07
0.0383092
-4.01525e-09
-0.0871501
0.144178
-0.023124
-3.4744e-07
0.0947512
0.000699048
-4.01525e-09
0.00446381
-0.0210015
0.0205166
0.000676855
0.0359541
-3.9152e-45
0.155415
-0.017689
0.0620413
-2.61749e-05
1.52172e-321
-2.74217e-09
0.0205546
-0.155506
0.0471536
-0.040712
-0.102556
-0.055428
0.0580186
0.0701369
0.232669
-0.0153191
-0.0862882
-1.78412e-07
-2.38233e-07
0.0809493
0.237083
0.0444432
0.0112991
-0.0623333
0
0.0198939
-0.107502
-0.0768731
0.00920416
-0.0531108
0.0766262
-0.070861
0.00557926
0.0605972
0.0161577
-0.0126412
0
-0.0127529
0.00111849
-0.0986753
0.0597214
0.00446353
0.0531285
0.0498134
0.0176543
1.6897e-321
-5.71423e-05
-0.0221317
-0.0162527
0.0286549
-0.00364838
-0.202749
0.051023
0.205803
0
-4.43775e-06
-0.00487997
-0.0494689
-1.61675e-05
-0.00573351
0.0540094
0.0299923
-0.0075131
0.0215193
9.32062e-07
-0.0686241
-0.00205594
-0.191091
-0.0716415
0.0668502
-0.000133877
-0.0793546
-0.00573351
0.130004
0.00356451
0.0337802
-0.101209
0.0127599
0.0464469
-3.9152e-45
-6.3882e-11
0.0138969
-2.62681e-09
0.0749817
0.00574611
0
-0.000143409
-0.0696173
0.0345117
-2.45955e-08
0
-8.13391e-11
0.0337802
0.20872
0.00527715
-3.84441e-09
-0.0851668
0.052757
0.0761664
-0.0269712
8.62975e-51
-0.0172687
-0.0721219
-4.01525e-09
-0.140226
-1.79716e-07
-6.954e-05
-0.0613037
-0.0488238
4.47936e-50
0.00661796
-0.10081
0.0356881
0.0350102
-0.104625
6.52852e-05
0.00165671
-1.006e-09
-0.0381935
-0.00111686
-3.78047e-10
0.0161342
-0.112161
0.0349574
-0.0856407
-6.08424e-06
-1.48772e-09
-0.0389993
-0.0899931
1.16105e-321
-0.0292263
-0.102276
-0.0231611
0.0279408
-2.45955e-08
0.16264
-0.0257297
-0.0110992
-0.0642393
4.47936e-50
0.0127831
-6.51104e-05
0.000678043
-0.0571486
-0.0516337
-3.75548e-08
-0.0338835
-5.6548e-06
0.0309223
0.0695373
-0.0743351
0.0335054
-0.0349074
0.00446353
0.0782968
-1.11349e-06
0.00261603
0.00993904
-1.2755e-13
-0.0668059
0.00815917
-4.6142e-10
0.0339679
-0.0438126
-0.00572332
-0.00692776
-2.1149e-10
0.168114
-0.0343579
-0.0207915
0.0648961
-0.0454275
0.00446353
0.114966
-0.0495234
-5.72935e-06
-0.042902
-0.0431077
4.47936e-50
-0.0500881
-0.0156236
-2.11656e-212
0.0623686
0.00378664
0
0.023863
0.0127831
0.01013
-3.21792e-06
-0.00962595
-0.0115309
0.0454193
-0.0371873
-0.0543328
0.064015
-6.28386e-12
-0.0602707
-0.138382
-0.03701
-0.00739003
0.077143
0.00557926
0.00446353
0.00297017
0.0116724
0.0205534
-0.0241089
0.00842671
-0.0944904
0.0716388
0.0169409
-0.0153673
0.00192638
-0.0782898
-0.0452838
0.0322564
0.355112
-9.14584e-08
-0.00692776
-3.78047e-10
0.0785723
-9.42208e-08
-0.0788826
0.0263663
0.0129393
0.0112072
-0.0233783
2.33352e-49
0.0584035
-0.023124
0.0400874
2.32848e-05
-0.0693242
-0.203724
0.00421356
0.0948163
-0.10117
-3.48912e-07
0.0817738
-4.01525e-09
-2.05037e-321
0.00444201
-0.000141884
-1.11661e-13
0.0562205
0.00299651
-0.0235869
-0.140295
0.0195663
-0.0582693
-1.79716e-07
-0.0908466
-0.0541018
0.0705719
0.0372008
-1.73804e-06
-0.000154115
0.0337802
0.00386063
0.312203
-0.0652928
-3.48912e-07
0.108569
0.000327589
-8.13391e-11
0.0252713
0.00247248
0.00393115
0.0337802
-0.050823
0.025653
0.00446353
-1.11661e-13
-1.16082e-07
-0.0369746
-3.39728e-06
-0.000256775
0.0778841
0
-6.51104e-05
-2.79887e-07
0.0127599
-0.028938
-2.45955e-08
-0.104838
-1.21285e-09
-0.0147929
-0.0623333
0.011045
-0.00249276
-0.0110956
1.63775e-199
0.000289429
0.0105734
-1.16082e-07
0.00446353
0.0886053
0.025279
-0.0511155
-0.033791
0.00968715
0.0196532
-4.27618e-05
0
0.0356881
0.000600325
-2.52671e-07
0.129635
-6.69327e-06
0.056282
-0.00739003
0.020125
0.0129393
-0.000761255
0.109934
-0.100801
-0.120199
-1.5887e-13
5.44262e-05
-1.41301e-09
-0.145584
0.0758106
-1.84964e-06
0.00121366
-1.60037e-05
0.0146066
-0.0214264
0.0040269
0.00264201
-1.84964e-06
-0.000406933
0.00192638
0.00446353
0.0219185
-2.55894e-13
0
-5.64694e-06
-0.00374899
-0.0381935
0.00446353
-0.00155728
0.106612
-0.0499191
0.00404189
-1.34654e-05
0.185507
-8.25998e-05
0.0845821
-0.0321885
-0.262719
-0.0812004
-1.78412e-07
-3.36173e-09
-4.01525e-09
-0.0686323
0.00088447
0.000208702
-0.05091
-0.110021
-5.22381e-213
-0.0466618
0.0624706
0.0774986
0.00446353
0.00198526
-0.0758662
-0.0856407
0.0120489
0.0146781
-8.0588e-06
0.00192638
0.00192638
-0.0134293
0.0708565
-0.0237577
0.00218695
-0.0974639
0.000186198
-4.764e-05
0.00446353
-1.08333e-07
-0.398632
0.0203836
-0.0368051
0.191031
-0.0251875
0.0831589
0.00646835
0.0031868
2.33352e-49
-0.0858593
0.028258
-0.0757174
-3.48912e-07
0.0129492
-0.00717484
0.0973711
-6.74205e-10
-0.0249125
-6.25969e-05
-0.0391149
-0.0111701
-0.168504
1.52172e-321
-0.0691424
-0.0373162
-0.00573351
0.00591949
0.0437286
0.000213569
0.0623749
0.0385029
-0.0205552
0.0220493
-0.0320273
-1.21285e-09
-0.0223254
-1.21285e-09
0.0848313
0.0927569
-0.0050693
0.157322
0.0173415
0.0344621
0.024979
-0.0230218
0.0157732
0.0101779
-0.0122542
-0.0593519
-0.20533
0.000120816
0.00587581
-0.0176659
-0.0494109
-0.0454275
0.000232163
-0.00557629
-0.0210141
-1.15003e-10
-4.96059e-06
0.0444052
-0.028781
0.0166462
0.104371
-0.0782898
0.000524761
-1.49407e-213
0.00632494
0.0020319
0.00531901
-0.000216483
0
-0.0203718
-0.0497385
-0.0188493
0.00930524
2.33352e-49
0.00165671
-0.0442803
-1.34654e-05
0.067564
0.0582757
0.119445
0.015773
0.00235215
-3.4744e-07
0.121004
0.402439
0.0127599
-1.93006e-09
-0.0466618
0.00591541
0.00891509
-0.0223254
0.00356968
0.0292279
0.0964222
-1.1692e-05
-0.0389353
0.0330364
0.0205635
-5.85034e-07
0.000960072
-7.69349e-08
-0.05091
-0.00766214
0.0394337
-0.0163119
-0.0126051
0.0157451
0.00677532
-0.175586
0.00023076
0.000124763
0.0262737
0.0129393
1.12893e-05
-1.12885e-06
-2.05037e-321
0.00134111
-8.23785e-11
-0.0385826
0.00637283
-0.0124178
4.47936e-50
-0.0489967
0
-0.0134293
-0.000402301
-3.7904e-05
-0.0180887
0.0179564
0.0231426
-0.0508567
0
-5.6548e-06
-0.00440058
-0.0149646
-0.0506188
0.0351011
-0.0420706
-0.0019012
0.0107393
-0.0513966
0.00297017
0.0733942
-0.0358412
0.249357
-0.112244
0.025653
-0.00708612
0.0053128
-1.91559e-06
-3.32411e-06
0.109825
0.160439
0.0205546
1.52172e-321
-0.0984768
0.00282774
0.0255039
-0.0462838
-1.36192e-09
-0.00197531
0.00165671
-3.9152e-45
0
0
0.00940929
0.0165119
-0.00360967
-0.0368879
-0.0586082
-0.00389784
0.00225912
-0.00389784
-8.74496e-322
0.00364323
-0.0369546
0.0468143
-0.0936627
0.0181736
-0.0043646
-0.07256
0.0348011
-0.0955404
0.13139
0.0432627
-1.28733e-06
0.078922
0.0947127
-0.0658619
-6.25969e-05
-0.000188589
0.000289338
-0.0516337
-0.0210015
0.0340452
0.0716737
-0.0819028
0.0470784
-0.00226453
0.014996
0.0201172
0.00198526
0.00124757
0.0193835
-0.126547
-1.28733e-06
-1.03448e-05
-0.0357958
0.0227654
-0.03295
0.00202736
-6.16418e-05
0.00710737
-0.0568072
0.0380998
-5.71423e-05
0.0357247
-0.0609388
0
0.0287915
-0.066237
-1.10017e-15
0.0644528
-6.08424e-06
0.0356706
0.0247517
-0.0340508
0.00125797
-6.3882e-11
0.00118504
0.0231165
-0.0245731
-0.0477323
0.0924717
0.00198442
-0.0318108
-1.51678e-321
-0.0241899
-1.15436e-07
-2.45955e-08
-0.0532803
0.214245
-0.0425635
0.000973654
0.0103333
0.0722789
-0.0291904
0.18211
-8.37253e-13
-4.61885e-06
-0.148731
-0.00573351
0.00165671
0.0165916
-5.63121e-16
0.0129322
0.121438
0.0202241
-0.0106135
-1.60037e-05
0.0462069
-0.0413749
-0.00665648
0.00112609
0.000960072
0.333005
0.0196532
-0.143004
-0.152844
-3.78047e-10
0.00446353
-4.24185e-09
-0.0312106
-0.0146718
-2.55576e-07
0.136579
0.00557926
-0.474693
0.0680576
0.102282
-0.0332566
-0.0280853
0.0195448
-2.07534e-06
-0.0385882
0.00203812
-0.100801
0.0194851
0.0557871
0.0678309
-0.0693356
0.0582238
-4.79297e-06
-0.0111231
-0.00816198
0.00192638
-0.0330791
0.00842671
0.00378664
0.0522975
-0.0431077
3.00293e-05
-0.0192448
-0.00109968
-0.000154607
-0.0755314
-0.00760703
0.00363495
-0.00639551
-0.0938731
0.00514737
0.0442539
0.00446353
-0.037226
-0.0025788
0.0613014
0.0313217
0.0360148
-0.010944
0.00143894
0
0
-0.0455053
0.0508174
-0.0642393
-3.9152e-45
-0.00124092
0.0886862
0.00842671
-0.02444
0.0140061
0.00171201
0.0136873
0.00595733
-0.15446
-0.0746669
0.000524761
8.62975e-51
-2.55576e-07
0.0427157
-0.00657077
0.025417
-0.0341865
-0.0454275
0.0450263
0.00984258
0.0692794
-0.0456568
-0.00866461
-8.23785e-11
-0.0267691
-0.0268715
-0.0582761
1.72923e-321
-0.00337196
-0.0368726
0.268156
0.013913
-9.04526e-06
0.442605
-4.27798e-07
-0.0205096
0.0350102
0.000808061
0.0506818
0.0802044
0.00264928
0.00410232
-1.6897e-321
-1.52623e-05
0.00786553
-0.0903219
-0.014783
0.0759396
0.00198503
0.055126
-0.0233081
0.00610679
-9.14584e-08
-8.98771e-06
-0.0544093
0.0715856
-0.033144
0.0103878
-0.0479689
0.0176378
-2.1149e-10
-0.320475
-1.73804e-06
-0.0800963
0.0534135
0.0696345
0.101428
0.00251571
-0.0558725
0.00358309
0.0399568
0.0498778
-0.115254
-0.0497372
-0.215052
-0.0509269
-2.71336e-06
0.000288177
1.71315e-05
0.063243
0.235469
-0.0538618
-2.05572e-07
-0.0473053
-1.89052e-08
-0.122938
-1.03188e-09
0.0494238
-1.84964e-06
-0.0341865
-0.023124
0.00579282
0.0195663
0.00198526
-0.0903323
4.47936e-50
-0.0579339
-4.38655e-05
0.0191785
-0.0249295
0.00124757
-1.00789e-321
-2.38233e-07
-0.0381935
0.0133507
0.0543036
-0.0115029
-1.12885e-06
0.00595541
0.000289429
0.0119264
-0.0480998
0.00941685
0.424064
0.0107496
0.0322564
-2.45955e-08
-0.0581156
0.00020422
-0.011076
0.00446353
-0.0903746
0.00251571
-0.0895275
0.0338985
-0.0338178
0.0239776
-0.031687
0.142998
-4.5769e-13
-1.84964e-06
0.000808061
5.31275e-183
-0.181149
-9.04526e-06
-0.00265475
0.0127599
-0.0558723
-0.0317563
0.0278219
-5.6548e-06
0.00800976
-8.02591e-08
-0.0223254
-0.0217183
0.00192638
0.0263237
0.0247719
-0.0621053
0.130891
-0.0414463
0.000260583
-0.228163
0.528935
0.0399568
-1.43023e-05
-0.0372388
-1.2302e-06
-0.00314074
-0.0207698
-0.0223036
2.13459e-05
0.00723699
-0.0118127
0.0695624
0.0349934
-1.41301e-09
-0.0824041
-8.65849e-08
0.00538055
-0.140324
-5.72935e-06
-0.183335
0.0229982
4.47936e-50
-0.0587535
0.0159371
-5.71423e-05
0.11367
0.0127831
0.15101
-1.84964e-06
-0.206435
4.47936e-50
0.0725099
0.0507873
0.0121959
-0.00573351
-0.000202002
0.0898982
-0.0831245
-8.74496e-322
-1.32396e-45
-0.198315
-0.0012542
0.00446353
-6.57183e-45
-1.72399e-08
-0.00712113
1.04286e-05
-1.2302e-06
-0.05091
-0.0871501
0.00430114
0.131496
-0.0700594
-4.05736e-07
-0.0381935
0.0506818
-0.0897667
-0.0254164
0
-2.42841e-06
-1.03801e-06
-1.12277e-08
4.73552e-51
-0.0385882
-0.1442
-1.11661e-13
-0.0241089
0.00776159
-1.21285e-09
0.0377664
-1.21285e-09
-4.01525e-09
0.00255788
-0.0535758
0.0270855
6.55932e-49
-0.113335
0.00850831
0.0313954
-0.0188919
-0.0120802
-0.0793546
-0.0423582
-3.90399e-45
0.0215193
-0.0065015
0.0273002
-0.00573351
0.0070724
0.00124757
2.33352e-49
-0.0405438
-0.0275282
4.47936e-50
-5.18428e-05
-3.93507e-05
-2.71124e-07
-1.05639e-06
-0.0349078
-0.0231149
0.00968715
-1.50026e-06
0.00406539
0.0231306
-1.12885e-06
-1.51678e-321
-0.0231611
-1.03801e-06
0.0130022
0.136457
-0.0413074
0.039073
0.0116346
-0.0419511
-0.00573351
-0.00573351
0.0191228
-0.0703685
-1.222e-05
0.064455
-2.45955e-08
-4.84434e-07
-0.0856971
0.011663
-0.0639264
-8.0588e-06
-0.0819028
0.0112991
-5.92174e-15
0.0112991
-1.05664e-09
0.0420182
-0.102767
0.0053128
-0.0210015
0.00192638
-5.43221e-07
0.062588
-0.0634988
-7.69349e-08
-1.11045e-06
-0.0441187
-8.73427e-09
-0.0805329
-1.61675e-05
-1.15436e-07
-9.42208e-08
-0.0344723
-1.09858e-191
-2.62681e-09
0.0675998
-0.00668873
-1.11661e-13
-9.04526e-06
0.0917983
-0.0653763
0.0375512
-1.98547e-212
0.000356617
-0.0919311
0.00661796
0.00423068
0.00716986
0.0227364
-3.90231e-45
0.0825481
0.0205546
2.38199e-58
0.0849754
0
-4.61699e-06
0.0127628
0.0244284
0.0143262
-0.0485119
-1.222e-05
-0.0746332
-0.289437
-0.00586125
0.0156798
4.47936e-50
0
-2.42841e-06
0.0921558
0.0753397
-0.0661149
0.0090116
0.00165671
-0.00314078
0.00446353
0.0619296
-0.0147393
0
-1.2302e-06
-1.57836e-06
0.0332492
0.000113631
-0.0252254
4.47936e-50
-0.0491585
0.000482337
0.01991
-0.0698297
0.0106917
-1.21285e-09
-0.0369907
-0.00480588
-0.029319
0.228548
0.0149443
-4.37825e-05
-0.109709
0.00895359
0.0359541
0.106612
0.00446353
-0.0745741
0.0686627
-1.21285e-09
8.33402e-05
0.0504774
0
0.114966
-2.14694e-05
-0.0525363
-0.000143409
0.000119732
1.78901e-05
-3.1762e-06
0.00353263
0.0973226
-0.0341865
-1.2302e-06
4.47936e-50
-0.0545369
0.00391295
-0.229116
0.00378202
-3.66526e-09
-0.0511155
0.0422534
-4.01525e-09
0.00514737
-0.0192448
-0.0545369
0.00230391
-4.36996e-11
0.675238
0.0085081
-0.000177843
0
-0.0134293
-0.0872767
2.33352e-49
0.00519885
0.00363495
-2.45955e-08
-0.168221
0.00143894
-2.49957e-13
-4.01525e-09
0.0125182
0.140099
0.00894492
0.0215193
-0.0231532
1.16105e-321
0.00353263
0.00953013
0.0286549
0.0261286
0.0193983
0.0470904
0.0195663
1.71315e-05
0.00178297
0.153802
-1.12885e-06
0.0549762
8.62975e-51
-7.85311e-12
6.53637e-51
-0.0337037
-4.01525e-09
0.0196959
-0.0143817
0.00496583
0.0594891
-0.00573351
-4.5769e-13
5.78863e-05
-0.118485
0.0742807
-4.81826e-05
-9.23413e-06
-0.00260786
0.00417844
-2.55576e-07
-0.0385763
0.0661493
0.141788
-0.0241257
-0.0495957
-0.0292263
-0.00293586
0.00259838
