-1.07914e-05
-1.62749e-95
-8.7322e-14
-0.0185102
-0.0190355
-0.000348115
-1.69325e-06
0.0253314
0.0285243
-1.69325e-06
-0.0149578
-0.0136169
-0.0417224
0
0.00124415
-2.139e-229
-1.42453e-07
0.0231711
0.0154446
-0.0300793
0.0425788
-0.117142
0.00839605
-2.35197e-06
0.0490637
0.00124415
-0.0407653
0.0568957
0.00013286
-0.0901195
0.0213515
0.00206543
0.00949294
-2.27656e-97
5.12523e-05
1.14202e-05
0.0243399
0.00765996
-2.8672e-05
0
-0.069626
0.11167
-9.66976e-12
-5.79151e-08
-0.0260284
-0.01628
0.0568965
-9.40228e-05
0.0153002
0.0278459
0.0811468
0
-5.64594e-10
0.109516
-9.1838e-85
-1.05763e-11
0.00453033
0.00318844
-6.58245e-08
-9.19182e-07
-0.000234962
0.000827288
-9.22536e-36
0.0456123
-0.0396955
0.0339114
0.0906995
-1.42308e-05
-0.0341712
0.000173704
-0.130339
0.0339416
-0.0359941
0.00176022
0.0233268
0.00734548
0.013987
0
-0.0491448
-0.00471166
-0.0646837
-0.0406564
-0.00744373
0.0249429
-0.000140404
0.0162908
-0.0344047
0.0521927
0.0584442
0.0339114
0.0365019
-0.0958969
-0.241565
-0.00213443
-0.125328
-0.0372795
0.0661127
0.0345473
-0.00431203
0.0835967
-5.64594e-10
-0.000234962
-4.61497e-14
0.0121496
-2.96731e-10
-1.56287e-09
-0.130535
0.0100381
-1.67181e-11
0.383902
-0.0829751
-0.0154412
-0.000226624
6.51804e-05
-1.22034e-321
-0.00366285
0.0114344
-2.0007e-05
0.00117882
0.237493
0.0211921
0.0215915
0.238029
-0.146649
0
0.00728087
-0.0850465
-0.0418093
0.0353319
-0.0158141
0
-0.0261265
-0.0190864
-0.0030597
-0.125866
0.0194071
-0.0720704
-1.05763e-11
0.042433
-0.0122539
0.0777305
-0.00813346
-6.57394e-05
0.0413694
-0.0077312
0.000114202
0.0189815
0.0109531
0.00285475
-0.0896255
0.00331436
0.00192805
0
0.00419814
0.101198
1.14202e-05
0.000197432
-0.0133359
-0.0233814
0.000579661
-0.0190577
-0.0545949
-0.112106
-0.0283731
-0.000234962
-0.087549
2.20353e-321
0.0464219
0.0108033
-0.0446274
0.0151651
-0.0238843
-2.47033e-322
-2.81248e-07
-0.257112
-0.0138884
0.0455841
-0.00990605
-2.47988e-05
0.00425377
-5.64594e-10
-1.88618e-85
-0.0649994
-0.0522027
-0.0389442
-0.0409534
-0.0476897
0.135408
-8.54734e-322
-2.35197e-06
-0.0588254
0.0593731
-0.0252567
0.00453033
0.136512
-0.104979
0.0662763
0.0153306
0.00422298
-0.0179878
-0.0249714
-0.0347475
-0.0545862
0
0.0406721
-0.000234962
0
0.546103
0.0236568
-0.0154412
-1.88889e-09
-0.0328179
-0.00688862
-0.156185
0.0904698
-1.69325e-06
-0.0724084
0.0539148
-0.0589268
-1.83083e-07
-8.05102e-05
-0.0364515
0.000715066
0.0337009
-1.63536e-321
-0.000386867
0.013987
-0.183532
0.00428525
-1.05763e-11
-0.237773
0.0109016
0.0169874
-0.0608534
-0.0522852
-0.043683
0.00387946
-0.00734846
-6.10844e-05
0.0331717
0.0220929
-0.11268
0
-0.0160377
-0.0822713
9.94456e-05
-9.59193e-09
-0.01503
-0.0781891
-2.42462e-95
-0.0180016
0.00299603
0.00862836
0.0136091
-1.88618e-85
-0.0179568
-0.0936893
0.0281036
0.00595813
-0.0855794
-0.0730327
0.0227456
0.00167708
-2.47988e-05
-0.0300793
-0.0838804
0.0127627
-7.58193e-05
-0.0878445
-0.00311848
0.0549868
0.0184033
-0.061142
0.106228
-0.0243752
0.0922019
-0.0813782
-8.7322e-14
6.33806e-05
0.00680901
-9.68563e-13
0.0253314
0.8903
-0.0112049
0
-2.08832e-11
0.122104
0.0849976
0.108601
0.0222967
-0.00128975
-0.0426647
-0.0031434
0.000479993
-0.00115474
-0.033846
-0.00539395
-0.124449
-0.0397824
0
-1.78278e-09
0.0406656
2.34995e-05
-2.0007e-05
-6.0139e-05
0.31677
-0.0136169
0
-0.0581349
-9.79253e-06
-4.39061e-06
-9.67413e-12
-0.100974
0.0166216
-0.000184857
-0.0178911
-0.0389442
-0.0487655
-0.0895494
-1.0238e-06
0.0851983
0.296408
0.0256294
-0.0132119
-0.0188732
0.0999335
-0.00792356
0.115672
0
-0.251889
0.500879
-0.0543942
-0.0397971
-0.0359941
-0.0330379
0.00642347
0.000140846
0.0515371
-0.0112081
-0.0715333
0.0349465
-2.50506e-07
-0.0227518
0.0418376
-1.83083e-07
0.0149814
0.0497093
0.000266523
-0.089599
0.0323177
-0.0568159
-0.00562178
-0.0241507
0.0739542
0.0568965
0.0452112
0.00176022
0.0283954
-0.000260083
0.0331717
0.43042
-0.00683766
-2.27152e-07
0.145265
0.0327594
-0.0396196
4.58839e-05
8.42026e-210
0.0112576
-9.19182e-07
0.196959
-1.5723e-05
-0.115631
0.024909
9.77341e-07
-0.000234962
-0.0563698
-0.078603
0.0113237
-0.000234962
-0.0590674
0.0153306
0.035216
0.0153004
-0.0780345
0.000780715
-0.0593552
0.0847256
-0.00719424
0.0184033
-0.11536
-0.000234962
-0.0228103
-0.0520744
0.0281036
0.035557
-0.0158141
0.0323337
0.000185298
-0.000386867
-4.61497e-14
0.0292872
0.0586591
-3.94871e-05
0.0164474
0.00419814
0.0604258
-0.0545862
-0.104022
0.00770082
-0.0870669
4.7718e-05
-9.68563e-13
-0.0306296
0.0799053
-0.0534711
0
-0.140025
5.12523e-05
-0.0598672
0.0348637
-0.000187678
0.204405
-0.000273124
-6.10844e-05
0.0612809
0.00862836
0.0720753
0.0010549
-5.22756e-05
2.41543e-06
-0.163287
-3.70636e-06
0.00144249
0.0249429
0.00453033
0.00378237
-9.08479e-05
-0.15728
-0.0286374
0.0292606
0.00661014
-8.54734e-322
0
0.0165637
-1.32904e-321
-0.122909
0.0724223
0.0462751
-0.050087
0.0149814
0.00484326
0
-0.0154412
-0.000234962
0.289117
-0.000368225
-4.83839e-06
0.0541085
-0.0882839
0.0490635
0.0228419
-0.00128975
0.0788956
0.00302529
0.00307805
-0.018197
-0.00769491
-4.95646e-14
-1.30313e-05
-0.0351758
-1.03233e-05
0.0298081
-0.0368883
-0.000101247
-9.67502e-06
0.00387281
0.0257732
0.0101843
-0.0165971
-0.305924
-0.0634889
0.0109112
3.57547e-07
-0.249006
-2.41491e-07
0.2169
0.0516698
0.0158989
-0.138562
-1.05763e-11
0.0940773
0.0165332
-0.0408595
-0.0788907
0.0549868
-4.94066e-324
-0.0163788
-2.81248e-07
-0.0116862
-0.0467557
-0.0154412
-0.0384315
0.13321
-0.000140404
-1.5723e-05
-0.00128975
-0.0410695
0.00739381
0.109018
0.0134184
0.00618884
0.00174575
-0.0547603
0.00389893
-0.276613
-7.55788e-15
0.00941566
0.0189762
-1.5723e-05
-7.91084e-05
0.141714
-0.158785
-0.0715333
0.000395083
-4.69785e-06
-1.06597e-12
0.0155366
-0.00306901
-4.95646e-14
-0.0423573
-0.0616239
-0.0383459
0.0763929
3.21496e-05
-0.00841732
-0.0751482
-4.87976e-08
0.0100512
-1.42794e-09
0.000351132
-0.0652621
-0.000167207
-0.0252515
-0.0112327
0.0401123
-0.0829334
0.025667
0.0529114
0.45078
-0.000250917
0.0195813
-0.0519422
0.029885
0.0896704
-0.040357
0.0270672
5.47384e-09
-0.0339054
-0.00730972
0.0348982
-0.00100526
0.1496
0.0610666
0.00279756
-3.70815e-07
-4.18758e-12
-0.06457
0.0254154
-0.0418093
0.0281036
0.000226187
0.0713243
-0.0671754
0.0336112
0.0275821
0.0610337
-0.0476591
-0.047956
-0.0579444
0.00541475
0.000629629
0.0178868
-0.0268904
-0.02156
0.0199181
0.046615
0.00972938
-1.32796e-05
-0.0562604
0
-0.00875689
-0.140034
-0.045068
5.09658e-05
-0.000234962
-4.61497e-14
0.0247842
-0.08154
0.0252409
0.132203
0.0490637
-2.85552e-05
-0.0587569
0
-0.0123516
0.0155413
0.0141417
0.029852
-0.00439729
3.14911e-251
-0.0677667
0.06247
-0.0300557
0.00285963
-0.0453241
-0.0985534
-2.29529e-07
-0.0401194
-0.0779458
-6.20064e-08
-1.41021e-07
0.0633371
0.0933739
-0.0765643
0.0286499
0.00739381
-0.0271151
-0.0277795
0.0149814
0
-0.0802375
-0.0418093
-0.000231462
-9.66976e-12
-1.05763e-11
0
0.0272527
0
-0.00874923
-0.0474688
-0.167992
0.179555
0.00419814
-0.00225795
0.0355059
0.000220344
-6.26304e-06
0.00700694
0.0564032
0.00527499
-0.035347
0.0418009
-6.60927e-08
-0.00324869
-3.04215e-05
-2.35197e-06
0.0466785
-0.0444806
-0.0135092
-0.0634603
-0.0545891
-0.0410695
0.000769478
0.0998632
0.0839497
-1.25493e-321
0.00355372
0.100808
-3.99623e-05
-0.0414881
0.000780715
-5.34637e-09
0.0951683
0.0430102
0.00441147
-0.0299493
0.0837648
0.0623198
-0.0471613
-5.94362e-10
-8.7322e-14
-0.160599
-9.67434e-87
-0.0467131
0.0109295
0
-6.53095e-05
-0.060778
0.0489917
0.0585383
0.0392887
0.0631547
0.0408674
-7.98917e-05
0.0952025
-0.0730327
-0.216996
-0.110364
-9.68563e-13
-0.0176618
-0.00302129
-0.000234962
0.0109928
-6.33721e-96
-0.0143544
0.0135847
-0.0627877
0.267362
-0.0337504
0.201355
0.0166216
-1.05763e-11
-0.0844164
0.0659348
-0.123948
-0.0450243
-0.000132699
-0.0168138
0.141733
-0.0355897
-1.14168e-06
-0.0154412
0.00765513
0.0131789
0
0.0775218
-0.000164081
0.0313286
-1.11357e-07
0.023446
-2.29104e-94
-0.0825902
-0.0503617
0.133978
-0.0360865
-0.172944
0.0634397
0
-0.109356
0.0584841
-0.194135
0.161732
0.139623
-4.01991e-09
-0.00439585
-1.06597e-12
0
-0.0271294
0.0842056
-0.00761715
0.0278286
-0.00701202
-9.39992e-07
0.0247468
-0.108051
-5.22756e-05
-0.0463468
-0.00817656
-0.0723297
-3.71637e-06
-0.000187678
-9.59193e-09
-2.27656e-97
-1.37654e-236
0.124128
-4.69785e-06
0.113959
-0.0864589
-0.144854
0
0.00862836
0.0127893
0.0112666
-0.000398946
-0.000550391
0.0845851
-0.00601905
-0.120231
0.0865813
-0.0496167
0.0373633
-8.54734e-322
0.0020012
0.00387281
1.06719e-91
0
-0.0992367
-4.61497e-14
-0.159001
-0.280852
-0.0053587
-0.00774616
0.109423
-0.14673
-0.0053587
0.00726356
-0.00989776
0.0677262
0.337585
0.00619461
0.0281535
-0.00420477
-1.4255e-05
0.00419814
0.0328745
-7.80729e-12
-0.0337504
-0.000234962
0.202509
-0.164742
0.0109928
-6.73183e-97
0.0339114
-5.11413e-09
-0.0279014
0.183692
-0.0652619
0.0499747
-0.0336108
0.0759283
3.5757e-07
0.0216323
0.0509364
-8.25183e-06
-0.0242414
0.145037
-0.0730327
0.0344627
0.0732824
0.0712788
0.0504104
0.065243
-0.00717959
0.0109928
-0.0534711
-2.42479e-09
0.0710656
0.0157476
0.0406001
0.0200208
0.00541475
0.031463
-0.0635262
0.00696205
-1.4255e-05
0
-0.0389442
-0.000234964
-2.68167e-05
-8.99067e-06
-6.10844e-05
0.00949294
-0.00688862
-0.0771222
-0.0408595
0.0117246
-2.96731e-10
-0.0074816
0.0228419
-0.0854803
0.0109928
0
0.140084
0.000579661
2.38827e-05
0.110894
0.0125405
-0.0637312
-1.05763e-11
0.00142314
-0.198247
0.0489872
-0.0168978
-0.0260274
0.0774472
-0.0929696
-9.68563e-13
-0.0344557
-4.39061e-06
-0.0132119
-0.0521306
0.0618885
0.240919
-0.023146
-0.0465626
-0.0456528
0.0149814
0.0140943
0.0231711
-0.0415294
0
0.115278
0.17526
-0.137629
-0.0271151
-0.0233882
-0.00916327
-0.0186608
-0.0263452
0.0791071
-7.35352e-13
0.0186937
-0.0146132
-0.00785212
0.0153004
-2.29529e-07
1.58231e-237
0.0304411
-2.139e-229
0.00739381
0.0366978
-0.000132699
-0.145978
-2.35197e-06
-9.96389e-14
-0.000182783
0.163278
0.0323337
-4.45274e-09
-0.00918232
0.00419814
0.0647456
-1.32796e-05
-0.037683
-0.0329348
-7.46039e-322
-5.64594e-10
-0.0538299
0.0408932
0.0323089
-1.72102e-06
-0.117359
0.0852761
-0.0332837
5.04979e-05
0.0789021
0.0253314
-0.01503
-2.139e-229
-0.000182425
0.0162454
0.0333864
0.0130515
-4.39061e-06
0.0153306
-6.33721e-96
-3.61899e-07
-0.037683
-0.0993494
-0.00316867
0.0471236
-0.00874923
-1.88889e-09
-0.0674579
0.0377844
-1.63832e-06
-0.0367873
0.0167359
1.29445e-321
-0.0266415
0.141087
0.0454677
-0.0018751
0
8.42026e-210
0.143868
0.0621653
-0.0805617
-0.0309962
0.0313706
-0.0227797
0
0.00788159
-9.59193e-09
0.0589612
-0.063621
0.0155456
-0.0153763
-0.0272107
-0.0398899
0.0335821
-0.0216653
-0.00225795
-0.000347098
0.0109016
-0.0254241
-0.0954247
0.110257
0.164588
-7.63695e-14
-0.0403943
-0.000234962
-4.14019e-06
0.0278054
-0.0327209
0.155085
-0.000237319
0.00142778
-0.0331338
-1.88889e-09
0.0609866
0.059982
0.0323337
0.0232295
-0.0372795
-0.000141634
0.0454036
-0.0281603
0.0153306
0.0049112
0.0510353
-0.000234962
-0.0261265
-0.0450243
-0.00695831
0.0413351
-0.0582362
0
-0.0484602
0.0193102
-5.5407e-05
0.0848431
-0.0146209
-0.0154412
1.69009e-250
-0.0210973
-3.16584e-06
0.0345046
0.0299949
0.0232541
0.00419814
0.0695475
-0.000234962
-6.37085e-07
0.0161934
0
-0.0468994
-7.32184e-10
0.0675291
-0.00834732
-7.32184e-10
-4.06266e-06
0.020006
0.0202494
0.00323264
0.00143218
0.0454036
6.86712e-05
0.0161935
0.113761
6.72442e-05
-0.0167725
-7.65811e-06
-0.0436072
-0.0053587
-1.62749e-95
-4.69785e-06
0.00167708
0.0828535
-0.130535
0.042712
0.0663578
-0.00420477
0.160437
0.00798391
-0.144364
0.0497997
-0.00989776
-1.49745e-06
0.0191451
-0.0359994
-2.47988e-05
-0.251212
-8.54734e-322
-9.66976e-12
-1.78278e-09
-0.00225795
0.00103069
0.0268015
-0.114982
-0.0562368
5.12523e-05
-0.00359414
0.139002
0.046615
-0.127034
0.000312567
-0.0473884
-0.0136169
-0.036745
0.0365308
-0.00399064
-1.05763e-11
0.0107908
0.0656587
-0.000629037
-0.00589792
-0.0209194
0.0497997
0.0503302
-0.000234962
-0.000234962
-4.37407e-08
-0.0144687
0.102093
5.12523e-05
-0.000234962
0.000751197
-0.0976578
-4.83839e-06
-0.0260981
0.019911
0.309034
0.196952
0.0497997
0.048991
-0.0154412
-0.106756
0.227719
0.0505115
-0.00942197
0.0364912
0.0544008
0.0632516
-1.04968e-12
-0.0409534
0.0280744
-2.50506e-07
0.208514
-0.0409534
-0.0538299
-0.0238062
-0.0275899
-1.05763e-11
0.0627333
-0.0138295
0.0908525
-0.00561506
0.0525012
0.145228
-1.14623e-321
0.490455
-0.0389442
0.0640847
0.1632
0.0822816
-0.0865238
-2.96731e-10
0.0183979
-6.33721e-96
-1.78066e-06
0
0.0976799
-1.06597e-12
0.194
0.0496217
0.0546975
-0.00329817
-0.0265627
-2.139e-229
0.00207147
-0.0328317
-0.0208834
0.0218128
-4.58572e-07
-0.000337276
-0.000417745
0.0549868
0.0327594
-0.00989776
0.0117246
-2.35197e-06
-0.0137541
0.0390803
-2.27152e-07
0.0297284
-1.28457e-321
0.038442
-0.0141311
-0.0181314
-1.5723e-05
-0.0417011
0
-2.23271e-08
0.00389661
0.00387281
-0.000300227
-0.079524
-0.0384591
2.41488e-07
0.029038
-4.58572e-07
-0.0351758
-0.0972427
0.0348442
-0.025119
-2.23271e-08
0.0596531
0.0524412
0.00372461
0.00224137
-0.110936
0.0604258
0.0228419
0.00935457
-0.0191471
0.191941
0.01278
-0.0115337
0.070326
-4.63708e-06
8.42026e-210
0.0291863
-4.37603e-15
0.0967211
-0.0154412
1.36362e-321
0.0207352
0.0184031
0.00222975
-0.103492
-0.0115231
0.0198031
-0.175284
0.0624443
-0.0690726
-0.0033682
-3.78653e-05
0.00932839
-0.00304372
-0.000109817
0.00620909
0.00148625
0.0167852
-1.43005e-08
-0.0218951
-0.0169707
-0.099442
0.0633671
-0.0323857
0.00316177
0.0184033
0.00320922
-0.0284359
0.0142181
0.147909
0.0413351
-8.85445e-07
-8.85445e-07
0.0880071
-9.22536e-36
-0.150251
-0.0747268
0.0928724
-0.00834732
0.0491188
-0.0408595
0.0928724
-0.000132699
-0.0358904
0.141884
-7.63695e-14
-7.91084e-05
0.0936165
-0.0106032
0.0941414
0.0301626
0.0334236
0.0154841
-0.0449137
0.0323337
0.054853
-0.00225795
-0.000866174
-0.105255
-0.0990252
-0.107449
-0.000132133
-0.0141957
0.0415301
0.0356044
-0.0359941
0.087048
-4.37407e-08
-0.142142
-0.0697457
0.00146013
0.254318
-2.80029e-06
0
-0.00688862
-0.207666
0.00765996
0
-0.0589991
0.00434101
0.0159274
-0.148444
-1.1658e-13
0.0219427
0.00462401
-0.0567504
-0.056462
-0.0208795
0.00040414
-0.0631717
-1.06837e-11
0.0464682
0.0761757
-0.0132119
-1.63469e-05
6.02769e-251
-0.0216653
-8.74868e-09
0.0418674
0.0155413
-0.046414
0.32296
-0.0644866
0.00285478
0.0562583
4.46073e-08
0.0113237
0.0357378
0.0565014
0.000120247
0.173668
0.0771419
0.0809847
2.78047e-05
0.0907338
-0.0263452
-0.0263452
-0.000386867
-0.000274574
-0.00864527
-0.0179585
-8.54734e-322
-0.0391389
-0.0154412
-2.41503e-11
-0.0829958
0.12857
0.00419814
-0.0533607
-0.0667426
-1.41143e-05
0.0570468
-0.0698798
-0.056886
-0.0604772
-0.0217773
-0.0449137
0.000348179
-0.00174595
-0.0291409
0.0753594
0.0464098
-0.0591157
-1.4255e-05
-0.0649851
0.0637381
-0.000294566
-0.00661826
0.0673021
-0.160378
-0.0116862
0.000226187
0.0936276
-1.56287e-09
0.00105514
-2.27152e-07
0.0226409
-1.71776e-09
-4.87976e-08
-0.00366285
0.00419814
0.0673908
0.0181245
0.0380549
0.0263608
-1.88889e-09
-0.0398053
0.0204022
-0.243796
-0.0136169
-0.000229456
-0.0374127
-0.0534711
-0.0547603
-0.0620616
-0.181489
0.108372
-1.88618e-85
0.0246938
0.00164566
-1.4255e-05
-0.0056258
-0.0534893
-0.0235679
0.0399495
0.0138293
-0.0190355
-0.0426553
-0.000234962
-0.0419837
0
0.042712
0.0153306
0.175828
-0.0733971
-0.0162809
-0.0473721
-0.000234962
5.26268e-08
0.0620819
-9.66976e-12
-0.000234962
-0.0053587
0.143459
-2.21767e-05
-0.00857799
-0.00306901
-9.66976e-12
-0.148861
0.0827895
0.0347709
-0.0693203
-0.00216063
-0.021572
-0.0420483
0.0155413
0.0193102
0.0259169
0.0568965
0
0.00826537
0.0590392
-0.165884
-0.0410695
0.00739381
-0.128996
-0.00128975
-6.33721e-96
-0.000132699
0.0135602
-2.36252e-11
0.0327594
0.00216466
0
0.00177495
-4.06266e-06
0
5.15128e-05
-0.00216063
-0.0645692
-0.000230991
-0.0724235
0.0154841
-0.000274574
-8.7322e-14
-0.0446362
0.0749596
-0.227569
0.0142181
-0.000228912
-0.000568239
0.147571
0.0189761
0.0500892
0.0176518
-4.06266e-06
-0.0131284
-0.0592859
-4.61497e-14
-0.0288768
-0.0471613
0.00246634
0
-5.77882e-06
-0.00316867
0.0880719
-0.0906342
0.021323
0.522723
-8.7322e-14
0.0153003
-0.116225
-8.85445e-07
0.00680901
-0.0389442
0.0202494
0.123609
2.66145e-05
0.469693
-0.000204108
-0.0112327
-0.0758608
0.00725495
-1.12424e-15
-3.38225e-06
-1.42794e-09
-0.0358112
0.0136333
0.0154765
0.0478325
0.00999904
-1.0238e-06
0.0237874
-0.0446181
0.0543491
0.0124339
-0.0238793
0.0163663
-2.68694e-05
0.000226187
0.28169
-1.28245e-09
-0.0627877
-0.0018751
0.280328
0.00949294
-0.000337276
0.0471234
0.020861
0.0142181
0.0486281
-0.000226624
0.0609963
-0.0439824
0.0627333
-0.00450828
0.0111117
-0.0440462
-1.47354e-05
-1.8196e-05
-0.00213443
-1.83083e-07
0.308684
0.12096
-0.0106827
0.00430444
-0.0131718
-0.056575
-0.000182783
0.0364912
0.0112316
0.0656033
0.0392005
-6.10844e-05
-0.016825
0.0331776
0.0453778
-0.0336559
-4.95646e-14
-0.00146613
0.000847586
-6.33721e-96
0.0073938
-1.31132e-05
0.00938896
0.0849485
-0.000300227
-0.0783454
0.0219972
-0.0407105
-0.0667426
-8.7322e-14
-0.109533
-0.510111
-0.0262121
-0.0910997
0.124903
0.0997337
3.2923e-251
0.00650243
-0.0342337
-0.0351758
-2.139e-229
-1.26062e-06
-0.0286374
-0.107637
-0.0169707
0.0670248
-0.118569
0.0190397
0.0928724
-5.00672e-05
-0.0431847
-2.139e-229
-0.000234962
-2.16399e-05
-4.69785e-06
0.00318844
0.00318844
-0.0567542
0.0747761
0.0159463
-0.0137091
0.00013286
0.000629629
-0.0812083
0.00419814
0.00257984
0.14338
-0.00140634
-0.0445835
2.45349e-251
0.0403802
0.0151887
-0.0394773
0.0028604
1.79346e-321
0.0444205
0.10282
0.108631
-1.49602e-06
-0.0488781
-0.358597
-0.000127116
-8.85445e-07
0.00102752
0.0243277
0.0768478
-0.015087
-0.146525
5.12523e-05
-0.000639921
0.0551733
0.0136091
0.00032305
3.22096e-06
0.0523876
0.0342239
-0.0300296
-1.0238e-06
0.00975802
-0.0264179
-0.000550391
0.000424153
0.123759
0.0132092
0.000230212
-3.78653e-05
1.07071e-06
-0.0239997
0.023446
0.110742
0.0498614
0.0249429
0.319437
0.0600988
-2.70844e-05
0.0169763
-0.056332
0.0351891
-0.000368225
-0.0456252
-0.0247434
0.0327594
0.227443
-1.56097e-06
-0.0362358
0.0516698
0
-2.139e-229
0.112607
0.0138861
0.0315909
-0.00739914
-0.237116
0.0169763
-0.0781588
-9.66976e-12
-3.46994e-05
-0.000234962
-1.42794e-09
-0.183764
0.00739381
0
-0.0639814
0.00329054
0.0200323
-0.0354668
-0.0840544
-6.10844e-05
-0.0210973
-6.62844e-10
0
-0.0125633
-0.0642056
0.0205595
-0.114725
-0.0434109
-2.35197e-06
-0.172905
-0.00366285
-2.02489e-06
-0.0404268
-0.0273331
0.0572337
-4.06266e-06
0.0223671
-0.0170616
0.000557236
-0.016228
0.0109928
0.4124
-0.0924069
0.000114197
-0.0962326
-0.000309934
0.0259169
0.0107488
-0.044897
-0.0275451
0.0718022
-0.171782
0.0300381
0.00113098
-0.000234962
0.014014
0.0847256
-0.184919
0.0221977
-2.27656e-97
-0.0288209
0.00726356
-0.0351758
0.30124
-0.0216653
-0.159757
-0.0726989
-7.80729e-12
-0.122499
-0.00696164
0.119795
-0.0309662
-0.00858551
-0.0260981
0.009745
-0.128205
0.0109928
0.0305774
-0.0239104
-1.69325e-06
-0.103219
0.00960003
0.0237874
-1.62749e-95
-0.00719424
-0.0515097
0.446107
0.0580764
-0.0162173
-0.0228588
-1.01457e-05
0.0426039
0.0328732
-0.0053587
0.0422498
-0.019613
-0.0216654
-0.0503096
0.0117004
0.0313119
-0.120859
0.146875
-0.000134497
-0.056462
-0.344694
-0.0132119
-7.63695e-14
-0.0440462
-0.000173241
-1.05763e-11
0.0661897
-0.0941708
-0.0726709
0.0453731
-0.0359994
-4.06266e-06
-2.35197e-06
0.0549205
0.0156532
-0.0351758
-0.133326
-4.37407e-08
-0.0463171
-2.81341e-05
0.0404279
-0.0210973
-0.00795409
0.107018
0.0380471
0.0514051
-1.5723e-05
0.000798463
0.0028604
0.0206045
-0.0716164
-0.132672
0.00178285
0.0109928
-0.0394773
-0.0119641
1.60751e-05
-0.0725466
-0.0613756
-0.0892241
0.0835541
0.0154771
0.0187307
0.0153306
0.0247842
0.0723709
-3.78653e-05
0.0781213
-0.00306901
-0.021593
-0.0183533
-0.0112049
-1.47349e-05
0.00739381
0.0353873
0.0132501
-0.00874923
0.000528219
-0.00925669
0.0336307
0.104256
-0.113143
0.0387833
-0.0053587
0.049521
0.021323
0.0190074
-6.57394e-05
-1.54643e-321
-0.0642415
-0.0165873
-0.0734666
0.0328713
-0.084449
-0.0257359
0.00924298
-0.000184857
-1.37654e-236
0.0208626
-5.23344e-09
0.000485512
0.00419814
-0.00199597
0.00559055
-0.0198569
-0.000323421
1.07071e-06
0.10165
-5.7517e-10
0.169254
-8.55278e-07
-0.018333
-0.032273
-0.0257906
-0.0337303
-0.0329685
0.0805103
0.0483944
-0.0844595
0.00972101
0.0628583
-0.0251218
-0.0359941
-0.0725847
-2.50506e-07
0.116444
0.0216274
0.000709421
0.0228419
-0.0589917
0
-0.0497542
-2.139e-229
-1.05763e-11
0.0497093
0.0685703
0.0249345
0.0413564
0.0645953
-0.00688808
-0.0318542
0.0998632
1.00896e-05
0
-0.000141043
-0.0250355
-1.66839e-06
-0.0410696
0.0134184
-1.37654e-236
0.00355372
0.072328
-0.0236839
0.0164914
-0.0233814
0.188981
-0.143919
-0.000174318
0
0
-0.0384698
0.0575145
0.0478325
-0.00012933
-0.0332837
-0.0220329
0.00419814
-0.0351593
-0.0198144
-0.00834732
-0.00654943
-0.00816046
-0.00174595
-0.0275451
-0.000294566
-0.0171354
-0.000132699
-0.0257359
-3.78107e-06
-0.0124746
-0.0197484
0.0110181
0.0132501
0.0921209
-0.0954247
0.0278286
-5.64594e-10
0.0300406
-0.0639256
-4.06266e-06
-0.0960962
0.013987
-0.00225795
-0.116644
0.106428
-0.000150574
-6.56943e-05
-0.0404343
0.107054
-0.0203973
1.22832e-06
0.00176022
0.0754534
-0.0275132
-0.101472
-0.192258
0.0811858
0.00738975
0
-6.72301e-10
0.157975
-0.0190355
0.0307229
0.00149826
0.00318844
-1.05763e-11
0.00862836
-0.0289653
0.0858016
-0.0791406
-0.00128975
0.117564
-2.27656e-97
0.00266042
-0.268793
-0.00688862
-0.13344
0.00179974
-0.056332
0.0439233
0.0379192
-0.0169707
0.00498345
0
0.0584897
-0.00841732
-0.0261265
0.149959
-4.37603e-15
0.0342171
-0.0169707
0.10021
-0.0566061
-0.144772
0.0570468
-0.106539
-0.0323153
0.0291863
0.00318844
0.112853
-0.0234993
2.34995e-05
0.0109928
-0.0924069
-0.0472002
-6.33721e-96
0.0230051
7.86757e-05
-2.78128e-11
0.0291863
0
0.0632895
5.26268e-08
0.0301975
-0.00858309
0.0468022
-1.06597e-12
1.8231e-321
0.000395083
-0.00395748
0.0227244
0.0536271
-0.0307334
0.00111422
0.0301975
0.00265579
-0.163833
0.000424153
0.046615
0.0127893
-0.0287201
0.0754192
0.00307805
0.0171268
0
-1.37654e-236
0.0109016
-0.0132119
0.0762854
-0.0488781
-4.54303e-08
-0.0224599
0.0523146
0.0281535
-0.0157135
-2.0007e-05
-0.000417168
0.0113237
-9.39992e-07
-0.0375466
-1.84543e-06
-2.29104e-94
0.0489917
-1.57068e-06
-0.0261924
0.000734444
0.0251738
-0.00383893
0
-9.66976e-12
0.00348353
0.00924298
0.0238927
-0.00174595
-0.0217773
-0.0522606
0.00307805
0.0567163
-0.161891
0.620704
0.0177305
0.000592598
0.00521094
0.135068
0.0247842
-0.0986282
-0.0258052
-0.18051
-0.0791458
0.00105369
0.0249585
0.00821887
-0.0211921
0.00141861
-2.08832e-11
-0.00174595
0.0271957
2.03002e-05
-0.0806532
-0.000187678
-0.0450335
-0.000234962
0
-0.0464299
-1.06597e-12
-0.0154412
-0.0013872
2.20353e-321
0.0253314
0.0496263
0.0535379
-6.60927e-08
-2.35197e-06
-0.000386867
-0.155574
0.0447776
-0.00270899
-0.0710289
0.0231711
0.273445
-0.0410695
0.00113098
-5.66686e-07
-5.19257e-06
0.0273355
0.11552
0.044683
0.014002
-1.03418e-06
-0.0452275
-1.62749e-95
0.0101784
-1.42794e-09
-2.139e-229
-0.0074469
0.234822
0.0967211
0
-2.41501e-07
-0.0337614
-1.07914e-05
0.0258616
-0.000202007
0.0165637
0
-1.88889e-09
-0.00704888
-1.32796e-05
0.00419814
-1.06597e-12
-2.38596e-08
1.07071e-06
0.16472
-0.000184857
-0.0053587
-0.0727794
0.0150049
-0.0601076
0.011533
-0.0235148
0.000715066
-0.110633
-0.00342796
1.07071e-06
-0.000300227
-0.0267403
-0.132892
0.0114235
-0.0138295
0.0101784
3.90778e-05
0.117986
0.000729338
-1.69325e-06
0.0326745
-4.70139e-05
-0.0301182
-0.019811
0.0835673
-0.0710662
0.0689863
0.00924309
-0.187089
0.0101784
0.0254093
-0.00774628
1.06719e-91
-0.000230991
1.69465e-321
-0.0218804
0.00124415
-0.0300793
-0.0606562
0.0123756
0.000780715
-0.150648
-0.00146613
-0.0824588
0.0155456
0.0155413
-0.249126
0
-0.110311
-0.0656457
6.86712e-05
-0.0930957
-8.7322e-14
-1.43005e-08
-0.0543372
-9.81601e-05
0.0109922
0.00307148
0.085675
-0.0577393
-0.0765643
-6.21803e-09
-0.0614127
0.0350371
-6.37085e-07
-0.0351758
-0.0443318
-1.83083e-07
-0.0389442
-0.0259423
-0.0283755
-0.31156
-0.0410695
-1.63536e-321
-1.05763e-11
0.0100512
1.08052e-244
0.0364851
-0.0260981
-0.00719424
-3.78653e-05
0.0328499
0.0771015
0.0624162
0.0469893
0.000266523
-0.0888607
0.00199726
0.00541475
-0.0135092
-5.5407e-05
-1.70397e-05
-0.0719787
-2.29529e-07
-1.082e-321
-1.49602e-06
0.0109928
-4.20826e-07
0.0281467
0.00164568
-0.01503
0.022435
-0.0113726
0.0285392
0.0300406
-0.0293476
-0.000568239
0.0670248
-0.10062
-0.0688666
0.0386346
-0.0750236
-0.084797
-0.166405
-0.0389442
-0.0605674
-0.0351758
-0.107752
-0.00688862
-0.000368225
0.0425349
-0.18939
0.0450289
0.0884741
-0.0511565
0.0161017
-0.00684358
0.0163193
-0.215191
-0.0259124
0.00765996
0.0464098
-0.00443444
0.337539
0.00680901
-0.00225795
0
-0.00502958
-0.00874923
0
0.0278099
-0.0351114
0.000780715
-0.0409534
-0.0490954
0.063451
0.0714775
-1.11357e-07
-0.00012933
0.0752516
-0.0178911
0.0613503
0.0268015
-0.063912
0.062546
-0.0478203
0.0549868
0.0174023
0.00948869
-0.0191567
0.0331717
0.0339113
-0.0756698
-0.000174318
0
-0.0380711
-0.00872147
-0.00717959
0.0278618
0.00264673
0.00674807
9.88131e-322
0.0339114
0.00949294
0.0787717
0.031879
0.0393079
-6.57394e-05
-0.00142117
6.33806e-05
3.57547e-07
0.00121228
-0.0530213
0.00419418
-6.33721e-96
0.0109928
0.0118488
0
-0.149808
-0.00216063
-0.00646215
-0.000337276
-6.3067e-05
-0.0471616
0.174218
-9.66976e-12
0.0161935
0.0797172
-0.043846
-0.000234962
-0.000237319
-6.33721e-96
-7.14269e-05
-0.0952422
0.0621866
0
0.132443
1.14202e-05
-0.000234962
0.000780715
-0.0793289
-0.0854803
-0.00968788
0.0183251
0.00765996
0.0247468
-0.156004
-0.0372797
-0.0396955
-0.0569738
-9.22536e-36
-0.0200399
-0.000403774
0.000670424
-1.00295e-321
-0.0398939
-0.0490256
0.0127627
-0.000234962
-6.10844e-05
0.0620508
-0.000198239
-2.36252e-11
-0.016936
-0.0115231
-0.117803
-0.000918169
0.0829782
-0.124234
0.0935018
-0.000104188
0.00484326
0.0302296
0.091909
-0.00626612
0.198315
6.86712e-05
4.7718e-05
0.199564
-6.33721e-96
-0.0852006
-0.00174595
0.00164568
-0.029921
-0.0338722
-0.0249915
-0.0830661
0.142647
-0.0707563
0.00558792
0.00285475
-0.0697453
-0.0926076
0.0719519
-0.0367328
-0.0696271
-7.40943e-05
0.0478176
-0.0107769
1.07071e-06
0.0140023
-0.0270794
0.0811858
0.0607808
0.0278099
0.0162868
0.0398488
-0.0476591
0.0110303
0.0153306
0.0540373
-0.00676695
0.0938884
0.0335452
0.0153306
3.2979e-06
0.104957
-0.0949487
4.58839e-05
-0.130922
-0.0924401
3.14911e-251
-7.65811e-06
0.100464
-0.0154412
-5.22756e-05
-6.10844e-05
0
0.00949294
-0.00140634
-0.0207726
-0.0278814
-1.71776e-09
-2.01544e-95
-0.00597661
0.0216274
-0.0398899
0.0265705
-0.00128975
-6.53095e-05
-5.23344e-09
-0.0998823
-0.0132119
-0.0275451
-0.0489072
0.0810303
2.03002e-05
-0.0488467
-4.06266e-06
0.0440243
0.00257238
0.0172866
0.00924298
-4.61497e-14
-0.0300793
-0.0419451
-1.89423e-06
0
0.000516785
0.000828383
-9.22536e-36
0.00541475
0
-0.164248
-0.000242347
0.204756
0.0567996
0.0360703
-0.0221259
-1.67181e-11
0.0139094
-0.00170574
0.0854377
-4.06266e-06
2.45349e-251
0.00164568
0.000563328
-0.0835045
0.0544008
-0.0053587
-6.10844e-05
-0.17325
0.00389893
0.0724756
-0.0765046
0.0258101
0.021323
-0.132913
-0.00230126
-0.000433881
0.176611
-0.0577689
6.39603e-237
0.00862836
-0.000234962
0.131213
-3.92511e-85
-8.55278e-07
0.0608049
0
0.0216274
0
0.302972
0.0268015
0.0239773
-0.0178614
-0.0362177
-1.47349e-05
0.0425605
0.00680901
0.00997414
-1.05763e-11
-0.352461
-0.0643449
-0.0152456
0.0200932
0
-0.046414
-1.11357e-07
-1.17575e-07
0.0334248
-0.000192054
0.00015304
-1.03714e-05
-0.0238062
0.0689624
-0.0227765
0.0494786
0.172094
0.00320454
-0.00528003
-2.41491e-07
0.0899669
-9.22536e-36
-0.0188509
-0.0593293
0.0391544
0.025044
0.0271216
-0.0338463
0.0511557
-0.00366285
-0.0018751
-1.05763e-11
-0.0568887
-0.0969054
0.00389893
0.00368799
0.085687
0.127505
0.0312803
-8.25183e-06
0.0644896
-0.00719424
0.00422541
0.093371
-0.0686586
-0.00207161
0.00141395
0.0153306
0.00111422
0.0454036
0.0169622
-2.35197e-06
-0.174669
-0.000234962
0.234865
0.000340038
-0.0358112
0.000982086
0.0119176
-0.00014295
0.0406343
0.0142181
-1.63832e-06
0.00111422
0.0127627
-0.139358
0.0216274
0.0709088
0.0187307
-0.0763019
-0.155737
0.0127893
-0.0354506
0.0544008
-0.207533
-0.0460592
-7.63695e-14
0.108631
0.116857
-0.0248049
-0.00874923
-0.107108
0.0472515
-0.0223538
0.0142181
-0.0327658
-0.0112327
0.00765996
0.00282531
-0.098365
-3.16773e-06
-0.00023697
-0.130535
-2.3295e-08
0.777257
-0.0257359
0.0998632
-0.000456541
0
-1.12153e-321
-1.06837e-11
0.0220835
0.0704469
0.0159463
0.00704031
0.00953076
0.0112753
0.00367552
-5.64594e-10
-0.00132828
-0.00012601
0.00307805
-0.00174623
-0.0104418
0.00419814
-0.000228912
-0.00562058
0.015699
0.161802
0.0100778
-0.0139196
0.0281036
-0.0242613
-1.8588e-05
0.023456
-0.0805836
0.00821887
-0.000109817
-0.16563
-0.0104554
2.41488e-07
5.12523e-05
-0.0418093
2.02567e-321
-3.74245e-09
-8.7322e-14
-0.0248836
0
-3.70815e-07
-0.141639
0.0460793
-0.0869877
-0.0686571
-0.0719465
0.106642
0.0481298
0.0354639
0.00013286
-0.0715333
0.117856
0.05054
-2.81341e-05
0.0989246
0.0281036
-1.42453e-07
0.0117246
-0.0168978
-0.000234962
0.0649655
0.203032
0.0511697
-0.0712077
0.0109928
-0.0177499
-0.0132119
-0.0433612
0.0323337
-0.000109817
4.58839e-05
-2.47988e-05
0.0275975
-2.81248e-07
0.000545547
0.0184031
-0.0132119
-0.00314769
0.0109928
0.0839497
-0.084449
-1.42308e-05
-0.018273
-0.000955788
0.0761851
8.39511e-05
0.0501666
0.0109868
-0.0343639
0.0509338
-0.015431
-0.0547603
-0.0329348
-0.033846
-0.0494815
-0.107721
-0.000163839
-0.104123
-2.35197e-06
0.0153306
0.0149814
-0.000134497
-0.103492
-0.126082
0.0647968
-0.0855354
-1.62749e-95
-0.046814
0.146599
-9.66976e-12
-0.00761665
-0.0565778
0.0109597
0.0109928
-0.000234962
-0.0135092
-0.0053587
-1.71776e-09
1.08052e-244
-0.000411031
-0.0643175
-0.0136169
-0.0178911
-0.0184791
0.00148625
-0.0178911
-0.0261265
-0.0879544
-0.000179516
0.0471236
-7.46039e-322
0.00104712
-9.27089e-06
-0.00539395
0.02887
0.0117246
-0.0636156
0.302417
-0.0136944
0.114211
0.00216466
-9.66976e-12
3.77886e-117
0.0249671
-2.35197e-06
-0.06006
0.0226573
0.059616
0.0568498
-0.034126
0.282451
-8.55278e-07
0.0549868
-0.000182783
0.00548911
0.00972101
0.00199386
-0.0168978
8.8635e-05
-0.133231
-0.0307313
0.0184033
-0.000109339
-0.0257359
-0.0450243
-0.0120754
-0.0260361
0.00355372
1.00295e-321
-0.0383434
0.0868722
0.0504155
-0.0132
-0.0358112
-0.0226683
0
0.0230051
0.00744506
0.117279
-0.0623548
0.0568965
-2.41491e-07
0.00165715
0.0323337
-0.0239997
1.36362e-321
-2.0007e-05
0.0200707
-6.10844e-05
-0.0650425
-0.0163788
-0.0106725
0.0247842
-2.50506e-07
-0.000234962
-0.16874
-7.63695e-14
0.0226623
0.000424153
0.014877
-0.102424
0.135919
-9.39992e-07
0
0.00293782
0.694322
-0.0907069
0.00739381
-8.7322e-14
-0.00608395
0.00366589
-0.0271151
0.00058855
-0.045068
-0.0647854
-0.000182783
-0.000260083
-0.0261924
-1.05763e-11
0.000495037
0.0413351
-0.0793238
0.0997372
-0.0344855
0.0116556
0.0130677
0.00419814
0.0424835
0.0226571
0.00148625
-0.0867079
-0.020795
-0.10387
0.00177501
0.00860091
0.0228419
0.00115609
0.00318844
-0.206346
-0.0307944
-0.0394773
1.79346e-321
-0.0651468
-5.22756e-05
-0.0241156
-0.0834226
-1.12424e-15
-2.7583e-05
1.29445e-321
-0.0177489
0.00474747
0.0431433
0.0033064
-0.0465626
-0.0707775
-0.0204721
0.00279
0.0202504
0
-0.000789669
0.042393
0.0228419
0.00419814
-0.0273149
1.00295e-321
0.274162
-0.0486117
0.189181
-0.0402182
0.0164474
0.00702539
0.0337744
0.0678811
-4.45586e-09
-0.0053587
0.00419814
-0.0321112
0.0475752
-0.000234962
-1.14168e-06
0.149904
-0.0329348
-0.00212319
-0.0902897
-0.105268
0.00140319
0.00307805
0
-0.0527777
0.000395083
-6.33721e-96
-4.83839e-06
0
0.197268
-0.000337276
-0.0288746
0.0425788
0.00938747
-1.05763e-11
0.00419814
-7.63695e-14
0.0334917
-1.18482e-06
0.0204022
-0.0486996
0.0109477
0.00307805
-0.00314452
0.0983594
0.0231376
0.0194071
0.434858
-0.341161
0.0323337
0.100088
0.0989
0.00484326
0.00739381
-1.72102e-06
0.0174823
0.000234369
0.0101784
0.000610386
0.0319641
-9.58999e-10
0.0353873
0.0127627
0.00404412
-0.0670011
-0.0488781
-3.38699e-06
0.0184031
-0.0154412
0.0206325
0.0931655
-0.0169707
-1.67181e-11
0.000798796
0.0237874
0
-0.0225835
-6.10844e-05
-0.0667426
0.0239004
-1.6933e-06
-0.229782
0.0533981
-2.81248e-07
-0.0762067
-0.106841
-0.00225795
0.0155413
0.152298
-2.41491e-07
0.0327594
-0.0257408
0.00106424
-3.10143e-09
-9.38885e-06
0.0327594
0
-0.0211176
-7.63695e-14
-0.0439949
-0.0516389
-0.0237519
-0.0138295
5.9556e-08
0.0672295
7.74226e-06
-0.0344945
0.0132499
-2.49768e-05
-0.0218532
-6.25353e-05
0.0223008
0.0116599
-0.00978692
0.440576
0.0149814
-0.0135092
-2.82676e-07
-0.0768861
0.00192195
0.00315059
-0.0113726
-0.0627877
0
0.00569021
-2.23271e-08
0.0391544
-0.089599
0.0414033
0.040748
-0.0627505
-0.177728
-0.0315697
-0.00975681
-0.0372795
0.029157
0.0690074
0.0780877
6.57622e-05
-0.053577
0.0492175
-0.125365
-0.0754344
0.0554253
-7.83889e-11
0.0447786
0.00933397
0.0709993
0.0458947
0.157919
-0.0339115
0.0891953
0.054853
-0.0218804
0.0100381
-6.10844e-05
0.0447758
-0.0106827
-0.0737343
-0.164446
-0.0596823
-0.0527284
0.073088
0.0127159
-0.086067
0.0535193
-0.000228912
-0.0177489
0.0142181
0
-0.0330266
-0.000104188
0.0605625
-0.0328179
0.0232541
0
-0.000217343
-0.0524971
0.0366535
0.0286421
-1.56287e-09
-0.000234962
0.038832
8.10268e-322
-0.0389175
0.5613
-0.0896569
-0.104292
0.0447776
-5.74177e-12
-8.10959e-05
0.00419814
-0.0189868
-2.29529e-07
-3.11858e-07
0.0553903
-0.0210478
0.33456
0.0154086
8.29222e-07
-6.53095e-05
0.247593
0.048822
-0.0409534
0.00307805
0.0147199
0.0811858
-1.4255e-05
-0.0726991
0.0658675
-0.000234962
0.0189762
-0.00238544
-4.61497e-14
-0.142
0
-0.0184901
-0.00657973
0.0187534
-0.0376364
-0.0183722
0.0151884
-0.0230518
0.00148625
0.0353236
0
-7.98917e-05
-6.33721e-96
0.0527529
-1.67488e-321
-0.0311844
0.0025792
-9.1838e-85
-0.0342337
-0.0765829
0.0705031
0.04067
0.0416019
-0.00544638
0.0151413
1.79346e-321
-0.0545106
-0.0224738
-1.15448e-11
0.0433265
-0.0984914
-0.0401175
-1.41143e-05
-0.0087445
0.0591789
0.167574
0.0218128
0.014002
0.00826165
-6.58245e-08
0.0231711
0.0323337
0.196952
-0.0610782
0.0350371
-3.53353e-08
0.0215236
-7.65811e-06
-0.0466038
0.0299258
-0.0465828
0.0206207
-0.0694136
-7.48838e-06
-0.00688862
-2.35197e-06
-0.188255
-4.95646e-14
-1.84543e-06
-0.0394773
-2.7583e-05
-0.0178911
0.000729338
-0.149734
-0.0237708
-0.0373487
-0.075159
0.0692929
-3.84343e-09
-0.0275451
5.9556e-08
-0.00714634
-0.141071
-5.79162e-08
0.00164568
-1.05763e-11
0.0187468
-2.50506e-07
-0.0318205
-0.00989776
-0.0185351
0.107919
-0.00128975
-3.70815e-07
-0.0165523
0.0522412
0.0071666
-0.00995412
-1.56114e-06
0.0207057
-0.0661693
0.326399
-0.0808355
-0.0406787
-1.28457e-321
-1.51678e-321
-0.0215119
-0.318527
-0.0116862
-0.0700975
-0.0409534
-0.0259246
-0.0638512
-0.0496597
0.124805
-2.47716e-07
0.117792
-6.5508e-10
0.133735
-0.130511
-3.42835e-05
0.0639795
0.00307148
-0.000337276
0.080868
-0.000217594
1.60976e-05
0.0175722
-0.0694135
0.000395083
0.0247468
0.0310297
0.127013
-0.167568
-0.0169871
-0.0389442
-0.00719424
0.0568965
-0.000359787
-0.0180643
0.00147304
-0.0154412
-0.0754751
-0.0986282
-0.00918232
-9.08479e-05
-0.359159
0.0249429
1.47232e-321
-0.0300628
0.0880243
-0.0695112
0.419437
0.0178627
-0.0339085
3.90778e-05
-0.064148
0.18002
0.0278286
-7.65811e-06
-0.105226
-0.0589924
0.0149814
0.0556131
0.0148378
-1.88889e-09
-0.0277032
-0.105084
-0.0394773
-0.0258052
-0.0440181
-0.0178911
-2.47988e-05
-4.01991e-09
0.0351158
-3.74245e-09
0
-0.0141303
0.0454036
0.0431433
0
-0.0976861
0.0118522
-0.158894
-0.000234962
-0.000129474
0
-0.0168978
-5.64594e-10
0.12915
0.0359772
-0.0777238
0
-0.0428543
0.0109928
-0.00366285
-6.05814e-06
0.00680901
0.000319687
0.0797026
-0.0520577
-7.32184e-10
0.00739381
-1.88889e-09
0.0847256
-0.000322969
0.223088
-1.47349e-05
-0.0252819
-0.0545881
-0.0256431
0.0951998
-0.000273124
-0.0327778
0.0470498
0.0613025
0.309845
-2.02489e-06
-0.000300227
-1.05763e-11
0.0795187
-0.0677938
-0.02507
-0.037683
0.0254154
0.0492175
-0.000386867
-0.0973533
-0.0021345
0
-0.0237519
1.47232e-321
-0.000202007
0.0213224
0.0183867
-0.0245432
-0.00385053
0.0719516
0.000639866
-0.0281603
0.111428
0.140242
0.0153306
-0.0202678
-4.06266e-06
-1.05763e-11
0.0118488
-2.31223e-321
1.60976e-05
-0.0271158
0.00724721
0.0942997
0.0278779
0.198081
0.262722
0.0460873
0.0516698
0.0492049
0.0167952
-0.0436072
-1.63536e-321
0.0824694
0.0127627
0.0351907
-0.0277032
-0.0433612
0.0337618
-6.0842e-05
-1.11357e-07
-1.88618e-85
-0.0401069
-0.00918232
-0.0463468
-0.0154412
-0.0141957
0.021876
0.0466
0.0101784
0.0938862
-1.14746e-05
1.14202e-05
0.0348249
-0.0325945
0
0.0278099
-0.0643493
0.000545547
-0.0356742
-0.128525
0.0328249
-0.0463793
-0.0146132
0.0109928
0.00174304
-0.000368225
0.284764
0.0111306
-7.80729e-12
-1.88889e-09
0.0119031
0.00453033
0.135445
-0.0383459
-0.0384315
0.0159346
-0.028612
0.0276205
-0.0154412
-2.8672e-05
-0.0924069
-1.88618e-85
-9.4335e-08
0.0358837
-0.000234962
-0.0957172
0.121862
-4.95646e-14
0.0218129
0.000181525
0.0109016
-2.35197e-06
0.019831
0.00348353
-1.06597e-12
0.000340038
-0.0277032
-0.000368225
-5.99529e-07
-0.0692184
-2.42726e-06
0.00726356
0.0137034
0.00148625
0.0321787
-8.7322e-14
0.0549868
0.0243346
-0.0720138
-8.85445e-07
0
5.03441e-05
-8.25183e-06
-0.000234962
0.0807146
0.0291398
-0.00259334
0.0468849
-2.68694e-05
-0.00652365
-0.0153583
0.0252275
-0.0164335
0.0590392
0.643769
0.0573339
-0.000337564
-0.0422795
-0.0777147
-0.0174227
-1.88618e-85
0.023446
-5.85971e-08
-0.0627877
-3.94871e-05
-0.0087544
0.0101292
-0.0165971
-0.000111281
0.0295549
0.0276205
0.0183799
-0.0261265
-0.0409534
0.005477
0.0421711
-7.98917e-05
0.0278286
-1.06597e-12
-0.0169381
0.124903
-1.78278e-09
-9.40869e-05
-6.73183e-97
-1.28457e-321
-4.45274e-09
-0.000179516
0.00674745
-0.102483
0.0184033
0.0602627
0.0607808
0.0310469
0.0959791
-1.05763e-11
-0.08566
0.0540441
-4.63683e-06
-0.0951451
-0.0941913
-1.69325e-06
0.127216
-5.79151e-08
0.0351903
-1.62749e-95
0.0151719
-0.0275451
-9.97168e-07
0.0129976
-1.42794e-09
-0.0239997
-6.53095e-05
0.0201084
0.0307478
0.00924298
-0.000234962
0.144639
0.0307541
-0.000234962
-0.0509536
0
0.0648165
0.0143031
-5.79151e-08
-0.0142809
-0.171047
0
-4.45274e-09
0.000424153
0.00216366
-0.115596
0.0321454
-0.0409534
0.00935457
0.0133626
-0.0206738
0.0162211
0.000533485
-0.0330121
0.0109016
0.00285478
-0.0787473
-0.0674456
-0.0202739
0.243159
-6.33721e-96
0.00419814
-0.0131643
0.0295549
-0.0567504
-0.102267
0.0343705
-0.0355012
-0.0898373
0.314854
-0.0880209
-0.000109817
0
0.000261701
0.0961778
0.00389893
-1.8205e-09
1.06719e-91
-0.0924378
1.60751e-05
-0.00449433
-2.35197e-06
0.0373586
0.0627333
-0.0862313
-0.0444806
-0.0604724
-0.0210892
-0.0417882
-0.0488781
0.103582
-0.000337276
0.0172262
-0.0463468
0.30868
0.0315268
0.0132501
0.0607479
0.0188005
-2.36252e-11
0.0899836
-0.0440462
-0.033704
-0.0473721
0
0.0292606
0.00111422
0.005477
0.0839088
0.013987
-2.35197e-06
-0.145277
-0.00874923
0.0780778
-0.0115662
0.0287914
-0.00581806
0.0189556
-0.057035
-4.83839e-06
-0.0053587
-9.38885e-06
-9.66976e-12
-0.019848
-0.0188557
-4.63708e-06
-0.150853
-0.0394918
-0.147542
-0.0200534
-0.0375466
-0.0641467
-0.0538278
-0.00153169
-0.0436072
-0.0800494
0.0345343
-0.01503
0.0913462
0.0278099
-3.38698e-06
-2.7583e-05
-0.0347474
0.0667821
-6.58245e-08
-0.0883814
0.0727705
0.337336
0.00050606
0.00938896
0.00266042
0.0269338
-0.0919946
0.00429575
-9.68563e-13
-0.000234962
0.0138254
0.0615518
-0.0158251
3.17029e-09
0.00532466
0.179276
0
-0.00744839
-0.00770051
0.0153004
0.0153184
-2.38588e-06
-0.000184857
-1.67488e-321
0.0102261
0.0602627
-3.38698e-06
-2.68694e-05
-0.0351758
0.00216466
-9.28843e-322
-0.000347098
0.0666643
0.0216274
4.7718e-05
5.9556e-08
0
-0.00128975
-0.0519863
-0.0348572
0.0101784
0.0750275
-0.00456815
0.000230212
-0.0328317
0.0344997
-0.034126
0.00222337
0.0280028
0.0142181
0.0398488
0.150791
-0.0998823
0.0228419
0.00293782
-9.68563e-13
0.013987
0.462622
0.00164568
-0.0735021
0.062103
-5.23344e-09
-0.0112327
-0.0514186
-0.0233839
0.0331717
0.0202504
-0.101084
-9.67434e-87
-0.000234962
0.226426
0.08059
-0.0332297
0.0523951
-6.10844e-05
-0.0488781
-0.211531
0.0268372
-1.4255e-05
-0.0752127
-0.0767087
0.0159463
-0.0409534
-0.0142107
0.0122145
-0.000237319
-8.54734e-322
0.0347709
-0.0300793
-0.000217343
-0.023046
-0.000221183
-0.140096
-9.3964e-05
0.0113237
0.0681596
-0.0389442
-0.0299493
-0.0645543
2.20353e-321
-0.000217599
-8.7322e-14
-0.069164
-0.000160074
0.00739381
-6.60927e-08
-0.179944
0.0203359
0.000825292
0.0249429
0.000825284
0.04067
0.0109016
-0.00619042
0.0109016
-0.000347098
-0.0363322
0.081515
0.0608795
-4.37407e-08
-0.000234962
0.0865665
-0.000132994
-0.00174595
-0.129804
0.164052
-0.0141641
-0.000234962
-0.000269662
-0.00561136
0.00680901
0.0100136
-0.0107766
0.0722348
-0.0417151
-0.033846
-0.0112327
-0.0675193
0.0358472
0.155055
0.0766063
-0.000337276
-1.52659e-12
-2.27152e-07
0.00949294
-0.0141957
0.0213515
0.125279
0.000913464
-1.72102e-06
-0.000109339
-0.0225818
-0.00654943
-5.5407e-05
-0.0805498
0.0408007
-0.000392181
0.0364912
-0.0258052
-0.0120771
-1.1203e-07
-1.28457e-321
0.00935457
-0.0260274
-0.000132133
0.379518
-1.72102e-06
-1.71776e-09
-0.00832529
0.159758
-0.0693197
-0.0262971
-1.43005e-08
0.00150319
0.0193102
-0.159173
0.0427513
0.0244722
0.0545143
-0.0651837
0.116034
0.0105436
-0.101975
-6.05814e-06
2.98927e-06
0.0109928
0.0198911
0
-0.0112049
-0.0127176
-0.205525
0.0208336
-0.148217
-1.26062e-06
0.0153306
-0.0791406
0.00954773
0.0149797
-2.96731e-10
-6.33721e-96
-0.0935119
-0.0053587
0.00919256
0.000557236
0.0949987
0.00916198
0.128624
-2.42479e-09
-0.0358112
-0.0414881
-0.0300793
0.00131591
0.0625249
-0.000234962
-1.06597e-12
0.0339105
0.00444342
-0.0869877
0.0662763
0.0581004
-0.0569171
0.057765
-4.63708e-06
0.00453033
0.00447422
4.7718e-05
-1.06597e-12
-0.019613
0.000917855
0.0674369
-0.112685
-0.0471613
0.0154771
-1.47707e-05
0.0395865
-0.0358152
-2.7583e-05
0.0207982
-0.0408595
-0.0612701
-3.61899e-07
-0.000111281
-0.000132699
0.022435
0.000395063
-0.0414881
0.00013286
0
0.0369217
-3.53353e-08
0.0228363
-0.0752188
-0.00487234
0.00264071
0.00417335
-4.61497e-14
-0.000234962
-0.0358153
0.0767206
-8.85445e-07
-0.0163788
-0.0276997
-0.000658717
-0.0179316
0.00105514
0.0524034
-0.0347631
0.0281535
-0.146641
0
-0.0106827
0.0607808
0.000237643
0.200864
-0.283631
-1.0238e-06
0.00680901
0.0496414
0.0523658
0.0342635
0.00266691
-0.00808653
0.0118522
0
0.19007
-0.0455775
0.0468099
0.0936309
0.0132501
-4.06266e-06
-0.0163788
0.0235273
0.00535625
-0.0259423
-0.0259423
0.048176
0.0109928
0.218235
-0.0499176
-0.107582
0.016814
-0.0563382
0.166673
0.11143
0.0392835
0.022435
-4.63708e-06
0.00565271
0.0141082
-0.108476
-0.0513179
-0.0053587
0.0324554
-0.0155391
7.09765e-06
0.0797886
0.00013286
0.0134769
-0.069984
-2.81257e-07
0.136008
0.0213804
0.0072143
-1.37654e-236
-5.11306e-09
-1.88889e-09
-0.0825537
0.0142181
0.0935992
-0.000267257
-0.0257359
0.124903
-0.0275899
0.0204012
-0.000234962
-0.0595818
-0.00719424
0.0109928
0.00216466
-0.0152029
-0.0924069
0.0677225
0.0406137
0.0855684
2.41488e-07
0.0246582
0.0151874
-0.00198438
0.0850393
-0.194014
-0.0912886
-0.01503
-0.0461434
0
0.0971611
0.224253
-0.16033
0.0825405
-0.0452009
-7.76502e-05
0.0376928
0.0163206
0.000557236
-0.40852
-2.35197e-06
-0.00539395
0.0182417
-0.0124247
-0.00401451
-1.18482e-06
0.0323337
0.0914546
0.0298177
0.0472625
-0.0136169
-0.0602873
-1.56097e-06
0.165203
0.00223165
-0.000300227
0.0239974
0.0281467
0.0847256
-2.139e-229
-7.63695e-14
-0.0164726
0.124666
-0.00812747
0.149155
-0.004398
-0.0450243
0.0529114
-0.110311
-0.00014295
-0.00541939
0.0607234
-0.0409535
0.00751723
0.0698885
-0.0513755
-0.172492
0.0180469
-9.23943e-07
-0.0178911
-1.62749e-95
0.0422659
-0.00433217
-0.110302
-0.00371513
-0.0116862
0.278508
-0.0018751
-0.0627877
-7.65811e-06
-0.315301
-0.033846
-6.05814e-06
-0.0367873
0.00148625
-0.0216795
0.0700721
0.0413351
0
-2.29529e-07
-0.0427771
0.0292872
-1.4255e-05
-0.0489639
6.02769e-251
-7.83889e-11
0
0.131202
0.135713
1.06719e-91
-0.0347476
-0.0359941
-0.107193
0.00173427
-0.000116965
-0.0936207
-1.49602e-06
-1.05763e-11
-0.0161778
-0.140788
-0.0275453
-8.7322e-14
-0.0396909
-0.00695831
-0.0238397
0.0835541
-1.88889e-09
0.013987
-0.0244575
-7.32184e-10
0.0193102
-0.0730327
0.264684
-0.0281603
-0.0787976
-0.0793238
0.0662427
0.136214
-0.0420483
-0.00536309
-7.40943e-05
0.147789
-7.56864e-07
0.152348
0.0251773
0.00149826
0
3.14911e-251
-0.000274574
0.0709088
-0.000392181
0.061149
-3.38698e-06
-0.0289653
0.0323337
-0.0329348
0.00372461
-0.000202007
-7.80729e-12
-0.0186608
0.00935457
0.0209588
-0.0456263
0.0353319
-1.62749e-95
-0.0514186
-2.36252e-11
4.7718e-05
0.00924298
0.000629629
0.0187498
-0.0612407
0.0185917
0.00541805
-9.66976e-12
0.0194115
1.37844e-321
-0.0103265
-0.0710029
-1.0238e-06
0.0154771
0.0565014
-2.3376e-07
-0.236649
-0.0168978
-0.0344572
-1.05763e-11
-0.0275451
-0.000260083
-0.0158141
0.0154771
0.0309405
-0.00761715
-0.0150657
-2.96731e-10
-0.0154412
0.0280028
-0.0307017
-0.130057
-0.0658557
-2.01544e-95
-0.0488781
0.0625249
0.0221083
0.0158696
0.000825292
0.0147273
0.000512007
-2.42726e-06
-0.0260981
-0.0258752
-0.074874
-0.0367873
-0.000234962
-9.1838e-85
0.00899307
0.023446
0.0113237
0.0779882
0.0235526
0.0189762
-3.78653e-05
-7.65811e-06
0.00141861
-0.00014295
-0.0163029
-9.65761e-05
0.00285164
-0.000179516
0.0100512
-0.0673798
0.000424153
0.023446
-0.0114693
0.0147199
0.046615
0.0754114
-0.035347
-0.0883814
0.0345343
0.00821644
0.0521927
-0.269839
0.00206543
-6.21803e-09
0.0933315
-4.94795e-06
0.00425377
0.0662763
-0.0611018
-1.47707e-05
-0.0525404
0.032693
-0.104296
5.7147e-66
0.114442
0.0516778
-0.0440462
-0.0639157
0.0105823
-0.00567758
-0.0559526
-0.000234962
-0.0136169
-0.0410695
0.0436535
-0.109853
0.0154766
0.23812
-0.00132828
-0.00111576
0.0202504
0.0109927
0
0.0324659
-0.00719424
0.00285475
4.52921e-05
-1.32796e-05
0.123694
0.00347599
0.023446
0.0454036
0.00142778
-1.18482e-06
-0.0273331
0.0825405
0.00389893
0
-7.38291e-06
5.15128e-05
0.0693766
0.0353236
0.403072
-0.00841732
-1.84543e-06
0.0155456
0.0155413
0.0244838
0.101489
0.0132501
0.0876399
-0.0281603
-0.0216446
0.0166475
0.0335936
-0.000234962
0.0246467
-5.64594e-10
0.00166598
-0.00556377
0.0153004
0.157891
0.0246073
-3.31948e-05
0.309443
0.0281922
-0.0547603
-0.0608639
0.0359772
-0.0386648
-2.35197e-06
0.00739381
-0.0621177
0.0635555
-0.113859
0.0850732
-0.045068
0.0171999
0.0398488
-2.35197e-06
-0.0919936
-2.139e-229
-0.0018751
-0.158751
-9.66976e-12
0.0801696
-1.17314e-05
0.0300406
0.0161935
0.0358547
-0.00931294
-3.61899e-07
-1.07893e-08
-0.059767
3.59087e-05
-0.0158141
0.0327446
-0.000116965
0.0249429
0.0292606
0.0953767
-0.0178935
-0.0627877
0.305979
0.0543491
2.41543e-06
0.157097
0.00150319
0.021053
-0.000234962
-1.05316e-06
0
-1.41143e-05
9.88131e-322
-0.0639213
0.0961778
-0.0241454
0.0160592
0
-0.0738845
-0.084449
0.00116073
0.00739381
1.56414e-250
-0.094831
-0.0117526
-0.0285154
0.167335
0.00169908
0.0440581
-0.0524608
0.000260035
0.0231736
0.0138949
-7.32184e-10
-0.0436822
-0.0628271
-0.0141238
0.054853
-0.00286374
-2.47988e-05
-0.00817656
0.00158667
-3.84343e-09
0.0746331
0.188733
-0.00174595
-1.85066e-06
-0.0263452
0.327816
-0.0337614
0.00164568
0.042712
-0.178328
-9.97152e-07
-0.0442339
1.07071e-06
-0.0100234
0.342988
-1.83083e-07
0.00862836
-0.127426
-0.0309961
-0.0645686
0.00143218
-0.143173
-0.0735021
0.0100512
-0.0622909
-2.68694e-05
0
-2.42462e-95
3.21495e-05
0
-0.00556377
-0.00132828
0.06324
-1.05763e-11
0.0447776
-2.27656e-97
-0.0288768
0.0999765
0.0976893
0.00126986
-0.011523
0.0433039
-0.00140634
0.00109031
0.0580491
-7.80729e-12
0.0789022
0.0113228
0.0193958
7.09765e-06
0.0749863
-1.26481e-321
-0.0421539
0
0.00865012
0.00113098
0.0184033
0.00821887
-0.017267
0.0193102
0.00216466
-2.59079e-06
-0.0403589
0.243283
-0.000234962
9.88131e-322
0.0850675
0.0940986
-0.103268
0.0812554
0.046615
-0.00680438
0.0524514
0.00812191
0.0153004
-3.16585e-06
0.00770638
5.12523e-05
-0.0458494
-0.0392442
0.0399495
0.00293496
-0.0135092
-0.123427
1.07071e-06
-1.12424e-15
0.0237874
-0.129404
-0.032935
-3.61899e-07
0.00924309
-1.37654e-236
-0.0660923
0.032274
-1.29651e-05
-0.0394773
-0.000234962
-0.0451342
0.0661558
0.00120401
-0.0993494
-0.0115231
-0.0200399
-1.47707e-05
0
0.00176022
0.000230212
0.00773384
0.00535625
0.0660951
-0.173139
-0.0404624
-0.0914215
0.0311819
-0.0208769
0.00164568
0.156492
0.0247468
-0.0238062
0.0153306
3.17029e-09
-0.0816777
-0.0837354
0.0237874
9.94456e-05
6.51804e-05
0.0249429
0.0208626
-1.62749e-95
-0.0194893
0.0700721
-0.00490638
0.0102498
0.00484326
-2.7583e-05
0.0324956
0.000312567
-4.69785e-06
-0.0142606
-0.0228179
-9.66976e-12
0.0883819
1.07071e-06
-1.84543e-06
-0.000273124
0.011539
-3.70815e-07
0.0285992
0.329211
0.191521
-0.0295982
0
0
0.24223
-1.05763e-11
0.0187307
-0.0147549
-0.0545361
0.000260035
-0.0199272
-0.0751482
-1.32796e-05
0.0307229
0.0935519
-0.000167207
-1.62749e-95
-2.47988e-05
0.0205603
-0.0386648
0.286237
-0.000300227
0.0388822
0.0764179
-0.208184
-2.3376e-07
-1.26481e-321
0.0156829
0.0812554
0.00821887
-0.07032
-0.087845
-0.0685058
0.044722
0.000847868
-8.25183e-06
0.0464594
-0.0248444
-4.87976e-08
-0.112107
-0.000668452
-4.45586e-09
-0.0207946
0.0255003
0.110527
0.0792675
-8.25183e-06
-0.0053587
-0.099579
-6.73183e-97
0.0469656
0.00111422
8.8635e-05
0.00558792
-0.000229456
-0.0567504
-9.27089e-06
-0.0426647
-3.09455e-08
-1.88889e-09
0.0112316
-0.000121851
-4.20826e-07
0.00166178
-0.0428832
-5.64594e-10
-0.0642415
-6.73183e-97
0.0521073
-0.101841
0.00492148
-1.42291e-321
0.177968
0.00739381
-0.0172618
-0.0124312
-0.0789826
-0.0300045
-0.00128975
0.00946749
0.0565014
0.188211
-0.00174595
-0.0132119
0.0127627
0.02581
0.0153004
0.0554568
-0.0401194
-8.7322e-14
0.0521927
-1.47707e-05
-0.00150083
0
0.0712684
0.000715066
-0.0300793
-0.000234962
0.129723
0
-0.045068
0.10008
-0.046414
0
0
0
-0.000217343
-1.0238e-06
-0.0261924
0.143533
0.0739765
-2.139e-229
-4.27017e-05
0.0161935
-9.68563e-13
0.0160143
-0.0696271
-0.0223695
-0.0085176
0.000111099
-1.41021e-07
-3.78653e-05
-0.33458
1.85769e-321
-8.68047e-06
-0.0358112
0.0215906
0.00680901
0.00938896
0.00680901
-0.0854803
-0.314474
0.0153004
-0.122477
-0.0226399
-0.0384331
-5.64594e-10
0.0497424
0.0489917
0.0637381
0.0291863
0.620422
-0.0595203
1.14202e-05
0
-5.74177e-12
-0.102754
-0.0671781
-1.9745e-06
-0.0116862
-8.55278e-07
-0.122675
-0.0351758
0.0119748
-0.000226624
0.04067
-3.13557e-06
-0.0656084
0.0950027
-0.00841732
-9.08479e-05
-0.00140634
-2.08832e-11
-0.000234962
0.00266691
0.000612772
0.0454036
2.2158e-06
-0.030502
-1.50358e-06
0.0295549
0.0610337
-0.00705072
-1.69325e-06
0.0631547
-0.0401471
0.0172042
1.56414e-250
0.0192606
-0.0261265
5.12523e-05
0.0946372
0.0111903
-0.0360444
-0.11024
0.0637519
-3.56637e-06
-0.00216063
-0.0708809
-6.33721e-96
0.00453033
-0.000301368
-6.73183e-97
-0.000325896
-0.00874923
-1.5723e-05
-0.0128028
2.41478e-07
-0.0461826
0.0490497
0.000113542
-0.00739914
-0.105204
-0.0592792
-1.88889e-09
-9.66976e-12
0.00317003
-1.63469e-05
0.164471
-0.0325197
0.0930964
0.0748441
-0.0354654
-1.06597e-12
-9.68563e-13
-0.000223746
0.046615
-0.0337504
0.00402395
-4.58572e-07
-0.0397068
0.0295549
1.14202e-05
-9.68563e-13
-9.51503e-06
0
-0.035646
0.00246634
-0.0215357
-1.52659e-12
-2.35197e-06
-7.98932e-05
0.0406721
0
-6.73183e-97
-0.213607
-1.56097e-06
0.132203
-6.21803e-09
0.0166216
-0.000234962
0.00938351
-3.61899e-07
0.00111422
0.058255
-0.0722281
0.115907
-0.0106164
0.0812545
0.0700015
0.00739381
-0.0321714
-0.0567504
-0.0242613
-0.0201874
-0.00567563
-0.00174595
0.05156
-0.0720138
-0.0854803
-2.139e-229
-0.0538299
0.0235928
0.000479993
0.0476768
-0.000368225
0.0255067
0.00739381
0.0366502
-0.0567754
-1.78278e-09
-4.95646e-14
0
0.0434215
-9.27089e-06
-0.664427
-0.0143172
0.0202504
0.125887
0.0116151
0.0510301
0.0165193
0.159045
-2.35197e-06
-1.49602e-06
-0.0849674
-1.96281e-10
-3.46994e-05
-4.45274e-09
-1.0238e-06
-0.00030784
-0.000386867
-0.0428832
0.0202358
0.0165512
-0.0136169
0.015541
0
-0.0336341
0.0142181
0.0521927
-0.000234962
-0.0207946
-0.00120948
-1.52659e-12
0.0031622
0.0637519
0.0109928
0.0399495
0.0730092
0.0323337
-0.023046
0.0767865
-0.000322873
-0.0428832
0.0431433
-1.38338e-322
2.20353e-321
-2.35197e-06
-0.0718007
0.00882386
0.00750206
-0.0244373
-0.00864911
0.0397248
0.0324554
-0.00128975
-2.3295e-08
-3.11858e-07
-0.111212
9.94456e-05
0.0677175
-3.16584e-06
0.0216274
-0.0562775
0.0422138
-0.00490638
0
0.0206045
-0.00556377
-0.120624
0.094187
-2.3295e-08
0.075046
-0.143908
-1.63536e-321
0.0925967
0.00509245
0.0476341
-3.11858e-07
0.0735555
-9.4335e-08
0.0155456
-0.00607704
0.16569
0.111193
-0.0352381
0.034871
0.00184995
-1.62749e-95
-0.0420504
0.0109928
0.00739381
-6.55788e-06
0
-1.62749e-95
0.0963104
-0.000234962
-0.000234962
-0.00111416
0.00424796
-2.29529e-07
-0.0764837
0.0134674
-0.000260083
-7.46039e-322
0.0796835
-0.0227176
5.44614e-05
-0.0707563
0.0347846
-5.64594e-10
3.14911e-251
-0.00407465
0.0119389
-0.0336715
0.0299949
0.0127893
0.0509361
-1.56097e-06
0.114693
-0.0700099
-0.0578123
0.0568965
-8.54734e-322
0.00117533
0.23039
0.0155456
0.0331717
0.0186886
0.23205
-0.0168978
0.229134
-0.0434674
0.0292051
0.144814
0.0184066
-0.00118839
-0.0136169
0.0394915
-0.010798
-0.0132294
0.0220172
0.00390668
-1.06597e-12
-0.000202007
-0.0722645
-0.0311187
0.0151887
0.0324554
-5.23344e-09
0.299864
-0.0338892
0.00422541
0.052274
-1.06597e-12
-0.0252819
-1.57068e-06
0.0265071
-0.000309471
-0.0534019
-0.198082
0.011377
0.0323689
-0.0116376
0.0387959
0.326947
0.000348179
0.0155456
-4.45084e-11
0.2298
0.0346686
0.012055
-0.0136169
0.102027
0.0517457
0.0291863
0.0582584
-9.27089e-06
-0.109915
-0.000273124
0.0481067
-0.0463468
-0.000147927
0.0387121
0.141758
-0.0101766
-0.0438075
-0.000132133
0.074253
0.0234484
0.0165377
0
-4.01991e-09
-0.000337322
-4.20826e-07
0.0428867
0.044137
-3.16584e-06
0.00862836
0.0337181
-4.95646e-14
0.0127893
-4.83839e-06
0.00736694
-0.0248529
0
-0.0488781
5.12523e-05
0.00130588
0.0151887
-0.0396955
-4.61497e-14
-0.0139196
0.00151942
0.0228419
-0.000273124
-0.0596812
0.0508048
0.0777679
-4.83839e-06
-0.000249697
-5.64594e-10
0.0362684
0.0166582
0.04067
0.00949294
-0.12063
-4.61497e-14
-0.0225818
-1.88429e-07
0.00177192
0.125277
0
-3.70816e-07
-0.00128975
0
-0.0303117
0.0983413
-0.0583491
0.0167114
0.0637381
-0.00128975
1.60976e-05
0.133739
0.000729338
0.04067
0.534934
-0.0458494
-0.0467547
-0.0389442
-0.0359994
0.0906995
-1.05316e-06
-0.0337504
-0.0113478
-0.0768091
-0.0169707
0.00419814
0.0353236
0.0878597
0.0337944
-2.96731e-10
0.00725481
-0.0244575
-0.112219
0.130229
0.0169321
-1.0238e-06
-0.0123727
0.0591183
0.0146348
-0.0993249
-0.000300227
-0.000234962
-4.95646e-14
0.022435
-0.00868537
-2.42462e-95
-0.120796
-0.0958644
0.0219741
0.0412514
-0.103725
-1.05763e-11
0.0628454
0.106645
-0.00536039
0.129007
-0.0361522
-0.0053587
0.0529114
-0.0130707
0.000340038
0.187284
-7.98917e-05
1.06719e-91
-0.0367998
-3.53353e-08
0.0187307
-0.0523794
-0.045068
-0.0946374
0.0219482
-0.0502578
-0.112401
0.00547677
-0.167464
0.0554325
-0.0141957
-0.000230991
-1.06597e-12
0.0132501
-0.0521527
-6.33721e-96
-2.27656e-97
-1.54643e-321
-0.0503723
-0.000821348
0.119171
-0.00141118
-0.0764263
-0.0136169
0.00433789
-0.00858309
-2.35197e-06
-0.0391547
-0.133052
-0.0194148
0.0300406
-0.0372846
-0.0304567
0.0826309
0.0218031
-0.0620852
0.0413351
0.098615
-0.0381253
0.00419814
-0.0791406
-2.35197e-06
0.00453033
-0.0545862
0.0231415
-2.35197e-06
0.000479993
-3.61899e-07
-4.63708e-06
-0.0380427
0.417055
0.0231711
-0.0919946
-0.0455179
0.0900719
-0.0298761
-4.63708e-06
0.0277132
0.0367166
-0.016269
0.037932
0.0290166
0.0692181
5.47384e-09
-0.00774616
-0.0404268
-2.96731e-10
0.542654
0.0112666
-0.0271294
0.00938241
0.00318844
-0.0031347
-0.0869879
1.00295e-321
-0.15829
-0.000174318
0.000233258
0.0151887
-0.010287
0.00185231
-0.00366285
0.234863
-0.00225795
0.0198869
-0.000133284
-6.62844e-10
0.0506216
-7.5098e-322
-0.0122498
0
-0.0132119
0.0197269
1.7948e-06
-0.17161
0.0268316
-6.33721e-96
0.0847744
1.0707e-06
-0.130926
0.438414
0.0430474
0.0346711
-0.0540361
-0.0445847
0.00419814
0.0556131
-0.136988
0.005477
-1.89423e-06
-0.0252819
0.0813139
-0.0428832
0.0532248
-0.000273124
0.0779685
-7.65811e-06
-4.40035e-05
0.0128466
-7.63695e-14
-0.0132119
-0.00317232
-0.000234962
-0.005841
0.0306368
-0.0169707
0.0751538
-0.000234962
0.00013286
-1.05763e-11
0.000547744
-0.0971355
-0.0748903
-0.000317466
0.0136091
-0.000234962
0.298646
-0.143034
0.035422
-0.0028281
-0.0793238
0.177465
-4.37407e-08
0.00765926
-0.00668665
-3.78653e-05
0.0231711
0.184151
0.0266682
0.0268676
-6.33721e-96
0.0452079
0.0708644
-0.0490256
-0.17908
2.98927e-06
-3.53353e-08
0.0230049
-3.43824e-05
0.0109928
-0.0696271
-0.00560828
0.00565225
2.98927e-06
0.0771216
-1.05763e-11
-0.07899
-0.000234962
0.00422541
0.0155314
-0.0277032
-0.000134497
0
0.0425788
-0.0410776
-0.0384331
0.0403802
-0.0388436
0.0109016
-0.000132699
-0.0154412
0.0146424
0.0184033
3.22096e-06
0.277285
0.000479993
-0.0667334
0.307175
0.0249585
-8.7322e-14
-6.0842e-05
0.0580764
0.1089
-0.00012933
0.106581
0.0705031
0.264737
-0.000234962
0.0281467
0.0450912
-0.00010708
0.0979099
0.0662427
0.0606271
-0.0136169
0.0623468
0.0808179
-0.0197587
-0.0409534
0.0224863
0.0964283
0.00419814
0.0281598
-0.000337276
0.0282215
-1.72102e-06
0.0473885
-9.38885e-06
-4.34892e-250
3.21496e-05
0.0454036
0.0184033
-0.0247651
0.02887
-0.00174595
0.00419814
-0.0328179
0.0370407
-0.000160074
-0.203262
1.43279e-322
0.0326262
1.47232e-321
0.00164568
-0.000234962
-0.17217
-3.04215e-05
1.04364e-91
0.0174587
0.034434
0.194866
-0.0787736
-0.147951
-0.0584282
-3.71637e-06
-0.000229456
-0.0281603
0.0662427
0.00739381
0.0981843
-0.0243752
-9.23459e-07
-1.11357e-07
-9.68563e-13
0.0135462
0.0504155
0.157502
0.128752
0.0495195
-0.0614965
0.00419814
0.0216274
-0.056462
0.000312567
-0.0106827
-0.0796273
-0.0490403
-2.96731e-10
0
0.023446
-7.46039e-322
-1.69325e-06
0.00158667
0.023446
-0.0112327
-0.00536209
0.180804
0.0550576
0.127962
0.130911
-4.45274e-09
-0.0237708
-0.00511187
0.00739381
-0.02337
-0.00128975
-9.68563e-13
-0.0260023
-0.174981
6.86712e-05
-0.000234962
-0.0257359
-0.00719424
-7.83889e-11
0.023446
0.103599
6.02769e-251
0.224753
0.04302
-0.0703796
0.0300406
-1.96281e-10
-0.00197598
-0.00225795
0.000659445
0.0268015
0.000579661
0.0142181
-4.06266e-06
-0.0338685
0.0721473
-5.64594e-10
-0.0720469
0.227698
-0.020876
-0.0133994
8.29222e-07
0.000608174
-0.00719424
-0.110311
0.0207352
-7.40943e-05
-0.0551895
-0.132007
-0.0344708
-0.00696164
-0.0255495
0.0262418
-0.0300793
-2.139e-229
0.0812554
-0.0219649
0.149904
0.146944
0.125253
0.0769278
0
-0.000127116
-1.49602e-06
0.242427
-4.69785e-06
0.115018
0.00162569
-0.0562884
-4.39061e-06
0.000390862
-0.0250423
-0.0697453
0.0109928
0.00739381
-0.222238
0.000114202
0.00419814
-0.021251
-0.0344855
0.00180881
0.0401123
-0.000229554
-2.08832e-11
-0.0394166
-0.0676474
0.0157797
-0.0353192
-0.0258997
-0.000226624
-0.0450243
0.0668859
-9.66976e-12
-8.54734e-322
0.00419814
0.0471236
0.0409273
0.0347685
-2.42726e-06
0.0566344
-0.0364727
0
0
0.00474747
-9.66976e-12
-0.172382
0.0788621
-9.38885e-06
0.024909
-0.0580605
0.0189762
-0.0404927
-0.0018751
-9.66976e-12
0.0625464
0.0457644
-4.61497e-14
-0.363341
-0.0975407
-0.0118019
-0.087296
2.20353e-321
0.0464804
0.068064
0.0403802
-6.10844e-05
3.14911e-251
-0.0243759
-2.06802e-06
-0.00864504
0.00578029
0.0590695
0.0680373
0.00106424
-6.56943e-05
-0.00366384
1.04364e-91
0.12752
-0.0453799
0.309841
0.0417205
-0.0116862
0.00816028
-9.97152e-07
-1.0238e-06
-1.67488e-321
-0.000234962
-0.0444051
-0.0355587
0.0109016
-0.000226624
-6.10844e-05
-0.345517
-3.78653e-05
-1.72557e-09
-2.8672e-05
-0.00989776
0.00457866
0.00565265
-0.0534711
0.0275595
0.260959
-0.0541963
-0.000234962
0.0249166
0.0115576
-7.80729e-12
0.00419814
-0.0142237
-0.184779
-0.0558991
-2.96731e-10
-9.68563e-13
0.115529
-0.0281603
4.51593e-06
-0.0697453
-0.000363714
0.018288
-0.0154412
-0.230509
-0.00366285
-0.0194148
-3.46994e-05
-5.11306e-09
-0.379695
-0.000221183
-1.62749e-95
-0.123837
0.113507
0.0170138
-0.0208225
-0.000234962
0.0109928
-0.0607147
-0.00808653
-0.000392181
4.52921e-05
0.00340028
0.308294
0.0764691
0.0764691
0.0410042
0.0920554
0.154178
0.00013286
-0.00720878
-0.251626
-0.000234962
-0.000226624
0.0331717
-0.000234962
-2.35197e-06
-0.0332837
0.0337007
0.0662763
-0.000187678
-1.11357e-07
0.0657916
0
-0.426204
0.0789022
-0.0654685
1.47232e-321
0.0137561
-0.0282531
0.127618
0.0427442
0.00935457
-0.0586535
0.00952066
-0.0248529
0.00419814
-0.0608384
0.0131858
-0.00366285
0.04539
-0.000234962
-0.047956
0.0461144
-8.13866e-09
0.449069
0.0253314
0.00949294
-1.26062e-06
0.0322079
0.0153037
-0.0157918
-0.119012
-0.00500352
-0.0053587
0
-0.194915
-7.63695e-14
0.0576833
-1.67488e-321
1.60751e-05
0
-0.210548
0.0468097
0.000790556
-2.08832e-11
-0.0300793
0.0779651
-0.0282683
0.131368
0.00389893
-7.38291e-06
-0.000522734
-1.14746e-05
0.0639785
0.0131073
-0.000574801
-0.00998114
-0.0138295
0.096222
-9.68563e-13
-1.83083e-07
-0.0053587
-0.0132134
-0.000132133
0.0590192
0.0489913
-9.66976e-12
0.0153004
0.00141861
-4.18758e-12
-0.0300099
-0.000234962
0.00453033
-0.0870669
-0.0722367
0
0.0669627
7.86757e-05
0.003895
0.0549868
0.0981006
-3.00896e-06
0.192332
0.0231489
0.0353345
0.0154446
-1.88889e-09
0.0112563
0.0646025
-0.146856
-0.029435
-0.00817656
0.121902
1.58231e-237
-0.0328317
1.79346e-321
-0.0404927
0.00844068
0.00809143
0.0155456
0.0233965
-0.00506444
0.0771827
-0.0389732
-0.0242613
0
-1.05763e-11
-0.171073
-4.06266e-06
-0.0997234
-1.5723e-05
-0.0300793
-0.0483925
0.00194962
0.00336668
0.00316063
-0.121655
0.0286743
3.79139e-06
-9.27089e-06
0.217023
-0.0596812
-0.043941
0.0135602
-0.0229826
0.0632594
0.0184031
-0.012108
-1.06597e-12
-0.0808162
-0.0389442
-1.84543e-06
-0.000234962
-4.54303e-08
-0.0497542
-9.66976e-12
0.0317046
0.0323337
-0.0114421
0.0399495
0.214398
-0.0234215
-0.000234962
0.0484423
0.21685
5.9556e-08
-9.66976e-12
0.00224137
0.0144185
0.0404109
-0.0103265
0.00823515
0.0250685
-0.000309934
-0.02915
-1.06597e-12
0.115703
-0.069143
0.0657351
0.0589047
1.07071e-06
0.0664921
-0.131184
0.0654106
0.04067
1.79346e-321
-1.04968e-12
-0.0389442
0.00490711
0.0614198
0.0220835
-9.1838e-85
0.00131327
-7.46636e-09
-0.0203821
-0.0069963
-0.00225795
0.0100171
-0.0166895
-0.00654943
-0.00817656
0.0484982
-3.78653e-05
-2.8672e-05
-0.0435091
0.112519
0.046069
0.0765709
-6.62844e-10
5.47384e-09
0.059982
0.0518168
0.0914761
-0.0014069
-0.0233882
-0.045446
0.0155413
-0.0556676
-2.139e-229
-0.0230866
-0.0723297
0.0866451
0
0.0417149
-0.000174318
0.0845851
4.58839e-05
0.0474874
6.02769e-251
0.0109928
-0.000234962
0.0549727
-5.64594e-10
0.0323337
-0.0338399
-0.0128183
-0.103538
0.00419814
0.0891387
0.0832721
-2.47993e-05
-0.0508623
0.0339098
-2.16399e-05
-2.42462e-95
0.0868722
0.00180052
-0.0167725
0.0774569
0
0.0715593
-0.00174595
0.129434
0.0662427
0.0608572
-8.54734e-322
0.00862836
-3.78653e-05
0.0568965
-1.14254e-12
0.0291885
-0.0221021
0.000412726
-0.00213443
-1.38338e-322
0.203073
0.000625821
-1.47349e-05
0.0153306
-0.0409555
0.134503
-0.00128975
0.095429
-0.0358112
2.20353e-321
-0.000347098
-2.139e-229
0.058966
0
-0.0694199
-2.95665e-05
0.0163663
-4.58572e-07
0.00938896
-0.112928
0.11167
-0.0577277
-0.0177489
0.122813
-0.0119641
-0.162166
0.0100381
-0.0132119
0.00419814
0.0455807
0.0198123
-0.10413
0.0625211
4.56563e-05
0.0748067
0.0153004
0.0352373
-0.0534711
-2.35197e-06
0.000312567
-0.0410543
0.00557619
-0.0116862
-0.0497542
0.0359949
-2.29104e-94
0.0418045
-0.000337276
-0.00010708
-0.0215357
0.0280831
-6.82913e-05
-0.0596812
-0.0275899
0.0100797
-0.085277
-0.0269703
-0.000234962
0.0338065
-0.0160751
-0.000217343
0
-0.155322
0.0281535
-0.0194462
0.0315268
4.7718e-05
-0.0829751
0.223204
0.10508
-0.206447
-0.000305762
-8.55278e-07
-0.089599
1.07071e-06
-0.0053587
-0.178541
-0.00808653
-0.0018751
0.0637381
0.0668758
0.0140333
-0.0799822
0
-0.0778883
-0.0130588
-0.0545862
-0.00654943
-0.00719424
-0.000134497
0
-0.0438893
-0.0381723
-0.0154412
0.197072
0.0109928
-2.3295e-08
-0.0154412
-0.0710662
-0.0617568
-0.0136169
-0.0132119
0.0809615
-0.0179316
0.118304
-0.00744373
-8.85445e-07
0.00938896
-5.64594e-10
-0.0273331
0.000492802
0.000545547
-3.38846e-06
0.524768
-0.0120372
0.02887
0.0164317
0.0636477
0.00148625
0.00148625
-0.000204108
-4.63708e-06
0
0.122333
-1.84543e-06
-0.0372795
4.52921e-05
0.00372461
0.0417854
-0.000147124
0.0124043
0.00317094
-0.287817
0.00419814
0.00408246
0.0155471
-0.0037708
0.00124415
0.0284807
5.9556e-08
0.00919256
0.00726356
-0.112339
0.00164568
0.00116073
-0.000234962
0.00862836
0.0506506
0.127336
-0.0596812
-0.0307334
-1.62749e-95
-0.0190355
-0.159496
-8.25183e-06
-0.0163734
0.00546081
0.0468099
0.052461
-9.67434e-87
-0.0215271
0.143384
0.00216466
-0.000234962
-5.66687e-07
-0.023755
-0.0839193
0.161885
-0.000234962
-0.0173714
-0.0420382
0.0403493
0.0845851
-0.00563328
-2.47988e-05
0.00801226
0.0281922
-5.74177e-12
-0.0645692
-0.000234962
-0.0765758
-1.14623e-321
-0.000234962
-0.00213443
-0.0370958
0.00484326
0.0158986
-0.0537796
-0.00744373
0.0276205
-7.35352e-13
0
0.00119725
-0.0834386
0.0675129
-0.00598493
0
-1.88618e-85
-0.0138884
0
0.00271682
-0.0107814
0
0.0642295
0.00013286
-1.06597e-12
-0.000234962
0.12857
0
-0.088647
-0.00544532
0.0197913
-0.111212
-0.000318204
-6.33721e-96
-0.354911
0.0468099
-0.0309961
-0.000337277
-1.67488e-321
-0.00128975
-9.39992e-07
-0.0293268
5.7147e-66
0.0673021
0.0610337
0.0267761
-1.37438e-09
0.00233355
-2.29529e-07
-0.0158307
-0.159757
0.074253
-0.056332
0.0700102
5.03441e-05
0.0247842
0.0169187
-0.00225795
-0.0568643
-0.0446065
0.00419814
-5.79151e-08
0.029229
-0.258741
-0.0742143
-0.0488781
0.0109928
0.132983
0.00155241
0.0132501
-0.0239997
-0.0538299
-0.0541059
-1.84066e-05
-2.59079e-06
-6.10844e-05
-0.000234962
0.0331717
-0.084449
0.0476341
-1.8588e-05
-1.90709e-321
-0.017834
-1.62749e-95
0.0463644
0.0466
-2.29529e-07
-2.35197e-06
-0.00808653
-0.0693203
0.036537
-5.15614e-12
-0.0425174
0.0471615
-1.07914e-05
-0.0351758
0.000798463
-0.0722284
-9.66976e-12
-1.96281e-10
-0.0941599
0.00223273
-0.182634
0.00141395
-0.000368225
-0.0261924
0.00148625
-0.111212
0.00739381
-4.39061e-06
0.0247468
-0.000234962
0.0109928
-0.0420686
0
0.301604
-0.000182783
-0.0190355
0.0362437
-0.00834732
-0.0132119
0.0550517
-6.20064e-08
0.0893031
-2.02489e-06
0.00229209
-0.0248626
0.125081
-0.0708598
-0.015777
-0.0596812
0.00251988
0
0.0839497
-0.0465074
-3.71637e-06
-0.0677705
0.00739381
0.0110331
0.186679
-0.0567504
0.121187
-0.000234962
-0.0534564
-2.54904e-11
-0.0260981
-0.000347098
1.47232e-321
0.000407515
0.00801226
0.194148
0.0468318
-0.103035
-1.62749e-95
-0.0248158
-0.0193786
0.00453033
-0.0567504
0.0193102
0.0153306
0.0109928
0.0802385
-0.089786
-0.0436054
0.0202504
0.160161
0.182433
0.0184033
0.00478321
0.0109928
-0.00774639
-0.0207946
-1.8588e-05
-2.41491e-07
-0.000322969
0.054853
-0.0928215
0.0194319
-0.000141043
0.0710793
0.054441
-0.0164798
0.0268015
-0.0273331
-0.0132119
-0.000234962
-0.0648045
-5.64594e-10
0.00739381
0.0116151
-3.78653e-05
0.0625249
0.0481542
-0.000134497
5.12523e-05
0.0163663
1.00295e-321
-0.00757668
-0.0237519
-0.0806752
0.0985226
-3.78653e-05
-0.0690178
3.22096e-06
0.058966
-1.06597e-12
0.0939005
-0.000866174
0.0804069
-0.0273149
0.0479903
0.00142012
-3.53353e-08
0.0109928
-0.000337276
-0.00817656
-0.0516565
0.0126691
-0.0100684
-0.000226624
-0.00744373
-0.0128806
0.00173721
-0.0645543
-0.101318
-0.0157942
-3.53208e-09
1.60976e-05
0.0795187
-0.000234962
0.014002
-7.80729e-12
-0.0438893
-0.0248529
0.0703243
-0.0788016
-7.55788e-15
-0.0105932
0.0153306
-0.0144364
0.0638598
0.0608795
-7.63695e-14
0.00739381
-9.68563e-13
-0.0121911
0.023456
0.0280028
0.0922884
-1.5723e-05
4.58839e-05
-0.0245432
-0.0969054
0.128802
-0.0534711
-0.0398944
-9.27089e-06
-0.0697453
0.0492547
-7.63695e-14
0.00862836
-9.66976e-12
0.0811858
0
-0.019801
-0.0261924
0.0218128
5.47384e-09
0.00192195
-3.78668e-05
-0.0205722
-0.0053587
-0.0373835
-0.000234962
0.000563328
-0.00366285
5.61439e-06
-0.00238402
4.46073e-08
-1.5723e-05
-0.0379765
-0.019104
0.104136
-0.006213
-0.00951228
-0.0169707
0.00164568
-7.46039e-322
-0.00835297
-0.0307334
-0.0154412
-0.0255495
-0.0542472
0.00808404
-7.32184e-10
-1.56287e-09
0.0278286
-0.0192261
-0.141753
-4.681e-12
0.20789
0.0445588
0.00739381
-1.04968e-12
0.021323
-0.0943338
0.0521927
0.005477
-0.0103149
0.00318844
0.00425377
-0.000294566
0.0163367
-0.0547603
0
0.00307805
0.0771935
-0.0913149
-7.80729e-12
-0.0589117
0.02797
-0.0645543
0
0.00725341
0.00770082
-1.4981e-06
0.0758828
0.0218128
0.00164568
0.0627333
0
-0.0132119
-9.66976e-12
-0.0135092
-1.05763e-11
0.00275104
0.0292606
-0.0300793
-2.08832e-11
0.0853367
-4.58572e-07
-6.33721e-96
0.0552232
0.0177127
0.174278
-0.0271158
0.0839
-0.0104887
0.20342
0.109415
-0.0446362
-0.0282779
0.00318844
-0.0207946
-0.0697453
0.00413129
-0.0277854
-5.23344e-09
0
0.00949294
-0.0467749
-0.0295189
-0.0389442
-0.0134806
-0.065513
0.128445
0.00307148
-0.0896569
-1.48503e-08
0.0213248
-5.60763e-05
-0.0281603
-2.139e-229
-0.0548799
-0.0419107
-0.00556377
0.0167852
-0.000337276
0.0455733
0.101198
-0.00366285
-0.0843641
0
0
-7.80729e-12
0.353607
0.00924298
0.00148625
0.0268015
-0.0384315
-4.45274e-09
-6.73183e-97
-0.204103
-0.0862266
0.0247842
-0.0190577
0.00578029
-0.0720138
-0.0467131
-0.163566
5.44614e-05
-0.00128975
0.00185231
1.99309e-05
-0.0670242
0.139143
0.175335
-0.0300801
-0.0567504
0.0606198
-0.0257359
-0.0178911
0.0534708
-0.0440462
-0.0284818
-0.0018751
-0.147952
0.00348353
-9.38885e-06
0.119003
0.026432
0.0272243
-0.000509877
0.00318844
0.00862836
0.155055
-0.0534711
0
5.0971e-05
0.0142181
0.000323035
-0.1678
4.7718e-05
0.00419921
-0.00559769
-0.481708
6.86712e-05
-6.53095e-05
0.0209905
0.0880164
0.0291696
-0.0277795
0.00142778
0.124903
0.0142181
-0.0115231
0.0476341
-0.0160208
0.00419814
0.043964
-0.00158575
-0.111574
-0.0785299
-0.0896621
0.000557236
0.0512571
-0.000109817
-0.0384754
-0.0132119
-1.25493e-321
0.0284269
-0.120664
-0.109981
-0.0561652
0.0715593
0.729854
-0.00874923
-0.052227
0.0187307
-0.147779
0.000185212
0.0476503
0.0282047
-0.0731575
-0.0136169
-0.00916123
-0.0253229
-0.07032
0.0132501
-0.0381497
-0.000234962
0.00821887
0.0202504
-0.0259423
-9.27089e-06
0.00285478
-5.64594e-10
-0.0750822
-0.0764085
0.0719517
0.00419814
-0.055827
-0.056462
-0.0557177
0.1498
-0.00669122
-2.139e-229
0.102365
0.00127303
-1.42794e-09
-0.0693203
-0.00366285
0.000766792
2.45349e-251
-0.0295738
-0.0351593
-1.5723e-05
-0.123796
-0.0053587
-0.0565
0.00565271
0.0137034
-0.00717959
-0.0273082
0.0637247
0.057942
-2.35197e-06
0.0675684
0.0826309
-4.27017e-05
-0.177661
-0.0637312
0.0848431
-1.4981e-06
0.000754768
0.0700721
0.0866562
-0.000368225
-0.0318539
0.0101784
0.117792
0.00739381
-1.62749e-95
0.000825292
0.0403802
0.0458548
-0.0245495
-0.000234962
0.0371529
-1.05763e-11
-0.0877398
-6.10844e-05
0.0490368
0.00542943
-9.22536e-36
0.0136091
-0.0149299
-0.0577689
0.0476712
-0.087845
0.0106926
0.0466
0.111574
-0.000702063
-7.40943e-05
-1.05763e-11
-0.00548063
0.0620508
0.00013286
0.00277924
0.0673021
-0.000202007
-0.0637312
-0.0421103
0.0326726
-0.0391784
-0.0450243
-4.54303e-08
-0.00366285
0.23851
0.00610381
-9.96389e-14
-0.0641993
-0.127695
-0.107952
0.00425377
-0.0401175
0.00730711
0.00111422
0.0417854
-0.00872148
-0.000234962
-0.0154412
-7.32184e-10
-0.0415109
-0.000347098
0.0490637
0.0271827
-9.51503e-06
-0.120859
0.0425788
0
0.000477421
0.0184033
-0.0106827
0.236172
0.0345776
0.0142181
-2.7583e-05
0.00547574
-0.0970677
0.0132501
-0.0354405
-0.223879
-8.7322e-14
0.0764235
0.0527185
-0.0363649
-1.67488e-321
-1.14623e-321
0.0254175
0.00739381
-0.00240501
-7.80729e-12
0.23016
-0.000167865
-1.49602e-06
-2.35197e-06
-0.0812259
-0.0332841
-2.139e-229
0.0568965
0.2056
-0.0287476
-0.000322969
-1.56097e-06
-0.000273124
0.04067
3.22096e-06
-0.0112327
-0.0296398
0.00279403
-0.000234962
-3.70815e-07
0.0173371
0.0161935
0.0006694
0.00419814
0.0155413
-0.0241507
0.00419814
-0.38053
0.041001
-0.0446362
-0.0335337
0
0.0839485
-0.0705519
-0.0344708
-0.000217343
0.00279398
0
-7.5098e-322
0.0729595
-0.00304372
-6.73183e-97
-0.0719889
-0.000179516
0.0811858
-0.0644866
-0.0626799
-0.00174595
0.169077
0.0661316
-0.0389442
0.084734
0.0451348
0.157875
5.28654e-07
0.0170077
-0.0215637
-0.0257359
0
-0.0301255
-0.0300793
-0.000132133
0.0878807
-0.0190577
0.0546561
-0.0910534
-0.103538
-0.010181
0.0826309
0.0295549
-0.0533553
-0.111386
-0.0165257
0
-0.0924069
-0.0053587
0.00217002
0.0450906
0.000237643
-0.0910203
-1.06597e-12
-2.29529e-07
-0.00774616
0.0367506
-0.154584
0.0291863
0.0146157
0.0610309
-2.7583e-05
0.00611957
0.00149826
0.0472817
0.0140894
0.0662763
-0.0158562
-1.06718e-321
-0.019104
-0.0411641
0.0324554
-0.0325792
-1.62749e-95
0.0553985
-0.00989776
-0.0389949
0.00277439
-0.0547603
0.00522707
0.188135
-0.0241837
0.00536098
-0.0136418
0.0410179
0.0125973
-1.06597e-12
-0.0937262
-0.0450243
-0.0352165
-0.00685888
0.000780715
-1.5723e-05
-3.59571e-05
-0.0176567
0.000545547
-0.0359941
0.0353873
-0.0547603
-2.35197e-06
-0.00660745
-0.0379091
0.117889
0.0847256
-0.0281603
-0.0620853
-0.0176226
0.0132501
-0.0715334
0.000312567
-0.00158998
0.0469656
0.176718
0.0109928
-1.88889e-09
0.0163663
-0.015136
-0.0219649
0.0155456
-0.0190701
-2.0007e-05
-1.56097e-06
-1.14168e-06
-5.64594e-10
8.39511e-05
0.00419814
0.0465058
-0.159757
0.0112574
-0.0257359
0.025047
0.000424158
0.00015304
-0.0110472
-0.0386648
-0.000348365
-0.0648537
-0.00174595
-0.0212876
-0.0261265
-5.42386e-11
0.00348353
-0.0409534
0
-0.0698115
0.0423976
-0.000273128
0.010026
-0.00174595
-0.000337276
-1.38338e-322
-0.0257359
0
-0.0543372
0.0492141
2.41538e-05
0.0237874
0.144136
-0.00061227
0.046615
0.0259169
0.168229
-0.0136169
-0.0704349
0.0109928
0.0260679
-1.31132e-05
0.0366535
0.000230212
0.0707757
0.285449
0.054853
-0.0965421
-0.00216063
0.0149814
-0.0205819
0.013987
-9.59193e-09
0.00229078
0.000780715
6.43725e-05
-5.7517e-10
0.00120401
-2.81248e-07
-0.00696164
0.0109016
-7.32184e-10
-8.25183e-06
0.00484326
-0.0132119
0.0398488
-0.0535666
0.0207352
-0.0108288
0.0281535
0.125723
5.9556e-08
0.167262
0.0552491
-0.0739431
-0.0750418
-4.06266e-06
-0.101595
-4.61497e-14
-0.0169707
-0.0384294
0.0154731
-0.00140634
0
-0.0641015
0.0252175
-0.0482012
-6.33721e-96
-0.0748347
-0.0844176
-0.00874923
-0.0492092
-0.000234962
0.00474747
-0.00346773
0.0231711
-0.0337504
0
-1.32904e-321
-0.117358
-0.00174595
0.179174
0.00712288
-0.000273124
-6.10844e-05
-0.0733836
-0.120624
0.0921706
-1.06597e-12
-0.00225795
0.00121865
0.00739381
-0.000337276
0.0142181
0.0281535
-0.0473127
-0.0976961
-8.07907e-07
-2.59828e-09
0.0154004
-0.00744373
0.0150537
-0.0194148
0.0103401
-0.0368158
0.0285954
-0.058032
0.0613915
-0.0490256
-0.0275451
-2.81248e-07
-0.0359941
0.00739381
0.0417854
0.105847
-0.0457712
-9.68563e-13
0.0386814
-0.000109817
-0.0387528
-0.0136169
-2.139e-229
0.180604
0.0184031
-0.154275
0.0662427
2.81805e-06
-0.0268904
0.0902329
0
-0.0263393
0.118662
0.023342
0.00726168
-0.0125401
0.0155456
0.224668
-0.363863
0.0490637
0.0167852
-4.61497e-14
-1.69325e-06
-0.0487663
-0.033846
-0.0359994
-4.37603e-15
0
-0.0499328
0.0586816
-6.10844e-05
0.018508
0.0474423
-0.0337614
0.000533485
3.17029e-09
-0.000347098
0.132429
-0.0158287
0.0533493
0.130003
-6.73183e-97
-1.04968e-12
0.0681035
0.119688
1.14202e-05
-0.0102132
-0.0289293
-0.0910396
-0.00710596
0.0216558
1.00295e-321
0.0324554
0.186286
-0.0440462
-0.068405
-0.0486472
-0.205574
0.0497997
-0.0138884
0.0407634
-0.0053587
-0.000234962
0.0216093
-0.0210973
-0.0711685
0.0625249
-0.0261265
0.00176022
0.0517964
-0.0132119
-0.016936
-0.0177637
0.00285478
-3.84343e-09
0.0299949
-0.0440462
0.0215772
-4.27017e-05
0.0329108
-0.0686876
-0.142444
0.0109928
0.127202
-0.0169707
-0.0764085
0
-0.0455345
-0.171943
-0.0283953
-0.0113726
-0.0132119
-0.00169239
-0.0242703
-0.0460183
0.0637772
-0.0438893
1.00295e-321
0.00343168
0
0.0928724
-0.0793483
0.00770082
0.0108594
-0.056332
-8.54734e-322
0.0187307
-3.92511e-85
-0.0218533
0.00739381
0.000424153
-0.0718468
-0.0160751
-0.00174595
-1.89856e-09
-0.0587853
0.0136091
-1.47349e-05
-0.00151896
-2.81248e-07
0.0556345
-1.28457e-321
-1.58635e-07
0.00355372
0.0109852
0.018771
0.0230051
-0.00111431
-0.0756198
0
0.0542469
0.0667196
0.0305276
9.90247e-05
0.020066
0.0237329
0.0570468
-0.00583552
0.0523658
-1.06597e-12
0.103542
0.0280028
-0.000174318
-0.0404927
0.0542649
-0.00010708
-9.66976e-12
0.000260035
0.0593731
0.0390655
0.0324554
-0.00213449
0.0184031
-0.0691277
0.00949294
-0.187996
-1.42794e-09
1.60976e-05
-0.000229456
0.00509481
0.0328737
0.00935457
0.0153306
0.1953
0.0210497
-0.0620721
-4.95646e-14
-2.81248e-07
0.014002
-1.5723e-05
-0.0824711
-0.006213
-0.0223538
-1.06597e-12
0.021096
-0.0320778
-0.000230991
0.0714522
0.0850675
-0.0178911
-0.0858018
-0.0409132
-0.00511296
0.0521073
-0.00174595
-1.06597e-12
-0.00747982
0.0163663
0.00107587
-0.00128975
0.0651634
0.0169066
-5.34637e-09
0.0483781
-0.0218804
-0.0257909
6.72442e-05
-1.31132e-05
-0.0378674
0.127273
0
-0.0409974
-0.081091
0.122705
0.0607161
-0.0513549
0.0431433
-0.00990251
0.0371529
0
0.0140295
-0.130198
-8.03067e-05
0.0878545
-5.64594e-10
-0.0146834
0.00421856
0.0127893
-0.0590598
0.0713309
-0.0613242
-0.0512343
-0.179654
-0.0878964
-2.139e-229
2.04543e-321
-0.000132133
-0.0442151
-0.0329348
-0.000234962
4.53408e-05
0.0413351
-0.00316867
-0.000184857
-0.0244906
-0.000234962
0.00840174
0.00320921
-0.0853318
0.0162211
0.0187307
-1.49602e-06
-0.0496126
0.0206215
-0.0351758
-0.0478259
0.00147885
0.0231711
0.0938745
0.0789748
-0.0210495
0.0403802
0.0706617
-0.00366285
-0.0063471
-0.0632466
-0.00225795
0.122134
-0.0629946
0.0119344
-0.0388963
-0.00808653
-4.54303e-08
-3.61899e-07
-0.263882
-0.0620852
0.00285478
-0.0255074
-0.0476897
-0.0375466
0.0454036
-1.31132e-05
0.0257354
0.000669052
0.0280037
-0.0223538
0.0347709
-0.00813639
1.07071e-06
-0.0399071
-0.0459757
0.00285471
-0.075863
0.0268015
0
0.0172886
-3.71637e-06
-0.00326123
0.0109016
0.000164914
0.0165637
0.0568022
-5.23344e-09
-0.0230608
-0.0185706
-0.0854803
0.00015304
-2.23271e-08
0.0249429
-1.06597e-12
0.0249429
0.0574902
0
-0.0705867
0.156626
-0.056332
-0.0157931
1.58231e-237
0
0.0279645
-0.000234962
0.059982
-1.00789e-321
-0.0431984
3.17029e-09
-5.24311e-09
0.0184031
0.015589
-7.63695e-14
0.102456
5.7147e-66
-2.93588e-06
5.9556e-08
-0.0123727
0.346943
0.0366535
6.72563e-08
0.066113
-2.81341e-05
0.00478218
-0.0976026
-0.0765988
-0.0569005
-0.049083
-0.00396251
0.00281998
-0.127378
0.00726356
-0.00356364
-3.03054e-05
-1.48503e-08
-0.0209295
-0.0409354
0.0174378
0.090073
-0.156854
0.0305073
-3.10143e-09
-0.000300227
-0.0810158
0.0113358
-0.000234962
0.0201484
0.0214397
0.0156829
-0.0260274
-0.0603347
-0.0547368
-0.0426647
-0.144837
0.0167852
0.00113098
0
-0.0820399
0.0488211
-0.00654943
0.0530822
0.110368
0.1031
0.00739381
0.00565271
-0.00495267
-0.00717815
-0.0384591
0.00372461
0.0278459
-3.31683e-09
0.00862836
-1.06597e-12
-0.0505524
2.34681e-321
0.0169803
-0.0177489
0.258989
-0.000525841
0.0353867
-0.146525
0.203165
-2.50506e-07
-9.66976e-12
0.0481298
-0.0530734
-0.00225795
-0.0169871
-1.04968e-12
0
-1.05763e-11
-0.0748408
0.0453985
-0.00146613
0.04981
0.150963
-0.0500784
-0.0335437
-6.82913e-05
-0.000234962
0
-6.33721e-96
0.000424153
-0.0337504
0.0155413
3.14911e-251
-0.0358112
0.0117246
-4.45274e-09
-0.000187678
-0.0620852
0.13008
-6.10844e-05
0.00439635
-9.38885e-06
-0.00328092
0.00484326
-0.0883814
0.00739381
0.0454036
-0.00664846
-1.07893e-08
-0.0476897
-0.000229456
-0.0259423
0.0167826
-0.106025
0.0568875
-0.0025134
-0.00851326
-0.0141534
-0.000229456
0.104076
-0.000184146
-0.000198244
-0.0114177
-0.0654253
-1.06837e-11
-2.08832e-11
-0.0401532
0.0683825
0.0331717
-3.04215e-05
-2.21767e-05
-0.0566004
0
-0.169241
0
0
0.0134184
-9.08479e-05
0.0231711
7.86757e-05
-0.00366384
-0.0215271
0.0468816
0.00279403
-0.00567359
0.0622468
-0.037448
-0.0410695
4.02043e-05
-0.0091978
0.058966
0
0.00130841
-0.000368225
0.0472897
-0.00774616
0
-0.120624
0.166188
0.143987
-0.0853749
0.0167852
-0.0659424
-0.113657
-0.0591675
-0.0132119
-1.5723e-05
-2.41501e-07
0.00101777
-5.05711e-12
0.0826975
-1.88889e-09
0.199774
-4.20826e-07
0.027072
0.00216466
-4.58572e-07
-4.37603e-15
-5.64594e-10
-0.0491448
-0.0260981
-0.07032
-0.0169707
0.00147304
-5.34637e-09
0.04067
-0.0822399
-1.42794e-09
0.275214
0.0469656
0.0689863
0.0127627
-0.00841732
0.0373043
0.037258
0.0268015
-0.00918232
-0.000260083
0.0602627
0.0298177
-4.69785e-06
0.247757
-0.0266211
7.15285e-06
0.012794
0.0441657
-2.139e-229
-1.42308e-05
0.00821887
-1.06597e-12
-0.125421
0.0218128
-3.13557e-06
-0.140462
0.00121858
-0.00225795
0.0964489
-0.0112745
5.12523e-05
-0.131918
-0.148273
0.0521927
-0.000161897
-0.0651195
0.0101784
-0.0311116
-0.0113478
0.00862231
0.0342636
0.0184031
-0.0254164
0.0588659
-0.0300515
0.166265
-7.63695e-14
0.0232541
-0.0247888
-0.0639157
-2.08832e-11
0.0108033
0.0316603
0.00164568
0.203165
-0.113164
-1.63536e-321
0.14178
-0.0784289
-0.205562
0.321879
0.0109928
0.0187229
0.00318843
-0.0512179
-0.0696271
0.00547608
2.04543e-321
-0.000229456
-3.13558e-06
0.046615
-9.66976e-12
0.0771015
-1.0238e-06
0.0167777
0
-0.0594071
-0.089599
0.0142181
-0.0734192
-0.00366285
-0.0563786
0.139705
-0.0135092
0
0.0454036
-1.83083e-07
0.0537387
0.0213515
0.0231711
-0.00128975
-0.0756122
-9.66976e-12
-0.0718402
-5.05711e-12
-0.112833
-0.056462
-1.84543e-06
-3.70815e-07
-0.0357449
0.0359502
-1.83083e-07
0.0928724
-8.85445e-07
0.0410199
0.149925
-2.47988e-05
0.0349079
-0.0518473
0.026704
-0.0300793
-0.0986282
0.0173659
0.0114733
-0.0154412
0.0416753
-0.0431984
-0.0102077
-0.0395672
0.00739381
0.0231711
-0.0922676
-0.152401
0
-0.00397592
0.041381
-0.0259423
0.0124874
-0.0143317
6.57622e-05
-1.14746e-05
-0.0404867
-0.110463
-0.000368225
-2.41491e-07
-0.0551075
-0.048321
0.00349126
0
-0.0284228
0.0193102
-0.163819
0.257225
-2.8672e-05
-0.0053587
0.0154923
0.0386346
0.103587
-9.66976e-12
-7.56864e-07
0.0117246
0.0316451
-0.012903
0.0118685
-0.107108
-0.0471613
0.0551691
-1.12153e-321
0.00164568
0.180017
-0.000339694
-2.42479e-09
0.0276205
-0.072455
0.02625
1.47232e-321
-0.000187678
-0.000226624
-0.0998391
-0.00140634
-0.0053587
-1.42794e-09
-0.000229456
-3.99623e-05
5.12523e-05
-0.00818962
0.0473991
-2.03829e-08
0.0453429
4.46073e-08
-0.043409
0.0247842
0.0146424
-5.34637e-09
0.00477217
0
-4.39061e-06
-0.00987661
0.0501594
-0.0053587
-0.0958596
-0.0854803
-9.22536e-36
0.238325
-0.0134848
0.100766
0.0427124
-0.0997234
-0.108252
-7.55788e-15
-0.0258982
-0.0188584
-0.16944
-0.0751546
-8.74868e-09
0.0444584
0.00121865
0.022435
-0.000174318
0.000338768
0.0743659
-0.0714817
0.0338199
-6.33721e-96
-0.00636629
-0.0883777
-0.0634138
-0.0473721
0.00121865
-0.113248
-0.000337276
-2.35197e-06
-2.38588e-06
-0.0243312
-4.45274e-09
-0.0190577
-0.0025333
-0.00491101
0.00419814
-4.69841e-06
0
-1.56287e-09
0.0295549
-0.0886256
0.00142778
0.0268015
2.38827e-05
0.00730436
-0.00774616
-0.0702114
-0.0246712
0.0570763
0.0153306
0.322696
0
7.86757e-05
0.02887
-9.67434e-87
0.00232898
0.00764142
0.0392005
-0.0225818
-0.20081
0.0280028
0.0411053
0.0392005
-0.11504
0.0307272
0.145371
0.0328271
-0.0375466
-0.00366285
-0.0726989
0.808493
0.0301022
-0.133467
0.0228419
-0.121258
-0.00190116
0.00419814
0.0184031
-0.01503
0.117792
-0.0233671
0
0.0627333
-0.0178911
0.000155812
-0.000347098
0.00938351
0.00317552
-4.6867e-05
0.0153306
-0.00989776
-0.0277032
-3.16584e-06
-0.0463468
-0.0418093
0
0.0758285
-0.233937
0.0390803
0.147749
0.0116151
-0.0315509
-0.108137
0.0520665
-0.103612
-9.22536e-36
0.000136051
-0.0240091
-0.0409534
-0.00778947
-0.0986282
9.93371e-07
0.101845
-0.139197
-0.0707198
0.170343
-0.0389442
-1.14553e-06
-0.0462034
0.0227244
-0.175377
-0.0234215
0.0874148
-4.95646e-14
0.0302059
1.14202e-05
0.0577126
6.72442e-05
-0.0136169
-0.0216653
0
-0.034126
-3.70815e-07
0.0170496
-9.68563e-13
-0.279039
0.00014833
-0.104723
-0.0344708
-1.06597e-12
0
0.0625249
-5.19257e-06
0.04067
-0.105843
0.11137
0.0400363
0.0610309
0.0116151
0.00484326
0.00329664
-0.00490638
-1.62749e-95
2.37152e-322
-2.03828e-08
-0.000234962
-0.0190355
-0.0338462
0.138681
-0.0336514
0.0347343
0.00245482
-1.80996e-05
0.0541037
-3.13557e-06
0.0204022
0.148295
-0.00987661
-0.0332837
0.0723709
0.0477136
5.15128e-05
0.0264146
-0.0463468
-5.64594e-10
-3.38085e-05
0.0158986
-0.0646195
-1.94686e-05
0.00949294
0.0926571
-5.11306e-09
-0.000198239
0.00113577
-0.0372795
0.11799
-5.64594e-10
-0.000109817
-0.000146987
0.0570468
-6.10844e-05
0.00419814
-0.030006
0.0315268
-0.0152029
-1.49602e-06
-2.95665e-05
-7.63695e-14
0.0232541
0.0120732
-0.128729
0.00533332
-0.0867281
0.00419814
0.000388958
-9.65402e-06
-0.0481961
-0.0300793
0.00840506
-6.73183e-97
-0.0450243
0.00178285
0.0807344
0.00242284
0.0497424
0
0.014985
0.120187
0.0811858
-0.0299256
0.0268015
-0.0389442
0.0735176
0.0468099
-0.021376
-0.0888628
0.0155456
0.0149507
0.0298056
-0.000386585
-0.0049911
-0.108907
0.0150537
0.0514051
0.000545547
-0.000234962
0.013276
0.0806373
0.00541474
-0.0158304
0.0281535
0.0614271
0.0347709
-2.81248e-07
0.0130233
0.0324554
-0.0135092
-0.120976
-0.00852968
0.0610337
0.000762359
1.14202e-05
0.0283178
0.129908
0.0145645
-0.00539395
0.0159868
0.000387912
-0.087296
-0.0135092
0.0291863
0.0231709
-8.54734e-322
0.0343156
-0.0924069
0.0490637
0.0312312
-0.115207
-3.53657e-09
0.0251289
0.0328344
0
2.45349e-251
-0.010556
-0.0979087
-0.0359941
0
0.023342
0.261124
-0.0686571
-0.0630545
0.0927344
-0.0531041
0.0394821
-0.000182783
-0.0367873
-7.98917e-05
-0.0354046
0.00647922
0.0484121
-0.0557177
0.031908
-2.36252e-11
0.0750558
0.00698114
0.00647904
0.104959
0.00389893
0.0192606
-1.69325e-06
0.0169409
-5.71326e-05
9.77341e-07
0.0174817
0.00257238
-0.0916957
-0.0300793
-0.0209594
0.0380039
-1.26062e-06
0.0349202
0.0453988
-3.74245e-09
0.00419814
0.00202756
-0.0277032
-3.70815e-07
-1.76934e-10
-0.0619013
-0.000234962
0.000689867
3.06794e-05
0.0511721
0.0204022
0.0580764
0.0712675
0.00192195
0.0228419
5.10228e-05
-9.27089e-06
-0.0564061
0.191955
0.0147563
-0.0138295
-1.96281e-10
-0.00841732
-0.130489
-0.1205
0
0.0568089
-1.42308e-05
-0.0331943
-0.0128104
-2.41503e-11
-0.0610428
0.0129587
4.02043e-05
-0.0466769
0.00323264
0
5.15029e-06
0.279151
0.055445
6.51804e-05
-0.0976975
0.0324554
-0.00556377
0
0.155047
-0.0053587
0.0529114
-0.0207739
0.0324554
0.0083998
-0.100974
-0.0449137
0.203031
-0.000386867
0.100399
-0.11591
0.085149
-4.95646e-14
-0.00719424
-0.00453421
-4.2401e-05
-0.0123617
0.0315268
0.000825292
0.0152379
0.0267345
0.180397
-9.08479e-05
0.00821887
0.00419814
-0.0444806
-0.0426134
0
-0.0458686
0.0156829
0.0328271
-0.0207946
-7.80729e-12
-8.85445e-07
0.0247468
0.117528
0.0516698
0.00739381
-1.02381e-06
0.0192606
-5.66686e-07
-0.000202007
-0.0794558
-0.0276148
0.00121865
-9.19182e-07
-7.63695e-14
0.085675
-0.000229456
-0.0620976
-9.68563e-13
0.000528219
-0.181079
0.073088
-9.66976e-12
-0.0414881
1.07071e-06
0
0.14834
-0.0063168
0.047187
-2.139e-229
-0.100658
-2.69131e-05
-1.14746e-05
-0.0436072
0.0169763
0.0403255
0.0454036
-8.54734e-322
0.131202
0.046615
-0.0167878
0.0316935
-0.0351758
-6.5508e-10
0.0865584
-6.33721e-96
0
-0.0465121
-0.0697453
3.77886e-117
0.172944
-0.0490859
0.0796975
-0.0458494
0.0248736
-0.0138388
-0.0413256
-6.33721e-96
0.000592598
-0.0445518
0.000579661
-6.33721e-96
0.000825292
-1.22981e-07
0.00765921
-0.00856028
0.0427124
0.0268014
0.185905
-0.0261924
0.0113898
-1.5723e-05
-0.00115539
-0.0370642
0.102133
0.0789022
-0.154327
-1.28457e-321
0.0604758
-1.79197e-05
-0.00580664
0.0261693
-0.0793238
-0.106637
-0.00192737
-0.0132293
-1.37844e-321
-7.83889e-11
-0.0443029
-0.00174595
-0.0115306
0.04067
-8.54734e-322
0.0119958
-2.42462e-95
-0.279734
0
-4.83839e-06
0.00862836
2.41488e-07
-0.000234962
-0.0245495
-6.72301e-10
0.0118522
0.0176488
0.0995449
0.0447776
0.09316
-0.0669054
0.0781877
-0.0217773
-0.00515474
0.0265014
-0.000403774
0.0291863
0.0359772
-0.0194148
0.00419814
0.00113558
0.034115
2.04543e-321
-2.27152e-07
0.0457444
-0.0268904
0.00419814
-0.000191942
-8.54734e-322
0.0216558
0.0619679
0.0425788
-0.000337276
0.071516
-0.000226624
0.0188372
-1.4036e-05
-0.0136169
-0.0207946
-0.000132133
-0.0642739
0.0683363
0.0556504
-0.0476493
-0.0662051
0.0186231
0.0163866
0.229805
-0.0154412
0.15446
-0.0700826
-1.18186e-05
0.00409696
0.208343
0.0292633
-0.0132119
-0.0661618
0
0.0355221
-0.0121036
-0.0670489
0.007096
0.0239367
-0.00639697
0.0424824
0.00176022
0.0127159
0.0492175
0.10051
0
-0.118831
0.00144134
-0.0984933
0.0474874
-0.000234962
0.0118488
0.0308013
0.0974296
3.77886e-117
0.0142181
-0.0411728
-0.0493887
0.024722
-0.0923464
-0.250788
-0.046297
-0.168532
0
0.000545547
0.000312567
-0.0401178
-0.000300227
-0.0053587
0.0484004
0.000831345
-0.00348261
-0.000184857
3.5757e-07
-0.00834732
-0.0116862
0.0856443
0.0422605
0.0728214
0.0446765
-0.0356773
-0.0053587
0.14533
-0.00225795
0.04067
-0.0558966
-0.000368225
0.0109742
-0.000337276
-8.85445e-07
-0.0319061
-7.40943e-05
-0.0235484
-0.0422216
0
0.00164568
-0.0580612
0.0231711
-5.64594e-10
0
0.0337618
0.04067
-0.117678
0.00224137
-0.0344708
-0.145193
0.127697
0.0167363
0.00291754
-7.63695e-14
-0.0316143
-0.120624
0.00419814
-0.0582197
0.0154771
-2.50078e-05
-0.191025
-0.0351593
-9.66976e-12
-2.81248e-07
-0.0932618
-0.0448738
1.07071e-06
0.0341932
-0.00380391
-1.16422e-11
-9.4335e-08
-6.10844e-05
0.019159
0.00389893
-0.000182783
-0.0231426
0.0568966
-0.0739431
0.0127627
-1.07893e-08
0.00845996
-0.100583
-0.0239997
0.00165715
0.134994
3.14911e-251
-0.174774
-5.64594e-10
0.163429
-0.019613
0.0787219
-0.0765758
-9.66976e-12
-0.0358112
-1.8588e-05
0.000933787
-0.0138295
-1.26062e-06
-4.58572e-07
-0.0368389
-7.65811e-06
0.144865
0.023984
0.0628214
0.00916198
-0.0275451
-0.000234962
-0.0476634
-0.107108
0.00361259
0.0478325
-1.83083e-07
-0.0433523
-5.23344e-09
0.0399495
0.062024
0.0249585
-0.000207268
-0.000202007
-9.97152e-07
0.0386975
0.00216466
-0.017517
0.0604895
-0.0557177
-0.000234962
0.106041
0.00016707
-8.55278e-07
-0.0415109
-0.0367998
-0.00864504
-0.0419837
0.00338357
5.7147e-66
-0.107734
0.0153306
0
0.0134184
-0.0319123
-0.0924069
0.002911
-0.0198416
0.183203
0.0839
0.030615
0.0410671
0.0466765
-7.46636e-09
-0.0928215
-0.0762293
-0.0183722
5.9556e-08
0.0633391
0.00176022
-0.000234962
-0.00813639
-3.61899e-07
0.00726168
-0.0710662
-0.00128975
0.00871342
0.0691978
0.0320738
0.0777087
0.0109928
0.00980127
0.00316513
0.0132501
0.516667
-6.73183e-97
-0.000202007
0.00389893
0.0228543
-0.000174318
0.0176788
0.0826494
-4.63708e-06
0.00811111
-0.105197
-9.68563e-13
-0.0508401
2.04543e-321
0.0586759
8.8635e-05
0.0225304
-0.220153
-0.0258052
0.112716
-0.0969054
-0.0409534
0.0370407
0.00419814
-1.28457e-321
-0.0489695
-4.20826e-07
-1.83083e-07
0.0344344
0.000395083
-0.0394773
-0.0827109
0.0323337
-0.0117708
0.0154771
-0.0720138
-0.0164726
-0.0696271
0.0797105
-0.000217343
-0.0123727
0.04067
-2.74177e-05
0.0285228
-0.00770051
-0.0409534
-0.0621177
0.00318844
0.0337618
-0.107183
0.120313
-0.0380427
0.04067
-1.15592e-07
0.00565271
-0.000234962
-1.83083e-07
0.00949294
-0.0146516
-2.96731e-10
0.0351904
0.00887623
0
-1.8588e-05
0.00680901
-0.000368225
0.0598875
-5.64594e-10
0.0952595
-6.33721e-96
0.0805103
-0.0661618
-0.0273783
-0.0214564
-0.000866174
-9.1838e-85
-0.00174595
0.0289707
0.00949294
-0.000234962
-0.0299039
0.0705031
-0.0207739
0.0383428
-3.61899e-07
0.0351903
-0.000147124
0
-0.0448738
0.00394165
-0.0362355
-0.0335732
0.000829653
0.181724
-1.78588e-06
-0.0171029
-0.000341913
-0.0205722
0.151995
-4.37407e-08
-0.064053
-2.29104e-94
0.0466
-1.14254e-12
-0.151528
0.0445588
-0.000273124
5.04979e-05
-0.0693203
0.00935457
0.00425478
-0.0309662
0.00174304
-0.000273124
0.0373035
0.0109928
-0.000234962
0.0322684
-1.88889e-09
0
-0.000274574
0.155064
-6.10858e-05
-0.000234962
-0.00401064
0.00244405
-0.100119
0.020609
-8.25183e-06
0.110143
0.0801696
0.127216
0.00272737
-0.213642
0.0543491
-0.0697453
-4.69785e-06
0.00419814
-0.0771363
0.0291863
-0.0158141
-7.46039e-322
0.115352
-9.67434e-87
0.00870966
0.00266042
2.93114e-05
-0.000234962
-4.95646e-14
-0.158031
-0.0739431
0.0306578
0.0200818
0.000729338
0.0109928
0.0109928
-0.0300793
0.0026802
0.0114003
0.00185172
0.0928631
6.72442e-05
0.088095
-0.000234962
0.00422541
-0.0565747
0.123622
-0.0910203
0.0698199
-0.0771491
0.0972578
-2.41491e-07
-0.0889797
-9.68563e-13
-0.0497542
-0.279903
0.0105248
-0.0409534
0.00686738
2.41543e-06
0.0547899
-1.58635e-07
-0.00561506
0.0228419
0.0329551
-0.00481623
-0.0849239
-0.0136169
-0.0163458
-0.0359941
-0.0053587
0.00349126
0.0514999
-0.0179316
-0.0238774
0.0624193
-0.0367873
-0.0088766
0.00194976
-6.33721e-96
-0.00213443
-6.33721e-96
0.0398366
0.0206253
-0.0578049
0.0456831
-0.000101247
0.0259288
0.0232464
-0.00362257
-3.94871e-05
-0.0281603
-0.0275899
-0.00450828
-0.190625
0.000547744
0.0140557
0.00993621
-0.0160736
-0.0557177
0.054853
-0.0279115
-0.0372175
-1.96281e-10
0.0154841
0.0146424
-0.0272429
-0.0281606
0.0298177
0.00980127
-0.0248529
9.88131e-322
0.0264296
-0.00216063
1.60976e-05
0.00192195
0
-0.0263452
-0.0440462
-0.00412246
0.0504155
-9.68563e-13
0.00389893
0.00058795
-8.25183e-06
-6.57394e-05
0.0166475
0.0262987
-7.41865e-05
-6.53095e-05
-0.00864527
-0.153324
0.0840452
-0.000368225
0.00425377
0.00870966
0.013119
0.000479993
-0.00213443
0.0610337
0.00541475
0.00503742
-6.37085e-07
0.00166285
-0.0458494
-1.15055e-05
0.00821887
5.28654e-07
-4.06266e-06
-7.46039e-322
0.0567933
-0.0100743
-0.0625828
0.02038
-2.7583e-05
0.0268316
-0.0234016
0.00564786
-0.0023274
0.0258101
-4.63708e-06
-0.0169707
-2.35197e-06
-1.28457e-321
-0.0645543
-2.50506e-07
-0.0761931
0.0237874
0.0150547
-9.66976e-12
-0.0190701
0
-0.0300793
0.000780715
0.0281036
-0.00695831
0.118506
-1.39768e-06
0.00197296
0
-7.65811e-06
-0.00719424
0.0171625
-0.0869877
-0.0465978
-0.056332
-0.0183533
0.0187229
0.00465988
-0.00813639
0.0413351
-0.0670672
0.309443
0.0729725
0.00565271
0.0295549
0.00765996
-0.000229456
0.0164474
0.118737
-0.166037
-0.000132133
-0.0136169
-0.243777
-0.121622
-0.00458994
0.0168248
0.0156829
-0.0742919
-2.50507e-07
-0.000337276
0
0
-0.0958516
0.0472817
0.0494624
-0.0277795
5.44569e-05
0.000226187
-0.00739914
0.000226187
1.79346e-321
0.0169763
-0.0401194
0.128012
-0.0436072
-0.0441769
-0.00478779
-0.138962
0.0214251
0.0709863
-0.103017
-0.0279411
0.0161935
-0.0663861
0.0517288
-0.056462
0.0228419
-4.40035e-05
-0.00174595
-1.26062e-06
-8.54734e-322
-0.0324811
0.12108
-0.0465626
-0.0235395
0.0226277
0.0117003
0.0323359
-4.95646e-14
-2.29529e-07
-0.108453
0.135633
0.0161935
-2.41503e-11
-0.00989776
0.00728087
-0.309081
0.0360851
0.00284712
0.0347451
0.0356191
-0.0414881
0.0142181
0.0637519
-0.0118174
0
-0.000294566
-0.072252
-2.52237e-07
0.029242
0.0127627
-0.015803
-0.0321939
-0.0259423
-0.0113726
-8.85445e-07
-0.0445782
-0.028165
-0.0161422
-0.0234215
0.197795
-0.0452703
2.78047e-05
1.00295e-321
-0.0873613
-1.76934e-10
-5.64594e-10
0.000381213
-0.173281
0.128802
0.0128017
-7.16529e-05
0.0244615
-0.0905019
0.423351
-4.18758e-12
-1.0238e-06
0.319773
-0.0053587
-1.06597e-12
0.00700163
-1.62749e-95
0.155055
0.319778
0.0804595
-0.00504613
-0.0693203
0.0506216
-0.016936
-0.0084881
0.000629629
5.28654e-07
0.00944039
0.0351903
-0.179761
-0.235175
0.00389893
-0.000234962
-5.11306e-09
-0.0786859
-0.0410695
-1.04968e-12
-0.0621177
0.00176022
-0.601998
0.0820528
0.00707329
0.0205082
-0.0805868
0.0830195
0.0202504
-0.057008
-0.135241
-4.37407e-08
-0.000233296
0.119179
-0.0919946
-0.050087
0.00140646
-0.000143627
0.000340038
-0.0055369
0.0109928
-0.0129114
-0.00128975
0.0153306
-0.0436776
-0.0367998
0.00141861
-0.0233814
0.15855
0.059616
-0.0614258
-9.79253e-06
0.00266691
-0.0627877
0.00851246
-0.000325669
-0.00797244
-0.000234962
-0.0337614
0.00277923
0.194148
0.0117978
0.0276205
0.0570468
-0.00366285
0
0
-0.0666244
0.0154446
-0.0765758
-0.000337276
-9.58487e-322
-0.000194361
-0.00128975
0.0253314
0.0141082
-0.0241507
0.0281535
0.013987
-0.177982
-0.0332465
-0.0248529
-7.63695e-14
-1.04968e-12
0.00320922
0.00834118
-0.0639256
0.0184033
-0.0557177
-0.0063168
0.00116073
-0.0936432
-0.0258752
-0.0330575
-2.50506e-07
1.99309e-05
-0.0415294
-0.0534711
-9.22536e-36
0.00128088
-0.0953764
-0.0175871
-0.00918404
-4.61497e-14
0.430265
0.02887
0.022435
1.07071e-06
-0.0446362
0.0392005
0.194171
0.00185231
0.0192466
-1.51678e-321
0.0193102
-5.10777e-07
-5.42386e-11
-0.0426647
0.00396411
-1.18186e-05
0.0659348
0.093419
0.0338065
-6.73183e-97
0.00484326
-0.0344557
0.346943
-0.0401175
-0.0103243
0.0535849
-7.14269e-05
-9.97152e-07
-0.19095
-0.000217343
-0.0986282
0.0236215
0.203749
-0.00612746
-4.83839e-06
-0.028147
0.0109928
-0.0328317
0.0322509
0.0214747
0.000533485
-0.00587484
3.22096e-06
0.00307805
1.14202e-05
0.131476
0.0593731
0.112628
-0.0452456
-2.68167e-05
0.0901603
-0.0071019
-0.154601
0.0101784
0.0232405
-0.000273124
0.0184033
2.04543e-321
-0.0395791
0.0323337
-4.95646e-14
-7.83889e-11
-9.66976e-12
-0.0589081
-0.0100808
-4.74044e-06
0.00015304
-2.29529e-07
-0.00808653
-1.18186e-05
-6.10844e-05
0.0447335
-0.0416051
-0.0190864
-2.35197e-06
0.0139585
-0.00174595
0.0194115
0.0264652
0.010809
0.171501
-0.131385
0.0132501
-5.64594e-10
-0.0592633
0.00262227
0.0268543
-0.000234962
0.060193
-4.83839e-06
0.0927344
0.161262
-0.00918232
0.0964191
-0.0793238
0.0589012
-1.42794e-09
-0.000273128
-0.0446362
-1.38338e-322
-0.0820383
-4.61497e-14
0.0464109
-0.000368225
0.0823563
0.0549868
-0.0684896
-7.65811e-06
0.0656125
-0.000187678
-0.00213443
-0.153315
0.0109928
-0.0237519
0.019536
-0.0364343
0.017769
-0.0633382
5.15128e-05
-0.295314
0.175309
-0.0328317
-0.0418093
-0.0361684
0.00739381
-0.0216653
0.0410042
-0.0273331
-0.0193566
-0.0200407
-0.0297017
0.104309
0.0247468
-1.14254e-12
2.34461e-250
-4.09801e-06
0.0310469
-0.0545346
-8.55278e-07
-0.177406
0.0687667
-9.66976e-12
-0.0220699
-0.117088
0.0142181
-0.0056737
-0.0358112
0.175247
-0.000273128
0.0112041
-9.66976e-12
0.0653426
-0.020622
-0.062171
-0.0053587
0.0347709
0.0698888
0.104898
1.79346e-321
-2.27656e-97
-0.309918
0.0331821
-0.000234962
-7.35352e-13
-0.0596812
2.45349e-251
1.4711e-06
0.00739381
-7.46039e-322
0.00147304
3.21496e-05
-0.0515141
0.143098
-6.5508e-10
-6.10844e-05
0.0392005
0.0145635
-0.0147549
0
0.0447776
-0.000109817
1.06719e-91
-2.36252e-11
-0.057008
0.11376
-1.83083e-07
-0.0710662
0.00812893
-6.33721e-96
0.0292606
-6.33721e-96
0.00419814
0.000670424
0.347623
-6.21803e-09
-2.139e-229
-0.100547
0.042973
0.0449367
-0.0215357
0.015722
-0.0356773
0.0975796
-3.84343e-09
-0.000184857
-0.0340497
0.00558792
-0.0053587
0.000492802
-2.29529e-07
-9.68563e-13
0.0168568
-0.0538299
-9.66976e-12
-2.0007e-05
0.00276982
-1.56287e-09
-2.42726e-06
-0.0275454
-0.0217773
-3.61899e-07
-7.38291e-06
-0.121998
-0.00014295
-2.35197e-06
1.00295e-321
3.14911e-251
-0.000109817
0.10282
0.158768
-0.0744197
-0.023011
-1.32796e-05
-0.164854
-0.0053587
-0.0053587
0.0339114
0.0888142
0.0280028
-0.00168043
-5.64594e-10
-5.10155e-06
-0.0273149
0.0306743
-0.0463468
0.000729338
-0.0465626
-0.0132119
-0.000309934
-0.0132119
-1.48503e-08
-0.0607689
-0.0212553
0.00765996
-8.54734e-322
0.0109928
0.0257354
-0.0385987
-0.000390884
-4.06266e-06
0.0346761
-0.0709365
-5.74177e-12
-0.096647
-0.000300227
-1.76934e-10
-0.000174318
-0.0739465
-3.92511e-85
-7.40943e-05
0.0537204
0.176015
-1.83083e-07
-4.61497e-14
-0.000333546
-0.135955
0.0107975
-0.0311116
-0.0202678
-0.0582524
-2.81248e-07
0.0153004
-9.08479e-05
0.0430317
-2.01544e-95
-0.0750819
-0.000132133
2.34681e-321
0.230394
0
-7.98917e-05
-0.0112049
0.0265079
-0.00871059
-0.0486937
0.0280028
-0.069984
-0.0812103
0.0192616
0.0189762
-9.66976e-12
0
0.0447776
0.0726745
-0.000334656
-0.0853652
0.0490637
-1.06597e-12
-0.0216654
-0.000234962
-0.0637312
-0.011926
0
0.00739381
-9.67502e-06
0.0637059
0.0475752
-0.0132293
-9.66976e-12
-0.0238062
3.2979e-06
-1.11357e-07
-0.0423819
0.00636778
-6.33721e-96
-0.0408595
-0.0172221
-0.000127116
-0.238751
0.0625249
0.0109016
-0.115246
0.0839497
0.0425788
0.00244405
-0.000234962
-9.65761e-05
0.00453033
-6.33721e-96
7.86757e-05
0.0307229
0
0.106041
0.0506859
-0.000839144
0.00164568
-0.0650425
-0.0228103
-4.39061e-06
0.00938896
-0.0210973
0.0184033
0.00739381
-9.66976e-12
-0.0450243
-0.0853037
-0.212762
0.0152507
0.0155413
-0.0207739
0.0337684
0.00419814
-0.000325669
-0.0233814
-0.0450243
-0.0515736
-0.000223746
0.417949
-0.00532426
0.0117246
0
-0.0300793
0.0371529
-9.68563e-13
0.063953
0.00266691
-5.64594e-10
0.0179046
-0.00366285
0.024909
0.00419814
0.0595247
0.0288783
-2.68694e-05
-0.000184857
-0.0177489
-1.67488e-321
0.00938896
0.0219296
0.0247202
0.0327299
-0.0996338
0.0972702
0.0323337
0.131476
0.0126385
0.376755
-2.35197e-06
-0.0507985
-7.63695e-14
0.00862836
-1.22981e-07
-8.65132e-05
0.00419814
0.0280482
-0.0647854
-1.53674e-05
0.102147
-0.0053587
-1.42794e-09
-0.00559769
-0.0555603
-0.138038
0.0140773
-7.91084e-05
-0.0138237
-0.00744373
