-0.000222446
-3.80541e-13
-4.61545e-10
-0.0377836
0.00798444
-3.66818e-07
-1.60054e-09
0.081342
-0.122652
-1.60054e-09
0.0214916
2.35111e-197
-0.103631
0
0.0479673
-5.1421e-11
-4.01383e-06
0.0140328
-7.69903e-05
-0.00903015
0.0344483
-0.115617
-0.00281733
-0.000241257
0.0172107
0.0479673
0.130302
0.0115793
-0.0207841
-0.0541357
0.0184163
0.00588957
-5.38155e-10
-4.38858e-06
0.00163009
-0.000443944
0.0139802
-0.000225144
-1.46902e-08
0
-0.00856311
0.0767365
-1.58354e-22
0.0190424
-0.031051
0.0277575
0.0108398
0.0189823
0.00970195
0.0417631
0.0562927
0
-0.000228909
0.060791
6.26518e-208
-1.3675e-19
0.0184956
0.011947
-3.33649e-08
-0.00529042
-0.000228196
-0.0232424
-6.62048e-322
0.116874
-6.81811e-322
0.00390166
0.0804781
0.00327378
0.139241
0.00758198
0.0144397
-0.0406369
-0.0177547
-9.14753e-07
-0.131267
0.000487328
0.000442586
0
-0.00988521
-0.0138825
0.162673
-0.0175758
-0.0002278
0.0702296
0.0594165
0.287142
0.0131104
-0.0306911
-0.0218975
0.00390166
0.0328889
-0.00800304
-0.288669
0.021402
-0.0164748
-2.61676e-07
0.107907
0.127379
0.0121848
0.00690688
-0.000228909
-0.000228196
-8.28104e-15
0.0304652
0.0337835
-0.000225423
0.00230914
-9.51729e-07
-1.52856e-05
0.257566
0.01789
-0.0245931
-0.0286194
0.0628738
-7.46039e-322
0.000142619
0.0185469
-4.89349e-09
-0.0748933
0.071524
0.0744992
0.011702
0.189867
-0.12457
0
-0.0466608
-0.0717484
-0.103862
0.0085255
0.0275058
0
-0.0238286
-0.00133475
0.031715
-0.0272517
0.0738181
-0.04794
-1.3675e-19
-0.0669786
-0.000691207
0.121986
-0.00880589
-4.35612e-06
-0.197331
-0.0394625
-3.86064e-09
0.105807
-0.0463297
0.0113932
-0.0578397
-0.0411353
-0.0110327
0
0.00675271
0.3896
-0.000443944
0.0267921
0.01997
-0.0061651
0.00837156
-0.0162581
-7.85652e-06
-0.0448728
-0.114603
-0.000228196
-0.0505018
-9.53547e-322
0.0163681
0.0256635
-0.0167067
0.0217465
-0.00113537
-0.0162031
-2.30043e-10
-0.0970979
-0.00781395
0.00815285
-0.0452418
-0.0157467
-2.97742e-10
-0.000228909
-5.73116e-322
-0.049961
0.025946
-0.027859
-2.32153e-10
-0.0593371
0.369476
-0.0103136
-0.000241257
-0.0408696
0.0330831
-0.0510684
0.0184956
-0.0720129
-0.0710886
-0.000165334
0.00815347
-4.71671e-09
-0.0662246
0.00127522
-0.038014
-2.31433e-07
0
0.102201
-0.000228196
0
0.434656
-0.132444
-0.0245931
-4.17216e-11
-0.00290622
-0.0193085
0.207353
-0.158396
-1.60054e-09
-0.101213
0.0018296
0.033197
-2.20524e-12
0.000134685
-0.0640056
0.00828027
0.0456057
4.89125e-322
-4.75589e-09
0.000502797
-0.157048
0.0286271
-1.3675e-19
0.0172197
0.00037498
0.00675174
-0.0598795
-0.0870623
-0.062077
0.121504
-0.00810257
-0.053419
-6.13304e-05
0.102727
-0.132732
0
-0.0200837
0.0137813
0.000132442
-1.70972e-06
-0.00164394
0.00226795
-1.47337e-08
-0.0290922
-0.0938102
-5.37171e-11
0.0642072
-5.73116e-322
-4.35612e-06
0.0157186
-7.14555e-06
0.0175593
-0.135827
-0.0164489
-0.0602873
-0.0298414
-0.0157467
-0.00903015
-0.0129437
0.0185474
-0.112214
-0.0118084
-0.166688
-0.00418605
-0.000213097
-0.0193693
0.0288991
-0.0355154
0.0418491
0.0359936
-4.61545e-10
0.0191857
-1.73265e-05
-2.80812e-15
0.081342
0.218278
-5.86887e-05
0
-6.16269e-09
0.062278
0.0216245
0.063546
-0.0590239
-0.0123519
0.00777565
0.0337564
0.0357612
0.0432994
0.000413803
-0.0246241
0.27781
-0.124821
0
-0.0333312
0.0315392
3.74902e-05
-4.89349e-09
-0.00047216
0.0853731
2.35111e-197
0
-0.0459304
9.19852e-05
-1.93908e-05
-1.19583e-06
-1.14209e-07
-0.0230967
0.0121279
3.19415e-170
-0.027859
-0.0333341
-0.111295
-1.53922e-06
-0.0078221
0.47169
0.0952426
0.0202001
0.0162719
-0.000348133
-0.013646
-0.0899297
0
-0.167253
0.0669918
-0.0365642
0.107043
-0.0177547
0.0225323
0.0526231
-0.00880563
0.0240133
0.00988882
-0.0633652
-0.0779898
-0.000238283
-0.0557663
-0.066948
-2.20524e-12
-2.14633e-24
0.0670812
0.00521777
-0.0516671
-0.135655
-0.0209634
-0.0289843
-0.020155
0.233493
0.0108398
0.000356178
-9.14753e-07
-0.0402934
-0.0313491
-6.13304e-05
0.259524
-0.0123754
0.00656098
-0.136934
-2.8387e-07
-0.0338898
-0.0483569
1.02272e-321
-0.0876007
-0.00529042
-0.0176985
-1.00765e-05
-0.0868288
-6.02474e-14
0.00840622
-0.000228196
-0.0137978
-0.0128452
-2.6883e-10
-0.000228196
-0.0296486
0.00815347
0.125796
0.00970195
-0.0618723
0.00825651
0.00494806
0.0516295
0.0180169
-0.000213097
0.0780288
-0.000228196
2.46566e-06
-0.0417127
-7.14555e-06
0.00390095
0.0275058
0.0204051
6.3341e-05
-4.75589e-09
-8.28104e-15
0.0847122
0.143966
-0.000231978
0.0200123
0.00675271
0.0876077
-2.31433e-07
0.0231191
-2.71035e-08
0.061064
0.00841112
-2.80812e-15
0.02124
0.0464156
-0.0367318
0
0.0691131
0.00163009
-0.0572578
-0.0115765
-1.56346e-07
0.181732
-1.1803e-08
-0.053419
-0.00157929
-5.37171e-11
0.0548453
-0.0537127
-4.12382e-09
0.00790211
-0.0559748
0.0695936
0.0132385
0.0702296
0.0184956
-0.0469623
0.00239409
-0.301662
0.116397
0.00466823
0.0670221
-0.0103136
0
0.0246152
1.13635e-322
-0.0291088
0.0977691
0.0361548
-0.0857978
-2.14633e-24
0.0102876
0
-0.0245931
-0.000228196
-0.133018
0.000830687
-4.62208e-06
0.00697545
0.114584
0.0172107
-0.000230795
-0.0123519
0.0754932
-0.110416
-3.91052e-08
-0.0503063
0.0239762
-1.1632e-09
0.0636078
-1.07192e-09
-1.58984e-05
0.0702934
-0.0913453
-0.000213757
-0.0237351
-0.0056053
0.00216836
-0.0845732
0.0673746
-0.266691
0.0339172
0.0257744
0.00828431
-0.128305
-0.0228449
-0.117591
-1.66483e-05
0.0244773
-0.130123
-1.3675e-19
0.143692
-0.0189871
-0.0202556
-0.0901154
-0.00418605
3.85371e-322
-2.51667e-08
-2.30043e-10
0.0108875
0.017906
-0.0245931
0.00746387
-0.0471731
0.0594165
-1.00765e-05
-0.0123519
-0.0407373
0.00405382
4.25925e-05
0.015938
-0.0328496
-0.0779535
-0.053868
-3.55411e-20
-0.0477539
-6.11219e-15
0.0148134
0.0323038
-1.00765e-05
-5.19853e-07
-0.10344
0.167864
-0.00508947
-0.049939
-5.11143e-05
-1.70723e-10
-0.0756038
-0.0131905
-1.1632e-09
0.0616823
-0.171579
0.0174714
-0.0115658
0.00801251
-0.0169249
-0.00825676
-2.4821e-09
-0.000170465
-7.24627e-11
-0.111871
0.222568
-1.03558e-05
-0.0126338
-5.49368e-05
-0.109643
0.0210496
0.187576
-1.88833e-05
-0.155408
0.0675195
-0.0940204
0.0113545
-0.0288626
-0.0298687
0.00580319
0.00331449
0.0582757
0.0282894
-0.0557896
0.00109251
0.0443169
-0.0383893
0.32776
0.0041245
-0.000225717
-1.96863e-08
0.000204157
-0.0501409
-0.103862
-7.14555e-06
0.00804502
-0.000342647
-0.0904698
0.121632
-0.0113424
0.0156286
-0.0504127
0.0349584
-0.00908099
0.0330976
-0.0159986
0.140154
0.000241106
0.133305
9.76758e-06
0.0144786
-0.0555504
0.0148586
-0.00621775
0
0.00359652
-0.0720421
-0.0178905
0.00162712
-0.000228196
-8.28104e-15
-5.67198e-07
-0.0563065
0.0302234
0.0206594
0.0172107
0.0353827
-0.0908655
0
-0.0732698
-6.4266e-09
0.2782
0.0921911
-0.00789501
9.7931e-198
-0.0975631
0.135153
-0.0607632
0.0176192
-0.050539
0.0581816
-3.88976e-08
-0.102303
-0.122652
-0.0159915
-6.58657e-10
0.178942
-0.0140544
-0.0902396
0.0321391
0.00405382
-0.0113567
-0.00769156
-2.14633e-24
0
0.0217052
-0.103862
-0.028624
-1.58354e-22
-1.3675e-19
0
-0.240018
0
0.00359652
0.0687681
-0.0137905
0.208732
0.00675271
0.00691398
0.0225368
-0.143248
0.0288347
0.00405381
-0.00731295
-0.019862
0.089291
0.00575707
-0.0462946
0.0233074
0.0671511
-0.000241257
0.0275625
-0.0471231
-0.0114425
0.0339172
-0.0837416
-0.0407373
-0.0530375
0.0540548
-0.0200694
-1.24505e-321
0.0104113
0.148426
-2.75559e-07
0.013054
0.00825651
-2.19755e-06
0.0784301
-0.152319
-4.48333e-07
0.00285625
0.0893052
0.0736218
-0.0695029
-1.29205e-07
-4.61545e-10
0.0125173
2.63301e-206
0.0396809
-0.00239474
0
-3.6351e-05
0.0294119
-0.000237359
0.119659
-0.0145764
-0.000220703
-0.0600202
-7.10777e-12
0.0792665
-0.0164489
0.415796
0.0595877
-2.80812e-15
0.120007
-0.00477941
-0.000228196
0.0076954
-1.96476e-13
-0.0739637
0.0179275
-0.0193686
-0.0863685
0.00618714
-0.119281
-0.0230967
-1.3675e-19
-0.0941015
0.0335904
-0.114731
-0.0360262
0.02403
0.00143659
0.0907952
-0.0820275
-9.53093e-10
-0.0245931
-0.000229767
0.01536
0
0.0655349
0.0165724
0.192165
-8.73864e-09
0.0256915
-4.38387e-12
0.0334873
-0.0132225
0.0248224
0.188856
-0.0122639
0.15273
0
-0.0998726
-0.0144778
0.100612
0.199073
0.0380839
0.00814891
-0.0775007
-1.70723e-10
0
0.0129716
0.0238854
-0.0056053
0.0434009
0.0829342
0.0166728
0.0081593
0.0300654
-4.12382e-09
0.00319875
9.52788e-05
-0.0550237
-3.39339e-20
-1.56346e-07
-1.70972e-06
-4.38858e-06
-4.79244e-322
0.498341
-5.11143e-05
-0.106839
-0.0100463
-0.175961
0
-5.37171e-11
-9.76476e-07
-0.00259473
-0.0701176
-0.0090404
-0.0213166
0.0578009
-0.0512716
0.0440574
0.0184411
-0.000592046
-0.0103136
0.0083105
-0.0056053
-2.1541e-13
0
-0.0113212
-8.28104e-15
-0.0881577
-0.356052
-0.00781395
0.0223461
0.0714096
0.0058153
-0.00781395
-0.0356806
-4.27854e-08
0.0557951
0.335325
-1.3722e-06
0.0380208
-0.0376082
0.0206219
0.00675271
-0.000244422
0.0100699
0.00618714
-0.000228196
0.149474
-0.0322669
0.0076954
-6.00823e-07
0.00390166
-3.5618e-05
0.000449604
0.174269
-0.0515037
-0.0202234
0.0601792
0.00919933
0.00828431
-9.6103e-05
-0.0417245
0.0314839
0.00795307
0.151696
-0.0164489
0.0209435
0.333128
0.0541349
0.0466199
0.0824657
0.067832
0.0076954
-0.0367318
0.0123788
-0.0526354
-2.06927e-06
0.00144076
-0.0525459
0.0330976
-0.00891439
0.00532294
-0.0113155
0.0365075
0
-0.027859
-0.000453618
-2.88275e-11
-3.15939e-05
-0.053419
-5.38155e-10
-0.0193085
-0.0330108
-0.0202657
-0.000221965
0.0337835
-0.000254478
-0.000230795
0.0121584
0.0076954
0
-0.032124
0.00837156
0.00252172
0.0751941
-0.0431533
0.00777313
-1.3675e-19
-0.000244185
-0.0173436
0.011109
-0.0771651
-0.0310332
0.101076
-0.0622792
-2.80812e-15
-0.0306491
-1.93908e-05
0.0202001
-0.102963
0.0794682
-0.0975354
0.0301976
-0.0226096
0.0526804
-2.14633e-24
0.0568514
0.0140328
-0.0215117
0
0.0302683
-0.0857434
-0.107391
-0.0113567
-0.101712
0.0321271
-0.00736223
-0.0313788
0.0926544
-4.499e-23
0.00769538
-0.0449014
-0.0058335
0.00970195
-3.88976e-08
3.90312e-322
0.0377495
-5.1421e-11
0.00405382
0.0214492
0.02403
-0.0715743
-0.000241257
-1.77314e-14
-7.6935e-05
-0.0477795
0.0204051
0.0292857
-0.0790384
0.00675271
-0.0156929
0.0148586
1.85887e-208
-0.0139344
2.095e-173
-0.000228909
-0.0181247
-0.0700655
0.00465835
-2.3534e-08
-0.0654888
-0.0485532
1.18398e-208
-0.00596758
-0.0476529
0.0731237
-0.00164394
-5.1421e-11
0.00820737
-0.0358483
-0.00940299
0.0395857
-1.93908e-05
0.00815347
-1.96476e-13
0.00832278
1.85887e-208
0.186664
0.000272075
0.0528149
0.00359652
-4.17216e-11
0.00666094
0.112345
-0.016098
-0.0706318
-0.000225682
-1.97626e-323
0.0159063
0.0906006
0.0726166
-0.032314
0
1.02272e-321
-0.0428558
0.0460671
-0.122541
-0.0201946
0.0622746
-0.0192067
0
0.00299522
-1.70972e-06
0.0192925
-0.0419699
0.00556225
-0.0714901
-0.0287746
-8.90834e-05
0.0472172
-0.0068863
0.00691398
-0.000223096
0.00037498
0.00114747
-0.0752527
-0.116516
-0.0457103
-5.05125e-176
-0.0456035
-0.000228196
0.00724906
-0.0544588
0.0568373
0.0767234
-0.000227251
-0.000235713
0.136498
-4.17216e-11
-0.0927965
0.0118912
0.0204051
0.0400111
-2.61676e-07
-3.05178e-09
0.0225369
-6.94907e-05
0.00815347
0.0139119
0.0224806
-0.000228196
-0.0238286
-0.0360262
0.0394351
-0.0121357
-0.015826
0
0.0294519
-1.47338e-08
-2.28505e-05
0.00127435
-0.0683543
-0.0245931
4.63191e-208
0.0834396
-8.74226e-07
-0.000471179
-0.030656
-0.0308445
0.00675271
0.0702763
-0.000228196
0.0249884
0.0190424
0
0.121866
-4.39373e-07
0.13397
-0.00976307
-4.39373e-07
-0.000248716
-0.0577964
0.00662403
-0.038372
-0.019143
0.0225369
0.00809953
-1.49412e-10
-0.117939
0.00821001
-0.000213098
-2.7237e-15
0.000268889
-0.00781395
-3.80541e-13
-5.11143e-05
-0.0298414
-0.0120647
0.00230914
0.00805026
-0.0293717
-0.0376082
0.0448977
0.00276703
-0.033475
0.00830571
-4.27854e-08
-1.73509e-09
0.166777
0.0794887
-0.0157467
-0.284839
-0.0103136
-1.58354e-22
-0.0333312
0.00691398
-0.102008
0.0243751
0.0880279
-0.047165
0.00163009
0.0529838
0.00186254
0.0144786
0.00409631
0.0285737
0.229034
2.35111e-197
0.0336822
-0.0162517
0.089
-1.3675e-19
-0.0199328
0.0137284
-0.113828
5.64177e-08
0.0128612
0.00830571
0.0273813
-0.000228196
-0.000228196
-6.97218e-06
0.114637
0.0789719
0.00163009
-0.000228196
-0.0133239
-0.0544527
-4.62208e-06
-0.0292104
0.0250746
-0.209819
0.0733353
0.00830571
-0.0314616
-0.0245931
-0.0337131
-0.103573
0.0235596
-0.0749928
-0.00623661
0.0375913
0.0153953
-0.0950643
-2.32153e-10
0.109814
-0.000238283
0.134611
-2.32153e-10
-0.0181247
-7.50431e-07
0.0596792
-1.3675e-19
0.0778778
0.00838673
-0.000451781
0.00782325
-0.0700523
0.0319108
8.49793e-322
0.0452984
-0.027859
-0.0642686
0.140894
-0.0806131
0.059677
0.0337835
0.05409
-1.96476e-13
-0.0312258
0
0.0628799
-1.70723e-10
-0.0166856
0.024403
0.02413
-0.00330747
0.021261
-5.1421e-11
-0.025558
0.0433219
-0.0384743
0.0377495
-6.16091e-15
-8.02373e-21
-0.000305131
-0.00418605
-2.8387e-07
-4.27854e-08
-0.000221965
-0.000241257
-0.0513464
0.00859659
0.00656098
-0.000281588
-5.18769e-322
-0.0229713
-0.169014
0.0181112
-1.00765e-05
-0.174012
0
0.00563997
0.0185531
-0.0056053
-3.73937e-07
0.109137
0.00746386
0.112268
0.0439802
-6.16091e-15
-1.07192e-09
-0.129623
0.0535127
0.00722546
0.00563997
0.0693168
0.0442208
9.1669e-06
0.00732154
0.038179
0.0876077
-0.000230795
-1.21307e-08
-1.91014e-07
-0.00155602
0.215981
-0.00238523
0.0144786
-8.47197e-06
1.02272e-321
0.00841202
-1.19583e-06
0.0785522
-0.0245931
1.91697e-321
-1.27907e-06
-0.000245061
0.00824709
-0.055561
-0.0199159
0.156711
-0.0112508
-0.113142
-0.0676516
0.18471
-2.66775e-05
0.00440714
0.0245468
0.00179338
0.206817
0.0352518
0.0499885
-9.5184e-05
0.0290868
0.0027635
-0.316865
-0.0689203
0.017154
0.00029796
-0.000442006
0.0519612
0.0377578
-4.75383e-09
-0.0561617
-0.0121357
-0.0132222
-0.0132222
-0.04102
-0.0158855
-0.00958345
0.00311767
0.00615581
-0.00976307
-0.0811307
-0.0202657
0.00615581
0.02403
-0.0597117
0.0655952
-5.05125e-176
-5.19853e-07
-0.0642595
0.0946363
-0.0527544
0.0070832
-0.0309403
-0.0338913
-6.75182e-06
0.0204051
0.0145244
0.00691398
-0.0519701
-0.135921
5.5887e-05
-0.200654
0.0240466
-0.0231118
-0.0935299
0.00329496
-0.0177547
0.0493385
-6.97218e-06
-0.136186
-0.000238283
0.0458855
0.0656434
-2.82377e-05
0
-0.0193085
0.106893
-0.000225144
0
-0.0374445
0.046645
0.0425071
0.0607533
-5.01214e-05
-0.0807442
0.0162673
0.00394982
-1.18817e-05
-0.0961611
0.000296348
-5.75886e-06
-2.06302e-07
0.0789634
0.0351684
0.0202001
0.0253484
-4.00193e-322
-0.0068863
-6.71425e-05
0.00188264
-6.37518e-09
-0.0503371
0.0996332
-0.0617209
0.0113932
0.0629492
4.00861e-08
-2.6883e-10
-0.013417
-0.05683
-0.0207444
-0.0846852
0.1532
9.0441e-06
0.019752
0.0922362
-0.0313788
-0.0313788
-4.75589e-09
-1.08118e-10
0.00656098
0.042083
-0.0103136
-0.102887
-0.0245931
-6.00069e-16
-0.160344
-0.0888482
0.00675271
0.0550816
-0.0850259
-0.0858768
-0.0417671
-0.000230353
0.075046
0.00332232
-0.0423253
-6.75182e-06
0.0157899
0.00129147
0.0317851
0.180056
2.1915e-05
0.0631947
0.0365075
0.0258945
-0.0660722
0.0244773
0.0343846
0.0591808
-0.0544287
0.0108875
0.00804502
-0.0300854
-0.000225423
-0.0308678
0.00656098
0.0286675
-0.000240814
-2.4821e-09
0.000142619
0.00675271
0.034952
0.0104064
0.204203
0.0129023
-4.17216e-11
0.130558
0.000596395
0.139134
2.35111e-197
-1.9208e-09
-0.0898706
-0.0367318
-0.053868
-0.049961
-0.0873344
0.0734291
-5.73116e-322
0.00947725
-7.13649e-07
0.0365075
-0.0385123
-0.0254646
0.0545018
0.0181014
0.00455016
0.00798444
0.0183131
-0.000228196
-0.111506
0
0.00805026
0.00815347
-0.103292
0.0186476
0.00700962
-0.037818
-0.000228196
0.00848257
0.0626589
-1.58354e-22
-0.000228196
-0.00781395
0.01932
0.0104936
0.00818344
-0.0131905
-1.58354e-22
0.0827456
0.024312
-0.0309701
-0.0461492
-0.0242262
0.0329684
0.00658647
-6.37518e-09
-5.21152e-14
-0.0835868
0.0108398
0
-0.000219861
0.0355268
-0.157375
-0.0407373
0.00405382
-0.11392
-0.0123519
-1.96476e-13
0.02403
0.00524663
-5.95703e-16
-2.8387e-07
0.00216544
0
0.0193078
-0.000248716
0
-0.0221435
-0.0242262
0.00942498
-0.00022548
0.162281
-0.0338913
-1.08118e-10
-4.61545e-10
-0.0304551
-0.242241
-0.0993626
-4.75383e-09
0.00226229
-6.86374e-05
-0.0235046
0.0322998
0.115938
0.139926
-0.000248716
-0.0750838
-0.079135
-8.28104e-15
-0.000263069
-0.0695029
0.00247656
0
-6.17189e-09
0.000272075
-0.0110594
0.0219612
-0.000237555
-0.0369113
-4.61545e-10
0.00960676
0.00217284
-0.0132222
-1.73265e-05
-0.027859
0.00662403
-0.0258048
1.16742e-07
-0.201178
-8.73255e-05
-5.49368e-05
-0.231506
-0.0329291
-1.86722e-08
0.0438182
-7.26592e-11
0.00538415
-0.0997145
-0.00463414
-8.80531e-06
-0.0846365
-1.53922e-06
8.93314e-05
0.0286253
-0.0818222
0.048948
-0.090647
0.0443745
-1.4237e-07
0.00804502
-0.121028
0.0292858
-0.0193686
-0.032314
0.217727
-5.38155e-10
-8.02373e-21
0.0593759
0.00389468
-4.75383e-09
0.00848047
-0.0286194
0.0116304
0.150544
0.0778778
0.029284
0.00535045
-0.0447292
-0.0590241
-6.39387e-09
0.021402
-2.20524e-12
0.449406
0.0646437
0.0320316
-0.0346934
-0.0275585
0.130801
-7.6935e-05
-0.00623661
0.0522288
-0.0682423
0.110759
-0.053419
-0.0505527
9.65832e-05
0.0337732
0.00439762
-1.1632e-09
-0.000235731
9.2414e-05
-1.96476e-13
0.00405211
0.0247595
-0.000230256
-0.00424385
-8.20322e-15
0.0227685
0.248
0.0208888
-0.0850259
-4.61545e-10
-0.134367
0.390572
0.00462542
-0.00722022
-0.0231323
0.0434329
1.02632e-193
0.145334
0.000382225
-1.07192e-09
-5.1421e-11
-0.0454303
0.116397
0.0850185
0.0610392
0.0762921
0.0837603
0.175283
0.00615581
0.0102107
-0.0847681
-5.1421e-11
-0.000228196
0.0360876
-5.11143e-05
0.011947
0.011947
0.0404634
-0.0199175
0.0154588
-0.100046
-0.0207841
-0.0159986
0.00466751
0.00675271
0.0346385
0.0762047
-0.034384
0.0264132
-0.0158855
0.00222599
0.110786
-0.0300754
0.0619126
1.71723e-208
0.0438339
0.012078
0.0684376
-1.66263e-09
-0.00994089
-0.326697
0.00632232
-0.0132222
-0.00872648
0.012733
0.0859155
-0.0121138
-0.119351
0.00163009
-0.0274784
0.0755462
0.0642072
0.00745501
0.00341556
0.317165
0.0324754
-0.00764121
-1.53922e-06
-0.0770719
0.0082128
-0.0090404
-0.0150311
0.169395
0.0350299
-0.00269017
-2.66775e-05
-0.000243132
-6.81811e-322
0.0256915
0.0824692
0.0451896
0.0702296
-0.048241
0.0394134
0.0119321
0.00815276
-0.012694
0.0882762
0.000830687
0.111822
-0.0346847
-2.8387e-07
0.0145921
-9.96075e-10
-0.0245933
-1.66483e-05
0
-5.1421e-11
0.13905
0.00272355
-0.0473075
0.00923702
-0.100527
0.00815276
-0.122136
-1.58354e-22
-0.000232715
-0.000228196
-7.24627e-11
-0.0216556
0.00405382
0
0.00252708
-0.235954
-0.0571716
-0.03921
0.00980942
-0.053419
0.0834396
-4.28154e-21
0
0.00832206
-0.0139477
0.0599068
-0.0501745
-0.0425484
-0.000241257
0.0490538
0.000142619
0.0135591
-0.111065
-0.0661165
-0.101259
-0.000248716
0.126216
0.00515759
-0.023059
0.0365267
0.0076954
0.270418
-0.0228115
-3.86065e-09
-0.0362415
-5.02266e-176
-0.0835868
-0.0354926
-0.012083
-0.0317329
-0.0520196
0.0476153
-5.27493e-11
0.00270209
-0.000228196
-0.0213986
0.0516295
0.0205976
-6.94777e-09
-4.38858e-06
0.0363017
-0.0356806
-1.07192e-09
-0.124296
-0.0068863
-0.0876394
-0.0683151
0.0100699
-0.00490594
-0.0455081
0.181966
-0.0230003
-5.52743e-06
-0.0292104
-0.042287
-0.211709
0.0076954
0.00143531
0.00359577
-1.60054e-09
-0.111272
-0.00932212
8.93314e-05
-3.80541e-13
0.0180169
0.0459348
0.102033
-0.0596935
0.0341745
0.0178446
-0.0314549
0.0748791
-1.79724e-06
-0.00781395
0.0237801
-0.0899288
0.0223995
-0.00831141
-0.0024494
-0.0445382
-0.0498653
0.0127762
-0.000230353
-1.18817e-05
-0.376945
0.0202001
-5.05125e-176
-0.0447292
0.01553
-1.3675e-19
-0.0359381
0.225377
-0.00640108
0.0896879
0.0794887
-0.000248716
-0.000241257
-0.00441796
0.118316
-1.07192e-09
-0.156494
-1.70615e-05
0.00814772
-2.05103e-05
0.0106371
0.0834396
-9.62763e-05
0.346168
-0.012823
-0.0273768
-1.00765e-05
4.48692e-05
0.0619126
-0.0229484
0.0517153
-0.0677806
0.0141875
0.0076954
-0.0300754
-0.00996112
0.000794303
-0.0505989
0.121419
0.0499376
-0.000227143
0.00159923
-8.495e-08
0.00815347
-5.67198e-07
0.029716
-2.66775e-05
0.14606
-0.0131905
0.00538415
-0.0623861
-5.86887e-05
-0.0587952
0.00405382
-4.14124e-05
0.0164295
0.00359652
3.16926e-05
-0.0374459
0.0800138
-0.0407939
-0.021402
0.061481
-0.00781395
0.178417
-0.000237555
-0.0402821
-4.35612e-06
-3.0138e-322
-0.0597002
0.206656
-0.110108
-5.5873e-08
0.0137087
-0.018602
-0.000233681
0.0121279
-4.79244e-322
0.00114955
-2.96681e-06
-0.0249052
0.00675271
-0.0287174
-0.0959998
-0.173515
-0.000232597
-0.000243132
0.0147175
-0.000228909
0.0306264
0.000739514
-0.0566986
0.0351166
0.0177724
-0.0538825
-0.0871264
0.0243196
7.33905e-06
-0.0440229
0.0452804
0.0322362
0.0907346
-0.0177547
-0.0683151
-0.000238283
-0.0599712
0.0123778
0.00687958
-0.000230795
-0.0171547
0
-0.0236615
-5.1421e-11
-1.3675e-19
0.0670812
0.0647444
0.0296421
0.0200123
-0.0354709
-0.146868
0.0873458
0.0540548
-0.00524013
0
-1.31078e-05
0.0432616
0.00848255
-0.0407373
0.015938
-4.79244e-322
0.0104113
0.166429
0.115636
-0.0279162
-0.0061651
0.320354
-0.127002
-5.73921e-11
0
0
0.0279919
0.0462952
-1.96945e-05
0.038971
1.18398e-208
-0.0663263
0.00675271
0.0600055
0.00139897
-0.00976307
0.000344981
-0.00811219
0.00129147
-0.0317329
0.0244773
0.0314443
0.02403
-0.018602
-0.109987
-0.0273135
-0.0861363
0.0154574
0.0164295
0.165437
-0.0752527
0.0434009
-0.000228909
-5.26521e-11
-1.08464e-05
-0.000248716
0.076487
0.000502797
0.00691398
-0.0801313
-0.00623909
-8.32018e-06
0.0367061
-0.0484311
-0.0788625
0.0127418
-0.0497561
-9.14753e-07
-0.0254367
-0.0706069
-0.0245441
-0.025885
-0.069662
0.0038051
0
-2.30666e-06
0.242302
0.00798444
0.0302229
0.00236659
0.011947
-1.3675e-19
-5.37171e-11
-0.120658
-0.0454341
-0.018268
-0.0123519
0.0639726
-4.38858e-06
0.0115618
-0.131359
-0.0193085
-0.044684
0.000278311
-0.012694
0.0468903
0.0420181
0.0610392
0.0510529
0
0.0877348
-0.0169249
-0.0238286
0.0551112
-1.19583e-06
0.049745
0.0663422
0.0291954
0.00538386
0.0154932
-0.0417671
0.00795084
-0.0120496
0.00841202
0.011947
-0.0911948
-0.00192903
3.74902e-05
0.0076954
-0.0228115
-0.017023
-1.96476e-13
0.0627981
-0.012997
-1.96863e-08
0.00841202
0
0.00655931
0.00848257
-0.0272087
-5.52743e-06
0.0224806
-1.70723e-10
-1.2154e-321
-0.049939
0.0334117
0.0122073
-0.0552296
-0.000226522
0.00829915
-0.0272087
0.0115533
0.135957
-0.0150311
0.0144786
-9.76476e-07
-0.000278817
0.0704144
-3.91052e-08
0.0122232
0
-4.79244e-322
0.00037498
0.0202001
0.0451787
-0.00994089
0.00627966
-0.0686493
0.00368857
0.0380208
-0.033293
-4.89349e-09
-7.10777e-12
-2.6883e-10
0.0166728
0.0275758
-0.0539984
-4.38387e-12
-0.000478173
-0.000241148
0.028361
0.0087836
0.0162994
0.00399888
0
-1.58354e-22
-0.000230484
-0.000233681
0.0235792
0.00129147
-0.0423253
-0.0413113
-3.91052e-08
0.0603766
0.0174765
0.621287
-0.0246544
0.00272938
-6.4291e-05
0.036015
0.033783
-0.090277
0.0264082
0.302558
-0.0239458
-0.149034
-0.0402198
0.00299522
-0.0347656
0.00790424
-6.16269e-09
0.00129147
0.0383179
0.00568749
-0.0581614
-1.56346e-07
-0.0115662
-0.000228196
0
0.0866688
-1.70723e-10
-0.0245931
0.0532527
-9.53547e-322
0.081342
0.113897
0.0521944
-0.0462946
-0.000241257
-4.75589e-09
-0.0661844
0.00207025
-0.0456879
0.0600631
0.0140328
-0.0218437
-0.0407373
0.00270209
-1.66121e-05
-6.82939e-06
0.025867
0.026736
0.0233074
-1.41391e-07
0.0277161
0.119265
-3.80541e-13
0.0317768
-7.24627e-11
-5.1421e-11
-0.0124663
-0.0117753
0.0785522
0
-0.0228449
-0.0404169
-0.000222446
0.0123623
-0.019862
0.0246152
0
-4.17216e-11
0.0465803
0.0148586
0.00675271
-1.70723e-10
-0.000228911
-0.000243132
0.206351
0.0121279
-0.00781395
-0.104265
-0.0505969
-0.0202513
0.0595756
0.058805
0.00828027
0.0487937
0.0511919
-0.000243132
-8.20322e-15
0.0417628
0.137068
0.00841971
0.00838673
0.0317768
0.0327488
-0.213493
0.0226467
-1.60054e-09
-0.0253373
-0.0633853
-0.0130064
0.0720824
-0.0851591
0.0134708
-0.0246894
-0.0114628
-0.0260709
0.031536
0.119374
0.0223461
-2.1541e-13
-0.00022548
-1.76381e-321
0.0161762
0.0479673
-0.00903015
-0.042563
-0.0132675
0.00825651
-0.306749
-0.000235731
-0.074894
0.00556225
-6.37518e-09
-0.106763
0
0.0595877
-0.022323
0.00809953
-0.0387781
-4.61545e-10
-9.5184e-05
-0.025557
0.00118695
0.0326838
-0.0320581
0.0504595
-0.0122261
-0.0902396
0.00530295
-0.00476366
0.0678096
0.0249884
-1.07192e-09
0.0209888
-2.20524e-12
-0.027859
0.0223003
-0.0282292
-0.0794092
-0.0407373
4.89125e-322
-1.3675e-19
-0.000170465
1.73417e-321
-0.00623661
-0.0292104
0.0180169
-2.66775e-05
0.0904985
-8.03582e-06
-0.000183298
0.223971
0.00521777
-0.113995
1.5143e-05
0.0330976
-0.0114425
-2.28505e-05
0.00162964
0.0733201
-3.88976e-08
5.78057e-322
-1.66263e-09
0.0076954
0.00831344
0.00286245
-7.11949e-07
-0.00164394
-0.0461512
0.000132862
0.0225662
-5.26521e-11
0.0930256
-6.86374e-05
0.0762921
-0.0032697
0.0019302
0.0414625
-0.0410894
-0.107605
-0.10759
-0.027859
0.0469674
-1.07192e-09
-0.14276
-0.0193085
0.000830687
0.101142
-0.00245406
-0.110574
0.00713738
-0.0450796
0.122812
0.0499296
0.0275406
0.148304
-0.00793813
-0.000225144
2.1915e-05
0.033051
0.0554735
-1.73265e-05
0.00691398
0
0.0201824
0.00359652
0
-8.04654e-05
0.0349446
0.00825651
-2.32153e-10
0.0802641
0.0260962
0.0140573
-8.73864e-09
0.038971
-0.0228997
3.19415e-170
0.023426
0.0243751
0.0324316
0.0076298
-0.0847212
-0.00418605
-0.00466173
-0.0370626
-0.105183
-6.13304e-05
0.00390163
-0.0256573
-5.73921e-11
0
-0.0193428
0.0083114
0.067832
0.00227918
-0.0107936
0.0235179
-1.47726e-321
0.00390166
-5.38155e-10
0.00322139
-0.0173933
-0.0362428
-4.35612e-06
1.582e-168
0.0191857
0.00828431
0.00676173
-0.0583923
0.109154
-1.96476e-13
0.0076954
-9.58293e-06
0
-0.239029
-0.0242262
1.95022e-06
-1.70723e-10
-0.00022245
-0.0695029
0.00321831
-1.58354e-22
-1.49412e-10
-0.000227915
-0.0686034
-0.000228196
-0.000227251
-1.96476e-13
0.00206146
-0.072907
-0.0200453
0
0.133878
-0.000443944
-0.000228196
-0.00794664
-0.0637685
0.0121584
0.0706801
0.0855992
-0.000225144
0.0081593
-0.0418833
-4.27551e-06
-6.81811e-322
-0.227084
-6.62048e-322
-0.0375609
-1.97819e-09
-0.00018624
5.35877e-208
-0.0604444
-0.0821398
0.0185474
-0.000228196
-0.053419
0.0583546
-2.5559e-06
-5.95703e-16
-0.0425722
-0.0199159
0.0474637
-0.00566456
0.0215408
-0.0319576
0.165116
0.00359652
0.0102876
0.307666
0.000973667
0.00129092
0.360344
0.00809953
0.00841112
-0.0845947
-1.96476e-13
0.116146
0.00129147
-7.11949e-07
-0.018154
0.0564326
0.350079
-0.111013
-0.00128523
0.00348829
0.00467129
0.0113932
-4.00354e-12
-0.114097
0.000253689
-0.0232271
-0.00831998
-3.55491e-14
-0.0317002
-0.0700488
-0.000243132
0.00815302
-0.197448
-0.069662
-1.14077e-06
-8.04654e-05
-0.0199963
0.0221381
-0.0504127
-0.153231
0.00815347
0.0256948
0.135605
0.0977096
0.158777
0.00815347
-0.0180239
-0.077645
-0.165619
-0.0483569
-0.27207
-0.0557086
9.7931e-198
-2.7237e-15
0.106566
-0.0245931
-4.12382e-09
-0.053419
0
-5.38155e-10
-0.034384
-0.071347
0.0603147
-0.000240814
-1.00894e-05
-0.090317
0.0123778
-8.90834e-05
0.0241496
-0.0123519
-3.6351e-05
-2.96681e-06
-0.0184717
0.0202001
-0.0317329
-0.0682115
0.000418017
0.00568749
0.00290121
-0.000248716
-0.0836296
-0.0899288
-8.45222e-05
-0.000233681
-8.28104e-15
-0.00903015
-0.0870624
-0.0539984
0
3.7753e-05
-0.0498757
-6.62048e-322
0.0330976
0
-0.0550595
-0.0286294
-0.0463805
-0.0108016
0.00520085
-0.00640706
-1.52856e-05
0.00181737
0.00159205
-0.0185735
-0.000248716
-0.0158855
-7.11949e-07
-0.0732421
0.0295002
0.0375913
-0.00781395
-0.053419
-0.0769578
-3.55411e-20
0.0626403
-0.0692606
-0.000222806
-0.000237555
-0.0941811
0.0129997
-0.0633853
0.00439182
-0.0613926
-0.00821826
-5.37171e-11
-0.000228196
-0.243408
-1.09189e-321
0.000739514
-0.0554461
0
0.0123778
0
0.281051
0.0243751
0.0807204
-0.0324774
-0.0664029
-0.0587952
-0.000291587
-1.73265e-05
0.120721
-1.3675e-19
-0.196161
-0.053836
-4.76912e-09
0.313028
0
-0.0503371
-8.73864e-09
0.00530294
-0.0744946
-7.6935e-05
-0.0112981
0.00192582
-7.50431e-07
-0.0311878
0.0402256
-0.058318
0.321068
0.00351414
-0.020811
-0.0228449
-0.0362591
-6.62048e-322
-0.13292
0.01824
-0.0124554
0.0773711
-0.0479282
0.0311131
0.00968076
0.000142619
-0.032314
-1.3675e-19
-0.00800535
-0.108475
-3.55411e-20
-0.0511986
0.0363849
0.232854
0.00112161
0.0314839
0.107425
0.0180169
-4.71661e-09
0.0117558
-0.0169696
-0.123889
2.21391e-05
0.00815347
0.00829915
0.0225369
-0.0276881
-0.000241257
-0.065381
-0.000228196
0.167826
-0.00621775
0.00538415
0.0323457
0.137782
0.00605801
0.153772
-4.75383e-09
-0.016098
0.00829915
0.0185474
0.308743
0.0123778
0.00799701
-8.49464e-08
-0.0325187
0.202793
-9.76476e-07
-0.0161577
0.0375913
0.178075
-0.0502259
-5.05125e-176
0.00136368
0.00644985
-0.0389223
0.00359652
-0.000219409
-0.140914
0.0513566
-4.75383e-09
0.0173804
-5.49368e-05
-0.000225144
-0.0639687
-0.000217815
-8.74268e-07
-1.78e-06
0.00230914
-1.70018e-09
0.215596
-0.018602
0.0540548
0.0827826
0
5.33591e-322
-2.06302e-07
-3.08713e-09
0.0808223
0.0154588
0.0781493
0.0139866
-0.0232148
-0.00024063
-0.000228909
-4.43255e-07
-0.0289769
-3.91052e-08
0.00129147
-0.0581798
0.00675271
0.00226229
-0.0532434
0.0007943
0.0503282
-2.67642e-08
-1.66107e-05
-7.14555e-06
-0.0330644
-0.0763797
-0.0198244
-0.203587
0.00299522
0.00179338
-0.0923286
-0.0228618
0.112268
0.00163009
-0.103862
-0.0431702
-1.08892e-05
-4.61545e-10
-0.0121395
0
-0.000225717
-0.14593
0.0152203
-0.0866656
-0.0169696
-0.0724463
0.0208005
-0.0502409
0.0146377
-0.0207841
-0.0633652
0.025982
0.0342511
-2.05103e-05
0.000418828
-7.14555e-06
-4.01383e-06
-0.000221965
-0.0771651
-0.000228196
0.102735
0.309052
-8.62379e-05
-0.0786876
0.0076954
-0.0550703
0.0202001
-0.0212547
0.0204051
0.00179338
-0.0483569
-0.0157467
0.0287713
-2.30043e-10
0.0267772
-0.000245061
0.0202001
-0.0297799
0.0076954
-0.0200694
0.0137087
0.00327378
-0.0425625
0.0653435
0.0439146
-0.0422993
0.034944
0.0076954
-0.00541492
0.129224
0.0282276
-0.053868
-0.0139344
0.000413803
-0.0125884
-0.117217
0.0394173
-0.0500912
-0.000241257
0.00815347
-2.14633e-24
-0.000230353
-0.055561
-0.0283849
-0.0649503
0.0739374
-3.80541e-13
-0.0165991
0.386001
-1.58354e-22
-0.000899973
-0.0489489
0.0430325
0.0076954
-0.000228196
-0.0114425
-0.00781395
-0.000240814
1.73417e-321
0.0312753
-0.0223225
2.35111e-197
3.19415e-170
0.0603186
0.0352518
3.19415e-170
-0.0238286
-0.0126627
-5.49163e-10
0.0528149
2.095e-173
-0.0456939
-4.84897e-14
-0.0246241
0.0239349
-0.000221965
-0.0923677
0.0773166
0.0156014
0.0120458
0.00216544
-1.58354e-22
4.19476e-208
-0.0745707
-0.000241257
-0.0244796
0.29252
-8.36194e-06
0.0935535
-0.0753598
0.161695
0.000739514
-0.00418605
-7.6935e-05
-0.012065
0.0452804
0.0157892
-0.0771651
0.00138813
0.0333083
0.00767388
-0.000213097
-1.16933e-05
-0.018602
-0.0360262
0.0162836
-0.0101717
0.0104113
-0.0092963
0.0162078
-0.0697038
0.0466267
0.0202714
0.00538415
-0.0389488
0
0.0627981
0.00568391
-0.0382667
-0.0123566
0.0108398
-0.0228449
-0.0246579
0.0204051
-6.81811e-322
1.91697e-321
-4.89349e-09
0.0369049
-0.053419
0.00817526
-2.51667e-08
0.0298617
-5.67198e-07
-0.000238283
-0.000228196
0.0382134
-5.05125e-176
-0.0308403
-0.0150311
-0.0864848
-0.140989
-0.111565
0.0166728
0
-1.24632e-10
0.125501
-0.154883
0.00405382
-4.61545e-10
-0.0512083
-0.0233295
-0.0113567
0.00286148
-0.0178905
0.000159888
-7.6935e-05
-0.0313491
0.00281285
-1.3675e-19
-0.0732426
-0.0121357
-0.0007661
-0.0448289
-0.032443
-0.052647
-0.0494667
0.00675271
-0.00605781
0.096107
0.0352518
-0.058091
-1.95393e-06
-0.0382582
0.000265479
0.0579496
-0.000230795
0.0424005
0.011947
0.544253
-0.0536456
-0.0300754
1.71723e-208
-0.0300537
-4.12382e-09
0.0252598
-0.257264
-1.86722e-08
-3.50905e-09
-1.97626e-323
-0.0311904
0.0420794
-0.0120371
-0.0837003
-0.0338387
0.0628302
0.03178
-0.107711
0.00143687
0
-0.0757299
-0.0238158
-0.000230795
0.00675271
-0.153428
-0.0092963
-0.00739066
-0.0551444
0.20028
-0.0612729
0.0200123
-0.0450053
0.0277256
0.112522
-1.41039e-09
-0.00781395
0.00675271
0.0511298
-0.0110203
-0.000228196
-9.53093e-10
-0.0336082
-0.0139344
-0.119586
-0.125174
-0.0651188
-1.623e-05
-3.91052e-08
0
0.200831
-0.0931092
-1.96476e-13
-4.62208e-06
0
0.201788
-8.02373e-21
-0.0178905
0.0344483
-0.000230258
-1.3675e-19
0.00675271
-5.05125e-176
0.0624754
-1.34329e-06
0.000596395
-0.0844868
0.0575132
-3.91052e-08
-0.0527462
0.080253
-0.0531705
0.0738181
0.681391
0.164639
0.0204051
0.0550517
0.17789
0.0102876
0.00405382
-2.3534e-08
0.0239668
0.00102868
0.0317768
0.000106393
0.00790842
-5.29177e-05
-4.14124e-05
0.0185474
-0.0896102
-0.0868108
-0.00994089
0.0299252
-0.000245061
-0.0245931
0.0204629
-0.00498182
0.0610392
-1.52856e-05
-0.00599571
8.93314e-05
0
0.00805398
-0.053419
-0.0850259
0.0366795
-1.60089e-09
0.523214
0.0389205
-2.30043e-10
-0.0121484
-0.00863162
0.00691398
-6.37518e-09
0.0624383
-0.0228449
-2.8387e-07
-0.0326871
-0.212059
-1.44766e-08
-0.000230717
-2.8387e-07
0
0.0142897
-5.05125e-176
-0.0430991
-0.0238271
-0.000226083
0.00838673
0.000158295
0.0928756
0.0388765
0.011947
-0.0064154
-1.876e-05
-0.0219934
0.0276997
0.0526471
0.0210108
-0.0292991
0.0467377
-2.14633e-24
-0.0114425
-3.02506e-10
0.128001
-0.0119952
0.000124067
0.000132862
-0.0193686
0
-0.0298414
0.00563997
-0.0124554
-0.0516671
0.0648377
0.0801741
-0.0278597
-0.192951
0.0261468
0.0258272
-2.62839e-07
-0.0085632
-0.0599927
0.0123216
0.00795369
0.237865
0.0853112
-0.026062
-0.028933
0.101994
-6.00823e-07
0.00839385
0.0560459
-0.0633577
0.0525074
0.0314022
0.0573057
0.119243
0.0145244
0.0161762
-9.51729e-07
-0.053419
0.00207022
0.0320316
-0.0525038
-0.0548779
0.0148357
0.10099
0.106351
0.0141255
-0.0307635
0.0828547
0.00226229
-0.0311904
-4.75383e-09
0
-0.0339833
0.00359652
0.134462
-0.00290622
-0.0308445
0
-0.00024063
0.0344656
0.0199513
0.0248821
-0.000225423
-0.000228196
0.0111657
4.29837e-322
-0.042536
0.320312
-0.0261601
-0.136206
0.00207025
-2.70162e-10
0.144975
0.00675271
-0.144095
-3.88976e-08
-1.70247e-06
-0.0319299
0.000405239
0.0735967
0.02403
-0.023088
-3.6351e-05
0.0524123
-0.0488924
-2.32153e-10
-3.91052e-08
-2.77174e-06
-0.069662
0.0365075
-0.0617541
-0.0921423
-0.000228196
0.0323038
-0.0520656
-8.28104e-15
-0.0358081
0
0.0168424
0.00886151
-0.0374096
-0.0181247
-0.0404558
0.0668776
-0.00699598
0.0352518
0.0885066
0
-7.10777e-12
-1.96476e-13
0.0526917
-1.09683e-321
-0.0374532
-0.0614086
6.26518e-208
0.000382225
-0.00428823
-3.27496e-06
0.0315586
-0.0353448
0.0141635
-0.088476
1.71723e-208
-0.060059
-0.0665758
-2.80826e-15
0.0281005
-0.00316764
0.00446458
-0.0858768
0.00524879
-0.0357425
0.0303683
0.0377495
-1.41391e-07
-0.000219861
-3.33649e-08
0.0140328
0.0204051
0.0733353
-0.0487201
0.0678096
-3.01539e-14
0.0692748
-2.7237e-15
0.0674675
-0.0201707
-0.0768286
0.0559511
-0.0318702
0.0947728
-0.0193085
-0.000241257
-0.0374758
-1.1632e-09
-0.0539984
-0.0300754
-3.50905e-09
3.19415e-170
0.0226467
-0.0378849
0.00621916
-0.111065
0.0345961
-0.172109
-4.27528e-13
-0.0317329
0.000158295
-0.0337018
0.00981013
0.0190424
-7.11949e-07
-1.3675e-19
0.000794218
-0.000238283
-0.00563522
-0.000228952
0.050866
0.106287
-0.0123519
-0.000225717
-0.0240389
0.0317242
-0.0271813
0.0280162
-6.33763e-08
0.0192544
0.054674
0.0553366
-0.10029
-0.0458633
-5.18769e-322
-0.0494302
-0.0360936
-0.171266
0.0108875
-0.0362377
-2.32153e-10
0.00857733
-0.128712
-0.0413909
0.0832526
0.0306993
0.0174366
-0.000225619
-0.0709217
-0.0957087
0.000826222
-0.136549
-0.0320581
-8.02373e-21
0.15236
-0.000478912
-0.00843289
0.0358307
-0.0375102
-0.049939
0.0081593
0.0445606
0.227295
0.0432369
0.00168364
-0.027859
0.0180169
0.0108398
-0.00601529
0.01553
0.0787013
-0.0245931
-0.058036
-0.090277
-0.0790384
0.00239409
-0.161237
0.0702296
1.63536e-321
0.0580852
0.0769944
0.105727
0.258152
0.0535517
0.141136
0.0327488
0.153585
0.209525
0.0434009
-2.7237e-15
0.00738432
-0.0373757
-0.0092963
0.0384406
0.084699
-4.17216e-11
-0.06375
0.177363
-0.0300754
0.0264082
-0.066398
3.19415e-170
-0.0157467
0.00814891
0.0113184
-1.08892e-05
0
0.00115213
0.0225369
-0.0120371
0
0.0094654
0.062132
-0.109307
-0.000228196
0.038967
0
-0.0771651
-0.000228909
-0.050561
-8.32932e-07
-0.00499872
0
-0.0113913
0.0076954
0.000142619
-9.03235e-10
-1.73265e-05
0.0156919
0.0973087
-0.0820275
-4.39373e-07
0.00405382
-4.17216e-11
0.0516295
0.0142899
-0.0495266
-0.0587952
0.0451016
-0.0539987
-0.0449742
0.199948
-1.1803e-08
0.00739194
0.143248
-0.0376669
0.208559
0.0135591
-8.20322e-15
-1.3675e-19
0.00753007
0.0932056
-0.0124253
1.85887e-208
-0.0501409
0.0853112
-4.75589e-09
0.0864528
0.0213581
0
-0.000226083
1.63536e-321
-0.019862
0.0578663
0.0117492
-0.0916722
0.000142462
0.00857365
0.0625004
-6.94907e-05
0.107002
0.24863
0.00815347
0.00807141
-0.000248716
-1.3675e-19
-9.58293e-06
7.15962e-208
-0.00843289
-0.00277275
-0.0103322
0.132705
0.00540218
-0.0199739
0.037855
-0.0201826
-1.66483e-05
-0.0343677
0.0271253
0.000268889
4.89125e-322
0.0762151
0.0185474
0.0334777
-0.06375
-0.0212547
-3.53483e-06
0.0276997
-8.73864e-09
-5.73116e-322
0.138833
-0.0790384
0.00319875
-0.0245931
-0.0174718
0.152081
-0.00874307
0.0317768
0.141258
-2.0374e-05
-0.000443944
0.0541019
-0.0588526
0
-0.000133383
-0.110927
0.0267925
0.11126
-0.0673154
0.122296
-0.0918292
-0.0449014
0.0076954
0.0242783
0.000830687
0.35988
0.0719515
0.0100699
-4.17216e-11
0.0787685
0.0184956
-0.0137397
0.0174714
0.00746387
0.00954901
-0.0679947
0.0156265
-0.0245931
-1.46902e-08
-0.0228115
-5.73116e-322
-3.92897e-08
0.0454448
-0.000228196
-0.0345577
0.0172137
-1.1632e-09
0.0411047
-0.00411641
0.00037498
-0.000241257
-0.00044881
-0.000230484
-1.70723e-10
-0.00621775
-0.06375
0.000830687
-0.000171851
-0.0127889
-9.72341e-14
-0.0356806
0.020569
0.0352518
-0.0309602
-4.61545e-10
-0.00418605
-0.034053
0.0123405
-0.0132222
0
2.25416e-05
0.0314839
-0.000228196
-0.0400716
0.0776889
0.00848257
0.0721837
-1.4237e-07
-0.00976608
-0.0406619
0.0190207
0.0600876
0.0355268
0.450876
-0.0627893
0.00530295
-0.0252667
0.115008
-0.0720735
-5.73116e-322
0.0256915
0.0190401
-0.0193686
-0.000231772
-0.0386042
0.0524841
0.0673746
0.0262447
-0.00562336
0.0156271
0.0562808
-0.0238286
-2.32153e-10
-4.92451e-08
-0.0144378
-7.10777e-12
0.0434009
-1.70723e-10
9.75281e-05
-0.0231323
-0.0333312
-7.17251e-06
-6.00823e-07
-5.18769e-322
0.0292857
-5.49163e-10
-1.74598e-05
-0.114464
-0.000213097
-3.8385e-06
-1.14077e-06
-0.00022571
0.144027
-1.3675e-19
-0.134403
-0.0402678
-0.0558106
0.176782
-0.0470972
-1.60054e-09
0.0902391
0.0190424
0.033476
-3.80541e-13
0.00443422
-0.0317329
0.00495885
-0.0179921
-7.24627e-11
-6.81811e-322
-3.6351e-05
-0.0568847
-0.0344141
-0.000233681
-0.000228196
0.148478
-0.000227759
-0.000228196
0.051333
0
-0.202673
-0.161364
0.0190424
-0.032358
-0.24716
0
0.0292857
-0.0150311
0.0073526
-0.0987218
-0.000243379
-2.32153e-10
-1.21307e-08
-0.0584495
0.00757793
0.0287276
-0.0418505
0.0368539
0.00037498
0.0113932
0.00355706
-0.0513868
0.0433857
0.188327
-1.96476e-13
0.00675271
0.0687834
-0.00562336
0.00394982
-0.0292514
0.0865379
-0.113232
-0.155023
0.252652
-0.143144
0.00179338
0
0.00831796
0.00783898
-3.55411e-20
-4.37859e-05
-2.1541e-13
-0.0613461
0.000794303
-0.0157027
-0.000241257
0.0243697
0.0778778
-0.0313559
-0.0471231
-0.128293
0.0244771
0.0814101
-0.00994089
0.00991589
-8.02373e-21
-0.0562113
0.00319875
-0.0430168
0.0396622
0.0164295
0.0150851
0.133206
-5.95703e-16
0.0927123
-0.0447292
-7.93216e-07
-0.037818
0
0.00466823
0.00829915
-4.92451e-08
-0.0719043
0.000502797
-0.000241257
-0.118644
0.00359652
0.0431022
0.0201994
0.0161886
0.024254
0.0323021
-0.0899951
-4.62208e-06
-0.00781395
-0.000230717
-1.58354e-22
-0.0248001
0.0518718
-8.47197e-06
-0.166533
0.103354
-0.0149612
-0.000857136
0.0275758
0.0280272
-0.0301542
-0.014
0.000268889
0.0910043
0.0471206
-0.00164394
0.0987848
-8.04654e-05
0.0299252
-3.50905e-09
0.0114162
-0.0625444
-3.33649e-08
-0.0727316
0.0951133
0.148203
0.0265607
-0.000230256
0.0115618
0.0140243
0.0179738
-0.034292
-2.80812e-15
-0.000228196
0.0190195
-0.0168193
0.00717599
5.66308e-08
-0.0114109
0.268531
0
-0.0322368
0.0375616
0.00970195
0.0265647
-7.8054e-22
0.0121279
-1.09683e-321
0.040188
-3.8385e-06
0.0299252
-1.4237e-07
-1.07192e-09
0.00216544
1.5316e-321
-0.000223096
-0.0581063
0.0123778
0.00841112
0.000158295
0
-0.0123519
0.292204
0.0132096
0.0224788
0.023619
-0.00753322
-0.00269017
0.0433219
-0.000475802
-0.0753598
-0.0337811
0.0138375
-4.75383e-09
0.0221381
-0.0148851
-0.0184717
-0.000230795
-1.24632e-10
-3.83349e-13
0.000502797
0.504518
-7.11949e-07
0.0550647
0.00882978
-2.96681e-06
-5.49368e-05
-0.0384664
0.00621916
-6.13304e-05
0.00143687
-0.113842
2.63301e-206
-0.000228196
0.24421
0.283974
0.0375067
0.122542
-0.053419
-0.00994089
-0.260152
-0.0196046
0.0365075
-0.0513326
-0.027084
0.0154588
-2.32153e-10
-0.0458176
-0.0425366
-0.000227251
-0.0103136
-0.0309701
-0.00903015
-0.00024063
-1.91014e-07
0.0050893
0.0571327
-7.17251e-06
-2.6883e-10
0.158402
-0.027859
0.00285625
-0.0210212
-9.53547e-322
-0.000481879
-4.61545e-10
0.0728323
0.10402
0.00405382
-0.0462946
0.174029
-0.0171314
-0.0133239
0.0702252
-0.0133239
0.0315586
0.00037498
0.00125613
0.00037498
-0.000223096
0.0130464
0.00615515
0.0666375
-6.97218e-06
-0.000228196
0.0528278
0.0243587
0.00129147
-0.115003
0.0329293
-0.0114969
-0.000228196
-0.000460911
0.0300116
-1.73265e-05
-0.0822789
-0.0700488
0.0312435
0.0134947
0.000413803
-5.49368e-05
0.041312
0.182254
0.000123432
-1.67982e-322
-8.02373e-21
-2.81741e-06
0.00656098
-5.38155e-10
-0.0231118
0.0184163
0.0863245
4.22634e-07
-2.3534e-08
-1.16933e-05
0.00805398
0.000344981
-2.28505e-05
0.0137757
0.0302229
0.0213835
-0.00623661
0.0264082
0.0031942
-2.31539e-06
-5.18769e-322
-1.21307e-08
-0.0310332
0.0240466
0.0331003
-2.3534e-08
-0.000240814
-0.0836014
0.00593035
-0.0914996
-0.060858
-9.5184e-05
-0.0385278
-5.21152e-14
-0.0808958
0.0167261
0.0081593
0.0759953
-0.0714832
-0.0716752
0.253995
0.0131386
-9.03235e-10
3.64628e-05
0.0076954
0.0182705
0
-5.86887e-05
-0.0717088
-0.0648381
0.0492877
-0.132769
-0.0454303
0.00815347
-0.018268
0.0597906
-1.60054e-09
0.0337835
-1.96476e-13
-0.0757842
-0.00781395
-0.108883
-0.023059
-0.0272273
0.0869189
0.037074
0.0123788
0.00538415
0.013054
-0.00903015
0.051901
0.0416443
-0.0433984
-1.70723e-10
0.00464118
0.00804039
-0.0866656
-0.000165334
0.0330076
-0.028647
-0.00686193
-8.47197e-06
0.0184956
-0.000239997
0.00841112
-1.70723e-10
-0.0899288
-0.000101924
-0.0741177
-0.134069
-0.0695029
0.00159923
0.000139041
-0.0274389
0.00513543
-3.50905e-09
0.0292605
-0.0202657
-0.0284352
-0.00199082
0.0262447
0.02403
-0.0461512
-0.0933424
0.013054
-0.0207841
0
0.000519389
-3.01539e-14
-0.000240806
-0.0631679
-0.0294965
0.0380978
0.0203356
-8.28104e-15
-0.000228196
0.00504025
-0.0636048
-0.0132222
-2.51667e-08
0.0511294
-0.000221702
0.00172176
-0.0308678
0.0801953
-0.0253734
0.0380208
0.0414131
0
0.0320316
-1.14077e-06
-0.00674361
0.322244
0.136905
-1.53922e-06
-1.73265e-05
0.0811504
2.59451e-05
0.180309
0.00222995
1.27268e-208
0.062132
0
-0.0936738
0.120234
0.0224806
-0.0219898
0.0164295
-0.000248716
-2.51667e-08
0.0219948
0.00871913
0.0223003
0.0223003
0.0640016
0.0076954
0.143204
-0.0714629
-0.179093
-0.0508783
0.00129123
-0.000247587
0.107244
-0.000233681
-0.0461512
-8.47197e-06
-0.0232981
-0.0453196
0.0924609
-0.113918
-0.00781395
-0.000243379
0.0114945
1.22078e-05
0.0826438
-0.0207841
0.0882538
0.0149622
-2.30043e-10
0.00494214
0.0587252
0.00405382
-4.79244e-322
-3.56179e-05
-4.17216e-11
-0.169963
-4.75383e-09
-0.0192686
-0.00929937
-0.018602
-0.0231323
0.0596792
0.000594855
-0.000228196
-0.0236713
0.0180169
0.0076954
0.00216544
-6.42285e-322
-0.0228115
-0.000237444
0.0385129
-0.0313404
0.112268
-0.000646335
0.0142114
-0.0325377
-0.0289617
-0.117463
-0.0111889
-0.00164394
-0.0754712
0
0.0214808
0.0583991
-0.193682
0.0581158
0.00613942
0.0102107
-0.0737929
0.0111427
-0.023059
-0.21307
-0.000241257
-0.0246241
0.030955
-0.128383
0.0170191
-1.34329e-06
0.0204051
-0.097434
-0.0210054
-0.00244527
2.35111e-197
0.00765512
-9.96075e-10
0.0304101
0.016222
-8.20322e-15
-0.188728
0.00286245
0.0516295
-5.1421e-11
-5.05125e-176
-0.0757299
0.107154
0.0757823
-0.100125
0.0136681
-0.0360262
-1.88833e-05
0.0595877
0.00605801
-0.0570448
0.0674173
-3.35971e-08
-0.0645537
-0.0218146
0.00659143
-0.0457204
0.139951
0.00262952
3.19415e-170
-3.80541e-13
0.127904
-0.124471
-0.112133
0.000142485
0.0108875
0.349547
-0.032314
-0.0193686
-2.7237e-15
-0.229155
0.000413803
-9.03235e-10
-0.0706318
0.0352518
0.116893
0.0509105
-0.0121357
0
-3.88976e-08
0.169782
0.0847122
0.0365075
-0.148632
-4.00193e-322
-3.56115e-13
0
-0.000222173
0.0766666
-2.1541e-13
0.0581391
-0.0177547
-0.026352
-0.0119953
0.00985958
-0.0471396
-1.66263e-09
-1.3675e-19
0.00732795
0.152241
-0.0317329
-4.61545e-10
-0.11505
0.0394351
-0.0805388
-0.000227143
-4.17216e-11
0.000502797
0.000135396
-4.39373e-07
-5.21152e-14
-0.0164489
0.316043
-6.94907e-05
-0.0539454
-0.0007661
0.013453
0.0173721
0.00658647
-0.00783334
-3.55491e-14
0.0328096
-0.0312242
0.069342
0.00222599
0.00236659
0
9.7931e-198
-1.08118e-10
0.00799701
0.0213835
0.157476
0.0299252
-0.120658
0.0204051
-0.0139344
9.76773e-06
-0.019862
0.0100699
-0.00736223
-1.21307e-08
0.107902
0.0369637
0.0085255
-3.80541e-13
-0.0384664
-5.95703e-16
0.00841112
-0.000233681
-0.0159986
0.00239995
-0.0879829
0.00131731
0.0150737
-1.58354e-22
0.0127595
-3.90312e-322
-0.043496
0.0803316
-1.53922e-06
0.00159923
-0.0566569
0.0139325
-0.193274
-0.0771651
-0.0308903
-1.3675e-19
-0.0317329
-0.0313491
0.0275058
0.00159923
0.18649
-0.0056053
0.0257201
0.0337835
-0.0245931
0.0138375
0.0305706
0.0431613
-0.00492921
-1.00894e-05
-0.00994089
0.0416443
-0.225382
0.0532108
-0.0133239
-0.000235731
-0.000245061
-9.72341e-14
-0.0292104
0.0191093
0.079672
-0.0706318
-0.000228196
6.26518e-208
-0.0595362
0.0256915
-2.6883e-10
-0.00398252
0.00379816
0.0323038
-2.66775e-05
-2.7237e-15
0.00790424
0.00605801
0.11759
-0.0187787
0.0134551
-5.49163e-10
-0.000170465
-0.201611
-0.0150355
0.0256915
0.0804734
-2.77174e-06
0.0144786
0.221752
0.0600053
-0.0727316
0.0471206
0.00299522
-0.0306911
-0.14211
0.00588957
0.00530295
0.74146
-1.16276e-05
-2.97742e-10
-0.000165334
-0.0335789
0.000139041
-0.0702478
0.145343
-0.0607756
5.65518e-206
0.0599024
0.142196
-0.0785127
0.0324316
0.0160008
5.64106e-08
-0.0791461
-0.000228196
2.35111e-197
-0.0407373
0.0724973
0.128871
0.00159923
0.119106
-4.43255e-07
-0.0434676
0.00143687
0.00769139
0
-0.023035
0.0180169
0.0113932
4.74377e-05
0.0148586
-0.0905508
0.0420171
0.0256915
0.0225369
-0.000235713
-1.34329e-06
-0.0661165
0.0581158
-3.55411e-20
0
0.0347653
-0.0221435
0.00207025
0.0885066
0.076275
-0.0169249
-0.0539984
0.00556225
-6.37518e-09
0.00300507
-0.113272
0.0164295
0.0944855
-6.94907e-05
-0.0478254
-1.61028e-05
-0.240276
-0.000228196
0.0662765
-0.000228909
0.00568678
-0.057081
0.00970195
0.0207026
-0.0527748
0.0617164
-0.0316522
0.0865518
-0.053868
0.0443864
-8.32932e-07
0.0601519
-0.000241257
0.00405382
0.0892825
0.113201
-0.0765354
0.10148
-0.0178905
-0.124755
0.0221381
-0.000241257
0.0127866
-5.1421e-11
-0.032314
0.111874
-1.58354e-22
-0.000222248
0.0164503
-5.26521e-11
-1.49412e-10
0.0874809
0.0202001
0.00832278
0.0137647
-5.31071e-05
-0.0229938
0.0275058
0.000138757
0.00985958
0.0702296
0.00466823
0.021865
-7.8054e-22
-0.0193686
0.130945
-0.0818222
0.00790211
-0.0248185
-0.0385278
0.00418518
-0.000228196
-1.78438e-05
0
-0.0858768
-1.47726e-321
-0.0882154
0.00783898
0.043326
0.0286069
0
0.0517147
0.0137087
0.042409
0.00405382
-1.79346e-321
-0.0578131
-0.0199159
0.00754514
0.0103608
0.127539
0.0669833
-0.044574
-0.00232407
0.0304175
-0.0048759
-4.39373e-07
-0.0484107
0.00397385
0.0471874
0.0145261
-0.00952234
-0.0157467
0.000320701
0.00830554
-4.27528e-13
-0.00575602
0.146995
0.00129147
-0.0683116
-0.0313788
0.0582947
-0.0404169
-7.11949e-07
0.00805026
-0.102941
0.00518717
-0.0447293
-0.000243132
0.0321472
0.0414004
-2.20524e-12
-5.37171e-11
0.0234216
-0.0529979
0.00959684
-0.019143
0.0163972
0.0550647
-0.000170465
-0.0107348
-1.4237e-07
0
-1.47337e-08
0.00801251
0
-0.057081
-4.43255e-07
0.0886979
-1.3675e-19
0.00207025
-4.38858e-06
-0.000263069
-0.0120672
0.126701
-0.0743269
-0.0197576
0.00437328
-0.034384
-0.0688082
0.0466805
0.0100699
-0.0476528
-0.0132222
-0.00934911
1.22078e-05
0.00130329
-9.23903e-322
0.0226549
0
0.0566914
0.00270209
-0.000213097
0.00299522
-0.170954
-5.21152e-14
0.00216544
-2.91706e-05
-0.0319719
-0.0769363
-0.000228196
-1.47726e-321
-0.0289412
0.213904
0.0452526
0.0371958
0.0144786
0.00368919
-0.049276
-0.126799
0.00970195
-8.74227e-07
0.0326275
0.00163009
-0.0515864
-0.00693928
0.0181014
-0.0313151
-0.0114425
-0.00168835
-0.000243132
-1.86722e-08
8.93314e-05
-0.0575566
0.057225
0.00832278
-0.0114628
-4.79244e-322
-1.16894e-05
-0.0393114
-4.35905e-05
-0.0300754
-0.000228196
-0.0342328
0.110367
0.000498191
0.186664
-0.0199159
-0.0375609
0.000139041
0
-9.14753e-07
-0.00269077
-0.0021669
0.00871913
0.0486184
0.0123178
0.032582
-0.0925069
0.12962
-0.0191179
-7.11949e-07
0.345731
0.0081593
-7.50431e-07
0.00815347
5.66308e-08
-0.0257458
0.0255999
8.93314e-05
0.000132442
0.0628738
0.0699818
0.00114955
-3.80541e-13
-0.0679282
0.0509105
5.20576e-197
0.112002
0.0102876
-3.50905e-09
-0.0114104
0.0285737
-5.11143e-05
-0.027133
2.46566e-06
-1.58354e-22
0.209199
-0.000243132
-0.0539984
-1.1803e-08
0.0204048
-0.000225717
0.019022
-0.0795807
-0.00289272
-0.0469626
0
0
0.0511944
-1.3675e-19
-8.49464e-08
-0.0454027
0.0333904
-0.00232407
-0.0922825
-0.00825676
0.0148586
0.0302229
-0.376563
-1.03558e-05
-3.80541e-13
-0.0157467
0.0591673
0.0601519
-0.0925042
-8.20322e-15
-0.0473337
0.169619
-0.0688891
0.0139325
-9.23903e-322
-3.3234e-09
0.0371958
0.00299522
-0.0549746
-0.0126487
-2.77313e-05
0.0997174
9.24142e-05
0.0314839
-0.030586
0.000142363
-2.4821e-09
-0.0256702
0.000830687
-1.41039e-09
-2.50999e-07
-1.0963e-08
-0.109906
0.0520872
0.0314839
-0.00781395
-0.105948
-6.00823e-07
-0.0334195
0.00829915
0.00138813
0.00467129
-1.9208e-09
0.00394982
-4.84897e-14
0.00777565
-1.45208e-06
-4.17216e-11
0.0522273
-0.00473672
0.00831344
-0.0084336
8.20883e-06
-0.000228909
-0.0597002
-6.00823e-07
0.0236597
-0.000419142
0.00011727
-1.0573e-321
0.117929
0.00405382
0.0538508
0.0284567
0.140519
0.0180194
-0.0123519
-0.0840114
-0.0566569
-0.0436895
0.00129147
0.0202001
0.0185474
-0.096942
0.00970195
0.153412
-0.102303
-4.61545e-10
-0.0306911
0.000139041
-0.000468446
0
-0.0834805
0.00828027
-0.00903015
-0.000228196
0.0918454
0
-0.0178905
-0.0418673
-0.0503371
0
0
0
-0.00024063
-1.53922e-06
0.00281285
0.21607
-0.0450356
-5.1421e-11
-4.76912e-09
-4.38872e-06
-2.80812e-15
0.0721204
-0.00831998
0.0513466
-0.184803
0.0275968
-6.58657e-10
-2.66775e-05
-0.103527
0.404628
-6.41559e-06
0.00538415
-0.0090468
-1.73265e-05
-0.000230256
-1.73265e-05
0.0121584
-0.720508
0.00970195
0.0594119
-0.0185427
0.00722272
-0.000228909
0.0230758
-0.000237359
-0.0660722
0.00841202
0.15085
0.0454942
-0.000443944
0
-2.70162e-10
0.0992928
-0.098404
-1.83058e-09
0.0108875
0.000739514
0.032853
-1.07192e-09
0.0132942
-0.0286194
0.0315586
0.00206192
-0.0707535
0.0249384
-0.0169249
0.00239409
-0.034384
-6.16269e-09
-0.000228196
0.00222995
0.000106393
0.0225369
2.92031e-06
-0.0610856
0.00832278
-0.00562336
0.0156286
-0.0719135
-1.60054e-09
-0.000220703
0.0149414
0.119381
1.53303e-207
0.0370945
-0.0238286
0.00163009
-5.62081e-05
0.0347159
-0.0588416
-0.171534
0.0140509
-0.000251604
-0.0242262
0.0437119
-1.96476e-13
0.0184956
-0.00821827
-6.00823e-07
-0.0521893
0.00359652
-1.00765e-05
-0.0176442
0.112268
-0.0753824
0.0192679
0.00223481
0.00923702
-0.0118691
0.147949
-4.17216e-11
-1.58354e-22
-0.0857229
0.0253484
0.177501
-0.0550991
0.132498
0.00676234
-0.0768932
-1.70723e-10
-2.80812e-15
-0.000195437
0.0144786
0.00618714
-0.0524254
-6.16091e-15
-0.0300754
-0.00562336
-0.000443944
-2.80812e-15
-4.29501e-05
0
-0.0766182
0.00247656
-0.0450556
-2.81741e-06
-0.000241257
-7.95705e-11
0.102201
0
-6.00823e-07
-0.0862931
-9.96075e-10
0.0206594
0.00530295
-0.0230967
-0.000228196
0.00680089
0.00832278
0.00829915
0.0296993
-0.0460318
-0.0532686
0.00280279
0.0239736
-0.0319275
0.00405382
0.000790329
0.00394982
-0.0330644
0.0378546
0.0985648
0.00129147
0.00177673
0.0123405
0.0121584
-5.1421e-11
-0.0181247
-0.0848964
0.0357612
-0.0467695
0.000830687
0.00818738
0.00405382
0.0191924
0.00393106
-0.0333312
-1.1632e-09
0
0.0154697
-4.84897e-14
-0.333304
0.00205147
0.00143687
-0.114132
-0.0176056
0.0510001
0.0246152
0.113662
-0.000241257
-1.66263e-09
-0.00945564
-3.73937e-07
-0.000232715
0.0292857
-1.53922e-06
0.169925
-4.75589e-09
8.20883e-06
0.00746172
-0.0496971
2.35111e-197
-0.0429797
0
0.0264107
-4.75383e-09
-0.0306911
-0.000228196
-2.50999e-07
-0.0405057
-2.81741e-06
-0.0267471
0.0140509
0.0076954
0.0181014
-0.0693413
0.0204051
-1.91014e-07
0.0388845
-0.0425308
8.20883e-06
-0.0120371
7.01573e-322
-9.53547e-322
-0.000241257
-0.0458884
0.0199917
-0.0830446
-0.158661
-0.000248716
0.0221369
-0.000243379
-0.0123519
-1.70018e-09
-1.70247e-06
-0.169897
0.000132442
-0.052265
-8.74226e-07
0.0123778
0.0191932
-0.0602012
5.20576e-197
0
-0.0227228
-0.057081
-0.12679
-0.161523
-1.70018e-09
0.0399534
-0.0417645
4.89125e-322
-0.207785
0.0177642
0.0083881
-1.70247e-06
0.0669838
-3.92897e-08
0.00556225
-0.0566994
0.0378703
0.106774
0.00604123
0.0248517
0.154902
-3.80541e-13
-0.0547448
0.0076954
0.00405382
0.0205277
0
-3.80541e-13
0.0865166
-0.000228196
-0.000228196
0.110506
-0.0103966
-3.88976e-08
-0.169392
0.0214973
-0.0313491
2.095e-173
0.0701913
0.0227477
0.0449432
0.00348829
-0.0393951
-0.000228909
9.7931e-198
-0.159127
0.0651014
-0.0614624
-0.030656
-5.36505e-06
0.00870588
-9.96075e-10
0.0908215
0.0225418
-0.0314571
0.0108398
-0.0103136
0.113147
-0.0498258
0.00556225
-6.13304e-05
0.0934625
0.0765283
-0.0771651
0.168727
-0.0377598
-6.9255e-05
-0.0184324
-0.018237
-0.0425743
2.35111e-197
0.0375941
-0.0509316
0.140218
0.0928587
-0.0103371
-1.70723e-10
-0.019862
0.00785012
0.0201901
0.110786
-0.000243379
-2.96681e-06
0.40074
-0.00661102
-4.71661e-09
-0.0339322
-1.70723e-10
0.0451016
-0.000241148
-0.0864857
0.019752
0.062361
-0.110289
0.0206931
-0.0472461
0.0547211
-0.0230321
0.128272
0.0157899
0.00556225
-6.16269e-09
-0.0428908
-0.247362
-0.153812
2.35111e-197
-0.00488352
0.129688
0.00841202
-0.000225854
-4.84897e-14
-0.0731665
-1.1803e-08
-0.0119056
0.00319875
0.0183003
0.00942728
0.066016
-0.086689
-0.0461729
0.0240466
-0.0307599
0.0335936
-0.000228238
0
0.00814891
-0.00992349
0.00831344
0.051454
0.0925696
-8.74226e-07
-5.37171e-11
0.00793029
-1.1632e-09
-9.76476e-07
-4.62208e-06
0.00405367
-0.000231382
0
-0.00994089
0.00163009
-0.0857097
0.110786
-8.15208e-322
-8.28104e-15
-1.66107e-05
9.55301e-05
-0.000230795
-1.1803e-08
-3.74348e-07
0.052859
-0.0381472
-4.62208e-06
-0.0590234
-0.000228909
0.0372364
0.0908535
0.0315586
-5.38155e-10
-0.12679
-8.28104e-15
0.00805398
-2.19755e-06
-0.0769476
-0.0943609
0
-0.000452345
-0.0123519
0
-0.0320505
0.0513079
-0.019644
-0.0470083
-0.0660722
-0.0123519
-0.00843289
-0.0239057
0.0226467
0.0315586
0.29118
-0.0513456
0.0263123
-0.027859
0.0794887
0.0804781
-1.78438e-05
0.00618714
0.00821171
0.0395517
0.0027635
0.00675271
0.0885066
0.178385
0.0137612
0.0337835
-0.0297015
0.000142368
-0.047255
0.370667
0.0190361
-1.53922e-06
-0.0212146
-0.0354709
0.006272
-0.078649
-8.20322e-15
-0.000228196
-1.1632e-09
-0.0461512
0.0173328
-1.47337e-08
0.0868362
-0.0136348
0.1147
0.0281097
0.0277961
-1.3675e-19
0.117027
0.0730954
-0.0240171
0.0982002
0.0951909
-0.00781395
-1.88833e-05
-0.0389299
-0.00621775
0.141517
-7.10777e-12
-2.1541e-13
-0.0223287
-3.01539e-14
-8.49464e-08
-0.0931574
-0.0178905
0.144102
0.0344616
0.0265426
-0.0245955
0.00656093
-0.308209
-2.5122e-05
-0.0231118
-0.00022548
-1.70723e-10
0.0164295
0.0133981
-1.96476e-13
-4.38858e-06
-3.0138e-322
-0.311628
-0.134129
0.0584339
-0.0343887
-0.0382961
2.35111e-197
0.0335587
-5.52743e-06
-0.000241257
-0.0432214
-0.0878062
0.0928518
-5.26521e-11
-2.28931e-05
-0.0508918
0.0291273
0.0377492
0.00167001
-0.0121357
0.0281224
-0.0152124
0.00675271
-0.018268
-0.000241257
0.0184956
-2.31433e-07
0.0332885
-0.000241257
0.0357612
0.00832278
-8.47197e-06
0.00246392
0.199982
0.0140328
0.0179738
-0.000230246
0.0167751
-0.109512
-8.47197e-06
0.0128584
-0.0375554
0.0134057
-0.113372
0.142709
0.0190401
0.0582757
0.0223461
-0.111065
0.0337835
0.24343
-0.00259473
0.0129716
0.0106212
0.011947
0.0235156
-0.10951
-0.0092963
-0.0686154
-5.73921e-11
-0.0418505
0.110786
0.00404764
0.0245174
0.000142619
-0.051798
0.00691398
0.127545
0.027223
-4.28154e-21
-0.00707448
5.58294e-322
-0.0297326
0
0.0202001
0.00427385
0.00791876
-0.246044
0.0249193
-1.96476e-13
0.0159104
-0.000243132
-0.078749
0.481233
0.161834
-0.0691015
-0.0322984
-0.0525986
0.00675271
0.0384406
-0.0285217
-4.92451e-08
-0.0539984
0.0451016
0.262475
8.20883e-06
0.0288967
-1.1803e-08
-0.0627154
-6.00823e-07
-0.0521031
-8.4036e-07
-1.47337e-08
0.0202001
-0.0724982
-0.000228196
-0.0103792
0.0799861
0.0027635
-0.0300847
-0.000228196
-0.0207841
-1.3675e-19
0.00773117
0.0198082
0.10502
-0.0302798
0.0642072
-0.000228196
-0.051999
0.0411118
-0.00225542
-0.0310593
-0.0007661
0.0084171
-6.97218e-06
-0.00024577
0.0262734
-2.66775e-05
0.0140328
-0.0322297
0.00192049
-0.000132232
-1.96476e-13
-0.017741
0.0488406
-0.0821398
-0.0755168
3.64628e-05
-3.01539e-14
0.0627981
-0.0233277
0.0076954
-0.00831998
0.0367881
-0.023527
3.64628e-05
-0.003143
-1.3675e-19
0.229033
-0.000228196
-4.71661e-09
0.00883603
-0.06375
-0.000230354
0
0.0344483
0.0286424
0.00722272
0.00222599
0.0563481
0.00037498
0.02403
-0.0245931
0.0233074
-0.000213097
0.00341556
0.141553
0.0357612
-0.0247768
0.0127907
-0.0402198
-4.61545e-10
0.0276997
-0.0596935
-0.0108242
0.038971
0.0618417
-6.24177e-06
-0.093886
-0.000228196
0.00286245
0.024151
-0.00487576
0.0791817
0.013453
0.0222509
2.35111e-197
0.149562
-0.0457335
-0.0844397
-2.32153e-10
-0.0229097
-5.40698e-05
0.00675271
-0.00918437
-8.02373e-21
-0.00132346
-2.3534e-08
0.151033
-0.000230717
1.02632e-193
0.00801251
0.0225369
-0.000213097
-0.0749419
0.0239349
0.00129147
0.00675271
-0.00290622
0.120269
0.10402
-0.491432
-9.43665e-322
0.00133593
1.63536e-321
-7.1199e-07
-0.000228196
0.0656181
0.0671511
-0.000173017
-0.0108126
0.0524788
0.0646661
-0.0683182
-0.134987
0.122207
-3.39339e-20
-1.9208e-09
-6.94907e-05
0.013453
0.00405382
0.167746
-0.0355154
0.0164871
-8.73864e-09
-2.80812e-15
0.00489634
0.0466267
0.0772893
-0.054201
0.137135
0.0650127
0.00675271
0.0123778
-1.18817e-05
0.0285737
0.0481782
-0.0581024
-0.140935
0.0337835
0
0.0256915
2.095e-173
-1.60054e-09
0.00830554
0.0256915
-5.49368e-05
0.0221112
0.160905
-0.0631328
-0.163899
0.00574839
0.0292857
0.00621916
0.0207548
0.00405382
-0.00683795
-0.0123519
-2.80812e-15
-0.012047
0.299379
0.00809953
-0.0433984
-0.018602
0.0180169
-3.56115e-13
0.0256915
0.480885
-4.00193e-322
0.813824
0.049
-0.0776977
-0.0333312
-3.73937e-07
0.11371
0.00691398
0.0695834
0.0243751
0.00837156
-4.75383e-09
-0.000248716
-0.0161259
0.00182331
-0.000228909
-0.0246213
0.287108
-0.00589571
0.0434009
-0.023088
0.00666581
0.0180169
0.0595877
-1.27907e-06
-3.55491e-14
0.0138078
-0.0355657
-5.19734e-08
-0.0455081
-0.0107467
0.0553913
-0.00903015
-5.1421e-11
0.0371958
0.0552609
-0.0336082
0.0293549
0.0760593
0.123123
0
0.00632232
-1.66263e-09
0.105771
-5.11143e-05
-0.093266
-0.00411728
-0.103308
-1.93908e-05
0.120409
-0.0991781
-4.00354e-12
0.0076954
0.00405382
-0.196092
-3.86064e-09
0.00675271
-0.0760283
-0.032443
0.00769488
-0.109643
0.0670929
-6.16269e-09
0.0199981
0.0461093
-0.0158828
0.0258069
-7.63305e-06
-0.0286194
-0.0360262
-0.000225454
-1.58354e-22
-0.0103136
0.00675271
0.0528149
0.0218997
-0.0312114
-9.72341e-14
-0.0578694
-0.0535959
0
0
0.0420794
-1.58354e-22
-0.0769029
-0.0139149
-0.000230717
-6.02474e-14
-0.111023
0.0323038
-0.00372615
-0.032314
-1.58354e-22
0.0159141
0.111836
-8.28104e-15
-0.342773
-0.0458514
-0.069786
-0.0132612
-9.53547e-322
0.139773
0.0334759
-0.0311052
-0.053419
9.7931e-198
-0.0151273
-1.38375e-07
-3.70549e-322
-0.0208402
-0.000237385
-0.000195537
-0.212059
0.0367061
-0.0775456
-0.000173017
0.10412
-0.000228749
0.197664
-0.00468861
0.0108875
-0.0163904
0.00518717
-1.53922e-06
-1.09683e-321
-0.000228196
-0.123451
0.0279124
0.00037498
-0.0286194
-0.053419
-0.284022
-2.66775e-05
0.00982906
-1.46902e-08
-0.0103136
0.0586279
-0.00425569
-0.0367318
-0.0577311
0.316033
-0.0343626
-0.000228196
0.303133
0.0229507
0.0100699
0.00675271
0.0473573
0.102895
-0.0125288
0.0337835
-2.80812e-15
0.00812381
-6.94907e-05
0.000132617
-4.00354e-12
0.00841111
0.0976286
-0.0245931
-0.242327
0.000142619
0.0928518
-0.000232715
-3.56179e-05
-0.370682
0.0050893
-3.80541e-13
0.0838
-0.108848
0.0344245
-0.0514341
-0.000228196
0.0076954
-0.0309571
1.27268e-208
0.0213835
4.74377e-05
0.0922235
0.178084
0.171249
0.171249
0.115809
0.0230611
0.664388
-0.0207841
-0.240015
-0.247762
-0.000228196
-0.0286194
-6.13304e-05
-0.000228196
-0.000241257
1.18398e-208
0.0227609
-0.000165334
-1.56346e-07
-8.73864e-09
-0.0122287
0
-0.325995
-0.0476528
0.0771317
1.63536e-321
0.00225905
0.0392407
0.134145
0.0273002
-1.21307e-08
-0.294221
-0.00130326
-0.000231382
0.00675271
-0.00852038
-0.11582
0.000142619
0.119716
-0.000228196
0.0349584
-0.0507803
-2.32461e-06
0.284266
0.081342
-5.38155e-10
-0.0454303
0.0938775
0.00815333
-0.035547
0.200084
-0.0212381
-0.00781395
0
-0.0964233
-5.05125e-176
0.135668
-1.09683e-321
0.000794303
0
-0.139483
0.00391365
0.000280733
-6.16269e-09
-0.00903015
0.151415
-0.000399583
0.102884
-3.55411e-20
0.0347653
0.00988082
-2.0374e-05
0.0842035
-0.0278383
-1.08127e-10
-1.0077e-06
0.00838673
0.0588167
-2.80812e-15
-1.16541e-09
-0.00781395
0.0197301
0.0240466
0.0355268
-0.000237359
-1.58354e-22
0.00970195
0.00790424
-1.96863e-08
-0.035547
-0.000228196
0.0184956
0.061064
-0.0171971
0
-0.0159276
-0.012997
-0.11987
-0.00418605
0.00184232
-4.76336e-05
0.108686
0.0479478
0.00855467
-7.69904e-05
-4.17216e-11
-0.0162323
0.12968
-0.00530365
-0.106029
0.000317735
-0.150629
-1.16599e-321
0.0433219
1.71723e-208
-0.00372615
0.00803136
-0.000143345
0.00556225
-0.00910896
-0.0179805
-7.65742e-06
-0.0370133
-0.0330644
0
-1.3675e-19
0.0551946
-0.000248716
0.0424548
-1.00765e-05
-0.00903015
-0.0955462
0.0238469
0.153369
0.0619126
-0.0967753
0.0128837
0.00286332
-4.84897e-14
0.025237
-3.74348e-07
2.23055e-06
0.00524663
0.147852
-0.0509447
-0.000245061
0.00930584
-1.70723e-10
-0.063142
-0.027859
-0.0539984
-0.000228196
0.00627966
-0.0236615
-1.58354e-22
0.0142985
0.0204051
-0.00462995
0.0181014
0.0171677
0.00651886
-0.000228196
0.00810404
0.186277
0.000158295
-1.58354e-22
0.00732154
0.0343788
0.0100841
-0.043496
-0.0159346
0.121318
-5.02266e-176
-0.0389697
-1.70723e-10
-7.56704e-05
-0.0676784
0.0639402
0.0278219
-0.000243132
0.0105314
-0.0495959
-0.0686602
0.0315586
1.71723e-208
-0.0950643
-0.027859
0.0017159
-0.130628
-3.08713e-09
6.26518e-208
-0.0103539
-1.79598e-08
0.0199035
0.0829443
0.00691398
-0.0162289
0.0902148
0.000344981
0.000320701
0.00354461
-2.66775e-05
-1.46902e-08
-0.0679236
0.0137284
0.127086
0.0964574
-4.28154e-21
0.0582757
0.0118912
0.0275288
0.033761
-0.0344006
-0.101712
-0.0735716
-6.37518e-09
0.12696
-5.1421e-11
0.00555768
-0.0550237
-0.0550197
0
-0.070905
-5.73921e-11
-0.0213166
-0.0483569
0.0936227
-4.00193e-322
0.0076954
-0.000228196
0.0653537
-0.000228909
0.0204051
0.00633034
-0.148157
0.018464
0.00675271
0.0243196
0.145492
-0.0159757
0.121798
0.00390166
0.0360876
-1.47337e-08
-0.0697038
-0.0422925
-0.000213098
0.0700071
0
-0.000114451
0.00129147
0.102201
0.013453
0.0203286
-0.0103136
-5.37171e-11
-2.66775e-05
0.0108398
-0.000226629
0.00841494
0.119303
-0.00822002
0.021402
7.01573e-322
0.0853724
0.000936294
-0.0587952
0.00815347
-0.0302773
-0.0771914
-0.0123519
0.021865
0.00538415
-9.53547e-322
-0.000223096
-5.1421e-11
0.0192971
0
0.0960227
0.0192556
0.0443745
-6.16091e-15
-0.000230256
-0.00473262
0.0767365
0.101111
-0.0311904
-0.0349554
-0.00996112
-0.0464137
-9.51729e-07
0.0202001
0.00675271
0.0554412
0.0369113
-0.0188903
-0.0683425
-0.0798488
0.0116469
0.00970195
0.0470652
-0.0367318
-0.000241257
0.0285737
-0.0604011
-0.0611972
0.0108875
-0.0236615
0.0715062
-4.38387e-12
-0.00577954
-8.02373e-21
-0.00487576
-0.0450556
0.0138973
-4.53741e-07
-3.74348e-07
0.0596792
0.0122106
0.183009
0.000241106
-0.000228196
-0.0456941
-0.0608204
-0.00024063
0
0.00892012
0.0380208
-0.110112
0.0396622
0.00841112
0.01789
0.0720484
-0.116231
0.560134
-0.0504691
0.000739514
-0.0516671
-0.000243132
-0.00781395
-0.0876443
1.27268e-208
-0.032314
-0.0660722
0.0234295
0.0121279
-0.00155423
0
-0.0440516
0.00890201
-2.31433e-07
0.000344981
0.0180169
-0.000230353
0
0.0292364
-0.0748459
-0.0245931
0.0668336
0.0076954
-1.70018e-09
-0.0245935
0.0134708
-0.225249
2.35111e-197
0.0202001
-0.0456992
0.00172176
0.0227586
-0.0002278
-0.0132222
-0.000230256
-0.000228909
-0.0661165
-0.0297271
0.0267925
0.0491211
0.203552
0.0950182
0.0239349
0.0200022
0.0176474
0.0352518
0.0352518
-8.73255e-05
-8.47197e-06
0
0.062278
-0.0539984
-2.61676e-07
4.74377e-05
9.76773e-06
0.0553559
-0.000128709
-0.00832853
0.0171342
-0.0272623
0.00675271
0.006058
0.00621759
0.00375932
0.0479673
-0.0859219
0.000158295
-0.108883
-0.0356806
-0.0600435
-7.11949e-07
-0.00702118
-0.000228196
-5.37171e-11
-0.0262908
0.00755771
-3.74348e-07
-0.000226522
-3.80541e-13
0.00798444
-0.027469
0.0314839
0.200412
0.0109936
0.0224806
-0.0492757
2.63301e-206
0.0568828
-0.10197
0.00216544
-0.000228196
-0.000243241
0.00162934
0.00768855
-0.281931
-0.000228196
0.0151189
0.0341066
0.0549376
-0.0213166
-0.00781395
-0.0157467
0.00224078
0.0865518
-2.70162e-10
0.00942498
-0.000228196
-0.013654
8.49793e-322
-0.000228196
0.021402
-0.0425229
0.0102876
-0.0488028
-0.199279
-0.0002278
0.0156271
-4.499e-23
0
-0.0580281
-0.0988832
-0.00100841
0.00563769
0
-5.73116e-322
-0.00781395
0
0.0256635
-0.0702715
0
-0.0765366
-0.0207841
-1.70723e-10
-0.000228196
-0.0888482
0
0.134691
0.1634
-0.0525459
-0.169897
0.00105575
-1.96476e-13
-0.0834167
0.0224806
-0.0529979
-0.000228909
-1.09683e-321
-0.0123519
0.0166728
-0.0467202
5.65518e-206
0.0591808
0.0156286
-0.111294
-3.51492e-12
0.0106399
-3.88976e-08
-0.206991
-0.0876394
-0.0307599
-0.012694
0.0738277
2.25416e-05
-5.67198e-07
-0.000238258
0.00691398
-0.0795789
0.107752
0.00675271
0.0190424
0.0847032
0.339944
0.012999
-0.00994089
0.00769539
0.231459
0.00114955
0.0164295
-6.81811e-322
-0.0181247
-0.043451
0.11005
-2.91706e-05
-0.053419
-0.000228196
-6.13304e-05
0.0137087
0.0083881
-0.0763797
7.90505e-322
0.0981891
-3.80541e-13
0.0427399
-0.00874307
-3.88976e-08
-0.000241257
1.27268e-208
-0.0461492
0.0948319
-1.96863e-08
-0.0505784
0.0203311
-0.000222446
-1.07192e-09
4.48692e-05
-0.046033
-1.58354e-22
-3.73937e-07
-0.0840842
-0.218445
-0.276048
2.65276e-05
0.000830687
0.00281285
0.0352518
-0.169897
0.00405382
-1.93908e-05
0.0081593
-0.000228196
0.0076954
0.0335341
0
0.4114
-7.6935e-05
0.00798444
0.132579
-0.00976307
0.0202001
0.176848
-0.0159915
-0.137136
0.0135591
-0.000210449
0.0185727
0.000420431
-0.0276768
0.107109
-3.74348e-07
-0.00918914
0
-0.0200694
-0.0924906
-3.39339e-20
-0.172015
0.00405382
0.00799599
0.304385
0.00394982
-0.0445862
-0.000228196
-0.11713
-0.000228319
-0.0292104
-0.000223096
1.63536e-321
-0.0453812
0.00224078
0.0343172
-0.100041
-0.094542
-3.80541e-13
0.0131969
-0.0155178
0.0184956
0.00394982
-5.21152e-14
0.00815347
0.0076954
0.0168618
-0.0225823
-0.0416387
0.00143687
0.0874053
0.0323874
-0.000213097
-0.0685859
0.0076954
0.0223461
-2.50999e-07
-0.0763797
-0.0228449
0.0142899
0.0145261
0.00639719
-0.0560456
0.00340893
0.0571175
0.0378918
0.0098204
0.0243751
-0.0661165
0.0202001
-0.000228196
0.0812491
-0.000228909
0.00405382
-0.0176056
-2.66775e-05
0.0416443
-0.0434147
-0.000230353
0.00163009
0.0443745
-0.0092963
-0.0303491
-0.000226083
-0.0104969
0.244019
-2.66775e-05
0.0293377
0.00341556
0.0192971
-1.70723e-10
0.052909
-0.0519701
0.0883055
-0.153428
0.0253858
-0.000235713
-3.01539e-14
0.0076954
-8.02373e-21
0.000320701
-0.0167593
0.135069
-0.0562087
-0.0286194
-0.0002278
-1.03555e-05
-0.0849375
5.5939e-05
-0.00956986
-0.0383061
-1.70006e-06
-0.00843289
0.00753007
-0.000228196
-1.41391e-07
0.0100699
0.0292364
-0.000231382
0.0768792
0.0608441
-6.11219e-15
-0.0419139
0.00815347
-0.027133
0.105953
0.0666375
-5.05125e-176
0.00405382
-2.80812e-15
-0.0685164
-0.0198244
0.0138375
0.0100025
-1.00765e-05
-0.0483569
-0.0916722
-0.108475
-0.098642
-0.0367318
-0.110718
-4.84897e-14
-4.00354e-12
0.0123425
-5.05125e-176
-5.37171e-11
-1.58354e-22
-0.069662
0
-0.00943192
0.00281285
0.0377495
0.0582757
-0.0119952
-2.66776e-05
-0.0333239
-0.00781395
0.172795
-0.000228196
-0.0732421
0.000142619
6.42446e-09
-0.0749348
4.00861e-08
-1.00765e-05
-0.014087
-0.0244505
-0.0482688
0.140492
0.0372656
0.0027635
-7.11949e-07
2.095e-173
0.051116
-0.000226522
-0.0245931
-0.0107467
-0.0755569
0.0346219
-4.39373e-07
-0.000225423
0.0434009
-0.0447625
-0.175813
-1.53918e-188
0.427623
-0.0620362
0.00405382
-0.0950643
-0.000237555
-0.0645242
-0.0306911
-4.92451e-08
0.229458
0.011947
-2.97742e-10
0.0244773
-0.0461798
-0.053868
0
-3.91052e-08
0.0699595
-0.0117421
0.0100699
-0.0315549
0.0164267
5.5939e-05
0
0.0634703
-2.71035e-08
-0.000202937
0.100773
0.0377495
-7.11949e-07
0.0778778
0
0.0202001
-1.58354e-22
-0.0114425
-1.3675e-19
0.0402951
0.00466823
-0.00903015
-6.16269e-09
-0.141553
-6.16091e-15
-1.96476e-13
0.0583298
0.0221165
0.0235777
-0.0090524
0.0819508
0.0870385
0.224429
-0.0296413
-0.0304551
0.122493
0.011947
-2.50999e-07
-4.00354e-12
-0.00307755
-0.0604171
-2.96681e-06
0
-7.08878e-10
-0.114878
-0.0976555
-0.027859
-0.0148315
-0.11541
-0.0241383
-0.0320581
-0.0261601
-0.000213066
-0.00831967
-0.000223444
-6.94907e-05
-5.1421e-11
0.112357
-0.0255564
-0.057081
0.0499885
-8.02373e-21
0.0350323
0.0678993
0.000142619
-0.184151
0
0
0.0100699
0.0668691
-0.000233681
0.0352518
0.0243751
0.00746387
0.0292857
-6.00823e-07
-0.206968
0.00701378
-5.67198e-07
-0.0162581
-0.0208402
0.0123405
0.0396809
-0.0143911
0.0449432
-0.0123519
0.0245174
-1.49585e-07
-0.0957536
-0.0819898
-0.00971759
0.00935994
0.00394982
0.022208
-0.018602
3.19415e-170
0.0624855
-0.0447292
0.270655
-0.032314
0.0487974
-0.000230484
-0.000230717
-0.0402185
0.0865528
0.0201712
-0.0283922
0.011947
-5.37171e-11
0.000123432
-0.0266619
0
0.00163009
-4.75383e-09
0.00724194
-0.158993
0.00841112
0.00650958
5.64178e-08
-0.471903
0.00809953
-3.6351e-05
-0.0522563
-0.0845753
-0.0354397
-0.00769156
-0.000235713
-0.0231323
-4.75383e-09
-0.0199159
0.0083881
-0.0262883
0.00675271
-0.191324
-0.0207725
-0.194826
-0.0871061
-0.0502334
-0.023059
-0.00729983
0.00179338
0.0564384
0.0202001
-1.24505e-321
-0.00119355
-0.127021
0.0536468
-0.0657958
-0.000114451
0.151045
0.00359652
-0.0243925
-8.49464e-08
-0.284242
-0.0247328
0.113264
0.0396509
-0.0220981
2.35111e-197
0.109615
0.0349515
-0.0549746
0.0164295
-0.0250142
-0.000228196
0.00299522
0.00143687
0.0222959
-4.84897e-14
0.0113932
-0.000228909
0.0295791
-0.0817197
1.54067e-05
0.00675271
-0.0791417
-1.18817e-05
-0.0789179
-0.0300117
-0.0523158
-5.1421e-11
0.00615581
0.0990881
-7.24627e-11
-0.0461492
0.000142619
-0.0482814
-0.0158855
0.124601
0.0600055
-1.00765e-05
-0.108234
-0.00781395
0.00549792
-0.0232981
0.020569
0.067832
-0.0551067
-0.0672074
0.029602
-0.000241257
-1.17876e-07
0.0291273
-4.82054e-09
-0.112408
0.00777313
0.00127435
-0.000202937
-0.0212635
0.0509105
0.0172986
0.000830687
0.0111851
0.0317768
0.0174366
0.00405382
-3.80541e-13
-0.0133239
0.00222599
-0.00912923
-0.0355154
-0.000228196
-0.0521586
-1.3675e-19
0.0752145
-0.053419
0.0172105
-0.013175
-6.62048e-322
0.0642072
-0.0405325
-0.0613926
0.00776104
-0.0126487
0.0076954
-0.00874307
-0.0251765
-0.00429977
-3.55491e-14
-1.3675e-19
0.160441
0.0583546
-0.0207841
-0.0248407
0.0591808
-0.0198626
0.00777313
-0.0577531
0.185814
0.000265479
-0.0360262
0.00627966
0.000142619
0.127292
0.0273073
-1.77314e-14
-0.0408358
-0.129823
-0.0989407
-2.97742e-10
0.00446458
-0.145281
0.00829915
0.0553559
0.0083114
-0.000228196
-0.0245931
-4.39373e-07
0.074515
-0.000223096
0.0172107
-0.139181
-4.29501e-05
-0.0498653
0.0344483
0
-0.0324896
-0.000213097
0.0320316
0.0591682
-0.0310828
-4.75383e-09
-3.50905e-09
-0.0454303
0.0539654
0.0164295
-0.0959718
-3.21562e-05
-4.61545e-10
-7.6935e-05
0.0408969
-0.0222588
-1.09683e-321
8.49793e-322
0.0778751
0.00382491
-0.0415714
0.0100699
0.236402
0.0014765
-1.66263e-09
-0.000241257
-0.0481993
-0.0230831
-5.1421e-11
0.0108398
-0.124192
0.0177874
0.0142899
-9.96075e-10
-1.1803e-08
0.0315586
0.00341556
-5.49368e-05
-0.0123781
-0.00303476
-0.000228196
-0.000225717
0.0362082
-1.49412e-10
-0.000187779
0.00675271
-6.37518e-09
-0.020155
0.00675271
0.110549
0.115809
-0.0304551
-0.0194355
0
-0.0463401
0.0141918
-5.19734e-08
-0.00024063
0.0032449
0
5.58294e-322
-0.0182887
0.0245468
-6.00823e-07
-0.0897223
-5.49163e-10
-0.069662
-0.0617209
-0.0407403
0.00129147
-0.0803773
0.145521
-0.027859
0.215666
0.00846386
0.0486465
0.000840291
-0.021688
0.0269042
-0.018602
0
-0.0194124
-0.00903015
0.0240466
0.00927773
-0.0162581
0.0178707
0.0581161
0.018464
-0.059121
0.0291273
-0.00562336
-0.0355641
0.0192885
-0.037804
0
-0.0228115
-0.00781395
-0.10109
0.048719
-0.00674361
-0.045088
-1.70723e-10
-3.88976e-08
0.0223461
0.0389366
-0.0276173
0.00841202
0.00359375
0.0156004
-3.50905e-09
-0.00053844
0.00236659
0.025243
0.152387
-0.000165334
0.0243505
-1.16599e-321
-0.0244505
-0.0733856
-0.000243379
-0.143453
-3.80541e-13
0.0413186
-4.27854e-08
-0.0737853
-0.0898715
-0.053868
0.0330975
-0.140605
0.0110233
-0.105226
0.0125875
0.024375
0.194216
-1.71104e-10
-0.0821613
-0.0360262
0.00595141
-0.0431556
0.00825651
-1.00765e-05
-0.0187028
-0.0277182
0.0267925
-0.0177547
-4.14124e-05
-0.053868
-0.000241257
0.0949974
-0.110098
-0.0383758
0.0516295
-6.94907e-05
-0.0446246
0.040776
0.0164295
-0.0633652
0.0285737
-0.107416
-0.0334195
0.0877189
0.0076954
-4.17216e-11
0.0443745
-0.0308542
0.0552609
0.00556225
-0.0581798
-4.89349e-09
-9.96075e-10
-9.53093e-10
-0.000228909
-0.0422993
0.00675271
-0.0924988
-0.0876394
0.0112161
-0.018602
0.0378929
-0.0361083
-0.0112981
0.0319762
0.0601519
-0.00023865
0.00940739
0.00129147
-0.0140767
-0.0238286
-3.55514e-13
-0.000230484
-2.32153e-10
0
0.105727
-0.0043271
-1.0901e-05
0.00956876
0.00129147
-8.02373e-21
7.01573e-322
-0.018602
0
-0.025557
-0.0436099
-0.0524098
8.93314e-05
0.120117
0.00691327
0.0144786
-0.0835868
-0.0802034
2.35111e-197
-0.0376673
0.0076954
-0.00254696
0.0247595
0.0199513
-0.00269017
0.00102065
0.249772
0.0145261
-0.0152356
-0.0242292
-2.14633e-24
-0.0281417
0.000502797
-1.70972e-06
-0.0530918
0.00825651
0.0628263
-0.000228909
0.000498191
-2.30043e-10
-0.0455081
0.00037498
-4.39373e-07
0.0314839
0.0102876
0.0202001
0.0221381
-0.0386915
-1.27907e-06
0.147946
0.0380208
-0.0875315
0.000157675
-0.114269
-0.200507
-0.0583881
0.00695222
-0.000248716
0.101822
-8.28104e-15
0.0610392
-0.211696
-0.0338913
-0.034384
0
0.155826
0.0172939
-0.0401773
-1.96476e-13
-0.0273716
0.0251087
0.00359652
-0.120002
-0.000228196
0.0420794
0.00439916
0.0140328
0.00618714
0
1.13635e-322
-0.0894036
0.00129147
0.0698317
-0.0594178
-1.1803e-08
-0.053419
0.0167944
-0.12679
-0.0482009
-1.70723e-10
0.00691398
0.0341206
0.00405382
-8.02373e-21
-4.75383e-09
0.03778
-0.0056053
0.0712032
-4.75535e-05
0.0128022
0.161569
-0.0002278
-7.63165e-06
0.0928518
-6.15667e-08
0.0290167
0.0034062
0.00608178
-0.143336
-0.0821398
-0.0317329
-2.30043e-10
-0.0177547
0.00405382
0.0553559
0.0901926
-0.162169
-2.80812e-15
0.011048
0.00179338
0.017634
2.35111e-197
-5.1421e-11
0.139311
-0.000245061
0.065767
0.013453
0.00642575
0.000241106
0.0376553
0
-0.08393
0.0593179
0.00602195
0.0281004
-0.0287264
0.00556225
0.0337765
-0.289991
0.0172107
0.0499885
-8.28104e-15
-1.60054e-09
-0.00447754
0.000413803
0.0794887
-1.19583e-06
0
0.0440197
0.105214
-0.053419
0.0371157
-0.00731138
-0.0404169
-0.0418505
5.66308e-08
-0.000223096
0.0757395
0.000395342
-0.00745046
-0.0101629
-6.00823e-07
-0.0950643
0.0149115
0.112462
-0.000443944
-0.0922175
0.0220729
0.000830195
-0.0237096
0.0280065
-0.0092963
-0.000243379
0.132608
-0.0447292
-0.106854
0.00108271
-0.0921154
0.00830571
-0.00781395
0.392213
-0.00781395
-0.000228196
-0.0374784
0.0834396
0.0657046
0.0416443
-0.0238286
-9.14753e-07
-0.0504594
0.0199712
-0.0425722
0.166962
0.0113932
-4.27528e-13
-0.030656
-0.0447292
0.044428
-4.76912e-09
-0.0188463
-0.0680432
0.0306371
0.0076954
-0.00106925
0.0610392
-0.0817197
0
0.00764657
-0.125619
-0.000297686
0.000132862
0.0784759
0.0374228
-0.0780659
-0.0310122
0.061756
0.0292364
-0.0092963
0.051774
0
0.00615579
0.165601
-2.71035e-08
0.0445165
-0.012694
-0.0103136
-8.49464e-08
-7.75683e-322
-0.10882
0.00405382
-0.0150311
-0.0544749
-0.0608204
0.00129147
-4.17216e-11
-0.019897
0.0642072
-0.0587952
-0.0254525
-2.30043e-10
0.0298258
-5.18769e-322
-6.32657e-08
0.0104113
0.0076954
-0.0911422
0.0627981
0.00848193
0.0723955
0
0.0408405
-0.00186905
-0.103982
0.0185158
0.0368537
0.152164
-0.0417671
-0.0220396
2.59451e-05
-1.70723e-10
-0.190036
0.0138375
-5.73921e-11
-0.00372615
-0.0161066
-0.00487576
-1.58354e-22
-0.00232407
0.0330831
0.033473
-0.000243379
0.00541051
-0.000245061
-4.98075e-05
-5.38155e-10
-0.19809
-7.24627e-11
-0.00843289
-1.9208e-09
0.0277859
-5.58729e-08
-1.21307e-08
0.00815347
0.0789833
-0.0778218
-0.00381179
-1.1632e-09
-2.30043e-10
-1.41391e-07
-1.00765e-05
-0.00588428
0.140492
0.0513566
-1.70723e-10
0.00106067
0.0239895
-0.00022548
-0.00499021
-0.0289412
3.19415e-170
-0.0208847
0.000300586
-0.0850921
0.0236597
0.00129147
-1.70723e-10
0.067832
0.0443745
0.261789
-0.0123519
-0.00471955
-0.000442608
-2.19755e-06
0.0197294
0.0161762
0.00409586
0.00821001
0.0247595
0.0257375
0.0223678
0
0.002537
-0.118565
0.046775
0.0800791
0.00883084
-0.0120371
0.0205641
-0.0521586
0
-0.0296058
-0.114418
0.00589282
0.0147312
-0.000228909
-6.47731e-06
0.0835945
-9.76476e-07
-0.0589839
0.0330985
0.03501
0.0360089
0.0972716
-0.088863
-5.1421e-11
-0.00456898
0.0240466
0.030998
-0.0139344
-0.000228196
0.00391411
-0.0121357
0.000272075
0.0121279
-0.118565
-0.000228196
-0.00621817
0.0572642
0.107746
0.0287276
-8.495e-08
-1.66263e-09
-0.0127988
-0.0379586
-1.07192e-09
-0.0189071
-0.029844
0.0140328
-0.00163308
0.109428
0.03346
0.00222599
0.123891
0.000142619
0.0350569
-0.0794085
0.00691398
0.0859071
0.194724
0.0186217
0.00843104
1.27268e-208
0.00627966
0.00832278
0.0175811
0.00167001
0.0113932
-0.0462616
-0.0593371
0.0275758
0.0225369
0.0247595
0.00581488
-0.00494194
0.00892046
0.0513566
-0.0309701
0.00468907
-0.000243132
0.107678
-0.0694662
-0.0349014
-0.00474603
0.0243751
0
0.0253935
-3.39339e-20
-0.081811
0.00037498
-0.0112262
0.0246152
0.0622104
-2.96681e-06
-0.0536141
0.0123862
0.0121584
-0.0112981
0.00563997
0.0702296
-1.70723e-10
0.0702296
0.0652479
0
0.0716065
0.135034
-0.012694
0.0367341
3.90312e-322
0
0.0943351
-0.000228196
0.0118912
9.7825e-322
-0.0183608
5.66308e-08
-2.96681e-06
-0.000245061
0.00841111
-5.05125e-176
0.0384147
5.65518e-206
-2.55285e-09
0.000158295
-0.0740479
0.089203
0.0199513
3.73761e-07
-0.0320879
-2.05103e-05
-0.0431314
-0.112653
-0.00069985
-0.0228891
0.0131084
-0.0911706
-0.0641486
0.140649
-0.0356806
-0.0683637
0.00851653
-0.000213066
-0.041377
-0.100724
0.0253331
-0.0886171
0.00485087
-0.164312
-1.44766e-08
-8.20322e-15
-0.0422088
0.00271592
-0.000228196
-0.0620653
0.0123776
-3.3234e-09
-0.0310332
0.0255936
-0.0872938
0.00777565
0.441951
0.0499885
0.00270209
0
-0.160622
0.0424119
0.000344981
-0.0572183
-0.00750347
0.0204812
0.00405382
-0.0232981
-0.0132756
0.00958405
0.00746386
9.76773e-06
0.0417631
-1.14184e-10
-5.37171e-11
-1.70723e-10
0.021347
1.24956e-196
-0.0369286
-0.0311904
0.372537
0.0400686
0.024947
-0.119351
-0.118434
-0.000238283
-1.58354e-22
-0.0502409
0.0255389
0.00691398
0.00168364
-0.0950643
0
-1.3675e-19
-0.0246806
0.0225142
-0.000235731
-0.0449012
-0.0128115
0.1789
0.0614091
-4.53741e-07
-0.000228196
0
-1.96476e-13
-0.0150311
0.00618714
-6.37518e-09
9.7931e-198
0.00538415
-0.000221908
0.0292857
-1.56346e-07
0.00167001
0.0714208
-0.053419
0.0566914
-0.000230717
-0.0292899
0.0102876
-0.0727316
0.00405382
0.0225369
-0.0201659
0.0137647
-0.0593371
-1.9208e-09
0.0223003
0.00484402
0.124474
0.0309465
-0.109112
-0.022207
-0.10582
-1.9208e-09
0.105929
-0.108491
-2.55731e-06
0.0841972
0.0649718
-2.06302e-07
-6.16269e-09
0.0200123
-0.157941
-6.13304e-05
0.0671511
0.0104936
-6.62864e-14
0
-0.136864
0
0
0.015938
0.00239409
0.0140328
-0.012997
-0.0775456
0.0568828
-0.0812598
-0.00303476
-0.0552877
0.0185799
-0.0862161
-0.0407373
0.000300587
0.182714
0.0192971
0
-7.11949e-07
0.000830687
0.0729561
0.0223461
0
-0.126792
-0.0830599
0.118781
-0.0901316
0.0499885
0.114411
-0.0261601
0.0198181
0.0202001
-1.00765e-05
-0.0228449
0.046072
0.0148361
0.0641288
-4.17216e-11
-0.00376199
0.00831344
-0.0224354
0.00216544
-6.16091e-15
-1.19583e-06
-0.000228909
-0.00988521
-0.0292104
-0.0549746
0.0610392
0.0787013
-2.19755e-06
0.0315586
-0.0692811
-7.24627e-11
0.0930089
-0.0334195
-0.0246894
0.0185474
-0.0169249
-0.0662737
-0.0202511
0.0243751
-0.0790384
-0.0313491
-3.8385e-06
-0.0210054
-5.11143e-05
0.278873
-0.0362393
-0.0396604
0.145532
-0.0321399
-5.1421e-11
0.00327378
0.00299522
-1.70723e-10
-0.0245267
0.0377495
0.00206192
-0.130802
0.0341205
0.00691398
0.079492
-0.0376431
0.00163009
0.133249
-0.0478482
-0.0306911
-0.0407659
-0.0977512
0.0317768
1.72903e-196
0.00821171
-9.56953e-10
-0.138924
-0.000245061
0.150756
0.0510568
0.216898
0.0956869
-5.05125e-176
-0.0308445
-0.00152385
0.0324316
-6.16269e-09
0.0256635
0.0613178
-7.11949e-07
-0.118434
0.115392
4.89125e-322
-0.103436
-0.056731
-0.0215248
0.0925508
0.0076954
-0.0134883
0.0119448
-0.0321264
-0.00831998
-0.00529047
-0.00456898
-1.9208e-09
0.0020619
0.0144786
-1.58354e-22
-8.03582e-06
-1.53922e-06
0.252534
0
-0.0755865
-0.0516671
-4.75383e-09
0.0498709
0.000142619
-0.128781
0.0694509
-0.0114425
0
0.0225369
-2.20524e-12
-0.00922607
0.0184163
0.0140328
-0.0123519
0.0827091
-1.58354e-22
0.0880779
0.0148361
-0.0348533
-1.18817e-05
-0.0539984
-0.000225717
-0.109581
-0.026316
-2.20524e-12
0.00615581
-0.0132222
0.0588535
0.0587919
-0.0157467
0.0261328
-0.00903214
-0.0910104
-0.00903015
-0.090277
-0.0231829
0.0204005
-0.0245931
0.027393
-0.0183608
-4.27854e-08
-0.0145152
0.00405382
0.0140328
-0.0785746
0.0124826
0
-0.0123465
-0.0604926
0.0223003
-0.000234145
-0.00393046
0.00795369
-2.0374e-05
0.0358133
-0.0274997
0.000830687
-0.0228449
0.138311
-0.00582212
-0.0958282
0
-0.0383089
-5.21152e-14
0.0939152
0.271054
-1.46902e-08
-0.00781395
0.00833413
0.0414625
0.0571515
-1.58354e-22
-0.0312242
-0.000257583
-0.00179395
0.0688006
0.0502216
-0.000219409
-0.0695029
0.0199597
5.33591e-322
-7.11949e-07
0.101124
-0.0274784
0.0123788
0.0156271
0.00937082
-0.0303685
1.63536e-321
-1.56346e-07
-0.0286194
-0.171221
-0.034384
-0.00781395
-7.24627e-11
-1.9208e-09
-2.75559e-07
0.00163009
0.0335628
-0.00977551
-0.000233216
0.00819374
4.00861e-08
-0.0491658
-5.67198e-07
0.0233062
-2.19755e-06
0.126465
0
-1.93908e-05
0.119244
0.085773
-0.00781395
-0.0136301
0.0121584
-6.62048e-322
-0.189692
-0.02864
0.0370339
-0.000263178
0.0424548
0.0453607
-6.11219e-15
0.0330917
0.0957806
-0.0220331
-0.0767469
-6.71425e-05
0.000227603
0.0341206
-0.0461512
-5.73921e-11
0.0211992
0.209605
0.00285099
0.0556569
-1.96476e-13
-0.0127803
0.263061
-0.105464
-0.037818
0.0341206
-0.0730918
-8.02373e-21
-0.000241257
-7.8054e-22
0.132434
0.0292857
-0.0162581
0.0697171
-8.47197e-06
0.00675271
-0.000280024
0
-0.000225423
-0.00562336
-0.0165513
-0.000235713
0.0243751
0.00252172
0.0876711
0.0223461
0.0428139
0.00103671
-0.019255
0.00815347
-0.196551
0
-0.012997
0.0239349
2.63301e-206
-0.000315542
0.00574283
0.110759
0.00805398
-0.143226
0.0138375
0.13095
0.110759
0.0903371
-0.0419263
-0.113433
-0.0359525
0.0275758
0.000142619
-0.0683151
-0.140431
-0.00851909
-0.103082
-0.000230795
-0.183384
-0.0740579
0.00675271
-0.000245061
-0.00164394
0.0174366
-0.158088
0
0.0778778
3.19415e-170
-0.0683494
-0.000223096
0.00680089
-0.100899
-0.000221702
0.00815347
-4.27854e-08
-0.06375
-8.74226e-07
0.00319875
-0.103862
0
0.0757395
-0.0746422
0.00859659
-0.14329
-0.0176056
0.00997836
-0.147393
0.0872927
0.176813
-6.62048e-322
-0.0192624
-0.000230717
-2.32153e-10
0.00256779
-0.090277
0.00152221
0.158312
-0.0914902
0.0829936
0.0822712
-0.027859
-9.53521e-10
-0.0586412
0.0122073
-0.106797
0.00651886
0.0821199
-1.1632e-09
0.0492975
-0.000443944
0.0966949
0.00821001
2.35111e-197
-0.0068863
0
-0.0753598
-0.000225717
0.0160569
-2.80812e-15
-0.0748461
0.0576
-0.142325
-5.19734e-08
-1.70723e-10
0
0.0416443
-6.82939e-06
0.0315586
-0.198359
0.0154914
0.0179967
0.0156004
-0.0176056
0.0102876
0.00562304
5.20576e-197
-3.80541e-13
1.14129e-321
-0.000233216
-0.000228196
0.00798444
0.0155367
0.140872
0.0886548
0.10825
0.000204906
-0.0498562
0.0452128
0.00206192
0.000596395
0.0396362
0.119244
1.18398e-208
0.029716
0.0202394
-0.0221435
0.0243751
0.00319875
-0.000228909
0.0970763
-0.0488028
-0.103859
8.79267e-05
-5.38155e-10
0.117532
-3.56179e-05
-2.5559e-06
-0.0713626
-2.61676e-07
0.0275673
-0.000228909
0.00179338
-7.94014e-05
-0.0417671
-0.053419
0.00675271
0.0647586
0.0396622
-6.42285e-322
-1.66263e-09
0.0192556
-5.05125e-176
-0.0308445
-0.0486634
-0.0357661
-0.00758949
-0.0177778
0.00675271
0.00398676
-2.79225e-07
0.0216795
-0.00903015
-0.176257
-6.00823e-07
-0.0360262
0.0141875
0.0132987
-0.0306655
-1.45356e-06
0
0.0656942
-0.0288861
-0.069662
-0.160358
0.0243751
-0.027859
-0.0204921
0.0224806
-0.0247867
-0.11898
0.00556225
0.00883988
-0.000228196
-0.000454868
-0.0208659
-0.106305
-7.63165e-06
-0.0273768
0.0267925
-0.000228196
0.00414695
0.170327
0.0330954
0.0528542
0.0380208
-0.154609
-0.0309701
-2.30043e-10
-0.00181271
-0.000243379
-0.0114425
-0.0758154
-1.3488e-321
0.0156286
-0.112435
-0.000443944
0.018585
-0.0605641
-0.0180793
-0.0246241
0.0620521
0.112238
-0.0132612
-0.0114425
0.00841202
0.0140328
-0.0103136
-0.0265046
-0.0228115
0.0172107
0.035962
-0.0507221
0.0161466
0.137503
-6.13304e-05
0
-0.0158855
-0.043496
-0.0906963
-0.0177547
0
0.00602195
0.0982232
-0.0169696
-0.0332461
-0.0331772
0.0947857
0.0692518
-7.6935e-05
-0.0706318
-7.10777e-12
-0.105721
0.0446541
0.0382242
-0.0789179
0.0676228
-5.95703e-16
-0.0666191
-0.0705409
0.0446541
0.0387489
-3.55411e-20
0.0370945
-1.60054e-09
-0.0470082
0.123258
0.00840622
0.021891
-0.0899288
-0.0211562
-0.00903015
0.0163178
0.08358
-0.0454303
0.0443368
0.0288165
-1.08892e-05
0.00675271
-0.0744011
-0.06375
-0.000225717
-6.23802e-08
-0.0361809
-0.000228196
0.00243234
0.00785808
-8.62379e-05
0.000596395
-0.0596935
-0.0323029
-0.0119952
-0.000230795
0.00163005
-4.84897e-14
-0.0110813
-0.0991924
-0.0518017
0.00838673
-3.73937e-07
-0.0169249
-0.023426
0.132574
0
-0.0108016
0.00327378
0.0250895
-0.0458448
-6.00069e-16
-0.0283571
-0.0979559
0.000300587
-0.0570163
-0.038372
0
-1.17012e-05
0.129555
0.0188936
0.0628738
0.215347
-0.000243379
-0.057081
0
-0.0160797
-0.00781395
-1.88432e-05
-0.0720671
-0.000243379
-0.0633999
-1.14209e-07
-6.75182e-06
-0.0107542
-4.75589e-09
0.196772
-0.098156
0.00717611
-1.1632e-09
0.0180169
0.153371
-0.0157988
-0.0306351
0.0396622
-0.0133239
-0.0526265
-0.0539749
0.238307
0.00239409
0.00299522
0.00675271
-0.0471231
0.000502797
0
0.00247775
-3.3234e-09
-0.0359525
-2.50999e-07
0.0100699
-0.0132222
0.0081593
-0.122347
-1.66483e-05
0.00405382
-1.53922e-06
0.0370945
-1.66121e-05
-0.019862
-0.000323987
0.026723
0.0341206
-0.00529042
-5.05125e-176
0.0504595
-1.9208e-09
-0.0653258
-2.80812e-15
3.16926e-05
-0.016182
0.106351
-1.58354e-22
0.013054
-0.000243132
0
0.00950624
0.0265404
0.0720006
-5.1421e-11
0.0617741
-7.11455e-06
-2.0374e-05
0.000268889
0.00815276
-5.73573e-07
0.0225369
-0.0103136
-0.000222173
0.0144786
0.0286164
0.0201085
0.0165977
-0.000225619
0.00694845
-1.96476e-13
0
-0.0491502
-4.00354e-12
4.19476e-208
0.0655468
-0.00952838
0.0702105
-0.0513456
-0.0280536
0.0962904
0.00398554
-1.96476e-13
0.00272938
-0.144968
0.00837156
-1.96476e-13
-0.0133239
-1.08452e-13
-0.0314494
-0.0108669
0.0335204
0.0431885
0.165741
0.00281285
0.0537138
-1.00765e-05
0.133258
-0.0317516
-0.0661058
-0.0476528
0.0439248
-5.18769e-322
-0.0836054
-0.000224834
-0.0168564
0.00533061
-0.0007661
-0.0168786
-0.032314
-0.0260934
2.3191e-206
-6.00823e-07
-0.0356729
0.00129147
0.0748569
0.0315586
-0.0103136
-0.20138
-1.47337e-08
-0.250918
0
-4.62208e-06
-5.37171e-11
0.112268
-0.000228196
-0.0355154
-2.30666e-06
0.062132
-0.0317258
0.0511069
0.00207025
0.0389529
0.0294937
0.0595985
-0.0423253
-0.109866
0.0407836
-1.97819e-09
0.00841202
-8.32932e-07
0.0928518
0.00675271
0.0787013
0.0137277
-0.00456898
0.00656098
0.0366241
0.000241106
0.00675271
0.00813181
-0.0103136
0.0280065
-0.000245122
0.0344483
-8.02373e-21
-0.0155456
-0.0286194
0.0365484
-1.91967e-05
2.35111e-197
-2.50999e-07
0.0240466
-0.102866
0.03636
0.0840043
0.111597
-0.194413
0.0243938
-0.0233249
-0.0769407
-0.0245931
-0.177343
-4.00354e-12
-3.54764e-07
0.0118358
0.212446
0.0110577
0.0042087
-0.0831821
0
0.0323521
0.139227
-0.0722519
-0.0467876
-0.0228411
0.0628758
-0.0316771
-9.14753e-07
0.0141255
0.0853112
0.066764
0
-0.0290751
-0.135892
0.0252133
0.0936227
-0.000228196
-9.58293e-06
-9.70092e-06
0.0251401
4.19476e-208
-4.75383e-09
-0.0173106
-0.0298915
-0.00758745
-0.0944795
-0.136016
-0.0286769
0.141731
0
0.0267925
0.0285737
-0.0693885
-8.20322e-15
-0.00781395
-0.088626
0.0205278
0.129318
0.0121279
0.00828431
-0.00976307
0.0108875
-0.0841201
-0.0540188
-0.0158263
-0.000237634
-0.0466715
-0.00781395
0.136656
0.00691398
0.0315586
0.0134955
0.000830687
0.0178461
-8.02373e-21
-0.0132222
-0.0606473
-3.55491e-14
0.0954442
0.00272067
0
-7.11949e-07
-0.0866423
0.0140328
-0.000228909
0
-3.53483e-06
0.0315586
-0.210681
0.00732154
-5.19734e-08
-0.102734
-0.0147044
0.0281343
0.0850195
-5.05125e-176
0.044779
-0.12679
0.00675271
0.189151
0.00159923
-2.02121e-05
0.091789
0.0600055
-1.58354e-22
-2.30043e-10
-0.022118
0.0325824
-0.000243132
-0.0264636
-0.0042074
-1.70723e-10
-3.92897e-08
-0.053419
-0.0218785
-3.55411e-20
-7.6935e-05
-0.226912
0.0691155
-0.0583881
0.0185474
0.0137647
-0.0390328
-0.117075
-1.09683e-321
-0.0246579
-0.10071
9.7931e-198
0.152341
-0.000228909
0.110324
-0.0899288
-0.107828
-0.013654
-1.58354e-22
0.00538415
-0.0763797
-0.0406336
-0.00781642
-0.0454303
-6.16091e-15
-0.0231427
-2.7237e-15
0.144505
0.0083936
0.125567
0.0869189
-0.0317329
-0.000228196
0.0776461
-0.000219409
-0.00308405
-8.80531e-06
-2.21135e-12
0.0720904
-2.96681e-06
0.0181014
0.0583546
-0.0402198
-0.00880599
-0.019862
0.00518717
0.176227
0.00216544
0.0181767
0.0710577
-0.0789179
-0.000228196
-0.0383874
-0.0552716
0.000739514
0.074515
-0.0221031
-1.58354e-22
-0.111506
0.0625717
5.65518e-206
0.101656
0.00815347
0
0.015938
0.00538415
-0.0228115
-1.5346e-10
-0.0826211
-0.0379699
0.0819508
-0.0293485
-0.180514
-0.0136563
-1.79598e-08
0.00639719
-0.123413
-0.0404558
0.000158295
-0.0140814
-9.14753e-07
-0.000228196
0.00468907
0.00832278
0.0281004
0.0134708
-0.0123519
-0.08838
-0.0186172
-0.0378165
-0.0374638
0.0076954
-6.69778e-06
0.0292657
0.0164295
0.299804
-6.00823e-07
-0.019862
-3.55411e-20
0.0547016
-5.73921e-11
-0.246319
0.0361407
-8.47197e-06
0.0199626
-0.0118691
-2.80812e-15
-0.0160596
-0.00456898
-0.0214819
0.00138813
0.137673
-0.252129
0.0264082
0.0733687
-0.108475
-2.32153e-10
0.120269
0.00675271
-5.18769e-322
0.103149
0.00831344
-2.20524e-12
0.0250472
-0.0931092
-0.0300754
0.0169853
0.0204051
-0.0688371
0.00159923
0.0123405
-0.0757299
-0.00831998
0.0241174
-0.00024063
-0.0212146
0.0315586
-1.82993e-05
-0.00367511
0.0375616
-2.32153e-10
0.0892825
0.011947
-3.53483e-06
0.00909785
0.0902361
0.00246393
0.0315586
-0.0555619
-0.0232981
-0.000228196
-2.20524e-12
-5.38155e-10
-0.0407101
0.0337835
0.033476
-0.038621
0
-0.0763797
-1.73265e-05
0.000830687
-0.00868446
-0.000228909
-0.102874
-1.96476e-13
0.0243196
-0.0831821
0.00552786
0.0288842
-0.0519701
6.26518e-208
0.00129147
0.0616898
-5.38155e-10
-0.000228196
-0.0878954
-3.27496e-06
-0.0720671
0.00609696
0.00832278
0.033476
-0.000128709
0
0.0325824
-0.0819508
-0.0185603
-0.0196673
-0.0862264
0.165785
-0.0538401
0.0850858
-8.47197e-06
-0.0333239
0.112144
-6.97218e-06
-0.0694563
-4.38387e-12
-0.00874307
-0.000226629
-0.272792
-0.0620362
-1.1803e-08
-0.00596758
-0.0461492
-1.21307e-08
0.0962044
-0.0230003
0.0242783
-1.1803e-08
0.0350482
0.0076954
-0.000228196
0.0203687
-0.0092963
0
-1.08118e-10
0.167255
-0.053419
-0.000228196
0.0299593
0.0117989
0.0159977
-0.00825579
0.0314839
0.0378652
-0.000222248
-0.0857692
-0.0705403
-0.426563
-0.0818222
-4.00354e-12
-5.11143e-05
0.00675271
-0.191066
0.00841202
0.0275058
2.095e-173
-0.000967454
2.63301e-206
0.0199905
0.0115618
0.118461
-0.000228196
-1.1632e-09
-0.0540271
-0.0583881
0.0315412
0.0122884
0.0226467
0.0076954
0.0076954
-0.00903015
0.0383397
-0.0548043
-0.050989
-0.061713
0.00821001
-7.90041e-09
-0.000228196
-4.71661e-09
-0.399091
0.121574
-0.045088
-0.00908799
-0.090097
-0.000190396
-0.0228449
0.0544337
-2.80812e-15
-0.0236615
0.0754493
0.467288
-2.32153e-10
-0.0216099
0.00790211
-0.0163521
-6.32657e-08
0.00782325
-0.000230795
-0.000615377
-0.00642069
-0.038948
2.35111e-197
0.017383
-0.0177547
-0.00781395
-0.0958282
0.00677632
0.00172176
0.0451167
0.0985492
-0.0706318
0.0129947
0.00775686
-1.96476e-13
0.021402
-1.96476e-13
0.0591364
-0.000486871
-0.000667601
0.116112
-0.000213757
0.0140043
0.00556222
0.0574056
-0.000231978
-6.94907e-05
0.0596792
0.029284
-0.00689853
0.00773117
0.00860233
-0.0415947
-0.0327827
-0.0789179
0.0145261
0.010336
-0.0289999
-3.73937e-07
-0.0338913
0.0233074
-0.0550703
-0.0229143
-0.0210054
-6.69778e-06
-0.000231382
-1.47726e-321
-0.0228461
-0.0242262
-0.00843289
-0.0119952
0
-0.0313788
-0.0447292
0.0197095
0.0466267
-2.80812e-15
-1.70723e-10
0.0146026
0.0314839
-4.35612e-06
-1.61028e-05
-0.0241318
-0.000464487
-3.6351e-05
0.00656098
0.157942
0.619562
0.000830687
-2.97742e-10
0.0199905
-0.0186808
0.0357612
0.021402
0.0156286
0.033097
0.0230499
0.0249884
-0.0265677
-0.0513456
-2.18261e-05
0.00299522
0.000840291
-0.000248716
2.095e-173
0.052965
-0.00392407
-0.0512153
-0.0557547
-3.50905e-09
-0.037667
-0.0940839
0.0134942
0.00531128
-0.000222806
-8.47197e-06
0.0027635
-0.000241257
-5.18769e-322
5.5939e-05
-0.000238283
0.260894
8.93314e-05
0.00151457
-1.58354e-22
-0.0581798
0
-0.00903015
0.00825651
-7.14555e-06
0.0394351
0.360299
0.00598279
0.00865535
0
-2.7237e-15
0.0180169
0.0282926
-0.102869
0.033891
-0.012694
-0.0623861
-0.0134883
0.0768326
0.00468907
-0.0121357
0.0296037
-0.0316522
-0.0326505
-0.0232981
-0.00562336
-0.000225144
-1.9208e-09
0.0200123
-0.0967456
-8.26499e-05
0.0240466
2.35111e-197
-0.0704759
-0.0684265
0.0320343
0.010114
-3.3234e-09
0.0523989
-0.000248372
-8.02373e-21
0
0
-0.0079556
0.025243
0.0080768
-0.00769156
0.0449432
0.00804502
0.00923702
0.00804502
1.71723e-208
0.00815276
-0.102303
-0.0816333
-0.0159343
-0.0351823
-0.0651834
-0.146908
0.0153243
0.00312141
-0.0955074
0.0252284
-1.49412e-10
-0.128661
0.0612507
-1.18817e-05
-0.000230795
-0.0521031
0.00129087
-0.0454303
-0.0103136
0.115414
0.0464685
-0.0226096
-0.00222962
0.031372
-0.0260849
0.020408
-1.1632e-09
-3.88976e-08
0.0644459
-0.10089
-1.49412e-10
-6.00069e-16
-4.27854e-08
-0.0466608
0.149555
0.000596391
0.0113823
0.0538736
-0.0147188
0.0128208
-4.75383e-09
0.0140509
-0.0724982
0
0.0244773
-0.0977577
-1.41614e-13
0.0179955
0.0185474
0.0325823
0.0174029
0.0223003
0.000132862
-0.0132222
-0.0339138
-8.08135e-05
-0.0472942
0.00651886
-0.059619
-0.0144203
0.019752
-0.0092963
-0.0132976
-6.23802e-08
-0.000228909
-0.106114
-0.125013
-0.098642
0.0512962
-2.50614e-05
0.0158733
-0.17635
0.103022
-1.96863e-08
-1.53922e-06
-0.0919399
-0.00781395
-1.70723e-10
0.0254373
-3.80541e-13
0.000123432
0.026513
0.0291596
0.0207597
-0.0461492
0.00222182
-0.0425722
-0.029821
-0.0159986
0.000840291
0.0864373
0.033476
-0.168253
0.0323367
-3.55411e-20
-0.000228196
-3.56179e-05
-0.0232961
-0.0407373
-0.0950643
0.101661
-9.14753e-07
-0.389423
0.11096
0.0604513
0.00984349
-0.0791154
0.0452318
0.00143687
0.0818967
-0.0211356
-6.97218e-06
-0.000250745
0.16035
0.0179738
-0.0857978
0.0947993
-3.4354e-05
-0.00621775
-0.018566
0.0076954
0.0610036
-0.0123519
0.00815347
0.017906
-0.0221031
0.00790424
-0.0061651
-0.010172
-8.36194e-06
0.0224889
9.19852e-05
0.00222995
-0.0193686
-0.100436
-0.0587503
-0.023059
-0.000228196
-0.0404169
-0.0248429
0.0343172
-0.122741
0.0156271
-0.0417671
0.000142619
0
0
0.110757
-7.69903e-05
-0.013654
-8.02373e-21
-9.43665e-322
0.0777173
-0.0123519
0.081342
-0.0453196
-0.020155
0.0380208
0.000502797
-0.198044
0.0639014
-0.000231382
-5.05125e-176
-0.0950643
0.0519612
0.0279401
-1.08439e-05
-0.000213097
-0.0789179
0.0265404
0.042409
0.0308028
0.0191093
0.00804502
-0.000238283
-1.49585e-07
-0.0215117
-0.0367318
-6.62048e-322
0.00804937
-0.0426043
0.000129852
-5.2874e-07
-8.28104e-15
0.46089
0.0239349
-0.0461512
-0.000243132
-0.0304551
0.110759
-0.118162
0.0245174
0.0208872
-0.0494302
-5.21152e-14
-3.91277e-08
-3.55514e-13
0.00777565
0.0628738
-3.55927e-07
0.0335904
0.0820001
-0.0456941
-6.00823e-07
0.0102876
-0.0306491
0.089203
0.00446458
0.0100945
-0.0402166
0.00206146
0.00518717
-0.442942
-0.00024063
-0.090277
0.0109626
-0.0536288
0.119136
-4.62208e-06
-0.127956
0.0076954
0.0433219
-0.0645646
-0.0322712
-0.0418505
-0.31673
0.00341556
-3.91052e-08
-0.000443944
0.000827648
0.0330831
-0.02427
-0.0355024
-2.88275e-11
0.0154872
-0.000235713
-0.119653
0.0317768
-0.0308639
-1.1803e-08
-0.000213097
-0.00456898
-0.0958304
0.0204051
-1.1632e-09
-6.00823e-07
-1.58354e-22
-0.10203
0.000374573
0.00734268
-0.0112981
-3.88976e-08
1.27268e-208
-3.54764e-07
-0.053419
-0.0236673
0.0229136
-0.00133475
-0.000241257
0.000482287
0.00129147
-4.27343e-05
-0.000396259
0.0256635
0.24754
-0.0250763
0.0164295
-0.000228909
0.0182852
0.0243628
0.0380692
-0.000228196
0.0986446
-4.62208e-06
-0.0331772
0.0664314
-0.0790384
-0.040849
-0.0007661
0.108987
-7.24627e-11
-1.0901e-05
-0.0304551
7.01573e-322
-0.158738
-8.28104e-15
-0.000221217
0.000830687
-0.054046
-0.00418605
-0.00916181
-2.7237e-15
0.0134857
-1.56346e-07
0.021402
-0.0239767
0.0076954
-0.000226083
-0.0152871
-0.0637759
-0.0838311
0.185042
-0.0221435
-0.0306764
0.236855
0.0433219
-0.103862
-0.0618075
0.00405382
-0.0068863
0.115809
-0.0661165
-0.00580018
-0.0376085
-0.051726
0.046625
0.0081593
-0.000226629
1.84039e-207
-0.000248736
-0.00022571
0.00616432
0.000739514
-0.0739976
0.0224512
-1.58354e-22
0.00181909
0.0479819
-4.75383e-09
0.0838457
0.00538415
0.0477814
-1.0901e-05
-0.0959582
-1.58354e-22
0.0382668
0.0275957
-0.0231983
-0.00781395
-0.0309701
-0.0085746
0.102145
1.71723e-208
-4.38858e-06
-0.250438
0.0367265
-0.000228196
-4.499e-23
-3.74348e-07
-0.0158855
0.000655341
0.00405382
2.095e-173
0.0787013
0.00801251
-0.0119164
-0.181213
-0.000225619
-0.053419
0.110759
-0.0477443
-0.0454027
0
0.00207025
0.00179338
-2.1541e-13
-5.95703e-16
0.0818967
-0.133825
-2.20524e-12
0.0134708
-0.0256509
-1.96476e-13
0.00466823
-1.96476e-13
0.00675271
-0.00018624
-0.0607081
0.00530295
-5.1421e-11
-0.100275
0.048529
-0.111943
-0.0450556
0.0579965
-0.0466715
0.00921441
-4.27528e-13
0.0121279
0.043617
0.00467129
-0.00781395
-0.0297271
-3.88976e-08
-2.80812e-15
0.0155108
-0.0181247
-1.58354e-22
-4.89349e-09
-2.82683e-05
-0.000225423
-9.72341e-14
-0.0251719
-0.0423253
0.00832278
0.0347653
0.00215533
0.00605801
-0.000241257
-0.0092963
9.7931e-198
0.00179338
0.012078
-0.000201936
-0.0950647
0.0337322
0.0148586
-0.0740004
-0.00781395
-0.00781395
0.00390166
0.000919627
0.0138375
0.0158886
-0.000228909
-2.26314e-05
-0.153428
0.0187698
0.00319875
0.0226467
-0.0226096
0.0202001
-5.02266e-176
0.0202001
-0.000213066
0.0289389
-0.00562146
-0.000225144
-0.0103136
0.0076954
0.00581488
0.0313812
-0.00764952
-0.000248716
-0.000236735
0.0956949
-2.70162e-10
-0.0159739
-8.20322e-15
-6.23802e-08
-5.73921e-11
-0.0284629
-7.75683e-322
-3.55491e-14
0.0353056
0.00734887
-2.20524e-12
-8.28104e-15
0.0382898
-0.135653
0.0205394
1.72903e-196
0.00807141
0.0390469
-2.30043e-10
0.00970195
0.00239409
0.0362416
-1.00894e-05
0.0298174
0.0240466
1.24956e-196
0.00877823
0
-7.10777e-12
-5.86887e-05
0.0098585
-0.00378366
0.00386531
0.0138375
0.0149622
-0.206509
0.0316028
0.0323038
-1.58354e-22
0
0.00207025
0.0731604
-0.0396057
-0.0988977
0.0172107
-1.70723e-10
0.0223994
-0.000228196
0.00777313
0.0162223
0
0.00405382
-0.0237351
0.0185145
-0.0110203
-0.0260934
-1.58354e-22
-7.50431e-07
-0.0180239
-8.73864e-09
-0.0338686
-0.0150178
-1.96476e-13
-0.0202556
-0.0148565
0.00632232
-0.331134
0.0416443
0.00037498
0.212542
-0.0200694
0.0344483
0.0117989
-0.000228196
-0.0187787
0.0184956
-1.96476e-13
-0.012997
0.0302229
0
-0.0381542
0.0248267
-0.0335828
-7.11949e-07
0.00817526
2.46566e-06
-1.93908e-05
-0.000230256
0.0834396
-0.000213097
0.00405382
-1.58354e-22
-0.0360262
-0.10569
0.0262504
0.00815347
-6.37518e-09
-0.0720671
0.00995967
0.00675271
-0.0587503
-0.0061651
-0.0360262
0.0130538
-0.000195437
0.561511
-0.0390595
-0.000221965
0
-0.00903015
-0.0603769
-2.80812e-15
-0.0693589
0.00222995
-0.000228909
0.273765
0.000142619
-6.02474e-14
0.00675271
0.0458255
0.0428089
-1.4237e-07
0.0121279
-0.0311904
-1.09683e-321
-0.000230256
-0.00806651
-0.00758748
0.162272
-0.0193803
0.0682173
0.0204051
0.000827648
0.00769469
0.0960142
-0.000241257
0.0140241
