-2.87889e-09
1.63204e-171
-0.0202883
0.0151838
0.0234175
-2.25197e-07
-5.67664e-05
-6.47341e-05
-0.0526807
-5.67664e-05
0.00244587
0.0178834
-0.0691296
0
-0.000307748
-5.10315e-08
-1.75588e-08
0.0136721
0.00480338
-0.00660891
-6.18707e-05
-0.0428
-0.180742
0.0309997
-1.729e-05
-0.000307748
0.0523862
0.00822036
-0.0266225
-0.012346
-0.0082226
0.0019971
-1.85233e-07
8.21623e-98
0.0156022
0.0334736
0.0103868
0.0235357
-1.66308e-05
0
0.108694
0.060676
-3.27655e-15
-8.91713e-08
0.0351109
0.0693784
0.00822271
-6.23796e-06
0.00929226
-0.0288063
-0.0726319
0
-0.0168538
0.0844383
-2.56148e-275
4.06356e-269
-0.000272817
-0.00394748
-7.73057e-08
0.052595
5.68761e-173
0.00270163
-3.06941e-38
0.0744287
-0.1451
0.0252679
0.000919535
0.0214002
-0.0320084
0.00439164
0.0313723
0.0480278
-0.035977
-0.0106027
-0.392181
-0.0240235
-2.53981e-06
0
-2.53561e-05
-0.0359191
0.0196432
0.0172974
-0.000123012
0.0946895
0.0666116
0.104093
0.00602042
0.0056317
0.103318
0.0252679
0.0897319
0.000125266
0.0601088
-0.0278189
0.018795
-0.0405981
0.225476
0.193053
-0.000159899
0.0579326
-0.0168538
5.68761e-173
-0.0131133
-0.0177779
0.0110331
-2.61741e-13
-0.00927211
-9.17966e-06
-3.69518e-05
0.203637
-4.17186e-08
-0.0290646
0.0259883
0.0235945
-0.0212488
-7.97229e-06
-0.0791704
-2.50397e-05
-0.129003
-0.14097
0.0522689
-0.00407313
-0.183576
-0.0688715
0
-2.29682e-07
0.0180475
-0.0247499
-0.0237149
9.57664e-05
0
0.000736685
-0.00660891
0.0284246
0.0310606
0.0852533
-0.00768755
4.06356e-269
-0.0626251
-0.000105702
0.0428421
-0.00262807
0.00882415
0.301976
-3.18477e-05
0.0179288
0.0631563
-1.7088e-05
0.0226853
-0.0489966
-0.0269557
-0.00587736
0
0.0205063
0.110918
0.0334736
-0.00951503
-0.00947812
0.0103541
-0.000147632
0.0823879
-0.109789
0.0345845
0.113058
5.68761e-173
-0.0146676
-4.85946e-77
0.0300706
0.0255536
9.66354e-05
0.120075
0.00412377
-0.00674499
0.0143836
0.123163
-0.0381604
-0.00621446
-0.0675186
-0.0381336
-9.8243e-05
-0.0168538
-0.0125947
-0.012934
-0.0264483
-0.0306806
-0.0242453
-0.0541685
0.160767
0.0165444
0.0309997
-0.00392379
-0.0785437
-0.00638941
-0.000272817
0.0212416
-0.126505
-0.0823486
0.000315206
-0.113462
-0.0867106
-0.0877561
-0.0224789
0.0196689
0
0.057287
5.68761e-173
0
0.0342244
0.00289223
-0.0290646
-9.11637e-13
-0.00677391
0.047137
-0.12309
-0.108012
-5.67664e-05
-0.103842
0.0326858
0.0624492
-4.30602e-08
0.0409992
-0.0168869
0.00143176
-0.00019936
-0.0138901
0.00174959
-8.28916e-09
0.178541
-0.0320954
4.06356e-269
0.0860482
-1.81294e-06
0.00033788
0.119483
0.0025273
-0.0721433
0.0825324
-0.0279362
-2.21916e-07
0.0152873
-0.0105916
-0.0183947
0
0.0362622
0.0409396
0.00437352
0.0213668
0.107657
0.194229
-5.16497e-09
-0.110195
0.137335
3.20591e-170
0.0413639
-0.0125947
-0.0398847
-0.040301
-9.85403e-08
-0.0181004
0.0962293
-0.057695
-0.189756
-0.0102471
-0.0381336
-0.00660891
0.173805
-0.0319098
-2.22008e-07
-0.044175
0.00515335
-0.0438534
-0.0342887
0.0161435
-0.0699573
0.000118955
-0.0400927
-0.140893
-0.0202883
0.0451677
-2.78044e-08
-1.08708e-11
-6.47341e-05
-0.391011
0.0151388
0
2.04316e-158
0.0283034
-0.120232
0.104924
-0.029497
-0.020407
-0.0124042
-0.141296
-0.000225927
-0.0268236
-0.0215103
0.0305745
0.0414005
-0.273898
0
-0.0135364
-0.0216473
0.00240684
-2.50397e-05
0.146562
0.144278
0.0178834
0
-0.0219082
0.00383301
-2.93402e-05
0.0356919
-0.000105999
0.100834
0.0582643
-0.0487089
-0.0306806
0.0606803
0.0508674
-7.74358e-09
0.116674
0.062991
0.193624
7.09921e-05
-0.0211448
-0.0707047
0.00261599
3.18773e-06
0
0.365238
0.132862
-0.124722
0.0772304
-0.035977
0.0700013
-0.0249302
0.00125601
-0.012333
0.00129102
-1.39086e-06
-0.0156297
-1.47431e-05
-0.00739638
0.145741
-4.30602e-08
0.00252874
-0.0280806
0.00144586
0.0578312
-0.0858688
0.127181
-0.033687
0.134093
0.113831
0.00822271
-0.0632601
-0.0106027
-0.0611816
-0.043212
0.0152873
0.114696
0.111655
-0.010661
0.0638873
0.0417725
-0.0218502
-0.0126069
-0.106524
0.144472
0.052595
-0.132828
-3.66799e-05
0.0306759
-0.000271315
0.119784
5.68761e-173
-0.00783534
0.0707166
-1.30311e-13
5.68761e-173
-0.0515093
0.000315206
-0.0720016
0.0092923
-0.00803504
0.0383203
-0.0419256
0.00148055
-0.018338
-0.0342887
0.0514914
5.68761e-173
-0.073582
-0.0419259
-9.85403e-08
0.0337718
9.57664e-05
-0.0015132
-0.120073
0.00174959
-0.0131133
-0.0136204
-0.00462415
0.0145058
-9.4765e-06
0.0205063
0.0783485
0.0196689
-0.0449944
-5.49029e-05
0.0358678
0.0256036
-1.08708e-11
0.0253053
-0.0579927
-0.0170084
0
0.0121074
0.0156022
-2.0238e-05
-0.041097
-1.13777e-12
0.0725664
-1.83777e-05
-2.21916e-07
0.00144746
3.20591e-170
0.0246082
0.0783004
0.000457675
0.0408627
0.00328297
-0.0396294
-0.00157261
0.0946895
-0.000272817
0.0345022
-7.09827e-05
-0.0667536
0.132646
0.0150436
-0.0629037
0.0165444
0
0.0255718
0.00428268
-0.0303125
-0.0353885
0.0275844
-0.0716544
0.00252874
0.0327008
0
-0.0290646
5.68761e-173
-0.0726746
-0.0243517
0.000133216
-0.155227
0.00374725
-1.7333e-05
-0.0568733
-0.020407
-0.0111599
-0.0460301
-0.000191282
0.0599539
0.050809
0.00731292
0.149239
0.00813434
-0.0664842
0.0215695
-0.0356931
-1.12511e-06
-0.0692794
-0.108149
0.00244542
-0.15302
-0.0184382
-0.335957
-2.83912e-05
-0.0530568
0.00165735
0.0775803
0.0261274
-0.0410447
-0.0123227
-0.0332359
-0.195748
4.06356e-269
0.166254
0.0189004
0.0131987
0.126205
-0.0438534
0.0971641
0.0314854
0.0143836
-8.99374e-07
0.12377
-0.0290646
-1.00233e-12
-0.0242314
0.0666116
-3.66799e-05
-0.020407
0.0380879
0.00120423
-0.0859179
0.0103554
0.0531177
0.102941
0.0743823
-5.44869e-13
-0.242895
-1.67182e-08
0.0391915
0.000862986
-3.66799e-05
-6.77243e-05
-0.0488364
-0.234786
-0.0347966
0.0033636
-2.01913e-07
-9.6412e-10
0.179623
0.0442484
0.00731292
-0.101968
-0.194577
-0.0315378
0.113164
0.0392053
0.0412878
-0.0436162
-8.23829e-11
0.0123069
-0.0244377
0.000209232
0.216984
0.000550009
-0.0238706
-0.0149972
0.0456137
-0.115276
-0.136627
-2.62404e-11
-0.133799
0.00320382
0.0590104
0.136887
0.0150858
0.0413991
-0.00017091
-0.126573
-0.0347952
-0.00967197
-0.0172519
-0.038624
0.0566519
-0.0347935
0.353694
-0.0258787
0.000348398
-8.67161e-10
-0.0652801
3.61278e-05
-0.0247499
-9.85403e-08
-0.00317055
-0.0315914
0.0491672
0.135277
-0.0707502
-0.0201364
-0.0146675
0.00319118
0.0403408
0.0112922
4.16809e-06
-2.53083e-09
0.00422441
0.0454483
-1.14111e-08
-0.0126642
-0.0241054
-0.0402677
-0.00200156
0
-0.0178315
-0.0844205
-0.0300442
0.00969153
5.68761e-173
-0.0131133
-2.87716e-06
0.111178
1.16089e-05
0.0663199
-1.729e-05
-9.78998e-05
-0.142368
0
-0.040107
-0.00012428
0.0962639
0.0568647
0.0286692
1.11931e-285
-0.0345237
0.14386
-0.0238944
0.0549492
0.0838091
0.0525404
-3.17078e-06
-0.0610047
-0.0591006
0.0142517
-1.1073e-15
-0.0779015
0.214389
0.0491673
-0.130182
0.00120423
0.00428888
-0.041466
0.00252874
0
0.0102465
-0.0247499
0.0261216
-3.27655e-15
4.06356e-269
0
0.0360478
0
-1.47594e-06
-0.243006
-0.0817051
0.0491746
0.0205063
0.0015898
0.0068173
-0.0456197
0.0898248
0.00295383
0.185112
0.035741
-0.0276376
0.153117
-0.0288343
-0.0721402
-0.0209752
0.0309997
-0.000132006
-1.2405e-11
-0.00189016
-1.17604e-05
0.01106
0.0380879
-0.00991545
0.0116029
0.00260947
-1.24999e-321
-0.0381639
-0.000783482
-1.02445e-06
-5.16627e-09
0.0383203
-3.16e-08
-0.0654343
0.00293319
0.0791229
0.0723043
-0.0865672
0.134869
0.0479052
-1.79506e-05
-0.0202883
-0.0660016
3.26083e-322
-0.00617685
-0.050348
0
0.0304129
-0.191887
-0.0434659
-0.116622
-0.062313
0.112973
-0.102669
-0.000261124
-0.0921928
-0.057695
-0.150401
0.0757963
-1.08708e-11
0.000408704
0.069852
5.68761e-173
5.8889e-104
-1.13172e-11
-0.0817807
-0.0279106
0.00764002
-0.0863568
-5.18394e-09
-0.00617773
0.100834
4.06356e-269
-0.0236414
-0.0215611
0.130965
0.00725414
-1.02988e-05
-0.0137236
0.675066
-0.0690042
-1.20733e-07
-0.0290646
0.0236689
-0.0347009
0
-0.0230482
0.00955411
-0.0347152
4.74052e-06
0.0217333
-2.5155e-06
0.0507873
0.0225637
-0.0257794
0.270689
-0.173216
-0.0271487
0
0.127279
0.089282
0.390966
0.34564
-0.0995649
-6.0407e-05
-0.0208328
-9.6412e-10
0
0.0615771
0.0961682
0.137995
-0.0419665
-0.0221034
0.0732298
0.0248734
-0.0905219
0.000457675
-0.00434926
0.00269133
-8.21349e-07
-0.0548257
-1.13777e-12
0.0213668
8.21623e-98
1.45252e-285
-0.175344
-2.01913e-07
0.0803449
-0.0187865
-0.114077
0
3.20591e-170
-0.0201684
1.14918e-05
-0.0762869
0.0173257
0.0216692
-0.162829
-0.182143
-0.010324
0.197479
-0.0107991
0.0165444
-0.00936858
-0.0745432
-1.31097e-07
0
0.0907529
-0.0131133
-0.192518
-0.0869221
-0.012939
0.0352068
0.0711192
-0.22211
-0.012939
0.0374134
-1.07325e-08
0.0701069
0.433602
-0.072392
0.000228837
-0.0153105
0.0533314
0.0205063
0.0553309
-0.0234951
-5.18303e-09
5.68761e-173
-0.275346
0.426062
5.8889e-104
-8.33092e-07
0.0252679
-4.13734e-06
-5.8466e-06
0.191314
0.0738637
0.0991853
-0.133645
-0.0599631
0.00165765
0.00163722
0.181715
0.0504809
-2.42799e-05
0.0408889
-0.057695
-0.143964
0.106125
-0.0394674
0.121096
-1.01216e-05
-0.0275019
5.8889e-104
-0.0170084
0.0751142
-0.106714
-0.00214132
-0.0191065
0.0275692
0.0112922
-0.0484342
-0.0656449
0.000320633
-8.51293e-06
0
-0.0306806
-2.61741e-13
-3.45024e-12
-7.4325e-07
-2.21916e-07
-1.85233e-07
0.0674253
-0.0214043
-0.00709183
0.000245693
0.0110331
-0.000123012
-0.0568733
-0.0310136
5.8889e-104
0
0.091474
-0.000147632
0.0689768
0.160444
0.0681251
-0.00030253
4.06356e-269
0.00338132
-0.0568709
0.0406633
-2.36961e-05
-0.0286439
0.0140345
0.0459542
-1.08708e-11
-0.012986
-2.93402e-05
7.09921e-05
0.0580108
-0.0971371
0.0147468
-0.0359726
-2.30642e-07
0.127192
0.00252874
-0.0240577
0.0136721
0.000189891
0
0.0588515
0.132222
-0.119948
0.00428888
0.0476525
0.0283119
0.00345997
0.0372379
0.0559728
-5.97638e-09
-5.49029e-05
-0.0902056
0.137995
0.0092923
-3.17078e-06
-3.89295e-285
0.0113634
-5.10315e-08
0.00120423
0.010521
-1.02988e-05
0.276676
0.0309997
-0.0571296
-2.08122e-06
-0.0383405
-0.0015132
0.0189214
-0.0391426
0.0205063
-0.0392797
-0.0402677
-0.0106163
0.000772771
-0.0229929
-0.0168538
-0.0327219
-0.0809413
-0.0396468
-4.71294e-07
0.000453171
-0.0287721
-1.17971e-33
-0.0530465
-0.00708593
-0.0568968
0.107657
-5.10315e-08
0.00165557
-0.106542
-0.0578367
0.00305438
-2.93402e-05
0.000315206
-1.13172e-11
-0.036908
-0.0106163
0.101848
-9.7415e-05
0.0221381
-1.47594e-06
-9.11637e-13
0.0732114
0.0878563
0.00587986
-0.0618547
0.00594091
0.039853
-0.0485535
0.0710708
0.0601256
-0.0122304
0
-0.106524
-2.24972e-08
-0.0494249
-0.0295102
-4.87179e-06
-0.0204952
0.0984341
0
0.00558678
0.0213668
0.0393706
0.177012
-4.21769e-09
-0.0178538
-0.115988
-7.97486e-08
0.148922
-0.00991436
0.0015898
0.0298098
-1.81294e-06
-0.0391935
-0.00126542
0.138505
0.0181812
-0.0391086
0.000167814
5.68761e-173
-0.0226427
-0.0567264
0.100555
0.0488727
-9.37625e-06
-8.1456e-06
-0.161382
-9.11637e-13
0.026843
0.108566
-0.0015132
0.0199318
-0.0405981
-8.07256e-05
0.00681731
-7.10203e-13
0.000315206
0.0762402
-0.0342651
5.68761e-173
0.000736685
0.00725414
0.000161525
-0.0300446
0.00732513
0
0.0308404
0.0567839
-2.16331e-05
-0.0546375
-0.0507642
-0.0626705
6.52045e-285
0.0664722
-0.0371609
-0.000123228
0.0151673
0.00180872
0.0205063
0.0600883
5.68761e-173
-0.000211751
-1.00517e-07
0
-0.141305
-9.13994e-06
-0.000126069
-0.00208432
-9.13994e-06
0.00469087
-0.252624
-0.023809
0.0478637
0.00228776
0.00681731
0.0246003
-1.13454e-08
0.0601728
-1.03307e-09
-0.0261544
-0.0178301
-0.0661312
-0.012939
1.63204e-171
-2.01913e-07
-0.0102471
-0.054733
-0.00927211
-0.0456688
0.0175702
-0.0153105
0.131562
-9.89632e-07
-0.126839
0.0136172
-1.07325e-08
-0.0244562
-0.160242
-0.0455507
-0.0381336
0.107884
0.0165444
-3.27655e-15
-0.0135364
0.0015898
0.0921788
0.0113434
0.000128402
0.0128729
0.0156022
-0.0430346
0.232343
-0.0126642
0.195388
3.47737e-07
0.0427268
0.0178834
-0.0306847
0.0733685
-0.0970921
4.06356e-269
0.258037
-0.0215614
-0.080649
0.00242964
-0.0891365
0.0136172
0.0686058
5.68761e-173
5.68761e-173
-0.0729926
0.120034
-0.0658226
0.0156022
5.68761e-173
-0.0422381
-0.0612447
0.000133216
0.000403407
0.0113016
-0.151837
0.0959782
0.0136172
-0.00813062
-0.0290646
-0.0220972
-0.0688601
-0.043991
-0.0198612
-0.0356024
0.0798301
-0.0974047
-4.81144e-07
-0.0242453
0.214669
-1.47431e-05
0.0379483
-0.0242453
-0.0327219
0.00113433
-0.0184382
4.06356e-269
0.0620829
0.0319475
0.123726
0.00376298
-0.0449681
0.11333
0.0572772
0.386637
-0.0306806
-0.0386575
0.123296
0.0207189
0.0753387
0.0110331
0.0224187
-1.13172e-11
-0.00939075
0
0.130831
-9.6412e-10
-0.0601801
-0.0507853
0.0112176
-7.99219e-06
-0.148948
-5.10315e-08
-1.03976e-07
-0.0828562
0.0057222
0.0113634
-2.17078e-06
0.00558777
-2.08122e-06
-0.0438534
0.0417725
-1.07325e-08
0.000245693
0.0309997
-0.0483133
-0.000284872
-0.010661
0.0085867
-0.013372
0.0422527
-0.0830503
-8.1848e-05
-3.66799e-05
-0.117721
0
-1.25117e-07
-0.122126
-0.0745432
-0.000164504
-0.0238085
-0.000130507
-0.0651557
-0.102112
-2.17078e-06
0.00813434
-0.126118
0.236492
-0.11602
-1.25117e-07
-0.0197513
0.0199447
-8.33157e-07
-0.0141455
-0.178175
0.0783485
-0.0568733
-4.2268e-11
-0.0532618
0.128345
0.305082
0.0177386
-0.0307806
0.00338946
-0.106524
0.0169206
0.0356919
0.0759096
-0.0290646
0.0545903
-5.73771e-06
-0.000125652
-0.00972329
0.0131987
0.0609152
1.01835
-0.0784152
-0.0154101
0.156256
-0.201949
-2.1054e-11
0.00512418
0.0705916
-8.15125e-05
0.061926
-0.0428601
-0.00027947
-0.0480177
-0.032506
0.0151748
-0.275081
-0.278274
0.0245927
-0.0645716
-0.0511425
0.0173908
0.0750998
-0.0181162
-0.114971
-0.0300446
0.0382629
0.0382629
0.124773
0.0533399
-0.259941
0.105943
-0.0632757
-0.00208432
-0.00349772
-0.00709183
-0.0632757
-1.02988e-05
-0.0910438
0.0526204
-0.0391086
-6.77243e-05
0.0820812
-0.0192989
0.180909
-0.052118
-0.0883888
-0.0690517
0.0864402
-0.0015132
-1.17886e-07
0.0015898
0.000756503
-0.0434001
0.00129747
-0.0939688
-1.02871e-05
-0.0219173
-0.085063
-0.0321572
-0.035977
-0.0903037
-0.0729926
-0.207868
-0.0116375
-0.000471618
-0.240468
-1.57389e-07
0
0.0674253
-0.119886
0.0235357
0
-0.00764631
-0.0201748
0.0393546
-0.225823
-3.23125e-07
0.0206209
-0.069945
-8.29486e-06
-2.65294e-07
-0.0247678
0.177219
-0.0841541
0.0702283
-0.0244303
0.000418868
7.09411e-05
-8.79556e-06
1.69465e-321
-0.00991436
0.039225
0.0553686
-0.000124228
-0.00681021
0.0506827
-3.03738e-05
0.022702
0.0319379
2.4542e-06
-1.30311e-13
-0.0331517
0.00133194
-0.000472362
-0.0898917
-0.0664606
-0.099345
-0.000221443
0.109579
0.0372379
0.0372379
0.00174959
-6.1035e-05
-0.010661
0.0147083
0.0165444
-0.063692
-0.0290646
0.0122061
-0.00883976
0.0864791
0.0205063
-0.0131862
0.0308843
-0.098791
-0.0888378
-0.0448637
-0.211374
-0.0367821
-0.0166515
0.0864402
-1.87911e-05
0.00237488
0.0418045
-0.0350357
2.622e-08
0.112175
-8.51293e-06
0.0857638
-0.144807
-0.0332359
0.0323403
-0.0262215
0.0446309
-8.99374e-07
-0.00317055
0.0288932
-2.61741e-13
0.052173
-0.010661
-1.03575e-07
0.0351013
-8.23829e-11
-7.97229e-06
0.0205063
0.169431
-0.2367
0.155123
0.0269895
-9.11637e-13
0.104335
0.0467548
0.451245
0.0178834
-1.50632e-10
-0.101999
-0.0170084
0.0743823
-0.0129387
0.292507
0.060668
-0.0125947
-0.0281891
0.00848715
-8.51293e-06
0.0258277
0.00901292
0.00149345
0.0403073
-0.150145
0.0234175
-0.0197931
5.68761e-173
0.0136859
0
-0.0456688
-0.0241225
-0.0760017
0.0797372
0.0443194
-0.0156073
5.68761e-173
-0.0306006
0.0100526
-3.27655e-15
5.68761e-173
-0.012939
-0.00324516
0.0245293
-0.0564362
0.0442484
-3.27655e-15
-0.0604471
0.0880426
0.0621699
-4.38245e-06
0.0657605
-0.0389171
-0.0338477
-0.000124228
0.0567839
-0.0528218
0.00822271
0
0.113019
0.00208977
-0.0368477
0.0380879
0.00120423
0.11084
-0.020407
-1.13172e-11
-1.02988e-05
-0.0705887
-2.985e-07
0.0417725
0.0320086
0
-0.00619811
0.00469087
0
0.000846917
0.0657606
3.5191e-05
-2.85882e-05
-0.021207
-0.0690517
-6.1035e-05
-0.0202883
-0.0195581
-0.0757417
-0.0667489
-0.0181162
6.44802e-05
-0.0540326
-0.167777
0.000862968
0.124872
-2.53083e-09
0.00469087
0.0346709
-0.0384445
-0.0131133
-0.059752
0.0479052
0.00439216
0
-1.12873e-06
-9.7415e-05
0.128416
-0.201608
-0.000217594
-0.0928596
-0.0202883
-0.0387254
-0.0695114
0.0382629
-2.78044e-08
-0.0306806
-0.023809
-0.0466045
-0.0116495
-0.270295
0.0940206
-0.0275919
-0.161069
0.110153
-3.8298e-14
0.00632243
-0.0244377
0.0322692
0.00817366
0.12862
-8.81422e-07
-0.0329473
-7.74358e-09
-5.03271e-11
-0.0700417
-0.0821527
0.0723111
-0.11806
0.0355865
0.0359444
-0.00317055
-0.0381473
0.0282812
0.00764002
-0.0122304
0.303091
-1.85233e-07
0.00558777
0.0114771
0.0571098
-0.0181162
0.064812
0.0259883
0.0298172
-0.090153
0.0620829
0.0170355
0.0392232
0.00399621
-0.0168538
-5.6909e-05
-0.0278189
-4.30602e-08
0.0436467
-0.0251668
0.0275284
-0.0148995
0.0553108
-0.106677
-2.08122e-06
-0.0356024
0.0495537
0.104491
0.0773547
-2.21916e-07
-0.112125
-0.0234098
0.00371245
0.00944778
0.00731292
-2.19434e-06
0.0161912
-1.13172e-11
0.0225711
-0.0124376
-9.03048e-09
0.32411
-0.000164504
0.0232703
0.0194888
0.00913081
0.0308843
-0.0202883
0.132908
-0.476079
0.00957079
-5.86639e-05
0.166351
0.0413679
-0.0254201
-0.0985733
-0.0268647
0.00813434
-5.10315e-08
-0.0326439
0.132646
0.120236
-0.0196203
-0.00271727
-0.00506324
0.186754
-0.0632757
0.00406759
-0.0952915
-5.10315e-08
5.68761e-173
0.00164256
-2.01913e-07
-0.00394748
-0.00394748
-5.28969e-05
-0.0799918
0.0722103
-0.185097
-0.0266225
4.16809e-06
-0.0571421
0.0205063
-0.00110034
0.0416134
0.0513195
-0.0190489
0.0533399
-0.0498957
0.00225693
-6.65932e-12
0.00141461
3.28414e-275
-0.0319833
0.0434458
-0.0858913
-1.8419e-05
-0.0131136
0.162127
0.0286012
0.0382629
0.0461649
-0.085179
0.0370987
-0.0121594
-0.0554984
0.0156022
0.0295432
-0.0991677
0.0413639
0.0964436
0.00225297
0.519531
0.0252683
0.0348747
-7.74358e-09
0.0774989
0.0672713
0.0304393
-0.0185228
0.20354
-0.0426712
-0.0632378
-2.1054e-11
-0.00627743
0.0511936
0.0217333
-0.0195396
-0.0539767
0.0946895
0.17305
-0.00258103
0.00215868
0.00881903
-0.0473069
0.0448075
-0.0243517
0.0872817
-0.0242327
0.0417725
0.0491317
-2.6436e-13
-0.0290646
-0.0123227
0
-5.10315e-08
0.000636937
-0.00560161
0.026129
0.0488564
-0.190829
0.00881903
-0.130872
-3.27655e-15
5.76993e-05
5.68761e-173
-0.0244377
-0.0572091
0.00120423
0
0.00247031
-0.0831397
-0.133581
0.0312467
-0.398766
-2.21916e-07
0.0664722
7.56735e-170
0
-0.0880514
0.0658577
0.0194227
-0.0374339
0.00786263
0.0309997
-0.21544
-7.97229e-06
0.0509465
-0.0270754
-0.00924088
0.11024
0.00469087
0.436561
0.0151039
0.00424194
-7.88861e-05
5.8889e-104
0.238456
0.0874842
0.0179288
-0.0833899
0.0253541
-0.0528218
-0.0615818
-0.0865382
-2.09484e-321
0.0372104
-0.0173537
-0.0781017
0.0029091
5.68761e-173
0.0144353
0.00148055
-0.011607
0.103262
8.21623e-98
0.160748
0.0374134
0.00813434
0.152086
-0.00991436
-0.0959595
-0.102886
-0.0234951
-0.0639494
0.0354354
0.131383
-0.0461139
-0.103823
0.000403407
-8.14314e-05
0.209917
5.8889e-104
-0.0996437
0.00113285
-5.67664e-05
0.0011684
0.00414802
-5.03271e-11
1.63204e-171
-0.018338
-0.0307957
0.153782
-0.0586576
-0.0319892
-0.126085
-0.0134702
0.0937803
0.0683837
-0.012939
-0.102183
-0.0496886
0.0183668
0.175049
-0.0895865
0.00286103
-0.0545388
0.142706
0.000100483
-2.65294e-07
-0.155501
7.09921e-05
-0.0391086
0.00399621
0.0233031
4.06356e-269
0.00105022
0.0742611
0.00806785
-0.014158
-0.0455507
0.00469087
0.0309997
-0.00650204
-0.140634
0.00813434
-0.0190483
-0.0729948
0.0594881
-5.11713e-05
-0.0242921
0.0664722
-0.0471648
-0.116081
-0.0204106
-0.0449496
-3.66799e-05
0.000158979
0.00141461
0.0176155
0.0387022
0.176644
-0.026455
5.8889e-104
-6.65932e-12
0.0024433
0.0412506
0.0225183
-0.151333
-0.0175228
-0.00364729
0.0131848
0.0012619
0.000315206
-2.87716e-06
0.0726136
-2.1054e-11
-0.0794875
0.0442484
0.014153
-0.0497602
0.0151388
-9.23913e-11
0.00120423
-0.00318356
0.0147833
-1.47594e-06
-0.0427076
0.0671306
0.0706523
0.186774
0.123597
-0.0429823
-0.012939
-0.0247008
-0.000217594
-0.151235
0.00882415
-1.5316e-322
-0.179005
0.0817808
-0.00434597
-0.0521744
-0.0490433
-0.00261579
-2.7921e-08
0.0582643
1.45252e-285
0.0874131
-5.9857e-06
0.107047
0.0205063
-0.0122319
0.0439603
-0.123675
-5.46949e-06
-0.00627743
-0.019845
-0.0168538
0.281348
-2.35086e-06
-0.0315927
-0.0635923
0.0320527
-0.144196
-0.14423
0.0543496
0.159876
-0.137726
-0.0560725
-0.0217213
-0.0615451
-0.035977
-0.124066
-1.47431e-05
0.0824673
0.0196428
-0.0379133
-0.0568733
0.0441154
0
-0.00193156
-5.10315e-08
4.06356e-269
-0.0280806
0.0436191
0.0473432
-0.000280792
-0.0515874
-0.202141
-0.076579
0.0116029
0.00032066
0
-6.56564e-05
0.0107688
-0.0306011
0.0380879
0.0103554
1.45252e-285
-0.0381639
-0.0568452
0.0107596
-0.0216403
0.0103541
-0.0614756
-0.00523504
-3.55269e-09
0
0
-0.0644305
0.0597767
-0.0248968
0.00498972
-1.17971e-33
0.176052
0.0205063
-0.000747042
-0.0770902
-0.00208432
0.0678043
0.00110928
0.00237488
-2.09484e-321
-0.0332359
0.0153329
-1.02988e-05
-0.00261579
-0.0742323
-0.0906191
-0.0370603
0.0294754
0.0147833
0.250281
-0.00126542
-0.0419665
-0.0168538
-7.63768e-06
0.00203993
0.00469087
0.151792
-8.28916e-09
0.0015898
-0.0838322
0.112269
0.0503543
0.000983989
0.0165842
0.0579398
-0.0368203
0.00184713
-0.0106027
0.12553
-0.0837421
-0.048255
0.202156
0.0362629
0.013208
0
0.0298759
0.0564209
0.0234175
-0.0460175
-3.82024e-05
-0.00394748
4.06356e-269
3.20591e-170
-0.0378753
0.000716518
-0.0328881
-0.020407
-0.0315916
8.21623e-98
-3.03467e-06
0.0594798
0.0674253
-0.117623
-0.021556
-0.0473069
-0.00372125
-0.0437967
-0.0196203
-0.0506451
0
0.104338
0.0412878
0.000736685
0.0940411
0.0356919
-0.144796
-0.00537604
-0.146811
0.032266
-0.0432965
-0.0888378
-0.0149847
0.0340701
0.0169206
-0.00394748
-0.0728988
0.0529846
0.00240684
5.8889e-104
0.0874842
-0.256325
-1.13172e-11
0.116031
-3.84964e-05
-2.99368e-07
0.0169206
0
-0.0904344
-0.0306006
0.0322874
-0.0257289
-0.0167271
-9.6412e-10
1.42291e-321
0.0033636
-0.00313733
0.00151944
0.0151218
-0.0301057
0.0819624
0.0322874
0.00338643
-0.245163
-0.0185228
-0.0126642
-0.0201684
0.091678
0.224039
-0.000191282
-0.123858
0
1.45252e-285
-1.81294e-06
7.09921e-05
-0.00728378
-5.84399e-07
0.0397787
-0.115306
-0.00902079
0.000228837
-0.0336252
-0.0139151
0.00532664
-1.30311e-13
0.0732298
-0.000168639
-1.70879e-05
-2.5155e-06
0.0160731
0.0258813
-0.0823573
-0.0816574
-0.129346
-0.013793
0
-3.27655e-15
-8.23419e-05
-2.7921e-08
-0.0184622
0.00237488
-0.0166515
0.0975014
-0.000191282
0.0636158
0.180419
0.108138
-0.0137773
0.00348585
0.0299554
0.00477409
0.0110303
0.00186494
0.0140247
-0.0817783
-0.115149
-0.0223391
-9.43083e-07
-9.89632e-07
0.025767
0.000736685
2.04316e-158
0.00237488
-0.0818077
0.0181675
-0.00292003
-1.13777e-12
0.04016
5.68761e-173
0
0.0332573
-9.6412e-10
-0.0290646
-0.0881696
-4.85946e-77
-6.47341e-05
0.0263478
-0.074389
-0.0288343
0.0309997
0.00174959
-0.136288
0.0326864
0.00307518
-0.166399
0.0136721
0.075658
0.0380879
0.0029091
-1.16989e-08
9.7601e-06
-0.0532493
-0.0470944
-0.023439
-7.65209e-06
0.0147022
-0.0407809
1.63204e-171
-0.0417734
-0.0244377
-5.10315e-08
0.0101838
-0.0677835
0.0759096
0
0.0261274
-0.0684651
-2.87889e-09
0.0823253
2.77398e-09
0.0255718
0
-9.11637e-13
-0.0177901
-0.0402677
0.0205063
-9.6412e-10
-0.0168705
-0.00627743
0.0782187
0.0582643
-0.012939
0.153747
-0.0315294
0.0784351
0.0166519
0.0469835
0.00143176
-0.00360272
0.0454536
-0.00627743
-0.000164504
-0.00913743
-0.029615
-0.00316256
0.0392604
-0.0417734
0.0935866
0.00593767
-9.45336e-05
-5.67664e-05
-0.152123
-0.0473644
-0.0212148
0.0468309
0.327986
-0.0205234
-0.0564138
0.0490707
0.0479489
-0.00667216
-0.265579
0.0352115
-1.31097e-07
-2.85882e-05
1.13141e-321
-0.0821974
-0.000307748
-0.00660891
-0.0625973
0.0490518
0.0383203
-0.16287
-2.19434e-06
-0.0142827
-4.21769e-09
-0.000124228
0.0103271
0
0.0753387
-0.0933742
0.0246003
0.0338788
-0.0202883
-0.0480177
-0.000107622
-0.0157665
-0.000211751
-0.0416537
-0.000826773
-0.00738192
0.0491673
0.0142443
0.0428308
0.000104129
-0.000211751
0.00813434
0.014135
-4.30602e-08
-0.0306806
1.02552e-07
0.0519978
0.56104
0.0380879
-0.0138901
4.06356e-269
0.0123069
-0.145074
-0.0356024
0.000402737
-0.018338
-2.1054e-11
0.163757
0.0486433
0.00160231
-0.0639715
0.00144586
-0.0792973
0.000246635
0.0112922
-0.00189016
-2.16331e-05
0.0157056
-0.0308136
-3.17078e-06
-1.95156e-321
-1.8419e-05
5.8889e-104
-0.00753012
0.0271357
0.00850383
0.107657
-1.0907e-06
0.0609942
0.0239334
-7.63768e-06
-0.264795
-0.0540326
-0.00271727
0.0202789
0.0439078
-0.0432953
-0.0432545
-0.08629
0.0371516
-0.0306806
0.00674236
0.00813434
0.247389
0.0674253
-0.0243517
-0.0769312
0.00323637
-0.0165741
-0.0263653
0.0235099
0.106144
-0.206288
0.0552727
0.139261
0.0708063
0.0235357
2.622e-08
-0.012369
-0.136658
-2.78044e-08
0.0015898
0
0.0136707
-1.47594e-06
0
-0.0150806
-0.051858
0.0383203
-0.0242453
-0.0802208
-0.0607396
-0.113119
4.74052e-06
0.00498972
-0.0695586
-0.0487089
0.0764173
0.0113434
0.0604525
0.000279409
0.0445093
-0.0438534
-0.0498239
-0.015893
0.0234597
0.0152873
0.0252678
-3.57139e-06
-3.55269e-09
0
-0.00787891
-0.0596099
-0.0275019
-0.049453
0.209959
0.0112815
-8.89318e-322
0.179741
-1.85233e-07
-0.0065185
-0.155883
0.0614631
0.00882415
0.223485
0.0451677
0.00165735
0.00279423
0.0554627
-0.176563
-1.13172e-11
5.8889e-104
-0.000310231
0
-0.159393
0.0657606
0.000113923
0.00558777
0.000457672
0.0622887
0.0368534
-3.27655e-15
-1.13454e-08
0.0117826
0.0105461
5.68761e-173
-9.37625e-06
-1.13172e-11
0.0119328
0.0295902
0.00147181
0
-0.0389441
0.0334736
5.68761e-173
0.0315752
0.0324857
-0.0310136
0.265306
-0.158819
0.0235357
0.0248734
0.167891
-0.0405981
-0.1451
0.142462
-3.06941e-38
-0.016892
-3.70332e-09
-0.0563284
8.05327e-322
0.0354195
-0.044029
-0.0319098
5.68761e-173
-2.21916e-07
0.0112931
0.000776352
-2.985e-07
-0.0374862
0.00632485
-0.0757252
-0.0148706
0.0101721
-0.0547362
-0.0822937
-1.47594e-06
0.0327008
0.0728597
0.0186709
0.00354924
-0.196892
0.0246003
0.0256036
-0.0298076
-1.13172e-11
-0.0218424
0.00237488
0.00850383
-0.0490123
0.0426932
0.0453264
-0.0269033
-0.0877921
-0.0503471
0.01657
0.0226853
-0.0449642
-0.139042
0.0833349
0.0306569
0.114972
-2.73243e-07
-0.12841
-0.0686185
-0.00627743
-0.0469454
-0.17311
0.0362629
-0.0920608
0.024028
0.0303528
-0.000275194
-0.0146675
0.0648726
0.000315206
0.0639971
0.0433363
-0.0546603
0.264183
0.000315206
1.62764e-05
0.029248
0.0409072
-0.0126069
-0.0173083
-0.0456515
1.11931e-285
-0.0178301
0.0255647
-0.0290646
0.000457675
-2.21916e-07
0
-1.85233e-07
0.0513195
-0.00964442
0.032053
0.0351013
-2.20839e-06
0.0743457
0.0196428
-7.97486e-08
0.0113148
-0.020407
0.0304129
-5.9857e-06
-0.0742237
7.09921e-05
-2.09484e-321
0.05028
-0.0685965
0.0181675
-0.0911982
0.00469087
-0.020201
0.00401576
-0.000125146
-2.7921e-08
-0.0131133
-0.00660891
0.00249905
-1.7088e-05
0
-0.0182296
2.28263e-05
-3.06941e-38
0.0112922
0
-0.065189
0.0259517
0.157183
-0.0672688
0.0337408
0.013183
-3.69518e-05
0.0143173
0.00747002
-0.0111899
0.00469087
0.0533399
0.00850383
0.0322133
-0.0293084
0.0798301
-0.012939
-2.21916e-07
-0.233904
-5.44869e-13
0.0318222
-0.02922
-0.000193424
-0.000217594
0.0697012
0.0148846
-0.0456148
-0.0188222
0.0024214
-0.0568321
3.20591e-170
5.68761e-173
-0.0155603
-0.0763066
-2.35086e-06
0.0653857
0
0.0196428
0
-0.0266421
0.0113434
-0.0624195
-0.0216942
-0.0446974
-9.23913e-11
0.0152873
-2.78044e-08
-0.0298863
4.06356e-269
-0.138854
-1.24072e-06
0.010831
0.237655
0
-0.00681021
4.74052e-06
0.014249
0.0416355
-2.52609e-06
0.00032066
0.00429201
0.00113433
0.103451
0.226056
-0.113446
0.29333
-0.00552954
-0.0129775
0.0261274
-0.122374
-3.06941e-38
0.010262
-0.0912483
0.00141457
0.249897
0.00313897
-0.0109784
-0.0498963
-7.97229e-06
-0.0122304
4.06356e-269
-0.0164537
-0.0743051
-5.44869e-13
-0.0165241
-0.151907
0.217896
0.0410041
0.0504809
0.0815739
-0.018338
-0.035368
0.131139
-1.42511e-05
0.116045
2.03257e-11
0.000315206
0.0819624
0.00681731
-0.0325745
0.0309997
0.0255639
5.68761e-173
0.0835408
-0.00200156
0.0322692
0.0819522
-0.129227
-2.10807e-12
0.163128
-0.0181162
0.00587986
0.0819624
-0.0319098
0.0351596
0.0196428
-2.32925e-05
0.00139244
-0.0523339
0.12968
-0.0201684
0.0546843
0.0798301
0.238191
0.0363836
-0.0391086
-0.0546375
-0.047245
-0.0151619
-1.47594e-06
-0.0506564
0.0664571
-6.71728e-05
-0.0181162
-0.0315458
-0.0149972
0.0235357
-0.142658
-0.0599818
-0.0502742
-0.000222445
-0.00927211
-1.66741e-05
0.141842
-0.00261579
0.0116029
-0.0218471
0
0.00316477
0.0702283
0.0853335
-0.10251
0.0722103
-0.110221
0.00360003
0.0322731
-6.06566e-07
-0.0168538
-0.0472606
-0.0579948
-0.000191282
0.0167585
0.00370843
0.0205063
6.44802e-05
0.0565629
0.0412071
-0.0205893
-0.0123211
0.0511335
-9.85403e-08
0.0821732
0.000102907
-0.000123398
-0.176626
-1.04066e-06
-8.15125e-05
0.168985
0.033412
-0.0651557
0.0156022
-0.0247499
-0.0282966
-0.0248959
-0.0202883
0.0295509
0
0.000348398
0.149867
-0.00472576
0.0430545
4.16792e-06
-0.188631
0.00571151
0.0926602
-0.0108299
-0.0266225
-1.39086e-06
0.131336
0.0668239
-5.11713e-05
0.000588637
-9.85403e-08
-1.75588e-08
0.000245693
-2.36961e-05
5.68761e-173
-0.0163273
0.391066
-0.0677624
-0.0124621
5.8889e-104
-0.0616568
7.09921e-05
0.020183
-0.0015132
-8.15125e-05
-0.0126069
-0.0381336
0.119704
0.0143836
-0.00955176
-0.000125652
7.09921e-05
-0.00829482
5.8889e-104
0.00260952
-0.0490433
0.0214002
0.00644157
0.139925
0.00218512
-0.0243161
0.0435762
-1.36619e-12
0.0364055
-0.103268
-0.645495
0.0743823
0.000772771
-0.0215103
0.291504
0.0890132
-0.0165733
0.0216304
0.0309997
0.000315206
0.00252874
0.000100483
0.0131987
-0.11121
-0.0248203
-0.0298172
1.63204e-171
-0.0276693
0.0102792
-3.27655e-15
-0.0113492
-0.0460757
0.00164986
5.8889e-104
5.68761e-173
-0.00189016
-0.012939
0.0351013
-0.145074
0.0412122
-0.0461136
0.0178834
-0.0487089
-0.0795055
-0.0428601
-0.0487089
0.000736685
0.0623207
-0.00014094
0.0221381
-0.0229929
-0.0654919
-4.44867e-07
0.0305745
-0.0237276
0.000245693
-0.133168
0.543675
0.0075251
0.043334
0.0320086
-3.27655e-15
0.0461017
0.245405
0.0309997
-0.0732857
0.341067
0.045424
0.10572
0.0739894
0.0248698
-2.35086e-06
-0.0438534
-2.08122e-06
-0.00240401
-0.0560725
0.00848504
-2.36961e-05
-7.07797e-07
-0.114135
0.0532242
-0.0342887
0.0303136
-0.00261579
0.00725414
0.002293
-0.0568736
-0.0381639
-0.0371947
0.0571163
0.0814493
0.121086
0.000166034
0.0322692
0.0696709
0
0.116031
0.0168065
0.0424732
0.296924
0.00822271
0.0261274
0.0379068
-0.0015132
0.0511936
0.0545903
-2.50397e-05
-0.0627367
-2.21916e-07
0.12407
0.0314854
-0.054757
-2.87716e-06
-1.47431e-05
5.68761e-173
-0.0511495
-0.0391086
0.0828127
-0.0185228
0.0355023
-0.0992318
-0.0370657
0.0732298
0
-4.74126e-06
0.206509
-0.13135
0.00120423
-0.0202883
0.00459161
0.0148911
0.00428888
-0.0264498
-0.0300442
-0.0417689
-2.08122e-06
-0.043212
-0.000118364
4.06356e-269
0.0323167
-0.0300446
-0.0306228
-0.0648247
0.0271357
-0.0109208
-0.000375004
0.0205063
0.0625974
0.0892814
-0.0428601
-0.0332517
0.0221789
0.00614104
-0.00619802
0.0114344
-0.0568733
0.00335315
-0.00394748
-0.173982
-0.0301059
-6.65932e-12
3.28414e-275
-0.126435
0.000457675
-0.064988
-0.112731
-3.8298e-14
-0.000130507
0.039853
-0.00432535
-0.059084
-0.048342
0.165621
0.0490703
-2.3569e-08
0.0454672
-0.0718398
0.0105305
0
-0.00017086
-0.0462346
-0.0568733
0.0205063
-0.14721
-0.0371947
0.141369
-0.0717308
0.120685
0.000685839
-9.4765e-06
0.0354188
0.0252528
0.183355
-8.28667e-07
-0.012939
0.0205063
-0.0320684
-0.0154896
5.68761e-173
-1.20733e-07
0.115773
0.000772771
-0.119499
0.0355378
0.0019712
0.0365945
-0.000191282
0
-0.0300181
-0.024933
-1.13172e-11
0.000133216
0
0.29223
0.00558777
-0.0300442
-6.18707e-05
-1.8428e-05
4.06356e-269
0.0205063
-0.0391086
0.0145846
0.0194657
0.0467548
-0.0264979
0.054747
-0.000191282
-0.00841758
0.0244552
-0.0176313
0.0852533
-0.355829
-0.0989357
-0.0015132
0.0388777
0.00593057
0.0327008
0.00120423
-4.71294e-07
-0.0696394
0.000354177
-0.0417734
-0.0576423
0.0371721
-6.79449e-07
-0.00318356
-0.0319098
-0.0819896
-0.0641857
-2.85898e-07
0.0342982
-0.000125652
-0.0290646
-0.00569083
0.0481205
-0.0196203
-3.69518e-05
0.00254963
-5.03271e-11
0
0.0498629
-2.21916e-07
0.0308843
0.0135775
-0.0458688
-0.0201177
0.12835
0.0143836
0.0114839
-0.072773
0.0015898
-0.000124228
0.195948
0.0261274
0.0417725
0.0566587
-0.0017069
-0.0298574
-0.0243678
0.0417725
0
-8.28025e-06
-0.0391086
0.0195984
0.038434
-0.0661755
0.0319475
-0.06674
0.00175861
-0.109978
-0.0145638
0.0409107
0.00170246
0.0209262
-0.0572087
0.074506
0.0023404
-0.117067
0.304708
0.00252874
-0.00189016
-0.0100542
0.336295
-0.000203365
0.112779
0.0609942
0.00764002
0
0.00768168
-1.25117e-07
0.00141457
0.0578312
-0.0485016
0.0569861
-0.0295462
-0.251015
-0.070063
0.182214
-0.0332852
-0.0768311
0.0190283
-0.000474569
0.0984127
0.140488
-2.49879e-07
-0.0582451
-0.0109193
-0.090599
-0.0336067
-0.00687561
0.0469503
-0.0699408
0.0202096
-0.186121
-0.00832993
0.1208
-1.17886e-07
-0.0821974
-9.17966e-06
-2.21916e-07
0.0326859
0.0275284
0.0373739
-0.100346
0.0694518
-0.00425825
-0.0252039
-0.0556134
-0.032747
-0.0100557
6.44802e-05
-0.00432535
-0.0181162
0
0.0168668
-1.47594e-06
0.0742875
-0.00677391
0.00180872
0
-6.06564e-07
-0.0134858
-0.0196961
-0.158601
-2.61741e-13
5.68761e-173
0.0234397
-1.64368
0.0336305
0.413727
-3.5631e-06
0.154659
0.0326864
-1.10086e-08
-0.0931592
0.0205063
-0.109814
-3.17078e-06
0.0424672
-0.0885223
-0.150344
-0.0868962
-0.000134527
0.01985
0.0304129
0.267267
-0.0485701
-0.0242453
-0.000191282
0.0620221
0.0362629
-8.51293e-06
-0.113547
-0.0734848
5.68761e-173
0.000862986
-2.7042e-05
-0.0131133
-0.0742789
0
0.0590179
0.06771
0.00701253
-0.032722
-0.0125221
-0.0533531
0.0243645
-0.0428601
0.0691448
0
-0.000261124
-1.13172e-11
0.00933233
0.0333414
0.0432392
0.000725273
-2.56148e-275
-0.0268647
-0.0598753
-1.06523e-05
-0.0216179
0.00529652
0.0320519
-0.0809851
3.28414e-275
-0.116492
0.211712
-1.08708e-11
-0.0015132
-0.213508
0.0393751
-0.098791
-0.0300886
-0.00352834
-0.0947932
0.0113634
-7.65209e-06
0.0581932
-7.73057e-08
0.0136721
-0.0015132
0.0959782
-0.0505102
0.000104129
-2.72309e-11
0.0195029
-0.0178301
-0.00558062
-0.0666199
-0.0255399
0.0697749
-0.0372918
0.00161541
0.0674253
0.0309997
0.0555977
0.00731292
-1.70879e-05
-6.65932e-12
-0.000130507
-0.0487089
-9.45336e-05
-0.0918585
-0.0414355
-0.0272667
-0.0332446
-0.142001
0.0113763
-2.09484e-321
-0.06674
-0.0296978
-0.0090471
-9.01354e-08
0.00850383
4.06356e-269
0.042643
-1.47431e-05
0.0826047
-0.0168538
0.107677
0.0934585
-0.020407
0.000348398
0.00714816
0.25286
-0.270219
-0.0753763
-9.65465e-05
-2.88108e-05
0.0294351
0.570915
-0.0424228
-0.0152284
-0.013372
-0.0246341
-0.0697323
-0.178081
-8.99374e-07
-0.0609084
-0.0242453
-5.12719e-05
0.052127
-0.0857385
0.0156347
0.0105319
0.0638533
0.0176167
0.126551
-0.142377
0.000809439
0.047962
-0.0416537
0.00558777
-0.0930054
-1.53496e-05
-0.00158205
-0.0405692
-0.0372917
0.0033636
0.0248734
-0.0429138
0.22585
-0.155312
2.76617e-07
-0.0306806
-0.018338
0.00822271
-0.145156
-0.0254058
0.0223253
-0.0290646
-0.0182545
0.00186494
-0.0391426
-7.09827e-05
-0.0476441
0.0946895
-6.81811e-322
-0.00563191
0.0844119
-0.050568
0.056268
-0.0281501
0.00120704
0.0935866
-0.0368702
-0.0805062
-0.0419665
-0.0178301
-0.0564473
-0.0076463
-0.034666
0.0908237
-0.118207
-9.11637e-13
0.000276589
0.107188
-6.65932e-12
0.0140247
-0.0175187
-0.0487089
-0.0381336
-6.0407e-05
-3.06502e-06
-0.0248959
0
0.0219049
0.00681731
-0.048342
0
0.0454109
0.0159056
0.113545
5.68761e-173
0.0049897
0
-2.36961e-05
-0.0168538
-2.24316e-08
-4.79727e-08
-0.0813161
0
0.0173552
5.8889e-104
-7.97229e-06
-1.36619e-12
-2.78044e-08
0.0263763
0.0598007
-0.0690652
-9.13994e-06
0.00120423
-9.11637e-13
0.00148055
-8.26374e-06
0.154808
-9.23913e-11
0.0861779
0.0196518
0.00387056
-0.291923
-1.83777e-05
-0.0371416
-0.0292788
-0.000195099
-0.0502376
0.0509465
-0.000164504
4.06356e-269
0.116131
0.0668356
0.0048592
-0.0106163
3.61278e-05
-2.49879e-07
0.00174959
-0.150273
-0.00627499
0
-0.0661755
-6.81811e-322
2.77398e-09
-0.0350016
0.00120423
-0.0331837
-0.0391165
0.0463972
-0.013575
-7.10203e-13
0.0329957
-0.121191
0.000315206
0.000531465
0.00469087
4.06356e-269
-0.000310231
0.0633732
-0.00158205
0.117002
0.0374046
0.140413
0.0146767
-0.0649556
-0.0467383
0.0346839
-0.0123227
-0.0168333
0.0574616
-0.0661312
-0.0138901
0.00208611
-0.0319098
-0.0774447
0.000276589
0.0201827
0.0127239
-0.0571519
4.74052e-06
-0.0125947
0.0168188
-0.0391426
-0.00434926
-0.0290646
-0.0219174
-0.013102
1.41737e-07
-0.0417734
0.0690579
-0.0216783
0.0334736
-7.99551e-06
0.0396358
0
0.0240273
0.0564083
-0.0095148
0.224865
0.087037
0.000727612
-0.059864
-0.0902056
5.8889e-104
0.0706315
-0.0243517
0.128084
0.167561
-0.0234951
-9.11637e-13
-0.00651214
-0.000272817
0.100384
-0.0315378
-1.00233e-12
-0.0185621
-0.0553321
-8.02373e-05
-0.0290646
-1.66308e-05
0.0874842
-0.0125947
-1.47948e-07
-0.0459574
5.68761e-173
-0.0815724
-0.112362
0.00731292
-0.0631872
-0.0442541
-0.0125965
0.0309997
-0.0342969
-8.23419e-05
-9.6412e-10
-0.00200156
0.000276589
-0.0243517
1.1167e-05
0.0886267
-0.0780941
0.0374134
0.00376155
-0.0428601
0.0791147
-0.0202883
-0.0438534
0.0270506
-0.0771469
0.0382629
0
0.000273031
0.0504809
5.68761e-173
-0.00299085
0.0608976
-0.0128818
0.0906696
0.0359444
-0.0021678
-0.044153
0.0709026
-0.136435
0.0319471
0.162172
-0.152114
0.0342156
-0.0559995
-0.134727
0.0377863
-0.0125947
0.0217333
0.0298758
0.00764002
0.00140702
-0.0735665
0.0419807
-0.0184382
-0.000150304
-0.00966021
-7.94042e-05
0.140896
0.000736685
-0.0242453
0.035741
0.0200922
-0.000261124
-0.0419665
-9.6412e-10
-0.109205
0.166351
-0.0135364
-5.47586e-06
-8.33092e-07
-0.013372
0.0189214
-0.00014094
-0.0272931
0.0492591
-0.0342887
0.0139923
-0.0920608
-5.60999e-08
0.144993
4.06356e-269
-0.05652
0.00417455
-0.0447117
0.244955
-0.00841408
-5.67664e-05
-0.0664837
-8.91713e-08
-0.0349727
1.63204e-171
0.0145799
-2.09484e-321
-0.0989674
-0.0550051
-0.0244377
0.0511936
0.0304129
0.111282
0.0200201
-2.7921e-08
5.68761e-173
0.0804941
-0.000341253
5.68761e-173
-0.0191618
0
-0.0295756
0.0174902
-8.91713e-08
-0.0120804
-0.144964
0
0.0189214
-0.0185228
-0.00233086
-0.117126
0.0253541
-0.0242453
-4.2268e-11
-0.0502415
0.0871677
0.0395063
-0.0415031
0.0912669
-1.81294e-06
0.022702
-0.0912799
-0.0635324
0.0032291
-0.057313
-1.13172e-11
0.0205063
0.0156051
-0.00966021
-8.29486e-06
-0.115443
-0.0202945
0.0043948
-0.105006
0.045862
-0.104867
-8.15125e-05
0
0.0568451
0.00433558
-5.44869e-13
0.021544
-1.31097e-07
0.0982773
0.0412506
-0.0511941
0.0309997
0.04752
0.0620829
-0.0314483
-1.2405e-11
-0.160186
-0.033236
0.0780855
-2.85898e-07
-0.0550163
0.00558777
-0.0582237
-0.00434926
0.191939
0.102799
0.0147833
-0.0917602
0.292401
-2.985e-07
0.071379
0.00399621
-0.0379742
-0.0156073
0
0.0150436
0.0819624
0.035741
-0.00653691
-8.28916e-09
0.0309997
-0.0910956
-1.47594e-06
-0.0283835
0.00857469
0.029472
0.00127523
0.033251
-0.0793115
0.000133216
-0.012939
-0.0243678
-3.27655e-15
0.0689725
-0.037168
0.00338946
-0.10907
0.113847
-0.100086
-6.18739e-05
-0.000168639
0.00180811
-0.21766
-0.00505421
-0.0661312
-0.0925307
-0.00372129
0.107657
0.115978
0.024028
0.0342982
-0.000130507
0.00215524
0.0794467
-7.73057e-08
0.0198114
0.0187307
0.0618167
-0.00810778
-9.03048e-09
-3.03467e-06
0.0258636
-0.0339645
0.0625675
-1.08708e-11
5.68761e-173
-0.0516587
-0.117015
0.0899496
0.00935973
-0.0209994
0.271369
0
0.0880781
0.0155231
0.0092923
-0.140296
-2.43136e-14
0.0582643
0.0333414
-0.0161698
0.0139923
0.0342982
0.0359444
0.00813434
0.0320086
4.46806e-285
0.0298098
-0.0720273
0.0196428
0.0256036
-0.06674
0
-0.020407
-0.00779005
0.00207372
-0.0576013
0.318277
-0.0103917
-0.0632378
-0.0828562
9.98843e-06
0.0739894
-0.00806149
0.0103948
-0.0181162
-0.000275194
0.196122
-0.0742237
-0.0568733
-4.74126e-06
-1.08708e-11
-8.28916e-09
0.360086
0.00850383
0.0958944
0.0456106
-5.9857e-06
-0.0149972
-0.0180201
-0.0431851
0.0152873
0.0105305
-0.107178
3.26083e-322
5.68761e-173
0.149096
0.0597524
-0.0416298
0.223678
-2.21916e-07
-2.85898e-07
-0.195347
-0.0547125
-8.51293e-06
-0.0336333
0.0475719
0.0722103
-0.0242453
0.0363851
-0.0518219
-9.37625e-06
0.0165444
0.0621699
-0.00660891
-6.06564e-07
-0.0532618
-0.0902633
0.0427146
-5.46934e-06
-1.30311e-13
0.0151671
-0.0306806
0.0723043
0.0509407
-4.85946e-77
-2.13353e-05
-0.0202883
0.148148
-0.0226519
0.00120423
-0.0288343
-0.0686719
-0.0291889
-0.0422379
0.0946895
-0.0423704
-0.0216179
-1.81294e-06
0.0035597
-1.81294e-06
0.0298098
-0.000228048
0.0253315
-0.00456249
-0.0729926
5.68761e-173
0.094531
-0.0968287
0.00237488
-0.0288826
-0.0192284
0.0474215
5.68761e-173
5.76993e-05
0.0727683
-2.78044e-08
-0.0629841
-0.0686185
0.000282783
0.0452582
-0.0215103
-0.0149972
0.122213
0.000286779
-0.0682704
-0.100813
0.00558777
-2.97768e-05
-0.010661
-1.85233e-07
-0.0610259
-0.0082226
0.0281019
-0.0290789
-4.71294e-07
0.0303136
0.0499197
0.0678043
-2.16331e-05
0.0553251
-0.0583386
-0.000167316
-0.0356024
0.0140247
-0.000388204
0.0298806
-0.013372
-4.2268e-11
-0.0286439
-1.02871e-05
0.16184
-4.71294e-07
0.0351013
-0.0823802
-0.0633276
-0.0900176
0.0864526
-0.0480177
-0.0588524
0.0567839
0.22138
0.0730823
0.0248124
0.0701779
-0.0165897
-0.0404615
-0.123457
0.0143928
-1.36619e-12
0.00357363
5.8889e-104
0.023208
0
0.0151388
0.139129
-0.571909
0.165061
-0.288095
-0.0326439
0.000315206
-0.0328881
-0.0957788
0.00247198
0.0110331
-1.13172e-11
0.249816
-0.012939
-0.016404
0.00424194
-0.0249905
0.00131586
0.1021
0.0751142
0.0322692
-1.30469e-12
-0.00660891
-0.00960815
0.0373022
-0.0282966
-9.6412e-10
0.000827848
0.0678043
0.0430548
-0.0823486
-0.0582498
0.0128804
-0.0339129
0.00338946
-0.000272817
0.0496456
0.0256036
-9.6412e-10
-0.0496886
0.00367407
-0.0454669
-0.0225853
0.0479052
0.0131848
0.032175
0.0322874
0.0369601
-0.000130507
-0.0762132
-0.00709183
0.0884464
-0.0203636
-0.000150304
-1.02988e-05
-1.0907e-06
-0.0980568
-1.30469e-12
-0.0266225
0
0.00312689
-2.72309e-11
-0.0534839
-0.0618547
0.0575572
0.00468162
-0.00151326
-0.0131133
5.68761e-173
-0.0110576
0.130473
0.0382629
0.0314854
0.0470546
0.00552624
0.00325083
0.052173
0.0719939
0.0917793
0.000228837
0.14175
0
0.0275284
-0.0920608
-0.0425671
0.155571
0.213786
-7.74358e-09
-2.78044e-08
-0.0306031
0.00244181
0.325938
-0.0442664
-2.66501e-111
0.0159056
0
0.0257216
0.112885
0.00110296
0.00566329
0.0147833
0.00469087
0.0314854
-0.0541787
0.0242185
1.02552e-07
1.02552e-07
0.0871989
5.8889e-104
0.193298
0.132164
0.0631721
-0.119683
0.0220437
0.0565719
0.00199604
-7.6656e-06
0.154472
0.00338946
0.0173546
0.000795127
-0.0973714
0.00155246
-0.012939
-3.03415e-08
-0.0363681
-0.0014674
-0.0463138
-0.0266225
0.0413536
-0.0431853
0.0143836
-0.0139901
0.00570011
0.00106329
1.45252e-285
-4.13638e-06
-9.11637e-13
-0.00777935
-0.0181162
0.0167521
-0.02975
-0.00261579
0.166351
-0.0184382
0.0467548
5.68761e-173
-0.0159373
-0.018338
5.8889e-104
0.0320086
1.65512e-321
0.0874842
-0.0420735
-0.00818485
-0.0881602
-0.0651557
0.0261294
0.000312036
0.0587054
-0.023613
-0.0449853
0.0683461
0.107657
0.0119232
0
0.106878
-0.0910013
-0.300323
-0.0284136
-0.0300545
0.00393708
-0.241579
0.0359746
0.00424194
-0.011415
0.0309997
0.0305745
0.0341584
-0.0597782
-0.0599271
0.0194657
-0.0015132
0.0160536
0.128299
-0.0783887
0.0178834
0.000997116
-2.6436e-13
0.0804889
0.016726
-0.000164504
-0.160799
0.0271357
0.00148055
-5.10315e-08
-0.0391086
-0.000127358
0.067117
-0.0358234
-0.0949302
-0.0516624
0.00725414
-2.62404e-11
0.0753387
-2.10807e-12
0.0977058
0.0143095
-0.0242453
-0.00845002
-0.0449543
0.0610706
-0.0315875
0.110761
0.0355843
-0.0487089
1.63204e-171
0.091723
-0.0936816
0.231527
0.000431752
-8.99374e-07
0.44003
-0.0122304
0.00764002
-0.0178301
-0.245036
-0.0215103
-1.36619e-12
-0.0618547
-0.0428601
-0.00997245
0.00207837
-0.0300446
0
-3.17078e-06
-0.0778591
-0.0136204
-8.51293e-06
0.0425352
1.69465e-321
-0.0336059
0
-0.0466421
0.0825029
-1.31097e-07
0.000614993
-0.035977
0.0935506
-0.000203365
0.0329432
-0.0496947
-1.8419e-05
4.06356e-269
0.124238
0.0490502
-6.51934e-09
-0.0202883
-0.0913164
0.000161525
-0.0223415
-0.00364729
-9.11637e-13
-8.28916e-09
-0.0730005
-9.13994e-06
0.0567839
-0.057695
0.249665
-7.10203e-13
-0.0127189
-0.0306228
0.0117613
-0.127086
-0.0338477
-0.0129683
-2.73243e-07
-0.0098628
0.0108975
0.132576
-0.0498957
-3.82024e-05
0
1.11931e-285
-6.1035e-05
-2.32925e-05
-0.000167316
0.0539346
0.0342982
-0.0378753
-0.0015132
0.000772771
-6.56254e-11
2.77398e-09
-0.0234951
0.00345997
-4.2268e-11
0.053521
0.159219
-0.0237149
1.63204e-171
-0.0180201
-2.985e-07
0.0256036
-2.7921e-08
3.86959e-06
0.0266756
0.250632
0.00161062
0.0113085
-3.27655e-15
-0.051388
0.042937
-0.0650156
0.2065
-7.74358e-09
0.0131848
-0.0112628
0.0109798
-0.121554
-2.36961e-05
0.0128953
4.06356e-269
-2.09484e-321
-0.043212
9.57664e-05
0.0131848
-0.133987
0.137995
-0.0192592
0.0110331
-0.0290646
0.0103948
0.0697099
-0.0217703
0.0541864
-2.20839e-06
-2.85898e-07
0.0373022
0.148241
0.114037
-0.0422379
-2.20569e-06
-0.0374583
-0.0780941
0.000403407
0.00121173
-0.0270922
-0.0618547
5.68761e-173
-2.56148e-275
0.015265
0.0217333
-1.30311e-13
-0.0246483
0.0216924
0.000862986
-2.1054e-11
-0.0178301
0.000736685
-2.10807e-12
-0.316129
-0.0893019
0.0345313
-0.00014094
0.0123069
-0.0271927
-0.0185228
0.0217333
0.582768
0.0620221
-0.0126642
0.0155368
-0.000747042
0.0198114
-0.00372124
-0.078095
0.0056317
-0.175713
0.0019971
0.0142443
0.0511509
-0.0728594
-9.8243e-05
-0.0823486
-0.0468002
0.032175
-0.0994975
0.0142448
-0.329402
8.04746e-285
0.0929396
0.0288563
-0.00703692
0.0056268
-0.00274325
0.00233302
-2.06193e-05
5.68761e-173
0.0178834
0.0380879
0.179331
0.030816
0.0131826
0.0811633
-0.0472606
0.0859765
0.0105305
-1.75588e-08
0
0.138768
-0.018338
0.0226853
-0.0709222
-0.0402677
-0.0688455
0.0222493
0.0217333
0.00681731
-8.1456e-06
0.0194657
-0.00924088
-0.0284136
-5.44869e-13
0
-1.9218e-10
0.000846917
0.0577692
0.0691448
-0.00314147
0.0412878
-1.70879e-05
-4.21769e-09
-0.000124228
0.0271277
-0.0745811
0.0147833
0.0591931
-7.10203e-13
0.00278454
0.0637724
-0.0702331
5.68761e-173
-0.0246038
-0.0168538
0.0266713
-0.0196268
0.0092923
0.102412
-0.00226968
-0.0166597
0.123349
0.041403
0.0743823
0.0775001
-4.79727e-08
0.0509194
0.0309997
0.00120423
-0.0713438
0.0517293
0.000189069
0.0827795
-0.0300442
-0.085621
-0.0247129
0.0309997
0.00037467
-5.10315e-08
-0.0122304
0.0417989
-3.27655e-15
-6.4652e-09
0.0732298
-7.63768e-06
-1.13454e-08
0.0688997
7.09911e-05
-0.036908
0.0528545
0.091678
-0.0158798
9.57664e-05
0.0739475
0.0329432
0.0946895
0.0150436
0.0291396
-0.0487089
0.00764002
0.14084
-0.0821527
0.0408627
0.150874
-0.0588524
0.00536987
5.68761e-173
0.0637548
0
-0.098791
-8.89318e-322
-0.0260314
0.00433558
0.110796
-0.0447387
0
-0.00737625
-0.0490433
-3.63092e-05
0.00120423
-5.18769e-322
-0.217916
0.00632485
0.0341677
-0.0297452
0.0054715
0.13076
0.0032938
-0.00236569
0.0239341
-9.19671e-06
-9.13994e-06
-0.031426
0.0776158
0.108614
-1.13868e-07
0.137661
-0.0381336
0.00269133
0.000783544
0.0113763
0.0778649
-0.150365
0.00237488
0.0082683
0.0372379
0.222092
-0.0440274
0.00850383
-0.0456688
-0.135765
-0.0343395
0.00399621
-0.00627743
-0.00387649
0.153418
-4.30602e-08
3.20591e-170
-0.00282744
-4.85576e-06
2.40239e-05
0.00228776
0.0229024
0.0958944
0.0123069
-0.0543125
0.0359444
0
-5.16497e-09
0.0392053
0
-0.0196268
-0.0472606
-0.024566
4.06356e-269
0.0326864
8.21623e-98
-0.059752
-0.103545
0.418029
0.000685839
-0.0604151
0.0233234
0.0513195
-0.00891239
0.0324253
-0.0234951
-0.00709067
0.0382629
-0.087197
-0.0014674
0.135117
-1.56619e-321
0.0324232
0
-0.0351713
0.0029091
-0.0342887
-9.89632e-07
0.0728939
0.0567839
0.0320086
-0.0199678
0.118843
0.146739
5.68761e-173
0.0386543
-0.0235618
-0.120099
0.0589418
0.000597054
-0.0126642
-0.0146008
-0.0423867
-0.205087
0.0092923
-0.0371609
0.00120458
0.0156022
-0.0028256
0.0454201
0.028931
-0.0379921
-0.00189016
-0.0443054
-0.00627743
-3.8298e-14
-5.03271e-11
-0.00177741
0.00592372
-0.036908
0.0490707
1.45252e-285
-4.79654e-06
-0.00189834
0.0965481
-6.65932e-12
5.68761e-173
0.00717262
-0.049947
0.111148
0.101848
-0.0139634
-0.016892
0.032175
0
-0.0106027
-0.0632387
-0.00080331
0.0242185
0.0412244
-0.143333
0.0789644
0.0437433
0.00179754
-0.00281202
0.00850383
0.139279
0.0248734
0.00113433
0.000315206
0.00935973
-0.0948906
-0.00586889
-5.03271e-11
0.00437352
0.0235945
0.0567982
0.0874131
1.63204e-171
0.0586856
0.00207837
-0.0129849
0.0354998
0.0327008
-0.000130507
0.0711968
3.47737e-07
-2.01913e-07
-0.0388227
-0.0914121
-3.27655e-15
0.0894356
-0.00627743
-1.70879e-05
-1.83777e-05
-0.00151322
0.000348398
0.0996406
-0.313581
0.0795575
-0.00609589
0
0
-0.0366582
4.06356e-269
0.00139244
-0.0549412
-0.0566122
-0.00236569
-0.0154099
-0.0436162
-0.0402677
-0.0460175
-0.0145507
0.000550009
1.63204e-171
-0.0381336
0.019425
0.0509194
0.082051
-0.000164504
-0.105029
0.13909
0.0264203
0.0109798
-1.56619e-321
-4.35029e-05
0.000597054
-9.89632e-07
-8.12261e-05
0.00213122
0.0459064
-0.0109023
0.00180762
0.0504809
-0.145315
0.0017416
-8.23829e-11
-0.0336938
-0.0245162
-8.28667e-07
-1.65045e-08
-2.33255e-09
0.0880501
-8.37776e-06
0.0504809
-0.012939
-0.171072
-8.33092e-07
-7.50212e-06
0.0819624
-7.07797e-07
0.01657
-1.50632e-10
-8.29486e-06
-4.44867e-07
-0.0124042
0.00714816
-9.11637e-13
0.0567019
0.0321735
-0.00753012
0.00692178
0.0325177
-0.0168538
-0.179005
-8.33092e-07
0.0764173
-0.0996099
0.222634
-6.40731e-132
-0.0115861
0.00120423
-0.0033025
0.0383913
-0.0330749
-0.09192
-0.020407
-0.110235
0.00133194
0.0763502
0.00237488
7.09921e-05
-0.0710184
-0.0757745
0.0092923
0.168961
-0.0610047
-0.0202883
0.0056317
0.032175
5.5505e-05
0
-0.00974995
0.00143176
-0.00660891
5.68761e-173
0.0524454
0
-0.0300442
-0.00834488
-0.00681021
0
0
0
-6.06564e-07
-7.74358e-09
-0.000118364
0.0983661
0.0842501
-5.10315e-08
0.010831
-1.13454e-08
-1.08708e-11
0.0650739
0.114972
-0.000103853
0.142167
0.0707713
-1.1073e-15
-2.1054e-11
0.178087
8.84378e-322
0.00593959
0.0322692
-0.0189316
-2.78044e-08
-0.0229929
-2.78044e-08
-0.0310136
-0.765944
0.0092923
-0.0298163
-0.0381764
0.0258813
-0.0168538
-0.0614754
-0.0190282
-0.144807
0.0169206
0.104226
0.12979
0.0334736
0
-1.10086e-08
0.266088
0.145835
0.0143268
-8.99374e-07
-2.35086e-06
-0.128338
0.00813434
0.0325844
0.0259883
-0.0216179
0.0118294
0.00939393
0.112257
0.0412878
-7.09827e-05
0.0513195
-0.0125947
5.68761e-173
-0.0442664
-0.0576423
0.00681731
-0.0539053
-0.0515867
-0.0369081
-0.00966021
-0.0201364
0.0285893
-5.67664e-05
0.112973
-0.0112337
-2.00045e-06
-0.108203
-0.0257549
0.000736685
0.0156022
-0.0234655
0.0127944
-0.00742159
0.148063
0.0667529
-0.00288797
0.0657606
0.00166885
-1.13172e-11
-0.000272817
-0.0569967
-8.33092e-07
-0.0425056
-1.47594e-06
-3.66799e-05
0.159786
-0.0651557
0.079752
0.040663
0.0545822
0.0488564
-0.074259
-0.214851
-9.11637e-13
-3.27655e-15
0.107964
-8.79556e-06
-0.0213989
0.173523
0.010639
-0.0189157
-0.114618
-9.6412e-10
-1.08708e-11
-7.44125e-05
-0.0126642
-5.18303e-09
0.0367934
-2.17078e-06
-1.57292e-10
-0.00966021
0.0334736
-1.08708e-11
-2.99777e-05
0
-0.111764
0.00439216
0.000790829
-2.97768e-05
0.0309997
-0.0246989
0.0704003
0
-8.33092e-07
-0.0413115
-2.6436e-13
0.0663199
0.0142443
0.100834
5.68761e-173
-1.37426e-05
-0.036908
0.0819624
0.0409471
-0.0665569
0.295922
-0.0357487
0.0388599
0.0894096
0.00120423
-0.0648738
-8.29486e-06
0.0821732
-0.0285466
0.0667647
-0.0109971
-0.0124043
-0.0771469
-0.0310136
-5.10315e-08
-0.0327219
-0.0315231
-0.000225927
0.0372731
-0.0243517
0.0379037
0.00120423
0.034902
0.00169417
-0.0135364
0.00731292
0
0.0242026
-4.44867e-07
-0.427821
-0.00213475
0.0105305
0.0319566
-0.0223398
0.0714585
0.0363461
-0.169089
0.0309997
-1.8419e-05
-0.000341787
-1.92867e-13
5.76993e-05
0.0189214
-7.74358e-09
-0.00539997
0.00174959
0.0325177
-2.7921e-08
-0.000457346
0.0178834
-0.0650681
0
-0.0236872
-0.0181162
0.0056317
5.68761e-173
-1.65045e-08
-0.0397323
-2.97768e-05
-0.0612797
0.0667529
5.8889e-104
0.028931
0.0389542
-0.0015132
-0.0532618
0.0060586
0.00141457
0.0325177
-0.048342
0.0386543
-4.85946e-77
0.0309997
0.107957
-0.0670914
-0.155163
0.0630231
0.00469087
-0.000283432
-3.03415e-08
-0.0413921
-1.66741e-05
0.0424672
-0.098117
0.00437352
0.326113
-0.0371609
0.0196428
-0.028287
-0.0201761
-0.0129849
0
-1.20905e-06
-0.0196268
-0.077501
0.285689
-1.66741e-05
-0.0127225
-0.0201642
-0.0138901
-0.277493
-0.0159142
0.00710746
0.0424672
-0.036075
-1.47948e-07
-4.21769e-09
-0.0113014
-0.133956
0.0329957
-0.0699604
0.0224328
0.0425445
1.63204e-171
0.138208
5.8889e-104
0.00120423
0.0750538
0
1.63204e-171
0.186019
5.68761e-173
5.68761e-173
-0.0920395
-0.014492
-3.17078e-06
-0.132097
-0.075388
-0.043212
-0.0229929
0.0867074
0.00303143
-0.0364052
-0.0503471
-0.0610864
-0.0168538
1.11931e-285
-0.259994
-0.0110255
-0.0700225
0.0151673
-0.0201684
-0.000101812
-2.6436e-13
0.127859
0.105547
0.00192393
0.00822271
0.0165444
0.044316
-0.00920752
-4.21769e-09
0.0152873
0.00259563
-0.0449528
-2.36961e-05
0.0832261
-0.0803521
-0.0275598
-0.104491
-0.0342725
-0.0396275
0.0178834
0.043606
0.0122461
0.0360653
0.0263943
0.0290104
-9.6412e-10
2.77398e-09
0.0235936
-0.0486746
0.00225693
-3.03415e-08
-5.9857e-06
-0.0679012
0.0320658
-0.035368
0.198214
-9.6412e-10
0.0861779
0.0258813
0.131839
0.00536632
-0.0723504
-0.198488
0.0807991
0.0197512
-0.0266845
0.0408422
0.259424
-1.87911e-05
-4.21769e-09
-2.985e-07
0.173765
-0.136171
0.00130164
0.0178834
-0.076909
0.0649107
0.0169206
0.00664891
-4.44867e-07
-0.0361892
-1.83777e-05
-0.0280219
-0.00434926
0.0764951
-0.0246365
-0.00755817
-0.00691789
0.128972
-1.02871e-05
0.090965
0.062596
0.00671726
0
-6.0407e-05
0.0386215
-0.00753012
-0.0897275
0.405684
-0.0371609
3.20591e-170
-0.0340102
0.00731292
-0.0201684
0.000133216
0.0371486
-0.0230329
0
-2.85898e-07
0.0156022
0.000936866
0.00225693
-0.1451
-0.0131133
0.0511335
0.000783545
-0.0568733
-1.83777e-05
0.0206114
-0.204174
0.0744639
0.000133216
-0.145074
-0.0168538
-0.0576813
0.124878
-0.0216179
-1.85233e-07
-0.0661259
-0.0131133
0.0499197
-7.46602e-08
0.174354
-0.0785458
0
0.00110284
-0.020407
0
0.0844646
0.124441
0.0723932
0.0277018
-0.144807
-0.020407
-0.00158205
0.00385677
-9.45336e-05
-0.0216179
0.419066
-0.0379268
0.243554
-0.0306806
-0.0455507
0.000919535
0.0637548
-5.18303e-09
-0.0564362
-0.124778
0.0151748
0.0205063
0.0691448
0.119371
0.0582111
0.0110331
0.0790291
-7.9888e-06
-0.0409653
-0.243267
0.151781
-7.74358e-09
-0.0904736
-0.0873284
0.0245886
-0.0661518
-0.000164504
5.68761e-173
0.00731292
-1.0907e-06
0.0317331
-5.16497e-09
0.0169011
-0.00352993
0.0149887
-0.020625
0.0207398
4.06356e-269
-0.248606
0.209991
-0.0197407
-0.0406797
0.00281445
-0.012939
-2.62404e-11
-0.0467895
-0.00200156
0.136129
-0.000261124
-1.31097e-07
0.0176155
-2.72309e-11
0.00139244
0.0276974
-0.0300442
0.057489
-0.0558912
-0.0302333
0.00160503
0.02508
0.0564702
-0.000131228
-0.0219173
-2.85882e-05
-9.6412e-10
0.0147833
0.391102
-1.13172e-11
8.21623e-98
-1.5316e-322
-0.0438514
-0.0725381
0.0823982
0.0380807
-0.0743471
0.0178834
0.010908
-0.0257289
0.0309997
-0.0591495
-0.024941
0.0459655
-7.63768e-06
-0.0408554
-0.00804619
0.088086
0.0113546
0.0295273
-0.0300446
-0.0112603
0.0256492
0.0205063
-0.0328881
0.0309997
-0.000272817
0.0196689
0.013649
0.0309997
-0.000225927
-0.036908
0.00338946
0.0217578
0.347806
0.0136721
-0.0339645
-0.103547
0.125298
-0.0459879
0.00338946
0.00723644
-0.00978376
0.0223905
0.0195021
0.0630043
0.0252664
-0.0347952
0.0352068
-0.0270754
0.0110331
0.413291
1.14918e-05
0.0615771
0.181776
-0.00394748
0.0452324
0.0691822
-0.0371947
-0.0553853
-3.55269e-09
-0.0416676
0.00225688
0.0866193
-0.000267351
-7.97229e-06
0.0262045
0.0015898
-0.0845909
-0.0410795
7.56735e-170
-0.0121252
1.22528e-321
-0.0139454
0
7.09921e-05
0.0657731
-0.0491397
0.0922285
-0.0478271
-1.13172e-11
0.00106116
-0.00627743
0.00281294
0.16831
0.149548
-0.0146383
0.119213
-0.0187112
0.0205063
0.0908237
0.0456311
0.035741
-1.7088e-05
0.0861779
0.366282
0.0325177
-0.00492956
-1.83777e-05
7.63392e-05
-0.0178309
0.0930014
0.000852937
-0.0391086
7.09921e-05
-0.00819614
5.68761e-173
0.0426253
-0.0194359
0.0151748
0.114222
5.68761e-173
-0.0266225
4.06356e-269
2.26566e-05
-0.299575
-0.027101
0.0439348
0.0413639
5.68761e-173
-0.49436
0.0234664
-0.060027
7.23698e-285
-0.0306228
0.00358186
-0.0729926
0.0235357
0.0199639
-2.1054e-11
0.0136721
0.12696
-0.0308406
-0.0680357
-1.13172e-11
-0.0584861
-0.0351481
-0.044029
-0.124031
0.00357363
-2.72309e-11
0.116027
0.000104025
5.8889e-104
0.114972
-0.0498554
-0.000946241
0.00357363
0.116303
4.06356e-269
0.0085952
5.68761e-173
-0.035368
0.0214002
0.000276589
0.0074134
0
-6.18707e-05
0.212807
0.0258813
-0.0498957
0.106155
-1.81294e-06
-1.02988e-05
-0.0290646
-0.0234313
-0.0342887
0.00225297
0.281805
-0.000225927
-0.0399586
0.110284
-9.43083e-07
-0.0202883
-0.0571519
-0.0586576
0.00194012
0.00498972
0.102269
-1.6638e-05
0.037283
5.68761e-173
0.0271357
-0.0680617
-1.54461e-06
-0.0152472
0.0117613
-0.175428
0.0178834
-0.0927149
-0.00985481
-0.105277
-0.0242453
0.15357
-0.0460068
0.0205063
0.0944169
0.00558777
-0.0372642
-4.71294e-07
0.0249366
-0.0243678
-0.0254201
0.0392053
0.00681731
-0.0342887
-0.0756696
-0.0237276
0.00237488
0.0205063
-0.00677391
0.119069
-0.0226519
-0.34673
-1.31421e-321
0.00217758
-6.81811e-322
0.00850383
5.68761e-173
0.123392
-0.0209752
-7.54469e-15
-0.0721199
-2.60109e-07
0.11152
-0.0408637
-0.337567
0.0450674
-0.0548257
-1.50632e-10
-7.10203e-13
0.0117613
0.00120423
-0.011298
0.000118955
0.0637729
4.74052e-06
-1.08708e-11
0.0267254
0.121086
-0.0321186
0.0576517
0.0496981
-0.186795
0.0205063
0.0196428
-2.65294e-07
3.47737e-07
0.0275159
-0.145148
-0.044029
0.0110331
0
0.0217333
-0.0229929
-5.67664e-05
0.000783544
0.0217333
-0.0149972
0.0213592
0.0492104
0.234967
-0.194358
-0.0758692
0.0189214
-0.0414355
-0.00411532
0.00120423
0.0269739
-0.020407
-1.08708e-11
-0.0711327
0.166472
0.0246003
-0.0282966
-0.00261579
-0.018338
-0.0336059
0.0217333
-0.0769265
1.69465e-321
0.4094
0.0747321
-0.0420696
-0.0135441
-1.92867e-13
-0.0503359
0.0015898
-0.039558
0.0113434
-0.000147632
-0.0181162
0.00469087
-0.019644
0.0291061
-0.0168538
-0.0626708
-0.019568
-0.0410749
-0.0662728
0.01985
-0.0379144
-0.018338
0.0753387
-5.73771e-06
-2.73243e-07
0.0657324
-0.0910227
-0.000199068
0.0354354
-2.11684e-70
0.0594218
-0.00660891
-5.10315e-08
0.000597054
0.103103
0.115773
0.0326193
0.0700696
0.0830429
0
0.0286012
-1.8419e-05
0.0725569
-2.01913e-07
0.108665
0.025684
0.0180393
-2.93402e-05
-0.0372995
0.0114855
-0.0449642
5.8889e-104
0.00120423
0.0375486
0.0179288
0.0205063
-3.92567e-05
0.0271357
0.0249309
0.0456137
0.0696817
2.04316e-158
-0.0376503
0.083871
-0.013151
-0.00666845
-0.0171604
0.0291531
0.00725414
-5.1933e-05
-3.27655e-15
0.0165444
0.0205063
0.0221381
0.1023
0.0931696
-0.0780941
0.0255964
-0.121347
0
0
-0.059084
-3.27655e-15
0.163059
0.0621208
-0.0243678
-0.000271315
0.13118
0.000862986
5.3695e-08
-0.0122304
-3.27655e-15
0.00193706
-0.109924
-0.0131133
-0.297781
-0.0233381
0.0687074
5.7501e-05
-4.85946e-77
0.117499
-0.00905308
-0.0634321
-2.21916e-07
1.11931e-285
0.10034
-0.00022586
8.03999e-286
-0.0176574
-0.0313492
-0.0610864
-0.0017069
0.000983989
-0.0289747
-7.54469e-15
-0.0414297
-0.000226584
0.0175757
0.0040021
-9.00338e-07
0.0451473
-0.0343395
-7.74358e-09
0.0333414
5.68761e-173
-0.0827144
0.0823307
-0.0125965
0.0259883
-2.21916e-07
-0.24111
-2.1054e-11
0.0116061
-1.66308e-05
0.0165444
0.27704
0.0403474
-0.0170084
0.329587
0.249665
0.00114839
5.68761e-173
0.0574738
-0.014693
-0.0234951
0.0205063
0.0900044
0.0481911
0.00863523
0.0110331
-1.08708e-11
-0.140433
-7.10203e-13
-0.157589
-0.0449642
0.00777352
-0.171132
-0.0290646
-0.15707
-7.97229e-06
0.0459655
5.76993e-05
-4.13638e-06
-0.235542
-0.0902633
1.63204e-171
-1.8888e-05
0.0856234
-0.139001
-0.006113
5.68761e-173
5.8889e-104
0.0888588
-2.66501e-111
-0.000167316
-0.0709222
0.0937517
0.112487
0.154692
0.154692
-0.0806026
-0.0498506
0.15618
-0.0266225
0.153884
-0.106347
5.68761e-173
0.0259883
0.0152873
5.68761e-173
0.0309997
-1.17971e-33
0.025928
-0.0823486
-1.13777e-12
4.74052e-06
-0.0169307
0
-0.29051
-0.00709067
0.0313992
-6.81811e-322
0.0223464
-0.0417734
-0.057284
0.0706088
-4.2268e-11
-0.070768
0.00238637
-0.0230329
0.0205063
0.0073499
-0.04139
-7.97229e-06
0.0322314
5.68761e-173
0.00319118
-0.0934598
0.0297433
0.357335
-6.47341e-05
-1.85233e-07
-0.0326439
0.121738
0.0362596
-0.0230888
0.0434014
-0.0378291
-0.012939
0
0.159144
-0.0391086
0.026756
0.0333414
0.0412506
0
-0.236786
-0.0359144
0.00254724
-0.0125947
-0.00660891
-0.0514822
0.130265
0.0124018
-5.44869e-13
-1.9218e-10
0.13738
-0.0216783
0.0734532
-0.0593322
-0.000225539
-8.15179e-06
0.0319475
0.218886
-1.08708e-11
0.00731288
-0.012939
0.00909854
-1.02871e-05
0.0319221
-0.0190303
-3.27655e-15
0.0092923
0.000736685
-8.67161e-10
-0.00497253
5.68761e-173
-0.000272817
0.0358678
0.023268
0
0.207811
-3.84964e-05
0.139358
-0.0438534
0.0155206
-0.110696
0.213362
0.105919
-0.00374703
0.00480333
-9.11637e-13
-0.0651922
0.00547129
0.0139855
-0.0951812
0.00268534
-0.292662
0.0259967
-0.0828562
3.28414e-275
5.3695e-08
0.061856
0.00914566
-4.21769e-09
-0.151029
0.0343074
0.112345
0.199651
0.0821732
0
4.06356e-269
-0.0199712
0.00469087
-0.0901214
-3.66799e-05
-0.00660891
-0.0638646
0.187008
0.00276509
0.00157911
0.151014
-0.115038
8.3153e-05
-4.44867e-07
0.0577462
0.0206114
-0.0530364
-0.0705887
0.031123
0.00358039
-0.000125652
0.0219903
-9.6412e-10
0.0816693
-0.0306806
-0.0391257
5.68761e-173
0.0397787
-0.00193156
-3.27655e-15
0.0899228
-0.0015132
0.0303811
0.028931
0.0298409
1.17461e-05
5.68761e-173
-0.137228
0.214165
-0.06674
-3.27655e-15
-0.0141455
-6.18707e-05
-0.0498945
-0.0723285
0.0154867
0.116842
0.0253541
0.000315195
-9.6412e-10
0.079635
-0.0449191
-0.0231243
-0.00560141
-0.00627743
-0.0173191
0.0203708
0.0728375
-0.0216179
3.28414e-275
-4.81144e-07
-0.0306806
-0.0518796
0.00158785
0.0853335
-2.56148e-275
0.00607028
-0.000132579
0.0782033
-0.0220668
0.0015898
-1.42599e-05
0.280296
0.0678043
0.00269133
0.136112
-2.1054e-11
-1.66308e-05
0.175585
0.00127606
0.126413
0.0642046
7.56735e-170
-0.0347952
0.108566
-0.00269127
-0.0520164
0.0513195
0.0476525
0.0319779
-0.000124228
0.193742
-5.10315e-08
-0.0385956
-8.21349e-07
0.0136245
0
-0.00897893
-3.55269e-09
0.0216692
-0.0126069
-0.0326237
1.69465e-321
5.8889e-104
5.68761e-173
0.124533
-0.0168538
-0.0015132
-0.0362726
-0.10128
-0.0271851
0.0205063
0.0669443
0.230842
-0.0549874
0.00919187
0.0252679
0.00164256
-5.16497e-09
0.0814493
-0.0546818
-0.0261544
0.0276477
0
-0.0315914
0.00237488
-0.0149693
0.0117613
0.0913149
0.0165444
3.20591e-170
-2.1054e-11
0.00822271
0.000754443
-0.0369847
0.0222143
0.0986125
-0.0278189
0.0386543
-0.011672
0.00375943
-9.23913e-11
0.000315206
-0.103593
0.0706021
-0.020407
0.028682
0.0322692
-4.85946e-77
0.0298098
-5.10315e-08
0.0392374
0
-0.0817094
-2.3073e-05
0.0355865
-2.17078e-06
-9.03048e-09
-0.00790462
0.060676
-0.0241445
-0.00432535
-0.102591
0.0024433
-0.072161
-9.17966e-06
7.09921e-05
0.0205063
0.0807835
-0.00935431
0.00198072
-0.0369301
-0.0196842
0.106037
0.0092923
-0.00010711
-0.0170084
0.0309997
3.47737e-07
-0.0429109
0.0615176
-8.99374e-07
-0.00193156
-0.189755
-2.5155e-06
-0.0613486
0.00558777
-1.54461e-06
0.000790829
0.201971
0.000103384
0.0206114
-0.0184382
-0.0462919
-0.0144119
0.00396329
5.68761e-173
-0.0237194
-0.0294798
-6.06564e-07
0
-0.140058
0.000228837
-0.112383
0.102799
0.0256036
-4.17186e-08
-0.0560809
0.0637606
0.00587648
-0.039665
-2.35086e-06
0.0578312
-0.00627743
-0.012939
0.0924297
-2.66501e-111
-0.0122304
-0.144807
0.0150994
0.0401481
-0.0089233
0
-0.0103299
0.000391652
0.0196689
0.0678043
-0.018338
0.000100483
0
-0.0660726
0.0310442
-0.0290646
-0.0282926
5.8889e-104
-1.66741e-05
-0.0290738
-0.0205234
0.21337
0.0178834
7.09921e-05
-0.00979481
0.00325083
-0.0173249
-0.000123012
0.0382629
-9.03048e-09
-0.0168538
-0.00924088
-0.0290091
-0.0095148
0.0205667
0.100123
0.125947
-0.0238582
-4.61564e-05
0.0667515
-0.0428601
-0.0428601
0.0940206
0.00338946
0
0.0283034
-1.70879e-05
-0.0405981
-0.0709222
-6.56254e-11
0.0506
0.00131026
0.0431753
-0.0382871
-0.158742
0.0205063
-0.035368
-0.000407419
0.0208536
-0.000307748
0.00516653
-0.06674
-0.016404
0.0374134
-0.106115
0.00850383
-0.0246704
5.68761e-173
-3.27655e-15
0.0134086
0.0481484
0.0206114
-0.0301057
1.63204e-171
0.0234175
0.0219769
0.0504809
0.0779444
0.0451711
0.00110296
-0.0423779
3.26083e-322
0.0118511
0.276625
0.0320086
5.68761e-173
0.000754431
0.0167366
-0.135447
0.026321
5.68761e-173
-0.0187208
0.0957248
-0.00304718
0.0216692
-0.013
-0.0381336
-0.0701957
0.041403
-1.10086e-08
3.5191e-05
5.68761e-173
-0.0948766
0.0572772
5.68761e-173
-0.0278189
-0.0671919
0.0327008
-0.0156894
0.000473191
-0.000123012
-7.94042e-05
-5.97638e-09
0
-0.0716782
-0.0469939
-0.101464
0.0800226
0
-0.0125947
-0.0381604
0
0.0255536
-0.0686234
0
-0.0283875
-0.0266225
-9.6412e-10
5.68761e-173
0.0864791
0
0.0396889
0.214092
0.0275692
-0.098117
0.00236673
-1.13172e-11
-0.0525787
0.00110296
-4.85576e-06
-0.011266
0.0333414
-0.020407
0.0732298
-0.156271
8.04746e-285
-0.0262215
-0.0201364
-0.00481273
-0.000130541
0.0359746
-3.17078e-06
-0.210346
-0.0959595
0.090965
-0.0473069
0.0145624
0.000273031
-2.87716e-06
-0.0740335
0.0015898
0.283264
-0.0299171
0.0205063
-8.91713e-08
-0.00533484
0.0096936
-0.089723
-2.85898e-07
-8.67161e-10
0.111976
0.0306292
0.0147833
0.0511936
-0.0327219
0.109388
0.0432159
-0.0199678
-2.21916e-07
5.68761e-173
0.0152873
-0.0490433
0.00710746
0.000102907
0.529185
0.0752787
1.63204e-171
0.0153282
1.41737e-07
-3.17078e-06
0.0309997
-2.66501e-111
-4.38245e-06
-0.0195543
-8.78032e-10
0.0241894
0.0400512
-2.87889e-09
0.00813434
0.000158979
-0.0463388
-3.27655e-15
-1.92867e-13
-0.100092
0.251834
0.0330274
2.03257e-11
-0.0243517
-0.000118364
-0.0428601
-0.098117
0.00120423
-2.93402e-05
0.0248734
5.68761e-173
5.8889e-104
-9.5433e-05
0
0.179849
-2.08122e-06
0.0234175
0.000214292
-0.00208432
7.09921e-05
0.271525
0.0142517
-0.0263038
0.0509465
0.0374824
-0.0315185
-0.0152525
0.192205
-0.119361
0.0206114
0.0148017
0
0.00260952
-0.0624682
-0.0548257
-0.000227434
0.00120423
0.00509515
-0.279676
0.0333331
-0.109294
5.68761e-173
0.000264695
-0.0646279
0.000403407
0.0298098
-6.81811e-322
0.000494822
-0.0701957
0.00978281
0.0617027
-0.0351148
1.63204e-171
0.0753536
0.0557238
-0.000272817
-8.29486e-06
0.0567839
0.000315206
5.8889e-104
0.0214307
0.00169742
-0.0662812
-0.00975778
0.362844
0.493395
-0.0342887
-0.108161
5.8889e-104
0.0352036
-1.65045e-08
0.000102907
0.0261274
-8.26374e-06
-1.13868e-07
-0.0515566
-0.111126
0.0410975
0.0576765
0.0849253
-0.00188349
0.0113434
-0.00924088
7.09921e-05
5.68761e-173
-0.0336977
-0.0168538
0.00120423
-0.0223398
-2.1054e-11
0.0373022
0.0431385
0.000100483
0.0156022
0.0355865
-0.0371947
0.0199523
-0.0661755
-0.0570824
0.173834
-2.1054e-11
0.0638136
0.00225297
0.0392374
-9.6412e-10
0.0783119
0.000756503
0.105107
-0.14721
0.118514
-0.0178382
-2.72309e-11
5.8889e-104
0.00558777
-0.0106807
0.0694563
-0.0485378
0.00503856
0.0259883
-0.000123012
-0.0209854
-0.150023
0.00149653
0.269488
-0.12294
-4.0176e-09
-0.00158205
0.116131
5.68761e-173
-7.65209e-06
-0.0234951
-0.0660726
-0.0230329
0.0500517
0.148887
-1.67182e-08
0.0559915
0.000315206
-0.0388412
0.152245
-0.00456249
-0.0391086
0.00120423
-1.08708e-11
-0.0482684
-0.000123398
0.0103948
-0.0897927
-3.66799e-05
-0.0126069
-0.0331837
-0.0743051
-0.147584
-0.0170084
-0.00909215
-4.44867e-07
-0.0449642
0.0508008
-0.0391086
3.20591e-170
-3.27655e-15
0.0362629
0
-0.09387
-0.000118364
0.0113634
-0.0347952
-0.000203365
-0.0244377
0.000949349
-0.012939
-0.0946589
5.68761e-173
0.0322133
-7.97229e-06
0.000160216
-0.00345774
2.4542e-06
-3.66799e-05
0.144361
-0.0290726
0.0084394
0.0510036
-0.0445765
0.0151748
0.00850383
-0.0229929
-0.018184
-0.0301057
-0.0290646
-2.11684e-70
0.0483027
0.00914566
-9.13994e-06
-2.61741e-13
-0.0419665
-0.0387313
-0.148425
-1.19356e-09
0.236331
0.0503309
0.00120423
-4.81144e-07
-0.000217594
0.0468161
0.0056317
0.035741
-0.0763318
-0.00394748
-9.8243e-05
-0.0332359
0.00335009
0.0743823
0
-0.000191282
0.094661
0.0407802
-0.0234951
-0.0718024
0.0768054
0.00149653
0
0.0475275
-5.49029e-05
0.0196101
0.0586713
0.0113634
0.00850383
0.0620829
0
7.09921e-05
-3.27655e-15
-0.00189016
4.06356e-269
-0.141043
0.0150436
-0.00660891
-0.0125947
-0.0431315
-2.17078e-06
-1.13172e-11
0.00556158
-0.025396
-0.0539055
0.0772234
-7.07124e-06
0.0152824
0.154002
0.0654086
-0.0195581
-0.0339245
-0.00394748
-1.65045e-08
-0.0449642
0.00554779
0.0513698
-5.9857e-06
0
-1.86197e-07
0.0817148
-0.0289612
-0.0306806
-0.0204856
-0.0649381
-0.0523831
-0.0416537
-3.5631e-06
0.0560717
-0.000718476
0.141871
-7.10203e-13
-5.10315e-08
-0.0972328
0.0391472
-0.0123139
-0.00027947
0.00558777
0.0890022
-0.126807
-7.97229e-06
-0.064859
0
0
-0.0234951
0.113138
-2.7921e-08
-0.0428601
0.0113434
-1.00233e-12
0.0189214
-8.33092e-07
-0.036623
-0.0489439
-2.87716e-06
0.0823879
-0.0176574
-0.0771469
-0.00617685
-0.095486
-0.0364052
-0.020407
-0.000267351
-0.000267028
-0.0589618
-0.170904
0.107861
-0.0336093
-8.29486e-06
-0.0647751
-0.00261579
-0.0487089
0.0192746
0.00399621
-0.00581661
-0.0122304
-0.245196
-8.23419e-05
-0.0243678
-0.0695885
0.0520057
-0.115569
0.0208841
-0.00394748
3.20591e-170
-0.0682704
-0.0405035
0
0.0299858
-0.0181162
0.152515
-0.0893009
0.0256036
0.0142288
0.00259414
0.289047
0.0246003
0.0304129
-0.00682526
-0.101945
-0.0821937
-0.041466
-8.1456e-06
0.166351
-0.0181162
0.00632485
0.00710746
-0.0583636
0.0205063
-0.185329
-0.134815
-0.0479425
-1.79925e-05
0.0342776
0.00424194
-0.00857284
-8.15125e-05
-0.0468364
7.09921e-05
-1.24999e-321
-0.00812804
-0.076094
-0.0914163
-0.0218551
-0.0315914
-0.00161117
-1.47594e-06
-0.0316378
0.00139244
-0.234649
0.0376125
0.0669223
0.0158311
-0.0882656
0.0178834
0.0506485
-0.109565
-0.0134532
0.0147833
0.0365044
5.68761e-173
-9.89632e-07
0.0105305
1.02552e-07
-4.44867e-07
0.022702
-0.0168538
-0.0363667
-0.138328
0.0833202
0.0205063
0.0709152
-2.65294e-07
-2.06193e-05
0.115771
0.0407758
-5.10315e-08
-0.0632759
0.0691765
-0.0244377
-4.38245e-06
-7.97229e-06
-3.54745e-05
0.0533399
-0.0350834
-0.000747042
-3.66799e-05
-0.0700807
-0.012939
-0.0444196
0.0403475
0.00376155
-0.0275019
-0.0312437
0.0496837
-3.27206e-05
0.0309997
-6.42699e-08
0.088086
0.010831
-0.158789
-0.00030253
-0.0546375
0.0196101
-0.0195683
0.00207837
0.0405727
-0.0243517
0.0179003
-0.0417734
0.0638533
0.00120423
1.63204e-171
-0.0422379
-0.0498957
-0.0196661
0.000118951
5.68761e-173
-0.0729244
4.06356e-269
0.02919
-2.21916e-07
0.0359271
0.0836055
-3.06941e-38
0.0413639
-0.0106303
0.0024214
-0.0581917
0.00213122
-0.000164504
1.41737e-07
0.00384949
0.01768
-2.73243e-07
4.06356e-269
-0.131631
0.0112931
-0.0266225
-0.105282
-0.0262215
-8.30318e-07
-0.00030253
-0.0358801
-0.0665623
-0.0304433
0.00725414
0.0397787
-7.97229e-06
0.448053
-0.0893005
-0.0571296
0.0246026
0.131243
-0.184765
-9.8243e-05
0.0393751
-0.159415
0.0819624
0.0506
-0.0596107
5.68761e-173
-0.0290646
-9.13994e-06
-0.0795157
0.0298098
-1.729e-05
-0.228491
-2.99777e-05
-0.0545388
-6.18707e-05
0
0.0074267
-0.0342887
0.0275284
-0.0394055
0.00179331
-0.0181162
-0.000130507
0.0030971
-0.0901247
0.0147833
0.194916
-0.0835558
-0.0202883
0.342011
0.0459102
0.128327
0.0333414
0.0572772
0.0112879
-0.0156496
0.0220505
-0.0234951
0.144311
0.0156695
-1.8419e-05
0.0309997
-0.00454274
0.0261127
-5.10315e-08
0.00822271
0.00257972
0.0103865
-8.26374e-06
-2.6436e-13
-1.83777e-05
-0.0216179
0.00225297
-0.0149972
-0.00981168
0.0772175
5.68761e-173
0.000348398
-0.0841941
-1.13454e-08
-0.0563284
0.0205063
-0.000124228
0.134093
0.0205063
-0.148667
-0.117764
-0.0195581
0.0319845
0
-0.0201042
-0.0321329
-0.000199068
-6.06564e-07
0.116996
0
1.22528e-321
0.158868
0.0705916
-8.33092e-07
0.0260514
-0.00014094
0.0362629
-0.0139205
0.0253862
0.00237488
0.0312873
0.123132
-0.0306806
0.26885
0.0742597
-0.0280577
-0.0463063
-0.00993194
0.0402203
-0.00261579
0
-0.0159157
-0.00660891
-1.02871e-05
0.0482359
0.0823879
0.0585128
0.118249
-0.0271851
0.091506
0.088086
-0.00966021
0.0159076
0.128252
0.0215391
0
0.0874842
-0.012939
-0.00497201
-0.0415578
-0.0425671
0.00108386
-9.6412e-10
-3.17078e-06
0.0352068
0.0645777
-0.0869849
0.0169206
0.0620206
-0.0201366
-0.000130507
-0.0317895
-3.82024e-05
0.087699
0.0907043
-0.0823486
0.000390398
0.0259967
-0.0290726
-0.0591231
-3.03415e-08
-0.158616
1.63204e-171
-0.00951492
-1.07325e-08
0.186457
0.00805198
0.0743823
0.0112922
-0.0427246
-0.166194
0.0543154
-0.00190045
-0.0067733
-0.168081
-9.6412e-10
-0.107176
0.00725414
-2.19953e-06
-0.0349318
0.0383203
-3.66799e-05
0.157424
0.00427641
-0.0095148
-0.035977
-0.00318356
0.0743823
0.0309997
0.0419345
-0.00621236
-0.103027
0.00148055
-7.10203e-13
0.000692964
0.0209755
0.0147833
-1.39089e-06
3.47737e-07
-0.0132591
-7.50212e-06
0.113132
5.8889e-104
-9.11637e-13
0.0355865
-0.12263
0.103103
-4.21769e-09
0.00370843
-2.50397e-05
-2.6436e-13
-1.20733e-07
-0.0168538
-0.0243161
0.0205063
-0.302042
-0.0959595
0.0239673
-0.00261579
0.0904942
0.0309213
0.00032066
-0.027323
0.0509194
-1.49683e-05
0.00648865
0.00237488
-0.160095
0.000736685
-0.045812
-8.23419e-05
-0.0242453
0
-0.0507325
0.0418436
-0.0249143
0.0173479
0.0410292
0.00558777
0.0386543
-0.00261579
0
-0.000107622
-0.0555884
-0.00305682
-5.03271e-11
-0.0355121
0.0100936
-0.0126642
-0.0528218
-0.0548607
0.0178834
0.00441421
5.8889e-104
-0.113242
-0.0124376
-0.0196961
-0.0632378
0.0257718
0.0665102
-1.13868e-07
0.179189
0.0657546
0.00252874
-0.0272858
-8.28916e-09
0.0213668
-0.0853898
0.0383203
0.0235812
-0.0168538
0.111148
0.0143836
0.0354354
-0.0125965
-9.13994e-06
0.0504809
0.0327008
7.09921e-05
-0.000275194
-0.000300048
-5.73771e-06
-0.105579
0.000228837
-0.0546886
-0.0667408
-0.158697
0.0218442
0.00328619
0.0734528
0.00469087
0.00350761
-0.0131133
-0.0196203
0.000267411
-0.054687
0.0513195
0
-0.0755809
0.0348154
0.00491893
-1.13172e-11
0.013103
0.0350762
-1.47594e-06
-0.203051
5.68761e-173
-0.059084
0.0907515
0.0136721
-5.18303e-09
0
0.00428268
0.204286
0.00237488
-0.0184225
-0.0221647
-1.83777e-05
-2.21916e-07
0.085083
-0.077501
0.267089
-9.6412e-10
0.0015898
0.001637
0.00120423
0.00558777
-0.0181162
0.042643
0.576736
0.121822
-1.32502e-05
-0.0258602
0.0801672
-0.000123012
-0.000228037
0.0459655
-2.82535e-05
-0.0604053
-0.0308445
0.202627
-0.0257762
-0.044029
-2.09484e-321
0.0143836
-0.035977
0.00120423
0.0506
-0.0847897
-0.0120105
-1.08708e-11
-0.0343544
-8.15125e-05
0.013125
0.0178834
-5.10315e-08
0.260162
-0.000125652
-0.107676
0.0117613
-0.0418497
0.00422441
0.0485714
0
0.0488844
-0.0255058
0.00589508
0.00119395
-0.025221
-4.21769e-09
0.054603
-0.107987
-1.729e-05
-0.00027947
-0.0131133
-5.67664e-05
-0.117843
-0.0215103
-0.0455507
0.0356919
0
-0.0184412
-0.0545948
-2.21916e-07
0.0594829
0.0181706
-0.0440274
-0.0415031
0.00935973
0.0298098
0.118086
-0.0275268
-0.178042
-0.0553917
-8.33092e-07
-4.81144e-07
0.0243381
0.065507
0.0334736
-0.025022
-0.0446363
0.000735569
0.134039
0.00107279
-0.0371947
-3.03415e-08
0.0138914
0.00399621
-0.0623603
-0.0452664
-0.112009
0.0136172
-0.0381604
-0.138224
-0.012939
5.68761e-173
-0.0201749
0.0664722
0.131869
0.0373022
0.000736685
-0.0106027
0.107626
-0.0167828
-0.0374862
0.160208
0.022702
0.0113763
0.0151673
0.00399621
0.0150909
0.010831
-0.0362081
-0.130215
-0.116371
5.8889e-104
0.0561187
-0.0196203
-0.138328
0
0.0304118
-0.0256208
-7.10203e-13
0.0609942
-0.0347242
-0.051234
-0.0653511
-0.0880669
0.0390778
-0.0660726
-0.0371947
0.0575784
0
-0.0632757
-0.0409482
-5.49029e-05
-0.0136681
-0.0473069
0.0165444
0.00139244
-0.173471
-0.0444393
0.00120423
-0.0185228
0.0177184
-0.0294798
0.00237488
-9.14913e-13
-0.124699
0.0413639
0.154473
0.0195163
0.0143836
-0.0034959
-0.013372
-2.73973e-15
-0.0381639
-0.0178301
-0.0158416
0.116031
-0.00996498
0.146028
0
-0.0144255
0.00643892
0.0380659
-0.0266517
-0.0627369
-0.00398008
-0.0888378
-0.0191909
0.00244181
-9.6412e-10
0.0800014
0.0103948
-3.55269e-09
5.3695e-08
0.0849082
-1.54461e-06
-3.27655e-15
-0.00236569
-0.0785437
-0.0149347
-3.03415e-08
-0.0135672
-0.000125652
-0.0185441
-1.85233e-07
-0.041257
-0.0244377
-0.00158205
-1.50632e-10
-0.0756092
0.0259196
-4.2268e-11
0.000315206
-0.208467
-0.110164
-0.00352258
0.00731292
0.0143836
-7.65209e-06
-3.66799e-05
-0.0580973
0.0510036
-6.71728e-05
-9.6412e-10
-0.0544985
-0.019808
-2.85882e-05
-0.0315929
-0.0235618
-0.0487089
-0.172349
-0.0191501
-0.0953833
0.0764173
-0.0179134
-9.6412e-10
-0.0276664
0.0355865
-0.0323301
-0.020407
-0.0563428
0.00206232
-3.16e-08
-0.0194504
-0.0821974
-0.0629278
-1.03307e-09
-0.0124376
0.142743
0.0905518
0
0.040784
0.0605624
0.17141
-0.114366
-0.0187689
-0.048342
0.00846676
-0.0729244
0
0.185383
-0.00030773
-0.0392272
0.0417641
-0.0168538
0.0474884
0.0676248
-0.0201684
-0.0324269
0.023745
0.113526
0.00204453
-0.156815
-0.00924886
-5.10315e-08
-0.0997006
-1.02871e-05
-0.0785267
0.000772771
5.68761e-173
0.00376174
-0.0300446
-9.7415e-05
0.0582643
0.0605624
5.68761e-173
-0.0780675
0.0316351
0.125902
0.0395063
0.0012619
-1.8419e-05
-0.0649373
0.0182966
0.00813434
-0.0164075
-0.00947079
0.0136721
-0.0335898
0.152773
-0.0419668
-0.0498957
-0.0129917
-7.97229e-06
0.0227088
0.0763766
0.0015898
-0.165321
-0.0200154
0.0746154
-0.00109854
-2.66501e-111
0.0397787
-0.036908
0.0547718
0.0295273
0.022702
0.0450016
-0.0541685
-0.000168639
0.00681731
-0.0124376
-0.000166113
-0.0275684
0.0271357
-6.71728e-05
0.0621699
0.102317
-0.00627743
-0.0464676
-0.0680946
-0.00613236
-0.0316825
0.0113434
0
-0.0112638
-0.0548257
-0.0198218
-1.81294e-06
0.000416535
0.0255718
0.00358763
-5.9857e-06
0.00310139
-0.012868
-0.0310136
0.00032066
-1.25117e-07
0.0946895
-9.6412e-10
0.0946895
0.182302
0
-0.0434577
0.152388
-0.0473069
-0.0901764
-3.89295e-285
0
0.193708
5.68761e-173
0.108566
-2.12448e-322
-0.0273024
0.00935973
-5.9857e-06
-0.000125652
0.0254794
-0.0391086
0.0573565
8.04746e-285
-1.83318e-05
-0.06674
-0.0904736
0.124159
-0.0196961
0.0489228
0.0139708
-5.11713e-05
0.0327005
-0.126189
-0.0538697
-6.0276e-322
0.0482654
0.0310848
0.0237182
-0.0611582
0.0374134
-0.0259307
-9.42922e-05
0.0560717
0.00332592
-0.0674354
0.195709
-0.0600625
0.0608055
-0.103598
-0.0298574
-0.000164504
0.0190782
-0.0548448
5.68761e-173
0.0482854
0.0196428
-4.35029e-05
-0.0286439
0.0308773
-0.0592193
-0.0124042
-0.105863
-0.00027947
0.0029091
0
-0.0160689
-0.00638626
0.0678043
-0.0551967
0.126425
0.0385064
0.00120423
0.0403475
-0.0454125
-0.01992
-0.000130507
-6.56254e-11
-0.0288063
-0.0244377
3.20591e-170
-9.6412e-10
0.00883707
-0.020985
-0.0456675
-0.00432535
-0.116587
0.0765573
-0.00339531
-0.0554984
-0.156537
-1.47431e-05
-3.27655e-15
0.0926602
0.0272211
0.0015898
2.76617e-07
-4.81144e-07
0
4.06356e-269
0.0723935
0.00656001
-2.19434e-06
0.00957851
0.0113634
-0.0112556
0.0652315
0.000103384
5.68761e-173
0
-1.13172e-11
-0.0185228
-5.18303e-09
-0.000124228
1.11931e-285
0.0322692
0.00960542
0.0189214
-1.13777e-12
0.0295273
-0.0371788
-2.21916e-07
-0.035073
-0.0243678
-0.0759489
0.0327008
0.0198114
0.00120423
0.00681731
-0.033346
0.0528545
-0.0541685
-1.50632e-10
1.02552e-07
-0.0640701
0.179748
-0.117553
0.185669
-0.173196
-0.101722
-1.50632e-10
0.0265599
0.00293114
0.000775524
-0.0349773
0.0761819
0.0702283
2.04316e-158
-1.26473e-05
-0.0541191
0.0152873
-0.0209752
0.0245293
-1.10777e-12
0
-0.234689
0
0
0.0103554
-7.09827e-05
0.0136721
-3.84964e-05
-0.0289747
0.0118511
-0.0623036
0.0772175
-0.0197083
0.00120412
0.0503532
0.0380879
0.00509515
0.167871
0.0392374
0
0.0140916
-0.0243517
-0.031137
-0.0039018
0
-0.077501
0.0322219
0.0342062
0.0811825
-0.00027947
0.000326274
0.0910431
-0.0750079
7.0861e-05
-3.66799e-05
0.0261274
-0.0386578
0.0488405
0.0223863
-9.11637e-13
0.110044
-0.00753012
-0.0432353
0.0320086
-2.17078e-06
0.0356919
-0.0168538
-2.53561e-05
0.000403407
-8.12261e-05
-0.0196203
0.0223253
-3.16e-08
-0.0216179
-0.0227916
-0.0244377
0.180102
-7.50212e-06
-0.0564138
-0.0319098
0.0412878
-0.128352
0.000598562
0.0113434
-0.0391426
-0.043212
0.0139923
0.128299
-2.01913e-07
0.117942
-0.0270346
0.000509591
0.0964561
0.0713167
-5.10315e-08
0.0214002
-9.89632e-07
-9.6412e-10
-0.0111952
0.0113634
0.0118294
0.0677399
0.00163693
0.0015898
0.039688
0.0288954
0.0156022
-0.108588
-0.131063
0.0056317
0.0313539
-0.0145172
-0.0417734
-1.59089e-321
-0.0564362
-1.36619e-12
-0.297261
-0.000125652
0.0878379
0.0552502
0.203582
-0.0187534
-0.0391086
0.00180872
0.0227083
0.0056268
2.04316e-158
0.0255536
0.0219947
0.00850383
-0.156537
0.0625639
-0.0138901
-0.0576605
0.00907864
0.021655
-0.322373
5.8889e-104
0.00390892
-0.00394751
-0.0134205
0.114972
0.088336
-0.0997006
-1.50632e-10
0.0118294
-0.0126642
-3.27655e-15
0.0486433
-7.74358e-09
0.120212
0
0.0144178
0.0578312
-0.0181162
-0.0134758
-7.97229e-06
0.216573
-0.0740039
-0.00189016
0
0.00681731
-4.30602e-08
0.0452399
-0.0082226
0.0136721
-0.020407
0.147314
-3.27655e-15
0.0987112
0.0488405
-0.0077744
-2.65294e-07
-1.70879e-05
0.000348398
0.0563582
0.0180887
-4.30602e-08
-0.0632757
0.0382629
0.00848218
0.134258
-0.0381336
0.0149473
0.0425881
0.0579876
-0.00660891
0.00186494
-0.00705096
0.00731093
-0.0290646
0.0287911
-0.0273024
0.0253541
-0.171209
0.00120423
0.0136721
-0.0176645
-0.0479851
0
0.176406
-0.0426515
1.02552e-07
-0.0482812
-0.0403912
0.0984127
-0.0216783
0.0381457
-0.0984007
-0.0243517
0.0261274
0.018952
0.0446798
0.107357
0
0.115494
0.0567839
0.0405653
0.0123162
-1.66308e-05
-0.012939
0.030407
-0.0432953
-0.0969865
-3.27655e-15
0.0108975
0.000241556
-0.0156479
0.0177373
0.0504853
-0.0506564
0.0479052
-0.0706769
0.00316477
0.00850383
0.135925
0.0297077
0.0751142
-7.94042e-05
0.0304025
-0.033979
-6.81811e-322
-1.13777e-12
0.0259883
0.095903
0.0513195
-0.012939
-0.0244377
-1.50632e-10
-1.02445e-06
0.0156022
-0.040347
-0.0219203
-0.112232
0.0455279
2.4542e-06
0.0200832
-2.87716e-06
0.0122605
-3.16e-08
0.0768845
0
-2.93402e-05
0.060186
-0.0535435
-0.012939
-0.00366315
-0.0310136
-3.06941e-38
0.10483
-0.0134335
0.0252606
-0.0381387
-0.0901214
-0.0522961
-1.67182e-08
-0.0463485
-0.077549
0.193562
-0.0227913
0.039225
0.055536
0.001637
-1.0907e-06
-3.55269e-09
-0.0243867
-0.119919
-0.061116
-0.0443733
-1.13172e-11
0.0449607
0.333124
-0.00377031
-0.0156073
0.001637
-0.101454
0.00558777
0.0309997
-2.43136e-14
-1.1196e-05
0.0189214
0.0823879
-0.000404551
-0.0227088
0.0205063
-0.016854
0
-2.61741e-13
-0.00966021
0.040966
-8.1456e-06
0.0113434
0.0689768
0.0492622
0.0352068
0.0466084
-0.00158938
0.00505171
0.000315206
0.338968
0
-3.85475e-05
-0.0237276
0.0572772
-0.0300721
0.00947632
0.0773547
0.0499197
-0.175028
0.0103948
0.0529773
0.0773547
-0.19014
0.0535582
0.139422
0.0567426
-0.00016869
-7.97229e-06
-0.102886
-0.0861363
-0.0191812
-0.0690032
-0.0568733
-0.121632
0.105933
0.0205063
-0.000125652
0.107657
0.0638533
-0.0505283
0
0.0620829
-0.0487089
-0.137814
0.0298098
-1.37426e-05
0.000966772
-4.94428e-07
0.000315206
-1.07434e-08
0.000276589
-0.0371609
-0.00434926
-0.0247499
0
0.118086
-0.326088
-0.000284872
0.0686569
-0.0223398
-0.0184454
0.528133
-0.0202572
-0.0494228
-3.06941e-38
-0.0309654
0.0268258
-0.0242453
-0.000244058
0.00186494
-0.0229661
-0.00781316
-0.0875196
0.020447
0.0356782
-0.0306806
0.0113761
-0.0197885
0.00151944
-0.018591
1.17461e-05
0.0614131
0.00731292
0.205749
0.0334736
0.069649
-1.03307e-09
0.0178834
-0.00991436
0
0.0739894
0.000348398
0.0547046
-1.08708e-11
-0.0211394
-0.0609138
-0.363659
-0.000199068
-9.6412e-10
0
0.0373022
9.7601e-06
-0.0216179
-0.216519
-0.0103628
0.0154388
-0.0201366
-0.0223398
0.0327008
-0.0198147
-0.0129849
1.63204e-171
2.84334e-144
-0.0731238
5.68761e-173
0.0234175
0.00693573
0.028422
0.034882
-0.0832144
0.00140672
-0.0398177
-0.00577455
0.0118294
0.0467548
0.283927
0.060186
-1.17971e-33
0.0726136
-0.106673
0.000846917
0.0204059
-0.00434926
-0.0168538
0.013323
-0.0156894
-0.0983319
0.0321748
-1.85233e-07
-0.0394374
-4.13638e-06
0.000776352
-0.15921
-0.0405981
-0.0792541
-0.0168538
-8.15125e-05
0.0104016
-0.0888378
-2.21916e-07
0.0205063
-0.243643
0.102799
1.65512e-321
-1.8419e-05
-2.3073e-05
-0.0391086
0.00180872
0.0262394
-0.0450485
-0.0849744
-0.0451135
0.0205063
-0.0185621
-8.85194e-06
0.357548
-0.00660891
0.0698826
-8.33092e-07
0.00725414
-0.026455
0.0238226
-0.0852612
0.074777
0
-0.0517502
0.0713522
-0.0719396
0.171142
0.0113434
-0.0306806
-0.0900819
0.00110296
-0.123278
0.0308244
-4.21769e-09
-0.020383
-7.63768e-06
0.0312169
-0.092934
-0.0211729
-0.000228037
-0.0449496
-0.0095148
5.68761e-173
0.0808747
-0.0136337
0.0112921
8.69709e-05
0.000228837
-0.0464099
0.0621699
0.0143836
0.046308
-3.03415e-08
-0.00189016
0.0926019
-0.0252214
-0.0201364
-0.0662076
0.0334736
-0.000272817
0.0430686
-0.000178871
0.0305745
-0.0107961
-0.00496845
5.7501e-05
-0.00189016
0.0169206
0.0136689
0.0165444
0.0311851
0.0874842
-1.729e-05
-0.0364067
-0.0824776
-1.24085e-05
-0.128878
0.0208751
0
0.0533399
-0.0723285
0.0190616
-0.035977
0
0.00589508
0.0929939
4.16792e-06
-0.0276856
-0.011739
-0.0853609
0.0962859
-2.08122e-06
-0.0618547
-0.000261124
-0.026666
0.0171002
-0.0354337
-2.06193e-05
-0.107383
-2.985e-07
0.0306374
-0.0756446
0.0171002
-0.0292674
-5.44869e-13
-0.0257549
-5.67664e-05
0.0277018
0.0228064
0.119784
-0.0254246
0.00401576
0.0287267
-0.00660891
4.40575e-06
-0.0061948
-0.0326439
0.0552027
-0.031498
-0.0248959
0.0205063
-0.029567
0.000276589
0.000348398
-9.65465e-05
-0.0213376
5.68761e-173
-0.0185828
1.1955e-06
-0.0677624
0.0467548
-0.0586576
-0.0705372
-0.000203365
-0.0568733
0.0155991
-4.44867e-07
-0.0187922
-0.0428773
0.00322276
0.0319475
-1.92867e-13
0.0412878
-0.0604748
0.0787877
0
-0.0672683
0.0214002
0.0116919
0.123264
0.0122061
-0.015793
0.0672905
0.00509515
-0.0240754
0.0478637
0
-0.0657047
0.0367671
-0.0880264
0.0235945
0.165487
-3.03415e-08
-0.0196268
0
-0.0814692
-0.012939
2.45417e-06
0.00686026
-3.03415e-08
0.0302688
-0.000105999
0.0864402
0.413867
0.00174959
-0.279131
0.143647
0.0900556
0.00731292
-0.018338
-0.403289
0.061804
0.00712824
0.102799
-0.0422379
0.0131584
0.0396173
0.167142
-7.09827e-05
-9.89632e-07
0.0205063
-1.2405e-11
-8.29026e-09
0
-0.0583122
-4.35029e-05
0.0567426
-1.65045e-08
-0.0234951
0.0382629
0.0248734
0.16307
-0.0123227
0.00120423
-7.74358e-09
0.128718
-1.16989e-08
2.77398e-09
0.0628349
-0.0095148
0.001637
0.052595
-0.0391086
-0.000826773
-1.50632e-10
-0.0313618
-1.08708e-11
-0.0427076
-0.205545
-0.0252039
-3.27655e-15
-1.30469e-12
-0.00627743
0
0.0485528
0.0228031
0.0673058
-5.10315e-08
-0.0165042
-0.0370482
-0.0216783
-0.0661312
0.00881903
-0.000127106
0.00681731
0.0165444
-0.0466421
-0.0126642
0.0156565
0.0600319
0.00226187
0.0176167
-0.00985826
-1.13172e-11
0
-0.0225767
-0.0449642
0.0461017
0.106718
0.0205587
0.0741202
-0.0379268
-0.0242375
-0.0539766
0.000151119
-1.13172e-11
0.00348585
-0.148813
-0.000147632
-1.13172e-11
-0.0422379
-6.51934e-09
0.0417461
0.0412878
-0.0271056
-0.00551048
-0.00632113
-0.000118364
0.0136436
-3.66799e-05
-0.0049512
0.0489861
-0.000178879
-0.00709067
0.0302965
-0.013372
-0.407521
0.0392292
0.0245774
0.0338182
-0.0306228
0.00448032
-0.0117727
-0.0203951
-0.00341366
-0.0336067
-0.0436195
0.00237488
-0.0311683
-0.0216179
0.0165444
0.0654299
-5.16497e-09
0.0116791
0
0.000133216
3.20591e-170
-0.0651557
5.68761e-173
0.000118951
0.0298759
0.0159056
-0.037043
0.0593599
0.0326864
0.0758598
-0.0390493
-0.0433613
-0.0166515
0.000429754
0.0451886
-3.70332e-09
0.0169206
-4.79727e-08
0.0459655
0.0205063
0.027913
0.0134698
-0.0997006
-0.010661
0.0236093
0.00422441
0.0205063
0.0256034
0.0165444
0.00107279
0.00159592
-6.18707e-05
0.00558777
0.0186956
0.0259883
-0.0289387
0.0125872
0.0178834
-1.65045e-08
-1.02871e-05
-0.124644
0.0488788
0.0416344
-0.0624409
-0.0309213
0.0325194
0.100834
0.411162
-0.0290646
0.121202
-0.0393764
-4.59979e-06
0.00850382
0.260301
-0.00538354
0.0143227
-0.0732373
0
-0.00546069
-0.0684925
0.0141948
-0.0402455
0.198758
0.0237084
-0.0566396
-0.0106027
-0.0556134
-2.49879e-07
0.154299
0
0.00443787
-0.0313308
-0.00651301
-0.0326237
5.68761e-173
-0.000310231
-0.00236936
-0.0304255
0.00316477
-0.0181162
-0.00777794
0.00441161
-0.0132601
0.0301158
-0.0178228
-0.122398
0.10535
0
-0.0095148
3.47737e-07
-0.0341007
-0.000164504
-0.012939
0.0864791
0.0653374
-0.0174943
0.0582643
0.00165765
-0.00208432
-8.99374e-07
-0.103675
0.00573572
0.00868717
-0.0708975
-0.0227913
-0.012939
0.0727454
0.0015898
-0.0216179
0.0975409
-0.0243517
-0.0233406
0.00558777
0.0382629
-0.0250929
-2.73243e-07
0.0667999
-5.8378e-05
0
0.00850383
-0.0402755
0.0136721
-0.0168538
0
0.0127239
-0.0216179
0.110741
-0.0141455
-0.000199068
-0.0545799
-0.028999
0.279119
0.0224325
-0.0391086
-0.050916
-0.077501
0.0205063
0.177992
0.0131848
0.00885062
0.105188
-0.000747042
-3.27655e-15
0.0143836
-7.49171e-06
-0.000158534
-0.00627743
-0.19507
0.128634
-9.6412e-10
-1.47948e-07
-2.21916e-07
-0.049984
-5.44869e-13
-2.08122e-06
0.156846
-0.0265725
0.00328619
-0.0319098
0.0528545
-0.0493283
-0.059204
0.084535
0.0379068
0.0602121
1.11931e-285
0.0288954
-0.0168538
0.160121
-0.0496886
-0.116427
-0.0948766
-3.27655e-15
0.0322692
0.000102907
-0.0425449
0.0252025
-0.0326439
-2.17078e-06
-0.0715757
-0.0178301
-0.00874178
-0.00687562
-0.0233422
0.00131586
-2.09484e-321
5.68761e-173
0.0108783
-0.0506564
-0.0224703
-8.81422e-07
-5.97784e-08
0.204097
-5.9857e-06
0.028931
0.0112931
-9.43083e-07
0.00125578
2.77398e-09
-0.0343395
0.000395088
0.0320086
0.00841635
0.00235105
-2.06193e-05
5.68761e-173
0.0899503
0.0977961
-2.35086e-06
-0.0795157
-1.24072e-06
-3.27655e-15
0.0136859
0.00158192
8.04746e-285
0.0137751
0.000315206
0
-0.0287532
0.0322692
0.0874842
-4.74126e-06
-0.0981487
-0.0236036
-7.07124e-06
0.0282737
-0.0763515
0.143396
-0.000132579
-0.0515566
0.242312
-0.0123895
-0.06674
-0.0102914
-0.0106027
5.68761e-173
0.102317
-0.029595
0.00119395
-0.0205234
-0.033779
-0.107604
-0.0163262
-0.0633043
-0.00602625
5.8889e-104
-0.112015
0.0424412
0.0147833
0.104376
-8.33092e-07
2.77398e-09
-5.44869e-13
0.0608602
-3.55269e-09
0.297822
0.0172121
0.00338946
-0.000146602
-0.0564289
-1.08708e-11
0.0355022
-0.0997006
-0.0144657
-7.07797e-07
0.128206
-0.0404078
0.0140247
0.00706832
-0.0743051
-0.0242453
0.119069
0.0205063
-0.013372
-0.0296274
-0.00753012
-4.30602e-08
-0.0772995
-0.024933
-6.65932e-12
-0.092986
-0.0015132
-0.0328725
0.0131848
-0.0771469
-0.000127358
0.114972
0.03448
-6.06564e-07
-0.0904736
-0.0216179
-0.00439675
-0.255835
-0.0180828
-0.0242453
-0.0713438
-0.00394748
0.0127239
0.0367113
0.00619522
0.0144449
-0.0216179
-0.0494004
0.0403475
5.68761e-173
-4.30602e-08
-1.85233e-07
-0.00773558
0.0110331
-0.0349775
-0.0818541
0
0.000102907
-2.78044e-08
-0.0243517
-0.0608398
-0.0168538
0.0314306
-1.13172e-11
0.0669443
-0.0732373
-0.0732512
0.0207593
0.000756503
-2.56148e-275
0.00237488
0.00138569
-1.85233e-07
5.68761e-173
0.0955386
-1.06523e-05
0.00686026
-0.0770889
-0.036908
-0.0349727
0.00131026
0
-2.79929e-05
0.0151331
-0.0688719
0.0333916
5.57181e-05
-0.0646622
-0.066757
-0.0196306
0.00897723
0.000949349
0.15965
-0.0729926
0.00163249
-2.5155e-06
1.41737e-07
0.000754443
-0.0629567
0.0503309
-1.83777e-05
-0.0530465
-4.38245e-06
-4.2268e-11
0.0921448
-0.0461139
0.0706315
-1.83777e-05
0.0288054
5.8889e-104
5.68761e-173
0.0288997
-0.0371947
0
-6.1035e-05
0.212274
-0.024438
5.68761e-173
-0.0221522
-0.0165784
-0.0902077
-0.031724
0.0504809
0.249848
-6.4652e-09
0.167123
-0.0755455
-0.0389626
-0.0821527
-0.0449642
-2.01913e-07
0.0205063
-0.131393
0.0169206
9.57664e-05
-0.0229929
0.0876899
3.26083e-322
-0.0493283
-3.03467e-06
0.0688195
5.68761e-173
0.00731292
0.015989
0.00328619
0.182058
0.0572154
-9.45336e-05
5.8889e-104
5.8889e-104
-0.00660891
0.00337336
-0.0192004
0.10943
0.049646
-1.03307e-09
0.0353294
5.68761e-173
-0.035368
-0.392369
0.15922
0.00108386
0.564134
0.048968
-0.0140451
0.0261274
-0.035723
-1.08708e-11
-0.00193156
0.0109802
1.21699
-0.0242453
-0.00981953
0.0408627
0.0231188
-2.73973e-15
0.00376298
-0.0568733
0.135238
0.0176038
-0.212532
0.0178834
0.00261509
-0.035977
-0.012939
0.107357
0.0442732
0.00325083
-0.155162
-0.00822187
-0.0618547
-0.08998
-0.000424808
-1.13172e-11
-0.0278189
-1.13172e-11
-0.181345
-0.074453
-0.027818
-0.0422543
-1.12511e-06
-0.0644309
-5.49072e-05
-0.00132863
0.0145058
-7.10203e-13
-0.0184382
0.0468928
0.149403
2.26566e-05
0.0246003
-0.0851341
4.585e-05
-2.06193e-05
-1.13868e-07
-0.00918891
0.0835887
-1.92867e-13
-0.0690517
-0.0234313
-0.0616566
0.0261274
0.128299
-0.112015
-0.0230329
-8.89318e-322
0.0346284
0.0657606
-0.00158205
-0.000203365
0
0.0372379
0.00399621
-0.00472207
0.121086
-1.08708e-11
-9.64665e-10
0.0300329
0.0504809
0.00882415
0.0637724
0.155115
-0.0189196
0.0304129
-0.010661
-0.0802118
0.0839203
-0.0243517
-9.8243e-05
-0.0493283
0.0347455
-0.000225927
-0.0278189
-0.0201364
0.0112913
0.117492
-0.000211751
0.0111531
-0.0379268
-0.0145302
-9.89632e-07
-0.0497199
0.00469087
-0.0229929
0.0224482
-0.0544082
-0.103825
-0.0382579
-0.000130507
-0.000394167
-0.0950661
0.0035187
0.042698
-0.000193424
0.00338946
0.0151748
0.0309997
-0.013372
0.00149653
-1.47431e-05
0.0252133
-5.03271e-11
-0.0231942
-3.27655e-15
0.00370843
0
-0.00660891
0.0383203
-9.85403e-08
0.000161525
0.0734387
0.0941302
0.112699
0
-0.0178301
-0.018338
0.00142228
0.0363098
-0.0134647
-0.0473069
-0.0497602
0.00390892
0.0022754
0.102317
-0.0300446
-0.0184382
0.123349
-0.046565
0.0403475
-0.00966021
0.0235357
-1.50632e-10
-9.4765e-06
0.0988278
-0.000173472
-1.02871e-05
0.0178834
0.107354
-0.106033
-0.0461437
0.0707358
-4.35029e-05
-0.134762
-1.69524e-05
-0.00778421
0
0
-0.0707969
0.087699
0.00235103
-0.041466
-0.036406
-0.00317055
0.0488564
-0.00317055
3.28414e-275
0.00881903
-0.0610047
-0.145933
-0.0728762
0.019907
-0.0764658
0.099548
0.0160469
0.0520722
-0.0124594
0.036769
-1.13454e-08
-0.00901399
0.0298512
-2.65294e-07
-0.0568733
0.126343
0.00237404
-0.0326439
0.0165444
0.00816772
-0.0363173
-2.30642e-07
0.0478894
-0.00255299
-0.00651041
-0.0554185
0.00731292
-3.17078e-06
-0.0154086
0.00375746
-1.13454e-08
0.0122061
-1.07325e-08
-2.29682e-07
0.0499171
0.0467113
-0.020024
-0.064897
0.111752
-0.0731238
-0.0181162
0.0667529
-0.00819614
0
-0.0332359
0.00348171
-2.6252e-10
0.00251171
-0.0319098
0.00120565
0.0199018
1.02552e-07
0.0609942
0.0382629
-0.0370013
0.00335961
-0.0134245
1.17461e-05
0.0784909
0.0450773
-0.000221443
-0.0371947
0.0304704
-9.65465e-05
-0.0168538
0.00721945
0.000788964
-0.147584
0.0616768
0.0111099
-0.0297391
-0.079191
-0.123948
-8.67161e-10
-7.74358e-09
-0.0321104
-0.012939
-9.6412e-10
0.00103692
1.63204e-171
-0.0682704
0.030378
-0.0436804
-0.0129386
-4.38245e-06
0.0250695
-0.0673435
0.0241967
4.16809e-06
-0.0463063
0.179615
-0.0349727
-0.233386
0.40244
-5.44869e-13
5.68761e-173
-4.13638e-06
0.10276
0.0380879
-4.81144e-07
0.00377042
-0.0106027
0.437912
0.257884
-0.00970129
-0.0103074
0.0466786
-0.00711357
0.0105305
0.0593318
0.00205563
-0.0729926
-4.04572e-05
0.0276432
-0.0339645
-0.0716544
0.00161541
-6.00036e-05
-0.00200156
0.0305745
5.8889e-104
0.049132
-0.020407
0.000315206
0.123579
-1.24072e-06
0.000736685
0.0103541
-0.0432031
0.045424
-1.61977e-07
0.00383303
-0.0442664
0.00764002
-0.0686286
-0.0318446
-0.0209795
5.68761e-173
-0.0440274
-0.105282
0.00978281
-0.117697
-7.94042e-05
-0.0888378
-7.97229e-06
0
0
-0.0224699
0.00480338
-0.0948766
0.00558777
1.10671e-321
-3.59257e-05
-0.020407
-6.47341e-05
0.000795127
0.134093
0.000228837
-8.28916e-09
0.13338
0.0501139
-0.0230329
-0.0391086
-4.81144e-07
0.0173908
0.0101845
0.00203993
-0.0342887
-2.06193e-05
0.0228031
-3.63092e-05
-0.105697
0.00121173
-0.00317055
-1.47431e-05
-0.000267028
0.000189891
-0.0170084
-3.06941e-38
0.0786427
0.00863523
-0.124152
0.0249309
-0.0131133
0.457894
-0.0237276
-1.0907e-06
-0.00627743
-0.0195581
0.0773547
0.0884605
-0.000267351
-0.121865
-0.0246341
0.0567839
0.0143804
-0.045812
-0.0124042
0.0235945
0.00730832
-0.0215611
0.0156298
-0.0237194
-8.33092e-07
0.0327008
-0.012986
0.124159
0.0393751
0.0285427
-0.170498
0.0119328
-0.0343395
0.113043
-6.06564e-07
0.00186494
-0.114062
-0.0448255
-0.0459
0.000133216
-0.0211058
-9.6412e-10
-0.0828562
0.076618
-0.0786887
-0.0415031
-0.452276
0.00225297
-0.000191282
0.0334736
-0.0650789
-0.0785437
-0.0736659
-0.276471
-3.45352e-12
0.0212968
-0.0252295
0.023942
-0.0417734
0.00177894
-1.83777e-05
-0.0342887
-0.0997006
-0.0569977
-0.0015132
0.00731292
-0.0336067
-3.27655e-15
-0.0438188
-1.82944e-06
0.0519477
0.00032066
-3.17078e-06
-2.66501e-111
-4.59979e-06
-2.21916e-07
-0.00650335
0.0443194
-0.00660891
0.0309997
-5.33504e-05
0.00237488
-0.0255278
-0.0256048
0.0257138
0.243796
0.0375717
0.0147833
-0.0168538
-0.0682337
-0.100492
-0.0470913
5.68761e-173
-0.0310299
0.000133216
-0.011739
0.0080842
-0.0391426
-0.27772
-0.0306228
0.0244955
-0.0244377
-0.0249143
-0.0195581
0.0386543
-0.19702
-0.0131133
-0.00627741
-0.0243517
0.0767281
-0.0438534
0.177279
-0.0178301
-0.049311
-1.13777e-12
-0.0278189
0.0684505
5.8889e-104
-0.0661755
0.0308689
0.00157012
-0.116309
0.0383829
0.000846917
0.0922615
0.397649
-0.0828562
-0.0247499
0.0479052
0.00120423
-0.00991436
-0.0806026
-0.00924088
-0.0402913
-0.0169053
-0.0678874
0.0699364
0.0248734
0.000754443
-0.00274628
0.00469086
-5.60999e-08
-0.0707256
-2.35086e-06
0.0563348
-0.0611809
-3.27655e-15
-0.0163342
0.101813
-0.0181162
0.179236
0.0322692
-0.113415
-0.0249143
-0.248367
-3.27655e-15
0.0255266
0.00324789
-0.0515913
-0.012939
0.0621699
-0.0197645
-0.0389441
3.28414e-275
8.21623e-98
-0.127312
0.00865487
5.68761e-173
-5.97638e-09
0.0206114
0.0533399
-0.000407415
0.00120423
-0.0229929
0.0223253
0.0392053
-0.0163785
0.0182637
0.0176167
-2.21916e-07
0.0773547
-0.0267408
-0.0549412
0
0.0326864
-8.15125e-05
-1.31097e-07
-2.985e-07
0.0593318
0.113513
-4.30602e-08
-0.0205234
0.0788774
-1.13172e-11
0.0150436
-1.13172e-11
0.0205063
-0.0563287
0.289956
0.0142443
-5.10315e-08
-0.00490569
0.066532
0.0568791
0.000790829
-0.070861
-0.0227913
0.0137357
0.0113763
0.0582643
-0.0570632
0.01657
-0.012939
-0.0290091
-3.17078e-06
-1.08708e-11
-0.0376292
-0.0898515
-3.27655e-15
-2.50397e-05
-7.89123e-11
-2.61741e-13
-0.0780941
-0.010661
-0.0166515
-0.036908
-1.9218e-10
-0.0659144
-2.10807e-12
0.0309997
-0.0371947
1.11931e-285
-8.15125e-05
0.0434458
-2.34346e-05
0.00165647
0.0215718
-0.0402677
0.193748
-0.012939
-0.012939
0.0252679
-0.0283669
0.0103948
0.106682
-0.0168538
-0.000257297
-0.14721
-0.0631998
-0.00434926
-9.45336e-05
-2.30642e-07
7.09921e-05
0.0253541
7.09921e-05
0.0560717
-0.0376562
-0.18911
0.0235357
0.0165444
5.8889e-104
-0.000166113
-0.0578625
-0.0219313
0.00469087
-2.74831e-05
0.0284566
-1.10086e-08
-0.0727757
-0.000164504
-9.65465e-05
-3.55269e-09
0.0375844
-0.173471
-2.73243e-07
-0.042846
-0.0614698
-4.30602e-08
-0.0131133
0.0510619
0.0214994
0.0146602
-1.59089e-321
0.000531465
-0.0279446
0.0143836
0.0092923
-7.09827e-05
-0.00906752
-2.20839e-06
-0.036352
-1.02871e-05
-0.020985
0.132089
0
-0.000261124
0.0151388
-0.0130637
-0.176832
-0.0437021
0.0103948
-0.0431853
-0.0251782
-0.0505002
0.000862986
-3.27655e-15
0
0.0326864
-0.082382
-0.0248402
0.110512
-1.729e-05
-9.6412e-10
0.00900707
5.68761e-173
-0.00030253
-0.110185
0
0.00120423
-0.0692794
-0.0690256
-0.0154896
-0.0203951
-3.27655e-15
0.00113433
1.62764e-05
4.74052e-06
0.0105305
0.0417792
-1.13172e-11
0.0131987
-0.0435376
0.0286012
-0.218491
0.0373022
-1.81294e-06
0.00342561
0.00260952
-6.18707e-05
-0.0165784
5.68761e-173
-0.0893018
-0.000272817
-1.13172e-11
-3.84964e-05
-0.0460175
0
0.163074
-0.00560037
-0.032808
0.00850383
0.12407
-0.073582
-2.93402e-05
-9.03048e-09
0.0664722
-0.0342887
0.00120423
-3.27655e-15
0.00725414
0.00116976
0.120619
5.40827e-05
-0.000124228
0.00686026
0.0252679
0.0205063
-0.0318446
0.0103541
0.00725414
-1.58999e-08
-7.44125e-05
-0.0701236
0.00620666
0.000245693
0
-0.00660891
-0.129757
-1.08708e-11
0.208481
-0.0442664
-0.0168538
0.0387184
-7.97229e-06
-0.000271315
0.0205063
0.0847418
0.185395
0.0359444
0.0582643
-0.00432535
0.0333414
-9.03048e-09
-0.0583591
-0.0132606
-0.0475115
0.00094105
0.0025393
-0.0015132
-0.0650789
0.00850383
-0.00633289
0.0309997
0.0314513
-0.0391086
3.20591e-170
-6.51934e-09
0.0197512
0.0205063
-0.00385909
-0.0417689
-0.105379
-0.0418401
-0.012939
-0.0244377
0.00259414
-0.0014026
-0.114917
-0.0417735
-6.77243e-05
-0.0746312
-0.000123012
-4.81144e-07
-7.97486e-08
0.00945568
0.0691659
0.0513067
-2.23712e-05
0.0379068
0.0156022
0.00632473
-0.0339187
0.0506879
7.09921e-05
-0.0250168
0.0201818
-0.101495
0.0991383
0.00882415
0.0164392
0.0462128
0.0365049
0.0250418
0.209773
0.0383203
0.0493029
-8.85194e-06
-0.0168242
-0.0341127
0.0810607
-0.0381336
-0.000225927
-7.94042e-05
-0.0664052
-0.0697071
-0.0672683
-0.0519042
-3.27655e-15
-0.0397314
-7.74358e-09
0.0091442
-0.0258602
0.0178834
-0.0126501
0
0.0627396
-0.00560598
-2.5155e-06
0.0205063
-1.10086e-08
0
-5.03271e-11
-0.033687
0.0488405
-2.87716e-06
0
0.0103541
-0.0661312
0.0748005
-0.0817807
0.042891
-1.47948e-07
-0.0266225
0.0449049
-0.0669631
0.00291583
0.0274085
-0.0339797
7.09411e-05
0.00120423
0.00558777
-0.0449642
-0.0328725
-0.00183317
-9.89632e-07
-0.0393801
0.0700516
-0.0389594
0.00437352
0
-8.28667e-07
-0.0343395
-0.00249373
0.000125266
-2.78044e-08
-0.036908
0.00170246
