0.0245034
-2.59301e-13
-2.52338e-97
-0.031525
0.002474
-2.73241e-06
-7.84584e-05
-0.0112708
0.0715311
-7.84584e-05
0.0140944
1.19981e-163
-0.0910901
0
0.0940231
-1.69018e-12
-6.70015e-11
0.0298781
-3.66796e-05
-0.0259689
0.0628974
0.00680832
-0.0597745
-5.47505e-06
0.000525975
0.0940231
0.0269689
0.0101797
-0.031698
0.00544346
0.0660514
-0.0689926
-9.78556e-07
-9.1276e-11
-0.0169706
-0.0180729
0.0165377
-6.31295e-05
-9.93853e-05
0
0.059755
0.120959
3.0796e-79
-4.91856e-05
-0.0196487
0.0609624
0.0101948
-4.93518e-05
0.00440493
-0.0747631
0.000619858
0
-1.46764e-09
0.0624454
-0.0016576
-4.59654e-94
0.0262578
-5.49277e-09
-4.46526e-12
0.0416769
-1.91963e-06
0.0039917
1.53654e-321
-0.0402858
1.87745e-322
0.0288591
0.0759182
-0.00739299
-0.112447
-0.0871711
-0.124895
-0.0537837
-0.0192143
-1.08795e-05
0.0424621
-0.124867
0.00655776
0
-0.0538393
-0.0603907
0.0137599
-0.0625563
-2.0035e-05
0.0513022
-0.000140286
0.27895
-0.059112
-0.0172334
0.176
0.0288591
0.026141
0.00121861
-0.237497
-3.32721e-06
-0.0145676
-2.2992e-05
0.0972623
-0.0195196
0.0253889
0.0601523
-1.46764e-09
-1.91963e-06
-2.95965e-11
0.00337779
-2.039e-94
-1.18931e-06
-0.0134178
0.0209528
0.00346609
0.175935
-0.0106693
-0.0264497
0.0146587
0.0501307
-8.69556e-322
-3.08149e-07
-0.000104343
-0.000180406
-0.0468328
0.0210736
0.0523976
0.0157771
0.00613433
0.00582697
0
0.0231021
-0.0402464
-0.0911368
-0.000138634
4.25949e-05
0
-0.0389889
-0.0135049
0.0225043
0.0170425
-0.0249622
0.00311664
-4.59654e-94
-0.056853
-0.0162689
0.0502061
0.00813849
0.0357548
-0.0842288
-0.0440826
-3.95127e-11
-0.050559
0.0124079
-4.15738e-05
-0.0524758
-0.0515769
-0.00258283
0
-4.75257e-05
0.322711
-0.0180729
-5.11822e-05
0.0212846
-0.00725282
0.0662012
-0.037442
-1.03128e-07
-0.115371
-0.0859888
-1.91963e-06
-0.150255
-0.0327839
0.033986
0.0206628
-0.0429342
0.0220375
-0.134022
-0.0550192
-2.71218e-10
-0.0657976
-0.0110739
0.0100271
-0.0768176
6.9803e-05
-4.48667e-08
-1.46764e-09
-0.0105589
-0.0350717
-0.0293239
0.0373382
-1.18503e-07
-0.0217602
0.198512
-0.0246744
-5.47505e-06
-0.0966018
0.0310179
0.122333
0.0262578
-0.0239178
0.0274672
0.0319698
-4.33166e-05
-4.95245e-05
-0.0621581
0.00321082
-0.00883912
-3.32364e-11
0
-0.0619696
-1.91963e-06
0
0.340012
-0.107068
-0.0264497
-4.73408e-14
-0.0352981
0.0297911
0.381046
0.0263951
-7.84584e-05
-0.0565732
0.00411506
0.0134798
-9.61636e-15
0.0356488
-0.0871533
0.00330996
0.0518221
9.28843e-322
-3.79254e-08
0.00655779
-0.0287542
-5.19282e-05
-4.59654e-94
0.00226225
0.0271936
0.00980291
-0.073999
0.00374522
0.136952
0.157871
-0.0254133
-2.38842e-05
0.0128047
0.09682
-0.0890043
0
0.0905546
-0.0472133
0.000121402
-4.53037e-08
0.00156498
-0.0790774
-2.92337e-95
-0.0627908
-0.0765149
-1.35698e-12
0.0316819
-0.0105589
0.0281647
0.00953136
-3.57575e-08
0.0125493
-0.0776349
-0.050951
0.113488
-0.0460774
6.9803e-05
-0.0259689
0.084321
-5.18199e-05
-0.000119984
-0.0579716
-0.136095
-0.0252188
0.00857125
0.00635363
-0.0183219
-0.00808892
0.0566201
-0.0317825
-2.52338e-97
0.0674618
-1.62456e-10
-8.12006e-55
-0.0112708
0.198867
-9.08784e-05
0
-3.72666e-05
-0.00022854
-0.124236
0.115883
-0.0728994
0.0275845
-0.017475
-0.01104
-0.000246389
-0.000685271
-0.0477466
-0.0429959
-0.175
-0.0395608
0
-1.51357e-05
0.0420664
4.25819e-06
-0.000180406
-0.000228706
0.210096
1.19981e-163
0
0.0270805
-0.0228575
-2.44318e-07
-1.11995e-14
-0.0370384
0.0862733
0.0320126
-0.00759009
0.0373382
0.0282745
-0.103432
-1.3309e-06
0.0450374
0.452655
0.00661675
0.0195955
-0.0293329
0.0845756
0.00407035
-0.0256082
0
-0.239951
-0.0103041
-0.00999535
-0.0405709
-0.0192143
0.00401403
-0.0657086
3.41972e-05
0.0103856
0.010558
-7.31796e-05
-0.113138
-1.18882e-06
-0.0591069
-0.0596928
-9.61636e-15
-2.15475e-13
0.0773936
-0.0292481
0.000759276
-0.128627
-0.0549364
-0.0234218
0.000863824
0.160015
0.0101948
0.0109219
-1.08795e-05
-0.124479
0.0633589
0.0128047
0.135412
0.0285101
-6.28231e-07
-0.0111389
-1.38121e-08
-0.0700383
-0.00834434
1.69465e-321
-0.080743
0.0416769
0.171965
0.00477105
-0.106543
-5.29968e-14
0.000352139
-1.91963e-06
-0.0182742
-0.0523383
-2.63172e-05
-1.91963e-06
-0.10847
-4.33166e-05
0.189414
0.00440493
0.0533137
0.0043283
-0.063191
0.0871838
0.000924073
0.00857125
-0.0796592
-1.91963e-06
2.95428e-05
-0.0400889
-3.57575e-08
0.0372077
4.25949e-05
0.00694527
9.35608e-08
-3.79254e-08
-2.95965e-11
0.095896
0.0122151
0.00152703
-6.11182e-08
-4.75257e-05
0.106856
-3.32364e-11
0.00516495
-0.000124865
0.0501022
1.29243e-05
-8.12006e-55
0.0429262
0.0100265
-0.0409282
0
0.0718552
-0.0169706
-0.177507
-0.024641
-4.72059e-07
0.295001
0.00974747
-2.38842e-05
0.104675
-1.35698e-12
0.0189801
-0.0478157
-1.24021e-05
-0.00988964
-0.0439181
0.0142029
-0.00550114
0.0513022
0.0262578
0.0595589
-2.05484e-05
-0.196515
0.113212
-0.00017502
-0.0208091
-0.0246744
0
0.000976548
-5.48413e-322
-0.0473022
0.143605
-0.0645459
-0.0566087
-2.15475e-13
-4.99319e-06
0
-0.0264497
-1.91963e-06
0.000712885
-2.75523e-06
-8.13274e-07
-0.00891853
0.0019508
0.000525975
-0.000145619
0.0275845
0.0771663
0.0184604
-2.37649e-05
-0.0166341
-0.017035
0.00168991
-6.23865e-07
-4.20376e-06
0.0362721
0.0390597
0.0079075
-0.000100273
-2.46227e-05
-2.78473e-14
0.0271936
-0.0603775
-0.00939564
-0.252313
-0.00021122
0.0238864
0.000185702
-0.243092
0.00435463
-0.105252
-1.86615e-06
0.0433028
-0.218507
-4.59654e-94
0.0388785
0.0434266
-0.0194328
0.0456267
-0.0252188
1.04742e-321
0.0190395
-2.71218e-10
0.00024095
0.0610999
-0.0264497
0.0279015
-0.0396882
-0.000140286
0.00477105
0.0275845
-0.0129037
0.000522897
0.000215591
0.00953596
0.0508861
-0.0595258
0.0594901
-1.26918e-07
-0.121424
3.05545e-79
-0.0150835
0.0140389
0.00477105
-3.46912e-07
-0.0376017
0.367996
0.00164643
0.000577211
-6.46727e-10
-3.29689e-05
0.0701219
-0.00507529
0.00168991
-0.020986
-0.0744027
-0.000120687
0.100575
-0.0150763
0.00174471
-0.0252399
-6.08765e-08
-0.000136883
-1.30984e-13
0.000601514
0.206732
-9.44635e-05
-0.0387142
-0.0253769
0.0333961
-0.0383775
0.271333
-1.52637e-05
-0.0507417
-0.000225368
0.0628813
0.0158317
-0.0258919
0.109134
-0.0231069
0.0587432
0.00171961
0.0116818
-0.0410594
0.0134022
0.0577002
0.124066
0.232989
-0.0405071
-3.29523e-05
-1.16823e-09
-0.00182139
0.119422
-0.0911368
-3.57575e-08
9.55125e-05
0.0727179
0.0614056
0.0749599
-0.0835324
0.0265264
-0.0439804
-0.0296201
-0.00199991
-5.83446e-05
4.06196e-05
0.0204732
0.00540155
0.0815375
-6.63925e-07
0.0318486
0.0148016
-8.57821e-07
-0.0291434
0
0.00992233
-0.156035
-0.0302957
-0.0170614
-1.91963e-06
-2.95965e-11
-8.52015e-07
-0.118971
0.0648435
0.0596286
0.000525975
-0.000105509
-0.0621084
0
-0.0203961
-5.03481e-12
-0.0105895
0.0209173
0.0353075
1.69962e-166
-0.0161015
-0.0134459
-0.151348
-0.0305641
0.0552843
0.0335144
-1.78157e-06
-0.067466
-0.186342
-2.26433e-06
-3.45898e-10
0.112514
0.132525
0.041151
0.00394451
0.000522897
0.00248184
-0.00924547
-2.15475e-13
0
0.129298
-0.0911368
0.0146908
3.0796e-79
-4.59654e-94
0
-0.0256565
0
-0.000205914
0.204066
0.158974
0.268529
-4.75257e-05
-0.000869017
0.00737357
-0.0832677
-3.1418e-08
0.000522859
0.043676
-0.0407208
-0.00589413
0.00612872
-0.0750524
0.0355912
0.0282555
-5.47505e-06
-5.61766e-07
-0.00701485
0.00469946
-0.000111835
0.0841939
-0.0129037
-0.0159109
0.0980452
-0.0391019
1.01283e-321
0.000135027
-0.00232843
-3.92297e-07
0.0328307
0.0043283
-4.82695e-06
0.0678371
0.0025111
-7.30179e-06
0.00302564
0.077428
-0.034117
-0.0254816
-1.79826e-14
-2.52338e-97
0.177207
-1.38338e-322
0.103265
0.0119899
0
-1.3254e-05
0.1005
0.0201559
0.0137158
0.0789011
0.00906279
-0.0513298
-2.22149e-08
0.10221
-0.050951
0.139479
-0.0732342
-8.12006e-55
0.266644
-0.00506236
-1.91963e-06
0.0125013
-9.7027e-97
0.0100025
-0.00550338
-0.00199492
-0.0283391
-0.0543579
-0.0608228
0.0862733
-4.59654e-94
-0.164079
0.061806
-0.00372033
-0.0437975
0.0103875
-6.45175e-05
0.250706
-0.073344
-2.74316e-06
-0.0264497
-6.39428e-05
0.046716
0
0.0921477
0.0250981
0.124581
0.00637454
0.0115085
-3.26318e-15
-0.105452
-0.000100589
0.0436506
0.121779
-0.0744651
0.169204
0
-0.112438
-0.00274392
0.0602706
0.000815117
0.0437585
0.00253452
-0.0618172
-3.29689e-05
0
0.0670702
0.0361864
1.04742e-321
0.00697766
0.109655
0.0145188
0.0314583
-0.0433171
-1.24021e-05
0.0424704
0.0167177
-0.0410159
2.60194e-93
-4.72059e-07
-4.53037e-08
-9.1276e-11
7.5098e-322
0.292897
-6.46727e-10
-0.112129
-0.0705225
-0.0634333
0
-1.35698e-12
0.00985044
0.000569904
-0.00153344
-0.0172369
-0.0564158
0.060086
-0.0625238
0.11712
0.0066651
0.0618856
-0.0246744
0.00157292
-2.58711e-79
-1.49369e-10
0
-0.00674054
-2.95965e-11
-0.082653
-0.23751
-0.0110739
-6.44489e-05
0.0685767
-0.166914
-0.0110739
0.00406348
-0.0277197
-1.66262e-05
0.260153
0.00593289
0.0333123
-0.0248894
0.0340653
-4.75257e-05
0.00127069
0.000263359
-0.0543579
-1.91963e-06
0.0949714
-0.246848
0.0125013
-2.93984e-07
0.0288591
0.01417
0.00181185
0.275582
-0.0191113
0.0842987
-0.0208024
0.0879509
0.000185702
-2.26565e-05
0.103654
-0.000176353
-0.0430135
0.151835
-0.050951
0.0614066
0.326102
0.0436221
0.0769091
0.122729
0.00103157
0.0125013
-0.0409282
0.0275244
0.0240641
0.0390556
0.0555357
-1.79892e-05
-5.83446e-05
-0.0210688
-0.0315015
-0.00406024
0.0381705
0
0.0373382
-3.10894e-06
-7.63735e-06
-2.23891e-08
-2.38842e-05
-9.78556e-07
0.0297911
-0.0425527
-0.0194328
0.0116281
-2.039e-94
-0.000111564
-0.000145619
-4.64255e-06
0.0125013
0
-0.0112698
0.0662012
-0.00765388
-0.152293
0.0318585
0.000463066
-4.59654e-94
0.00447842
-0.0692847
-0.000105334
-0.0216038
-0.0196442
0.0598619
-0.0544982
-8.12006e-55
-0.079847
-2.44318e-07
0.0195955
-0.0773924
0.0939729
0.0253719
0.0184264
-0.0487855
0.022648
-2.15475e-13
0.080207
0.0298781
-0.0191567
0
-0.160578
0.2409
-0.0390383
0.00248184
-0.085136
0.0503189
-0.0302841
-0.045232
-0.097517
-8.04455e-98
0.0123764
0.000673675
-1.91963e-06
0.00440493
-1.78157e-06
4.39718e-322
0.0378743
-1.69018e-12
0.000522897
-6.35754e-05
0.0103875
0.0523867
-5.47505e-06
2.39583e-93
0.0255033
-0.0315553
0.00694527
0.0101884
-0.0424434
-4.75257e-05
-0.0484681
-8.57821e-07
-0.00546384
-0.0257953
-0.0211185
-1.46764e-09
-0.00266518
-0.0569182
0.00701508
-3.05208e-07
-0.0298993
-0.0146281
-0.0289833
0.000997635
-0.023104
-0.0112708
0.00156498
-1.69018e-12
0.025689
-0.0097329
0.0414852
0.0599908
-2.44318e-07
-4.33166e-05
-9.7027e-97
0.0186536
-0.00546384
-0.0856936
7.56848e-05
0.0390301
-0.000205914
-4.73408e-14
-0.0382729
0.197458
0.0186086
-0.00776618
0.00858455
1.35374e-321
-0.0341482
0.137612
0.0102678
-3.1626e-166
0
1.69465e-321
0.0135832
0.0316815
-0.0578836
0.00507379
0.0718596
-0.039167
0
0.0185931
-4.53037e-08
0.0980293
0.0170152
0.0130341
0.0883772
-0.0844076
-0.106274
0.123823
-0.00722174
-0.000869017
0.00988172
0.0271936
-0.0347752
-0.0671048
-0.139418
-0.165627
-1.2693e-95
0.000496734
-1.91963e-06
-0.0475201
0.0533332
0.0619442
0.338498
-0.000175089
-2.85464e-06
0.162171
-4.73408e-14
0.014866
-0.0132005
0.00694527
0.00955467
-2.2992e-05
-1.27592e-12
0.0350932
-0.000212254
-4.33166e-05
0.00375376
-0.00558796
-1.91963e-06
-0.0389889
-0.0437975
-0.0214361
0.0375421
-0.024202
0
-0.0493979
-2.76954e-08
-4.06505e-06
-0.0481492
-0.102936
-0.0264497
-0.0296957
0.0864921
0.0449164
-0.000112861
-0.0258919
-0.0603558
-4.75257e-05
0.0112006
-1.91963e-06
0.0276243
-4.9944e-05
0
-0.021485
-2.07988e-05
-0.0140756
-0.038687
-2.07988e-05
-1.1988e-05
-0.0920451
-6.35212e-05
0.00148142
-0.0430999
0.0350932
-2.47818e-07
-7.58331e-07
-0.0870833
-0.000687318
0.00856705
0.0101282
-0.0383645
-0.0110739
-2.59301e-13
-6.46727e-10
-0.0460774
0.00199958
-0.0134178
-3.22599e-05
-0.00287893
-0.0248894
0.0465131
0.0185912
-0.0690702
0.076992
-0.0277197
-1.4166e-13
-0.0347706
0.073379
6.9803e-05
-0.356873
-0.0246744
3.0796e-79
-1.51357e-05
-0.000869017
0.00425563
0.0264132
0.00878764
-0.0712313
-0.0169706
0.010461
0.409528
0.0318486
0.0486261
-0.027908
-0.0870778
1.19981e-163
0.0274389
0.0378165
-0.0142897
-4.59654e-94
-0.0652926
0.0211421
-0.104508
0.000144797
-0.0584384
0.076992
0.154696
-1.91963e-06
-1.91963e-06
-4.7134e-08
0.0998291
0.0357128
-0.0169706
-1.91963e-06
0.000875647
-0.029763
-8.13274e-07
-0.00672905
0.0937568
-0.185398
0.0837212
0.076992
-0.0455891
-0.0264497
-0.0452139
-0.0909213
0.0291007
0.0349569
0.0497521
0.0390945
0.0692741
-4.28276e-08
-1.18503e-07
0.0940019
-1.18882e-06
0.0622369
-1.18503e-07
-0.00266518
-0.046488
-0.0218969
-4.59654e-94
0.0539499
0.00473195
0.068028
-0.0113328
-0.103017
0.143792
2.83002e-106
0.274176
0.0373382
-0.0676292
0.112366
0.0650615
-0.0431847
-2.039e-94
0.0535213
-9.7027e-97
-0.0657464
0
0.107307
-3.29689e-05
-0.117418
0.0853172
0.0421893
-0.00554187
-0.0115984
-1.69018e-12
-0.0214728
0.078653
-0.00906687
0.0378743
-4.82433e-12
-1.24715e-94
0.0255014
-0.0252188
-1.38121e-08
-0.0277197
0.0116281
-5.47505e-06
-0.199306
0.0739044
-6.28231e-07
0.0515309
1.51678e-321
-0.0254533
-0.040287
0.00848329
0.00477105
-0.0241251
0
0.0197924
0.0365133
-2.58711e-79
-1.75074e-12
-0.0051506
0.0277411
6.19871e-06
0.0487049
-4.82433e-12
-4.20376e-06
-0.125244
0.0311861
0.0356073
0.0197924
0.00464396
0.0133809
-1.99578e-07
0.00551629
-0.177093
0.106856
-0.000145619
0.00421702
-0.0980016
0.263276
0.166577
-0.0240476
0.0317875
0.00448128
1.69465e-321
-0.000227249
-1.11995e-14
0.0725355
-0.0264497
-0.0290703
-2.46474e-05
0.0157771
0.00766682
-0.0660187
-0.0521462
-0.0602356
-0.136896
-0.0582103
-0.0699091
0.0610877
-9.15293e-05
-0.00112269
-0.0143133
-2.73423e-09
0.265319
0.0200367
0.0676375
-2.47719e-10
0.0127839
1.7281e-06
-0.0631803
-0.123957
0.055417
-0.0460489
0.00857125
0.019711
-0.0101886
-6.01122e-05
-0.0099791
0.0375421
-5.10988e-05
-5.10988e-05
-0.000118491
-0.00410517
-0.163812
-0.0556835
0.05116
-0.038687
0.00141403
-0.0194328
0.05116
0.0103875
-0.00401151
-0.112723
-1.2693e-95
-3.46912e-07
-0.135622
0.0472886
0.0510133
0.0397096
0.0758403
-2.58701e-05
0.0287743
0.00694527
-8.87913e-05
-0.000869017
-0.020059
-0.0219096
0.000654324
0.0505109
0.0103875
0.00027832
0.182483
0.15093
-0.0192143
0.0836199
-4.7134e-08
0.0956677
-2.04003e-06
0.0506245
0.162448
-4.51451e-06
0
0.0297911
-0.0750819
-6.31295e-05
0
-0.0234499
0.0199951
-0.00785114
-0.169328
-3.82892e-08
-0.0373005
-4.77722e-05
0.0103465
-0.0323511
0.0228895
0.00452034
-0.0354055
-3.27749e-06
0.217098
0.0500173
0.0195955
-1.50138e-09
2.50663e-289
-0.00722174
-0.000123388
0.0770268
-3.34463e-12
-0.0277252
-0.101911
-0.0480622
-4.09157e-05
0.0117851
4.87216e-06
-2.63172e-05
0.0575231
0.00641201
0.000730833
0.0506895
0.00670407
0.0445223
-0.0734019
-0.0323769
-0.045232
-0.045232
-3.79254e-08
-8.63863e-05
-6.28231e-07
-0.102937
-0.0246744
-0.0520489
-0.0264497
8.26651e-93
-0.101178
0.0371799
-4.75257e-05
3.49207e-06
-0.072001
0.0224933
-0.0351377
-8.53337e-07
-0.0362174
-0.00402044
-0.00572114
0.0287743
-0.000108699
-0.00550113
0.0116479
0.125011
-0.0120836
0.000861295
0.0381705
-0.123844
-0.0847635
0.0433035
0.00318432
0.0613599
-0.081528
0.00024095
9.55125e-05
-0.0132887
-1.18931e-06
-0.0521704
-6.28231e-07
-5.06782e-05
-1.35628e-08
-6.08765e-08
-3.08149e-07
-4.75257e-05
0.040023
-0.166535
0.141731
0.00990099
-4.73408e-14
0.0347228
-6.65951e-05
-0.139611
1.19981e-163
-3.07051e-12
-0.112811
-0.0409282
0.0594901
-0.0342527
-0.0345623
0.115417
-0.0105589
0.0140538
0.00834789
0.0381705
-0.0117083
-0.00375022
0.0363595
0.00550128
0.0069943
0.002474
0.0616708
-1.91963e-06
-0.0481231
0
-3.22599e-05
-4.33166e-05
-0.0799151
-0.0181284
0.0145202
-0.0487092
-1.91963e-06
4.10665e-05
0.0636652
3.0796e-79
-1.91963e-06
-0.0110739
0.168911
-2.07962e-05
-0.0415505
-0.00507529
3.0796e-79
0.0213717
-0.0175459
0.0145966
0.00238411
0.00220268
0.107958
-0.00643873
-3.34463e-12
-2.76954e-08
0.0747104
0.0101948
0
-8.41949e-06
0.0454616
-0.0964495
-0.0129037
0.000522897
-0.127765
0.0275845
-9.7027e-97
0.0103875
0.0380628
-7.7359e-11
-1.38121e-08
-0.0469123
0
0.00142822
-1.1988e-05
0
5.21854e-05
0.00220268
-0.0525859
-2.57824e-05
-0.116952
-2.58701e-05
-8.63863e-05
-2.52338e-97
-0.00945343
-0.10852
-0.241088
-6.01122e-05
-0.0366682
-0.00727258
-0.208525
0.0140389
0.0163952
0.0204713
-1.1988e-05
0.0135122
0.0536612
-2.95965e-11
0.0218165
-0.0254816
0.00253563
0
-4.20057e-05
7.56848e-05
0.0354683
-0.139565
0.00640942
-0.0487363
-2.52338e-97
0.00440493
0.00567003
-5.10988e-05
-1.62456e-10
0.0373382
-6.35212e-05
-0.00346514
0.000118583
0.00943908
-0.000159965
-0.0359358
-0.159957
0.00770514
-3.66199e-08
0.0654832
-1.30984e-13
0.0158779
-0.0899041
0.0879911
-5.00755e-05
-0.0603776
-1.3309e-06
0.0300041
-0.0110536
-0.106107
0.0671307
-0.0429372
0.0547054
-1.31668e-06
9.55125e-05
-0.129714
0.0101886
-0.00199492
-3.1626e-166
0.317299
-9.78556e-07
-1.24715e-94
0.0389965
0.0766583
-6.01122e-05
0.0579036
0.0146916
-0.0369655
0.100666
0.0539499
-0.0521669
0.0028337
0.00413597
-9.61012e-05
0.00614388
-3.32721e-06
-9.61636e-15
0.535862
0.0744984
0.0503166
0.0216818
-0.0597999
0.050993
0.0255033
0.0497521
0.0195155
0.0974357
0.116133
-2.38842e-05
-0.215267
0.0128047
0.0833981
0.0315532
0.00168991
0.00339718
0.00542525
-9.7027e-97
0.000522852
0.00553321
0.0202546
0.0278526
-7.50114e-97
-0.0163621
0.0686666
0.0200856
-0.072001
-2.52338e-97
-0.0877582
-0.329786
0.0315733
-0.0548575
0.0799802
-0.00192788
1.12986e-165
0.0759184
-0.08166
-4.20376e-06
-1.69018e-12
-0.0646045
0.113212
-0.0296497
0.00172134
0.0909274
-0.0987587
0.263737
0.05116
0.01967
-0.0808378
-1.69018e-12
-1.91963e-06
0.0139293
-6.46727e-10
-5.49277e-09
-5.49277e-09
0.126151
-0.0803511
0.0584225
-0.120594
-0.031698
4.06196e-05
-0.0383023
-4.75257e-05
-0.00620235
0.0123345
-0.0174269
-0.0344956
-0.00410517
0.0433536
-0.00939851
-0.0363294
-0.00453116
-1.97626e-323
0.0900157
0.00400864
0.0878399
-1.06763e-14
-0.0272661
-0.0681627
-0.0203341
-5.10988e-05
-0.0423597
0.284978
0.0792392
0.0195955
-0.0498902
-0.0169706
0.0562827
0.0250979
0.0316819
0.00341753
-0.0296987
0.194068
0.000951085
-0.0429402
-1.3309e-06
0.0662948
0.0329052
-0.0172369
-0.0122705
0.257287
0.0315864
0.00538316
-9.15293e-05
0.00128027
1.2401e-321
0.0115085
0.0926905
0.0410992
0.0513022
0.16034
0.020743
-0.0299139
0.00830524
-0.0324256
0.0861311
-2.75523e-06
0.0661163
-0.00809167
-1.38121e-08
0.0548977
-9.35049e-05
-0.0264497
-1.86615e-06
0
-1.69018e-12
0.0649726
-0.011543
0.0545919
0.00358054
-0.143146
0.00830524
-0.118194
3.0796e-79
0.00538357
-1.91963e-06
-1.30984e-13
0.128664
0.000522897
0
0.00128107
0.0595855
0.0548687
-0.042036
-0.0740352
-2.38842e-05
0.0864921
-3.86377e-10
0
-0.00383475
0.132078
0.0112908
0.126787
-0.0313389
-5.47505e-06
0.0440893
-3.08149e-07
-1.38101e-05
0.00231794
-0.0101743
-0.0844121
-1.1988e-05
-0.104507
-1.88203e-05
0.00257191
-0.0710464
0.0125013
0.397247
-0.0290919
-3.95143e-11
-0.0267431
-4.50225e-09
0.0747104
-0.0084447
-0.01078
-0.0390303
0.0266624
0.0717844
-3.44922e-06
0.000283932
-1.91963e-06
0.000811009
0.0871838
0.0293
0.0235958
-9.1276e-11
0.0305917
0.00406348
-4.20376e-06
-0.108335
-0.00722174
-0.084409
-0.0632701
0.000263359
0.0953577
-0.0605465
0.265728
-0.0015335
-0.0354055
-0.00672905
-0.0556563
-0.0948936
0.0125013
-0.0811859
-0.0466939
-7.84584e-05
0.172265
-0.0799712
0.0300041
-2.59301e-13
0.000924073
0.0195125
0.221976
-0.0458177
0.0531429
0.0391573
-0.117436
-0.135352
-8.18192e-05
-0.0110739
0.0291094
-0.053544
0.0029669
0.181519
0.055096
0.0291376
-0.0615483
0.123078
-2.12717e-09
-0.0323511
-0.367171
0.0195955
-1.2693e-95
0.00413597
0.0130528
-4.59654e-94
0.0581258
-0.125591
-0.0418634
0.0633488
0.073379
-1.1988e-05
-5.47505e-06
-0.0236898
0.0717446
-4.20376e-06
-0.121196
-4.7134e-08
-0.0240239
-8.61462e-07
0.0433665
0.0864921
-1.30732e-05
0.194064
-0.0197185
-0.000163563
0.00477105
0.000263924
-0.00453116
0.0192932
0.0588904
0.0289071
0.0444556
0.0125013
-0.0363294
0.00110028
0.019681
0.00581014
0.22894
0.00068318
-3.16047e-06
-4.84393e-05
-3.4841e-06
-4.33166e-05
-8.52015e-07
-0.10596
-9.15293e-05
0.0909789
-0.00507529
0.0158177
-0.0292154
-9.08784e-05
-9.60997e-05
0.000522897
-0.0152018
0.0211813
-0.000205914
-0.0181158
0.0344536
0.0457131
0.0641148
-0.00596117
0.0137377
-0.0110739
0.00428954
0.00640942
-0.120324
0.0357548
1.11165e-321
2.77681e-05
0.0235657
-0.040278
-7.83534e-06
0.0200644
-0.0104523
0.0110375
0.0320126
7.5098e-322
-0.0337953
-9.08097e-05
-0.0259409
-4.75257e-05
-0.000205914
-0.113348
-0.0410279
-1.29694e-06
0.00128027
-0.0810089
-1.46764e-09
0.173645
-1.51355e-05
-0.0286986
-0.0368668
0.00464713
0.0266708
-0.148507
-0.0248754
-0.022388
-0.114528
0.0598786
0.0430912
0.213528
-0.0192143
-0.0632701
-1.18882e-06
0.0131286
-3.92058e-08
0.136074
-0.000145619
0.015728
0
-0.0864807
-1.69018e-12
-4.59654e-94
0.0773936
0.0846203
0.0105258
-6.11183e-08
-0.0314674
-0.0406926
-0.00032321
0.0980452
0.0111303
0
-6.44436e-06
0.0231712
4.07613e-05
-0.0129037
0.00953596
7.5098e-322
0.000135027
-0.0209773
0.145299
-0.00201593
-0.00725282
0.190247
-0.0468255
-3.27936e-10
0
0
-0.0459009
0.152476
-5.00755e-05
-6.99116e-05
-0.0289833
-0.0461134
-4.75257e-05
-0.0160821
-0.0120491
-0.038687
0.001616
0.0214981
-0.00550113
-0.0390303
0.0433035
0.108162
0.0103875
-0.0104523
-0.104609
-0.0590689
0.0297485
0.00874271
0.0211813
0.321207
-0.0671048
0.00697766
-1.46764e-09
-3.41513e-06
0.00448618
-1.1988e-05
0.067539
0.00655779
-0.000869017
0.00694445
0.0490007
0.0189556
0.0199834
-0.0407709
0.0564839
-0.010209
-0.0701097
-1.08795e-05
0.0355872
-0.0407145
-0.0201162
0.164403
-0.035116
0.00220082
0
-4.98258e-07
0.148676
0.002474
0.0758382
0.000420353
-5.49277e-09
-4.59654e-94
-1.35698e-12
-0.0524556
-0.105645
-0.0463947
0.0275845
0.171313
-9.1276e-11
0.044237
-0.256732
0.0297911
-0.134427
0.00102939
-0.0324256
0.0988076
0.0128046
0.00172134
0.0400371
0
0.0747396
0.00174471
-0.0389889
-0.00549378
-1.11995e-14
0.0296048
0.017411
0.298965
0.0158761
0.0312302
-0.0351377
-0.0488741
-0.0187626
-0.000227249
-5.49277e-09
0.132249
0.0883087
4.25819e-06
0.0125013
-0.0290919
-0.00083475
-9.7027e-97
0.0585301
0.000559729
-1.24559e-09
-0.000227249
0
0.00368384
4.10665e-05
0.062897
-0.0354055
0.00458978
-3.29689e-05
-6.96633e-322
0.000577211
0.0217164
0.00047958
0.0769918
-0.0754106
0.100161
0.062897
0.0487183
-0.126245
-0.0122705
0.0318486
0.00985044
0.0659482
-0.0588124
-2.37649e-05
-0.0191314
0
7.5098e-322
0.0271936
0.0195955
0.179139
-0.0272661
-3.49796e-05
-0.146439
0.0374304
0.0333123
-0.0600665
-0.000180406
-2.22149e-08
-2.63172e-05
0.0145188
-3.91028e-05
-1.87749e-06
-3.26318e-15
0.0201559
-7.06492e-07
0.0461338
-0.00779946
0.0186174
-0.024854
0
3.0796e-79
0.0201464
0.0110375
0.0139582
-0.00550113
-0.00572114
0.111048
-2.37649e-05
0.0125384
-0.0514845
0.198721
-0.013645
0.00118522
-6.32947e-05
0.0933128
-8.52015e-07
-0.108607
-6.54073e-05
-0.100448
0.0132145
-0.0187376
-0.0275586
0.0185931
-0.0222607
4.14052e-05
-3.72666e-05
-0.0055341
-0.0138685
0.000516806
-0.0306723
-4.72059e-07
0.0568186
-1.91963e-06
0
0.0216997
-3.29689e-05
-0.0264497
-0.0044093
-0.0327839
-0.0112708
0.0304872
0.165884
-0.0733948
-5.47505e-06
-3.79254e-08
-0.0719616
-0.000101955
-0.0355992
-0.209623
0.0298781
0.136898
-0.0129037
0.000283932
-1.7719e-09
-5.50116e-06
-0.13878
0.131272
0.0431779
-6.84107e-06
-5.3632e-07
0.171724
-2.59301e-13
-1.74672e-10
-1.30984e-13
-1.69018e-12
-0.0164171
-0.0397472
0.0725355
0
0.00435463
0.0264312
0.0245034
-0.0213564
-0.0406639
0.00100952
0
-4.73408e-14
-0.0270784
-8.57821e-07
-4.75257e-05
-3.29689e-05
-6.59513e-07
0.00128027
0.140463
0.0320126
-0.0110739
0.00318702
-0.0723303
-0.0254294
0.074507
0.11407
0.00327699
0.0786337
-0.00299345
0.00128027
-7.50114e-97
-0.0747631
0.122389
0.00010478
0.00642186
-1.74672e-10
0.000103508
0.0526196
-9.45079e-08
-7.84584e-05
-0.179199
0.0227426
-0.0743675
-0.065153
0.00380375
0.104243
-0.0748647
0.0110658
0.0488531
-3.29826e-05
-0.099949
0.00631009
-1.49369e-10
-2.57824e-05
2.61855e-322
0.020745
0.0940231
-0.0259689
-0.0567648
-0.00511197
0.0043283
-0.14503
0.00339718
-0.0667468
0.0130341
-3.34463e-12
-0.0059117
0
-0.0731888
-0.0443785
-2.47818e-07
-0.0186155
-2.52338e-97
-2.47719e-10
-0.0108654
0.000163364
0.0401256
-0.0203265
0.0609299
-0.0219635
0.041151
0.0156896
-0.0082447
0.043792
0.0276243
-4.20376e-06
-0.0301901
-9.61636e-15
0.0373382
-0.0327633
0.0492419
-0.166782
-0.0129037
9.28843e-322
-4.59654e-94
-0.000136883
5.03947e-322
0.0497505
-0.00672905
0.000924073
-9.15293e-05
0.146698
0.0265201
0.0418517
-0.0455726
-0.0292481
-0.0792754
7.57859e-05
-5.83446e-05
0.00469946
-4.06505e-06
0.00966705
0.0898135
-1.78157e-06
1.10671e-321
-1.06763e-14
0.0125013
-1.38231e-05
-1.32593e-06
0.00834855
0.00156498
-0.00868565
0.00104736
0.0451489
-3.41513e-06
0.0272227
-0.00727258
0.0909274
-0.0495904
0.00420621
0.0654525
0.0401325
-0.0152374
-0.0704982
0.0373382
0.0101303
-4.20376e-06
-0.174846
0.0297911
-2.75523e-06
0.117077
0.0276972
0.171882
0.00368317
0.0787311
-0.116417
-0.00982689
0.0262247
0.221908
0.0896814
-6.31295e-05
-0.0120836
0.0158907
-0.116509
-1.62456e-10
-0.000869017
0
-0.0459882
-0.000205914
0
0.045149
0.0169366
0.0043283
-1.18503e-07
0.0245563
0.0553385
0.133139
0.00637454
-6.99116e-05
0.0593432
-0.00759009
0.144468
0.0264132
-0.0471147
0.04873
-0.0451521
-0.0252188
-0.036522
-0.0793159
-0.0543439
0.0128047
0.0288591
-0.0545496
-3.27936e-10
0
-0.0606292
-0.0527071
0.00103157
0.0105146
-0.00936645
0.0427246
1.03754e-321
0.0288591
-9.78556e-07
-0.0200672
-0.0473087
0.0350299
0.0357548
5.82997e-322
0.0674618
0.000185702
0.00351093
0.0990865
-0.00980628
-9.7027e-97
0.0125013
0.00977223
0
-0.210917
0.00220268
0.00402398
-3.29689e-05
0.024491
-0.0254816
-0.0786617
3.0796e-79
-7.58331e-07
0.0285542
-0.0889947
-1.91963e-06
-0.000175089
-9.7027e-97
-0.0208825
-0.082164
0.00102738
0
-0.0318016
-0.0180729
-1.91963e-06
-0.0506909
-0.118051
-4.64255e-06
0.103741
0.0786606
-6.31295e-05
0.0314583
-0.0964173
-2.29921e-05
1.87745e-322
-0.116711
1.53654e-321
9.60138e-05
-3.31007e-10
0.00088757
1.04412e-165
-0.0575364
-0.0535889
-5.18199e-05
-1.91963e-06
-2.38842e-05
0.0418681
-1.23648e-08
-7.7359e-11
-0.0515134
-0.0230759
-0.0838995
-0.0889774
0.0686108
-0.0299832
-0.0360255
-0.000205914
-4.99319e-06
0.0446792
0.0819042
-0.00552414
0.0820112
-2.47818e-07
1.29243e-05
-0.0837484
-9.7027e-97
0.145764
-0.00550113
0.00834855
-0.0171755
-0.0207537
0.0392358
-0.0749946
0.128222
-0.0358448
-3.81628e-05
-4.15738e-05
-8.5121e-07
-0.045157
-0.00889951
-0.0166642
0.0584747
-2.76552e-09
-0.147932
-0.0569163
0.00128027
-9.58397e-05
-0.126391
-0.035116
0.00593289
0.045149
0.0220731
-0.000224656
-0.0439804
0.0332831
-4.33166e-05
0.230733
0.0790929
0.00584419
0.184291
-4.33166e-05
0.002097
0.000768532
-0.0820043
-0.00834434
-0.0785051
-0.0790048
1.69962e-166
0.0101282
0.0989902
-0.0264497
-1.24021e-05
-2.38842e-05
0
-9.78556e-07
-0.0174269
-0.00337082
0.0539402
-1.35628e-08
-6.45535e-15
0.0599592
-3.92058e-08
-0.106274
0.0263874
0.0275845
-1.3254e-05
-9.08097e-05
-0.0530585
0.0195955
-0.0390303
-0.0309828
0.084761
0.000516806
0.0237484
-1.1988e-05
0.0344126
-0.0614099
0.0303424
0.0110375
-2.95965e-11
-0.0259689
0.00878206
-1.93837e-06
0
7.16113e-07
1.89135e-05
1.53654e-321
-5.83446e-05
0
-0.0984957
0.0194627
0.258175
-0.0515826
0.0575682
0.0157097
0.00346609
0.0811181
-0.00534727
0.0593438
-1.1988e-05
-0.00410517
0.00834855
-0.0205699
-0.0269845
0.0390945
-0.0110739
-2.38842e-05
-0.218421
-1.26918e-07
0.0694358
-0.0029005
0.0371375
0.00640942
-0.121511
0.037276
0.0227426
0.05411
-0.0490251
5.48413e-322
-1.35698e-12
-1.91963e-06
-0.206553
1.71844e-166
-1.51355e-05
0.0762247
0
-3.92058e-08
0
0.152878
0.0264132
0.0719831
-0.0327506
-0.0747069
-9.60997e-05
0.0330593
-1.62456e-10
0.720133
-4.59654e-94
-0.529748
-0.055819
-0.036929
0.423169
0
-0.0277252
0.00637454
0.0220642
-0.0497097
0.0255033
-0.00406024
0.000121399
-0.046488
0.0977917
-0.0699884
-0.117254
0.239214
0.00477922
-0.0105141
0.00435463
-0.105279
1.53654e-321
-0.0733363
-0.0141044
-0.0328318
0.166463
0.0704985
-0.0478806
0.0558549
-3.08149e-07
-3.1626e-166
-4.59654e-94
0.0751577
-0.0830462
-1.26918e-07
0.00234281
-0.24146
0.124545
0.0128836
-0.000176353
0.177471
0.000924073
-4.94904e-05
-0.116128
0.00208799
-0.0798884
0.00011559
-4.33166e-05
0.100161
0.0350932
-0.0242201
-5.47505e-06
-0.0786522
-1.91963e-06
0.163026
-0.0291434
0.0158779
0.110548
0.11311
0.0151906
0.0948502
-6.01122e-05
0.0186086
0.100161
-5.18199e-05
-0.0534353
-3.92058e-08
0.00707601
-3.45403e-06
0.00522025
0.150714
0.00985044
-0.0413595
0.0390945
0.205462
-0.0617955
-1.2693e-95
-0.0181451
0.086541
-0.0198321
-0.000205914
-4.60335e-06
-0.0297553
0.0583924
-6.01122e-05
0.0109165
-0.0253769
-6.31295e-05
-0.0238074
0.0227989
0.0449164
-0.000107417
-0.0134178
-6.58046e-07
0.291263
-0.0104523
0.0980452
-0.0352244
0
1.01778e-321
-3.27749e-06
0.0235958
0.077998
0.0584225
0.108169
0.0443572
-0.0559374
-1.71219e-06
-1.46764e-09
-5.2523e-05
-0.0590132
-2.37649e-05
-0.00550113
-0.0542535
-4.75257e-05
-0.0366682
-0.0283042
0.019681
0.0443712
-0.000198852
-0.0511852
-3.57575e-08
-0.0573992
-1.13199e-05
0.0268897
-0.0898767
0.0185931
-2.73423e-09
-0.072844
0.0110814
6.19871e-06
-0.0169706
-0.0911368
1.02766e-321
-1.53721e-14
-2.52338e-97
0.0837792
0
-3.29523e-05
-0.184849
0.0952214
0.0140905
0.00208799
-0.0678795
0.133437
-0.064494
0.0389716
-0.031698
-7.31796e-05
0.156586
0.0490752
-8.61462e-07
0.0923512
-3.57575e-08
-6.70015e-11
0.0116281
-0.0216038
-1.91963e-06
0.0979891
0.40629
-1.2103e-05
0.00226316
0.0125013
-0.0205655
0.0195955
0.10888
0.00694527
-2.73423e-09
-0.00834434
6.9803e-05
0.0955496
-2.71218e-10
0.00341764
0.0157771
0.0195955
-0.00352474
0.0125013
-0.0391019
0.0200644
-0.00739299
0.0313296
0.06447
0.0325581
-0.0430444
0.0451489
0.0124997
-0.0302487
0.0300297
0.0283512
0.0594901
-0.0257953
-0.0477466
0.0173488
-0.00055296
0.0207435
-0.052967
-5.47505e-06
-4.33166e-05
-2.15475e-13
-2.12717e-09
-0.0660187
-0.0373615
-0.033349
0.0241433
-2.59301e-13
-0.0357968
0.0252547
3.0796e-79
-0.0119429
0.0793235
-0.0318583
0.0125013
-1.91963e-06
0.00469946
-0.0110739
-1.35628e-08
5.03947e-322
0.0674615
-0.044326
1.19981e-163
-0.00759009
-0.0623737
0.0200367
-0.00759009
-0.0389889
-0.0580485
-5.66527e-06
0.0390301
-0.0211185
0.00179201
-6.22395e-11
-0.0429959
0.0156144
0.0116281
-0.0788745
0.275299
0.00166631
0.00400769
-0.0469123
3.0796e-79
-1.77666e-83
0.0268316
-5.47505e-06
-0.0264505
0.278671
0.00634308
0.091217
-0.0400465
0.228757
-1.51355e-05
-0.0252188
0.0255033
-0.0928123
0.0598786
0.00823985
-0.0216038
1.22319e-07
0.0400775
-0.0853725
0.00857125
-1.69113e-05
-0.0104523
-0.0437975
-0.0424161
-0.0274117
0.000135027
2.76677e-322
0.0412821
0.0790018
0.0769146
0.0196525
0.0158779
0.0312756
0
0.0585301
-0.0164477
0.129563
-0.0326619
0.0101948
0.00435463
-0.0010432
0.00694527
1.2401e-321
-0.0290703
-0.000180406
-3.30782e-05
-2.38842e-05
0.00533397
0.0190395
0.0154664
-8.52015e-07
-1.18882e-06
-1.91963e-06
0.0181407
-1.2693e-95
-0.0115257
-0.0122705
0.0703126
-0.0854249
-0.0290889
0.0145188
0
0.000818986
0.255289
-0.166355
0.000522897
-2.52338e-97
-0.0295414
-0.100173
0.00248184
-0.0031786
-0.0302957
-0.0126059
0.0255033
0.0633589
0.0254042
-4.59654e-94
-0.041821
0.0375421
-0.0354585
0.0362179
-0.0465873
-9.81488e-06
-0.0663256
-4.75257e-05
0.0495167
0.0796099
0.0200367
-0.0910706
-7.22366e-05
-0.0802559
0.0014774
0.0574698
-0.000145619
0.0392423
-5.49277e-09
-0.122499
-0.0754345
-0.0363294
-1.97626e-323
0.0970966
-1.24021e-05
-0.0504818
-0.279327
-3.66199e-08
-0.000160383
1.35374e-321
-0.00503186
-3.02897e-09
0.0739278
0.0324763
-0.0487573
-0.0850917
0.0452868
-0.114684
-6.35143e-05
0
-0.0281748
-0.0247645
-0.000145619
-4.75257e-05
-0.000300887
2.76677e-322
0.215946
-0.140201
0.232607
-0.0283435
-6.11182e-08
-0.0539894
0.0392331
-0.0250689
-8.28462e-09
-0.0110739
-4.75257e-05
0.00762241
1.11298e-05
-1.91963e-06
-2.74316e-06
-0.0485515
-0.0257953
-0.0359517
-0.0702925
-0.0948213
-1.70503e-05
-2.37649e-05
0
0.0477098
0.000577211
-9.7027e-97
-8.13274e-07
0
0.00456436
-1.24715e-94
-0.0302964
0.0628974
0.0202546
-4.59654e-94
-4.75257e-05
-1.2693e-95
-0.0141073
-2.96348e-09
-6.65951e-05
-0.0538268
-6.48908e-05
-2.37649e-05
-0.145416
0.075855
-0.00615158
-0.0249622
0.614974
0.0725499
0.00694527
0.0188832
0.155056
-4.99319e-06
0.000522897
-3.05208e-07
0.0388629
0.00050469
-1.74672e-10
4.89964e-05
0.0116833
-5.85349e-08
-0.0152018
-5.18199e-05
-0.035544
0.0038131
-0.0272661
-2.93428e-07
0.0157771
-0.0264497
0.0537159
-0.0321801
0.00172134
0.00346609
-0.0172674
0.0300041
0
0.0312875
-2.38842e-05
-0.072001
0.029878
-7.84584e-05
-0.0203639
0.0285234
-2.71218e-10
0.170954
0.0745162
-0.000869017
-3.34463e-12
0.196589
0.00435463
-1.38121e-08
0.0287299
-0.223672
-1.34295e-08
-0.0516907
-1.38121e-08
0
-0.000117937
-1.2693e-95
-0.0128346
-0.0408429
-0.0314849
0.00473195
-0.00724679
0.0405701
0.0461281
-0.00546385
0.0255359
-0.000222071
-0.0139194
-9.74585e-05
0.128512
0.0513592
0.0903142
0.102847
-2.15475e-13
0.00469946
-2.71349e-10
-0.0127135
0.0177367
0.00441875
0.00104736
-0.00199492
0
-0.0460775
0.0197924
-0.0328318
0.000759276
0.0734236
-0.0471692
-0.00914978
-0.140378
0.0302798
0.0522218
0.00166692
0.0484282
-0.0400909
0.158383
0.000486236
-0.017108
0.030537
-0.0679845
-0.0386275
0.0454442
-2.93984e-07
0.0232582
0.0223557
0.0287077
0.00898514
0.129153
0.0158016
-0.0943448
-8.87913e-05
0.020745
0.0209528
-2.38842e-05
-0.00010226
0.0503166
-0.00693285
0.0145558
0.0229992
0.115879
0.053714
0.0073758
-0.10365
0.0743476
-0.0366682
-0.00503186
-6.01122e-05
0
0.0211913
-0.000205914
0.16345
-0.0352981
-0.0603558
0
-9.11298e-10
-0.0529025
0.0331028
0.0161577
-1.18931e-06
-1.91963e-06
-4.15939e-05
1.44761e-321
-0.0235031
0.722975
-0.0611074
-0.0301458
-0.000101955
-1.13947e-10
0.0857267
-4.75257e-05
0.019639
-1.78157e-06
-7.22364e-05
-0.053481
0.0171882
0.492486
0.0103875
0.0056349
-1.3254e-05
-0.0515342
-0.0137133
-1.18503e-07
-2.37649e-05
-5.58921e-05
-0.035116
0.0381705
-0.0632707
0.248513
-1.91963e-06
0.0140389
-0.0200577
-2.95965e-11
-0.0938527
0
-0.0213681
0.00140078
-0.0641622
-0.00266594
-0.0334058
-0.0734668
-0.00869487
0.0200367
0.0861311
0
-2.22149e-08
-9.7027e-97
0.0404567
1.11165e-321
0.00532056
0.00149223
-0.0016576
-0.08166
-0.046424
0.0285545
0.0420666
-0.0400224
0.0452545
-0.00309107
-1.97626e-323
0.180398
-0.030652
-8.12006e-55
0.0194466
0.0500134
-0.0213681
0.0224933
0.0100223
-0.00809208
-0.0338526
0.0378743
-6.84107e-06
-8.41949e-06
-4.46526e-12
0.0298781
0.00694527
0.0837212
-0.152298
0.043792
-7.14737e-13
-0.000190632
0.0101282
-0.0952421
-0.0205055
-0.0739334
0.098985
0.0197708
0.0250722
0.0297911
-5.47505e-06
-0.0744769
0.00168991
-1.87749e-06
-0.0363294
-0.000160383
-0.00759009
-9.45079e-08
-0.069663
-0.049896
0.00229418
-0.0374453
0.159261
-1.01502e-12
-0.0390303
-0.00724679
0.0521271
-0.0415787
-8.21545e-05
0.00834855
-4.59654e-94
0.0196775
-1.18882e-06
0.0743653
-0.0277197
0.0437942
0.0415918
0.0275845
-3.29523e-05
-0.026529
-0.101087
0.0786348
-0.0904847
0.00555598
0.00272387
-0.0436145
0.100337
-0.0518288
-0.0599976
1.51678e-321
1.66994e-321
-0.07057
-0.00888974
0.00024095
-0.0353362
-1.18503e-07
0.00127633
-0.0499636
0.00401808
0.178043
-0.000133977
0.0282345
0.000931155
0.00443333
-0.148985
0.0368954
0.00239911
-0.0203265
-1.24715e-94
0.150234
-1.18973e-06
0.00477922
0.000522897
-2.1645e-05
0.000577211
0.0314253
0.0727002
0.102791
-0.00749395
-0.0183
0.0373382
0.000924073
0.0101948
-0.00290701
0.00546271
0.0844973
-0.0264497
-0.0656937
-0.108607
-0.0424434
-2.05484e-05
-0.15842
0.0513022
4.24896e-322
-0.0344117
0.186709
0.0602274
0.16549
0.0146066
0.189534
0.000103508
-0.0511312
0.190421
0.00697766
0.0101282
-0.00500749
-0.0234499
-2.15475e-13
0.0784043
0.0313068
-4.73408e-14
0.00516149
0.0523737
-0.0363294
-6.54073e-05
-0.021556
-0.00759009
6.9803e-05
0.00253452
0.0441451
-1.53721e-14
0
-0.0468389
0.0350932
0.0739278
0
-0.0516605
0.0512935
-0.217605
-1.91963e-06
-6.99117e-05
0
-0.0216038
-1.46764e-09
0.00108181
-1.29942e-10
-0.0834267
0
-0.0587135
0.0125013
-3.08149e-07
-1.58436e-06
-1.62456e-10
-0.00784707
0.0791983
-0.0734297
-2.07988e-05
0.000522897
-4.73408e-14
0.0871838
-0.000117937
0.0220121
-9.60997e-05
0.0392981
-1.9384e-06
0.019913
0.0375241
0.00974747
-0.0945956
0.247485
0.0907458
0.234582
-1.38101e-05
-7.50114e-97
-4.59654e-94
0.0292799
-0.0571074
0.0181749
-0.00546384
0.119422
0.030537
-3.79254e-08
0.208538
-0.0701406
0
-0.0314849
4.24896e-322
-0.0406639
-0.0526772
0.0130242
-0.0349494
-7.80209e-07
0.00975394
0.0939583
-0.000212254
0.0897703
0.226046
-4.33166e-05
0.00164321
-1.1988e-05
-4.59654e-94
0.00977223
-9.33784e-322
0.00477922
0.0136649
0.00406348
0.0694608
0.0346429
0.00411113
0.188307
-0.102693
-1.86615e-06
0.00150373
0.0703053
-0.0383645
9.28843e-322
0.0908908
-5.18199e-05
0.0295077
0.00516149
0.10888
-2.44682e-10
-1.90001e-05
0.00637454
-0.0105589
0.113448
-0.0424434
0.0424704
-0.0264497
0.0200707
-0.0201364
5.4464e-07
-1.74672e-10
-0.1729
0.0320117
-0.0180729
-0.000141035
0.0126317
0
0.0451489
-0.0196567
-4.84498e-05
-0.00781135
0.147482
0.0755886
-0.146936
0.000673675
0.0125013
0.0364084
-2.75523e-06
0.229202
-0.0310708
0.000263359
-4.73408e-14
0.023789
0.0262578
-0.0301778
-0.000120687
0.0279015
0.0131586
-0.0434981
0.0531944
-0.0264497
-9.93853e-05
-0.0290919
-0.0105589
-4.65681e-12
0.0503518
-1.91963e-06
-0.00744274
0.00588131
0.00168991
0.0384901
-0.00700774
0.0166347
-5.47505e-06
0.0085684
0.0201464
-3.29689e-05
-0.0291434
0.00516149
-2.75523e-06
-0.0608063
-0.0141141
-3.40873e-08
0.00406348
-3.94685e-05
0.0200367
0.00305029
-2.52338e-97
-0.0252188
-0.0673319
-0.0640282
-5.10988e-05
0
2.4162e-06
-0.000176353
-1.91963e-06
0.114889
0.109272
1.47493e-05
-0.0974704
-1.31668e-06
-0.0237675
0.0422083
-0.00627942
-0.0625978
0.0454616
0.67338
0.0525718
0.0156896
-0.00826761
-0.00657794
0.0572311
-0.0105589
0.0115085
-4.96839e-05
-0.00199492
0.0015303
-0.132533
0.016176
-0.00939564
-0.0435164
0.0117937
0.0531947
-0.0845076
-0.0389889
-1.18503e-07
-5.69342e-05
0.0316652
-2.22149e-08
0.00697766
-3.29689e-05
0.175164
0.0799802
-1.51357e-05
-1.07875e-07
-2.93984e-07
1.51678e-321
0.0101884
-5.66527e-06
-1.24023e-05
-0.100802
0.00857125
-4.54637e-07
0.00593289
0.0480463
0.0910448
-4.59654e-94
-0.0615579
-0.0956556
-0.0527947
0.172361
-0.0571351
-7.84584e-05
0.133025
-4.91856e-05
0.0358101
-2.59301e-13
0.0389145
-0.0390303
-2.74883e-08
0.000941629
-1.30984e-13
1.2401e-321
-1.3254e-05
-0.134794
0.0554115
0.0110375
-1.91963e-06
0.137706
0.0544189
-1.91963e-06
-0.0523976
0
0.122048
-0.0400779
-4.91856e-05
-0.0513491
-0.291335
0
0.0101884
-0.0122705
-0.0469123
-0.135398
-9.18518e-05
-1.18503e-07
0.00421702
0.0125466
0.035088
0.0263881
-0.0414993
0.0360831
0.0271936
-4.09157e-05
0.00090777
-0.149159
0.118533
0.50347
-9.7027e-97
-4.75257e-05
-0.0186371
0.0117937
0.0103465
-0.0558189
0.0992964
-0.0155263
-0.152276
0.114621
-0.150972
-2.73423e-09
0
5.33626e-05
-0.0787282
-1.26918e-07
-0.0701373
-1.49369e-10
0.204489
0.019681
0.0573095
-5.47505e-06
0.0263564
0.0539499
-0.0457101
-0.00701485
-0.0311568
0.0433035
-0.230645
-0.0272661
-0.00713463
-1.24715e-94
-0.0882671
0.0424704
0.0904997
-0.0427164
0.0211813
0.0105321
0.0801625
-7.7359e-11
0.0228842
0.00413597
-0.0742077
-0.0487092
0
-0.00017502
0.100161
-5.69342e-05
-0.0869226
0.00655779
-5.47505e-06
-0.224521
-0.000205914
-0.00445543
0.027944
0.0211813
0.0201184
0.0137862
-0.0976304
-8.13274e-07
-0.0110739
-0.0516907
3.0796e-79
0.115377
0.111849
0.00448128
-0.117212
0.171944
-0.0958268
0.0163115
-3.91028e-05
-0.0390301
-0.133831
-0.075388
-0.0383645
-0.0516116
0.078553
0.00156498
0.0207518
0.045149
-2.93428e-07
-0.000160383
-0.00883912
-0.0396245
-4.46526e-12
-0.0765094
0.0204696
0.0493551
0.00148185
0.0202546
0.044237
0.029878
0.0724519
-0.0572767
-8.12006e-55
-1.91963e-06
-0.000113363
0.0663709
-0.01827
2.40551e-07
0.0125828
0.232467
0
0.077709
0.00479986
0.00440493
-0.0142345
-9.81202e-95
0.0320126
1.11165e-321
1.29242e-05
-4.54637e-07
-2.93428e-07
-1.31668e-06
-4.20376e-06
-0.0469123
1.28784e-165
0.00988172
-0.0176186
-3.92058e-08
1.29243e-05
-0.00724679
0
0.0275845
0.303773
-0.00883912
-4.54784e-08
0.0699392
-0.0105477
0.00538316
0.078653
-0.000113674
-0.0400465
-0.0236967
0.016538
-6.01122e-05
-0.000224656
0.0498319
-0.0530585
-0.000145619
0.000818986
-2.59301e-13
0.00655779
0.493746
0.00834855
0.086163
-0.0584922
-9.08097e-05
-0.0253769
0.0412664
-0.0498959
0.0128047
-6.35143e-05
-0.0760835
-1.38338e-322
-1.91963e-06
0.196662
0.16471
0.0762893
0.30091
-2.38842e-05
-0.0272661
-0.177637
0.0142567
0.0381705
-0.109733
-0.0337167
0.0584225
-1.18503e-07
0.00452697
0.0119381
-0.000175089
-0.0246744
0.0145966
-0.0259689
-9.11298e-10
-0.0980015
0.036466
0.171528
-1.07634e-07
-2.63172e-05
-0.0318728
0.0373382
0.00302564
-0.011371
-0.0327839
-9.19994e-05
-2.52338e-97
0.119843
0.0599636
0.000522897
-0.0733948
-0.139193
-0.00291086
0.00087565
0.0513022
0.00087565
0.0420666
0.0271936
0.00114917
0.0271936
0.00988172
0.00511051
-0.00785914
0.0463364
-4.7134e-08
-1.91963e-06
-0.106238
0.000924067
-0.00550113
-0.0812355
0.0721114
0.0254145
-1.91963e-06
0.00538165
0.195205
-1.62456e-10
-0.0963114
-0.0569163
0.0304041
0.0576778
-0.0477466
-0.0253769
0.044261
0.0439458
0.000253273
-2.58711e-79
-1.24715e-94
-1.37374e-07
-6.28231e-07
-9.78556e-07
0.00027832
0.0660514
0.0101352
0.00135382
-3.05208e-07
-1.69113e-05
0.031366
0.001616
-4.06505e-06
-0.196859
0.0756394
0.018576
0.0497521
-6.54073e-05
-0.116
0.00637404
1.51678e-321
0.00421702
-0.0196442
0.0103875
0.0621159
-3.05208e-07
-1.35628e-08
0.0260539
-0.0430538
-0.0576419
-0.1244
-2.47719e-10
-0.00106484
-2.76954e-08
-0.1477
-0.0259438
0.0313719
0.0195789
-0.0889934
0.0608317
0.159264
-0.0150932
-1.58436e-06
2.83929e-06
0.0125013
0.0260698
0
-9.08784e-05
-0.0375126
-0.104357
0.0339878
-0.106964
-0.0646045
-4.33166e-05
-0.0463947
-0.0493449
-7.84584e-05
-2.039e-94
-9.7027e-97
0.0607699
-0.0110739
0.000888997
0.00257191
-0.0137984
0.00622048
0.062196
0.0275244
0.0158779
0.0328307
-0.0259689
-0.101532
0.0420484
-1.91963e-06
-3.29689e-05
0.028844
0.0141173
0.0140905
0.0319698
0.121027
-0.0704459
0.0871525
0.00448128
0.0262578
0.0573864
1.29243e-05
-3.29689e-05
-0.053544
0.0166431
-0.0438635
-0.0890474
-0.0285232
-4.84393e-05
-0.000105982
0.0831516
0.0158659
-0.000160383
-0.0278276
-0.0194328
-0.072349
-0.0060208
-0.0435164
0.0103875
-0.00868565
0.000575407
0.0328307
-0.031698
0
0.0383638
-7.14737e-13
0.00433433
0.0201353
-0.0444614
0.0634307
0.00673302
-2.95965e-11
-1.91963e-06
0.0158659
0.0423061
-5.10988e-05
0.0190395
0.00761511
-9.24171e-05
3.74399e-05
-0.0521704
0.040326
-0.0223417
0.0333123
0.0129718
0
0.0503166
0.00593289
-0.0311627
0.294988
-0.0591232
-1.3309e-06
-1.62456e-10
0.0448519
0.00115854
0.117187
-0.0185125
-0.0119091
0.0512935
0
-0.0504024
0.0661292
-0.00553847
-0.0161551
0.0211813
-1.1988e-05
0.0190395
0.0222431
-0.0611143
-0.0327633
-0.0327633
0.0751573
0.0125013
0.0492617
-0.0318856
0.106114
-0.0400201
-0.00550271
0.0428098
0.0897758
0.0110341
-0.00868565
0.00448128
0.0107085
0.0537205
0.022833
-0.0686258
-0.0110739
-9.18473e-05
-0.0826024
1.05279e-05
-0.0273221
-0.031698
0.0420694
-0.0498965
-2.71218e-10
0.228909
0.1029
0.000517232
7.5098e-322
0.0142029
-4.73408e-14
-0.0673375
-6.01122e-05
-0.129087
-0.0051913
-0.0104523
0.0799802
-0.0218969
-6.7926e-05
-1.91963e-06
-0.0484994
0.000924073
0.0125013
-0.0469123
-0.0369273
-0.0290919
0.0201525
0.0378349
0.0708179
6.19871e-06
0.0314925
0.0151455
0.00435983
-0.0312535
-0.111106
0.011333
0.00156498
0.00567936
0
-0.0284624
-0.131406
-0.106817
-0.0451737
-0.0199082
0.0194723
0.00958613
0.00913401
0.00257191
-0.268297
-5.47505e-06
-0.0429959
0.0367459
-0.138651
-0.039015
-2.96348e-09
0.00694527
-0.100065
0.0712424
0.0163569
1.19981e-163
-0.0576499
-9.35049e-05
0.190075
3.38847e-05
-7.50114e-97
-0.179995
-1.32593e-06
0.0871838
-1.69018e-12
-1.2693e-95
-0.0281748
0.0442093
-0.0407914
-0.101321
0.0117709
-0.0437975
-1.52637e-05
-0.0731888
0.0151906
-0.0790393
0.123324
-1.18508e-07
0.00581496
0.0136896
-0.00196011
-0.0460596
0.163061
0.0498609
-0.00759009
-2.59301e-13
-0.00650643
-0.12005
-0.109946
-1.27102e-05
0.00024095
0.333324
-3.1626e-166
-0.00199492
0.0101282
-0.204542
-0.0477466
-1.58436e-06
-0.00776618
0.0200367
-0.0341235
0.0506239
0.0375421
0
-1.78157e-06
0.0743025
0.095896
0.0381705
-0.0124015
2.50663e-289
-2.78473e-14
0
0.0288308
0.0717301
-1.49369e-10
0.0266132
-0.0192143
-0.00331956
0.0177362
0.0180087
-0.0748843
-1.06763e-14
-4.59654e-94
0.116291
0.0995289
-0.0390303
-2.52338e-97
-0.0511929
-0.0214361
-0.0684875
-0.00304476
-4.73408e-14
0.00655779
-3.5551e-07
-2.07988e-05
-2.76954e-08
-0.050951
0.29192
-0.000212254
-0.0190609
-0.0354585
0.06004
0.000595819
-0.00643873
-0.0110741
-2.76552e-09
0.0923976
-0.0657451
0.0450766
0.00642629
0.000420353
0
1.69962e-166
-8.63863e-05
0.00707601
0.018576
0.0890664
-2.93428e-07
-0.0524556
0.00694527
-0.0257953
9.44056e-08
-0.0406639
0.000263359
-0.0302841
0.00421702
0.193469
0.0188315
-0.000138634
-2.59301e-13
0.0412664
-7.7359e-11
1.29243e-05
0.0110375
4.06195e-05
0.134515
-0.0164918
0.0220833
0.00203866
3.0796e-79
0.0113361
-1.77666e-83
0.0875359
0.12919
-1.3309e-06
-4.84393e-05
-0.00974343
-3.54744e-05
-0.219385
-0.0216038
-0.0798477
-4.59654e-94
-0.0390303
0.0633589
4.25949e-05
-4.84393e-05
0.00871691
1.04742e-321
-0.018509
-2.039e-94
-0.0264497
0.016538
-0.0948898
0.291425
-0.0734117
-6.45535e-15
-0.0272661
0.0420484
-0.0165569
-0.0505324
0.00087565
0.00339642
0.00818699
-3.40873e-08
-0.00672905
-0.0375715
0.0293021
-0.00776618
-1.91963e-06
-0.0016576
-0.0312779
0.0115085
-2.63172e-05
-0.108303
-0.011962
0.0140389
-9.15293e-05
0.0101282
4.14052e-05
0.0151906
-0.0484259
-0.0715052
-0.047561
-5.66527e-06
-0.000136883
-0.103257
-0.0122705
0.0115085
0.0930902
-5.58921e-05
0.0318486
-0.143756
-0.0160825
-0.0765094
0.078553
0.0185931
-0.0172334
-0.111473
-0.0689926
0.0156896
0.251902
-8.60413e-07
-4.48667e-08
0.0319698
-0.00824443
-0.000105982
-0.0517437
0.120973
-0.294028
2.14813e-166
0.0362842
0.17115
0.00413597
-0.0471147
0.000522891
0.000144775
-0.0352481
-1.91963e-06
1.19981e-163
-0.0129037
-0.00595092
0.154471
-4.84393e-05
0.149281
-5.2523e-05
0.123206
-6.35143e-05
0.0125013
0
0.216865
0.000924073
-4.15738e-05
0.00542065
-8.57821e-07
-0.047134
0.0173266
0.0115085
0.0350932
-2.85464e-06
-2.96348e-09
-0.0101743
-0.0451737
-1.26918e-07
0
0.00253115
5.21854e-05
-0.000101959
0.0861311
0.273154
0.00174471
-1.87749e-06
0.0130341
-3.34463e-12
-1.63408e-06
-0.0523997
0.0211813
0.0402625
-0.000212254
-0.0251257
0.0117269
-0.135233
-1.91963e-06
0.0497664
-1.46764e-09
0.00886536
-0.0355583
0.00440493
0.0942306
-1.89692e-05
-0.0874462
0.281591
0.052303
0.0594901
-0.0257418
-1.29942e-10
0.00425617
-5.47505e-06
0.000522897
-0.0516491
0.133298
-0.0601726
0.0620004
-0.0302957
-0.114566
-0.000224656
-5.47505e-06
0.0754935
-1.69018e-12
-3.1626e-166
0.095652
3.0796e-79
-2.69445e-07
0.0390222
-3.41513e-06
-7.58331e-07
0.0188703
0.0195624
0.0186536
-1.66558e-06
0.0179019
-0.0264981
4.25949e-05
-0.000105996
0.0180087
0.0513022
-0.00017502
0.0598004
-0.00759009
-0.00199492
0.182535
-0.106107
-0.00988964
0.101465
-0.00106484
0.0105054
-1.91963e-06
-4.44211e-06
0
0.0224933
1.03754e-321
0.0429935
-0.0787282
-0.128109
-0.023111
0
-0.0420662
0.0200644
0.0347611
0.000522897
-5.5553e-85
0.00177645
-0.0230759
-0.0239888
0.142749
0.142704
0.0690358
-0.0621348
0.000118931
0.0200295
0.0259472
-2.07988e-05
-0.0505701
-0.0136936
-0.00171488
-8.87907e-05
0.207636
6.9803e-05
0.0167189
-0.000685029
-1.01502e-12
0.129526
0.0579564
-0.00550113
-5.42069e-05
-0.045232
0.206757
0.0264312
0.00834855
-3.22599e-05
-0.0671127
-6.91908e-09
0.0041355
0.00128027
0.0195955
0.19111
-9.61636e-15
-1.35698e-12
-0.00179885
-0.00594202
0.00822036
-0.0430999
-0.0603126
0.086163
-0.000136883
0.0124211
-1.31668e-06
0
-2.92337e-95
-0.0150763
0
-0.0355583
-5.2523e-05
0.122228
-4.59654e-94
-0.000101955
-9.1276e-11
0.0218165
-0.023736
0.221659
-0.0611743
-0.0303227
0.262116
-0.0174269
0.00086483
-0.0831775
0.000263359
-0.0294785
-7.7416e-05
0.0161072
1.05279e-05
0.106334
3.50787e-322
-0.0309397
0
0.0472957
0.000283932
0.00857125
0.0185931
-0.0844893
-2.76954e-08
-0.0469123
-3.50586e-07
-0.0739726
-0.192052
-1.91963e-06
4.77184e-142
-0.0312526
0.195203
-0.0527007
0.0521812
0.0318486
-0.0231409
-0.0911465
-0.0750641
0.00440493
0.0449164
-0.0273851
-0.0169706
-0.0643624
-0.00111307
0.00550128
-0.0469059
0.00469946
-0.00763382
0.00128027
-3.66199e-08
0.0300041
-0.0106153
0.0928159
0.0186536
0.0110658
7.5098e-322
-0.0829689
-0.077717
-3.25948e-05
-0.0363294
-1.91963e-06
-0.0437975
0.0953873
9.68379e-05
-0.0856936
-0.0230759
9.60138e-05
-0.000105982
0
-1.08795e-05
0.00538287
-0.0287113
-0.0611143
0.0433677
-0.223378
0.00766693
-0.0922039
0.058961
-5.09958e-05
0.00834855
0.338337
0.0314583
-0.046488
-4.33166e-05
2.40551e-07
-0.0509513
-0.00250387
0.0300041
0.000121402
0.0501307
0.0513022
-0.0337953
-2.59301e-13
-0.0851361
0.0506239
-9.58487e-322
0.0185872
-4.99319e-06
-0.000160383
-0.019708
-0.027908
-6.46727e-10
-0.0222033
0.0101578
3.0796e-79
0.2237
0.00128027
-1.87749e-06
0.00974747
0.00694527
-3.29523e-05
-0.00289326
0.413429
0.0594584
0.0595358
0
0
0.16666
-4.59654e-94
-3.45403e-06
0.00403516
-0.0604878
0.000118931
-0.096296
-0.0252399
-8.57821e-07
0.0758382
-0.263092
-9.44635e-05
-2.59301e-13
6.9803e-05
0.0113059
0.00425617
0.256753
-7.50114e-97
-0.10978
0.188291
-0.0472337
-3.54744e-05
3.50787e-322
-2.06871e-12
0.0521812
0.0185931
-0.0926572
-0.0580311
-0.0511852
0.159471
0.00542525
-0.000176353
-0.00493689
-3.46301e-07
-6.08765e-08
-0.0667591
-2.75523e-06
-8.28462e-09
-2.26386e-10
-4.99525e-06
-0.199365
0.0417442
-0.000176353
-0.0110739
-0.0789528
-2.93984e-07
-0.0258937
0.100161
1.22319e-07
-3.81628e-05
-3.07051e-12
0.0103465
-6.22395e-11
-0.017475
-1.52359e-12
-4.73408e-14
0.0195155
0.0258481
-1.38231e-05
0.0131278
-0.0309396
-1.46764e-09
2.77681e-05
-2.93984e-07
0.133431
0.0265093
0.000168737
9.68369e-322
0.0284339
0.000522897
0.154315
0.0239238
-0.0555316
0.000953615
0.0275845
-0.262724
0.000815484
0.0980697
-0.00550113
0.0195582
-5.18199e-05
-0.108223
0.00440493
0.0301928
-0.067466
-2.52338e-97
-0.0172334
-0.000105982
0.00878075
0
-0.0711521
0.00330996
-0.0259689
-1.91963e-06
0.181468
0
-0.0302957
0.0566246
-0.0277252
0
0
0
-9.11298e-10
-1.3309e-06
0.0254042
0.10354
0.0164602
-1.69018e-12
-1.69947e-06
-7.58422e-07
-8.12006e-55
0.0895832
0.0584747
0.0631634
-0.0123026
0.0674747
-3.45898e-10
-9.15293e-05
-0.261231
-1.22034e-321
-1.30323e-10
0.0158779
-0.0259708
-1.62456e-10
-0.000863856
-1.62456e-10
-4.64255e-06
-0.558327
0.00440493
-0.00768541
-0.00421774
0.0279008
-1.46764e-09
-0.03586
0.0201559
-0.0847635
-0.000227249
0.310269
0.0819804
-0.0180729
0
-1.13947e-10
-0.0102068
-0.129814
-7.84587e-05
0.00024095
-1.51355e-05
-0.028654
-4.20376e-06
0.0157427
0.0146916
0.0420666
-0.0475531
0.0479064
0.0187623
0.00174471
-2.05484e-05
-0.0174269
-0.0105962
-1.91963e-06
-0.0185125
4.89964e-05
0.0350932
0.000150823
-0.0777372
0.0186508
0.0117937
0.0265264
0.00331484
-7.84584e-05
0.00906279
-0.0529797
0.10656
-5.5553e-85
-2.44066e-05
-0.0389889
-0.0169706
-0.0440127
0.0579314
-0.0556686
0.0275374
0.0294797
0.00576154
0.00220268
0.0607555
-9.7027e-97
0.0262578
-2.74316e-06
-2.93984e-07
-0.0722876
-0.000205914
0.00477105
0.0138104
6.19871e-06
0.083669
-0.000792652
-0.0025316
0.00358054
-0.00399748
0.270386
-4.73408e-14
3.0796e-79
-0.0656589
-1.50138e-09
0.0402094
0.00530534
0.196584
-0.0496854
-0.015526
-3.29689e-05
-8.12006e-55
-2.99026e-14
0.0318486
-0.0543579
-0.0123929
-4.82433e-12
-0.0363294
0.0117937
-0.0180729
-8.12006e-55
-1.88325e-05
0
-0.0498575
0.00253563
0.0587954
-1.37374e-07
-5.47505e-06
-2.22151e-08
-0.0619696
0
-2.93984e-07
0.0630741
-9.35049e-05
0.0596286
0.0156896
0.0862733
-1.91963e-06
-7.22773e-06
0.0186536
0.100161
-0.0812042
0.00317347
0.092106
-0.00326948
0.0521301
0.0696851
0.000522897
-0.0815861
0.0103465
-0.0573992
-0.0107674
-0.0215792
-0.00550113
-1.86888e-06
-0.0640282
-4.64255e-06
-1.69018e-12
-0.00266518
-0.0424821
-0.000246389
0.0196583
-2.75523e-06
-0.0369786
0.000522897
-0.0767439
0.0101244
-1.51357e-05
0.00168991
0
0.0298146
-6.22395e-11
-0.441078
0.0422491
-6.35143e-05
0.208876
0.0363593
-0.0263614
0.000929359
0.121466
-5.47505e-06
-1.06763e-14
0.000396515
-1.75074e-12
0.00538357
0.0101884
-1.3309e-06
0.173042
-3.79254e-08
-0.0309396
0.0235388
-0.0461792
1.19981e-163
-0.0910346
0
-3.58645e-05
-6.01122e-05
-0.0172334
-1.91963e-06
-2.26386e-10
0.0157449
-1.37374e-07
-0.0975701
0.0294797
0.0125013
0.00550128
-0.0183972
0.00694527
-0.0980015
0.0150465
-0.0691613
-0.0309396
0.0739278
4.77184e-142
-0.0327839
-5.47505e-06
-0.0225102
-0.0565187
-0.0585765
-0.0554083
-1.1988e-05
-0.000225481
-9.18473e-05
0.0275845
-6.58046e-07
-7.22364e-05
-0.107706
0.000121402
0.0287387
0.0449164
-3.92058e-08
-8.32467e-05
0.0616407
-0.0030416
0
0.0183621
-0.0355583
-0.105059
-0.0777538
-6.58046e-07
0.0723855
-0.0320396
9.28843e-322
-0.185917
-0.0423855
0.0739944
-7.22364e-05
0.0817136
-4.65681e-12
0.0130341
-0.0522004
0.00780833
0.0897684
-0.0231184
0.0495708
0.100433
-2.59301e-13
-0.0583256
0.0125013
0.000522897
0.0300589
0
-2.59301e-13
0.175567
-1.91963e-06
-1.91963e-06
-0.0146894
0.0887951
-1.78157e-06
-0.0516269
-8.86169e-05
0.0633589
-0.0211185
0.0960905
-0.0390423
-0.0496367
-0.0358448
0.00627074
-1.46764e-09
1.69962e-166
-0.213631
0.0940295
0.00256835
-0.0258919
0.00985044
0.00107809
-9.35049e-05
0.157599
0.0565122
-0.0392836
0.0101948
-0.0246744
0.0558244
0.0901615
0.0130341
0.0128047
0.122628
0.0468671
-0.0216038
0.170473
0.14922
0.00902875
0.0618832
0.0106683
-0.0124578
1.19981e-163
0.0415862
-0.0192794
0.200147
0.130567
-0.022864
-3.29689e-05
-0.0406639
0.00911476
0.0167392
-0.00939851
-9.18473e-05
-9.08097e-05
0.0620111
0.0336146
-4.94904e-05
0.0673187
-3.29689e-05
0.0392981
-7.06492e-07
-0.00490868
-0.0734019
0.0693743
-0.0186994
0.00443622
-0.00018225
-0.0334698
-0.000259778
0.415849
-0.000108699
0.0130341
-3.72667e-05
0.0766021
-0.284107
-0.0173124
1.19981e-163
0.286553
0.147861
-0.000227249
-0.0812039
-6.22395e-11
-0.0949512
0.00974747
0.0563327
0.0424704
-0.00245182
0.0739017
0.0733465
-0.0820576
0.0429207
0.0103875
0.0125847
0.00161885
0.00858454
0
0.00253452
-0.0550871
-1.38231e-05
0.0485895
0.117814
0.0449164
-1.35698e-12
0.013299
0.00168991
0.00985044
-8.13274e-07
0.00052158
-2.93872e-05
0
-0.0272661
-0.0169706
-0.0652515
-0.00939851
-9.43665e-322
-2.95965e-11
-0.0511852
2.2891e-06
-0.000145619
0.00974747
0.00284608
0.026693
0.00361017
-8.13274e-07
-9.80193e-05
-1.46764e-09
0.139961
0.0553606
0.0420666
-9.78556e-07
-0.105101
-2.95965e-11
0.031366
-4.82695e-06
-0.120778
-0.109011
0
-3.29723e-05
0.0275845
0
0.0325101
-0.0548243
-0.0266597
0.0046531
-0.0847635
0.0275845
0.00477922
-0.0408015
-9.45079e-08
0.0420666
0.404244
-0.0643624
0.061452
0.0373382
0.073379
0.0759182
-4.44211e-06
-0.0543579
-0.0415505
-0.0572967
1.7281e-06
-4.75257e-05
0.0861311
-0.0292987
0.0468678
-2.039e-94
0.0123337
-3.08376e-07
-0.0580018
-0.0400668
0.0583515
-1.3309e-06
-0.0508253
-0.0314104
-3.5848e-05
-0.0736107
-7.50114e-97
-1.91963e-06
0.00168991
-0.00868565
-0.014649
-2.92337e-95
0.0996236
-0.0314056
-0.00896876
0.0383314
-0.0415454
-4.59654e-94
0.0799654
0.0416735
-0.0661715
-0.0571013
-0.0485789
-0.0110739
-1.52637e-05
-0.0383982
-0.0291434
-0.00879385
-2.22149e-08
-1.49369e-10
-0.0158576
-7.14737e-13
-3.45403e-06
0.00703721
-0.0302957
-0.0350762
-0.00032892
0.0327286
-0.0209428
-5.75625e-05
-0.328274
-2.00562e-06
0.00027832
-2.57824e-05
-3.29689e-05
0.0211813
-0.0316395
-9.7027e-97
-9.1276e-11
1.11165e-321
-0.119786
-0.0191132
0.0363477
-0.0174277
-0.0261688
1.19981e-163
-6.98075e-09
-0.0354055
-5.47505e-06
-0.00684269
0.00284718
0.0663894
-3.41513e-06
-2.36658e-05
-0.0776687
0.0565464
0.0378735
-9.13432e-05
0.0375421
0.128248
0.00901522
-4.75257e-05
-0.0463947
-5.47505e-06
0.0262578
-3.32364e-11
0.0326266
-5.47505e-06
-0.000246389
0.0186536
0.00448128
0.00202395
0.395899
0.0298781
0.0724519
-0.0164548
0.0501671
-0.0370701
0.00448128
0.013447
0.043242
-0.00957908
0.0517666
0.113942
0.0461134
0.00171961
-6.44489e-05
0.00231794
-2.039e-94
0.447683
0.000569904
0.0670702
-0.0540923
-5.49277e-09
0.0149081
0.0184451
2.76677e-322
-0.145993
-3.27936e-10
-0.0414993
-0.00939851
-0.063376
0.0285825
-3.08149e-07
-0.0834101
-0.000869017
0.115299
-0.0157169
-3.86377e-10
0.023896
-0.0478888
-0.0359231
0
0.0195955
-0.036861
0.00359221
-0.162657
0.0266323
-9.7027e-97
0.0053619
0.00128027
-0.139326
0.21549
0.0955244
0.0105646
0.0776158
-0.00940125
-4.75257e-05
0.0784043
-0.0753471
-5.69342e-05
-1.93837e-06
0.0392981
0.408917
-0.0309396
0.0617202
0.00974747
-0.0709229
0.010128
0.0556369
-1.14884e-05
-4.19267e-95
0.0195955
-0.0720143
-1.91963e-06
-0.0292652
0.128027
1.7281e-06
0.0242147
-1.91963e-06
-0.031698
-4.59654e-94
8.86394e-05
-0.0558654
0.0293021
-0.0331953
0.0316819
-1.91963e-06
0.622469
0.00933007
0.0184656
-0.125798
-0.0354585
0.14692
-4.7134e-08
-6.31313e-05
0.0149998
-9.15293e-05
0.0298781
0.0900889
-0.0310619
-0.0247001
-9.7027e-97
0.0375421
-0.0553656
-0.0535889
-0.10314
2.83929e-06
-7.14737e-13
0.0585283
-0.0558287
0.0125013
0.0584747
0.0457483
0.031827
2.83929e-06
-0.0153506
-4.59654e-94
0.102915
-1.91963e-06
-4.94904e-05
0.00564115
0.00516149
0.00168991
0
0.0628974
-0.0980037
0.0279008
0.0433536
0.0611374
0.0271936
0.0103875
-0.0264497
0.0431813
0.00857125
-0.0296987
0.27837
-0.000246389
-0.0375174
0.164571
-0.0275586
-2.52338e-97
-1.90001e-05
-0.0458177
0.0982855
-6.99116e-05
0.0523057
0.0284636
0.0121333
-1.91963e-06
-1.32593e-06
0.0871289
0.0259541
0.00519667
0.06004
0.0487595
1.19981e-163
0.0983561
0.0444724
0.0042137
-1.18503e-07
0.0289402
0.0215474
-4.75257e-05
-0.10103
-1.24715e-94
0.0852549
-3.05208e-07
0.0631846
-0.0516907
1.12986e-165
-0.0150763
0.0350932
0.00857125
-0.225358
0.0156144
-0.00550113
-4.75257e-05
-0.0352981
0.0497106
0.0599636
-0.147857
1.44761e-321
-0.1041
4.24896e-322
0.00834855
-1.91963e-06
0.164779
0.0282555
0.00559652
-0.0111408
0.0482837
0.18411
-0.063326
-0.18589
0.0989819
2.60194e-93
-3.07051e-12
-0.000212254
0.06004
0.000522897
0.117679
-0.00808892
2.76789e-05
0.00637454
-8.12006e-55
0.0394372
0.0769146
0.121067
-0.118249
0.129588
-0.098096
-4.75257e-05
-3.92058e-08
-0.0323511
-0.027908
0.051556
-0.0446512
-0.053685
-2.039e-94
0
0.0115085
-0.0211185
-7.84584e-05
-0.000685029
0.0115085
-0.0253769
-0.0110742
0.317072
0.00218258
0.100051
-0.00754489
0.0101884
-0.049896
-0.00322743
0.000522897
-0.0253258
0.0275845
-8.12006e-55
-0.11826
0.458628
-2.47818e-07
-1.91963e-06
-0.0104523
0.000924073
-2.78473e-14
0.0115085
0.499276
2.50663e-289
0.701529
-0.00239865
-0.0942025
-1.85508e-05
-1.75074e-12
0.185802
-0.000869017
0.0325633
0.0264132
0.0662012
-6.01122e-05
-1.1988e-05
-0.0198825
0.0745053
-1.46764e-09
-0.0264542
0.303327
1.03021e-07
0.00689115
0.0056349
0.135974
0.000924073
-0.0731888
-2.46474e-05
-2.76552e-09
0.0384105
-0.0664928
-3.16178e-08
-0.0605465
1.52172e-321
0.0259272
-0.0259689
-1.69018e-12
0.0521812
0.0689058
-0.0485515
0.00413059
0.0882652
0.114739
0
-0.0203341
-1.06763e-14
0.231532
-6.46727e-10
-0.139574
0.0467402
-0.0746738
-2.44318e-07
0.00057093
0.000276086
-8.5121e-07
0.0125013
0.000522897
-0.127211
-3.95127e-11
-4.75257e-05
-0.00016265
-0.0465873
0.015295
0.0333961
0.0858128
-3.72666e-05
-0.136846
0.0238405
-0.0508235
0.0839106
0.00168925
0.0146916
-0.0437975
-0.0942139
3.0796e-79
-0.0246744
-4.75257e-05
0.0390301
0.00225914
0.0145911
-3.40873e-08
-0.00247912
-0.124337
0
0
-3.02897e-09
3.0796e-79
0.0644471
0.0477216
-0.0516907
-5.29968e-14
0.00523516
0.0140389
7.81592e-05
-3.1626e-166
3.0796e-79
0.0489157
0.19931
-2.95965e-11
-0.380912
0.045082
0.0268956
-0.00856226
-0.0327839
0.0333873
0.0358023
0.0433384
-2.38842e-05
1.69962e-166
0.0406016
-2.21737e-05
2.41037e-113
-0.0135125
0.0199571
0.000782376
-0.223672
0.0199834
-0.0325648
0.00559652
0.124689
-0.0306006
0.316683
0.0279925
0.000207981
-0.0930093
-6.91908e-09
-1.3309e-06
1.11165e-321
-1.91963e-06
-0.0524417
-0.0499759
0.0166347
0.0146916
-2.38842e-05
-0.409308
-9.15293e-05
0.000263345
-9.93853e-05
-0.0523941
0.219673
0.0317778
-0.0409282
0.0387073
0.29192
-0.0108312
-1.91963e-06
0.215887
-0.0126534
0.000263359
-4.75257e-05
-0.0265501
-0.0635185
-0.0569745
-2.039e-94
-8.12006e-55
0.0134625
-0.000212254
9.13375e-07
-8.5121e-07
0.0101412
0.0013012
-0.0264497
-0.163598
-3.08149e-07
0.0663894
0.00538357
0.0142029
-0.4074
0.036466
-2.59301e-13
0.00149506
0.0283861
0.0548894
-0.0327137
-1.91963e-06
0.0125013
-0.0638082
-0.0119091
0.018576
0.00542065
0.147483
0.236903
0.171321
0.171321
-0.0564833
0.0362457
0.287612
-0.031698
0.0445682
0.0536647
-1.91963e-06
0.0146916
0.0128047
-1.91963e-06
-5.47505e-06
-0.0289833
0.0561767
0.0319698
-4.72059e-07
0.00637454
0.0230152
0
-0.195407
-0.0294785
0.0963386
4.24896e-322
0.0944275
0.0279015
0.0196101
0.0379364
0.00421702
-0.192449
-0.00493123
-2.93872e-05
-4.75257e-05
-0.0437549
-0.115019
-3.08149e-07
0.164124
-1.91963e-06
-0.0296201
0.0104273
-4.98305e-07
0.433547
-0.0112708
-9.78556e-07
-0.0646045
0.1333
-4.46333e-05
-0.0485803
0.122597
0.0415921
-0.0110739
0
-0.0551185
-1.2693e-95
0.111695
1.11165e-321
0.019681
0
-0.0869231
-0.105751
0.000526216
-0.0105962
-0.0259689
-0.0838664
-0.0230048
0.0149087
-1.26918e-07
0.00253115
0.0294928
0.0320117
0.00315454
0.0323733
-8.63863e-05
-0.0277276
0.00473195
0.0364047
-8.12006e-55
0.00168991
-0.0110739
0.0195948
0.0103875
0.0452812
0.0201559
3.0796e-79
0.00440493
4.14052e-05
-1.16823e-09
-0.0485201
-1.91963e-06
0.0262578
0.0501022
0.00317344
0
0.134655
0.000559729
-0.139957
-0.0252188
0.08115
-1.41777e-05
0.147946
0.0393949
-0.000138284
-3.66796e-05
-4.73408e-14
-0.0692372
0.129896
-0.0127832
0.155223
0.016628
-0.0504988
-5.08888e-322
0.078653
-1.97626e-323
7.81592e-05
0.00426517
0.0631973
0.0130341
-0.025775
0.0171828
0.03903
-0.0532757
-0.0573992
0
-4.59654e-94
-0.11785
-1.1988e-05
-0.026607
0.00477105
-0.0259689
-0.0746551
4.18467e-05
-0.073093
-0.00453116
-0.0445077
-0.0800652
1.25026e-07
-6.22395e-11
-0.0830831
0.00284608
0.00126074
0.0380628
0.0953689
-0.0685049
0.0157771
0.0108591
-3.29689e-05
-0.0882442
0.0373382
-1.87749e-06
-1.91963e-06
-3.49796e-05
-0.0864807
3.0796e-79
0.11979
0.00694527
0.0776701
0.00550128
0.0741078
-0.0903961
-1.91963e-06
0.042228
0.00104201
-0.00724679
3.0796e-79
0.00551629
0.0626852
0.0272605
0.085846
-0.00239575
0.0829795
-4.50225e-09
-0.00705817
-3.29689e-05
0.12984
0.0656427
0.118512
0.0238388
0.00128027
0.0643779
-0.00874754
0.252356
0.0420666
-1.97626e-323
-4.28276e-08
0.0373382
0.0727451
-0.0310322
0.0235958
-0.0016576
-0.0317033
-4.72182e-11
-0.0179475
0.104884
-0.000869017
0.0202952
0.104558
0.001616
0.0167189
-0.0980039
-9.15293e-05
-9.93853e-05
-0.0391633
-0.0568783
0.0903496
0.0164663
-3.86377e-10
0.00171961
-0.0132005
0.00552961
0.0153855
-0.0174269
-0.085136
-0.0204735
-3.34463e-12
0.0922857
-1.69018e-12
-0.0386144
-0.0410159
0.106261
0
-0.0558744
-3.27936e-10
-0.0564158
-0.00834434
0.0994075
2.50663e-289
0.0125013
-1.91963e-06
-0.0312079
-1.46764e-09
0.00694527
0.00256159
-0.0673853
0.0433405
-4.75257e-05
-0.0143165
0.167175
6.98015e-05
0.00329574
0.0287656
0.0139293
-2.92337e-95
0.0790018
-0.0011323
0.00856705
0.0215007
0
0.0727198
-0.00550113
0.105195
0.06004
0.0524457
-0.0246744
-1.35698e-12
-9.15293e-05
0.0101948
-1.99618e-08
-7.64257e-05
0.0542257
-0.00607476
-3.32721e-06
4.77184e-142
0.121114
0.00104825
-9.60997e-05
-4.33166e-05
0.0447607
-0.0790006
0.0275845
0.0598128
0.0158779
-0.0327839
0.00988172
-1.69018e-12
0.0980302
0
-0.148517
0.00274852
0.0547054
-4.82433e-12
0.0202546
0.0220641
0.120959
-0.0372623
-0.00503186
0.121101
0.00110028
-0.0390317
0.0209528
0.0195955
-4.75257e-05
0.0126036
-0.0326715
-0.0585487
-0.0625603
0.00486427
-0.00894042
0.00440493
0.0445228
-0.0409282
-5.47505e-06
-0.027908
0.0373363
0.0523293
0.00024095
-0.0864807
0.0363176
-3.26318e-15
0.0186731
-1.24715e-94
0.0259541
0.0587954
0.0168802
0.0266376
0.00284608
-0.0218969
0.0019458
0.00349709
0.00540153
-1.91963e-06
0.001792
-0.00982141
-9.11298e-10
0
0.0456804
0.0333123
0.0608262
-0.0427164
1.29243e-05
-0.0106693
0.00753756
-0.138271
0.208287
-0.0293774
-1.51355e-05
0.000759276
0.00128027
-0.0110739
-0.124918
-0.0119091
-3.1626e-166
-0.0847635
0.0193302
0.0319525
-0.0448875
0
-0.0653992
0.0155352
-3.32364e-11
0.001616
0.000924073
-2.12717e-09
0
-0.0844712
0.0218881
-0.0264497
0.120203
0.0125013
-6.58046e-07
-0.0264705
0.104243
0.0987369
1.19981e-163
0.0195955
0.0444736
3.74399e-05
-0.0732773
-2.0035e-05
-5.10988e-05
0.0202546
-1.46764e-09
-0.0101743
-0.0198887
-4.84498e-05
0.0811729
-0.0710545
0.0656461
0.0156144
0.00477099
0.0292738
0.0200367
0.0200367
-0.000159965
0.00448128
0
-0.00022854
-1.87749e-06
-2.2992e-05
0.00542065
9.44056e-08
0.0768327
-0.000158921
-0.0178394
0.00622232
-0.260501
-4.75257e-05
0.0151411
0.0130344
-0.0735466
0.0940231
-0.073892
-0.00724679
0.000888997
0.00406348
-0.121357
0.00834855
0.0347611
-1.91963e-06
-1.35698e-12
0.0455583
0.031805
0.00284608
-0.0754106
-2.59301e-13
0.002474
-0.193197
-0.000176353
-0.0546382
-0.0203722
-0.00553847
-0.0911457
-1.38338e-322
0.00147696
0.117462
-0.0469123
-1.91963e-06
-2.17337e-08
-0.0634586
-0.0607904
0.0799313
-1.91963e-06
-0.0907754
-0.0835352
0.019356
-0.0564158
-0.0111603
6.9803e-05
-5.71846e-05
0.052303
-1.13947e-10
-0.0525859
-1.91963e-06
-0.0468234
2.83002e-106
-1.91963e-06
-3.32721e-06
-0.00113233
-4.99319e-06
-0.0641212
-0.0122665
-2.0035e-05
0.0531947
-8.04455e-98
0
-0.00479838
-0.0591815
0.0162934
-0.101195
0
-0.0105589
-0.0110739
0
0.00875364
-0.0569299
0
-0.0416552
-0.031698
-3.29689e-05
-1.91963e-06
0.0371799
0
0.0238789
-0.088675
-1.79892e-05
-0.107706
-0.00550398
-9.7027e-97
-0.294297
-0.00553847
-0.00594202
-1.46764e-09
1.11165e-321
0.0275845
0.0145188
0.0840549
2.14813e-166
0.0613599
0.0265264
0.0262573
-3.00647e-08
0.00257622
-1.78157e-06
-0.0734972
-0.084409
0.0125847
-0.0324256
0.0853397
2.4162e-06
-8.52015e-07
-0.0201367
-0.000869017
0.13238
-0.0325797
-4.75257e-05
-4.91856e-05
-0.00355982
0.104858
-0.0327026
-0.0272661
0.0125013
-0.125235
-0.0337953
0.0211813
1.2401e-321
-0.00266518
-0.0460381
0.0895108
-3.50586e-07
-2.38842e-05
-1.91963e-06
0.0128047
0.0200644
0.0739944
-1.13199e-05
-1.5316e-321
0.0169692
-2.59301e-13
0.0426655
5.4464e-07
-1.78157e-06
-5.47505e-06
-0.0119091
0.00238411
0.113541
-1.16823e-09
-0.0277308
0.0500404
0.0245034
-4.20376e-06
0.000263924
0.00317345
3.0796e-79
-1.75074e-12
-0.0573314
0.29981
-0.120252
0.000115591
-2.75523e-06
0.0254042
0.0200367
-0.107706
0.000522897
-2.44318e-07
0.0314583
-1.91963e-06
0.0125013
0.000237344
0
0.405055
0.0255033
0.002474
0.0659448
-0.038687
0.0195955
0.228641
-2.26433e-06
-0.0943339
-1.38101e-05
-4.97338e-05
0.0100484
-0.0243612
0.00255146
-0.134342
0.00284608
-0.0255635
0
-0.0391019
-0.105263
2.60194e-93
-0.00152903
0.000522897
0.0126551
0.240847
0.0103465
0.109458
-1.91963e-06
-0.120625
-2.05692e-08
-0.00672905
0.00988172
4.24896e-322
-0.0473443
-5.71846e-05
-0.0198652
0.00925356
-0.102734
-2.59301e-13
0.00699359
0.0110855
0.0262578
0.0103465
-2.76954e-08
-4.33166e-05
0.0125013
0.0218185
-0.0615353
0.233626
-6.35143e-05
-0.13811
0.157981
0.00857125
0.0901893
0.0125013
-6.62305e-05
-2.26386e-10
-1.13199e-05
0.00435463
-0.000117937
-8.87907e-05
0.0621352
-0.113837
-0.000164342
0.1315
0.0392484
0.0310113
0.0264132
-0.0101743
-0.0131884
-1.91963e-06
0.0524257
-1.46764e-09
0.000522897
0.0363593
-9.15293e-05
0.0420484
0.202503
-2.12717e-09
-0.0169706
0.0547054
2.76677e-322
-0.0135235
-0.0314849
-0.0382992
0.359567
-9.15293e-05
-0.0744001
-0.0296987
0.0980302
-3.29689e-05
0.0945533
-0.020059
0.0635517
-0.000300887
0.114846
0.0101254
-7.14737e-13
0.0125013
-1.24715e-94
0.0167189
0.054651
0.0994256
-0.0475396
0.0146916
-2.0035e-05
-0.129885
-0.0786092
0.000654356
-0.0940192
0.0862152
-6.28141e-10
0.00477922
0.0292799
-1.91963e-06
-6.84107e-06
0.000263359
-0.0844712
-2.93872e-05
0.115495
0.0500938
3.05545e-79
-0.0291162
-4.33166e-05
-0.0222033
-0.0443148
0.0463364
-1.2693e-95
0.000522897
-8.12006e-55
-0.0229768
0.0268897
0.016538
0.00375667
0.00477105
-0.00834434
-0.0349494
-0.0830462
-0.0830698
-0.0409282
-0.12163
-6.22395e-11
-8.5121e-07
-0.00394561
-1.2693e-95
-1.35698e-12
3.0796e-79
-0.035116
0
-0.000561469
0.0254042
0.0378743
0.00171961
0.0177367
-9.15293e-05
0.0292548
-0.0110739
0.131352
-1.91963e-06
-0.0205699
-3.08149e-07
9.78158e-05
0.122785
4.87216e-06
0.00477105
0.0393402
-0.02645
0.0748099
0.131745
-0.063418
1.7281e-06
0.00834855
-0.0211185
0.0583323
-0.0754106
-0.0264497
1.52172e-321
-0.0131575
0.0657285
-2.07988e-05
-1.18931e-06
0.00697766
-0.0285209
-0.060705
-4.7487e-97
0.209183
0.0506404
0.000522897
-4.28276e-08
0.00640942
-0.00666905
-0.0172334
-5.69342e-05
-0.0590509
-5.49277e-09
-4.48667e-08
0.0433035
0.00464552
0.0594901
0
-2.37649e-05
0.0561547
0.0520336
0.000263359
-0.139013
0.0211254
0.000654356
0
0.000382611
-0.000124865
-6.6685e-05
0.146184
0.0378743
0.00834855
0.0539499
0
0.0195955
3.0796e-79
0.00469946
-4.59654e-94
-0.0522576
-0.00017502
-0.0259689
-0.0105962
0.013363
-4.82433e-12
-9.7027e-97
0.0723798
-0.000133659
0.0687467
0.0136999
0.0979806
0.0481093
0.304415
0.03441
-0.00945343
0.159648
-5.49277e-09
-2.26386e-10
-8.5121e-07
0.00907823
0.0339009
-9.08097e-05
0
-3.39474e-05
-0.0703179
-0.0500161
0.0373382
0.00355531
-0.0692304
-0.031226
-0.0203265
-0.0611074
0.00465567
-0.0419272
-0.000216718
-0.000212254
-1.69018e-12
0.182243
0.0925181
-0.0338683
0.0676375
-1.24715e-94
0.0539418
0.0821745
-3.08149e-07
-0.0897232
0
0
0.000263359
-0.0409855
0.0110375
0.0200367
0.0264132
0.0279015
0.0101884
-2.93984e-07
-0.190572
-0.0226139
-8.52015e-07
-0.037442
-0.0135125
-0.0640282
0.103265
-0.0291539
-0.0496367
0.0275845
0.0285825
-0.000189121
-0.0260332
-0.129559
-0.122871
0.00812506
0.0103465
0.0487409
-0.0104523
-0.00759009
0.0347761
0.00413597
-0.103164
-3.1626e-166
0.0166598
0.0201464
-0.0516907
-0.0639413
0.0523139
-0.0983316
-0.0155905
-5.49277e-09
-1.35698e-12
0.000253273
-0.0406648
0
-0.0169706
-6.01122e-05
0.00807319
-0.197694
1.29243e-05
0.00119977
0.000144797
-0.439716
-3.32167e-05
-1.3254e-05
-0.00524364
-0.09925
0.102938
-0.00924547
-2.85464e-06
0.0799802
-6.01122e-05
-0.0230759
0.0739944
0.0281397
-4.75257e-05
-0.0952742
-0.0446318
-0.117036
-1.82684e-06
-0.0611095
0.00257191
-0.00370064
-2.73423e-09
-0.000190598
0.0195955
1.01283e-321
0.00426751
-0.103529
0.0110911
-0.0848102
0.0727198
0.23821
-0.000205914
-0.046044
-3.45403e-06
-0.19893
0.0127234
0.0516135
0.0163417
-0.0791392
1.19981e-163
0.0560709
0.0935317
-0.0926902
0.0211813
-0.0574315
-1.91963e-06
0.0185931
-6.35143e-05
-0.0327633
-6.22395e-11
-4.09157e-05
-1.46764e-09
0.0336989
-0.0880252
-0.00890069
-4.75257e-05
-0.0308863
-0.0323511
-0.0352462
-0.0487574
-0.0267873
-1.69018e-12
0.051159
0.00107941
-1.30984e-13
0.00238411
-3.08149e-07
0.000851734
-0.00410517
0.0312551
-0.0160821
0.00477105
-0.0776446
-0.0110739
0.0395259
0.031827
-3.94685e-05
0.00103157
-0.0205778
0.00236507
-3.06955e-05
-5.47505e-06
-6.21246e-08
0.0565464
-1.69947e-06
0.00350371
0.000463066
-0.0481492
-6.6685e-05
-0.000150951
0.0506239
0.0725515
-2.75523e-06
0.026286
-1.74672e-10
0.0282345
0.000522897
-2.59301e-13
0.00087565
0.0433536
0.0325134
-0.00808892
-1.91963e-06
-0.0740043
-4.59654e-94
-0.174232
-2.38842e-05
0.000524659
-0.0129132
1.53654e-321
0.0316819
0.0117018
-0.0490251
-0.0578579
-0.0580311
0.0125013
5.4464e-07
0.149668
0.030238
-2.76552e-09
-4.59654e-94
-0.0445565
0.0418681
-0.031698
0.0026473
0.0613599
-0.0406642
0.000463066
-0.0440451
0.195923
0.00147729
-0.0437975
-3.49796e-05
-3.08149e-07
0.100161
0.0647274
2.39583e-93
0.0444972
0.161433
-0.0503796
-4.48667e-08
-0.0213681
-0.0876214
0.100161
0.0768327
-0.0527071
-1.91963e-06
-0.0264497
-2.07988e-05
-0.0659049
0.00988172
0.000525975
-0.224768
-1.88325e-05
-0.0615483
0.0628974
0
-0.0291979
0.00857125
0.0503166
0.212251
-0.0603833
-6.01122e-05
-0.000160383
-0.0646615
0.01763
0.0211813
-0.0435261
-0.0101693
-2.52338e-97
0.0255033
0.0154643
0.0599389
1.11165e-321
2.83002e-106
-0.101552
0.000522895
0.210845
0.000263359
-0.11505
-0.016939
-1.06763e-14
-5.47505e-06
0.0176783
-0.0246299
-1.69018e-12
0.0101948
0.229116
0.0268845
-0.000117937
-9.35049e-05
0.00974747
0.0420666
-0.0296987
-0.0253769
0.0174441
-0.063639
-1.91963e-06
-3.29523e-05
0.013855
-7.58331e-07
0.000886239
-4.75257e-05
-3.34463e-12
0.000863824
-4.75257e-05
0.0700288
-0.0115669
-0.00945343
0.06336
0
0.161826
0.137605
-3.16178e-08
-9.11298e-10
-0.0636739
0
-0.0478888
-0.0913904
-0.0143133
-2.93984e-07
-0.0220497
-5.66527e-06
-0.035116
-0.0480622
0.0444995
-0.00550113
-0.124215
-0.069368
0.0373382
0.110129
0.00093255
0.224839
5.95104e-05
-0.0461207
0.0108167
-0.0104523
0
-0.0265725
-0.0259689
0.0103875
0.0503388
-0.037442
0.0153825
0.0580141
0.0433405
-0.0229503
0.0565464
0.0117937
0.00510453
-0.0879237
0.0709781
0
-0.0290919
-0.0110739
3.30999e-05
0.0629135
-0.0311627
0.0013469
-3.29689e-05
-1.78157e-06
-6.44489e-05
0.0167965
-0.158484
-0.000227249
-0.000261806
0.0265219
-0.000160383
0.0459551
0.000420353
0.0528842
0.0824459
0.0319698
0.00932377
-5.08888e-322
-0.02645
-0.0349629
-9.18473e-05
-0.0870398
-2.59301e-13
-0.00013724
-0.0277197
-0.0623683
0.0348903
0.0594901
-5.88167e-05
-0.128428
-0.0522503
-0.191287
0.015087
0.0263528
-0.0635252
-3.29689e-05
-0.0583646
-0.0437975
-0.0509607
-0.0982925
0.0043283
0.00477105
-0.0242194
-0.0204719
-4.84498e-05
-0.0192143
-0.0152018
0.0594901
-5.47505e-06
0.117932
0.0710033
-0.0568427
0.0871838
-0.000212254
-0.0734861
-0.0562298
0.0211813
-7.31796e-05
-0.027908
0.0292743
-0.0258937
0.13889
0.0125013
-4.73408e-14
0.0547054
-0.0964189
0.0689058
0.0130341
-0.0542535
-0.000180406
-9.35049e-05
-2.74316e-06
-1.46764e-09
-0.0430444
-4.75257e-05
-0.344846
-0.084409
0.00326978
-0.0104523
0.0196961
-0.0242959
-0.00406024
-0.000141964
0.00425617
-3.92123e-06
-0.0334823
-0.00550113
0.0484075
-0.0389889
-2.78473e-14
0.0201464
-1.18503e-07
0
0.0602274
0.0493204
0.00974747
0.0263824
-0.00550113
-1.24715e-94
4.77184e-142
-0.0104523
0
-0.0108654
0.0698197
-0.0355964
0.0300041
0.128551
0.00747954
0.0318486
0.0747104
-0.131745
1.19981e-163
0.00238418
0.0125013
-0.0106325
0.00553321
0.0331028
0.00538316
0.0857065
0.0828989
-8.87907e-05
0.0354763
0.00211187
-2.15475e-13
0.0309447
0.00655779
-4.53037e-08
-0.100276
0.0043283
0.0501167
-1.46764e-09
9.68379e-05
-2.71218e-10
-0.0605465
0.0166347
-2.07988e-05
-0.000176353
-4.99319e-06
0.0195955
-0.000224656
0.0238747
-2.46474e-05
0.210707
0.0333123
-0.0680346
-0.00724712
0.0391156
-0.0925931
0.0450973
0.0232174
-1.1988e-05
-0.112131
-2.95965e-11
0.00172134
-0.202565
-2.58704e-05
-0.0174269
0
-0.0157886
0.0248605
-0.0073247
-9.7027e-97
-0.0571125
-0.0496631
-0.000205914
0.0108811
-1.91963e-06
-3.02871e-09
-0.0191872
0.0298781
-0.0543579
0
-5.48413e-322
-0.0455803
-0.00550113
0.2493
-0.0533485
0.00974747
-2.38842e-05
0.110172
-0.105059
0.304541
-3.29689e-05
-0.000869017
0.0118443
0.000522897
-1.24715e-94
-6.01122e-05
0.0350022
1.04742e-321
0.0431295
-1.3992e-05
-1.16759e-08
0.145581
-2.0035e-05
-5.40951e-07
0.0663894
0.00503684
-0.0202309
-0.00438258
0.212493
-0.157224
-0.0535889
-0.0390303
-2.71218e-10
-0.0192143
0.000522897
0.0768327
0.113031
-0.169872
-8.12006e-55
0.00667624
-2.73423e-09
0.0179574
1.19981e-163
-1.69018e-12
-0.15695
0.0157771
-0.131979
0.06004
0.00477837
0.00540155
0.0338473
0
-0.0418799
0.0341644
0.00993373
0.0109104
-0.0100437
0.0130341
0.113281
-0.408631
0.000525975
0.0676375
-2.95965e-11
-7.84584e-05
-0.0111586
-0.0477466
0.073379
-1.11995e-14
0
-0.0696014
0.0118856
-2.38842e-05
0.0518272
-0.0123964
0.0264312
-0.0414993
2.40551e-07
0.00988172
-0.0882651
0.00117454
0.0260979
0.0055252
-2.93984e-07
-4.28276e-08
0.0411732
0.153076
-0.0180729
-0.0433758
0.0785232
-0.00590966
0.134695
0.010887
2.76677e-322
-9.18473e-05
0.162484
0.00413597
-0.023078
-0.0616275
0.0757837
0.076992
-0.0110739
-0.174568
-0.0110739
-1.91963e-06
0.0432786
0.0864921
0.0887392
0.0420484
-0.0389889
-1.08795e-05
0.022945
0.0195955
-0.0515134
0.226415
-4.09157e-05
-1.01502e-12
-0.0258919
0.00413597
0.0609807
-1.69947e-06
-0.0255392
-0.056598
-0.0682049
0.0125013
0.0753367
0.00172134
-0.0880252
0
-0.0526473
-0.126243
-0.000214173
0.00104736
0.0213151
0.0329821
0.0695029
-0.062122
-0.00103209
-0.0844712
2.76677e-322
-0.105234
0
0.05116
0.0239247
-0.000124865
-0.0699903
-0.0324256
-0.0246744
-3.45403e-06
1.71844e-166
-0.0887261
0.000522897
-0.0122705
-0.00546673
-0.00982141
-0.00550113
-4.73408e-14
-0.0218539
0.0316819
-9.60997e-05
0.0844562
-2.71218e-10
0.000748598
1.51678e-321
-3.51186e-06
0.000135027
0.0226295
0.0346087
0.0585301
6.32374e-08
0.0699177
0
0.0281679
0.035664
-0.0303214
0.000370938
-3.30788e-05
0.0827327
-0.0351377
-0.0447784
0.00115854
-3.29689e-05
0.0211154
0.016538
-3.27936e-10
7.81592e-05
0.0392465
0.0259541
3.0796e-79
0.000118931
0.0310179
0.0813688
-9.18473e-05
-5.59155e-06
0.0157771
0.0118614
-9.78556e-07
-0.265282
-1.30984e-13
0.00477922
-3.07051e-12
-0.0904988
-7.80125e-06
0.00421702
-4.33166e-05
0.0251537
-0.0531148
-0.0229496
0.00168991
-2.71218e-10
-6.84107e-06
0.00477105
0.0238748
0.131745
0.0583924
-3.29689e-05
-0.00564675
0.0302156
-2.57824e-05
0.0986739
-0.0312526
-0.00759009
-0.0658159
0.000153737
-0.0230958
0.133431
-0.00550113
-3.29689e-05
0.00103157
0.0547054
-0.0410171
0.0275845
-0.0350146
-0.0265605
-4.82695e-06
0.0447309
0.020745
-0.0486548
-0.000687318
0.00553321
-0.0171954
0.0898321
0
0.0853374
-0.0833842
0.118597
-0.0797817
-0.00827951
0.0739278
0.0555918
-0.0740043
0
0.0352804
-0.127768
-0.00786098
0.0272656
-1.46764e-09
-0.000122755
0.159499
0.00985044
-0.0264925
0.0596557
-0.139259
0.107608
0.258407
-0.0101746
-1.69018e-12
-1.04742e-321
0.0103875
-0.0482615
-0.0257953
-1.91963e-06
0.000103539
0.0375421
7.56848e-05
0.0320126
-0.0833842
-1.91963e-06
-0.00117774
0.0354006
-0.0224861
0.0263881
-3.4841e-06
-1.06763e-14
-0.0142029
0.0203767
-4.20376e-06
-0.0363703
-0.0460774
0.0298781
-0.0751417
0.173621
-0.0202884
0.0433536
0.0684067
-3.08149e-07
0.0312526
-0.0306666
-0.000869017
0.186118
0.146532
-0.0184871
-0.0173576
-0.0119091
-3.49796e-05
0.0186536
-0.0533511
-9.13432e-05
-4.09157e-05
-0.0314006
-0.0217602
-3.91028e-05
0.0350932
0.00553321
0.059862
0.00325712
0.0151893
0.0583924
0.0145966
0.00173316
0.00128027
0.12598
-0.120577
-0.0734357
0.0144058
0.0264132
0
0.0348138
2.60194e-93
-0.00180338
0.0271936
-0.00400289
0.00100952
0.0061728
-9.08097e-05
-0.0787305
0.00852162
-4.64255e-06
-0.00406024
0.0197924
0.0513022
-3.29689e-05
0.0513022
0.311124
0
-0.0200348
0.0619562
-0.0324256
-0.0660207
4.39718e-322
0
0.181536
-1.91963e-06
-0.0132005
1.14623e-321
-0.0232462
2.40551e-07
-9.08097e-05
0.0157771
1.29243e-05
-1.2693e-95
0.0402521
2.14813e-166
-3.03503e-08
-0.00724679
-0.0508253
0.291091
0.0331028
0.00135385
-0.0514817
-8.61462e-07
-2.88774e-05
-0.100202
0.0111365
6.69382e-166
0.0202074
0.0763909
0.092033
-0.0444845
0.00406348
0.00918291
-0.000215223
0.00465567
0.0721123
-0.0910072
0.112948
-0.0903658
0.0601008
-0.143456
-1.34295e-08
-7.50114e-97
0.0561802
0.0316648
-1.91963e-06
-0.112405
-5.11265e-07
-2.06871e-12
-0.0196442
0.00890158
0.0836404
-0.017475
0.217947
0.0676375
0.000283932
0
-0.0547271
0.0769983
0.001616
-0.0462409
-0.0694245
0.0744412
0.000522897
0.031827
0.0115792
0.0057033
0.0277411
9.44056e-08
-0.0747631
-1.78325e-13
-1.35698e-12
-3.29689e-05
0.119079
8.19314e-166
-0.00111328
-0.00503186
0.142145
0.146156
0.0124225
-0.0498902
0.223636
-1.18882e-06
3.0796e-79
-0.064494
-0.0363787
-0.000869017
-0.0183
-4.28276e-08
0
-4.59654e-94
-0.054579
0.0350926
0.00339718
-0.0352621
0.0389561
-0.0682192
0.125215
0.0266376
-1.91963e-06
0
-9.7027e-97
-0.0153121
-0.0543579
-3.34463e-12
1.69962e-166
0.0158779
0.0116284
0.0101884
-4.72059e-07
-9.13432e-05
0.0721088
-2.38842e-05
0.0472957
-0.0516907
-0.0860177
-4.99319e-06
-0.0765094
0.000522897
0.0350932
0.0165106
-1.66558e-06
-0.0217602
-3.07051e-12
-0.0327633
-9.86363e-05
-0.0420744
0.0733977
-0.0282841
-0.0422505
-0.0269292
-3.07051e-12
0.18924
-0.174808
-2.06494e-08
0.0473383
-0.0720231
-3.27749e-06
-3.72666e-05
-1.84279e-06
-0.118675
0.0128047
0.0282555
-2.07962e-05
-1.1052e-10
0
-0.0639156
0
0
0.00953596
-2.05484e-05
0.0298781
0.000559729
-0.0325648
0.00147696
-0.000319914
-0.063639
-0.0355583
0.000434106
-0.0482825
-0.0129037
0.000153855
-0.0983451
0.0980302
0
0.00834855
-2.75523e-06
0.0856581
-6.44489e-05
0
-0.105064
-0.092089
0.0718625
-0.00114947
0.0676375
-0.00404068
-0.0611074
0.162324
0.0195955
0.00477105
0.00435463
0.0565279
0.0201559
0.0713049
-4.73408e-14
0.0409865
-1.38231e-05
-0.0224236
-0.0469123
-4.82433e-12
-1.11995e-14
-1.46764e-09
-0.0538393
-0.00672905
-0.0926572
0.00172134
0.0844973
-4.82695e-06
0.0420666
-0.125576
-1.30984e-13
0.0626478
-0.0258937
-0.0748647
-5.18199e-05
0.00174471
-0.017111
-0.0461842
0.0264132
-0.0424434
0.0633589
-4.54637e-07
0.0712424
-6.46727e-10
0.103552
-0.0352262
0.000491202
0.120066
-0.121256
-1.69018e-12
-0.00739299
0.0185931
-3.29689e-05
0.00111274
0.0378743
-0.0475201
-0.0782335
0.0118443
-0.000869017
0.0470904
-0.0094931
-0.0169706
0.144343
-0.107808
-0.0172334
0.0141124
-0.10315
-1.74672e-10
3.77733e-166
-0.0415505
-1.58436e-06
0.0633756
0.0157771
-0.0157397
0.0585144
0.203637
0.0955967
-1.2693e-95
-0.0603558
-0.00936948
-0.0471147
-3.72666e-05
0.0206628
0.0843576
0.00834855
0.223636
0.107064
9.28843e-322
-0.0733564
-0.0208269
0.0600687
-0.0495995
0.0125013
-0.0149363
-4.83244e-06
-0.107571
0.0584747
0.04162
-1.04742e-321
-3.07051e-12
-0.0475201
0.0318486
3.0796e-79
0.0265201
-1.3309e-06
-0.0481416
0
0.0474724
0.000759276
-6.01122e-05
0.00588367
-3.08149e-07
-0.0542106
0.183085
0.00469946
0
0.0350932
-9.61636e-15
0.0381792
0.0660514
0.0298781
0.0275845
0.0844638
3.0796e-79
0.0123481
0.0201559
0.0670237
-0.0323511
-1.87749e-06
-3.29523e-05
-0.011192
0.0299804
-9.61636e-15
0.05116
-5.10988e-05
0.0398933
0.139881
6.9803e-05
0.0348823
-0.0903552
0.000522826
-0.0259689
-0.108607
-0.0518088
0.0427
-0.0264497
-0.0400727
-0.0232462
-0.0277197
0.000454625
0.000522897
0.0298781
-0.0927311
-0.0564027
0
0.034784
0.0291977
-0.0327633
0.00351176
-0.0287903
0.000486236
0.0320117
0.154139
-0.0443454
-2.75523e-06
0.00435463
0.0473543
-0.044858
0.000463655
0
0.0410047
-2.76954e-08
0.0780506
0.35061
-9.93853e-05
-0.0110739
-2.37553e-05
0.0654525
0.0191338
3.0796e-79
-0.0657451
0.025831
-0.0285193
0.0399546
0.00653267
-4.60335e-06
-0.0254816
-0.0987868
1.01778e-321
0.00834855
0.100576
0.0562827
0.0275244
0.0531947
0.087955
0.0303935
4.24896e-322
-4.72059e-07
0.0146916
-0.0428385
-0.0174269
-0.0110739
-1.30984e-13
-3.07051e-12
-3.92297e-07
-0.0169706
0.0222931
0.077415
-1.80347e-06
0.0165773
4.87216e-06
-0.085118
-8.52015e-07
0.0431813
-4.82695e-06
0.0835814
0
-2.44318e-07
0.0634435
0.168908
-0.0110739
-0.0314048
-4.64255e-06
1.53654e-321
-0.0400825
-0.0568274
0.153235
-1.84367e-05
-0.026607
-0.0315797
3.05545e-79
0.0220857
0.085992
-0.0386187
-0.11312
-0.000123388
0.00657494
0.0118443
-0.00868565
-3.27936e-10
-0.0320069
0.123053
0.00235223
0.026982
-9.7027e-97
-0.0428826
0.0994919
-0.0599961
-0.0487092
0.0118443
-0.0976129
-1.24715e-94
-5.47505e-06
-9.81202e-95
0.132623
0.0101884
-0.037442
0.0689331
0.00448128
-4.75257e-05
-2.11437e-09
0
-1.18931e-06
0.0117937
-0.0338707
-2.85464e-06
0.0264132
-0.00765388
0.060274
-6.44489e-05
0.0332489
0.00233385
-0.0237855
-4.33166e-05
-0.241204
0
0.000559729
0.0156144
2.83002e-106
-0.129924
0.0635124
0.116133
0.031366
-0.0876289
0.016538
0.0765882
0.116133
0.00332923
0.0737882
-0.0590121
0.0348093
-3.91028e-05
-3.08149e-07
-0.0632701
-0.0803949
0.0665121
0.0723743
-0.000145619
-0.243868
-0.0733682
-4.75257e-05
0.0157771
0.00156498
0.0282345
-0.0497342
0
0.0539499
-0.00759009
-0.0886457
0.00988172
-7.22773e-06
-0.0350814
-6.03083e-06
-4.33166e-05
-0.0277197
0.00516149
0.0449164
0.0424704
-0.0911368
0
-0.0882651
-0.240281
0.0739044
-0.0201694
0.0363593
0.0378611
-0.206173
0.109337
0.00519598
1.53654e-321
0.111243
-0.0516907
-1.18503e-07
0.0411812
-0.108607
0.000536235
0.0776413
-0.100622
0.0236235
-0.0222593
0.0373382
-2.74316e-06
0.0561312
0.00047958
-0.0750117
-0.0903961
0.0678333
0.00168991
0.142567
-0.0180729
0.0857821
-0.000687318
1.19981e-163
-0.00722174
0
-0.0400465
-3.29523e-05
0.0215334
-8.12006e-55
-0.0449205
-0.0944539
-0.0822462
-3.16178e-08
-3.29689e-05
0
0.0420484
-5.50116e-06
0.0420666
-0.0746401
-0.0118238
0.0167242
0.0265219
0.0363593
-4.99319e-06
0.00219671
-9.58487e-322
-2.59301e-13
9.7825e-322
-1.80347e-06
-1.91963e-06
0.002474
0.0709725
0.0459765
-0.0475574
-0.0529739
-0.0782198
0.0432787
0.119288
-0.0475201
-6.65951e-05
0.0867893
0.0634435
-0.0289833
-0.10596
0.0445416
5.21854e-05
0.0281031
0.0424704
-1.46764e-09
0.0282552
-0.0641212
-0.0911072
-0.000105983
-9.78556e-07
-0.0821529
0.0142029
-1.23648e-08
-0.0605294
-2.2992e-05
0.0635565
-1.46764e-09
-2.73423e-09
-1.94386e-05
-0.0351377
-2.38842e-05
-4.75257e-05
0.0101271
-0.0427164
-0.0369273
-1.06763e-14
0.00274852
-1.2693e-95
-0.0603558
-0.0405445
-0.0452433
0.111507
-0.0187524
-4.75257e-05
0.000124419
-7.57826e-07
-0.0177463
-0.0259689
0.0257783
-2.93984e-07
-0.0437975
0.0444556
0.0232132
0.00125043
0.0579036
0
0.0378493
0.0234201
-0.035116
-0.102872
0.0264132
0.0373382
-0.0528797
-0.00553847
-0.0326719
0.0140905
0.0130341
-0.0720064
-5.33476e-06
0.011412
-0.00508449
-0.22178
-5.40951e-07
-0.000163563
-4.84498e-05
-1.91963e-06
-0.0304968
-0.0319462
-6.31716e-05
4.25934e-05
0.0333123
-0.102628
0.0145966
-2.71218e-10
0.0547175
-9.18473e-05
0.00469946
-0.076363
-4.87284e-156
0.0265264
-0.123001
-0.0180729
0.0562619
-0.0635571
0.0420835
-0.0429959
0.160071
-0.00138248
-0.00856226
0.00469946
-0.000227249
0.00018059
-0.0246744
0.0212469
-0.0290919
0.000525975
0.0105036
-0.0543053
0.00123935
0.0943343
0.0128047
0
-0.00410517
0.085846
-0.014005
-0.0192143
0
0.00993373
0.177653
0.00208799
-0.024658
-0.0538489
0.115569
-0.00411834
0.0255033
-0.00776618
-2.22149e-08
-0.0385739
0.0223966
-0.0123255
-0.0352462
0.0759043
-7.7359e-11
0.149213
-0.0476878
0.0223966
0.0342039
-1.26918e-07
-2.44066e-05
-7.84584e-05
0.0046531
0.164486
0.000352139
-0.000159442
-0.0614099
0.0267452
-0.0259689
0.00766431
0.0494359
-0.0646045
0.0617855
0.0350582
-1.53721e-14
-4.75257e-05
0.0347799
0.00516149
-3.29523e-05
0.00564949
-0.0300872
-1.91963e-06
0.00430775
-0.0160931
-1.2103e-05
-6.65951e-05
-0.0458177
-0.111605
0.0177367
-0.000145619
-0.0169724
-6.22395e-11
-0.00192406
0.191195
0.0364473
0.00473195
-1.75074e-12
0.00174471
-0.0126485
0.0522389
0
-0.0515826
-0.00739299
-0.0515064
-0.157555
8.26651e-93
-0.113971
-0.0441059
0.000153855
-0.0305028
0.00148142
0
0.107731
0.380743
0.0554099
0.0501307
-0.0931519
-9.18473e-05
-0.0355583
0
-0.0446377
-0.0110739
-1.03915e-05
-0.0697315
-9.18473e-05
0.0664486
-0.0370384
0.0287743
-0.0258249
-3.79254e-08
-0.200635
-0.0394444
0.0187684
0.00168991
0.000924073
-0.255561
0.00451848
-0.016579
-0.0427494
0.00087565
-0.000225406
-0.149697
0.0756108
-2.05484e-05
0.0185931
-4.75257e-05
-0.00701485
0.00655779
0
0.000680417
-2.06871e-12
0.0348093
-2.26386e-10
0.000263359
-5.10988e-05
0.0314583
0.041036
-1.86615e-06
0.000522897
-1.3309e-06
-2.44066e-05
-1.7719e-09
-0.0406639
-0.0603576
-0.000260703
0.0118443
0.0416769
-1.2693e-95
0.0609299
-3.07051e-12
-0.0229514
-8.12006e-55
-0.0181158
-0.325074
0.053714
3.0796e-79
0.0328307
0.00128027
0
0.0290563
0.0314678
0.106492
-1.69018e-12
-0.118108
-1.36382e-06
0.0320117
-0.0383645
0.00830524
-8.52018e-07
0.0350932
-0.0246744
0.0288308
0.0318486
-0.00597127
-0.042191
0.000167675
0.000931155
-0.0208394
-9.7027e-97
0
-0.0275618
-8.5121e-07
-1.77666e-83
0.137157
-0.0489741
0.0960925
-0.0643624
0.000361517
0.0301066
0.000463427
-9.7027e-97
0.00118522
-0.0526643
0.0662012
-9.7027e-97
0.00087565
-2.40544e-10
-0.0641183
0.0169353
-1.84367e-05
0.026364
0.143948
0.0253712
-0.00887813
0.00477105
-0.0691302
0.0655787
0.115354
-0.0294785
-0.038845
1.51678e-321
-0.0873363
-2.05575e-06
0.0085908
0.0745832
-0.0354585
-0.0611251
-1.24021e-05
-0.0453013
8.84378e-322
-2.93984e-07
0.0262643
-0.00550113
0.00199633
0.0420666
-0.0246744
-0.00551937
-2.92337e-95
-0.319147
0
-8.13274e-07
-1.35698e-12
6.19871e-06
-1.91963e-06
-0.00808892
-4.98258e-07
0.0512935
-0.0469382
0.0619416
-0.000134924
0.0894337
0.0168905
-0.0955171
-0.00572114
-0.0516691
0.0246744
-3.31007e-10
-0.000227249
-1.29942e-10
0.0663894
-4.75257e-05
0.0844973
0.0670153
-1.04742e-321
-6.28231e-07
0.0709241
0.00540155
-4.75257e-05
1.10041e-05
-0.0246744
0.010887
-0.013457
0.0628974
-1.24715e-94
0.0641477
0.0146916
0.0168946
-2.05053e-06
1.19981e-163
-2.26386e-10
0.0103875
-0.0729365
0.0297984
0.0910326
-0.143439
-0.118313
-2.23806e-05
0.0862714
0.258899
-0.0264497
-0.0264913
-8.5121e-07
-7.64617e-06
0.0544426
-0.128205
0.0993902
0.0195932
-0.069661
0
0.00694527
0.181288
-0.0728791
0.0200567
-0.0802672
0.0541547
-0.0492315
-1.08795e-05
0.0073758
0.030537
0.0766591
0
0.0120581
-0.0631555
-0.047436
0.0994075
-1.91963e-06
0.00977223
0.039055
0.0966583
-4.19956e-322
-6.01122e-05
-0.0159534
-0.0154921
0.0315281
0.00301658
-0.189158
0.0067991
0.101474
0
-4.84498e-05
-0.027908
-0.0188365
-7.50114e-97
-0.0110739
0.0371802
0.0513503
0.123794
0.0320126
0.000185702
-0.038687
0.00024095
-0.182895
-0.100782
0.140278
-0.077849
-0.0767903
-0.0110739
0.158701
-0.000869017
0.0420666
-0.04977
-2.75523e-06
0.0324627
-1.24715e-94
-5.10988e-05
-0.011111
-2.76552e-09
0.0760685
-0.0275914
0
0.00834855
-0.0631051
0.0298781
-1.46764e-09
0
-2.44682e-10
0.0420666
-0.112734
0.00551629
-3.16178e-08
-0.0915601
0.0417002
0.109474
0.00695817
-1.2693e-95
0.0574423
-0.105059
-4.75257e-05
0.0663645
-4.84393e-05
-0.000222071
-0.0315531
-0.0160821
3.0796e-79
-2.71218e-10
-0.0492307
0.00767423
0.00128027
-0.121448
2.16725e-07
-3.29689e-05
-4.65681e-12
-2.38842e-05
-0.0362905
-1.26918e-07
0.0255033
-0.0477344
0.0119145
0.0450973
-5.18199e-05
-1.66558e-06
-0.0566167
-0.0109761
1.01283e-321
-0.0010432
-0.0872038
1.69962e-166
0.0560067
-1.46764e-09
-0.00132234
-0.053544
0.0265043
-0.0468234
3.0796e-79
0.0158779
-1.13199e-05
0.0043236
-0.0502872
-0.0646045
-4.82433e-12
0.0719263
0.0101282
-0.0318253
0.0232582
-0.0760383
0.00622048
-0.0390303
-1.91963e-06
0.225571
-4.60335e-06
-0.0122705
-5.00755e-05
-9.61636e-15
-0.0434522
-9.08097e-05
0.00550128
0.0418604
-0.0275586
3.14648e-05
-0.0406639
-6.91908e-09
0.219598
-0.0469123
0.00814084
-0.0195832
-0.0352462
-1.91963e-06
-0.0163917
-0.0523938
-1.51355e-05
-0.0659049
-0.0167887
3.0796e-79
-0.0481231
-0.00449079
2.14813e-166
0.17346
-4.33166e-05
0
0.00953596
0.0158777
-0.0290919
0.000811348
-0.0311033
-0.0242792
0.0979806
-0.0335111
0.00695221
0.0363949
-4.72182e-11
0.0621352
-0.0622068
-0.0334058
-0.00724679
0.0330834
-1.08795e-05
-1.91963e-06
0.00173316
0.0203435
0.0109104
0.104243
0.0275845
-0.0806329
0.11942
-0.0553246
0.0365536
0.0125013
0.0309353
-0.0417394
0.0211813
0.29931
-2.93984e-07
-0.0406639
-1.26918e-07
-0.000199744
-3.27936e-10
-0.107678
0.0626688
0.00448128
0.0260049
-0.0141257
-8.12006e-55
0.0651142
-1.04742e-321
0.0121207
1.22319e-07
0.0228599
-0.152848
-6.54073e-05
0.0188314
-0.0830462
-1.18503e-07
0.0497106
-4.75257e-05
1.51678e-321
0.132224
-1.38231e-05
-9.61636e-15
0.0636605
0.000577211
-0.0363294
-0.173548
0.00694527
-0.036029
-4.84393e-05
-0.0640282
-0.0281748
0.0584747
0.0267686
-9.11298e-10
-0.0508253
0.0420666
0.0105524
0.0970843
0.00479986
-1.18503e-07
-0.0516491
-5.49277e-09
-2.44682e-10
0.0550282
-0.0232253
0.000334041
0.0420666
-0.0527827
0.031827
-1.91963e-06
-9.61636e-15
-9.78556e-07
-0.0299516
-2.039e-94
0.0294355
0.0622152
0
-1.13199e-05
-1.62456e-10
-2.75523e-06
-0.102546
-1.46764e-09
-0.176195
-9.7027e-97
-0.0143165
-0.069661
0.00149487
0.0674023
-0.020059
-0.0016576
-0.00550113
0.0326064
-9.78556e-07
-1.91963e-06
-0.0899062
0.0285545
-0.0697315
-0.0147129
0.0186536
0.0358101
-0.000158921
0
0.00767426
-0.0327227
-0.0277252
0.0648903
-0.0666025
0.0651069
-0.00724867
0.0121088
0.00448128
0.0292548
0.113595
-4.7134e-08
-0.0754563
-3.26318e-15
5.4464e-07
-1.99618e-08
-0.137818
0.0506404
0.00974747
0.000997635
0.00238411
0.00421702
0.0120473
-0.0015335
0.0364084
0.00974747
0.00427985
0.0125013
-1.91963e-06
0.00693202
-4.73408e-14
0
-8.63863e-05
-0.0414344
-2.38842e-05
-1.91963e-06
0.000923254
0.050575
-0.0615997
-0.0330906
-0.000176353
0.137703
-2.69445e-07
-0.0138411
-0.0476875
-0.303027
-0.106107
-8.5121e-07
-6.46727e-10
-4.75257e-05
0.0146491
-0.000227249
4.25949e-05
-0.0211185
0.0451902
-1.38338e-322
-0.0565187
0.044237
0.0895237
-1.91963e-06
0.00168991
-0.0721824
0.0450973
0.018028
0.033591
-9.45079e-08
0.0125013
0.0125013
-0.0259689
0.0562509
-0.00615084
-0.025098
-0.0507388
-0.000687318
-2.75621e-05
-1.91963e-06
-4.94904e-05
-0.349785
0.300469
0.0013469
0.117547
0.0410897
0.00239519
0.00435463
0.0224038
-8.12006e-55
-0.0864807
0.0501943
-0.0709762
-1.18503e-07
0.0526023
-0.00988964
0.112481
-3.51186e-06
-0.0113328
-0.000145619
0.00107014
-0.0403018
-0.179688
1.19981e-163
-0.0186195
-0.0192143
-0.0110739
0.000463655
0.00361998
3.74399e-05
-0.158781
0.0598863
-0.00776618
-0.0241063
-0.0556652
-9.7027e-97
-3.32721e-06
-9.7027e-97
0.0747391
0.0487119
-0.0433756
0.0962093
-0.000100273
0.0298773
0.0129093
-0.0174559
0.00152703
-0.000212254
-0.0218969
-0.0521669
-0.195876
8.86394e-05
0.00655755
-0.0170093
0.00413512
-0.0352462
-8.87907e-05
0.0732296
-0.00154906
-1.75074e-12
-2.58701e-05
0.0431813
-0.0205645
0.00414238
0.0712424
0.0309353
-2.93872e-05
1.03754e-321
0.0127023
0.00220268
0.00477922
0.0177367
0
-0.045232
0.00413597
0.0141021
0.0769146
-8.12006e-55
-3.30958e-05
-0.0170241
-0.000176353
0.0357548
0.0117269
0.0175
0.00691387
-1.3254e-05
-6.28231e-07
0.0723424
0.184731
-2.75523e-06
-4.48667e-08
-0.0565187
0.00416036
-0.000246389
-3.32721e-06
0.0265264
-5.86386e-05
0.0787077
0.0276243
-0.0534704
-0.0643624
0.0320117
0.0185931
5.95104e-05
-1.1988e-05
-0.0211185
-0.0504921
0.0529526
-0.0299881
-0.0495403
-0.000160383
0.0907458
-0.13964
-0.00244371
0.00447568
0.0371375
0.00448128
1.7281e-06
-5.47505e-06
1.51678e-321
0.000654356
-1.18882e-06
-0.0436607
0.0300041
0.000535694
3.0796e-79
-0.0542535
0
-0.0259689
0.0043283
-3.57575e-08
-0.0214361
0.138906
-5.25647e-07
-0.041427
0
0.0101282
0.000924073
0.00330989
-0.0409287
0.0459935
-0.0324256
-0.0292154
-0.0149363
-0.0279774
0.00173316
0.0375421
-0.0582264
0.281591
0.011612
0.031827
0.0117937
-6.31295e-05
-3.07051e-12
-6.11182e-08
-0.102536
0.114557
0.0103875
1.19981e-163
-0.28893
-0.014483
0.00304073
0.0794076
-2.06871e-12
-0.0609345
-3.41577e-05
-1.24715e-94
0
0
0.00663926
0.0528842
0.076992
-0.00924547
-0.0496367
9.55125e-05
0.00358054
9.55125e-05
-1.97626e-323
0.00830524
-0.067466
-0.0623385
-0.0933837
-0.0320985
-0.00289251
-0.079372
0.024377
0.0396919
0.172107
0.0479164
-7.58331e-07
0.0130777
0.151563
-0.0323511
-0.000145619
0.0556369
-0.00550142
-0.0646045
-0.0246744
0.0599178
0.120684
-0.0487855
0.0881549
0.00546416
0.0158294
0.0070961
0.00168991
-1.78157e-06
-0.0679187
0.138802
-7.58331e-07
8.26651e-93
-0.0277197
0.0231021
0.00722406
-6.65951e-05
0.0100873
-0.000141077
-0.0343
0.0328289
-6.01122e-05
0.0294797
-0.0720143
0
0.0433035
0.0878941
-1.51802e-12
0.059469
-5.18199e-05
0.0127076
0.0554295
-0.0327633
0.00104736
-5.10988e-05
-0.046132
0.00426889
0.00819088
-0.0903961
0.054636
0.00758386
-0.0734019
2.76677e-322
-0.00857551
0.00564949
-1.46764e-09
-0.0640491
0.143565
-0.0830698
5.1688e-05
0.000848094
0.0533207
-0.0865613
0.143848
-1.16823e-09
-1.3309e-06
-0.14884
-0.0110739
-3.29689e-05
0.0190989
-2.59301e-13
0.000253273
0.170339
0.00274483
-0.0389819
0.00238411
0.023896
-0.0515134
-0.0136767
4.06196e-05
5.95104e-05
0.232901
0.0358101
-0.12386
-0.122205
-1.26918e-07
-1.91963e-06
0.0142029
-0.0305658
-0.0129037
-4.28276e-08
-0.0241246
-1.08795e-05
-0.457088
0.152153
0.0596955
0.0184519
-0.0272434
0.012191
-6.35143e-05
-0.0737678
0.00193614
-4.7134e-08
0.00476927
0.202861
0.0724519
-0.0566087
0.0251878
-1.16001e-06
-0.0291434
-0.0278053
0.0125013
-0.0296266
0.0275845
-4.33166e-05
0.0610761
-0.0167887
4.14052e-05
-0.00725282
0.00552421
0.00634308
-0.0742615
-0.0228575
-0.0185125
-0.00199492
-0.0934543
-0.072287
0.00257191
-1.91963e-06
0.0264312
0.00264247
-0.0198652
-0.0317884
0.0531947
-0.0351377
-3.08149e-07
0
0
0.0216138
-3.66796e-05
-0.0468234
-1.24715e-94
7.95446e-322
0.028636
0.0275845
-0.0112708
0.0537205
0.000863824
0.0333123
0.00655779
-0.163631
-0.112527
-2.93872e-05
-1.2693e-95
-4.28276e-08
0.019711
0.015859
0.00448624
0.00857125
-0.0352462
0.0314678
0.0347611
0.084766
-0.0375715
-0.0288878
-1.18882e-06
-0.000189121
-0.0191567
-0.0409282
1.53654e-321
0.0278349
-0.093304
0.214413
0.00279367
-2.95965e-11
0.311305
0.0156144
-0.00868565
0.00128027
-0.00945343
0.116133
0.074473
0.0285825
-0.0730171
1.66994e-321
-2.76954e-08
-1.78184e-06
-2.78473e-14
-0.017475
0.0501306
0.00168227
0.061806
-0.0286717
0.001792
-2.93984e-07
-4.99319e-06
-0.079847
0.291091
-0.0213681
0.0294305
-0.0119196
-0.0208825
-6.91908e-09
-0.337979
-9.11298e-10
-0.108607
0.012701
0.0918553
0.0800699
-8.13274e-07
0.037882
0.0124683
0.078653
0.0557373
-0.0447647
-0.0414993
-0.306269
-0.0296987
-2.37649e-05
-0.0180729
0.00512939
0.0310179
0.224589
-0.0350892
-7.63735e-06
0.0420713
-2.85464e-06
0.029034
-1.74672e-10
-0.060356
0.00974747
0.00857125
-1.04742e-321
-0.0022421
0.00694527
0.00168991
-2.93984e-07
3.0796e-79
-0.0584579
0.0271932
0.0462292
-0.00406024
-1.78157e-06
-0.0119091
-7.64617e-06
-2.38842e-05
0.0731507
0.0508394
-0.0134676
-5.47505e-06
0.00655693
-0.00550113
0.0113361
0.0243029
0.0207606
0.284923
-0.0591784
0.0211813
-1.46764e-09
-0.0880202
0.000598616
-0.0138805
-1.91963e-06
-0.0474364
-8.13274e-07
-0.0538489
0.130304
-0.0424434
0.0587772
-0.0354585
0.153975
-1.30984e-13
0.00974747
-0.00945343
4.77184e-142
-0.106654
-2.95965e-11
-0.0108034
-2.75523e-06
-0.10323
-0.0252188
-0.0428488
0.0101282
0.0757587
-4.72059e-07
-3.32721e-06
-0.13013
0.0125013
-0.0314849
0.0136054
-0.0871103
0.116573
0.0119287
5.21854e-05
-0.138764
0.498082
0.078653
-0.0911368
-0.0129803
0.000522897
-0.00722174
-0.0564833
-0.0101743
2.39212e-06
8.20217e-05
-0.048653
0.0692629
0.0314583
-1.99618e-08
-0.0330095
-1.19893e-05
0.0480463
-0.0214889
-1.51355e-05
-0.06771
0.000782282
3.0796e-79
-0.0936326
-0.159476
-6.01122e-05
0.199861
0.0158779
0.149064
0.00974747
-0.135384
3.0796e-79
0.066442
0.118642
-0.0350914
-0.0110739
0.0145966
-0.0111447
-0.0708319
-1.97626e-323
-9.1276e-11
-0.197427
-0.0196035
-1.91963e-06
-8.04455e-98
0.00284608
-0.00410517
2.61241e-07
0.000522897
-0.0211185
0.0844973
-0.0150763
0.114029
-0.00718277
0.000931155
-2.38842e-05
0.116133
-0.0281188
0.00403516
0
-0.000101955
-2.73423e-09
-1.49369e-10
-7.7359e-11
-0.0737678
-0.091282
-9.61636e-15
0.104243
0.0276209
-9.7027e-97
-0.00017502
-9.7027e-97
-4.75257e-05
0.00088757
0.154782
0.0156896
-1.69018e-12
0.0202063
0.00503833
0.000755881
0.0587954
0.141774
-0.0767903
0.0686407
-1.01502e-12
0.0320126
-0.0481492
-3.81628e-05
-0.0110739
-0.0198887
-1.78157e-06
-8.12006e-55
0.0302213
-0.00266518
3.0796e-79
-0.000180406
-9.30292e-12
-1.18931e-06
-3.40873e-08
-0.0390309
-0.00572114
0.0186536
0.00253115
0.00173366
0.0151906
-5.47505e-06
2.76677e-322
1.69962e-166
-2.73423e-09
0.00400864
0.148092
-0.00243267
0.025355
-8.57821e-07
-0.0623534
-0.0110739
-0.0110739
0.0288591
-0.0254603
0.016538
0.16578
-1.46764e-09
-6.73791e-07
-0.000300887
0.0264132
0.0424704
-9.45079e-08
-0.0487855
0.0195955
-4.50225e-09
0.0195955
0.00465567
-0.106418
-0.0451756
-6.31295e-05
-0.0246744
0.0125013
0.059862
-0.00931854
-0.0461036
-1.1988e-05
-9.48258e-05
-0.197501
-1.13947e-10
-0.120124
-7.50114e-97
0.00564949
-3.27936e-10
0.045097
1.71844e-166
-2.76552e-09
0.080939
0.00386349
-9.61636e-15
-2.95965e-11
0.129349
-0.082505
0.0564075
3.77733e-166
0.00164321
0.00510441
-2.71218e-10
0.00440493
-2.05484e-05
-0.000264035
-6.45535e-15
0.0337001
0.0103875
8.19314e-166
0.0746872
0
-2.22149e-08
-9.08784e-05
0.0178806
0.0237424
0.00203304
0.016538
-0.0498965
-0.209123
0.00966874
0.0140389
3.0796e-79
0
-0.000101955
0.0713032
-0.0795444
-0.0107244
0.000525975
-3.29689e-05
0.00296666
-1.91963e-06
0.000463066
0.0114825
0
0.000522897
-2.46227e-05
-0.063176
1.11298e-05
-0.0453013
3.0796e-79
-0.046488
0.002097
0.00637454
-0.0466495
0.0350997
-9.7027e-97
-0.0194328
-0.0605059
-0.0203341
-0.128652
0.0420484
0.0271936
0.195454
-0.0391019
0.0628974
0.050575
-1.91963e-06
-0.0715052
0.0262578
-9.7027e-97
0.000559729
0.0758382
0
-0.0163899
0.00524568
-0.00824488
0.00834855
0.00533397
2.95428e-05
-2.44318e-07
0.0202546
0.0864921
0.00857125
0.000522897
3.0796e-79
-0.0437975
0.000462065
-0.130059
-4.33388e-05
-3.34463e-12
-0.0697315
0.0440497
-4.75257e-05
-0.072287
-0.00725282
-0.0437975
0.00511058
-2.99026e-14
0.610074
-0.0114149
0.0116281
0
-0.0259689
-0.0740043
-8.12006e-55
0.0643393
-0.0185125
-1.46764e-09
0.0421281
-3.08149e-07
-5.29968e-14
