-1.69004e-06
-7.42623e-12
-6.63247e-23
-0.0372366
0.0668733
-3.1773e-07
-1.86033e-06
-0.0101616
-0.0400779
-1.86033e-06
0.0102677
-0.00159943
-0.0190757
0
-0.0149624
-2.24514e-15
-5.53484e-07
0.0245898
0.0523682
9.34426e-100
0.049752
-0.0641842
0.169276
0.00512267
0.0178015
-0.0149624
-0.0382398
0.0311883
-0.0067037
-0.0624945
0.0330251
-0.0971876
-0.00023994
-4.36326e-22
0.00121688
0.00802557
-0.000616824
-1.65619e-06
-7.74e-09
0
-0.0037093
0.024156
-0.000330276
-0.0219124
0.00729102
0.0595014
0.0314303
-0.0219665
0.0048895
0.00198199
0.0802364
0
-1.05842e-07
0.082283
6.57107e-322
-0.000288383
0.0257143
-0.00144003
-9.16657e-08
-8.50253e-05
0.00952931
-0.0640259
0.0125851
-0.123232
-5.92879e-322
-9.73102e-10
0.0796261
0.0129296
-0.14742
-0.0206342
-0.0763918
-0.00745404
-0.0149413
-0.0530628
-0.0392449
-4.85931e-06
-0.00023856
0
-0.0272345
-0.034706
-0.0210834
0.0542638
0.0129572
0.0302961
0.0414683
0.0423409
0.0230201
0.0173408
0.119744
-9.73102e-10
0.00933553
-0.0531884
-0.204695
0.00785841
-0.117061
-6.81627e-09
0.111016
-0.0569014
-3.38923e-05
0.0659556
-1.05842e-07
0.00952931
-1.27651e-21
0.00614033
-8.84582e-13
-0.000242617
-0.0386669
-1.33125e-06
-4.15914e-05
0.243553
-3.46872e-05
-0.00498374
-6.54227e-07
-0.0112807
1.9812e-321
-0.000286543
-0.087286
-9.67257e-07
-0.0184591
0.143905
0.1831
-0.000814888
0.133582
0.0200624
0
0.0263625
0.0119069
-0.0321026
0.0474436
0.00295279
0
-0.05028
0.00636333
0.0102981
-0.0917913
-0.0458778
0.00636994
-0.000288383
-0.0822742
-0.00880126
-0.0465095
-0.000209366
0.0346593
-0.101919
0.00439904
-7.2276e-08
0.0248521
0.0379624
-1.26258e-07
-0.114881
-0.0222658
-0.0305947
0
0.0119345
0.281495
0.00802557
-0.0399522
-0.000506791
0.044084
0.0362749
-0.0297639
0.00786642
-0.0983816
-0.04299
0.00952931
-0.10103
-0.0386067
-0.000137369
-7.46242e-08
-0.0449656
-0.022812
-0.0701255
-0.0549555
-8.52102e-10
-0.130372
-0.0111701
0.0106795
-0.00271309
-0.0117065
0.00722386
-1.05842e-07
-0.00525734
-0.0446478
-0.0170526
0.0245989
-0.0390237
-0.0477799
0.198314
-0.0182179
0.00512267
-0.0403681
0.0256805
-0.0701705
0.0257143
0.15299
-0.213474
-0.00023574
0.0316737
-0.000232315
0.0385857
0.00664555
-0.0449945
-1.60189e-06
0
-0.0515325
0.00952931
0
0.268192
-0.107318
-0.00498374
-2.12309e-22
-0.0145873
-0.0301749
0.252299
-0.087734
-1.86033e-06
0.0592455
0.0542138
-0.0483764
-4.54464e-09
0.0346468
0.0230891
0.00815504
-7.56959e-05
1.32904e-321
-0.000236949
-0.000237638
-0.119707
0.0185236
-0.000288383
-0.126492
0.0010223
0.0119345
0.0884239
-0.0397839
0.17777
0.0986979
-0.0175546
-0.0340537
-2.15532e-07
-0.0104648
-0.0682964
0
-0.0490193
-0.0315409
0.00468717
-1.03135e-10
-0.020263
-0.00745471
-9.11363e-23
0.0172523
-0.0555686
-2.95252e-13
0.0352053
-0.00525734
0.0274541
0.0719614
-2.82727e-22
0.000199567
-0.0972869
0.0262921
-0.0401894
-0.000243311
-0.0117065
9.34426e-100
-0.102672
-4.64802e-05
-0.0340537
-0.0542496
-0.054287
0.0292666
-0.0173515
-0.0149034
0.066481
-0.0180909
0.0832705
-0.0566915
-6.63247e-23
-0.0285372
-1.15597e-08
-2.1923e-12
-0.0101616
0.0594406
0.0260753
0
-4.07334e-06
0.0824744
-0.0524121
-0.00809687
-0.0591726
-0.0140043
0.00782879
-0.0104958
0.0230699
-0.0584387
-0.00854173
2.00523e-05
0.050883
0.123599
0
-0.0414834
-0.0157446
0.00493018
-9.67257e-07
0.0285608
0.0520772
-0.00159943
0
-0.0635285
-0.0351967
-2.07223e-09
-0.000588696
0.0219677
0.0116771
0.0074756
-0.00720525
0.0245989
0.0732115
-0.120007
-0.0578795
0.0357108
0.573791
-0.024641
-0.00024934
-0.00525141
-0.0190684
-0.0267194
-0.0366357
0
-0.083237
-0.123101
0.0345289
-0.024269
-0.0149413
-0.0142121
-0.0448056
0.000861012
0.0057716
0.0193755
-0.0466677
-0.0703012
-1.86421e-08
0.0877984
0.0349863
-4.54464e-09
-2.32684e-09
0.029987
2.48721e-05
0.0391537
-0.100283
-0.0326713
0.00762355
0.0018049
0.0756563
0.0314303
0.0304731
-0.0530628
0.0136903
0.00411362
-2.15532e-07
-0.154833
-0.0177304
0.0267558
0.0803246
-1.16469e-06
0.00234032
-0.0488871
-9.30156e-91
-0.0435146
-8.50253e-05
0.0461471
-4.96439e-06
-0.0496599
-3.05812e-06
0.00831028
0.00952931
-0.0688037
0.0410387
-8.41376e-06
0.00952931
-0.0672171
0.0316737
-0.00216411
0.00488951
-0.0798077
0.024317
-0.032701
0.0586912
-0.00596223
-0.0173515
-0.0159753
0.00952931
0.000474369
-0.00633848
-2.82727e-22
-3.4798e-06
0.00295279
0.0286165
8.3975e-05
-0.000236949
-1.27651e-21
-0.00450255
-0.00143944
0.00245923
-1.47719e-07
0.0119345
0.0535641
-1.60189e-06
-0.0523731
0.00156958
-2.15105e-05
4.21369e-09
-2.1923e-12
-0.0097619
0.0311297
0.00205196
0
0.0935372
0.00121688
0.0634197
0.058934
-0.000235958
0.226215
-0.0129507
-0.0340537
-3.35029e-05
-2.95252e-13
0.123768
-0.0784899
-0.000241392
-0.00172654
-0.144967
0.00816769
0.00907698
0.0302961
0.0257143
-0.0566483
-2.11516e-08
-0.288427
0.0353275
0.0437295
0.0243941
-0.0182179
0
-0.0182638
9.09081e-322
-0.0873357
-0.0347531
-0.0435075
-0.0805254
-2.32684e-09
-0.000240583
0
-0.00498374
0.00952931
0.00389222
-7.42874e-08
-3.90305e-06
-0.0292542
-0.00847827
0.0178015
0.00439493
-0.0140043
0.0297495
0.0376419
-0.0561351
-0.0121347
0.0378894
-0.000239064
0.0852575
-1.83563e-05
0.0192646
0.0554
0.0026277
-1.32416e-06
-1.29173e-05
-0.0603235
0.0010223
-0.125362
-0.0330185
-0.158636
-0.000230664
-0.0246026
0.0084585
-0.107057
0.0227447
0.0465099
0.00117993
0.0629468
-0.118409
-0.000288383
0.0590566
0.00313784
-0.000237233
0.0193791
0.0292666
1.33892e-321
-4.99133e-07
-8.52102e-10
0.000523219
0.0970782
-0.00498374
0.0239671
-0.0244071
0.0414683
-4.96439e-06
-0.0140043
-0.0345723
0.00325251
0.00235741
0.044084
-0.0571132
-0.0623699
0.0268042
-3.70794e-13
0.249774
-1.77157e-12
0.00175689
0.00212642
-4.96439e-06
-4.28091e-06
-0.0120679
0.635165
-0.0453208
0.00812847
-1.65884e-10
-4.23828e-09
0.156261
-0.0322529
-0.000239064
-0.0391847
-0.161184
0.0334192
0.187041
0.00113302
0.00839753
-0.0917617
-5.75744e-16
-0.000247129
-7.22782e-08
-0.00772046
0.126435
-0.000138963
-0.026843
-0.0307994
0.0997009
0.0706501
0.0286805
-5.56792e-06
-0.193373
-2.60442e-05
0.00846302
0.123597
0.00884805
0.0547609
-0.0521056
0.030874
0.00134691
0.032519
0.010517
-0.00438209
0.0619245
0.0966727
0.194938
-0.0693346
0.0200302
0.0139058
-0.0165417
-0.0289623
-0.0321026
-2.82727e-22
-0.0495442
0.0165516
0.0214649
0.158912
-0.0773499
0.0383975
-0.0319489
0.0357952
-0.0151343
-2.99344e-05
0.00782639
0.0619925
0.00747644
0.156539
1.00612e-05
0.0165259
-0.0134068
-0.0286886
-0.0194013
0
-0.0135083
0.0249849
0.000322084
0.000994177
0.00952931
-1.27651e-21
-1.14564e-06
-0.107177
0.0895407
-0.0346705
0.0178015
0.0730036
-0.0397481
0
-0.0362586
-3.66416e-09
-0.236163
0.00642697
0.0170359
0.120888
-0.127761
-0.0530803
-0.0295731
0.00266252
0.124426
-0.0075255
-2.89958e-08
-0.0878049
-0.082894
-2.98948e-07
-0.000227747
-0.093493
0.0371712
0.0186878
-0.0772591
0.00325251
-0.0154269
0.076089
-2.32684e-09
0
0.129003
-0.0321026
-4.55304e-06
-0.000330276
-0.000288383
0
-0.152854
0
0.010323
-0.0627484
0.238036
0.228619
0.0119345
0.00241378
0.0130213
0.101675
-5.76228e-06
0.00301556
0.0712833
0.0151997
-0.0754081
0.0406683
-0.00835585
0.0127149
0.0149485
0.00512267
-5.30288e-06
-0.0438612
-0.0535356
-0.000230656
0.0710894
-0.0345723
-0.0276191
0.0414701
0.0151754
1.62054e-321
0.00735412
0.000637145
-2.52163e-05
0.0327796
0.024317
-0.000230749
0.101919
-0.193179
0.00779931
-0.0491779
0.0874955
0.128309
0.000945631
-2.39699e-08
-6.63247e-23
-0.103383
1.17097e-100
0.0959201
-0.00138081
0
-4.27978e-06
-0.0685997
0.0380113
0.080794
0.161842
0.0844295
0.00718208
-2.68351e-09
0.128477
0.0262921
-0.129894
-0.0412112
-2.1923e-12
0.113898
-0.0322529
0.00952931
0.00607902
-1.20379e-07
0.0171674
0.0492943
-0.0148937
-0.0526584
-0.0614421
0.221419
0.0116771
-0.000288383
-0.11337
-0.000234979
-0.126737
-0.0239897
0.00459166
-0.0390247
0.0656468
-0.0707498
-4.06559e-07
-0.00498374
-5.55925e-06
0.07672
0
0.000403486
0.0782157
0.230537
-9.04682e-06
0.0401665
-1.74251e-13
-0.0653311
0.018405
-0.000354893
0.0629574
-0.170968
0.0066145
0
-0.0675021
-0.071393
-0.0426529
0.419672
0.0159719
-7.57293e-08
-0.0185217
-4.23828e-09
0
-0.0193994
0.0963728
2.5046e-109
0.000997559
0.0155107
0.0556153
0.0415991
-0.0472041
-0.000241392
0.000994814
-0.000263698
-0.0292632
-3.4463e-07
-0.000235958
-1.03135e-10
-4.36326e-22
-1.20552e-321
0.00323006
-1.65884e-10
-0.141771
-0.0481376
-0.131358
0
-2.95252e-13
-1.05903e-25
0.00795575
-0.0466416
-0.0336964
0.154913
0.0742426
0.256454
0.13035
0.0837318
0.0544781
-0.0182179
-0.0511743
0.00171781
-0.000234658
0
-0.095476
-1.27651e-21
0.0221273
-0.089753
-0.0111701
0.0369609
0.102606
-0.164068
-0.0111701
-3.42999e-05
-3.00616e-07
0.0733611
0.460727
-0.0527946
0.0290365
-0.0943775
-0.0469874
0.0119345
0.0152193
-2.89205e-05
-0.0614421
0.00952931
0.27273
-0.20835
0.00636741
-6.45522e-13
-9.73102e-10
0.00839008
0.00829083
0.333443
0.0911601
0.0672984
0.411292
-0.00815532
0.00846465
0.011258
-0.120195
-0.000231705
-0.0160396
0.113538
0.0262921
0.00993084
0.345679
0.0410603
0.0239159
0.0613964
0.00837653
0.00636741
0.00205196
0.0186549
-0.0861508
-2.58319e-05
0.0364918
-0.000110669
-2.99344e-05
0.0222929
0.104168
-0.0289646
-0.0469874
0
0.0245989
0.00928669
-0.000245874
0.020406
-0.0340537
-0.00023994
-0.0304633
-0.00947864
-0.000237233
-0.000227899
-8.84582e-13
0.0448414
0.00439493
0.000811801
0.00636741
0
-0.00491727
0.0362749
-0.00460868
-0.0586932
-0.0186064
-0.0359394
-0.000288383
0.00614104
0.105
0.0847707
0.000742367
0.00730047
0.114006
-0.037534
-2.1923e-12
0.0191034
-2.07223e-09
-0.00024934
0.024152
0.119813
0.060831
0.0432251
0.0275472
0.0445925
-2.32684e-09
-0.0595039
0.0245898
0.102026
0
-0.00405147
0.203699
-0.069924
-0.0154269
-0.0170722
-0.00021932
-0.0185207
0.00630771
-0.171752
-8.00347e-24
0.00793699
-0.00702987
0.00952931
0.00488951
-2.89958e-08
-1.02272e-321
0.0427581
-2.24514e-15
0.00325251
-1.48461e-07
0.00459166
0.217427
0.00512267
-2.93012e-08
0.00737902
0.0802815
0.0286165
-1.20382e-07
-0.0321251
0.0119345
0.113117
-0.0286886
-0.026595
-0.00925423
-0.0308882
-1.05842e-07
-0.0170016
0.0254529
0.01691
-4.81879e-05
-0.0504308
-0.0169278
-0.0552957
-0.0355657
-0.0293634
-0.0101616
-0.020263
-2.24514e-15
0.0158437
0.00683735
0.0198021
-0.0058685
-2.07223e-09
0.0316737
-1.20379e-07
-0.0145527
-0.026595
-0.126596
0.00856512
-0.00075882
0.010323
-2.12309e-22
-0.00579013
-0.0575592
-3.77897e-09
-0.00654057
0.0233967
-1.25123e-12
-0.061059
0.0258635
0.0225761
-0.011521
0
-9.30156e-91
-0.052607
0.105171
-0.0784721
-0.0129871
0.0256187
0.0470975
0
0.00342439
-1.03135e-10
0.0103785
-0.0550773
0.0216142
-0.154085
-0.0700357
-0.0690812
-0.0153833
0.00820849
0.00241378
0.0108169
0.0010223
-0.0733762
-0.148807
-0.0510707
0.00885541
-1.16209e-12
0.0032291
0.00952931
-0.0160604
-0.017079
0.0167796
0.259027
-0.000101914
0.00638969
-0.0608637
-2.12309e-22
-0.0718613
-0.0135954
0.0286165
-0.036108
-6.81627e-09
-2.28811e-09
0.0130216
-2.67392e-06
0.0316737
-0.00328789
-0.0158279
0.00952931
-0.05028
-0.0239897
0.00256036
0.0017958
-0.024239
0
-0.183517
-6.96632e-05
-1.24732e-06
-0.0215298
-0.0312198
-0.0673135
-0.00945529
0.107175
0.0532661
0.0195632
0.00884805
0.0456683
0.0119345
0.0969069
0.00952931
-0.000221834
-0.0219124
0
0.0187177
-2.15071e-06
0.0512374
0.10108
-2.15071e-06
-0.0172274
-0.0233771
-1.13242e-07
0.104405
0.00169298
0.0130216
-1.27945e-05
-2.42797e-09
-0.157527
-0.02201
-0.0173699
-0.0238314
-0.0289727
-0.0111701
-7.42623e-12
-1.65884e-10
-0.000243311
-0.0607573
-0.0386669
0.0372816
-0.0358105
-0.0943775
0.113032
0.0129537
0.0990965
0.0337562
-3.00616e-07
-7.3609e-08
-0.0851769
0.06705
-0.0117065
-0.240403
-0.0182179
-0.000330276
-0.0414834
0.00241378
-0.0318614
-0.000235638
0.055252
-0.1259
0.00121688
0.0214887
-0.0517333
0.0165259
0.0630385
-0.00527217
0.026507
-0.00159943
-0.00529035
0.0994458
-0.00340248
-0.000288383
0.0379684
0.0121108
-0.175411
-0.000275817
0.0559427
0.0337562
-0.0114975
0.00952931
0.00952931
-0.000231002
0.145162
0.0731513
0.00121688
0.00952931
-0.0309149
-0.078967
-3.90305e-06
-0.0342898
0.0489792
-0.135338
0.0530656
0.0337562
0.0476833
-0.00498374
-0.0467194
-0.0389714
0.00426607
0.108447
-0.081896
0.000308383
0.017838
-2.4305e-07
-0.0390237
0.19182
-1.86421e-08
0.0284343
-0.0390237
-0.0170016
0.0170803
-0.0393859
-0.000288383
0.0445655
-0.0166729
0.052819
-0.0150729
0.00080014
0.025116
1.23516e-321
0.418965
0.0245989
0.0416292
0.09872
0.0213626
0.00921325
-8.84582e-13
0.0364464
-1.20379e-07
-0.0482076
0
-0.084715
-4.23828e-09
-0.0969888
0.0416384
0.000149568
-0.0399644
0.11031
-2.24514e-15
-0.0173221
0.10038
-0.0403012
0.0430883
-5.15993e-06
-4.15537e-24
0.0169083
0.0292666
-1.16469e-06
-3.00616e-07
-0.000227899
0.00512267
-0.0558415
0.00837446
0.0267558
0.0660151
-5.18769e-322
-0.0122132
-0.0359912
-0.0502687
-4.96439e-06
-0.0303792
0
0.0236013
0.033759
0.00171793
-0.000163574
0.0872474
0.0313727
0.0563151
-0.000287966
-5.15993e-06
-1.83563e-05
-0.148987
0.0232865
0.0636976
0.0236013
-0.0261557
0.170375
1.00637e-05
0.00584592
0.0199696
0.0535641
0.00439493
0.0252077
-0.0767421
0.22376
0.0365173
-0.0558131
-0.00307117
-0.000248654
-9.30156e-91
-0.000237501
-0.00025842
0.0981438
-0.00498374
-0.061042
-3.73493e-07
0.000625145
-0.0208803
-0.0675668
-0.0838469
0.0566249
-0.162616
0.018557
0.0479944
0.707814
0.0318842
0.0078154
-0.0172973
-4.99749e-11
0.344038
0.0405887
0.122845
-3.77397e-07
0.0846727
-0.00378484
-0.213553
-0.199377
0.00794025
-0.0617038
-0.0173516
0.0407446
-0.0404644
-0.0193572
-0.0911876
0.0017958
0.0186389
0.0186389
0.0540587
0.0125851
0.0143365
-0.00429596
-8.7902e-06
0.10108
0.0163243
-0.000237233
-8.7902e-06
0.00459166
-0.0614812
-0.012322
-1.16209e-12
-4.28091e-06
-0.0571992
-0.0512911
-0.0396582
-0.00472272
0.0323012
-1.26374e-07
0.102207
0.0286165
-2.30341e-05
0.00241378
0.00776769
-0.117471
-0.0137556
-0.184628
0.00459577
-0.0516512
0.0475055
0.0289021
-0.0149413
0.0571258
-0.000231002
-0.00161234
-0.119033
0.0301437
0.23049
0.00750788
0
-0.0301749
0.216625
-1.65619e-06
0
-0.0164561
0.0405886
0.0250384
-0.126382
-9.22644e-07
-0.0550663
0.103508
-0.0453877
-0.0679524
0.0218329
0.00734326
-0.000236202
-3.03369e-06
0.11589
0.0054345
-0.00024934
-0.000330306
3.28085e-100
0.00820849
-1.39711e-05
0.0560836
-3.66416e-09
-0.0222072
0.00153691
-0.0514272
-1.23971e-07
0.0209828
0.000187517
-8.41376e-06
0.0452455
-0.115469
0.000700341
0.0439143
-0.0203831
-0.0703691
-0.0193958
0.151289
0.00630771
0.00630771
-0.000236949
-0.0385123
0.016333
0.0736593
-0.0182179
-0.0161694
-0.00498374
-1.282e-07
0.214447
0.11355
0.0119345
0.00295204
-0.0905815
-0.109149
-0.0663295
-0.119032
-0.102922
-0.0751992
-0.0208479
0.102207
-0.000228095
0.010517
0.0220955
0.0375687
0.00177232
0.0829527
-0.0469874
-0.00316424
-0.0749592
0.0629468
0.0233295
0.0646636
-0.125222
0.000523219
-0.0495442
-0.0400013
-0.000242617
-0.101235
0.0267558
0.147575
-5.08099e-13
-5.75744e-16
-0.000286543
0.0119345
0.0383886
-0.0279174
-0.186151
-0.0244715
-2.12309e-22
-0.235918
0.0234479
-0.281079
-0.00159943
-2.91399e-11
-0.130877
0.00205196
0.0268042
-0.0948649
0.149117
-0.0158083
-0.00387856
0.0145371
-3.48111e-06
-0.0469874
-0.0473539
-0.0330667
0.0196487
0.015418
0.00953759
0.0668733
0.012762
0.00952931
-0.0303365
0
0.0372816
0.0316737
0.167612
-0.0234201
-0.0325023
0.041857
0.00952931
0.0071035
0.0943675
-0.000330276
0.00952931
-0.0111701
0.211837
-1.28156e-05
-0.0569376
-0.0322529
-0.000330276
0.193511
0.0308638
0.0444734
-0.0480414
0.00759988
0.114124
-0.00423942
-3.66416e-09
-6.96632e-05
-0.0750077
0.0314303
0
0.00430504
0.0659574
-0.15324
-0.0345723
0.00325251
0.116065
-0.0140043
-1.20379e-07
0.00459166
0.0209453
-6.144e-06
-1.16469e-06
0.00558918
0
-0.0235426
-0.0172274
0
6.72341e-07
0.00783454
-0.0520476
0.00832771
-0.112744
-1.26374e-07
-0.0385123
-6.63247e-23
0.0077041
-0.106939
-0.0563191
-0.0193572
-0.0791929
0.00554312
-0.18634
0.00212586
0.00587309
0.0715218
-0.0172274
-0.127608
-5.72496e-05
-1.27651e-21
0.0395995
0.000945631
-0.0185662
0
-5.38193e-06
0.00856512
0.0660732
-0.179286
-5.10884e-05
-0.0878759
-6.63247e-23
0.00488913
0.0289606
0.0186389
-1.15597e-08
0.0245989
-1.13242e-07
-0.0533771
7.14302e-05
0.0745976
0.0439306
-0.0346779
-0.180099
0.0270166
-6.6224e-13
-2.30965e-05
-1.92657e-07
-0.0186465
0.0261225
0.174366
0.022329
-0.125446
-0.0578795
0.0501831
-0.0632069
0.146025
-0.028352
-0.0649173
0.0151056
0.0207864
-0.0495442
-0.0863956
0.056837
-0.0148937
-0.011521
0.262988
-0.00023994
-4.15537e-24
0.025997
0.114965
-0.0193572
-0.0113299
-6.49988e-07
0.0426174
0.0966271
0.0445655
0.0826449
-0.0367471
-1.20324e-06
-1.06931e-07
-1.98655e-06
0.00785841
-4.54464e-09
0.693054
0.0550984
-0.000232707
0.00179471
-0.0240459
0.236269
0.00737902
-0.081896
-0.000219101
0.0696164
0.0555828
-0.0340537
0.180503
8.58648e-06
-0.131373
-0.00671921
-0.000239064
0.00181716
0.00335152
-1.20379e-07
0.00325251
0.00112109
0.00277707
-0.108357
-5.08373e-13
-0.0414132
0.184283
0.139299
-0.0905815
-6.63247e-23
-0.0991305
-0.386993
-0.0196764
-0.0622551
-0.0745337
-0.000667804
-0.049611
0.00781407
-0.0724902
-1.83563e-05
-2.24514e-15
-0.0738084
0.0353275
0.00679566
-0.00243793
-0.0030528
0.251867
0.226908
-8.7902e-06
0.0306382
-0.0390968
-2.24514e-15
0.00952931
-0.000220145
-1.65884e-10
-0.00144003
-0.00144003
-0.0546244
-0.0817914
-0.000153371
0.0311201
-0.0067037
0.00782639
-0.0637451
0.0119345
0.114979
0.0177272
-0.0140276
-0.214966
5.64895e-111
0.0256716
-0.00513132
-0.000228754
0.00368777
-1.18082e-321
0.0166723
0.0356183
-0.0404549
-1.33085e-09
0.00459389
-0.125829
-0.0215117
0.0186389
-0.0711126
0.285107
0.00177108
-0.0117703
-0.119269
0.00121688
-0.0114004
0.0155751
0.0352053
-0.0365868
-0.0418564
0.0672286
-0.00527217
0.0153244
-0.0578795
-0.0801073
-0.0207245
-0.0336902
0.000131609
0.0600745
0.040359
0.00369892
0.0318842
0.0155486
9.09081e-322
0.0401665
0.0617939
0.035166
0.0302961
0.359903
0.0554247
-0.042089
0.0316703
0.11013
0.0686345
-7.42874e-08
0.0102728
-0.018091
-1.16469e-06
0.0590066
0.016746
-0.0248039
0.00117993
0
-2.24514e-15
0.138298
-0.000232509
0.0688222
-0.00969212
-0.185724
0.0316703
-0.122305
-0.000330276
0.00218815
0.00952931
-7.22782e-08
-0.182647
0.00325251
0
-0.0118631
0.00760918
-0.110729
0.0776059
-0.260359
-0.0340537
0.107175
-1.48792e-10
0
-0.0143605
0.0156334
0.0118942
-0.0869239
-0.0279935
0.00512267
0.0522848
-0.000286543
-2.63553e-06
0.0079926
-0.0162706
0.0056518
-0.0172274
-0.0380349
-0.00378486
-0.000231357
-0.0197422
0.00636741
0.257198
0.0337936
-7.61152e-08
-0.235777
-5.80576e-16
-0.0750077
-0.0353045
-0.042977
-0.0502975
0.0716482
0.118844
0.00802546
-0.0432003
0.00952931
0.125283
0.0586912
0.0105798
-0.000222835
-4.36326e-22
-0.00836287
-3.42999e-05
-1.83563e-05
-0.0902784
0.00820849
-0.0933251
-0.0914366
-2.89205e-05
-0.0906002
-0.0252348
0.00545453
-0.00453272
-0.000234601
-0.0342898
-0.0078673
-0.194277
0.00636741
-0.0107477
0.0378262
-1.86033e-06
-0.0997095
-0.0296709
0.0501831
-7.42623e-12
-0.00596223
0.0456673
0.385837
0.0362628
0.0134057
0.149925
0.00943751
0.149914
0.0177444
-0.0111701
-3.86264e-05
-0.0322695
0.0650455
0.0787558
-0.031315
0.0189889
-0.0686503
0.0587696
-1.46954e-08
-0.0679524
-0.232774
-0.00024934
-1.16209e-12
-1.20324e-06
0.0291258
-0.000288383
0.0454457
0.0904217
0.0515384
0.02797
0.06705
-0.0172274
0.00512267
0.0525152
-0.0115714
-1.83563e-05
-0.106997
-0.000231002
0.0693785
-1.76597e-05
0.0256716
0.107175
-0.0200456
0.172941
-0.0533626
-0.0702911
-4.96439e-06
0.000280553
0.00368777
0.060061
-0.000745738
0.0254856
-0.021387
0.00636741
-0.000228754
0.0424087
0.0734886
0.117484
-0.123285
0.0658167
0.0435929
0.0107697
-0.0519849
0.0316737
-1.14564e-06
0.0645111
0.0318842
-0.0249726
-0.0322529
-0.0380036
-0.0343086
0.0260753
-1.0896e-09
0.00325251
0.0883138
-0.000137153
0.010323
0.0490433
-0.0361365
0.00197626
0.155325
-0.0441331
0.0166011
-0.0111701
0.158536
-5.10884e-05
0.0463814
0.0346593
1.15287e-99
-0.114447
0.0578559
0.00878988
-7.08209e-05
-0.0680359
-0.00444514
0.0244149
0.0074756
-1.20552e-321
-6.46123e-05
-0.000222697
-0.00253297
0.0119345
-0.00119793
-0.118471
-0.0354122
-0.000295514
0.0155486
-0.0159882
-0.000288489
-0.0294281
-0.000241991
-0.039301
0.0330107
0.0244334
0.000876865
-0.218539
0.0224169
-0.0859956
-0.0836271
0.0406451
0.0280111
0.216182
-0.0149413
-0.0914367
-1.86421e-08
-0.0148018
-0.0270656
-0.027825
0.00439493
0.00208561
0
-0.0614235
-2.24514e-15
-0.000288383
0.029987
0.0215216
0.0189244
-3.20584e-06
-0.103594
-0.0206569
-0.0391848
0.0414701
0.0214303
0
-4.18824e-05
0.0754729
0.00705531
-0.0345723
0.044084
-1.20552e-321
0.00735412
0.00794876
-0.0406759
-0.0113454
0.044084
0.058635
-0.046082
-5.82985e-08
0
0
0.111868
0.0694974
0.0223084
-0.00022993
-0.0552957
-0.0105572
0.0119345
-0.0131309
-0.0453265
0.10108
0.00816971
-0.00770744
0.010517
-0.0502975
0.0629468
0.0774316
0.00426139
-0.00444514
-0.00818454
-0.0941036
0.0260592
-0.00100502
-0.000137153
0.0325151
-0.148807
0.000997559
-1.05842e-07
0.00802546
0.0109042
-0.0172274
-0.0155612
-0.000237638
0.00241378
-0.0947508
0.105838
-0.00016613
0.00753146
0.0087694
0.0402715
-0.0451609
-0.0949921
-0.0530628
-0.0525236
0.0497044
-0.0122255
0.255201
0.0393648
-0.0142139
0
-8.38813e-05
0.004239
0.0668733
0.0378725
0.000124989
-0.00144003
-0.000288383
-2.95252e-13
-0.00978579
0.00837691
0.00226432
-0.0140043
-0.0234578
-4.36326e-22
0.00285935
-0.171033
-0.0301749
-0.147679
0.00189708
0.11013
0.0471229
-9.70585e-05
-0.00243793
0.0100844
0
0.0733129
0.00839753
-0.05028
0.121942
-0.00025842
0.17348
0.00940838
0.0849881
-0.0387969
-0.10757
-0.0663295
-0.135376
-0.0362499
-0.000237501
-0.00144003
-0.0937038
0.0735028
0.00493018
0.00636741
0.0337936
0.0371919
-1.20379e-07
0.0377959
1.20832e-05
0.0138996
-0.000237501
0
-0.073528
0.0071035
0.0347355
-0.0002346
-0.0394269
-4.23828e-09
-1.47726e-321
0.00812847
0.0380593
0.0349262
0.0337533
-0.0356541
0.00758229
0.0347355
0.0026107
-0.134755
0.000131609
0.0165259
-1.05903e-25
0.0969158
0.0614309
-0.0561351
-0.100064
0
-1.20552e-321
0.0010223
-0.00024934
-0.0148814
0.00458774
-3.91424e-05
-0.0868759
-0.0173515
0.0290365
-0.0570978
-9.67257e-07
-2.68351e-09
-8.41376e-06
0.0556153
-7.53628e-07
-8.98546e-07
-0.00452258
0.0380114
0.0141075
-0.0416291
0.0191454
-0.019938
-0.0275469
0
-0.000330276
-0.027356
0.0244149
0.0156519
0.010517
-0.0208479
0.0317048
-0.0561351
0.0396602
-0.0514517
0.411766
-0.00498395
0.000385199
-0.000160824
0.0214224
-0.000289529
-0.0646095
0.0321198
0.128837
-0.0264616
0.103838
0.00144693
0.00342439
-0.0143777
1.75308e-05
-4.07334e-06
0.010517
-0.0385676
-0.00499237
-0.0840096
-0.000235958
-0.0115386
0.00952931
0
-0.00306367
-4.23828e-09
-0.00498374
-0.0243155
-0.0386067
-0.0101616
0.0648065
0.0470067
-0.00835585
0.00512267
-0.000236949
-0.117595
0.0292443
-1.23971e-07
-0.376362
0.0245898
-0.0343355
-0.0345723
-0.0432003
-4.10772e-06
-1.39827e-07
0.00544557
0.164183
0.0279456
-0.000225831
0.0119832
0.00541556
-7.42623e-12
-3.81487e-07
-7.22782e-08
-2.24514e-15
-0.118728
-0.0314113
0.0981438
0
0.0224564
-0.000233409
-1.69004e-06
-0.00333348
0.0123614
-0.0182638
0
-2.12309e-22
-0.0113734
-0.0286886
0.0119345
-4.23828e-09
-1.08129e-07
0.0155486
0.0331857
0.0074756
-0.0111701
-0.0521276
-0.0373947
-0.0151534
-0.00440468
0.111217
0.00815504
0.00559126
0.00306955
0.0155486
-5.08373e-13
0.00198038
-0.0633528
0.0446984
-0.016912
-3.81487e-07
0.00147884
0.0031454
0.00693
-1.86033e-06
-0.0807753
-0.050292
0.00997628
-0.0300708
0.0164226
-0.0240219
-0.00381277
0.024536
0.0380408
-3.85726e-07
0.110384
0.0369518
-0.000234658
0.00832771
-0.0553331
-0.0415952
-0.0149624
-0.000330276
-0.00488356
0.0201153
0.024317
-0.116759
0.00181716
0.0913389
0.0216142
-3.66416e-09
-0.173455
0
-0.0409698
-0.139378
-1.27945e-05
0.0088635
-6.63247e-23
-3.77397e-07
-0.0361792
-0.0715289
0.00614557
-0.0365103
0.0323487
-0.0211452
0.0186878
0.0118463
0.0080768
-0.000226826
-0.000221834
-1.83563e-05
-0.0283656
-4.54464e-09
0.0245989
-0.0593817
0.13725
-0.259083
-0.0345723
1.32904e-321
-0.000288383
-0.000247129
-9.30156e-91
-0.0818963
-0.0342898
-0.00596223
0.0318842
0.0869117
0.0629044
0.0150456
0.096031
2.48721e-05
-0.109411
0.00546138
-2.99344e-05
-0.0535356
-1.24732e-06
0.000985831
0.0428945
-2.89958e-08
2.26282e-321
-1.33085e-09
0.00636741
-0.000224192
-0.000202146
-3.47882e-06
-0.020263
-0.0358276
-0.0224206
0.0510855
0.00802546
-0.0897174
0.00554312
-0.0030528
-0.115841
0.0325368
0.0493539
-0.00302251
-0.0396426
-0.0296305
0.0245989
0.158741
-1.83563e-05
0.268925
-0.0304633
-7.42874e-08
-0.0046397
-0.165852
0.132035
-0.0265267
-0.00199326
0.0363642
0.00444549
0.0223583
0.226049
0.0198684
-1.65619e-06
0.00177232
0.0246906
0.0727878
-1.15597e-08
0.00241378
0
-0.000373044
0.010323
0.0282831
0.0441555
0.042198
0.024317
-0.0390237
0.0693645
0.0766577
-0.146393
-9.04682e-06
-0.00022993
-0.0996723
-0.00720525
0.0680366
-0.000235638
0.0841937
0.0223036
-0.0362348
0.0292666
0.0794793
-0.0541752
0.0220585
-2.15532e-07
-9.92531e-10
-0.0433007
-5.82985e-08
0
0.0245692
-0.0500401
0.00837653
0.087806
-0.0397482
-0.0178132
2.03706e-109
-9.73102e-10
-0.00023994
0.0545904
0.0586728
0.00781312
0.0346593
-1.0573e-321
-0.0285372
0.0084585
-0.00340263
-0.0674485
0.0857612
-1.20379e-07
0.00636741
0.0355948
0
-0.147599
0.00783454
0.000117641
-4.23828e-09
-0.000243082
0.00094563
-0.0218441
-0.000330276
-2.42797e-09
0.000500608
-0.149738
0.00952931
-0.000101914
-1.20379e-07
-0.0162914
-0.0724518
0.0351428
0
-0.0741502
0.00802557
0.00952931
-0.0306386
0.0228738
0.000811801
-0.0261232
0.185524
-1.65619e-06
0.0415991
0.021938
-5.60301e-07
-5.92879e-322
-0.104631
0.0125851
0.0180045
-5.83276e-08
-0.0334857
-4.64626e-183
-0.127959
-0.0034248
-4.64802e-05
0.00952931
-0.0340537
0.0947332
-7.09012e-07
-6.144e-06
-0.0222658
-0.0228049
0.215984
-0.0128859
0.0521891
-0.0868468
-0.146505
0.0207458
-0.000240583
0.0330099
0.105669
0.0105158
-0.206184
-1.27945e-05
4.21369e-09
-0.0995987
-1.20379e-07
0.183495
0.010517
-3.47882e-06
0.00460631
-0.0264864
-0.0778279
0.0163274
0.0220409
0.122928
-0.0452823
-1.26258e-07
-0.119032
0.0257605
0.0110031
-0.0307448
-0.0192579
-1.55905e-05
-0.103153
0.024273
0.0155486
-0.0555658
-0.108318
0.0393648
-0.052793
0.0441555
0.0213506
-3.9732e-05
-0.0319489
-0.036029
0.0316737
0.0152822
0.230685
0.0326001
0.0631422
0.0316737
0.00455526
0.254349
-0.0089197
-0.0488871
-0.242184
0.0421791
0.120888
-0.0238314
0.0227973
-0.00498374
-0.000241392
-0.0340537
0
-0.00023994
-0.0140276
-0.0664906
0.0530656
-5.08099e-13
-1.21622e-11
0.0103138
-0.0270656
-0.0690812
0.00809207
-0.0140043
-4.27978e-06
-0.000222697
-0.1839
-0.00024934
-0.0502975
0.0114626
0.0992274
-0.00499237
0.000874201
-0.0172274
-0.0349896
-0.00193394
-1.29627e-05
0.0244149
-1.27651e-21
9.34426e-100
-0.0347141
-8.98546e-07
0
0.000945666
-0.0104773
0.0125851
-2.99344e-05
0
-0.0480523
-0.000293998
0.122635
0.102911
0.00389499
0.0456249
-4.15914e-05
-0.0850938
0.102339
0.0918143
-0.0172274
5.64895e-111
-3.47882e-06
-0.0381193
0.232758
0.000308383
-0.0111701
-0.0340537
-0.105042
-3.70794e-13
0.0609836
-0.0810473
0.00579504
-5.10884e-05
-0.112868
-0.02546
-0.0505289
-0.166711
-0.0655476
1.02081e-110
-2.95252e-13
0.00952931
-0.0444061
-1.35783e-13
-0.000241991
-0.0320314
0
-0.0270656
0
0.246502
-0.000235638
0.0374378
-0.0154405
-0.0504478
-1.0896e-09
0.00254911
-1.15597e-08
-0.0583829
-0.000288383
-0.215573
-0.0502975
-0.0161249
0.376981
0
-0.0222072
-9.04682e-06
0.0118373
-0.0679406
0.00737743
-0.0289646
0.00468717
0.0170803
-0.0280573
0.180904
0.0644011
0.0796965
-0.00912639
-0.011158
0.0227447
0.0342794
0.0125851
-0.137305
-0.0134316
0.00453257
0.0874555
0.146454
-0.00235368
0.0318008
-0.000286543
-0.011521
-0.000288383
0.0495137
-0.0679081
-3.70794e-13
-0.0298486
-0.168798
0.236455
0.0331506
-0.000231705
0.105485
-0.00596223
-0.000232315
0.198708
0.00516188
-0.0455869
0.00170746
0.0316737
0.00758229
0.0130216
-0.0653848
0.00512267
-0.0443195
0.00952931
0.0606839
-0.0194013
-0.0186465
0.0121781
0.063562
0.0503949
-0.0517598
-0.0193572
-3.77897e-09
0.00758229
-4.64802e-05
-0.00238106
-0.0270656
0.0333694
0.00560494
-0.0927484
0.183809
-1.05903e-25
0.000221693
0.000308383
0.428236
-0.0565316
-1.16209e-12
0.0286533
0.10958
0.0208034
0.010323
0.0278774
-0.0478472
-0.0125595
-0.0193572
0.0575476
-0.0307994
-1.65619e-06
0.00496488
0.0874671
0.0532661
-0.000243287
-0.0386669
-2.28708e-09
0.437894
-0.00444514
0.0414701
-0.0349094
0.0466464
-1.21564e-12
-3.03369e-06
-0.000222763
0.067926
-0.000153371
0.294913
0.0155845
-0.0118175
-0.000238407
-1.05842e-07
-0.0872395
-0.0121622
-0.0561351
0.010517
0.00816574
0.0119345
-0.0791929
1.94023e-05
0.0734886
0.110245
0.0197034
-0.0334597
-2.82727e-22
-0.044132
0.00410646
0.0593922
-0.0685458
0.00342439
-4.99749e-11
-0.0138102
0.00742091
0.0563151
0.000928492
-0.0321026
-0.016744
-2.0529e-05
-6.63247e-23
0.0404443
0
0.0200302
-0.248221
0.000930021
-3.85007e-05
0.00516188
-0.0305376
-0.0669848
-0.0390002
-0.0587831
-0.0067037
-0.0466677
0.0568303
-0.000249387
-1.76597e-05
0.106434
-2.82727e-22
-5.53484e-07
-0.000227899
0.000742367
0.00952931
-0.0481199
0.526707
-0.0491947
-0.0599745
0.00636741
-0.00329664
-0.00024934
0.116843
0.0286165
-4.99749e-11
-0.0488871
-0.0117065
-0.0100101
-8.52102e-10
-0.0399935
0.000625145
-0.00024934
0.00744292
0.00636741
0.0151754
-0.0680359
0.0129296
0.00102109
-0.0254752
-0.0138388
0.00718213
0.0240199
0.00636716
-0.0408022
0.0177461
-0.0248863
0.0268042
-0.00925423
-0.00854173
0.0218338
0.0793002
0.055471
-0.0452566
0.00512267
0.0316737
-2.32684e-09
-1.46954e-08
-0.0675668
-0.0624344
0.0200335
-0.00158327
-7.42623e-12
0.0108391
0.181937
-0.000330276
-0.00875632
-0.0100035
-0.0580447
0.00636741
0.00952931
-0.0535356
-0.0111701
-5.08099e-13
-9.30156e-91
-0.0302638
-0.0521387
-0.00159943
-0.00720525
-0.0207148
0.0405887
-0.00720525
-0.05028
-0.057738
-7.33542e-07
-0.00075882
-0.0308882
-0.082707
-1.58438e-06
2.00523e-05
0.0469576
-0.000227899
-0.0146562
0.287431
-0.03288
0.0663489
0.00558918
-0.000330276
-0.0462873
0.0527155
0.00512267
-0.0127731
0.386427
0.0043318
0.0665739
0.0486077
0.192766
-0.000241991
0.0292666
0.00737902
-0.00673615
0.0406451
-0.000231574
0.000742367
3.59707e-05
-0.0565622
-0.0195654
-0.0173515
-0.000195542
-0.00444514
-0.0239897
-0.00066137
0.00898881
0.00735412
-7.01573e-322
0.0223337
-5.47584e-05
0.023916
-0.000136006
-0.0186465
0.010695
0
0.0377959
0.00446938
0.208043
0.0731121
0.0314303
0.0227447
-0.0283156
0.0286165
9.09081e-322
-0.061042
-9.67257e-07
0.0180802
-0.0340537
-4.36053e-05
-4.99133e-07
0.0737913
-1.14564e-06
-1.86421e-08
0.00952931
-0.0810675
-1.16209e-12
-0.0351941
0.000131609
0.0408957
0.020919
0.0152665
0.0556153
0
-0.0502172
0.219906
-0.0605303
0.00325251
-6.63247e-23
-0.0535312
0.0616579
-0.0154269
-0.0260636
0.000322084
-0.0215002
0.00737902
0.00411362
0.0326329
-0.000288383
-0.0383504
0.0017958
-0.0550424
0.130936
-0.0675317
-1.6781e-07
-0.00883627
0.0119345
-0.00834824
0.0354586
0.0405887
-0.0828395
-0.00233519
-0.0995564
-0.00163012
0.042839
0.00439493
0.0372735
-0.00144003
-0.244349
-0.0697078
-0.000228754
-1.18082e-321
-0.0588028
-0.000241392
-0.0138892
-0.0222916
-6.6224e-13
0.00740557
-1.25123e-12
-0.0256423
-9.68429e-05
0.0651571
-0.0397439
0.0276683
0.0277759
-0.000204867
-0.0671604
-7.42113e-10
0
-0.011241
0.011726
0.00439493
0.0119345
-0.0477719
-7.01573e-322
0.455693
-0.0547524
0.239343
0.0193672
-1.47719e-07
-0.028162
0.00442694
0.129019
-2.80355e-14
-0.0111701
0.0119345
-0.0220117
0.00404254
0.00952931
-4.06559e-07
-0.00392988
-0.00925423
0.00277207
0.0118339
0.00430888
-1.74766e-05
-0.0561351
0
-0.0369947
-0.00861551
-1.20379e-07
-3.90305e-06
0
0.332374
-4.15537e-24
0.000322081
0.049752
0.00277707
-0.000288383
0.0119345
-1.16209e-12
0.0237816
-3.04668e-05
0.0234479
-0.079333
0.0162084
-0.0561351
-0.0514055
0.0796244
-0.0278974
-0.0458778
0.476694
0.0842291
0.0286165
0.0474378
0.283683
-0.000240583
0.00325251
-4.81879e-05
-0.0036699
0.00018288
-3.81487e-07
6.55334e-06
0.0315455
-1.11964e-06
0.0883138
-4.64802e-05
-0.144114
-0.0789149
0.00459389
-0.000553117
0.000625145
-0.00498374
0.0196388
0.1178
-0.00243793
-4.15914e-05
0.00506797
0.0501831
0
-0.00319967
-0.0340537
-0.0905815
0.0315198
-0.0620431
-0.0590205
0.0425532
-8.52102e-10
0.117059
0.0851779
0.0020835
-3.66416e-09
0.272649
0.0227447
-1.16469e-06
-0.00298365
-0.100504
-4.83397e-13
-0.000234456
-1.16469e-06
0.0282831
0.0162987
-1.16209e-12
0.00121567
-0.131709
0.0843414
-0.0166729
-0.00278457
0.0906325
-0.0366666
-0.028035
0.0223192
-1.97567e-05
0.000600164
0.00763377
0.106994
0.0528935
-0.109223
-0.18845
-2.32684e-09
-0.0535356
-7.31303e-08
-0.697331
-1.23487e-07
0.00352965
-0.0224206
-0.0148937
0
-0.000573659
0.0236013
0.00453257
0.0391537
0.12702
-0.00844344
0.0416792
-0.149712
0.0796916
0.0419885
-0.000239071
0.0426531
-0.0849082
0.123032
0.000376772
-0.0242725
0.083972
-0.148899
-0.0139031
0.0410606
-0.0620414
0.0623185
0.0328158
-0.00647134
0.114282
0.394249
-0.0693185
-0.0519602
-2.30341e-05
-0.0415952
-1.33125e-06
-0.0340537
0.0291961
-0.000232707
-0.0803288
-0.114273
0.00858578
-0.0626205
0.0535922
0.0652795
0.0104232
0.120988
-0.0791929
-0.0256423
-0.0193572
0
-0.0676038
0.0207458
0.167484
-0.0145873
0.0456683
0
-0.000238163
-0.0053362
0.0502708
0.0497535
-0.000242617
0.00952931
0.0782662
-1.08694e-321
0.032905
0.77032
-0.0430631
-0.0458248
0.0292443
-7.85114e-12
0.0903356
0.0119345
-0.083744
-2.89958e-08
0.0178152
-0.109714
0.00250569
0.469299
0.00459166
0.0382933
-4.27978e-06
0.14196
0.0724537
-0.0390237
-0.0561351
0.0563583
0.0393648
-0.0469874
-0.0646808
0.153179
0.00952931
0.00212642
0.00775431
-1.27651e-21
0.0813974
0
-0.0239888
0.00793717
0.034147
-0.0170016
-0.0459967
-0.0866034
-0.0368932
0.0405887
0.0686346
0
-2.68351e-09
-1.20379e-07
-0.00556542
-9.88131e-322
0.0195732
-0.00228159
6.57107e-322
-0.0724902
0.000980066
-0.000122385
-0.0157446
0.206761
0.017238
-0.0522599
-1.18082e-321
0.160062
0.0266226
-0.000288383
0.0349839
-0.105682
0.00307681
-0.109149
0.0329486
0.0255019
0.0412465
0.0430883
-0.000225831
0.0043047
-9.16657e-08
0.0243014
0.0286165
0.0530656
-0.0740683
-0.000226826
-1.01199e-11
-0.119182
-0.0238314
-0.0473919
0.00997408
0.00392958
-0.0767552
-0.031284
0.0881131
-0.0301749
0.00512267
0.136945
-0.000239064
-8.98546e-07
-0.000228754
0.00740557
-0.00720525
0.00693
-0.0547851
0.0710029
-0.0481425
-0.0187477
0.175475
-1.08745e-13
-0.0502975
-0.00278457
0.0438168
-0.0258384
-0.0219124
-3.47882e-06
-0.000288383
0.0790936
-1.86421e-08
-0.0592618
-4.06458e-07
0.0594626
0.0702386
-0.0140043
0.0200302
-0.0439301
0.047399
-0.162832
0.0403209
0.0164984
0.0048534
0.0610318
0.124655
0.0150706
0.0190857
-5.18769e-322
-0.00452698
-0.0883731
-0.216351
0.000523219
-0.0560707
-0.0390237
0.0121027
-0.134668
-0.000368654
-0.00113713
0.00618805
0.0126794
-5.74771e-07
0.00896506
-0.143448
0.031502
-0.0707612
-0.0365103
-4.15537e-24
0.113264
-0.000238182
-0.00768636
0.00325213
-0.0548853
0.00812847
0.0415991
-0.0323751
0.0846043
-0.0721714
-0.0750586
0.0245989
-0.00596223
0.0314303
-0.00637017
0.0219205
-0.0194285
-0.00498374
-0.0520401
-0.0646095
-0.0321251
-2.11516e-08
-0.240699
0.0302961
-0.00452258
0.208651
0.111061
-0.134202
0.0838035
-0.0176905
0.143879
0.00147884
0.0837969
0.0734167
0.000997559
-0.0238314
-0.0394025
-0.0164545
-2.32684e-09
0.0200941
0.0434071
-2.12309e-22
-0.069831
0.15248
-0.000228754
0.0321198
0.0282794
-0.00720525
-0.0117065
-7.57293e-08
0.00970533
-2.0529e-05
0
-0.0407107
0.0130216
0.0651571
0
-0.100126
0.0254048
0.00695384
0.00952931
-0.000230483
0
0.000742367
-1.05842e-07
-0.0589844
0.0782666
-0.0587043
0
0.000225021
0.00607902
-0.000616819
-2.43633e-07
-1.15597e-08
-0.0873142
0.00177096
-0.109262
-2.15071e-06
0.00325251
-2.12309e-22
0.0586912
0.0364491
-0.0828804
-1.0896e-09
0.149453
-2.50044e-06
0.000623942
0.123388
-0.0129507
-0.0465608
0.157536
0.000186643
0.0420916
-2.63553e-06
-5.08373e-13
-0.000288383
0.0278982
-0.0242688
0.00212521
-0.026595
-0.0289623
0.083972
-0.000236949
-0.110884
-0.0726857
0
0.0843414
-0.00452258
0.0123614
-0.058247
0.00961991
-0.0572719
-0.000852778
-0.0161352
-0.00714987
-2.67392e-06
0.0533134
0.178841
0.0316737
-0.0241119
-0.0172274
-0.000288383
0.0355948
1.04248e-321
-0.00768636
0.0479803
-3.43299e-05
-0.00216742
0.0112568
-0.039435
0.0591088
0.00699196
0.00117993
0.0165695
0.103487
-0.0289727
1.32904e-321
0.0493154
-4.64802e-05
0.0699182
-0.069831
0.116837
-3.90485e-08
0.00763563
-9.04682e-06
-0.00525734
-0.0669555
-0.0321251
0.000994814
-0.00498374
-0.0280499
-0.0574288
0.0621623
-3.81487e-07
-0.0468987
0.0165235
0.00802557
0.00252081
-0.0953845
0
0.0441544
-0.132402
-0.0399519
-0.0489615
0.0367073
-0.0301594
-0.0517763
-0.00702987
0.00636741
0.0268124
-7.42874e-08
0.189841
-0.00722781
-2.89205e-05
-2.12309e-22
0.00619998
0.0257143
0.0591524
0.0334192
0.0239671
0.0216073
-0.04616
0.0134521
-0.00498374
-7.74e-09
0.0337936
-0.00387856
-1.94297e-11
-0.00667937
0.00952931
0.0961848
0.0653097
-0.000239064
0.0278376
-0.0163188
-0.00285626
0.00512267
-0.0109618
-0.027356
-4.23828e-09
-0.0194013
-0.069831
-7.42874e-08
-0.0595428
-0.0511786
-1.10896e-10
-3.42999e-05
0.0190386
0.0405887
0.0031127
-6.63247e-23
0.0292666
-0.0345355
0.00749298
0.0186389
0
0.000271175
-0.000231705
0.00952931
0.0193046
0.113367
0.00549566
0.0353252
0.0207864
-0.00421384
0.000391809
0.0198282
-0.036466
0.0659574
0.203966
-0.003197
0.0118463
0.312798
-0.0466666
0.0422244
-0.00387856
0.0401665
-0.0223266
-0.0148937
0.00246229
0.0800215
0.0664157
-0.0330185
-0.0430701
0.0201645
0.0134521
-0.0257746
-0.05028
-0.0390237
0.00283828
0.0607535
-2.68351e-09
0.000997559
-4.23828e-09
-0.0349012
-0.0745337
-0.0414834
-5.28967e-05
-6.45522e-13
-5.18769e-322
-3.44388e-12
-7.33542e-07
-0.000243012
-0.0143229
-0.0173515
-4.62941e-05
-0.052793
0.02188
0.138791
-0.000288383
0.00924787
0.055016
-0.0174066
0.311752
-0.0364864
-1.86033e-06
0.0349615
-0.0219124
0.0877244
-7.42623e-12
-0.000137277
-0.0502975
-2.91407e-06
0.02307
-7.22782e-08
9.09081e-322
-4.27978e-06
0.309622
-0.0392127
0.0244149
0.00952931
0.173727
0.0218473
0.00952931
0.0157593
0
0.211613
0.0475798
-0.0219124
-0.145795
-0.298118
0
-3.44388e-12
0.000131609
0.00558907
-0.0932455
0.00655759
-0.0390237
0.0252077
-0.0523342
-0.0195067
-0.0491706
-0.0238206
0.0243931
0.0010223
-1.23971e-07
0.00359034
-0.0684944
0.101671
0.471599
-1.20379e-07
0.0119345
-0.0689258
0.0201645
-0.0453877
0.136182
0.100147
0.173613
-0.133724
0.176253
0.0614121
-4.99749e-11
0
1.48946e-05
-0.0491586
-3.70794e-13
-0.080544
-0.000234658
0.1152
0.0734886
-0.0767354
0.00512267
-0.000320729
0.0445655
-0.082536
-0.0438612
0.502435
0.0431266
0.173689
0.00459389
0.0444082
-4.15537e-24
0.024273
0.000664538
0.191625
-0.0334793
-0.000137153
0.165685
0.04925
-6.144e-06
-0.0170821
-1.20324e-06
0.01708
0.041857
0
0.0437295
0.00758229
0.00283828
0.163563
-0.000237638
0.00512267
-0.33473
0.010323
0.0479835
-0.000487476
-0.000137157
0.00300317
0.0199406
0.0244555
-3.90305e-06
-0.0111701
-0.000234456
-0.000330276
0.287796
0.149362
-0.000248654
-0.183766
0.136919
-0.0546323
-0.0175775
-7.53628e-07
-0.0321659
-0.153747
-0.121727
-0.0289727
0.0486848
0.0446761
-0.020263
0.111952
0.0441555
-0.000222842
0.00740557
-0.0404675
-0.0122936
-9.16657e-08
-0.0141906
0.0289605
-0.0201857
-0.0374896
0.00277707
0.00285935
0.0403587
0.0684511
-0.0106994
-2.1923e-12
0.00952931
-0.0412708
0.14193
0.0247619
0.056837
-0.0122826
0.226643
0
0.0194222
0.00828737
0.00488951
-0.00945527
-9.01663e-11
0.0074756
-9.88131e-322
-3.77273e-07
-4.62941e-05
-0.000222842
0.0207864
-1.83563e-05
0.00558918
1.11659e-321
0.0108169
-0.0573069
-0.0270656
4.21369e-09
-0.00278457
0
-0.0140043
-0.0116895
-0.0404675
-3.8159e-07
0.0345344
-0.00431657
0.00369892
0.10038
0.0195593
0.0486077
0.0437539
-5.03395e-09
-0.0193572
-3.9732e-05
-0.046324
-0.1839
0.00439493
-0.0502172
-9.61853e-12
-0.000237638
0.496621
-3.47882e-06
0.0761403
-0.0117356
-0.000222697
-0.0321781
-0.0203881
0.0712399
-2.15532e-07
-7.42113e-10
-0.0495396
1.17097e-100
0.00952931
0.259132
0.165097
-0.0155325
0.305475
-0.0340537
0.00459389
-0.0698512
-0.181323
-0.0469874
-0.047136
-0.00575581
-0.000153371
-0.0390237
-0.028919
-0.00437439
-0.000101914
-0.0182179
0.0444734
9.34426e-100
-0.000238163
-0.0767421
0.0331899
-0.0236055
-5.28967e-05
-8.41376e-06
-0.131265
0.0245989
-0.0491779
-0.00890383
-0.0386067
-0.000460879
-6.63247e-23
0.100143
0.00103465
0.00325251
-0.00835585
-0.0971854
0.0257986
-0.0308993
0.0302961
-0.0308993
-0.0157446
0.0010223
-0.0645415
0.0010223
0.0108169
0.0362663
-0.0568639
0.0749742
-0.000231002
0.00952931
0.116162
-0.00568433
0.010517
-0.0697344
0.114684
0.0484564
0.00952931
0.0117175
0.0658348
-1.15597e-08
-0.0360313
0.024273
0.0423914
0.0528091
-0.00854173
-0.0307994
0.00921826
0.0908296
0.0017787
0.00171793
-4.15537e-24
-5.08583e-07
0.0267558
-0.00023994
-0.0516512
0.0330251
0.0309351
3.51065e-05
-4.81879e-05
-0.000195542
-0.00319781
0.00816971
-1.24732e-06
-0.0111771
0.0575759
0.00330783
-0.081896
0.0321198
-0.147915
-9.29281e-05
-5.18769e-322
0.0252077
0.00730047
0.00459577
0.493652
-4.81879e-05
-5.08099e-13
-0.00466906
0.0393483
-0.0490331
-0.334367
-3.77397e-07
-0.0384663
-6.96632e-05
0.0103391
0.00879581
0.00308671
0.0731117
-0.149536
-0.0125104
0.339448
0.103529
-2.43633e-07
0.00785755
0.00636741
0.0272822
0
0.0260753
-0.0131748
-0.225015
0.114273
-0.191112
-0.0738084
0.0316737
0.00226432
-0.00304209
-1.86266e-06
-8.84582e-13
-1.20379e-07
0.0660773
-0.0111701
0.0297518
-0.000231357
-0.0320619
0.0199676
0.0699385
0.0186549
-0.0186465
0.0327796
9.34426e-100
-0.0180024
-1.23235e-06
-0.00721468
-4.23828e-09
-0.000242064
0.0145371
-3.23567e-05
-0.00023574
-0.0350644
0.0539419
-0.0238185
-0.000248654
0.0257143
0.0308369
4.21369e-09
-4.23828e-09
-0.0322695
0.00947863
0.00601214
-0.0686368
-0.0114067
0.0107697
-1.25157e-05
0.0375126
-0.0358738
0.00740557
0.076295
-0.000237233
0.00799618
-0.0327706
-0.0430701
0.00459166
-0.0358276
-0.0062371
0.0327796
-0.0067037
0
0.0508497
-1.01199e-11
-0.0537333
0.0174265
0.0079264
-0.0191234
0.0286138
-1.27651e-21
0.00952931
-0.0358742
0.00631958
0.0186389
-4.99133e-07
-0.0142124
-0.0385957
0.00802302
-0.101235
0.00539306
-0.044474
0.0290365
0.0213903
0
-0.000232707
-0.052793
0.000266691
0.220024
-0.210473
-0.0578795
-1.15597e-08
0.0440859
-0.0293228
0.173631
4.97268e-05
-3.50787e-322
0.0254048
0
0.273817
0.0102728
-0.0155956
-0.0146908
-0.000137153
-0.0172274
-4.99133e-07
0.0104075
-3.2442e-05
-0.0593817
-0.0593817
0.03333
0.00636741
0.162224
0.000683644
-0.115164
-0.0207727
0.0101849
-0.000310374
0.0481907
0.0324404
-0.0358276
-0.000248654
-0.0198537
0.0331945
0.0581801
0.0576982
-0.0111701
0.00684598
-0.0903819
0.000102854
0.0368239
-0.0067037
0.0680842
0.00907756
-0.000330277
0.134398
0.105391
0.00325177
-1.20552e-321
0.00839008
-2.12309e-22
0.00949059
-0.0193572
0.030111
-0.0137645
-0.00444514
-0.0745337
-0.0397161
-0.0344317
0.00952931
-0.0327017
-0.00596223
0.00636741
0.00558918
-0.0161237
0.0337936
0.0436162
0.0954666
0.147745
0.0563151
0.0424601
0.0820686
-0.0115445
-0.0297354
-0.0613915
-0.0675025
-0.020263
-0.0608636
0
-0.0612607
0.140635
-0.132015
-0.0999982
0.004686
0.0380397
0.0556974
-0.0401719
-0.000231357
-0.188516
0.00512267
2.00523e-05
0.0599125
-0.0611241
-0.0690117
-3.04668e-05
0.0286165
0.00736618
-0.0207137
0.0106523
-0.00159943
-0.0679428
0.016746
0.116719
0.000674371
-5.08373e-13
-0.171018
-0.000202146
0.0586912
-2.24514e-15
-1.16209e-12
-0.011241
0.0425668
-0.00986018
-0.137736
-0.0154287
-0.0239897
-5.56792e-06
-0.0409698
0.0503949
-0.0344355
0.0796875
-0.0390238
-0.0650553
-0.0988941
0.100196
-0.0036719
0.0253467
-0.000332841
-0.00720525
-7.42623e-12
0.0589746
-0.166289
-0.0909265
-0.000527959
0.000523219
0.230364
-0.011521
-0.0148937
-0.0238314
-0.139259
-0.00854173
-2.43633e-07
-0.00654057
0.0405887
0.00512939
0.0775385
0.0017958
0
-2.89958e-08
-0.0213775
-0.00450255
-0.0469874
-0.154546
3.28085e-100
-0.0620414
0
0.0614268
0.0135362
-0.000234658
0.0345729
-0.0149413
-0.0786358
-0.000236082
-0.000232538
-0.0821469
-1.33085e-09
-0.000288383
0.0722759
0.0125881
-0.0502975
-6.63247e-23
-0.158609
0.00256036
0.0408498
0.0312405
-2.12309e-22
-0.000237638
-0.020668
-2.15071e-06
-6.96632e-05
0.0262921
0.268204
-2.67392e-06
-0.0317622
-0.0550424
0.0290166
-0.045084
-0.00423942
-0.0111701
-1.55905e-05
0.00107449
0.00967197
0.0252119
0.00954788
0.000124989
0
0.120888
-0.0385123
0.0333694
0.00330783
0.0736882
-0.000222842
-0.00978579
0.0286165
-0.00925423
1.00637e-05
0.0123614
-2.89205e-05
-0.0185207
0.0252077
0.133783
0.0307054
0.0474436
-7.42623e-12
-0.0203881
-6.144e-06
4.21369e-09
0.0244149
0.00782024
0.042902
0.0693308
-0.0305529
0.00452533
-0.000330276
0.0253252
-0.0462873
0.00752164
0.216659
-0.0578795
0.0107697
-0.119348
-0.00022279
0.0584129
0.000742367
0.0332109
-0.000288383
-0.0502975
0.00411362
0.00295279
0.0107697
0.118972
1.15287e-99
-0.00826957
-8.84582e-13
-0.00498374
-5.03395e-09
0.00115057
-0.0562726
0.00777531
-1.21622e-11
0.00459389
-1.23235e-06
-0.111264
-0.0130712
-0.0308993
0.00181716
-0.0065801
-1.10896e-10
-0.0342898
0.0201944
-0.0877182
-0.00654057
0.00952931
6.57107e-322
0.00439897
0.0401665
-8.41376e-06
0.084367
-0.0689222
0.00212642
0.0318842
-0.0238314
1.75308e-05
0.0503949
0.126714
-0.0213409
-0.0160604
-7.33542e-07
-0.000247129
-0.1692
0.000131609
0.0401665
0.0444336
0.0563583
0.0165259
0.0362614
-0.0133668
-0.0141906
0.0446761
0.00342439
0.0173408
-0.165455
-0.0971876
0.0118463
0.288363
-0.000234996
0.00722386
-0.00023574
0.00808256
-1.25157e-05
0.0381641
0.130168
-0.168422
-0.0207841
0.0854385
0.00871042
-1.20323e-06
0.0841934
0.00181247
5.44564e-05
0.0439615
0.00952931
-0.00159943
-0.0345723
0.110064
-0.111597
0.0107645
0.165214
-0.0872395
-0.00375904
-7.42113e-10
0.00636685
0
0.119432
-0.00596223
-1.26258e-07
0.00304261
-0.0286886
0.103307
0.00800524
0.0401665
0.0130216
0.00638969
-3.04668e-05
-0.0162706
-0.0999982
-3.70794e-13
0
-1.09043e-05
6.72341e-07
0.0292412
0.0686346
-0.00943165
0.00839753
-8.98546e-07
0.0216142
-3.66416e-09
-0.00048881
-0.0616124
-0.000137153
0.00538732
-2.67392e-06
-0.073186
-7.98466e-05
-0.338162
0.00952931
0.0526393
-1.05842e-07
-0.00637463
4.653e-110
0.00488951
0.107536
-0.000680991
0.0166056
0.33482
0.00714094
0.0268042
0.109138
0.0782666
0.0133586
0.00512267
0.00325251
0.0406619
0.0164468
0.0727624
0.0906422
0.000322084
0.0749527
-0.00037008
0.00512267
0.0807974
-2.24514e-15
-0.011521
0.122893
-0.000330276
0.052949
0.0556136
0.00802546
-2.42797e-09
0.00271348
-0.000249344
-0.0145527
-1.10838e-12
0.0750358
0.00578597
0.00295279
-1.36804e-05
-0.000232538
0.0302961
0.0437295
0.0285377
-0.00720525
-0.0148937
0.136416
0.146025
-0.00172654
-0.0141997
-0.0384663
0.0075875
0.00952931
-9.45127e-06
0
-0.109149
2.03706e-109
0.0322866
-0.0491586
0.0486502
-0.146463
0
-0.0237957
-0.0680359
0.0375222
0.00325251
2.37152e-322
0.0727934
-0.0228049
0.0133214
0.167934
-0.0221938
0.10222
0.013473
0.00728686
0.0299668
0.0370792
-2.15071e-06
-0.0326883
-0.114567
0.0396743
-2.3034e-05
0.0267394
-0.0117065
-2.1081e-05
-0.0219966
-1.08745e-13
-0.0265852
-0.0178616
0.010517
0.0706632
0.00630771
0.064909
-0.000233336
-3.47882e-06
0.0372816
-0.0621399
-1.125e-07
-0.000237162
0.0155486
-0.00168937
-0.0575231
-4.54464e-09
-2.95252e-13
-0.157825
-0.0477441
0.00749517
0.00169298
-0.0661033
0.0761403
-0.000247129
-0.0614969
0.0207864
0
-9.11363e-23
0.000844635
0
4.653e-110
-0.0872395
0.201342
-0.000288383
0.0292443
-4.36326e-22
0.0395995
-0.0763769
0.135172
-0.0134124
-0.0255895
-0.199464
-0.0140276
0.00130866
0.0888787
-2.89205e-05
-0.0293544
0.0186305
0.0253259
0.000102854
0.00183723
-1.07212e-321
0.00670921
0
0.0601516
-0.0432003
-0.0173515
0.00342439
0.0162597
-6.96632e-05
0.00558918
0.0318511
0.126295
-0.28599
0.00952931
-0.00296545
-0.0297177
0.129638
-0.029729
0.0412621
0.0165259
-0.0622446
-0.0958709
-0.107112
0.00488951
0.0529359
-0.00201966
0.00121688
-0.103388
0.0105628
0.015418
-0.0921165
-0.0535356
-0.04389
0.0155486
-6.6224e-13
0.0501831
0.00849087
-0.0492476
-0.0145527
0.024536
-1.20552e-321
-0.00456165
-0.0748825
0.0262009
-0.000228754
0.00952931
-0.0239897
0.041912
0.00790756
-0.126596
0.0238416
0.0180045
-1.25157e-05
0
-0.0530628
0.00369892
-0.0166598
-3.2442e-05
0.0263904
-0.147327
-0.0141659
-0.0102999
0.0609213
0.0110491
-3.47882e-06
0.513248
0.0415991
0.0170803
0.0316737
0.056837
0.0158693
0.00495347
0.0501831
0.00468717
-0.0112807
0.0300651
-6.46123e-05
-7.42623e-12
-0.0170722
0.0775385
1.12153e-321
0.0525003
-0.000240583
0.00740557
0.016908
-0.00527217
-1.65884e-10
-0.00363887
-0.023357
-0.000330276
0.142492
0.0155486
-8.98546e-07
-0.0129507
0.00846606
0.0200302
-0.0185705
0.0868012
-0.13479
-0.0566483
0
0
-0.0492039
-0.000288383
0.00560494
-0.0385257
-0.0101891
0.00761713
-0.0347344
-0.0917617
-0.0286886
0.0378725
-0.121736
-0.000138963
-7.42623e-12
-0.0117065
0.0121362
0.0133586
0.12282
-5.08373e-13
-0.0315274
0.193875
0.0944788
-0.00022279
-1.07212e-321
-1.37605e-09
0.0412621
0.00342439
-0.0604275
-0.0574586
-0.0334818
0.0341509
0.00335152
-0.000231705
0.0318293
-0.0203436
-5.75744e-16
-0.0503458
-7.42879e-08
-2.80355e-14
-0.0198202
-0.00022885
-0.0934791
0.046346
-0.000231705
-0.0111701
-0.107968
-6.45522e-13
0.0126329
0.00758229
3.59707e-05
-0.0452823
-2.91399e-11
-0.0453877
-1.58438e-06
0.00782879
-1.22121e-08
-2.12309e-22
-0.000219114
0.0372925
-0.000224192
-0.00768984
-0.000220788
-1.05842e-07
-0.114447
-6.45522e-13
0.0436217
-0.0406619
0.00731892
8.44852e-322
0.250563
0.00325251
-0.045323
0.0240676
0.0323523
-0.00581814
-0.0140043
-0.0568154
-0.115469
-0.0109745
0.010517
-0.000253413
-4.64802e-05
-0.0694935
0.00488951
0.082001
-0.0878049
-6.63247e-23
0.0173408
-1.25157e-05
0.00400531
0
0.0622222
0.00815504
9.34426e-100
0.00952931
0.0172168
0
0.000322084
-0.141668
-0.0222072
0
0
0
-0.000238163
-0.0578795
0.0326329
-0.0667323
-0.0518574
-2.24514e-15
-1.12526e-06
-2.42797e-09
-2.1923e-12
0.0689867
-0.0192579
-0.0125645
-0.154624
-0.0285372
-0.000227747
0.0318842
-0.291058
-1.22034e-321
0.00787077
-0.0186465
0.00117993
-1.15597e-08
-0.0281111
-1.15597e-08
0.000811801
-0.223742
0.00488951
0.0566883
-0.0153972
0.0380746
-1.05842e-07
0.00549368
0.0380114
-0.0749592
-0.000237501
0.311437
-0.0158843
0.00802557
0
-7.85114e-12
0.108475
-0.0759258
-0.000332137
0.000192943
-0.000241991
-0.0629033
-1.83563e-05
0.0198732
-6.49988e-07
-0.0157446
-0.0160603
-0.0643719
0.0924208
0.00839753
-2.11516e-08
-0.0140276
-0.00526141
0.00952931
4.97268e-05
6.55343e-06
0.0130216
-0.0194802
-0.0966245
0.01373
0.0668109
0.0383975
0.0784407
-1.86033e-06
0.0844295
0.0452569
0.0136202
-0.0424761
0.0405022
-0.05028
0.00121688
0.0560434
0.0773211
-0.0495354
-0.282481
-4.70055e-08
0.0153
0.00783454
-0.10832
-1.20379e-07
0.0257143
-4.06559e-07
-6.45522e-13
-0.0423127
0.010323
-4.96439e-06
0.0601579
0.0560267
0.12802
0.0627607
-0.0265023
-0.00969212
-0.0678478
-0.136465
-2.12309e-22
-0.000330276
-0.0382137
-2.9999e-08
0.109943
-0.103065
0.0646971
0.0124884
0.0175205
-4.23828e-09
-2.1923e-12
-3.49804e-25
0.0165259
-0.0614421
-0.0488677
-5.15993e-06
-0.000228754
0.0201645
0.00802557
-2.1923e-12
-1.08022e-05
0
-0.0914944
-0.0185662
0.0126993
-5.08583e-07
0.00512267
-7.49617e-08
-0.0515325
0
-6.45522e-13
-0.104839
0.016746
-0.0346705
0.0118463
0.0116771
0.00952931
0.000623872
-0.0145527
0.00758229
-0.000281972
-0.0202452
0.00347515
1.16881e-05
0.059901
0.0983758
0.00325251
-0.0714224
-0.0453877
-0.044132
0.158237
0.050088
0.010517
0.00117993
0.00749298
0.000811801
-2.24514e-15
-0.0170016
0.0166557
0.0230699
-0.027045
-7.42874e-08
0.0233392
0.00325251
0.0417401
-0.0454074
-0.0414834
-0.000239064
0
0.0245898
-1.58438e-06
-0.568175
0.000279452
-7.42113e-10
-0.0135898
-0.0834469
0.048541
-0.0182668
0.210359
0.00512267
-1.33085e-09
-0.0935916
-0.000163574
0.00218815
-3.44388e-12
-0.0578795
-0.100857
-0.000236949
-0.000220788
0.0307823
-0.0361922
-0.00159943
-0.054086
0
0.0325942
-0.0193572
0.0173408
0.00952931
-0.0198202
0.017081
-5.08583e-07
-0.0463494
-4.70055e-08
0.00636741
0.015418
0.0393437
0.0286165
-0.0767421
0.00611892
0.00430382
-0.000220788
0.0651571
-0.00296545
-0.0386067
0.00512267
0.129972
-0.0438671
-0.0105815
0.0292939
-0.0276502
-5.80139e-05
0.00684598
-0.0140043
-2.28708e-09
0.0178152
-0.0299101
0.00468717
0.128311
0.0532661
-0.0270656
0.0414423
0.0611889
-0.0123524
0
0.0603499
4.653e-110
-0.122621
0.113104
-2.28708e-09
0.163804
-0.0617066
1.32904e-321
-0.0738582
0.061583
9.14287e-05
0.0178152
0.0522985
-1.94297e-11
0.0216142
0.0273267
-0.0831463
0.0628427
-0.162764
-0.125251
0.0917033
-7.42623e-12
0.0626522
0.00636741
0.00325251
0.0186548
0
-7.42623e-12
0.264403
0.00952931
0.00952931
-0.050461
0.187935
-2.89958e-08
-0.0985697
-4.28089e-06
0.00411362
-0.0308882
0.0783539
-0.123611
-0.0258986
0.122928
-0.0647621
-1.05842e-07
0.120888
-0.190819
-0.0359154
-0.0657531
0.00884805
-4.36432e-22
-0.0322677
0.016746
0.378777
-0.000397393
0.00465431
0.0314303
-0.0182179
0.0804141
0.0220152
0.0216142
-2.15532e-07
0.0965042
0.119177
0.000742367
0.0919946
0.0614671
-0.000229859
-0.118993
-0.0131266
-0.0222916
-0.00159943
0.0238893
-0.0283587
0.183435
0.140805
0.00910303
-4.23828e-09
0.0123614
-0.0405439
-0.00746363
-0.00513132
0.00684598
-0.000222697
-0.0840848
-0.0186466
-0.000232315
-0.0925751
-4.23828e-09
0.149453
0.0141075
0.179868
-0.0193958
0.0329837
0.0827431
0.0197299
0.0207387
-0.00509896
0.1531
0.290067
-0.000228095
0.0216142
-1.02173e-05
-0.0514639
-0.10903
0.0768735
-0.00159943
0.0946527
0.116253
-0.000237501
-5.91303e-05
-1.58438e-06
0.0342997
-0.0129507
0.0322482
0.000994814
0.0568314
0.00837439
0.179965
0.067754
-0.0278956
0.00459577
0.0171164
0.03844
0.023396
0
-7.57293e-08
-0.0549947
-0.000224192
0.0338624
-0.0236671
0.0532661
-2.95252e-13
0.0143172
-0.000239064
-1.05903e-25
-3.90305e-06
0.0240389
-4.74527e-05
0
0.00459389
0.00121688
0.0101047
-0.00513132
4.05591e-110
-1.27651e-21
-0.0334597
1.33872e-05
0.00439493
-0.0129507
-0.000235926
-0.0132525
-0.081329
-3.90305e-06
-0.0458038
-1.05842e-07
0.0847471
-0.114932
-0.0157446
-0.00023994
-0.122626
-1.27651e-21
-0.00319781
-0.000230754
-0.122961
-0.0933856
0
0.0200299
-0.0140043
0
0.0333277
0.0855206
-0.152215
-0.0250204
-0.0749592
-0.0140043
-0.00768636
-0.0300434
0.00693
-0.0157446
0.251873
-0.103388
0.105388
0.0245989
0.06705
0.0796261
-9.45127e-06
-0.0614421
-0.0569376
-0.0711176
-0.00378484
0.0119345
0.0686346
0.181441
-0.000232539
-8.84582e-13
-0.0618656
-0.0201067
0.0219344
0.0997839
0.00640227
-0.0578795
0.0916047
-0.106432
0.00311131
0.00545948
-5.08373e-13
0.00952931
-0.000239064
-0.0358276
0.0159044
-9.11363e-23
0.102908
-0.102381
0.0609663
0.0436874
-0.162268
-0.000288383
0.0858032
0.00837633
-0.0661275
-0.0141751
0.0427382
-0.0111701
-5.56792e-06
0.143965
-0.0194013
0.0908862
-2.68351e-09
-0.000234658
-5.75435e-07
-1.01199e-11
0.00560494
-0.0730618
0.000322084
0.0644094
0.103828
0.046663
-0.124613
0.0295941
-0.263501
0.0169489
-0.0516512
0.00832771
-4.23828e-09
-0.000137153
-0.0100617
-1.20379e-07
-4.36326e-22
1.15287e-99
0.0176881
-0.0700974
0.105842
-0.0140315
-0.124508
-0.00159943
0.0399119
-0.0002346
0.00512267
0.00128085
-0.0885078
0.00683755
0.00802546
-2.38929e-05
-0.095179
0.0671384
0.0430873
-0.0765619
0.0017958
0.18231
0.00986096
0.0119345
0.00226432
0.00512267
0.0257143
-1.60189e-06
0.0294436
0.00512267
0.0230699
-0.0145527
-0.000248654
-0.0105956
0.363928
0.0245898
0.0684511
-0.0428724
-0.0850579
0.000132573
-0.000248654
0.0194312
0.0532072
0.0345961
-0.0612133
0.161868
0.0284673
0.00134691
0.0369609
0.0079926
-8.84582e-13
0.23823
0.00795575
-0.0193994
-0.0524162
-0.00144003
-0.0250517
0.0227124
-7.01573e-322
-0.170928
-5.82985e-08
-0.0238206
-0.00513132
0.0276042
0.0268775
-0.000286543
0.00829276
0.00241378
0.141349
-0.0116185
-1.48792e-10
0.0428509
-3.87613e-222
-0.00406781
0
-0.00024934
-0.0254727
-0.0257217
0.0199696
0.000900222
-1.20379e-07
0.107009
0.0152183
-0.243831
0.247696
0.115677
0.0499062
0.0653644
0.00770465
0.0119345
0.0200941
-0.145016
0.00283828
-8.98546e-07
0.149453
0.360326
-0.000220788
-0.00494909
-0.0129507
-0.0753692
-0.0238314
-0.000248272
-0.000224774
-1.16209e-12
-0.00024934
-0.0320097
0.00952931
0.0976215
0.0965259
-0.00378484
0.15143
0.00952931
-0.0067037
-0.000288383
-0.0572025
-0.108165
-0.0877182
-0.00271927
0.0352053
0.00952931
0.230721
-0.0185329
-0.0138053
-1.45749e-321
-0.0550424
0.0815828
-0.000231002
-6.31739e-06
0.00540404
0.0318842
0.0245898
0.0998393
-0.03282
0.0321705
-1.20379e-07
-0.0427735
-0.099373
-0.0034248
0.192249
0.00785755
-1.01199e-11
0.0375074
-0.0520404
0.00636741
-0.0192579
-0.0631808
0.0110291
0.00785755
0.0769446
-0.000288383
-0.0432241
0.00952931
-0.000232315
0.0345437
-0.069831
-0.000239078
0
0.049752
-0.0568078
0.0380746
0.0256716
0.154693
0.0010223
0.00459166
-0.00498374
0.0199202
-0.0173515
-0.0418564
0.184545
0.0230699
0.00853058
0.275133
0.00144693
-6.63247e-23
0.00763563
0.0362628
0.136635
-0.00022993
0.102458
-0.000345081
0.179473
0.00952931
-0.000202146
0.0587618
0.0373051
-0.0401897
0.0290166
-3.14048e-05
-0.00159943
0.134065
-0.144708
0.00464199
-0.0390237
0.00974034
0.0326559
0.0119345
-0.0457814
-4.15537e-24
0.0346484
-4.81879e-05
0.0477102
-0.000234456
-0.049611
0.00113302
0.0130216
-0.0173515
-0.0719503
0.0469576
0.010517
0.0119345
-0.0145873
-0.0390289
0.00103465
-0.577626
7.41098e-322
-0.130275
-0.00452258
-3.47882e-06
0.00952931
-0.0515502
0.0149485
-2.11836e-12
-0.107887
-0.000169912
0.0255156
-0.0552287
-0.0766118
-0.0335203
-3.4463e-07
-2.91399e-11
-2.67392e-06
0.0290166
0.00325251
0.131147
-0.0180909
0.0121043
-9.04682e-06
-2.1923e-12
-0.0158903
0.023916
0.210426
-0.0432195
0.1042
-0.0975513
0.0119345
-0.0270656
-0.0679524
-0.00527217
0.0761083
-0.0527162
-0.0034248
-8.84582e-13
0
0.0401665
-0.0308882
-1.86033e-06
-0.0219966
0.0401665
-0.0307994
-0.0113929
0.271886
-0.0603746
0.0155062
0.123817
-3.44388e-12
0.0710029
0.018217
0.00325251
0.0521094
-0.0140043
-2.1923e-12
-0.0911969
0.23473
-1.27945e-05
-0.00721468
-0.00444514
-0.00596223
-0.0620414
0.0401665
0.0169094
3.28085e-100
0.584302
0.0597297
-0.0497805
-0.0334579
-0.000163574
-0.00819808
0.00241378
0.0392654
-0.000235638
0.0362749
-0.0193572
-0.0172274
-0.00169556
-0.0275492
-1.05842e-07
-0.0598056
0.122909
-0.0075898
-0.0765384
0.0382933
-0.0139205
-0.00596223
-0.0409698
-3.73493e-07
-1.55905e-05
-0.0197243
-0.0965565
-3.41998e-06
-0.0252348
-0.0239527
-0.045221
9.34426e-100
-2.24514e-15
0.0412621
0.0412368
-0.00364149
0.207131
0.0972673
0.0300265
0
-0.0215117
-1.33085e-09
0.0326664
-1.65884e-10
0.262814
0.0268352
-0.0685279
-2.07223e-09
0.0580366
-0.105427
-0.119032
0.00636741
0.00325251
-0.0623903
-7.2276e-08
0.0119345
-0.0576522
-0.0675317
-0.0318643
0.0997009
0.0390052
-4.07334e-06
0.0461759
0.148974
-0.0627431
-0.0493332
-0.0357757
-6.49989e-07
-0.0239897
0.0393571
-0.000330276
-0.0182179
0.0119345
-0.0010472
-0.0104137
0.049596
-1.10896e-10
0.0731355
-0.0693549
0
0.0466464
-9.68429e-05
-0.000330276
-0.0587896
0.177919
-0.000234456
-3.05812e-06
0.0676405
0.00212642
3.55572e-05
-0.011521
-0.000330276
0.0307682
0.0167394
-1.27651e-21
-0.191007
-0.0513151
0.0577866
0.101375
-0.0386067
0.204128
0.0876535
-0.0158118
-0.0340537
0.120888
-0.0082234
-0.000226252
-0.0104228
-0.010778
0.0577148
-0.017739
-0.100504
0.00753146
-0.0276618
-2.11836e-12
0.118706
0.0567358
0.01166
0.0508006
0.000523214
0.0735307
-1.125e-07
-0.0578795
-9.88131e-322
0.00952931
-0.0354212
-0.0102808
-0.00285626
-0.000289033
-0.0340537
-0.147137
0.0318842
-2.89205e-05
-7.74e-09
-0.0182182
0.0912615
-0.010878
0.00205196
-0.0368537
0.268193
-0.0353182
0.00952931
0.164234
0.00447989
-2.89205e-05
0.0119345
-0.077565
-0.0594975
-0.0324957
-8.84582e-13
-2.1923e-12
0.10544
-2.67392e-06
0.000124159
-0.119032
-0.0238314
-0.0155087
-0.00498374
-0.0913386
-0.000616819
0.00683755
0.00218815
0.00839008
-0.39413
0.0331899
-7.42623e-12
0.00802775
0.0535535
0.0850338
-0.0447184
0.00952931
0.00636741
-0.00340332
-3.50787e-322
0.00330783
0.00304261
0.0436418
0.0846298
0.195092
0.195092
-0.023603
0.0495181
-0.0670948
-0.0067037
-0.0996313
0.0673682
0.00952931
-6.49988e-07
-2.15532e-07
0.00952931
0.00512267
-0.0552957
0.022669
-0.00023574
-0.000235958
-9.04682e-06
0.00216578
0
-0.179897
-0.0293544
0.155864
-0.00452258
0.0495432
0.0236364
-0.0527477
0.0957782
0.0252077
-0.10475
0.0184728
-4.74527e-05
0.0119345
-0.0210369
0.000777209
-0.000286543
-0.0641452
0.00952931
0.0357952
-0.017348
-8.38813e-05
0.256479
-0.0101616
-0.00023994
-0.0738084
0.13052
0.0524601
-0.0176448
0.366547
0.0332912
-0.0111701
0
-0.0262459
-1.16209e-12
0.138271
-9.88131e-322
0.0734886
0
-0.184716
0.000721732
0.00685353
-0.00526141
9.34426e-100
-0.160193
0.00342197
0.0140847
-3.70794e-13
-1.09043e-05
-0.100668
0.0165235
0.0888624
0.0662058
-0.0385123
-3.38855e-05
-0.0166729
0.089189
-2.1923e-12
-0.000239068
-0.0111701
0.0138579
0.00459577
0.0659564
0.0380062
-0.000330276
0.00488951
1.75308e-05
0.0139058
0.00171238
0.00952931
0.0257143
-2.15105e-05
-0.020251
0
-0.0601634
1.20832e-05
0.00689298
0.0292666
-0.0847422
-6.00852e-07
0.249093
0.0666496
0.0155926
0.0523682
-2.12309e-22
0.00482706
-0.0680009
-0.0460137
-0.11882
-0.000243778
-0.201106
-1.02272e-321
0.10038
-1.18082e-321
3.55572e-05
0.0243153
0.0406815
0.0216142
-0.0329265
-0.0298743
-0.0941583
-0.0466797
-0.044132
0
-0.000288383
-0.13972
-0.0172274
-0.152297
-4.96439e-06
9.34426e-100
-0.0802297
-0.0379496
-0.0684553
0.00368777
-0.0145687
-0.0132314
0.000314456
-1.58438e-06
0.12872
-0.000235926
-0.00623573
0.0209453
0.0474594
0.0725285
0.000625145
-0.025825
-4.23828e-09
0.0278686
0.0245989
-8.98547e-07
0.00952931
-3.91424e-05
-0.0614235
-0.000330276
0.196696
0.0286165
0.0756834
0.015418
0.0957283
0.0403252
0.00952931
0.0430639
0.0758237
-0.00278457
-0.000330276
0.00584592
0.0497493
-0.0120008
0.00776071
-0.0772467
-0.00341911
-5.80576e-16
-0.0121874
-4.23828e-09
0.000495026
-0.0556329
-0.0170571
0.00319188
0.0155486
-0.000466336
-0.120223
0.0334058
-0.0157446
-1.18082e-321
-2.4305e-07
0.0245989
0.0951577
0.0590668
-0.000222763
6.57107e-322
-0.00751921
-1.97431e-13
0.0965213
0.0155157
0.00241378
0.0106035
0.0288085
0.00816971
-2.1081e-05
0.0806137
0.0318842
-7.74e-09
0.091829
-0.0103921
0.142302
0.115597
-1.48792e-10
0.00134691
-0.0135954
-0.0434328
0.0478485
-0.0140317
-0.0170722
-0.0779439
-3.66416e-09
-0.0340009
-2.24514e-15
-0.0241898
-0.0292632
0.10963
0
-0.0339017
-5.82985e-08
0.154913
-0.0488871
0.00749234
3.28085e-100
0.00636741
0.00952931
0.00668721
-1.05842e-07
0.0286165
0.0343335
-0.168381
0.169722
0.0119345
0.0262955
0.142276
-0.0117066
-0.0444669
0.016746
-0.000220145
-9.11363e-23
-5.47584e-05
0.00791986
-0.0173699
0.0435665
0
0.00702225
0.010517
0.179545
0.0290166
0.0195512
-0.0182179
-2.95252e-13
0.0318842
0.0314303
-3.02465e-07
-0.0197177
-0.00186068
0.135789
0.00752813
-0.00296545
0.142007
0.000890533
-1.0896e-09
0.0316737
-0.106864
-0.0102571
-0.0140043
0.0287791
-0.0186465
-0.0386067
0.0108169
-2.24514e-15
0.0103824
0
0.201365
0.00485377
0.0151056
-5.15993e-06
0.00277707
0.0270753
0.024156
0.0489395
-0.0256423
0.123583
0.0424087
-0.274359
-1.33125e-06
-0.00024934
0.0119345
0.0843831
-0.0145002
-0.101632
-0.00818578
-0.0286737
-0.00158214
0.00488951
0.000473517
0.00205196
0.00512267
-0.00527217
0.0226072
-0.0155154
0.000523219
-0.0614235
0.148812
-1.74251e-13
0.0371716
-4.15537e-24
0.0373051
0.0126993
0.000346218
-0.000231044
-0.000235926
-0.0393859
-0.0246448
-0.000397899
0.00747643
0.00952931
-0.0827081
-0.0270449
-0.000238163
0
-0.111914
0.0290365
-0.0711597
-0.0334793
4.21369e-09
-3.46872e-05
0.0705096
-0.0934466
0.146963
-0.0729686
-0.000241991
0.0391537
0.0155486
-0.0111701
-0.100419
-3.50787e-322
-0.011521
-0.0749592
0.0312213
-0.0118816
-0.0433459
0
-0.00311494
-0.0292139
-1.60189e-06
0.00816971
-0.00596223
-1.46954e-08
0
-0.0702692
0.0458032
-0.00498374
0.0297463
0.00636741
-2.28708e-09
-0.00498589
-0.0240219
0.087032
-0.00159943
-0.00024934
-0.144693
0.00802302
-0.00285111
0.0129572
0.0186389
0.00277707
-1.05842e-07
-0.0162706
-0.0207332
-0.0402822
0.0118232
0.315089
0.0569892
-0.0106322
-5.11211e-06
0.0207458
0.0405887
0.0405887
0.0439306
-0.000248654
0
0.0824744
-8.98546e-07
-6.81627e-09
0.00304261
1.00637e-05
0.0476089
-0.000246055
-0.0230332
-0.00144027
-0.268822
0.0119345
0.0501626
0.0297515
0.0154171
-0.0149624
-0.046115
-0.00278457
0.0297518
-3.42999e-05
-0.149168
-3.47882e-06
0.0329952
0.00952931
-0.000330276
0.0848537
0.142939
-0.000235926
-0.0356541
-7.42623e-12
0.0668733
-0.146462
-0.000231705
-0.10737
-0.066794
-0.0155956
-0.0958698
1.17097e-100
0.00222461
0.270558
0.00558918
0.00952931
-4.41018e-06
0.0182972
-0.0714989
-0.10087
0.00952931
-0.0665288
0.01361
-0.046172
0.154913
-0.0496824
-0.0117065
-1.35275e-08
0.00714094
-7.85114e-12
-0.0520476
0.00952931
0.200225
1.23516e-321
0.00952931
0.00785841
0.00791642
-0.000240583
0.0341472
-0.0162128
0.0129572
0.0134521
-8.00347e-24
0
-0.0248042
-0.113688
-0.0513891
-0.0612299
0
-0.00525734
-0.0111701
0
-7.46242e-08
0.0241041
0
-0.0676685
-0.0067037
-4.23828e-09
0.00952931
0.11355
0
-0.0902868
-0.119758
-0.000110669
-0.0299101
0.0169067
-1.20379e-07
-0.286347
-0.0155956
-0.0477441
-1.05842e-07
-9.88131e-322
-0.0140043
0.0556153
0.104117
-0.0207841
0.0646636
0.0383975
-0.00813869
-0.0575898
-0.0399343
-2.89958e-08
-0.0600847
-0.0933251
0.0171164
0.11013
0.0973835
0.000271175
-1.14564e-06
0.0698706
0.00241378
-0.113118
0.116026
0.0119345
-0.0219124
0.00984204
0.172838
-0.145189
0.00459389
0.0202732
-0.0351454
5.05091e-06
-0.000137153
9.09081e-322
-0.0170016
0.0519836
-0.0377982
0.0318511
-0.0340537
0.00952931
-2.15532e-07
-0.0680359
9.14287e-05
0.00410646
1.66006e-321
0.054346
-7.42623e-12
0.0665007
0.0621623
-2.89958e-08
0.00512267
-3.50787e-322
-0.0480414
0.11377
0.0139058
-0.0170845
-0.000137154
-1.69004e-06
-1.83563e-05
0.000280553
-0.020792
-0.000330276
-0.000163574
0.223366
-0.0735203
0.0611337
0.00170746
-7.42874e-08
0.0326329
0.0405887
-0.0299101
0.00325251
-2.07223e-09
0.0415991
0.00952931
0.00636741
0.00745321
0
0.605932
0.00737902
0.0668733
0.0418707
0.10108
-0.00024934
0.371648
-2.98948e-07
-0.049526
-2.63553e-06
-2.3677e-05
0.0109975
0.0715524
-0.0442231
-0.122505
-0.000235926
-0.0353493
0
0.0151754
-0.0654453
-3.4463e-07
0.347642
0.00325251
0.0981891
0.236296
-0.0453877
0.0599478
0.00952931
-0.052969
-0.000333077
-0.0342898
0.0108169
-0.00452258
-0.00408052
-1.35275e-08
-0.0545563
0.0146658
-0.177909
-7.42623e-12
-0.0264117
0.0417863
0.0257143
-0.0453877
-6.96632e-05
0.0316737
0.00636741
0.0489412
-0.022337
0.0394635
-7.42113e-10
0.0303754
0.284069
-0.0173515
0.212343
0.00636741
0.0369608
-0.0198202
0.00410646
0.0227447
0.0364491
-2.3034e-05
-0.0652081
-0.259477
-0.0841094
0.108599
0.09213
0.00620108
-0.000235638
-0.0162706
-0.0388561
0.00952931
-0.00702125
-1.05842e-07
0.00325251
-0.0834469
0.0318842
-1.23235e-06
0.07004
-1.46954e-08
0.00121688
0.0151056
-7.01573e-322
-0.0780448
0.0843414
-0.0637007
0.150001
0.0318842
-0.0639107
-0.0418564
0.0103824
-4.23828e-09
0.0748923
0.00776769
0.023332
-0.0477719
0.0023212
-0.0174417
-1.01199e-11
0.00636741
-4.15537e-24
-2.1081e-05
0.0677373
-0.127645
0.0498921
-6.49988e-07
0.0129572
-0.0521455
-0.0385138
-0.0137522
-0.135427
-0.033895
-1.4268e-10
-0.00768636
0.0278982
0.00952931
-0.000225831
-2.89205e-05
-0.0702692
-4.74527e-05
-0.00305574
0.00428353
-1.77157e-12
0.00861441
0.0316737
-0.00363893
-0.1132
0.0749742
-1.16209e-12
0.00325251
-2.1923e-12
0.000531003
0.0593922
-5.03395e-09
0.0224777
-4.96439e-06
-0.0488871
-0.0572719
-0.0679081
-0.0751513
0.00205196
0.272773
-1.58438e-06
-0.119032
-0.0155063
-1.16209e-12
-2.95252e-13
-0.000330276
0.0393648
0
-0.029494
0.0326329
0.0430883
0.00134691
-1.23487e-07
0.0318842
-0.0423656
-0.0111701
-0.0544884
0.00952931
-0.0242136
-0.000616819
-0.0356459
0.0350507
0.000187517
-4.96439e-06
-0.0511154
-0.00560056
-0.115378
0.126736
-0.126001
-0.00378484
-3.47882e-06
-0.0308882
-0.0321548
-0.0356541
-0.00498374
-0.0239527
0.139667
0.0406706
-2.15071e-06
-0.000242617
0.000997559
-0.0315412
-0.0750909
-1.72193e-15
0.266464
0.0189773
0.00325251
-2.4305e-07
-5.10884e-05
0.147297
0.0173408
0.00283828
0.0420722
-0.00144003
0.00722386
0.0629468
-0.0252512
0.0268042
0
-0.0561351
0.0738562
0.0461483
-2.89205e-05
-0.064375
0.0562212
-0.0137522
0
0.0447208
0.00156958
-4.64934e-08
0.134037
0.0430883
-3.47882e-06
0.0445655
0
-0.00024934
-0.000330276
-0.0535356
-0.000288383
-0.0663163
0.0437295
9.34426e-100
-0.00526141
-0.188643
-5.15993e-06
-1.20379e-07
0.0611098
0.0035501
0.210684
0.0480195
0.0410612
0.0135718
0.228783
-0.0217259
0.0077041
-0.100241
-0.00144003
-0.0198202
-0.119032
0.0120861
-0.00666606
-0.000222697
0
-0.000239944
0.147408
-0.0702291
0.0245989
-0.0434962
-0.0752748
-0.0143602
-0.0365103
-0.0430631
0.0476504
-0.125451
0.0457882
-2.67392e-06
-2.24514e-15
0.0590581
-0.00431663
-0.000239064
0.122845
-4.15537e-24
0.0740379
0.0673398
-0.000616819
-0.190918
0
0
-2.89205e-05
0.113866
0.0244149
0.0405887
-0.000235638
0.0239671
-3.44388e-12
-6.45522e-13
-0.124498
0.00951314
-1.14564e-06
-0.0297639
-0.010778
0.00749298
0.0959201
-0.059671
-0.0258986
-0.0140043
0.0268775
-0.027365
-0.0691646
0.0423414
0.142829
-0.0553026
-0.0453877
-4.20403e-05
-0.00444514
-0.00720525
0.00934353
-1.20324e-06
-0.0795795
-0.011521
0.14514
-0.027356
-0.000234456
-0.088915
0.0602038
-0.0897555
-0.00475326
-0.00144003
-2.95252e-13
0.0017787
0.00202303
0
0.00121687
-0.0193572
0.0110635
-0.116879
4.21369e-09
0.0271527
5.44591e-05
-0.278381
-1.27987e-05
-4.27978e-06
0.0202952
-0.0438182
-0.0122833
0.076089
0.00638969
-0.0745337
-0.0193572
-0.0228049
9.14287e-05
-0.0570045
0.0119345
-0.0961031
-0.0317714
-0.127629
-5.08787e-09
-0.0432868
-0.000231357
0.0795787
-4.99749e-11
0.0331888
-0.00024934
1.62054e-321
0.000131604
-0.120159
0.261532
-0.131642
0.00702225
0.167432
0.010323
-0.0667034
0.00560494
-0.151198
0.0340549
-0.000221302
0.0302533
-0.0437696
-0.00159943
0.0100177
0.0305099
-0.0604275
-0.000137153
-0.00685045
0.00952931
0.00342439
-7.42113e-10
-0.0593817
-1.58438e-06
-1.23971e-07
-1.05842e-07
0.0554112
-0.0291412
-0.00158204
0.0119345
0.0344087
-0.0679524
0.0344322
0.0171044
-0.0531509
-2.24514e-15
-0.00024873
0.00385186
-7.22782e-08
-0.0480414
-0.000286543
-0.0145333
5.64895e-111
0.0398144
-0.0131309
-4.96439e-06
-0.0604317
-0.0111701
0.0581292
0.0110345
0.0190386
0.00837653
-0.00273071
-0.0925322
-1.3647e-05
0.00512267
-5.94522e-08
0.0671384
-1.12526e-06
-0.0281972
-0.0359394
-0.0215298
-4.64934e-08
0.103331
0.0775385
-0.0376909
-7.42874e-08
0.00600231
-3.81487e-07
0.0126794
0.00325251
-7.42623e-12
-0.0308993
0.0256716
0.0121219
-0.018091
0.00952931
-0.0559905
-0.000288383
-0.240173
-0.0340537
0.0385879
-0.0345814
0.0125851
0.0352053
0.0559255
-0.0655476
-0.0107257
-0.0574586
0.00636741
0.0621623
0.0889998
0.00476785
-1.55905e-05
-0.000288383
0.283582
0.0947332
-0.0067037
-0.00807487
0.0646636
0.0123614
-0.0359394
0.0124222
0.153415
-0.0406538
-0.0239897
-3.91424e-05
-0.000286543
0.284185
-0.0297983
-2.93012e-08
0.0164046
0.00716557
-0.0702559
0.00722386
0.00307681
-0.115265
0.00758229
0.0476089
-0.0500401
0.00952931
-0.00498374
-2.15071e-06
-0.0560684
0.0108169
0.0178015
-0.161427
-1.08022e-05
-0.0686503
0.049752
0
0.0542709
-0.0173515
-0.000232707
0.0919667
0.0456599
-0.0193572
0.00740557
-0.0709701
-0.149438
-0.000137153
-0.0549307
-0.153399
-6.63247e-23
0.00737902
0.0347659
0.0353345
-9.88131e-322
1.23516e-321
-0.217751
0.0032524
0.074911
-2.89205e-05
-0.00437685
0.00965792
-1.33085e-09
0.00512267
-0.108419
-0.032551
-2.24514e-15
0.0314303
-0.0653409
-0.0453877
0.0364491
0.016746
-0.0129507
-0.0157446
-0.0418564
-0.0307994
-0.0837009
-0.0366994
0.00952931
0.0200302
-0.0389995
-2.42797e-09
-0.0913652
0.0119345
-3.66416e-09
0.0018049
0.0119345
-0.0683435
0.0296631
0.0077041
-0.00121004
0
0.067196
-0.18221
-3.41998e-06
-0.000238163
-0.0367386
0
-3.87613e-222
-0.0353518
-0.0172973
-6.45522e-13
-0.125861
-7.33542e-07
0.0393648
-0.0514272
0.016418
0.010517
0.155682
-0.0282991
0.0245989
0.300592
0.0329618
0.00150562
0.00320905
0.0314304
0.0621737
-0.00444514
0
-0.00516377
9.34426e-100
0.00459577
0.0138803
-0.0297639
0.029722
-0.0645895
0.169722
-0.0780889
0.0671384
0.0201645
-0.0376983
-0.0591123
0.0118137
0
0.0337936
-0.0111701
0.0904268
0.023926
0.000266691
-0.0577766
-4.23828e-09
-2.89958e-08
0.0369609
0.0426331
0.124159
-0.000237501
0.0771042
0.0459054
0.00740557
0.0496412
0.000124989
0.0545952
0.0250826
-0.00023574
0.0524317
2.40116e-321
-0.00560056
-0.0948527
0.00684598
-0.0679016
-7.42623e-12
-0.0399749
-3.00616e-07
0.00531847
-0.000124266
0.0268042
-0.000265893
0.115477
-0.0358092
0.0112458
-0.0489439
-0.019641
-0.000605356
-4.2457e-09
-0.128336
-0.0239897
-0.0596249
-0.124017
0.024317
-4.96439e-06
0.0596007
-0.0850904
-0.0399519
-0.0149413
0.0883138
0.0268042
0.00512267
0.0693119
0.0432775
-0.0528844
0.0586912
-0.000291057
-0.0845875
0.0708203
-0.000425536
-0.0466677
-0.00527217
-0.0145319
0.0126329
0.182255
0.00636741
-2.12309e-22
0.0151056
-0.033991
0.0412368
0.0216142
0.00816574
-9.67257e-07
0.016746
-4.06559e-07
-1.05842e-07
0.00718213
0.0119345
-0.315806
-0.0933251
0.0145354
-0.00444514
-0.0101865
0.00497996
-0.0289646
0.0268636
0.0133586
-3.36372e-07
0.237136
0.010517
-0.0834867
-0.05028
-0.0620413
-0.027356
-0.0393121
0
-0.134202
-0.0108831
-0.0129712
-0.0110601
0.00722128
-4.15537e-24
-0.00296545
-0.00444514
0
-0.0361792
0.0469364
-0.0452823
0.0501831
0.140127
0.0024103
0.0165259
-0.0750077
0.151167
-0.00159943
-0.0396909
0.00636741
0.0416951
0.00112109
0.0502708
0.00369892
-0.0560555
0.155703
-2.3034e-05
0.086311
0.00761184
-2.32684e-09
-0.034734
-0.000237638
-1.03135e-10
0.0333269
0.024317
-0.0112812
-0.000288489
0.00790756
-8.52102e-10
-0.0252348
-0.00285626
-2.15071e-06
-0.000231705
-0.000240583
-0.00024934
-3.9732e-05
-0.0666876
-3.73493e-07
-0.155244
0.0290365
0.199124
-0.00278457
0.162939
-0.128027
-0.0964683
0.00381264
-0.0172274
0.154242
-1.27651e-21
-0.00243793
-0.10035
-1.71294e-06
-0.0140276
0
0.026423
0.0561046
-0.0321617
-1.20379e-07
0.0471477
-0.103654
0.010323
-0.168148
0.00952931
-9.68429e-05
-0.000286726
0.0245898
-0.0614421
0
9.09081e-322
-0.0760054
0.010517
0.260804
-0.0816253
-0.0129507
-0.0340537
0.0208487
-0.122621
0.192942
-4.23828e-09
0.00241378
0.0349908
0.00325251
-4.15537e-24
-0.0193572
0.0287974
-0.0737676
0.0801309
-4.34176e-07
-5.73542e-06
0.0324893
0.0129572
0.00348702
0.00683755
0.00506978
-0.112434
-0.0271304
0.111237
-0.0540484
-0.0034248
-0.0502975
-8.52102e-10
-0.0149413
0.00325251
0.0476089
0.052146
-0.0302645
-2.1923e-12
0.0250578
-4.99749e-11
-0.0332023
-0.00159943
-2.24514e-15
0.11976
0.000625145
-0.165407
0.0290166
-0.0363749
0.00747644
-0.00908692
0
0.0122336
0.0983363
0.01775
0.00784828
0.0380694
0.0216142
0.16581
-0.155767
0.0178015
0.122845
-1.27651e-21
-1.86033e-06
-0.0883316
-0.00854173
0.06705
-0.00025842
0
-0.0376723
-0.0569626
-0.0340537
0.0352261
-0.038229
-0.000233336
-0.024109
0.056837
0.0108169
0.072714
-0.00544252
-0.168305
-0.0408942
-6.45522e-13
-2.4305e-07
0.0984288
0.119069
0.00802557
-0.0582298
0.105274
-0.054738
-0.037806
0.0662743
-7.01573e-322
0.00684598
0.065834
-1.20324e-06
-0.0508429
0.00291169
0.0638799
0.0337562
-0.0111701
0.291192
-0.0111701
0.00952931
0.000838943
0.107175
0.036206
-1.23235e-06
-0.05028
-0.0530628
0.0470051
-0.000249445
-0.0222658
-0.0186162
-1.23971e-07
-1.08745e-13
0.00884805
-1.20324e-06
0.0361572
-1.12526e-06
0.0335701
-0.0922061
-0.172354
0.00636741
-0.0322811
-0.00243793
-0.0291412
0
-0.100196
-0.0507721
0.00952663
-0.0224206
0.00109757
0.0836901
-0.0524433
0.0264281
0.0656762
-0.0702692
-7.01573e-322
-0.0346551
0
0.013897
0.106469
0.00156958
-0.00180781
0.11013
-0.0182179
0.00560494
-1.35783e-13
-0.0280348
0.00325251
0.000131609
0.174738
-0.0270449
0.010517
-0.000330276
-0.0541471
0.0352053
-1.0896e-09
-0.0271917
-8.52102e-10
0.0307612
-5.18769e-322
-1.58188e-10
0.00735412
-0.0174639
0.111701
0.0377959
0.00835045
-0.101655
0
-0.0191123
0.064115
0.034864
0.00443406
0.0180802
-0.0110321
-0.0663295
-0.0778201
-0.0293228
-4.23828e-09
0.0228931
-5.03395e-09
-5.82985e-08
3.55572e-05
0.0921291
0.0373051
-0.000330276
0.00761713
0.0256805
0.127846
0.00684598
0.00785811
0.000625145
0.119403
-0.00023994
-0.340486
-7.22782e-08
-0.00768636
-2.91399e-11
0.0436391
-7.08208e-05
0.0252077
0.0316737
0.00377892
0.0799652
-0.0554134
-0.000239064
-8.52102e-10
-0.000225831
-4.96439e-06
-0.00107705
0.126736
-0.0125595
-4.23828e-09
0.0149119
-0.0534281
0.00832771
0.0443273
-0.0297177
-0.00720525
0.287607
0.052798
0.0757419
0.0436217
0.010517
-4.23828e-09
0.00837653
0.0151056
-0.0570071
-0.0140043
-0.00128504
0.0229994
-0.000230749
0.0500429
-0.0418836
-0.100678
-0.02201
0.00112109
-0.010216
-0.0263299
0
0.140342
-0.0361887
0.081772
-0.0177369
-0.127371
0.0651571
-0.0300773
-0.0559905
0
-0.0998573
0.0914113
-0.0265816
-0.034134
-1.05842e-07
-0.000179916
0.0770126
-1.05903e-25
-0.00360104
0.0685181
-0.083236
0.062089
0.11592
-0.0165572
-2.24514e-15
-0.0413726
0.00459577
0.00886223
-0.00925423
0.00952931
0.0014846
0.0017958
0.00856512
0.0074756
-0.0361887
0.00952931
-0.035332
0.0525909
-0.0752958
-0.0491706
-0.0519849
-1.33085e-09
-0.0694719
0.0107705
-1.83563e-05
0.039683
-0.00024402
0.0245898
-0.0153685
0.0650734
0.00559144
0.0256716
0.12706
-0.000616819
0.0526662
-0.00110743
0.00241378
-0.0609849
0.139952
0.0533139
-0.000270985
-3.50787e-322
-3.91424e-05
-0.0145527
0.0318649
-0.0762316
-1.23971e-07
-0.0480586
-0.0477799
-7.53628e-07
0.0130216
0.00112109
-0.0475439
0.0267928
0.0501927
-0.0125595
0.0444734
-0.0282152
0.0155486
0.111084
-0.0913737
-0.00835597
-0.0302885
-0.000235638
0
0.0283394
-3.4463e-07
0.00247139
0.0010223
-0.0288513
-0.0182638
-0.00163218
-0.000222697
-0.0319098
-0.0114194
0.000811801
-0.0289646
0.0236013
0.0302961
-4.23828e-09
0.0302961
0.180638
0
0.0870511
0.0615981
0.11013
-0.0618718
-1.02272e-321
0
0.0686997
0.00952931
-0.0135954
2.56914e-322
-0.0197741
0.056837
-0.000552973
0.000625145
5.49535e-10
-1.16209e-12
0.0295004
-0.0207841
-1.62624e-08
-0.00278457
0.0536586
-0.0394562
0.0502708
0.0742589
0.00695057
-1.76597e-05
-0.0342943
-0.0323209
0.0839622
2.84723e-110
-0.0791454
-0.0313278
0.0723751
0.0439346
-3.42999e-05
0.0550846
-0.000232545
0.0476504
0.0550844
-0.0174269
-0.128902
0.206489
0.0589074
-0.0877817
-4.83397e-13
-5.08373e-13
-0.0243704
0.0288399
0.00952931
0.175809
-0.0273016
-1.37605e-09
0.00730047
0.285807
0.0702976
0.00782879
-0.0326329
0.122845
0.0776878
0
0.104423
0.0463751
0.00816971
-0.0705344
0.0122934
-0.0331265
0.00325251
0.0110345
-0.0272653
-0.0136486
0.0313727
1.00637e-05
0.00198199
-7.22782e-08
-2.95252e-13
-4.23828e-09
0.073068
2.51008e-111
-0.0276966
-0.0256423
0.276568
0.0173059
0.088092
-0.119269
-0.0984196
-1.86421e-08
-0.000330276
-0.0390002
-0.0836265
0.00241378
-0.0750586
-2.4305e-07
0
-0.000288383
-0.0179869
0.0129977
0.00181716
0.0341472
-0.0158961
0.0420363
0.140482
-0.000231044
0.00952931
0
-1.20379e-07
-0.0122208
-0.0614421
-0.000288387
0.120888
-0.0186465
0.0566091
-3.44388e-12
-0.000235958
-0.0762316
0.0606207
-0.0340537
0.0529278
-0.000234456
-0.018959
-0.000240583
-0.0141906
0.00325251
0.0130216
-0.0251744
-1.10838e-12
-0.0477799
-2.91399e-11
-0.0593817
0.00615964
-0.0249153
0.12702
0.00514309
-0.0654708
0.0525551
-2.91399e-11
0.0493922
-0.125853
-7.09012e-07
0.0558806
-0.0415681
-3.03369e-06
-4.07334e-06
-1.76715e-07
-0.00613447
-2.15532e-07
0.0149485
-1.28156e-05
-6.82818e-25
0
-0.190603
0
0
0.0566691
-2.11516e-08
0.0245898
1.20832e-05
-0.0276618
0.00222461
-0.0480613
-0.0366994
-4.99749e-11
0.00322947
-0.0101964
-0.0345723
0.0918217
-0.108188
0.0103824
0
-0.000333755
-7.42874e-08
0.0181836
0.0369609
0
-0.122852
-0.0714481
0.231153
-0.0327452
0.122845
-0.0141157
-0.0430631
0.0198068
-0.000483997
-4.96439e-06
0.0224564
0.00838523
0.00882211
0.0387816
-2.12309e-22
0.0179695
-0.000224192
0.0205885
0.00558918
-5.15993e-06
-0.00025842
-1.05842e-07
-0.0272345
-0.0342898
-0.0604275
-0.00243793
-0.0194285
-0.000230749
-0.0157446
0.0553768
-7.22782e-08
-0.00380203
0.0126329
-0.00381277
-4.64802e-05
0.00839753
0.0348149
0.0314304
-0.000235638
-0.0321251
0.00411362
-4.62941e-05
-0.0207137
-1.65884e-10
-0.0296679
-0.0413412
0.0010161
0.0939783
0.00371221
-2.24514e-15
0.0129296
0.00342439
-4.23828e-09
0.0786955
0.0430883
-0.0160603
-0.0584424
0.0349907
0.00241378
0.0433084
0.0454761
0.00121688
-0.0794636
-0.0965058
0.0173408
0.0498316
-0.0800992
-3.81487e-07
-1.08694e-321
-0.0569376
-2.43633e-07
0.0517213
0.000625145
-0.0770107
0.0950832
0.0965971
0.0460851
-1.16209e-12
0.0456683
0.00581728
0.0841934
-4.07334e-06
-7.46242e-08
-0.0346267
-3.47882e-06
-0.0984196
0.0777955
1.32904e-321
-0.0467272
-0.0157501
-0.0306203
-0.215698
0.00636741
0.00598563
-0.00167078
-0.0431931
-0.0192579
0.00275326
-0.0413726
-2.91399e-11
-0.00215456
0.0165259
-0.000330276
0.0629044
-0.0578795
-0.0473492
0
-0.0682184
0.0391537
-0.0193572
-0.0197878
-0.000286543
-0.0293195
0.134841
-0.0535356
0
0.0130216
-4.54464e-09
0.0626692
0.0330251
0.0245898
-0.0140043
-0.0596058
-0.000330276
-0.0415659
0.00882211
-0.0416946
-0.0679524
-8.98546e-07
0.0200302
0.332521
0.0546924
-4.54464e-09
-8.7902e-06
0.0186389
0.0322733
0.107443
-0.0117065
0.033748
-0.133416
0.0031826
9.34426e-100
-0.0646095
0.0903501
0.0431254
-0.00498374
0.103818
-0.0197741
-3.00616e-07
-0.00787953
0.00325251
0.0245898
-0.0534639
-0.153385
0
0.00853308
-0.0470913
-0.0593817
-4.77209e-05
-0.0115947
0.000376772
0.0165235
-0.0563405
-0.0479152
-7.42874e-08
0.0227447
0.121536
-0.0129629
-0.0472195
0
0.0224211
-6.96632e-05
0.129785
0.0065556
-7.74e-09
-0.0111701
0.0523683
0.0493539
0.0416365
-0.000330276
0.00967197
0.00816218
0.00458723
0.0775038
0.0377531
0.0278774
0.000945631
-0.0169879
-1.21564e-12
-3.47882e-06
0.155661
-0.0114004
0.0186549
0.0134521
-0.00656663
0.00313277
-0.00452258
-0.000235958
-6.49988e-07
-0.109234
-0.0140276
-0.0111701
-7.22782e-08
-2.91399e-11
-2.52163e-05
0.00121688
0.00820351
0.00212434
0.00237841
0.0406384
0.000187517
-0.0169615
-1.14564e-06
0.0196617
-0.000230749
0.0174648
0
-2.07223e-09
0.0491547
0.0759897
-0.0111701
-0.102377
0.000811801
0.0125851
0.051759
-0.0189574
-0.0608449
0.0375058
-0.152297
0.0941363
-1.77157e-12
-0.0174574
0.0199804
-0.0990348
0.0276008
-1.39711e-05
-0.125231
0.0349908
-0.0358276
-5.82985e-08
0.0231388
0.138785
-0.121606
0.0692052
-1.20379e-07
-0.0743651
0.162221
0.139288
0.041857
0.0349908
0.0626659
-4.15537e-24
0.00512267
-9.01663e-11
0.0461622
-3.44388e-12
-0.0297639
0.0466769
-0.000248654
0.0119345
-1.06008e-07
0
-0.000242617
0.0201645
-0.104121
0.00638969
-0.000235638
-0.00460868
0.00178811
0.0369609
-0.0833033
0.0402588
0.0437309
0.0316737
0.311009
0
1.20832e-05
0.0469576
1.17097e-100
0.00975204
0.0462002
0.0555828
-0.00319781
-0.0855557
-5.03395e-09
0.125986
0.0555828
-0.0230739
0.0850652
-0.0494209
0.0438003
-7.53628e-07
-0.000286543
-0.0914366
0.0500139
-0.0260746
0.0562153
0.00439493
-0.169505
0.00217901
0.0119345
0.000625145
-0.020263
0.0126794
0.0243394
0
0.0445655
-0.00720525
0.0357716
0.0108169
0.000623872
-0.0289729
-8.33435e-05
0.0316737
-3.00618e-07
-0.069831
0.0532661
0.000994814
-0.0321026
0
0.072714
0.0816408
0.00837446
0.181576
-0.0834469
0.0278462
-0.125704
0.0373764
-0.0605682
0.0125851
0.0329733
-0.000234456
-0.0390237
0.033258
-0.0646095
-0.00766367
0.119545
-0.0500312
0.0351409
0.031728
0.0245989
-4.06559e-07
-0.0664485
0.0349262
-0.0705762
0.0403252
-0.0870467
-0.000239064
0.184976
0.00802557
0.0389916
-0.02201
-0.00159943
0.00820849
0
0.0486077
0.0200302
-0.0244492
-2.1923e-12
-0.198827
0.000286816
-0.0815208
-3.41998e-06
-4.23828e-09
0
-1.23235e-06
-1.39827e-07
-0.0157446
-0.0253586
-0.11314
-0.0208648
0.0459054
-0.0834469
-0.000240583
0.00507578
1.12153e-321
-7.42623e-12
-1.41797e-321
0.00237841
0.00952931
0.0668733
-0.0182076
0.0149319
-0.0734321
-0.0651528
0.00762226
0.0279046
0.0791911
-0.0160603
0.0234479
0.0614461
0.0491547
-0.0552957
0.0645111
0.0265337
6.72341e-07
-0.00071165
0.000994814
-1.05842e-07
0.0147256
0.0341472
-0.0316282
-1.25159e-05
-0.00023994
-0.0518412
0.00839008
-7.09012e-07
0.00807572
-6.81627e-09
0.0654798
-1.05842e-07
-4.99749e-11
-0.000221902
-0.0663295
-0.0340537
0.0119345
-0.0178549
-0.0334793
-0.0161237
-1.33085e-09
0.00485377
-1.16209e-12
0.0456683
-0.0134125
-0.0467669
-0.0174267
0.00415639
0.0119345
-6.91895e-06
-1.05674e-06
-0.20275
9.34426e-100
-0.0203579
-6.45522e-13
-0.0239897
-0.021387
0.0822998
-0.0324428
-0.0196804
0
-0.0511402
0.0913125
-0.00311132
0.00905267
-0.000235638
0.0245989
0.0114147
-0.0155956
-0.01362
-0.0115533
0.0216142
0.0279762
0.0175548
0.0132792
-0.0256927
0.0574106
0.00348702
-0.0702911
-0.0399519
0.00952931
-0.00114737
0.0138604
-0.000260684
0.00295276
0.0290365
0.0116371
0.0444734
-8.52102e-10
0.0868871
0.00684598
-0.0535356
-0.0436668
3.96105e-100
0.0383975
-0.119788
0.00802557
0.0758973
-0.0744545
0.0874251
2.00523e-05
0.121833
-0.00868282
0.101375
-0.0535356
-0.000237501
0.0151345
-0.0182179
0.00693053
0.0337936
0.0178015
0.0190653
0.039817
0.076341
0.227662
-2.15532e-07
0.0466464
5.64895e-111
0.00776071
-0.0141892
-0.0149413
0
0.01775
0.144106
0.00516188
-0.0322204
0.0503135
0.0160826
-0.0203692
0.00737902
-0.00654057
-2.68351e-09
-0.036248
0.0328159
0.073263
0.0344322
0.0495611
-6.144e-06
0.127481
-0.0475011
0.0328159
0.0792977
-3.70794e-13
0.0405022
-1.86033e-06
-0.0250204
0.0896217
0.00831028
0.0118778
-0.00193394
0.118411
9.34426e-100
-5.15706e-05
0.0144799
-0.0738084
-0.0422012
0.0129825
-2.0529e-05
0.0119345
-0.0328215
-0.069831
0.0200302
-0.000247634
0.0883998
0.00952931
0.0243169
-0.0376724
-0.0491947
0.0234479
0.0362628
0.10002
-1.23487e-07
0.00439493
0.00121685
-1.58438e-06
-0.0452561
-0.173913
0.0297518
-0.0166729
-0.000163574
0.00839753
-0.0976089
-0.0570117
0
0.102913
0.0129296
0.0446182
-0.0352563
-1.282e-07
-0.0567
-0.0178711
0.0918217
0.125485
0.104405
0
-0.0848882
0.294493
0.0238604
-0.0112807
-0.148021
0.00684598
4.653e-110
0
-0.0770082
-0.0111701
0.000181949
-0.0510036
0.00684598
0.0281328
0.0216793
0.102207
0.544606
-0.000236949
0.0804702
-0.0670698
0.00279416
-0.000239064
-0.00596223
-0.0800048
0.0142458
0.00358864
-0.0334793
-0.0308993
0.0106669
-0.109954
0.0180341
-2.11516e-08
0.00342439
0.0119345
-0.0438612
-0.000237638
0
0.00439363
-1.37605e-09
0.0438003
-0.0198202
-2.89205e-05
0.0186389
0.0415991
-0.00887902
0.00117993
0.00325251
-0.0581679
0.0405022
-4.10772e-06
0.0123614
-0.0185075
-0.040243
0.0349908
-8.50253e-05
-1.16209e-12
0.0323487
-2.91399e-11
0.10497
-2.1923e-12
0.0490433
-0.0940582
0.0535922
-0.000330276
0.0327796
0.0155486
0
0.143609
0.0528987
-0.029296
-2.24514e-15
-0.00620717
0.0205553
0.0165235
-0.0289727
0.0316703
-1.14931e-06
0.0130216
-0.0182179
0.0614268
0.0165259
-0.00953212
0.0372943
0.0082221
-5.74771e-07
0.0587779
-1.20379e-07
0
-0.0937361
-0.119032
-0.0462873
-0.0118493
-0.0272194
0.078573
-0.103388
0.0151294
0.0381473
-0.101408
-1.20379e-07
0.000385199
-0.142083
0.0362749
-1.20379e-07
-0.0308993
-9.38446e-15
0.00943125
0.0587924
0.0375058
-0.00824243
0.126737
0.0326329
0.145591
-4.96439e-06
-0.0620561
0.0303541
0.0873052
-0.0293544
-0.223902
-5.18769e-322
0.00380418
-4.84626e-05
0.0150991
0.0261634
-0.0550424
-0.0201029
-0.0117624
-0.0810726
-4.5454e-322
-0.0620414
0.0134288
0.010517
0.0653082
-0.0157446
-0.0182179
-0.0968582
-9.11363e-23
-0.171633
0
-3.90305e-06
-2.95252e-13
0.0563151
0.00952931
-0.018091
-8.38813e-05
0.0254048
0.00558906
-0.0102879
0.0292442
-0.0130806
0.0552096
-0.0926203
-0.0208479
-0.0618017
-0.0304144
-5.83276e-08
-0.000237501
0.0782666
0.00683755
0.0119345
-0.0194285
0.0700102
-0.0413726
0.0267558
0.0604034
0.00747644
0.0119345
0.00952931
-0.0182179
0.0662743
-0.015593
0.049752
-4.15537e-24
0.160464
-6.49996e-07
0.0303647
-0.00021905
-0.00159943
-0.0201504
0.00459577
-0.0637562
0.0615451
0.016296
0.0201038
-0.0421564
0.0267421
0.0212064
0.0974941
-0.00498374
0.0125578
-0.119032
-0.000220673
-0.0650507
0.138956
-0.00313718
-0.000249639
-0.051756
0
0.0271765
-0.0129945
0.00297995
-0.00274355
-0.194316
-0.0111631
-0.0842784
-0.0530628
0.0652795
0.083972
0.0785129
0
-0.00502051
-0.128726
-0.0443769
0.00749234
0.00952931
0.0355948
0.00346119
0.019606
-1.21564e-12
-0.0193572
-0.0451542
-0.0496294
0.0298926
-0.0112025
-0.175195
-0.0209024
0.0399104
0
-0.0399519
-0.00527217
-0.0148553
-5.08373e-13
-0.0111701
0.0606015
0.0488757
0.0815848
0.0074756
0.00846465
0.10108
0.000523219
-0.190875
-0.0346998
0.104785
-0.0331258
0.0278295
-0.0111701
0.113504
0.00241378
-0.0157446
-0.0293936
-7.42874e-08
-0.0195933
-4.15537e-24
0.0186389
-0.0491345
-1.55905e-05
0.0127258
-0.0668489
0
-3.47882e-06
-0.0355798
0.0245898
-1.05842e-07
0
-3.90485e-08
-0.0157446
-0.175408
0.00584592
-3.41998e-06
-0.0544997
-0.0441287
-0.0320536
-0.00954336
-1.16209e-12
-0.104539
-0.122621
0.0119345
-0.0194077
0.0107697
-1.97689e-05
0.0339604
-0.0131309
-0.000330276
-8.52102e-10
-0.0681751
-0.0219652
0.0155486
-0.0254335
4.60343e-05
-0.000288388
-1.94297e-11
-0.0340537
-0.068393
-3.70794e-13
0.00737902
-0.0610642
0.0327772
-0.0964683
-4.64802e-05
-1.10838e-12
-0.0345961
-0.00413833
-9.73309e-322
-0.0283156
-0.0663823
0.120888
0.126256
-1.05842e-07
-0.0661317
-0.0322695
0.0349593
0.200225
-0.000330276
-0.0186465
0.00410646
0.00168154
-0.0716284
-0.0738084
-5.15993e-06
0.0415419
-0.0238314
0.211899
0.0424984
-0.0884899
0.0199676
-0.0502975
0.00952931
-0.143345
0.0278774
-0.00130842
0.022329
-4.54641e-09
-0.106029
-0.000222697
0.015418
0.0944873
0.00144693
0.000860694
0.0123614
-1.125e-07
0.0992405
0.00558918
-0.00102075
-0.00172211
0.0344322
0.00952931
0.0794425
0.013199
-0.000241991
-0.0560684
-6.64254e-10
-0.0107531
-0.0303365
0.00412293
-0.0207841
0.0305085
0.0316737
0
0.044084
-0.0186465
0.0337936
-0.050463
-0.0300637
-0.017213
0.0410612
0.038774
-0.0884765
0.0865458
-1.97431e-13
-0.0652081
-0.114468
-0.0459967
-0.00278457
0.00229362
-0.0530628
0.00952931
-0.0282152
-0.0147917
0.00784828
-0.0240219
-0.0140043
-0.0586443
-0.0291834
-0.0258507
0.0881362
0.00636741
-0.0139407
0.0842137
-0.000137153
0.233026
-6.45522e-13
0.0123614
-3.70794e-13
0.0873054
-5.82985e-08
0.0970643
0.0374365
-0.000248654
-0.000300428
-0.0440165
-2.1923e-12
0.0277527
-0.0413726
-1.52089e-05
3.59707e-05
0.0831399
-0.166446
0.0321198
0.0473913
-0.0679081
-0.0390237
-0.0390289
0.0119345
-5.18769e-322
-0.0760732
-0.000224192
-4.54464e-09
-0.0083593
-0.00861551
-0.000228754
-0.0787103
0.0286165
-0.00888532
0.0107697
0.00749298
-0.011241
-0.0192579
0.103843
-0.000238163
0.0916047
-0.0157446
-7.59734e-07
-0.0695628
-0.053754
-0.0390237
0.0406619
-0.00177031
-3.90485e-08
0.00476369
0.125907
-0.0103565
-0.0157446
-0.000174037
0.0110345
0.00952931
-4.54464e-09
-0.00023994
-0.0632556
-8.84582e-13
0.0877334
0.0518475
0
0.00410646
-1.15597e-08
-7.42874e-08
-0.136852
-1.05842e-07
0.179034
-1.20379e-07
0.0262955
-0.051756
0.0681052
-0.0505295
0.00747931
6.57107e-322
0.010517
0.00948281
-0.00023994
0.00952931
0.00217901
-0.000122385
-0.0510036
0.0195533
-0.0145527
0.0877244
-0.000246055
0
0.0356246
-0.0664548
-0.0222075
0.00125226
0.00816816
0.163193
-0.00278547
0.00215785
-0.000248654
-0.0423656
0.0811502
-0.000231002
-0.0711127
-1.74251e-13
0.0621623
-3.02465e-07
-1.12012
0.0189773
-0.0129507
-0.0355657
-0.0480414
0.0252077
0.0521528
-0.00453272
0.0268124
-0.0129507
0.0626317
0.00636741
0.00952931
0.0286122
-2.12309e-22
0
-0.0385123
0.0234155
-0.0340538
0.00952931
-0.00740616
-0.0334447
-0.132036
0.00721412
-0.000231705
0.163193
0.052949
-0.017754
-0.054725
-0.36944
0.146025
-0.119032
-1.65884e-10
0.0119345
-0.0930077
-0.000237501
0.00295279
-0.0308882
0.125696
1.17097e-100
-0.0441255
0.00285935
-0.0377982
0.00952931
-0.000239064
-0.0244794
-0.0964683
0.0138564
-0.0169613
0.00693
0.00636741
0.00636741
9.34426e-100
-0.0213381
0.0157045
-0.0729423
0.00384111
-0.02201
-0.000229223
0.00952931
-0.000232315
-0.278967
-0.138127
-0.0577766
0.434017
-0.0377379
0.0129174
0.0227447
-0.00618461
-2.1923e-12
-0.0614235
0.111835
0.222412
-0.0390237
0.0449202
-0.00172654
0.171447
-1.58188e-10
-0.0150729
0.00439493
0.0240404
-0.0696187
0.0890603
-0.00159943
0.00505537
-0.0149413
-0.0111701
-0.0472195
-0.000224882
0.00802302
-0.0946117
-0.000561276
-0.00654057
0.0629232
-0.0193959
-1.20379e-07
0.00785841
-1.20379e-07
-0.0110102
0.0640478
-0.0714159
0.112754
-1.32416e-06
0.0245888
0.0231838
0.00248776
0.00245923
-2.67392e-06
-0.0393859
0.0826449
-0.252651
-0.0572025
-0.000250432
0.0685128
-0.00144238
0.0344322
-2.3034e-05
0.0465852
-0.0326741
-0.000163574
-1.26374e-07
0.0199202
-0.00272643
0.0227421
-0.0207137
-0.0139407
-4.74527e-05
2.03706e-109
0.0224098
0.00783454
-0.00768636
-1.23487e-07
0
0.00630771
-1.20324e-06
0.0652053
0.023916
-2.1923e-12
-4.23865e-09
-0.0133566
-0.000231705
0.0346593
-7.98466e-05
-0.0351735
0.000231716
-4.27978e-06
0.016333
0.0227176
0.146071
-7.42874e-08
0.00722386
-0.0441255
-0.0254739
0.0230699
0.00785841
0.0383975
-2.99344e-05
0.0853292
-0.000221834
0.0126863
-0.103388
0.0165235
0.00342439
0.00320905
-0.0172274
-0.0308882
-0.0166373
0.0715564
-0.059378
-0.0154184
0.00740557
0.000183223
0.03199
0.0137694
0.00069125
0.00579504
-0.000248654
-0.00378484
0.00512267
-5.18769e-322
-0.0137522
-1.86421e-08
-0.150004
0.0501831
-0.00417665
-0.000330276
0.00816574
0
9.34426e-100
0.024317
-2.82727e-22
0.00256036
0.0701119
0.0403953
-0.0528259
0
-0.0238314
-0.00596223
0.0081549
-0.0549879
-0.0267493
0.11013
-0.0343086
0.00598563
-0.07136
-0.0282152
0.0017958
-0.0396146
0.33482
0.0434436
0.0110345
0.0201645
-1.65619e-06
-2.91399e-11
-1.47719e-07
0.114365
-0.147147
0.00459577
-0.00159943
-0.07599
-0.0853576
-0.0556363
0.065528
-1.37605e-09
-0.0839395
-2.28925e-08
-4.15537e-24
0
0
-0.0501458
0.0545952
0.033233
0.076089
-0.0258986
-0.0495442
-0.00969212
-0.0495442
-1.18082e-321
0.0316703
-0.0670209
-0.105477
-0.0839282
-0.0180894
-0.0356032
-0.0559978
0.0351068
-0.0931188
-0.092304
-0.0145897
-2.42797e-09
-0.091161
0.107573
-0.0679524
0.00439493
-0.000248272
0.010517
-0.0738084
-0.0182179
0.00101617
-0.00907155
0.0275472
-0.0183188
-0.0111701
-0.0248434
0.00913626
-0.000239064
-2.89958e-08
0.278894
-0.122723
-2.42797e-09
-1.282e-07
-3.00616e-07
0.0263625
-0.150667
0.0234479
-0.023852
0.00251801
0.025671
0.035158
-0.0193572
-4.70055e-08
-0.0424325
0
0.0629468
-0.0830223
-1.008e-12
0.0874407
-4.64802e-05
-0.0112905
0.0254036
-0.0593817
-0.0224206
0.0186389
-0.0302007
-0.000582204
0.0593281
0.0403252
0.0411575
0.0495174
-0.0193958
-7.01573e-322
0.101371
-0.000247634
-1.05842e-07
-0.0927413
0.187233
-0.0751513
0.00143236
-8.82651e-05
0.0875809
-0.112323
0.100818
0.0139058
-0.0578795
-0.169449
-0.0111701
-4.23828e-09
0.00656034
-7.42623e-12
0.0017787
0.276057
-0.00843524
-0.0164423
-0.0480414
0.0428509
-0.0222658
0.0226467
0.00782639
0.00320905
0.655842
0.0877244
-0.192146
0.429652
-3.70794e-13
0.00952931
0.00839008
-0.0338565
-0.0345723
-2.4305e-07
0.0593167
-0.0530628
-0.383059
0.0558662
0.0155747
-0.0667722
0.00858803
0.0280956
-7.42113e-10
-0.0499656
-0.0662107
-0.000231002
-0.000243156
0.126062
0.0684511
-0.0805254
0.0898205
-1.56457e-05
-0.0194013
0.0504149
0.00636741
0.00808436
-0.0140043
0.0316737
0.0409431
-6.64254e-10
1.75308e-05
0.044084
-0.0251264
0.0043318
-0.0741004
-0.0351967
4.97268e-05
-0.0148937
-0.0764808
-0.0690685
-0.000231357
0.00952931
-0.000233336
-0.00830562
-0.0545563
0.00385732
0.0134521
-0.0663295
-0.000616819
0
0
0.0848391
0.0523682
0.200225
-4.15537e-24
-0.00137878
-0.000177478
-0.0140043
-0.0101616
0.0331945
0.0018049
0.0290365
-0.000526021
-0.13176
-0.261175
-4.74527e-05
-1.16209e-12
-2.4305e-07
0.0407446
-0.115119
0.0109042
-0.0173515
0.0344322
0.0528987
0.0375222
0.0748378
0.0201944
-0.10484
-1.86421e-08
-0.027365
0.102026
0.00205196
0.0125851
0.0473248
-0.0327245
0.0430938
-0.0382317
-1.27651e-21
0.285925
0.0469576
-0.0358276
0.0155486
0.0077041
0.0555828
0.178328
0.0268775
0.018701
-0.00452698
-6.96632e-05
-2.98479e-08
-0.0620413
0.00782879
-0.0112807
-0.000459736
-0.000234979
-0.0620862
-0.0827081
-6.45522e-13
-0.000240583
0.0191034
-0.0394562
0.00307681
0.0262272
0.0550506
-0.0162914
-1.125e-07
-0.346228
-0.000238163
-0.0646095
-0.0839448
0.0965179
0.136003
-3.90305e-06
-0.0641234
0.0063674
0.10038
0.0102904
-0.0538618
-0.0238206
0.175119
-0.0418564
-0.0561351
0.00802557
-0.00772163
0.0256805
0.174686
-0.20492
-0.00057615
-0.308256
0.00638969
0.151424
-3.81487e-07
0.0456667
-0.0129507
-0.0173515
-0.0413726
0.0349096
0.0286165
-0.000239064
-0.0620414
-0.000330276
-0.0162918
-0.0190338
0.010133
-0.0289646
-2.89958e-08
-3.50787e-322
-0.000220673
-0.0340537
0.0253454
0.0325471
0.00636741
0.00512267
-0.000260457
0.010517
0.0253309
0.0428979
-0.035646
0.234299
0.00754393
-0.000137153
-1.05842e-07
-0.0119805
0.00239583
-0.0557948
0.00952931
-0.032205
-3.90305e-06
0.0503135
0.0602066
-0.0321251
-0.103537
-0.0550424
0.114275
-7.22782e-08
-0.0129712
0.0077041
-0.00296545
-0.217236
-1.27651e-21
0.0170325
-7.42874e-08
-0.0805484
0.0292666
0.0392711
-0.0238314
-0.000168
-0.000235958
0.00785841
-0.0160901
0.00636741
0.0843414
0.0594696
0.00703819
0.188188
0.00591659
6.72341e-07
-0.00358154
0.0989644
0.10038
-0.0321026
0.00731304
0.00325251
0.00820849
-0.023603
-0.0162706
-0.00757642
0.018004
-0.0639557
0.090372
0.0415991
-3.02465e-07
5.28739e-110
-0.0033216
0.02188
-0.00540673
-0.000241991
0.19097
-0.010809
-0.000330276
-0.0724902
-0.114797
-0.0193572
0.0694972
-0.0186465
0.133701
-0.0129712
-0.150732
-0.000330276
0.0931523
0.101899
-0.0747872
-0.0111701
0.0444734
0.0208908
-0.124448
-1.18082e-321
-4.36326e-22
0.0923123
0.0263981
0.00952931
-8.00347e-24
-0.000235926
5.64895e-111
0.00813734
0.00325251
-0.0308882
-0.0194285
0.00113302
-0.0625991
0.0231745
-5.74771e-07
-0.0340537
0.0555828
-0.0381349
-0.0385257
0
0.0292443
-4.99749e-11
-0.000234658
-6.144e-06
-0.0499656
-0.14078
-4.54464e-09
-0.0240219
-0.019462
-1.20379e-07
0.0437295
-1.20379e-07
0.0119345
-0.0334918
0.152996
0.0118463
-2.24514e-15
0.118216
0.0148308
0.0442498
0.0126993
-0.0819305
0.0278295
-0.136032
-1.08745e-13
0.0074756
-0.0436768
-0.0452823
-0.0111701
-0.0207332
-2.89958e-08
-2.1923e-12
0.00777209
-0.0170017
-0.000330276
-9.67257e-07
-1.58009e-09
-0.000242617
-1.10896e-10
-0.0235417
-0.0208479
-0.0145527
-1.09043e-05
-0.126882
0.0503949
0.00512267
-7.01573e-322
0.120888
-4.99749e-11
0.0356183
0.140968
0.0875086
0.00902031
-0.0286886
0.000786545
-0.0111701
-0.0111701
-9.73102e-10
-0.045928
-5.03395e-09
0.0911786
-1.05842e-07
-2.38861e-05
-0.0477719
0.00148229
0.000994814
0.00693
0.0275472
-0.00024934
-5.80576e-16
-0.00024934
0.0476504
0.0376976
-0.000991518
-1.65619e-06
-0.0182179
0.00636741
-0.0475439
0.053078
-0.0678945
-0.0172274
-0.000232056
-0.120692
-7.85114e-12
-0.0478885
-5.08373e-13
-0.000247634
-5.82985e-08
-0.0966911
-1.35783e-13
-1.55905e-05
0.088046
-0.0952656
-4.54464e-09
-1.27651e-21
0.102632
-0.213323
0.071414
-1.08694e-321
-0.0241119
0.00844881
-8.52102e-10
0.00488951
-2.11516e-08
0.0609964
-1.21622e-11
0.0554113
0.00459577
2.51008e-111
-0.019852
0
-2.68351e-09
0.0260753
-0.000254786
0.0276013
0.00741287
-5.03395e-09
0.00907756
-0.34075
0.0442997
0.00212642
-0.000330276
0
0.0292443
0.0393024
-0.033927
0.0046854
0.0178015
-4.23828e-09
0.00820849
0.00952931
-0.0359394
0.0581889
0
0.00325251
-1.29173e-05
0.00629438
0.00404254
-0.0810726
-0.000330276
0.0170803
0.00455526
-9.04682e-06
-0.0673296
0.0188971
-1.20379e-07
-0.000237233
-0.0081189
-0.0215117
-0.211622
-1.23235e-06
0.0010223
0.166641
0.0151754
0.049752
-0.0334447
0.00952931
-0.0211062
0.0257143
-1.20379e-07
1.20832e-05
0.0378725
0
0.0770641
-0.000232508
0.00803627
-3.47882e-06
-4.36053e-05
0.000474369
-2.07223e-09
0.00277707
0.107175
-0.0173515
0.00325251
-0.000330276
-0.0239897
-0.027577
-0.0201534
0.0316737
-3.66416e-09
-0.0510036
0.0503949
0.0119345
-0.0690685
0.044084
-0.0239897
0.0325433
-3.49804e-25
0.383604
-0.00846408
-0.000227899
0
9.34426e-100
-0.0559905
-2.1923e-12
0.110858
4.97268e-05
-1.05842e-07
-0.21649
-0.000616819
-3.05812e-06
0.0119345
0.131539
0.17265
0.0207864
0.0074756
-0.0256423
-9.88131e-322
0.00277707
-0.0617414
0.0298444
0.0848675
0.0116761
0.0251414
0.0286165
-0.00772163
0.00636393
0.0482772
0.00512267
0.0205386
-1.16209e-12
-2.95252e-13
-9.38446e-15
0.0138928
0.0119345
0.00146478
-0.0215002
0.0224299
0.0126441
-0.0111701
-7.22782e-08
5.44591e-05
-0.00670698
-0.000756413
-0.0219128
-4.28091e-06
-0.007822
0.0129572
-2.4305e-07
-0.0690812
-0.00976641
0.130604
0.0210887
0.00439919
-0.0283156
0.00121688
0.000796427
-0.00423944
-0.00247126
-0.00024934
-0.0183998
0.177193
0.0122712
-0.0786358
0.0346593
-0.0662107
0.00504906
0.0516329
0.0571251
0.122552
0.024317
0.0637876
-1.05674e-06
0.0463752
-0.00912257
0.0907227
-0.0117065
0.0230699
0.0417352
-0.074273
-0.0323934
0.102913
-0.0317303
-0.000330276
0.0430572
-0.0578795
