0.0386503
-3.76556e-12
7.48021e-23
-0.0399183
-0.0121361
-3.30062e-07
-0.000254934
-0.0429874
0.0478268
-0.000254934
0.0158918
2.77919e-87
-0.0897599
0
0.0685861
-1.25843e-12
-2.47805e-07
0.0254822
-0.00025125
-0.0243585
0.0393701
0.00776093
-0.0710489
-5.14069e-08
0.00344076
0.0685861
0.0492229
0.0114643
-0.0186226
0.000263694
0.0598236
-0.0430464
-0.000266644
-1.04292e-09
-0.0188258
0.00778543
0.0159069
0.0117882
-0.000234603
0
0.0582625
0.115143
-1.75438e-15
-0.000256573
-0.021023
0.0530349
0.011467
-0.000263591
0.0329823
-0.0727757
0.0139898
0
-1.6466e-09
0.073868
-0.00437759
3.25095e-18
0.0136434
-0.00028712
-8.63853e-11
0.0307239
-0.000360498
-0.00214529
-1.07706e-321
-0.0252647
-9.58487e-322
0.0253805
0.098399
-0.0203459
-0.0811391
-0.0838731
-0.0995777
-0.0327608
-0.018548
-0.000261665
-0.000973687
-0.0820427
0.0247139
0
-0.0526695
-0.0413488
0.0271255
-0.069566
-0.000103795
0.0614095
0.00431428
0.214461
-0.0716938
-0.00734328
0.171732
0.0253805
0.0249552
0.00176715
-0.22408
-0.000251502
-0.0555764
0.00942259
0.145724
-0.0070179
0.0168332
0.0750316
-1.6466e-09
-0.000360498
-1.85758e-08
-0.000252398
1.37125e-18
-2.67241e-08
-0.0190277
0.0386231
0.009242
0.253236
-0.0502612
-0.0267372
0.0278511
0.0587518
1.26481e-321
-1.25866e-07
-0.000384856
-4.23804e-05
-0.048683
0.0670891
0.0702717
0.0160473
0.120213
-0.0585829
0
0.0103073
-0.0410968
-0.0899983
-0.000219853
0.00365551
0
-0.0418197
-0.00924839
0.0119158
0.0419236
-0.0226343
0.00760207
3.25095e-18
-0.0538167
-0.011292
0.0752288
0.00979321
0.0311145
-0.138301
-0.0376157
-8.71309e-10
-0.0353533
0.0162726
0.00233357
-0.0184836
-0.0369845
-0.00210897
0
0.00173916
0.19722
0.00778543
-0.000253494
0.0169198
-0.0251761
0.071705
-0.0585366
-4.06251e-06
-0.127237
-0.0848358
-0.000360498
-0.0958502
-0.0309401
0.033769
0.0243094
-0.056641
0.0121483
-0.131808
-0.0616634
-7.61373e-11
-0.0524326
-0.0152201
0.0170829
0.00677137
0.000601841
-1.01909e-07
-1.6466e-09
-0.0101703
-0.033939
-0.0217698
0.0419885
-0.000263954
-0.0242575
0.192122
-0.0292003
-5.14069e-08
-0.0919604
0.0591464
0.10464
0.0136434
-0.0350781
-0.0845274
0.0183016
-0.000253861
-4.68776e-05
-0.097535
0.00550885
-0.0114152
-8.94168e-10
0
-0.0430221
-0.000360498
0
0.321456
-0.110459
-0.0267372
4.91171e-19
-0.0343576
0.0388399
0.101976
0.0479797
-0.000254934
-0.0531659
0.00367516
0.0384491
-9.02294e-13
0.0308683
-0.0891803
-0.00366275
0.0229213
1.01283e-321
-1.19293e-08
0.024714
0.0265613
-0.00029237
3.25095e-18
0.0298467
0.00471346
0.0220994
-0.0727768
0.00897137
0.142239
0.136696
-0.0221404
-1.42648e-06
0.00869412
0.0775165
-0.0470363
0
0.0555024
-0.0580816
0.00144589
-1.12224e-08
-0.00105819
-0.0372101
2.39079e-18
-0.0974358
-0.0671255
-6.44049e-12
0.0138623
-0.0101703
0.0311145
0.00830764
-5.32809e-09
0.0174696
-0.05228
-0.0403953
0.10339
-0.043678
0.000601841
-0.0243585
0.102212
-0.000260603
-0.000245098
-0.0544226
-0.150709
-0.01857
0.00868355
0.00838091
-0.00473657
-0.0206106
0.0203577
-0.0342493
7.48021e-23
0.0594101
-7.31975e-08
-1.14082e-15
-0.0429874
0.288585
0.00641531
0
-1.20276e-06
0.0343723
-0.103501
0.101962
-0.0852787
0.0291643
-0.0226533
-0.0133289
-9.95727e-06
0.00126413
-0.0475957
-0.0528039
-0.04009
-0.0173758
0
-0.000266318
0.0333873
1.66438e-06
-4.23804e-05
0.0083038
0.233266
2.77919e-87
0
0.0236532
-0.00936104
-5.38583e-06
-1.06794e-14
-0.0327406
0.0656257
0.0301423
3.45437e-71
0.0419885
-0.00126155
-0.111082
-1.35131e-06
0.0594114
0.494945
-0.0287603
0.0172288
-0.0383165
0.0826787
0.00235994
0.00803393
0
-0.203538
0.0244695
-0.0664293
-0.00303987
-0.018548
-0.00507931
-0.0800071
4.38969e-05
0.00989307
0.0109854
-0.00024466
-0.13776
-1.5683e-06
0.019994
-0.0854652
-9.02294e-13
-6.42425e-12
0.0934738
-0.0357893
0.0119502
-0.10654
-0.0553714
-0.000116653
0.00723504
0.0158704
0.011467
0.0255343
-0.000261665
-0.106738
0.0454224
0.00869412
-0.0414808
0.0429039
-3.72572e-08
0.0239387
-4.8938e-09
-0.0653678
-0.00769413
-2.95251e-253
-0.0610592
0.0307239
0.163644
-0.000261328
-0.111616
-1.22643e-12
0.000399343
-0.000360498
-0.0116497
-0.0290592
-1.54718e-06
-0.000360498
-0.109256
-0.000253861
0.195105
0.0329823
0.0383049
-0.00203012
-0.0452752
0.103685
-0.00201089
0.00868355
-0.0621615
-0.000360498
0.00777146
-0.0349679
-5.32809e-09
0.0382124
0.00365551
0.0145111
3.3343e-06
-1.19293e-08
-1.85758e-08
0.0795274
-0.000219597
0.00848968
-7.22654e-08
0.00173916
0.100074
-8.94168e-10
0.0947888
0.0053672
0.0484754
2.46038e-05
-1.14082e-15
0.0274307
0.0495765
-0.0360741
0
0.0815301
-0.0188258
-0.181298
-0.00714987
-6.48821e-07
0.291795
0.0174349
-1.42648e-06
0.14236
-6.44049e-12
0.00707819
-0.0433226
-2.35521e-07
-0.0116201
-0.0383703
-2.83693e-05
-0.00162413
0.0614095
0.0136434
0.0784277
-1.31211e-05
-0.166095
0.102192
0.0220966
0.0215592
-0.0292003
0
0.000643321
-1.11165e-321
-0.0482846
0.126109
-0.0801754
-0.0754831
-6.42425e-12
-1.11915e-05
0
-0.0267372
-0.000360498
0.0214252
-0.000277763
-9.3281e-07
-0.0145491
-0.00401693
0.00344076
0.00607447
0.0291643
0.102473
0.0245171
-0.000207255
-0.0275381
-0.0188894
-0.000270704
-2.76086e-05
-0.000263601
-0.000236245
0.0480427
0.0159305
-0.000185086
-0.000248136
-1.99224e-13
0.00471346
-0.071538
-0.011654
-0.355435
-0.0713523
0.0248377
0.00407783
-0.189842
0.00621339
-0.0674521
0.00150789
0.0307199
-0.229018
3.25095e-18
0.045009
0.0369624
-0.0222476
0.041093
-0.01857
-8.15208e-322
0.0189375
-7.61373e-11
-0.00559688
0.0539399
-0.0267372
0.00261244
0.0551398
0.00431428
-0.000261328
0.0291643
-0.016265
-0.000299757
0.000262747
0.00831198
0.0337487
-0.0132459
0.0609738
-6.93437e-07
-0.086482
-6.38207e-13
0.000243105
0.0113757
-0.000261328
-1.49797e-05
-0.0062702
0.343295
0.00720315
0.00720252
-3.57329e-07
-1.67154e-08
0.0849273
-0.0131811
-0.000270704
-0.0355607
-0.204283
0.0122433
0.107096
0.000243216
0.00771713
-0.0345273
-4.37658e-06
-0.000241755
-5.16761e-12
0.00137318
0.198546
-0.000116481
-0.0350389
-0.0160158
0.0278075
0.0283064
0.233739
-4.53033e-05
-0.0548066
0.0200092
0.0380084
0.00417158
-0.0112663
0.200172
0.0709291
0.0758905
0.00744781
-0.0486569
-0.035036
0.0166486
0.089848
0.100416
0.215521
-0.04749
-1.42774e-05
-3.55174e-10
-0.0456343
0.0909752
-0.0899983
-5.32809e-09
0.00747332
0.0737512
0.0737953
0.117736
-0.084004
0.033595
-0.029457
0.00167582
-0.00446216
0.000698282
0.000150073
0.026151
0.00106002
0.0896368
-0.000251902
0.0352028
0.0154308
-0.000257069
-0.0253099
0
0.0174378
-0.128192
-0.0300161
-0.0190794
-0.000360498
-1.85758e-08
-0.000257076
-0.0941101
0.0559311
0.0156455
0.00344076
-0.000138383
-0.0537572
0
-0.0326156
-9.68804e-09
0.0785763
0.0448155
0.0681289
-1.62278e-53
-0.00152474
-0.216474
-0.152403
-0.0251345
0.0353383
-0.0312507
-1.15434e-09
-0.0976725
-0.142486
-0.000242367
-2.81741e-07
0.114783
0.0991572
0.0548055
-0.00312355
-0.000299757
0.00492531
-0.0152658
-6.42425e-12
0
0.180829
-0.0899983
0.0278501
-1.75438e-15
3.25095e-18
0
-0.0257789
0
-2.56767e-05
0.240045
0.136781
0.171282
0.00173916
0.00140093
0.0364865
-0.112249
-1.20473e-07
-0.000299769
-0.00503736
-0.0325833
-0.0198427
0.00196091
-0.0692923
0.0453226
0.025568
-5.14069e-08
-4.43376e-06
-0.0137791
0.00745514
-0.0711177
0.0750856
-0.016265
-0.0426297
0.1185
-0.0235338
-1.52172e-321
0.00877218
0.18408
-1.362e-06
0.0210817
-0.00203012
-9.8604e-05
0.0721926
0.0312924
-5.36619e-06
-0.0116111
0.0865499
-0.0103023
-0.0312868
-2.01832e-12
7.48021e-23
0.191756
-5.53631e-310
0.0771249
-0.0309935
0
-6.24662e-05
0.123111
0.0218764
0.0303332
0.063147
-0.000232862
-0.0463723
-8.85063e-07
0.130657
-0.0403953
0.143316
-0.0626923
-1.14082e-15
0.265144
-0.0131565
-0.000360498
0.0151113
-4.46372e-15
0.0141265
-0.00134704
-0.00445097
0.0266345
-0.0551145
-0.0291361
0.0656257
3.25095e-18
-0.148709
0.0766376
-0.00826706
-0.0400949
0.00838518
-0.000543735
0.266047
-0.0735078
-1.58374e-05
-0.0267372
0.0117872
0.0616265
0
0.100854
0.0311394
0.12436
0.00289932
0.0110397
-5.81435e-11
-0.080704
-0.000300562
0.0627886
0.107589
-0.0475193
0.173788
0
-0.0743356
-0.0143099
0.035326
0.0319296
0.0783735
-0.000165647
-0.0669297
-1.67154e-08
0
0.0806239
0.0597309
-1.52172e-321
-2.72739e-05
0.0939779
-0.000248917
0.0250588
-0.0308048
-2.35521e-07
0.0314972
0.0126149
-0.0415895
7.5486e-19
-6.48821e-07
-1.12224e-08
-1.04292e-09
1.6897e-321
0.309247
-3.57329e-07
-0.0825344
-0.0291044
-0.0645403
0
-6.44049e-12
0.0203602
0.00663451
-0.010837
-0.0317228
-0.0347717
0.0166444
0.01636
0.117079
0.00354639
0.0878723
-0.0292003
0.00917383
-4.46372e-15
-2.46037e-07
0
0.00592186
-1.85758e-08
-0.137202
-0.144248
-0.0152201
-6.36867e-05
0.0679055
-0.158276
-0.0152201
-0.00416246
0.00640319
-7.7898e-05
0.164475
0.0251076
0.0309392
-0.0356198
0.0261095
0.00173916
-0.0092726
-0.000243272
-0.0551145
-0.000360498
0.126064
-0.24009
0.0151113
-2.66476e-09
0.0253805
-2.77594e-05
-0.0136067
0.242027
-0.0673556
0.101059
0.0064091
0.0842636
0.00407783
-0.000154968
0.0847327
0.00150686
-0.0277715
0.159124
-0.0403953
0.0759742
0.352851
-0.0516955
0.0687001
0.1076
0.00100445
0.0151113
-0.0360741
0.00443547
0.0194931
0.0406908
0.0582635
-5.60013e-05
0.000698282
-0.0777948
-0.0398952
-0.00380956
0.0439716
0
0.0419885
-0.000360525
-8.86957e-06
-4.24553e-09
-1.42648e-06
-0.000266644
0.0388399
-0.0329435
-0.0222476
0.019486
1.37125e-18
0.00108832
0.00607447
-4.76459e-06
0.0151113
0
-0.031008
0.071705
-0.0164125
-0.0358015
0.051224
-0.000242077
3.25095e-18
0.012034
-0.0580147
0.0260992
-0.0109531
-0.0210221
0.0677794
-0.0402954
-1.14082e-15
-0.069999
-5.38583e-06
0.0172288
-0.111143
0.125968
0.0620926
0.0116179
-0.0294624
0.0312802
-6.42425e-12
0.121766
0.0254822
-0.00830659
0
-0.179446
0.207958
-0.0455892
0.00492531
-0.0734788
0.043374
-0.0103254
-0.0440063
-0.0200456
2.3588e-20
0.0204785
0.00787691
-0.000360498
0.0329823
-1.15434e-09
-9.38725e-322
0.0357024
-1.25843e-12
-0.000299757
-0.000272769
0.00838518
0.0897649
-5.14069e-08
4.31343e-19
0.0183673
-0.0468108
0.0145111
0.00695162
-0.0108801
0.00173916
-0.0568078
-0.000257069
2.21807e-07
-0.0284151
-0.0235498
-1.6466e-09
-0.0237971
-0.0387705
0.0151129
-2.32846e-07
-0.0391389
-0.0205877
-0.0267986
0.00134123
-0.0273805
-0.0429874
-0.00105819
-1.25843e-12
0.0224451
-0.0304573
0.00617734
0.0604219
-5.38583e-06
-0.000253861
-4.46372e-15
0.0191375
2.21807e-07
-0.0834615
0.00402451
0.0424904
-2.56767e-05
4.91171e-19
-0.0371263
-0.0796468
0.0106171
-0.00633345
0.0373407
-6.27463e-322
-0.0131965
0.131153
0.000127604
-1.29445e-321
0
-2.95251e-253
0.0231361
0.0370144
-0.0539442
-0.0103462
0.053226
-0.0799834
0
0.0139808
-1.12224e-08
0.0789669
-0.000850791
0.0164711
0.081876
-0.083849
-0.0663932
0.149105
-0.0123363
0.00140093
0.0322885
0.00471346
-0.0346574
-0.0835129
-0.106923
-0.199903
1.06722e-19
0.00127824
-0.000360498
-0.0317577
0.0488954
0.0663471
0.299682
-0.000256083
-5.51629e-06
0.158704
4.91171e-19
0.0215962
-0.00368922
0.0145111
0.00215033
0.00942259
-2.81222e-10
0.0300833
0.0100837
-0.000253861
-0.00306748
0.0411191
-0.000360498
-0.0418197
-0.0400949
-0.0204045
0.0386912
-0.0228661
0
-0.0202686
-1.74131e-08
-0.000125387
-0.0352864
-0.099075
-0.0267372
-0.0231
0.0954687
0.0298397
-0.000615293
-0.0112663
-0.0783284
0.00173916
0.0258668
-0.000360498
0.0154917
-0.000523085
0
-0.0122132
-3.46069e-06
0.134842
-0.0548557
-3.46069e-06
0.00201108
-0.0593633
-0.000272697
-0.0072619
-0.0398528
0.0300833
-6.09557e-07
-0.000266512
-0.0647178
0.00242056
0.00841995
0.0174635
-0.0418203
-0.0152201
-3.76556e-12
-3.57329e-07
-0.043678
-0.001897
-0.0190277
-3.94395e-05
-0.00119677
-0.0356198
0.0315142
0.0136203
-0.102557
0.00279765
0.00640319
-5.84736e-12
-0.0112635
0.0638259
0.000601841
-0.348743
-0.0292003
-1.75438e-15
-0.000266318
0.00140093
-0.0189296
0.0250707
0.0246164
-0.0670734
-0.0188258
0.006345
0.497154
0.0352028
0.0295236
-0.0178686
0.0919838
2.77919e-87
-0.00994232
0.0356164
-0.0215788
3.25095e-18
-0.0389388
0.0439239
-0.111194
2.75483e-05
-0.0202501
0.00279765
0.133915
-0.000360498
-0.000360498
-3.82957e-06
0.0250557
0.044073
-0.0188258
-0.000360498
0.00318533
-0.0201703
-9.3281e-07
0.00767092
0.0612933
-0.177571
0.0783656
0.00279765
0.0218251
-0.0267372
-0.0384256
-0.0966026
0.0230322
0.0448429
0.0326018
0.0378959
0.0732332
-6.12069e-08
-0.000263954
0.144746
-1.5683e-06
0.0634475
-0.000263954
-0.0237971
-0.0452197
-0.0267653
3.25095e-18
0.0566154
0.00759284
0.063161
-0.0159494
-0.101274
0.0984398
1.13114e-69
0.288583
0.0419885
-0.0749434
0.0968948
0.0710172
-0.0322684
1.37125e-18
0.0554469
-4.46372e-15
-5.26574e-05
0
0.0948328
-1.67154e-08
-0.100191
0.078751
0.0411385
-0.0144504
-0.0232704
-1.25843e-12
-0.0384474
0.108118
-0.025133
0.0357024
-1.08866e-12
-8.4226e-15
0.0180068
-0.01857
-4.8938e-09
0.00640319
0.019486
-5.14069e-08
-0.183828
0.0542234
-3.72572e-08
0.04743
-1.13635e-321
-0.0348643
-0.0355547
0.0194931
-0.000261328
-0.0251626
0
0.0187221
0.0446597
6.60228e-70
-1.13432e-10
-0.0233761
0.0127625
1.91518e-05
0.0402847
-1.08866e-12
-0.000263601
-0.158559
0.0585583
0.03556
0.0187221
0.0170928
0.023503
1.46069e-05
0.0031163
-0.186195
0.100074
0.00607447
-0.000238329
-0.0914232
0.30545
0.282586
-0.0250899
0.0360753
0.0120395
-2.95251e-253
0.00899943
-8.925e-15
0.0901794
-0.0267372
-0.0261419
-1.51534e-05
0.0163344
0.0152684
-0.0502827
-0.0490614
-0.0299581
-0.171019
-0.0537594
-0.0766872
-0.0631158
0.00119212
0.0027377
-0.0121122
-6.73618e-11
0.256996
0.0213209
0.0555946
-6.61974e-08
-0.0038552
0.00816192
-0.101864
-0.11106
0.0459361
-0.0556946
0.00868355
0.0151471
0.0149924
0.00113916
0.00287914
0.0386912
-0.000254127
-0.000254127
-0.00047784
-0.017862
-0.0558101
-0.0539782
0.0561882
-0.0548557
0.00798503
-0.0222476
0.0561882
0.00838518
0.000480345
-0.0752637
1.06722e-19
-1.49797e-05
-0.0721209
0.0138888
0.036583
0.0367499
0.0446801
-0.000251507
0.050552
0.0145111
-4.45437e-05
0.00140093
-0.0417023
-0.0500603
-0.0264355
0.0340865
0.00838518
-0.00338124
0.187601
0.158294
-0.018548
0.0812692
-3.82957e-06
0.0495526
-2.82728e-06
0.0233855
0.0847159
-9.80727e-06
0
0.0388399
-0.0242541
0.0117882
0
-0.00770313
0.0236545
-0.00546694
-0.00978298
-1.66587e-07
-0.0412049
0.0173845
0.00567902
-0.0218982
0.020391
0.00762367
-0.0790817
-2.49097e-07
0.028317
0.0387355
0.0172288
-3.38881e-09
2.85275e-88
-0.0123363
-1.51901e-05
0.0820603
-9.68678e-09
-0.0378354
-0.0713963
-0.0291367
0.00234634
0.0120265
7.11904e-06
-1.54718e-06
0.0687948
0.0342985
0.00130281
0.11183
0.0144195
0.0285911
-0.0653776
-0.0155069
-0.0440063
-0.0440063
-1.19293e-08
0.016529
-3.72572e-08
-0.0738422
-0.0292003
-0.0537232
-0.0267372
3.02091e-18
-0.15868
0.0392578
0.00173916
0.00362898
-0.0590275
0.00295103
-0.034877
-1.27118e-06
-0.043144
-0.0337564
-0.00984004
0.050552
-0.00024271
-0.00133701
-0.00430051
0.0917192
-0.0156479
0.0480548
0.0439716
-0.094347
-0.0700781
0.0309864
-0.00213035
0.0661921
-0.217909
-0.00559688
0.00747332
-0.023816
-2.67241e-08
-0.049536
-3.72572e-08
-0.000464941
-2.67443e-09
-4.37658e-06
-1.25866e-07
0.00173916
0.0712517
-0.159723
0.161613
0.00928165
4.91171e-19
0.0596504
0.00683361
-0.0600324
2.77919e-87
-1.1792e-09
-0.119857
-0.0360741
0.0609738
-0.0342009
-0.126993
0.100693
-0.0101703
0.0113959
0.0128191
0.0439716
0.0117617
0.0121815
0.0223755
0.00589645
-0.00192059
-0.0121361
0.0755912
-0.000360498
-0.050986
0
-3.94395e-05
-0.000253861
-0.0860536
-0.0281181
0.00404766
-0.0489232
-0.000360498
0.000243837
0.0723813
-1.75438e-15
-0.000360498
-0.0152201
0.222665
-1.37306e-05
-0.0290913
-0.0131811
-1.75438e-15
0.0193117
-0.0710024
0.012321
0.00699112
0.000276065
0.0825846
0.00761691
-9.68678e-09
-1.74131e-08
0.0922696
0.011467
0
-2.37293e-05
0.0474376
-0.0990796
-0.016265
-0.000299757
-0.0653011
0.0291643
-4.46372e-15
0.00838518
0.0102859
-1.06271e-11
-4.8938e-09
-0.0561651
0
0.00144394
0.00201108
0
0.000175346
0.000276311
-0.0403288
-0.000259442
-0.109406
-0.000251507
0.016529
7.48021e-23
-0.0275162
-0.144992
-0.166215
0.00113916
-0.0463839
-0.0191983
-0.206176
0.0113755
-0.0163869
0.0257905
0.00201108
0.0363831
0.0396532
-1.85758e-08
0.021363
-0.0312868
0.00834334
0
-6.09938e-07
0.00402451
0.0720348
-0.176992
-7.60141e-05
-0.0321652
7.48021e-23
0.0329822
0.000299759
-0.000254127
-7.31975e-08
0.0419885
-0.000272697
-0.0189977
0.000721158
-0.0161744
0.00894387
-0.0261861
-0.114878
0.00261318
-0.000144378
0.0309318
-5.17207e-12
0.0123865
-0.0941707
0.0810928
-2.64704e-05
-0.0715414
-1.35131e-06
0.0304236
-0.0252216
0.0943609
0.0808587
-0.0508635
0.0495698
-0.000248167
0.00747332
-0.0971112
0.00695254
-0.00445097
-1.29445e-321
0.280659
-0.000266644
-8.4226e-15
0.0424903
0.0895342
0.00113916
0.0504988
0.0278511
-0.0405179
0.0947607
0.0566154
-0.0645283
-0.00022336
-0.000249136
-0.000243673
0.000581705
-0.000251502
-9.02294e-13
0.542098
0.0860707
0.0433561
0.00494812
-0.0568412
0.0654532
0.0183673
0.0326018
0.0502245
0.125603
0.124917
-1.42648e-06
-0.179648
0.00869421
0.0611902
0.0457568
-0.000270704
0.000935109
0.00489514
-4.46372e-15
-0.000299768
0.00379399
0.0189898
-0.239882
3.77721e-23
0.0586039
0.102205
0.0250811
-0.0590275
7.48021e-23
-0.0926573
-0.34675
0.0458606
-0.062655
0.0794316
-0.00377217
1.42413e-87
0.0592757
-0.0757206
-0.000263601
-1.25843e-12
-0.0760074
0.102192
-0.0378856
0.0156097
0.0887173
-0.063124
0.250153
0.0561882
0.027293
-0.0723571
-1.25843e-12
-0.000360498
0.0442343
-3.57329e-07
-0.00028712
-0.00028712
0.111543
-0.0821508
0.0638367
-0.100943
-0.0186226
0.000150073
-0.0187055
0.00173916
-0.0320904
0.0236656
-0.0229091
-0.0701598
-0.017862
0.0450052
0.131879
-0.0347191
0.00439557
1.23022e-321
0.0828487
0.00723879
0.0869213
-6.79751e-13
-0.0249214
-0.101796
-0.0426042
-0.000254127
-0.0393529
0.291577
0.0852816
0.0172288
-0.0329529
-0.0188258
0.0523446
0.0266359
0.0138623
0.002452
-0.0219044
0.227666
0.00751193
-0.0388346
-1.35131e-06
0.0524351
0.0420921
-0.0317228
-0.0253109
0.27867
0.040552
0.00784579
0.00119212
-0.00926824
1.18576e-321
0.0110397
0.0887491
0.0617917
0.0614095
0.145104
0.0249159
-0.0221502
0.012578
-0.0378843
0.0782998
-0.000277763
0.0732045
-0.0208883
-4.8938e-09
0.0122235
0.00348148
-0.0267372
0.00150789
0
-1.25843e-12
0.112932
-0.0267165
0.0354097
0.00803125
-0.158465
0.012578
-0.126284
-1.75438e-15
0.00402962
-0.000360498
-5.16761e-12
0.120413
-0.000299757
0
0.00291107
0.0968507
0.00549421
-0.0272459
-0.090206
-1.42648e-06
0.0954687
-2.19409e-08
0
0.00185502
0.143522
-0.000235082
0.11577
-0.0435443
-5.14069e-08
0.017039
-1.25866e-07
-7.45777e-06
-0.00917864
-0.0184226
-0.0605072
0.00201108
-0.101292
0.0081488
0.0243881
-0.0402729
0.0151113
0.382473
-0.025015
-8.71313e-10
-0.0288658
-2.89452e-08
0.0922696
-0.035872
-0.0126561
-0.0418302
0.041931
0.0708414
-4.19723e-06
0.0003764
-0.000360498
-0.0106888
0.103685
0.0499657
6.03746e-05
-1.04292e-09
0.0326743
-0.00416246
-0.000263601
-0.129168
-0.0123363
-0.0681574
-0.0720995
-0.000243272
0.0920531
-0.0649476
0.337223
0.00397777
-0.0790817
0.00767092
-0.0708733
-0.259616
0.0151113
-0.038869
-0.0452454
-0.000254934
-0.13114
-0.0949409
0.0304236
-3.76556e-12
-0.00201089
0.0297352
0.211198
-0.0502391
0.0436386
0.030818
-0.0447535
0.0276606
-0.000157444
-0.0152201
0.0230559
-0.0782122
-0.00538374
0.153274
0.0641848
0.0374001
-0.0587293
0.122484
-1.21971e-08
-0.0218982
-0.397583
0.0172288
1.06722e-19
-0.000249136
0.00894825
3.25095e-18
0.0671587
0.0494146
-0.0490563
0.0556513
0.0638259
0.00201108
-5.14069e-08
-0.0103282
0.0554514
-0.000263601
-0.0897793
-3.82957e-06
-0.0680194
-5.31413e-07
0.0450298
0.0954687
0.00525551
0.22231
-0.0310053
0.00574211
-0.000261328
0.000417057
0.00439557
0.0284756
0.0595342
0.0230155
0.0586651
0.0151113
-0.0347191
-0.0023217
0.0164378
-0.0140705
0.203089
-0.0319952
-5.92136e-06
-2.36381e-05
-9.712e-06
-0.000253861
-0.000257076
-0.118496
0.00119212
0.0519553
-0.0131811
0.0135257
0.00811014
0.00641531
-0.000243671
-0.000299757
0.000828924
0.0250749
-2.56767e-05
-0.0289033
0.0421595
0.0392581
0.043715
0.00544715
0.0050026
-0.0152201
0.0404829
-7.60141e-05
-0.150045
0.0311145
-1.01778e-321
7.49291e-05
-0.0143807
-0.0547376
-4.80373e-06
0.0259002
-0.00419456
0.00909547
0.0301423
1.6897e-321
-0.0192173
-0.000253662
-0.047756
0.00173916
-2.56767e-05
-0.115943
-0.0154621
-6.03279e-06
-0.00926824
-0.0695308
-1.6466e-09
0.122482
-2.7008e-06
0.0120681
-0.017263
0.00125348
0.0243792
-0.131679
-0.0222884
-0.001932
-0.132476
0.0678573
0.0213332
0.16258
-0.018548
-0.0720995
-1.5683e-06
0.0279695
-4.15987e-07
0.135098
0.00607447
-0.0166333
0
-0.0934436
-1.25843e-12
3.25095e-18
0.0934738
0.0681957
0.0225423
-7.22667e-08
-0.0275944
-0.0362186
-0.0112513
0.1185
0.00986681
0
-2.52532e-05
0.028388
0.000243605
-0.016265
0.00831198
1.6897e-321
0.00877218
-0.0672767
0.142827
-0.00422294
-0.0251761
0.156352
-0.031944
-1.63521e-11
0
0
-0.0242886
0.158611
-2.64704e-05
-7.24018e-05
-0.0267986
-0.0468839
0.00173916
-0.0267937
-0.0371412
-0.0548557
-0.00344271
0.0134863
-0.00133701
-0.0418302
0.0309864
0.101287
0.00838518
-0.00419456
-0.124825
-0.0377279
0.0247116
0.0232961
0.0250749
0.268504
-0.0835129
-2.72739e-05
-1.6466e-09
-3.75374e-06
-0.00026332
0.00201108
0.0927597
0.024714
0.00140093
-0.0125721
0.0396219
0.0107546
0.00765391
-0.0331164
0.0942528
-0.0353323
-0.0327954
-0.000261665
0.0147292
-0.0514265
-0.0130583
0.101397
-0.0155141
0.00144062
0
-1.27226e-05
0.081133
-0.0121361
0.08578
0.00729171
-0.00028712
3.25095e-18
-6.44049e-12
-0.0591966
-0.0856009
-0.0739894
0.0291643
0.146256
-1.04292e-09
0.0506505
-0.209212
0.0388399
-0.140455
0.00737096
-0.0378843
0.0887273
0.00854973
0.0156097
0.0431624
0
0.106453
0.00771713
-0.0418197
-0.031324
-8.925e-15
0.0523892
0.0384995
0.305654
0.0123865
0.0877776
-0.034877
-0.0619697
-0.0345672
0.00899943
-0.00028712
0.124418
0.0918179
1.66438e-06
0.0151113
-0.025015
-0.0338305
-4.46372e-15
0.0517141
8.0293e-05
-3.65801e-10
0.00899943
0
-0.0149595
0.000243837
0.06614
-0.0790813
0.058629
-1.67154e-08
1.37844e-321
0.00720252
0.023088
-0.000553617
0.0027961
-0.0867603
0.106469
0.06614
0.06269
-0.0357956
-0.0253109
0.0352028
0.0203602
0.0828225
-0.0596447
-0.000207255
-0.026043
0
1.6897e-321
0.00471346
0.0172288
0.21071
-0.0249213
0.00180294
-0.0837579
0.034064
0.0309392
-0.038782
-4.23804e-05
-8.85063e-07
-1.54718e-06
-0.000248917
-2.65167e-05
-3.08406e-05
-5.81435e-11
0.0218764
0.00434969
0.0792005
-3.53867e-05
0.0171912
-0.0163156
0
-1.75438e-15
0.0120108
0.00909547
0.0144602
-0.00133701
-0.00984004
0.113467
-0.000207255
-0.0187587
-0.0571096
0.169929
-0.0180431
0.00257435
-0.00015346
0.0821496
-0.000257076
-0.111637
0.000394359
0.075155
0.0357345
-0.040833
-0.0233358
0.0139808
-0.0339805
1.0512e-05
-1.20276e-06
-0.00133703
-0.0169017
0.00395793
-0.0183216
-6.48821e-07
0.0573404
-0.000360498
0
0.0465889
-1.67154e-08
-0.0267372
0.0651313
-0.0309401
-0.0429874
0.0350685
0.17137
-0.0649147
-5.14069e-08
-1.19293e-08
-0.0653121
0.00391352
-0.0313527
-0.194951
0.0254822
0.152592
-0.016265
0.0003764
-4.87369e-09
-1.26869e-05
-0.0999991
0.133532
0.0453188
-5.52297e-07
-2.03356e-07
0.161789
-3.76556e-12
-1.01209e-08
-5.16761e-12
-1.25843e-12
0.143561
-0.0685332
0.0901794
0
0.00621339
0.017928
0.0386503
0.0183503
-0.0327137
0.000643338
0
4.91171e-19
-0.0199959
-0.000257069
0.00173916
-1.67154e-08
-1.27642e-05
-0.00926824
0.137388
0.0301423
-0.0152201
0.042955
-0.0666179
-0.0289751
0.0576107
0.0880515
-0.00366276
0.0697399
-0.000669315
-0.00926824
3.77721e-23
-0.0727757
-0.180573
0.00144088
0.00732213
-1.01209e-08
0.000127958
0.0768359
-3.55566e-06
-0.000254934
-0.200942
0.0391819
-0.0732496
0.0253523
0.0551079
0.0823571
-0.0618525
0.015912
0.0430467
-2.95107e-08
-0.0963557
0.00283563
-2.46037e-07
-0.000259442
2.08002e-321
0.0623673
0.0685861
-0.0243585
-0.0568371
-0.0134324
-0.00203012
-0.130772
0.000935109
-0.0714142
0.0164711
-9.68678e-09
0.0147497
0
-0.062692
-0.0446596
-6.09557e-07
0.00433533
7.48021e-23
-6.61974e-08
0.00755706
0.00250128
0.030603
-0.0344748
0.0516973
-0.0269966
0.0548055
0.0228897
-0.015351
0.0551338
0.0154917
-0.000263601
-0.030808
-9.02294e-13
0.0419885
-0.033114
0.0553215
-0.115316
-0.016265
1.01283e-321
3.25095e-18
-0.000241755
-2.95251e-253
0.0380314
0.00767091
-0.00201089
0.00119212
0.156809
0.0188281
0.0628849
-0.053624
-0.0357893
-0.0976478
0.000381079
0.000698282
0.00745514
-0.000125387
-0.00401748
0.0865418
-1.15434e-09
-6.7687e-322
-6.79751e-13
0.0151113
-9.46836e-07
-2.01902e-05
0.0128319
-0.00105819
-0.0302752
0.000305354
0.0377148
-3.75374e-06
0.0161669
-0.0191983
0.0887173
-0.0238165
-0.023251
0.0708067
0.0133639
-0.00825129
-0.0470676
0.0419885
-0.0123781
-0.000263601
-0.0785248
0.0388399
-0.000277763
0.104602
0.0318441
0.157032
0.00767137
0.078694
-0.0827055
-0.036013
0.01878
-0.115304
0.0927068
0.0117882
-0.0156479
0.0665133
-0.099018
-7.31975e-08
0.00140093
0
-0.0581759
-2.56767e-05
0.00803424
0.0377184
0.0116123
-0.00203012
-0.000263954
-0.0190419
0.0648848
0.146773
0.00289932
-7.24018e-05
0.0611456
3.45437e-71
0.155956
0.0250707
-0.0499952
0.0599586
-0.0607445
-0.01857
-0.0540469
-0.0904022
-0.0623048
0.00869412
0.0253805
-0.0390296
-1.63521e-11
0
-0.0363143
-0.0110968
0.00100445
-0.00277336
-0.016429
0.0364057
-1.33892e-321
0.0253805
-0.000266644
0.0132401
0.0387981
0.00294151
0.0311145
5.92879e-323
0.0594101
0.00407783
0.00722302
0.0765756
0.00105592
-4.46372e-15
0.0151113
0.00283981
0
-0.168643
0.000276311
0.00781362
-1.67154e-08
0.0386501
-0.0312868
-0.0193805
-1.75438e-15
-0.000266512
0.0356453
-0.0906511
-0.000360498
-0.000256083
-4.46372e-15
-0.0169494
-0.080313
0.0403214
0
-0.0266757
0.00778543
-0.000360498
-0.0636935
-0.133678
-4.76459e-06
0.101083
0.0936245
0.0117882
0.0250588
-0.0722447
0.00942235
-9.58487e-322
-0.169501
-1.07706e-321
0.00241487
-1.19555e-09
0.007296
1.70534e-86
-0.0655923
-0.0278889
-0.000260603
-0.000360498
-1.42648e-06
0.0271945
-1.475e-07
-1.06271e-11
-0.0367118
-0.0229194
-0.0406842
-0.0681944
0.100727
-0.00220329
0.00182488
-2.56767e-05
-1.11915e-05
0.0381781
0.0856361
0.00808558
-0.0309032
-6.09557e-07
2.46038e-05
-0.0948212
-4.46372e-15
0.166148
-0.00133701
0.0128319
-0.0142602
-0.00429851
-0.0153503
-0.0394142
0.0595877
-0.00837315
-0.000252319
0.00233357
-1.25898e-06
-0.0128544
-0.00368542
0.0109344
0.0675307
-6.03084e-09
-0.178707
-0.0402784
-0.00926824
-0.000378114
-0.114166
-0.0155141
0.0251076
0.0377184
0.014799
0.023138
-0.029457
0.0726643
-0.000253861
0.204335
0.070425
-0.00313338
0.276792
-0.000253861
0.0034703
0.0228452
-0.0764591
-0.00769413
-0.0841613
-0.0789393
-1.62278e-53
0.0174635
0.105535
-0.0267372
-2.35521e-07
-1.42648e-06
0
-0.000266644
-0.0229091
0.0074233
0.0800027
-2.67443e-09
-6.05953e-13
0.0644131
-4.15987e-07
-0.0663932
0.0248113
0.0291643
-6.24662e-05
-0.000253662
-0.0450689
0.0172288
-0.0418302
-0.0326238
0.088164
0.00395793
0.0304917
0.00201108
0.00541358
-0.0625983
0.0543148
0.00909547
-1.85758e-08
-0.0243585
0.0189232
-3.52172e-05
0
8.80711e-06
0.000136762
-1.07706e-321
0.000698282
0
-0.0738786
0.0275898
0.236199
-0.0687473
0.0851549
0.0463054
0.009242
0.0645571
0.00627097
0.0272704
0.00201108
-0.017862
0.0128319
-0.0338415
0.187274
0.0378959
-0.0152201
-1.42648e-06
-0.183937
-6.93437e-07
-0.0542759
-0.00570494
0.0329802
-7.60141e-05
-0.122983
0.0665503
0.0391819
0.00503013
-0.0234873
-1.32904e-321
-6.44049e-12
-0.000360498
-0.16335
3.72783e-89
-2.7008e-06
0.0991064
0
-4.15987e-07
0
0.232396
0.0250707
0.0499573
-0.0591778
-0.0861186
-0.000243671
0.0276837
-7.31975e-08
0.618116
3.25095e-18
-0.481893
-0.0753139
-0.0508837
0.451982
0
-0.0378354
0.00289932
0.0257891
-0.0628266
0.0183672
-0.00380949
0.00144589
-0.0452197
0.0908656
-0.0898051
-0.100071
0.228475
0.000584238
-0.0151398
0.00621339
-0.0776109
-1.07706e-321
-0.141098
0.0297463
-0.0110726
0.165075
0.0946453
-0.0476031
0.0601165
-1.25866e-07
-1.29445e-321
3.25095e-18
0.0684407
-0.0915489
-6.93437e-07
0.00746431
-0.237793
0.152227
0.00196757
0.00150686
0.164238
-0.00201089
-4.64342e-05
-0.0847319
0.00203134
-0.0932685
0.000103429
-0.000253861
0.106469
0.0300833
-0.0166811
-5.14069e-08
-0.0777442
-0.000360498
0.230844
-0.0253099
0.0123865
0.114854
0.12722
0.0136763
0.0568372
0.00113916
0.0106171
0.106469
-0.000260603
-0.0374267
-4.15987e-07
-0.000275903
-9.70977e-06
-0.00412652
-0.0592929
0.0203602
-0.0278192
0.0378959
0.215189
-0.0652567
1.06722e-19
-0.00486282
0.0996071
0.00916715
-2.56767e-05
-4.34861e-06
-0.0400864
0.0525794
0.00113916
0.0213386
-0.0160158
0.0117882
-0.00862426
0.043767
0.0298397
-0.000250892
-0.0190277
-1.27625e-05
0.249246
-0.00419456
0.1185
0.104229
0.0416079
-2.96439e-322
-2.49097e-07
6.03754e-05
0.092001
0.0638367
0.110439
0.0418524
-0.0847763
0.00542886
-1.6466e-09
-0.000124253
-0.0697177
-0.000207255
-0.00133701
-0.062052
0.00173916
-0.0463839
-0.0249528
0.0164378
0.0939479
0.00810474
-0.0406501
-5.32809e-09
-0.0728148
-3.01536e-06
0.0377397
-0.108161
0.0139808
-6.73618e-11
-0.080601
0.0158945
1.91518e-05
-0.0188258
-0.0899983
1.54148e-321
-1.71988e-15
7.48021e-23
0.0811682
0
-1.42774e-05
-0.129445
0.0686957
-0.090056
0.00203134
-0.100815
0.100564
-0.0478641
0.0320592
-0.0186226
-0.00024466
0.169316
0.0481053
-5.31413e-07
0.0881652
-5.32809e-09
-2.47805e-07
0.019486
-0.0109531
-0.000360498
0.0410313
0.409992
-0.000242618
0.00673895
0.0151113
-0.0337778
0.0172288
0.121099
0.0145111
-6.73618e-11
-0.00769413
0.000601841
0.0982884
-7.61373e-11
0.00898884
0.0163344
0.0172288
-0.00870759
0.0151113
-0.0235338
0.0259002
-0.0203459
0.00446407
0.0333094
0.0293623
-0.0308327
0.0377144
0.0205409
-0.031548
0.0208523
0.0736009
0.0609738
-0.0284151
-0.0475957
0.00418884
0.0856693
0.0249261
-0.0213888
-5.14069e-08
-0.000253861
-6.42425e-12
-1.21971e-08
-0.0502827
-0.0735303
-0.00478842
-0.00516263
-3.76556e-12
-0.0313531
-0.0886967
-1.75438e-15
-0.0138192
0.0488326
0.01794
0.0151113
-0.000360498
0.00745514
-0.0152201
-2.67443e-09
-2.95251e-253
0.0591228
-0.0445353
2.77919e-87
3.45437e-71
-0.0462858
0.0213209
3.45437e-71
-0.0418197
-0.0546414
-3.06205e-06
0.0424904
-0.0235498
0.00134203
-6.3261e-08
-0.0528039
0.00845739
0.019486
-0.0789307
0.292935
0.0108086
0.0072199
-0.0561651
-1.75438e-15
-0.00182724
0.0549169
-5.14069e-08
-0.0271135
0.251734
0.00542314
0.0640955
-0.0723294
0.170683
-2.7008e-06
-0.01857
0.0183673
-0.0609074
0.0678573
0.0125892
-0.0109531
2.09434e-05
-0.13089
-0.0985334
0.00868355
-4.30295e-05
-0.00419456
-0.0400949
-0.0282768
-0.0188469
0.00877218
-1.01778e-321
0.0363395
0.0710007
0.0687128
0.0179476
0.0123865
0.0317025
0
0.0517141
-0.0191255
0.123614
-0.00560124
0.011467
0.00621339
-0.0135282
0.0145111
1.18576e-321
-0.0261419
-4.23804e-05
-0.000239498
-1.42648e-06
0.00305645
0.0189375
0.00972725
-0.000257076
-1.5683e-06
-0.000360498
0.0309165
1.06722e-19
0.00178277
-0.0253109
0.125175
-0.0201626
-0.0274473
-0.000248917
0
-0.00026191
0.218276
-0.149151
-0.000299757
7.48021e-23
-0.0221266
-0.0625999
0.00492531
0.00707946
-0.0300161
-0.0323511
0.0183673
0.0454224
0.0233168
3.25095e-18
-0.0492862
0.0386912
-0.0493124
0.0583082
-0.0280553
-1.57377e-06
-0.0319945
0.00173916
0.0527829
0.121824
0.0213209
-0.089117
-0.000153082
-0.0842286
0.00170051
0.0529311
0.00607447
0.0333877
-0.00028712
-0.0989649
-0.0867617
-0.0347191
1.23022e-321
0.0807964
-2.35521e-07
-0.0357073
-0.170558
-0.000144378
0.0101501
-6.27463e-322
-0.01584
-1.11158e-08
0.120121
0.0311178
-0.0226459
-0.0568775
0.0449504
-0.0289441
-0.000272696
0
-0.0129382
-0.0260326
0.00607447
0.00173916
0.00546345
-1.01778e-321
0.195484
-0.129361
0.238401
-0.0156503
-7.22654e-08
-0.0402463
0.0337644
0.00213687
-1.876e-08
-0.0152201
0.00173916
4.17735e-05
1.7035e-05
-0.000360498
-1.58374e-05
-0.0372108
-0.0284151
-0.0194796
-0.0623389
-0.0889887
-3.23895e-05
-0.000207255
0
0.0193976
0.00720252
-4.46372e-15
-9.3281e-07
0
0.00954129
-8.4226e-15
-0.0302826
0.0393701
0.0189898
3.25095e-18
0.00173916
1.06722e-19
-0.0100674
-1.41536e-07
0.00683361
-0.0549045
-6.77842e-05
-0.000207255
-0.123144
0.110187
-0.0164323
-0.0226343
0.505698
0.136374
0.0145111
0.00694771
0.157474
-1.11915e-05
-0.000299757
-2.32846e-07
0.0498331
0.000791121
-1.01209e-08
7.45734e-05
-0.000509399
-1.01359e-06
0.000828924
-0.000260603
-0.0145195
0.00701539
-0.0249213
-2.34967e-07
0.0163344
-0.0267372
0.0678378
-0.041239
0.0156097
0.009242
-0.0199854
0.0304236
0
0.0317004
-1.42648e-06
-0.0590275
0.0254787
-0.000254934
-0.0646003
0.0387791
-7.61373e-11
0.171691
0.0639741
0.00140093
-9.68678e-09
0.134533
0.00621339
-4.8938e-09
0.014205
-0.188692
-4.23259e-08
-0.0447022
-4.8938e-09
0.00803424
-0.000244364
1.06722e-19
-0.0190749
-0.015875
-0.0341965
0.00759284
-0.0189388
0.0389376
0.0667243
-0.000286899
0.0312882
-0.000251324
-0.0146126
-0.000293359
0.18381
0.0520448
0.0948848
0.110095
-6.42425e-12
0.00745514
-8.13049e-11
-0.0105215
0.0205145
-0.013582
0.000305354
-0.00445097
0
-0.0436787
0.0187221
-0.0110726
0.0119502
0.0491716
-0.0255005
-0.0032312
-0.161727
-0.0272226
0.0627888
0.00915189
0.0689817
-0.0282314
0.15372
0.000868847
-0.0326162
0.0355698
-0.119027
-0.0447536
0.0863433
-2.66496e-09
0.0181242
0.0390222
0.048679
-0.00375271
0.205674
0.0184814
0.155542
-4.45437e-05
0.0623673
0.0386231
-1.42648e-06
0.00391328
0.0433561
-0.0253082
-0.156356
0.015925
-0.108643
0.0663641
0.033844
-0.050923
0.0471607
-0.0463839
-0.01584
0.00113916
0
0.0182481
-2.56767e-05
0.165128
-0.0343576
-0.0783284
0
-3.00898e-08
-0.0595689
0.0294263
-0.00640367
-2.67241e-08
-0.000360498
0.00233351
-7.36158e-322
-0.0176521
0.785939
-0.0637437
0.0194988
0.00391352
-4.63674e-09
0.0894834
0.00173916
-0.00557411
-1.15434e-09
-0.000153082
-0.0501989
0.0175336
0.320475
0.00838517
-0.00305485
-6.24662e-05
0.161167
-0.0254583
-0.000263954
-0.000207255
-5.51061e-05
-0.0155141
0.0439716
-0.0720996
0.186945
-0.000360498
0.0113757
-0.0417019
-1.85758e-08
-0.0392774
0
-0.0568028
-0.0036885
-0.0737585
-0.0240636
-0.0424915
0.056056
-0.022564
0.0213209
0.0782998
0
-8.85063e-07
-4.46372e-15
0.0423807
-1.27963e-321
-0.00781544
0.00138306
-0.00437759
-0.0757206
-0.0300785
0.0356611
0.0333927
-0.105723
0.0497275
-0.0209424
1.23022e-321
0.181921
-0.00669259
-1.13757e-15
0.0296224
0.072634
-0.0568024
0.00295103
0.0416389
-0.0206165
-0.000596763
0.0357024
-5.52297e-07
-2.37293e-05
-8.63853e-11
0.0254822
0.0145111
0.0783656
-0.172736
0.0551338
-1.27149e-12
-0.000168521
0.0174635
-0.100549
-0.0158321
-0.051715
0.0794316
0.0187177
0.0608269
0.0388399
-5.14069e-08
-0.107499
-0.000270704
-3.08406e-05
-0.0347191
0.0101501
3.45437e-71
-3.55566e-06
-0.0551611
-0.0551708
-0.0093859
-0.0341881
0.153007
-5.00059e-11
-0.0418302
-0.0189388
0.031682
-0.0294929
-0.00025659
0.0128319
3.25095e-18
0.0164281
-1.5683e-06
0.0780539
0.00640319
0.0179611
0.0180314
0.0291643
-1.42774e-05
-0.0267188
-0.0656606
-0.0287896
-0.0922415
0.00323824
0.0186297
-0.0232038
0.101225
-0.0607617
-0.056074
-1.13635e-321
-1.13141e-321
-0.0719324
-0.0126541
-0.00559688
-0.0252013
-0.000263954
0.0190845
-0.067654
0.00206993
0.207769
-7.44766e-06
-0.000137768
-0.000243484
-0.005661
-0.140821
0.0274244
0.00133385
-0.0344748
-8.4226e-15
0.165776
-1.59839e-06
0.000871358
-0.000299767
-4.4013e-06
0.00720252
0.0250587
0.0876469
0.0619699
-0.0021612
-0.0150681
0.0419885
-0.00201089
0.011467
0.0166993
0.00894825
0.0696735
-0.0267372
-0.0731012
-0.111637
-0.0108801
-1.31211e-05
-0.114971
0.0614095
-7.70742e-322
-0.0895575
0.19495
0.0675693
0.115771
0.0294974
0.1288
0.000127958
-0.0484523
0.192696
-2.72739e-05
0.0174635
0.00496143
-0.00770313
-6.42425e-12
0.0745653
0.0662036
4.91171e-19
-0.0114851
-0.00221214
-0.0347191
0.000394359
-0.0307592
3.45437e-71
0.000601841
-0.000165647
0.0504056
-1.71988e-15
0
-0.0199427
0.0300833
0.120121
0
-0.063119
0.0441748
-0.173361
-0.000360498
-7.26496e-05
0
-0.0109531
-1.6466e-09
0.00801017
-5.56303e-08
-0.0512516
0
-0.026157
0.0151113
-1.25866e-07
0.00542959
-7.31975e-08
0.0192031
0.0876279
-0.0567123
-3.46069e-06
-0.000299757
4.91171e-19
0.103685
-0.000244364
-0.0077355
-0.000243671
0.0458401
-3.52181e-05
0.0160853
-0.00123127
0.0174349
-0.116928
0.298514
0.0981253
0.407807
-7.45777e-06
3.77721e-23
3.25095e-18
0.0196052
-0.0243765
0.0111266
2.21807e-07
0.0909752
0.0355698
-1.19293e-08
0.175785
-0.0818258
0
-0.0341965
-7.70742e-322
-0.0327137
-0.0544085
0.0148116
-0.0531125
-7.74687e-07
0.0154512
0.0680421
0.0100837
0.109876
-0.0481311
-0.000253861
-0.00204265
0.00201108
3.25095e-18
0.00283981
1.66006e-321
0.000871358
0.0231551
-0.00416247
0.0723853
0.0686081
0.00674429
0.244471
-0.119813
0.00150789
0.0125877
0.0686229
-0.0418203
1.01283e-321
0.088466
-0.000260603
0.0349771
-0.0114851
0.121099
-4.34737e-07
-3.84242e-05
0.00289932
-0.0101703
0.174704
-0.0108801
0.0314972
-0.0267372
0.0153409
0.0738563
3.40349e-06
-1.01209e-08
-0.154434
0.0430627
0.00778543
0.0147505
-0.0186793
0
0.0377174
-0.0385941
-0.000253164
-0.0128682
0.0866396
0.0329017
-0.15928
0.00787691
0.0151113
0.0233936
-0.000277763
0.293362
-0.00781239
-0.000243272
4.91171e-19
0.0229488
0.0136434
-0.0380269
0.0122433
0.00261244
0.0235842
-0.0477591
0.0438992
-0.0267372
-0.000234603
-0.025015
-0.0101703
-8.74967e-09
0.0506064
-0.000360498
-0.0355103
-0.0343621
-0.000270704
0.0358776
-0.0036589
-0.00545683
-5.14069e-08
0.00867804
0.0120108
-1.67154e-08
-0.0253099
-0.0114851
-0.000277763
-0.0617803
-0.0364328
-4.43492e-07
-0.00416246
-0.000241343
0.0213209
0.0372369
7.48021e-23
-0.01857
-0.0918844
-0.0518978
-0.000254127
0
1.94374e-05
0.00150686
-0.000360498
0.101337
0.100106
0.00024229
-0.138829
-0.000248167
-0.0396592
0.0342624
0.016115
-0.0404663
0.0474376
0.636335
-0.0365035
0.0228897
-0.0581647
-0.0261203
0.0549091
-0.0101703
0.0110397
-0.000269295
-0.00445097
0.00848993
-0.130027
0.0410976
-0.011654
-0.0259551
0.0224608
0.0438992
-0.0583341
-0.0418197
-0.000263954
0.000130387
0.0239268
-8.85063e-07
-2.72739e-05
-1.67154e-08
0.185291
0.0794316
-0.000266318
-6.00519e-06
-2.66476e-09
-1.13635e-321
0.00695162
-3.06205e-06
-3.72032e-07
-0.101828
0.00868355
-1.01196e-05
0.0251076
0.0158659
0.0941477
3.25095e-18
-0.0908904
-0.117097
-0.0422226
0.172906
-0.040969
-0.000254934
0.134315
-0.000256573
0.0377234
-3.76556e-12
0.0455712
-0.0418302
-7.27258e-07
0.00332846
-5.16761e-12
1.18576e-321
-6.24662e-05
-0.128516
0.0777071
0.00909547
-0.000360498
0.134337
0.0187048
-0.000360498
-0.0257046
0
0.098037
-0.0142246
-0.000256573
-0.0484582
-0.235444
0
0.00695162
-0.0253109
-0.0561651
-0.0927328
-0.000244883
-0.000263954
-0.000238329
0.0042514
0.0645115
0.0212813
-0.0270746
0.0506106
0.00471346
0.00234634
0.0256829
-0.102616
0.146855
0.583955
-4.46372e-15
0.00173916
-0.023535
0.0224608
0.00567902
-0.0262605
0.0946635
0.0282976
-0.158378
0.0933933
-0.0965841
-6.73618e-11
0
2.98092e-05
-0.0836396
-6.93437e-07
-0.0815743
-2.46037e-07
0.201091
0.0164378
0.0774302
-5.14069e-08
0.0250448
0.0566154
-0.035746
-0.0137791
-0.00278355
0.0309864
-0.199452
-0.0249213
-0.0165288
-8.4226e-15
-0.0546244
0.0314972
0.155481
-0.0551336
0.0250749
-0.0628914
0.0716848
-1.06271e-11
0.0447342
-0.000249136
-0.0388165
-0.0489232
0
0.0220966
0.106469
0.000130387
-0.0728569
0.024714
-5.14069e-08
-0.276726
-2.56767e-05
0.00080871
0.0300604
0.0250748
0.016929
0.0111802
-0.0978212
-9.3281e-07
-0.0152201
-0.0447022
-1.75438e-15
0.179381
0.117817
0.0120395
0.0161476
0.14943
-0.0932332
0.0113349
-2.65167e-05
-0.0262141
-0.0778125
-0.072653
-0.0418203
-0.0472793
0.0697374
-0.00105819
0.0550797
0.0377184
-2.34967e-07
0.0101501
-0.0114152
-0.0823941
-8.63853e-11
-0.113794
0.00446305
0.0757991
0.00823676
0.0189898
0.0506505
0.0252274
0.066028
-0.061047
-1.14082e-15
-0.000360498
0.000757195
0.104038
-0.0254373
9.20198e-07
0.0116501
0.181882
0
0.124563
0.00279062
0.0329823
-0.0324477
3.4119e-18
0.0301423
-1.27963e-321
2.45937e-05
-1.01196e-05
-2.34967e-07
-0.000248167
-0.000263601
-0.0561651
5.19979e-09
0.0322885
-0.0111032
-4.15987e-07
2.46038e-05
-0.0189388
0
0.0291643
-0.0456921
-0.0114152
-2.13433e-08
0.099968
-0.0134481
0.00784579
0.108118
-0.000616226
-0.0723294
-0.0192579
0.0159071
0.00113916
0.023138
0.0993057
-0.0450689
0.00607447
-0.00026191
-3.7667e-12
0.024714
0.502185
0.0128319
0.0959239
-0.0307644
-0.000253662
-0.0160158
0.066676
-0.0551708
0.00869412
-0.000272696
-0.114697
-5.53631e-310
-0.000360498
0.250303
0.14259
0.0875489
0.273607
-1.42648e-06
-0.0249213
-0.180731
0.0209631
0.0439716
-0.0853759
-0.014287
0.0638367
-0.000263954
0.00258589
0.0301903
-0.000256083
-0.0292003
0.012321
-0.0243585
-3.00898e-08
-0.0914226
0.0267174
0.208464
-6.00488e-06
-1.54718e-06
-0.0343149
0.0419885
-0.0116111
-0.0340324
-0.0309401
-0.00025526
7.48021e-23
0.109563
0.0367584
-0.000299757
-0.0649147
-0.137114
-0.0025304
0.00318533
0.0614095
0.00318533
0.0333927
0.00471346
0.00249228
0.00471346
0.0322885
0.027469
-0.0210299
0.0597433
-3.82957e-06
-0.000360498
-0.115115
-0.00229801
-0.00133701
-0.0877737
0.0808574
0.0387522
-0.000360498
0.00366912
0.206503
-7.31975e-08
-0.107579
-0.0402784
0.028923
0.0558702
-0.0475957
-0.0160158
0.0534959
0.086628
0.00323882
6.60228e-70
-8.4226e-15
-9.02822e-07
-3.72572e-08
-0.000266644
-0.00338124
0.0598236
0.0425502
0.00716097
-2.32846e-07
-4.30295e-05
0.0319553
-0.00344271
-0.000125387
-0.193602
0.0938847
-0.000243201
0.0326018
0.000394359
-0.150542
0.0028866
-1.13635e-321
-0.000238329
-0.0210221
0.00838518
0.101899
-2.32846e-07
-2.67443e-09
0.0033302
-0.0243294
-0.0640722
-0.067963
-6.61974e-08
0.000422295
-1.74131e-08
-0.171567
-0.011527
0.0415877
0.0171509
-0.0906309
0.0460198
0.122421
-0.00694541
0.00542959
1.99875e-06
0.0151113
0.0307987
0
0.00641531
-0.0473797
-0.0636499
-0.0399306
-0.0931349
-0.0760074
-0.000253861
-0.0739894
-0.0385396
-0.000254934
1.37125e-18
-4.46372e-15
0.041878
-0.0152201
0.00570376
0.0243881
-0.0017906
0.0226737
0.0258811
0.00443547
0.0123865
0.0210817
-0.0243585
-0.0789605
0.0566597
-0.000360498
-1.67154e-08
0.0253778
0.0116686
-0.090056
0.0183016
0.0677903
-0.0936768
0.0507045
0.0120395
0.0136434
0.0342688
2.46038e-05
-1.67154e-08
-0.0782122
0.0154597
-0.0223369
-0.0472954
-0.0312868
-2.36381e-05
-0.000246259
0.0851298
0.0143976
0.0101501
-0.0141721
-0.0222476
-0.0652391
-0.0100629
-0.0259551
0.00838518
-0.0302752
0.00720217
0.0210817
-0.0186226
0
0.0321318
-1.27149e-12
0.0181126
-0.00372102
-0.0471207
0.0530184
0.0245948
-1.85758e-08
-0.000360498
0.0143975
0.0423349
-0.000254127
0.0189375
3.64073e-05
0.0164695
6.06445e-05
-0.049536
0.0352184
-0.0288024
0.0309392
0.0149396
0
0.0433561
0.0251076
-0.035712
0.300153
0.0235712
-1.35131e-06
-7.31975e-08
0.0356751
-0.0169718
0.156712
-0.0349793
-0.0163716
0.0441748
0
-0.072775
0.0732291
0.0411655
-0.0381131
0.0250749
0.00201108
0.0189375
0.0228171
-0.0422848
-0.033114
-0.033114
0.0458807
0.0151113
0.0750837
-0.0363152
-0.0541619
-0.0724192
0.00409257
0.0037259
0.109876
0.00909172
-0.0302752
0.0120395
0.00833051
0.0537945
0.02722
-0.0579922
-0.0152201
-0.000244854
-0.0404654
2.55251e-05
-0.0034304
-0.0186226
0.0302817
-0.0551742
-7.6139e-11
0.169794
0.110105
-0.000302819
1.6897e-321
-2.77427e-05
4.91171e-19
-0.0784543
0.00113916
-0.108925
-0.0163378
-0.00419456
0.0794316
-0.0267653
0.00683226
-0.000360498
-0.0174241
-0.00201089
0.0151113
-0.0561651
-0.0508835
-0.025015
0.0218667
0.035188
0.0859014
1.91518e-05
0.0251027
0.0134224
-0.000235114
-0.0476721
-0.109872
0.0103452
-0.00105819
-0.0106434
0
-0.0358006
-0.107065
-0.116228
-0.0416141
-0.0216312
0.0374419
0.0830812
0.0160422
0.0243881
-0.253721
-5.14069e-08
-0.0528039
0.0428563
-0.121556
-0.0382912
-1.41536e-07
0.0145111
-0.0460154
0.0662575
0.0101643
2.77919e-87
-0.0660062
0.00348148
0.205063
0.00189124
3.77721e-23
-0.147249
-2.01902e-05
0.103685
-1.25843e-12
1.06722e-19
-0.0129382
0.0612038
-0.0242021
-0.0294282
0.00337659
-0.0400949
-4.53033e-05
-0.062692
0.0136763
-0.0403617
0.113553
-0.000263954
0.00859186
0.0219513
-0.000912833
-0.00993783
0.186721
0.0303151
3.45437e-71
-3.76556e-12
0.0171548
-0.105654
-0.0840802
-3.61389e-07
-0.00559688
0.168612
-1.29445e-321
-0.00445097
0.0174635
-0.211669
-0.0475957
0.00542959
-0.00633345
0.0213209
0.0965619
0.0553565
0.0386912
0
-1.15434e-09
0.101748
0.0795274
0.0439716
-0.0809596
2.85275e-88
-1.99224e-13
0
0.0668315
0.0914313
-2.46037e-07
0.0243066
-0.018548
-0.0236813
0.0205139
-0.000244586
-0.0763153
-6.79751e-13
3.25095e-18
0.108403
0.0759197
-0.0418302
7.48021e-23
-0.0577536
-0.0204045
-0.106883
-5.92136e-06
4.91171e-19
0.024714
-3.95544e-06
-3.46069e-06
-1.74131e-08
-0.0403953
0.296454
0.0100837
-0.0384064
-0.0493124
0.0633875
-0.0389751
0.00761691
-0.0152255
-6.03084e-09
0.084891
-5.13061e-05
0.0714546
-0.00587837
0.00729171
0
-1.62278e-53
0.016529
-0.000275903
-0.000243201
0.239294
-2.34967e-07
-0.0591966
0.0145111
-0.0284151
1.46096e-05
-0.0327137
-0.000243272
-0.0103254
-0.000238329
0.210488
0.0136807
-0.000219853
-3.76556e-12
0.066676
-1.06271e-11
2.46038e-05
0.00909547
0.000150073
0.12609
-0.000725357
0.0278268
0.00416858
-1.75438e-15
0.0244805
-0.00182724
0.0638544
0.150541
-1.35131e-06
-2.36381e-05
0.00795997
-5.80851e-06
-0.206634
-0.0109531
-0.0656493
3.25095e-18
-0.0418302
0.0454224
0.00365551
-2.36381e-05
-0.0319248
-1.52172e-321
-0.0183096
1.37125e-18
-0.0267372
0.0159071
-0.137755
0.262565
-0.0680805
-6.05953e-13
-0.0249213
0.0566597
-0.0279863
-0.0324386
0.00318533
0.000668597
0.0163344
-4.43492e-07
0.00767092
-0.0324602
0.00434187
-0.00633345
-0.000360498
-0.00437759
-0.0289215
0.0110397
-1.54718e-06
-0.103777
-0.00139026
0.0113757
0.00119212
0.0174635
1.0512e-05
0.0136763
-0.0263358
-0.0808001
-0.0294114
-3.06205e-06
-0.000241755
-0.0826265
-0.0253109
0.0110397
0.0765151
-5.51061e-05
0.0352028
-0.130923
-0.0267943
-0.113794
0.0697374
0.0139803
-0.00734328
-0.16391
-0.0430464
0.0228897
0.302443
-4.76246e-06
-1.01909e-07
0.0183016
-0.0153455
-0.000246259
-0.0313764
0.125425
-0.289327
5.76557e-88
0.0259184
0.157822
-0.000249136
-0.0499952
-0.000586877
2.66633e-05
-0.0392581
-0.000360498
2.77919e-87
-0.016265
0.182812
-0.143996
-2.36381e-05
0.145711
-0.000124253
0.083566
-0.000272696
0.0151111
0
0.246627
-0.00201089
0.00233357
0.0041487
-0.000257069
0.121406
-0.00214785
0.0110397
0.0300833
-5.51629e-06
-1.41536e-07
-0.0184226
-0.0416141
-6.93437e-07
0
0.0172816
0.000175346
0.00391349
0.0782998
0.30762
0.00771713
-3.08406e-05
0.0164711
-9.68678e-09
-2.03161e-05
-0.035026
0.0250749
0.0349459
0.0100837
-0.0260049
-0.000255304
-0.161889
-0.000360498
0.0557689
-1.6466e-09
0.0167898
-0.033699
0.0329823
-0.102158
-0.000322647
-0.0799743
0.351521
0.0448182
0.0609738
-0.0247379
-5.56303e-08
0.0187303
-5.14069e-08
-0.000299757
-0.0473399
0.112021
-0.0498961
0.0674215
-0.0300161
-0.0776939
0.0231379
-5.14069e-08
0.066028
-1.25843e-12
-1.29445e-321
0.0696841
-1.75438e-15
-6.41461e-07
0.0384014
-3.75374e-06
-0.000266512
0.0258008
0.0172281
0.0191375
-8.97133e-06
0.0669566
-0.0267608
0.00365551
-0.000246264
-0.000244586
0.0614095
0.0220966
0.0723867
3.4119e-18
-0.00445097
0.212803
0.0943609
-0.0116201
0.0931413
0.000422295
0.0222237
-0.000360498
-9.74002e-07
0
0.00295103
-1.33892e-321
0.0399525
-0.0836396
-0.0783263
-0.0258268
0
-0.0512993
0.0259002
0.0213482
-0.000299757
3.60583e-09
0.0288574
-0.0229194
-0.00945794
0.125519
0.133188
0.0739388
-0.0651582
0.00741036
0.014106
0.0349426
-3.46069e-06
-0.0298141
0.0053207
-0.0315017
-4.42918e-05
0.158526
0.000601841
0.0126149
0.00243837
-5.00059e-11
0.134102
0.0309805
-0.00133701
-0.000186457
-0.0440063
0.260767
0.017928
0.0128319
-3.94395e-05
-0.0437407
-2.17309e-10
-0.000249785
-0.00926824
0.0169416
0.243466
-9.02294e-13
-6.44049e-12
0.0236441
-0.0120024
0.0214515
-0.0398528
-0.0714682
0.0959239
-0.000241755
0.00023642
-0.000248167
0
2.39079e-18
0.000243216
0
-0.033699
-0.000124253
0.060318
3.25095e-18
0.00391352
-1.04292e-09
0.021363
-0.00527883
0.173244
-0.036732
-0.0418583
0.268278
-0.0229091
0.0011441
0.00675367
-0.000243272
-0.0302798
-0.000255675
0.0242194
2.55251e-05
0.0959803
1.60077e-321
-0.0445017
0
0.0562071
0.0003764
0.00868355
0.0139808
-0.0880008
-1.74131e-08
-0.0561651
-0.000112238
-0.0725248
-0.188396
-0.000360498
-0.00182724
-0.0476716
-0.142152
-0.0848286
0.061709
0.0352028
0.00280968
-0.10129
-0.0566809
0.0329823
0.0298397
-0.0181683
-0.0188258
-0.0288411
0.0182348
0.00589645
-0.0328181
0.00745514
-0.018567
-0.00926824
-0.000144378
0.0304236
-0.0352846
0.100103
0.0191375
0.015912
1.6897e-321
0.0709564
-0.0394428
-0.000153558
-0.0347191
-0.000360498
-0.0400949
0.117969
0.00103432
-0.0834615
0.0186885
0.00241487
-0.000246259
0
-0.000261665
0.00784579
-0.0258633
-0.0422848
0.0448104
-0.221313
0.00029701
-0.114631
0.062442
-0.000253402
0.0128319
0.334826
0.0250588
-0.0452197
-0.000253861
9.20198e-07
-0.0403953
0.0648584
0.0304236
0.00144589
0.0587518
0.0614057
-0.0192173
-3.76556e-12
-0.0734795
0.0553565
2.89138e-88
0.00903723
-1.11915e-05
0.0101501
0.0234625
-0.0178686
-3.57329e-07
-0.0293134
0.025235
-1.75438e-15
0.230256
-0.00926824
-3.08406e-05
0.0174349
0.0145111
-1.42774e-05
-0.0138602
0.394632
0.0886368
0.0878496
0
0
0.173918
3.25095e-18
-9.70977e-06
0.00415756
-0.0731277
0.00741036
-0.109199
-0.0345273
-0.000257069
0.08578
-0.228359
-0.000116481
-3.76556e-12
0.000601841
-0.000232382
0.0187303
0.123756
3.77721e-23
-0.0990932
0.184915
0.166434
-5.80851e-06
1.60077e-321
-9.40556e-09
0.061709
0.0139808
-0.109822
-0.0545857
-0.0406501
0.139382
0.00489514
0.00150686
0.00922807
-1.37799e-07
-4.37658e-06
-0.0446062
-0.000277763
-1.876e-08
-4.1257e-12
-2.0455e-05
-0.170636
0.0399696
0.00150686
-0.0152201
-0.0498452
-2.66476e-09
-0.0194282
0.106469
2.09434e-05
-0.000252319
-1.1792e-09
0.00567902
-6.3261e-08
-0.0226533
-1.46806e-12
4.91171e-19
0.0502245
0.0346969
-9.46836e-07
0.0137032
-0.0444982
-1.6466e-09
7.49291e-05
-2.66476e-09
0.146861
0.0175093
0.000501421
-1.09683e-321
0.0400563
-0.000299757
0.146576
0.0151986
-0.0997046
0.00576057
0.0291643
-0.240461
0.0181303
0.102093
-0.00133701
0.0172276
-0.000260603
-0.0854795
0.0329823
0.0391425
-0.0976725
7.48021e-23
-0.00734328
-0.000246259
0.00496473
0
-0.0635286
-0.00366275
-0.0243585
-0.000360498
0.160516
0
-0.0300161
0.0476847
-0.0378354
0
0
0
-3.00898e-08
-1.35131e-06
0.0233168
0.105367
0.0229038
-1.25843e-12
-1.25187e-07
-0.000266513
-1.14082e-15
0.0979859
0.0675307
0.052318
-0.0253583
0.0594347
-2.81741e-07
0.00119212
-0.265816
1.62054e-321
-4.77233e-09
0.0123865
-0.0228506
-7.31975e-08
-0.00455992
-7.31975e-08
-4.76459e-06
-0.587242
0.0329823
-0.056947
-0.0323328
0.00696213
-1.6466e-09
-0.0164356
0.0218764
-0.0700781
0.00899943
0.33413
0.0780903
0.00778543
0
-4.63674e-09
-0.00851085
-0.131919
-0.000254934
-0.00559688
-2.7008e-06
-0.0944164
-0.000263601
0.0118878
0.0278511
0.0333927
-0.0317577
0.0105338
0.0217435
0.00771713
-1.31211e-05
-0.0229091
-0.0101715
-0.000360498
-0.0349793
7.45734e-05
0.0300833
0.00076784
-0.0697395
0.0271559
0.0640688
0.033595
0.0112758
-0.000254934
-0.000232862
-0.0801188
0.0762054
3.60583e-09
-0.00016795
-0.0418197
-0.0188258
-0.0256016
0.0430624
-0.0596655
0.00643395
0.0308766
0.00277123
0.000276311
0.0610496
-4.46372e-15
0.0136434
-1.58374e-05
-2.66476e-09
-0.0663641
-2.56767e-05
-0.000261328
-0.00484488
1.91518e-05
0.0386036
0.0285194
0.00467147
0.00803125
0.000979307
-0.00660615
4.91171e-19
-1.75438e-15
-0.00339418
-3.38881e-09
0.0405579
0.00754965
0.206087
-0.0431602
-0.017603
-1.67154e-08
-1.14082e-15
-1.15391e-15
0.0352028
-0.0551145
-0.00464141
-1.08866e-12
-0.0347191
0.0224608
0.00778543
-1.14082e-15
-1.15881e-05
0
-0.0623639
0.00834334
0.083661
-9.02822e-07
-5.14069e-08
-8.85069e-07
-0.0430221
0
-2.66476e-09
0.0395057
0.00348148
0.0156455
0.0228897
0.0656257
-0.000360498
-1.1087e-07
0.0191375
0.106469
-0.0480039
-0.0155319
0.0639379
0.0134948
0.0614549
0.074101
-0.000299757
-0.0756795
0.00567902
-0.0728148
0.0500562
-0.0160961
-0.00133701
0.00150789
-0.0518978
-4.76459e-06
-1.25843e-12
-0.0237971
-0.0461556
-9.95727e-06
0.00606915
-0.000277763
-0.0345198
-0.000299757
-0.0525397
0.0054277
-0.000266318
-0.000270704
0
0.0252095
-6.3261e-08
-0.352395
0.0438765
-0.000272696
0.215432
0.0185817
-0.0350565
0.000388278
0.108675
-5.14069e-08
-6.79751e-13
0.00367793
-1.13432e-10
0.00402962
0.00695162
-1.35131e-06
-0.0362393
-1.19293e-08
-0.0444982
0.0242068
-0.0199837
2.77919e-87
-0.104288
0
0.00816582
0.00113916
-0.00734328
-0.000360498
-4.1257e-12
-0.0207024
-9.02822e-07
-0.110242
0.0308766
0.0151113
0.00589645
-0.00289918
0.0145111
-0.0914226
0.0365459
-0.0457917
-0.0444982
0.120121
-0.00182724
-0.0309401
-5.14069e-08
-0.0121704
-0.0694076
-0.0469256
-0.0814471
0.00201108
0.0230997
-0.000244854
0.0291643
-1.27625e-05
-0.000153082
-0.0889146
0.00144589
0.0423119
0.0298397
-4.15987e-07
0.0123039
0.0644502
5.82008e-88
0
0.0287191
-0.033699
-0.103417
-0.0448527
-1.27625e-05
0.0900571
-0.0471665
1.01283e-321
-0.35524
-0.0375391
0.0804623
-0.000153082
0.0614632
-8.74967e-09
0.0164711
0.028777
-0.071669
0.109516
-0.0382524
0.0558441
0.0869905
-3.76556e-12
-0.078381
0.0151113
-0.000299757
0.00426955
0
-3.76556e-12
0.125039
-0.000360498
-0.000360498
-0.040001
0.077058
-1.15434e-09
-0.043021
-0.000122782
0.0454224
-0.0235498
0.0995555
-0.0554417
-0.0414773
-0.00837315
0.0144628
-1.6466e-09
-1.62278e-53
-0.154027
0.0520693
0.00290221
-0.0112663
0.0203602
-0.0310355
0.00348148
0.142134
0.0832365
-0.0161093
0.011467
-0.0292003
0.0607243
0.0609787
0.0164711
0.00869412
0.127615
0.0698382
-0.0109531
0.141103
0.112897
0.00669535
0.0340749
0.0121539
0.00397901
2.77919e-87
0.0342051
-0.0159819
0.197517
0.124689
-0.0407656
-1.67154e-08
-0.0327137
0.0171623
0.0169662
0.131879
-0.000244854
-0.000253662
0.0672348
0.032901
-4.64342e-05
0.0598398
-1.67154e-08
0.0458401
0.00434969
0.0104011
-0.0653776
0.077655
-0.0902133
-0.0139538
-0.000497671
-0.0373214
0.0418179
0.366069
-0.00024271
0.0164711
-1.20277e-06
0.0961492
-0.23667
-0.0280497
2.77919e-87
0.308155
-0.0666773
0.00899943
-0.0480037
-6.3261e-08
-0.0916319
0.0174349
0.101118
0.0314972
-0.0190748
0.0539457
0.0488358
-0.0987393
0.0499418
0.00838518
-0.00644626
-0.000580391
0.0373406
0
-0.000165647
-0.0598605
-9.46836e-07
-0.0709984
0.155044
0.0298397
-6.44049e-12
0.00816836
-0.000270704
0.0203602
-9.3281e-07
-0.000547923
-0.000265228
0
-0.0249213
-0.0188258
-0.0551435
0.131879
1.22034e-321
-1.85758e-08
-0.0406501
1.78084e-05
0.00607447
0.0174349
-0.00026892
0.00935792
-0.00218609
-9.3281e-07
-0.000604169
-1.6466e-09
0.0516146
0.0397925
0.0333927
-0.000266644
-0.103417
-1.85758e-08
0.0319553
-9.8604e-05
-0.0834027
-0.0832041
0
-1.42846e-05
0.0291643
0
0.00486709
-0.0412994
-0.00960942
0.00440322
-0.0700781
0.0291643
0.000871358
-0.0276415
-3.55566e-06
0.0333927
0.415888
-0.0288411
0.0543393
0.0419885
0.0638259
0.098399
-9.74002e-07
-0.0551145
-0.0290913
-0.0274791
0.00816192
0.00173916
0.0782998
-0.051746
0.0251359
1.37125e-18
0.00233638
-1.2587e-07
-0.0560359
-0.053203
0.0477497
-1.35131e-06
-0.0815856
-0.0277247
0.00178585
-0.0807179
3.77721e-23
-0.000360498
-0.000270704
-0.0302752
-0.0267836
2.39079e-18
0.142608
-0.00227015
0.0282067
0.0339214
-0.0207729
3.25095e-18
0.0608269
-0.0101388
-0.0771384
-0.0543533
-0.0376708
-0.0152201
-4.53033e-05
-0.0335602
-0.0253099
0.0243719
-8.85063e-07
-2.46037e-07
-0.0337272
-1.27149e-12
-9.70977e-06
0.0113943
-0.0300161
-0.0357545
0.0149611
0.0370329
-0.0425297
0.00013035
-0.219886
0.00125302
-0.00338124
-0.000259442
-1.67154e-08
0.0250749
-0.0629365
-4.46372e-15
-1.04292e-09
-1.01778e-321
-0.089894
-0.0452256
0.0261919
-0.0229101
-0.00732916
2.77919e-87
-1.71042e-08
-0.0790813
-5.14069e-08
0.00406863
0.00674904
0.0708373
-3.75374e-06
0.00940881
-0.0678085
0.0530625
0.035696
-0.000252304
0.0386912
0.0987852
0.0457922
0.00173916
-0.0739894
-5.14069e-08
0.0136434
-8.94168e-10
0.0441271
-5.14069e-08
-9.95727e-06
0.0191375
0.0120395
0.00217643
0.422012
0.0254822
0.066028
-0.0399563
0.104479
-0.0316508
0.0120395
0.00773877
0.0354799
-0.00413441
0.0118952
0.126773
0.0412426
0.00744781
-6.36867e-05
-0.00917864
1.37125e-18
0.311416
0.00663451
0.0806239
-0.0802794
-0.00028712
-0.0055272
-0.0838427
-1.01778e-321
-0.140728
-1.63521e-11
-0.0270746
0.131879
-0.0958336
0.0143867
-1.25866e-07
-0.0931433
0.00140093
0.0875261
-0.0127965
-2.19409e-08
0.0170425
-0.0302531
-0.0167528
0
0.0172288
-0.0360551
0.00721163
-0.182268
0.0259223
-4.46372e-15
-0.0125883
-0.00926824
-0.161115
0.245232
0.0731781
-0.00254908
0.0376786
-0.0273409
0.00173916
0.0745653
-0.0530894
0.000130387
-3.52172e-05
0.0458401
0.302991
-0.0444982
0.0680008
0.0174349
-0.102328
0.0174635
0.052179
-0.000174012
2.49751e-18
0.0172288
-0.0577661
-0.000360498
-0.0206641
0.113317
0.00816192
-0.0143332
-0.000360498
-0.0186226
3.25095e-18
0.000192499
-0.0673621
0.00434187
-0.0616445
0.0138623
-0.000360498
0.614691
-0.0808495
0.00897924
-0.0817983
-0.0493124
0.144453
-3.82957e-06
0.0117879
0.0133939
0.00119212
0.0254822
0.0881562
-0.0353408
-0.0191334
-4.46372e-15
0.036864
-0.0496383
-0.0278889
-0.129779
1.99875e-06
-1.27149e-12
0.0517141
-0.0845259
0.0151113
0.0675307
0.0475284
0.0318803
1.99875e-06
-0.0173018
3.25095e-18
-0.155136
-0.000360498
-4.64342e-05
-0.00387475
-0.0114851
-0.000270716
0
0.0393701
-0.16086
0.00696213
0.0450052
0.0866293
0.00471346
0.00838518
-0.0267372
0.0453226
0.00868355
-0.0219044
0.228224
-9.95727e-06
-0.0423524
0.195125
-0.0233358
7.48021e-23
-3.84242e-05
-0.0502391
0.098992
-7.24018e-05
0.0563994
0.0354074
0.0493868
-0.000360498
-2.01902e-05
0.0827148
0.0349432
0.00650968
0.0633875
0.0363277
2.77919e-87
0.120269
0.0284931
-0.0454354
-0.000263954
0.0459469
0.00412997
0.00173916
-0.112371
-8.4226e-15
0.0635931
-2.32846e-07
0.075189
-0.0447022
1.42413e-87
0.000243216
0.0300833
0.00868355
-0.22076
0.00845739
-0.00133701
0.00173916
-0.0343576
0.0486673
0.0367584
-0.215577
-1.082e-321
-0.0879742
-7.70742e-322
0.0128319
-0.000360498
0.118605
0.025568
0.0161683
0.00914794
0.0455612
0.157444
-0.0721546
-0.212674
0.104533
7.5486e-19
-1.1792e-09
0.0100837
0.0633875
-0.000299757
0.142959
-0.0206106
0.0068163
0.00289932
-1.14082e-15
0.0189702
0.0687128
0.183214
-0.11127
0.132132
-0.148625
0.00173916
-4.15987e-07
-0.0218982
-0.0178686
0.0431061
-0.0232703
-0.0281326
1.37125e-18
0
0.0110397
-0.0235498
-0.000254934
0.00243837
0.0110397
-0.0160158
-0.0152203
0.305001
-0.0730938
0.0823651
0.00321326
0.00695162
-0.0551708
-0.00197413
-0.000299757
-0.0173907
0.0291643
-1.14082e-15
-0.0638212
0.434035
-6.09557e-07
-0.000360498
-0.00419456
-0.00201089
-1.99224e-13
0.0110397
0.506652
2.85275e-88
0.737106
0.012784
-0.0674913
-0.000270071
-1.13432e-10
0.183595
0.00140093
0.0235248
0.0250707
0.071705
0.00113916
0.00201108
0.00465662
0.0753751
-1.6466e-09
-0.026747
0.22446
7.25851e-07
0.0162378
-0.00305485
0.134913
-0.00201089
-0.062692
-1.51534e-05
-6.03084e-09
0.0439104
-0.0752563
-1.35867e-06
-0.0649476
1.12664e-87
0.0246983
-0.0243585
-1.25843e-12
0.061709
0.0633053
-0.0372108
0.0215537
0.0964989
0.0464088
0
-0.0426042
-6.79751e-13
0.215539
-3.57329e-07
-0.119691
0.0514798
-0.0858791
-5.38583e-06
0.00870541
-5.54519e-05
-1.25898e-06
0.0151113
-0.000299757
-0.0899151
-8.71309e-10
0.00173916
0.00367634
-0.0280553
0.0150326
0.0278075
0.0743016
-1.20276e-06
-0.0828021
0.271356
-0.00417101
0.0761626
-0.000550629
0.0278511
-0.0400949
-0.0805175
-1.75438e-15
-0.0292003
0.00173916
0.0424904
0.0107348
0.0123209
-4.43492e-07
-0.013219
-0.108822
0
0.0416079
-1.11158e-08
-1.75438e-15
0.0891598
0.0720021
-0.0447022
-1.22643e-12
0.0174617
0.0113757
0.000132303
-1.29445e-321
-1.75438e-15
0.0640364
0.224468
-1.85758e-08
-0.353535
0.0272067
0.0334964
-0.0268711
-0.0309401
0.045407
0.037719
0.0447389
-1.42648e-06
-1.62278e-53
0.0380497
-2.74899e-05
-1.41494e-317
-0.0113922
0.0299812
0.01277
-0.188692
0.00765391
-0.041503
0.0161683
0.115144
-0.0418871
0.310831
0.0245444
-0.00559689
-0.097551
-2.17309e-10
-1.35131e-06
-1.27963e-321
-0.000360498
-0.0493736
-0.0341058
-0.00545683
0.0278511
-1.42648e-06
-0.281422
0.00119212
-0.000243275
-0.000234603
-0.0227972
0.220475
0.0316237
-0.0360741
0.00833729
0.29644
0.00760096
-0.000360498
0.160687
-0.0175124
-0.000243272
0.00173916
-0.0405531
-0.0667686
-0.066213
1.37125e-18
-1.14082e-15
0.0445374
0.0100837
9.14231e-06
-1.25898e-06
0.0174881
-0.0312098
-0.0267372
-0.188241
-1.25866e-07
0.0708373
0.00402962
-2.77427e-05
-0.385376
0.0267174
-3.76556e-12
0.00292766
0.0310775
0.0364441
-0.0247507
-0.000360498
0.0151113
-0.125777
-0.0163716
-0.000243201
0.0041487
-0.0180204
0.254514
0.16609
0.16609
-0.0231024
0.0272588
0.294975
-0.0186226
0.0422809
0.0722109
-0.000360498
0.0278511
0.00869412
-0.000360498
-5.14069e-08
-0.0267986
0.0291347
0.0183016
-6.48821e-07
0.00289932
0.030273
0
-0.123135
-0.0302798
0.101119
-7.70742e-322
0.0814381
0.00261243
0.0308198
0.0101764
-0.000238329
-0.196144
0.0052975
-0.000265228
0.00173916
-0.0364394
-0.143338
-1.25866e-07
0.181854
-0.000360498
0.00167582
-0.00294815
-1.27242e-05
0.46035
-0.0429874
-0.000266644
-0.0760074
0.127984
-0.000502027
-0.00701271
0.258712
0.0444348
-0.0152201
0
-0.108888
1.06722e-19
0.183233
-1.27963e-321
0.0164378
0
-0.0884914
-0.0864133
0.00177199
-0.0101715
-0.0243585
-0.0946971
-0.0245434
0.130926
-6.93437e-07
0.0172816
0.0229414
0.0430627
0.00798516
-0.000205302
0.016529
0.00637939
0.00759284
0.0262548
-1.14082e-15
-0.000270704
-0.0152201
0.0215785
0.00838518
0.0473952
0.0218764
-1.75438e-15
0.0329823
1.0512e-05
-3.55174e-10
-0.00815187
-0.000360498
0.0136434
0.0484754
-0.015532
0
0.119523
8.0293e-05
-0.139625
-0.01857
0.065247
-2.05801e-05
0.163525
0.0411742
-0.000107616
-0.00025125
4.91171e-19
-0.00385932
0.114989
-0.0190461
0.105834
0.0123612
-0.0620262
9.73309e-322
0.108118
1.23022e-321
0.000132303
0.00975804
0.0611797
0.0164711
0.0203663
0.0142449
0.0325949
-0.0755053
-0.0728148
0
3.25095e-18
-0.0836403
0.00201108
-0.0399724
-0.000261328
-0.0243585
-0.0744938
-0.000203473
-0.0279443
0.00439557
-0.0332804
-0.0855
7.49506e-06
-6.3261e-08
0.043092
-0.00026892
0.000236521
0.0102859
0.0909252
-0.0781287
0.0163344
0.00186241
-1.67154e-08
-0.089278
0.0419885
-3.08406e-05
-0.000360498
0.00180294
-0.0934436
-1.75438e-15
0.149426
0.0145111
0.0545535
0.00589645
0.0581395
-0.0921188
-0.000360498
0.0335234
-0.00977196
-0.0189388
-1.75438e-15
0.0031163
0.0494537
0.0279725
0.0641251
0.0415257
0.0980382
-2.89452e-08
-0.0140329
-1.67154e-08
0.136021
0.0478605
0.117882
0.020748
-0.00926824
0.101026
0.0375602
0.242151
0.0333927
1.23022e-321
-6.12069e-08
0.0419885
0.069168
-0.045417
6.03754e-05
-0.00437759
-0.0186339
-1.55815e-09
-0.015892
0.0942392
0.00140093
0.0191399
0.103083
-0.00344271
0.0126149
-0.11212
0.00119212
-0.000234603
-0.0373042
-0.0718081
0.0817051
0.062034
-2.19409e-08
0.00744781
-0.00368922
0.00714367
-0.0110834
-0.0229091
-0.0734788
-0.024717
-9.68678e-09
0.124882
-1.25843e-12
-0.0433892
-0.0415895
0.152957
0
-0.00911642
-1.63521e-11
-0.0347717
-0.00769413
0.0920448
2.85275e-88
0.0151113
-0.000360498
-0.044094
-1.6466e-09
0.0145111
0.00444078
-0.0561122
0.0774805
0.00173916
-0.0121181
0.176452
0.00060184
0.0389727
0.028862
0.0442343
2.39079e-18
0.0710007
0.00708089
0.00841995
0.0112346
0
0.0741117
-0.00133701
0.134436
0.0633875
0.0507133
-0.0292003
-6.44049e-12
0.00119212
0.011467
-7.29219e-09
0.00976727
0.0874089
-0.0192913
-0.000251502
-0.00182724
0.138297
0.00290596
-0.000243671
-0.000253861
0.0901674
-0.124159
0.0291643
0.0723869
0.0123865
-0.0309401
0.0322885
-1.25843e-12
0.0789678
0
0.134342
0.0186449
0.0495698
-1.08866e-12
0.0189898
0.0578446
0.115143
-0.0287178
-0.01584
0.17004
-0.0023217
-0.053031
0.0386231
0.0172288
0.00173916
0.00309857
-0.0332546
-0.0480653
-0.068165
0.00285425
-0.00133908
0.0329823
0.0564375
-0.0360741
-5.14069e-08
-0.0178686
0.041628
-0.028751
-0.00559688
-0.0934436
0.0499907
-5.81435e-11
-0.00137995
-8.4226e-15
0.0349432
0.083661
0.0183301
0.0148083
-0.00026892
-0.0267653
-0.0158673
-0.0281061
0.00105914
-0.000360498
0.00134203
-0.0248074
-3.00898e-08
0
0.0196096
0.0309392
0.067587
-0.0551336
2.46038e-05
-0.0502612
0.0130043
-0.128364
0.146623
-0.0117974
-2.7008e-06
0.0119502
-0.00926824
-0.0152201
-0.0875849
-0.0163716
-1.29445e-321
-0.0700781
0.0137029
0.0312815
-0.0214248
0
-0.0530595
0.0134193
-8.94168e-10
-0.00344271
-0.00201089
-1.21971e-08
0
-0.0842554
0.00578844
-0.0267372
0.0971998
0.0151113
-1.27625e-05
-0.0267407
0.0823571
0.0456707
2.77919e-87
0.0172288
0.0284984
6.06445e-05
-0.0936326
-0.000103795
-0.000254127
0.0189898
-1.6466e-09
-0.0184226
0.00801687
-0.000253164
0.0538215
-0.069764
0.0555343
0.00845739
-0.000261401
0.0308509
0.0213209
0.0213209
0.00894387
0.0120395
0
0.0343723
-3.08406e-05
0.00942259
0.0041487
1.46096e-05
0.0779665
-0.000281122
-0.013044
0.000549518
-0.261443
0.00173916
0.0136299
0.0164719
-0.102179
0.0685861
-0.0273441
-0.0189388
0.00570376
-0.00416246
-0.129491
0.0128319
0.0213482
-0.000360498
-6.44224e-12
0.0225661
0.0497668
-0.00026892
-0.0867603
-3.76556e-12
-0.0121361
-0.134592
0.00150686
-0.0214233
-0.0428565
0.0411655
-0.101283
-5.53631e-310
0.00252401
0.122678
-0.0561651
-0.000360498
-1.21659e-08
-0.0640455
-0.0207228
0.112361
-0.000360498
-0.0805745
0.0851854
0.0514856
-0.0347717
0.00130888
0.000601841
-6.02016e-05
0.0448182
-4.63674e-09
-0.0403288
-0.000360498
-0.0562814
1.13114e-69
-0.000360498
-0.000251502
0.00707951
-1.11915e-05
-0.0761048
0.0160839
-0.000103795
0.0438992
2.3588e-20
0
-0.00711226
-0.0629406
0.00989162
-0.050211
0
-0.0101703
-0.0152201
0
0.00793784
-0.0402797
0
-0.0738499
-0.0186226
-1.67154e-08
-0.000360498
0.0392578
0
0.0371913
-0.076369
-5.60025e-05
-0.0889146
-0.00134253
-4.46372e-15
-0.2789
0.0411655
-0.0120024
-1.64661e-09
-1.27963e-321
0.0291643
-0.000248917
0.0602225
5.76557e-88
0.0661921
0.033595
0.0162334
-2.23052e-09
-0.00867186
-1.15434e-09
-0.0402343
-0.0681574
-0.00644626
-0.0378843
0.0598153
1.94374e-05
-0.000257076
0.0512855
0.00140093
0.155213
-0.0398013
0.00173916
-0.000256573
0.041526
0.102031
-0.00342402
-0.0249213
0.0151113
-0.0618548
-0.0192173
0.0250749
1.18576e-321
-0.0237971
-0.0613539
0.0991981
-0.000112238
-1.42648e-06
-0.000360498
0.00869412
0.0259002
0.0804623
-3.01536e-06
6.62048e-322
0.0454921
-3.76556e-12
0.0608618
3.40349e-06
-1.15434e-09
-5.14069e-08
-0.0163716
0.00699112
0.0972978
-3.55175e-10
-0.0378361
0.0504554
0.0386503
-0.000263601
0.000417057
-0.015532
-1.75438e-15
-1.13432e-10
-0.0508609
0.277992
-0.064919
0.00010343
-0.000277763
0.0233168
0.0213209
-0.0889146
-0.000299757
-5.38583e-06
0.0250588
-0.000360498
0.0151113
-0.00561864
0
0.327724
0.0183673
-0.0121361
0.0756386
-0.0548557
0.0172288
0.208151
-0.000242367
-0.0554569
-7.45777e-06
-1.63975e-05
0.0169408
-0.0442135
0.00537171
-0.140979
-0.00026892
-0.0516686
0
-0.0235338
-0.103752
7.5486e-19
0.0396273
-0.000299757
0.0227193
0.23819
0.00567902
0.100246
-0.000360498
-0.100179
-7.27041e-07
0.00767092
0.0322885
-7.70742e-322
-0.036622
-6.02016e-05
-0.0471763
0.0374524
-0.129668
-3.76556e-12
0.0195927
-0.0166896
0.0136434
0.00567902
-1.74131e-08
-0.000253861
0.0151113
0.0328415
-0.0640207
0.222008
-0.000272696
-0.111654
0.130332
0.00868355
0.0956152
0.0151113
-6.36878e-05
-4.1257e-12
-3.01536e-06
0.00621339
-0.000244364
-4.42918e-05
0.0514116
-0.168103
-0.00023996
0.0769871
0.0455039
0.0142553
0.0250707
-0.0184226
-0.0137114
-0.000360498
0.0313081
-1.6466e-09
-0.000299757
0.0185817
0.00119212
0.0566597
0.187133
-1.21971e-08
-0.0188258
0.0495698
-1.01778e-321
-0.0304885
-0.0341965
-0.0187024
0.328145
0.00119212
-0.0972043
-0.0219044
0.0789678
-1.67154e-08
0.0198934
-0.0417023
0.0636328
0.00546345
0.0843274
0.017458
-1.27149e-12
0.0151113
-8.4226e-15
0.0126149
0.0203015
0.0951114
-0.0391527
0.0278511
-0.000103795
-0.10681
-0.0816264
-0.0264342
-0.100491
0.0774282
-2.51938e-07
0.000871358
0.0196052
-0.000360498
-5.52297e-07
-0.000243272
-0.0842554
-0.000265228
0.115143
0.0484517
-6.38207e-13
-0.051455
-0.000253861
-0.0293134
-0.0233213
0.0597433
1.06722e-19
-0.000299757
-1.14082e-15
-0.0354507
0.0377397
0.0159071
0.01265
-0.000261328
-0.00769413
-0.0531125
-0.0915489
-0.0729209
-0.0360741
-0.101461
-6.3261e-08
-1.25898e-06
0.0162664
1.06722e-19
-6.44049e-12
-1.75438e-15
-0.0155141
0
0.000322984
0.0233168
0.0357024
0.00744781
0.0205145
0.00119212
0.0223458
-0.0152201
0.108183
-0.000360498
-0.0338415
-1.25866e-07
3.94657e-05
0.0613782
7.11904e-06
-0.000261328
0.00768587
-0.0267373
0.0985925
0.131853
-0.0781519
0.00816192
0.0128319
-0.0235498
0.0537185
-0.0867603
-0.0267372
1.12664e-87
-0.0133566
0.0784613
-3.46069e-06
-2.67241e-08
-2.72739e-05
-0.0565856
-0.0652431
7.95127e-22
0.172453
0.0542218
-0.000299757
-6.12069e-08
-7.60141e-05
0.0901804
-0.00734328
0.000130387
-0.058196
-0.00028712
-1.01909e-07
0.0309864
0.00402658
0.0609738
0
-0.000207255
0.072042
0.0842725
-0.000243272
-0.129813
0.0250198
-0.0264342
0
0.00401452
0.0053672
-1.22389e-05
0.141246
0.0357024
0.0128319
0.0566154
0
0.0172288
-1.75438e-15
0.00745514
3.25095e-18
-0.0717052
0.0220966
-0.0243585
-0.0101715
-0.0804058
-1.08866e-12
-4.46372e-15
0.0785816
-0.000238339
-0.0197122
0.0213522
0.104891
0.0395512
0.182464
0.0225049
-0.0275162
0.1518
-0.00028712
-4.1257e-12
-1.25898e-06
0.00369837
0.022142
-0.000253662
0
-0.000266661
-0.0259446
-0.0659016
0.0419885
-0.007044
-0.0844496
-0.0473202
-0.0344748
-0.0637437
-8.28872e-06
-0.027011
0.00629272
0.0100837
-1.25843e-12
0.131952
0.106439
-0.0339697
0.0555946
-8.4226e-15
0.0147132
0.0613104
-1.25866e-07
-0.0722241
0
0
-0.000243272
-0.0424258
0.00909547
0.0213209
0.0250707
0.00261244
0.00695162
-2.66476e-09
-0.158217
-0.0334657
-0.000257076
-0.0585366
-0.0113922
-0.0518978
0.0771249
-0.0259053
-0.0414773
0.0291643
0.0143867
-2.82243e-05
-0.0130533
-0.0866018
-0.208851
0.0484685
0.00567902
0.0363161
-0.00419456
3.45437e-71
0.0382794
-0.000249136
-0.0783666
-1.29445e-321
0.0316438
0.0120108
-0.0447022
-0.0580415
0.0450798
-0.06882
-0.0344572
-0.00028712
-6.44049e-12
0.00323882
-0.0363174
0
-0.0188258
0.00113916
0.00244371
-0.153377
2.46038e-05
-0.0075291
2.75483e-05
-0.392984
-6.26273e-07
-6.24662e-05
-0.00138958
-0.100313
0.163027
-0.0152658
-5.51629e-06
0.0794316
0.00113916
-0.0229194
0.0804623
0.0511185
0.00173916
-0.170381
-0.0834184
-0.121487
-6.89007e-06
-0.0637747
0.0243881
-0.0158101
-6.73618e-11
0.0121706
0.0172288
-1.52172e-321
-0.00940385
-0.0949266
-0.13808
-0.0730596
0.0741117
0.278868
-2.56767e-05
-0.0445533
-9.70977e-06
-0.184865
0.00393524
0.0660829
0.0121134
-0.0834386
2.77919e-87
0.128243
0.0858487
-0.109822
0.0250749
-0.0728542
-0.000360498
0.0139808
-0.000272696
-0.033114
-6.3261e-08
0.00234634
-1.6466e-09
0.0216178
-0.0828905
-0.00368699
0.00173916
-0.0391327
-0.0218982
-0.0388976
-0.0372365
0.0117307
-1.25843e-12
0.0559215
-0.00138413
-5.16761e-12
0.00699112
-1.25866e-07
0.000101718
-0.017862
0.0294241
-0.0267937
-0.000261328
-0.0904889
-0.0152201
0.0542363
0.0318803
-0.000241343
0.00100445
-0.0335736
-0.00405733
-3.35409e-06
-5.14069e-08
-1.11178e-06
0.0530625
-1.25188e-07
0.0286821
-0.000242077
-0.0352864
-1.22389e-05
-0.0280362
0.0553565
0.0631125
-0.000277763
0.0186158
-1.01209e-08
-0.000137768
-0.000299757
-3.76556e-12
0.00318533
0.0450052
0.0307967
-0.0206106
-0.000360498
-0.102444
3.25095e-18
0.0265045
-1.42648e-06
0.00319259
-0.0162728
-1.07706e-321
0.0138623
0.0162841
-0.0234873
-0.0497697
-0.0545857
0.0151113
3.40349e-06
0.139945
0.0356259
-6.03084e-09
3.25095e-18
-0.0263654
0.0271945
-0.0186226
0.00379693
0.0661921
-0.0327137
-0.000242077
-0.037555
0.182619
0.00143656
-0.0400949
0.00180294
-1.25866e-07
0.0659592
0.0704452
4.31343e-19
0.0407852
0.12554
-0.0664644
-1.01909e-07
-0.0568024
-0.091767
0.106469
0.0779665
-0.0110968
-0.000360498
-0.0267372
-3.46069e-06
-0.0668478
0.0322885
0.00344076
-0.250035
-1.15881e-05
-0.0587293
0.0393701
0
-0.0205949
0.00868355
0.0433561
0.126918
-0.0783316
0.00113916
0.0101501
-0.075877
0.0106777
0.0250749
-0.0529589
-0.0646752
7.48021e-23
0.0183673
0.00724978
0.0673346
-1.27963e-321
1.13114e-69
-0.0141977
-0.000299758
0.233861
-0.000243272
-0.0894166
-0.0183663
-6.79751e-13
-5.14069e-08
0.0510915
-0.0205868
-1.25843e-12
0.011467
0.242381
0.0215861
-0.000244364
0.00348148
0.0174349
0.0333927
-0.0219044
-0.0160158
0.0112919
-0.0857467
-0.000360498
-1.42774e-05
0.0131692
-0.000266512
0.00729465
0.00173916
-9.68678e-09
0.00723504
0.00173916
0.0574189
0.00673737
-0.0275162
0.0658979
0
0.157263
0.129362
-1.35867e-06
-3.00898e-08
-0.0839438
0
-0.0302531
-0.107786
-0.0121122
-2.66476e-09
-0.0187775
-3.06205e-06
-0.0155141
-0.0291367
0.040803
-0.00133701
-0.149455
-0.0735396
0.0419885
0.126319
0.0151073
0.207636
0.00016303
-0.0439318
0.0275919
-0.00419456
0
-0.0269763
-0.0243585
0.00838518
0.0429226
-0.0585366
0.0381689
0.0753412
0.0774805
-0.0270086
0.0530625
0.0224608
-0.011074
-0.0482458
0.0141066
0
-0.025015
-0.0152201
-0.0065993
0.0651838
-0.035712
-0.0129837
-1.67154e-08
-1.15434e-09
-6.36867e-05
0.0390344
0.110287
0.00899943
-8.07828e-05
0.0335852
0.0101501
0.0380274
0.00729171
0.0443363
0.129264
0.0183016
0.0190319
9.73309e-322
-0.0267373
-0.0439173
-0.000244854
-0.118876
-3.76556e-12
-0.000297456
0.00640319
-0.0337004
0.0449403
0.0609738
0.000697633
-0.0601973
-0.0450751
-0.152919
0.0158403
0.0262097
-0.0609953
-1.67192e-08
-0.07715
-0.0400949
-0.0541794
-0.0753968
-0.00203012
-0.000261328
-0.0174577
-0.0104662
-0.000253164
-0.018548
0.000828924
0.0609738
-5.14069e-08
0.1048
0.0800362
-0.0567094
0.103685
0.0100837
-0.065167
-0.0714029
0.0250749
-0.00024466
-0.0178686
0.0288935
-0.0194282
0.12223
0.0151113
4.91171e-19
0.0495698
-0.0992164
0.0633053
0.0164711
-0.062052
-4.23804e-05
0.00348148
-1.58374e-05
-1.6466e-09
-0.0308327
0.00173916
-0.292746
-0.0681574
0.00390057
-0.00419456
0.0288086
-0.0329091
-0.00380949
-0.0267514
0.0187303
-1.89836e-06
-0.11155
-0.00133701
-0.0321511
-0.0418197
-1.99227e-13
0.0120108
-0.000263954
0
0.0675693
0.0400558
0.0174349
0.0343532
-0.00316426
-8.4226e-15
-0.00182724
-0.00419456
0
0.00755706
0.0496993
-0.0339513
0.0304236
0.122518
0.0142328
0.0352028
0.0922696
-0.158082
2.77919e-87
0.00762732
0.0151113
0.0181717
0.00379399
0.0294263
0.00784579
0.0892938
0.0599406
-4.42918e-05
0.0648334
2.2649e-05
-6.42425e-12
0.0220751
0.024714
-1.12224e-08
-0.113776
-0.00203012
0.0587313
-1.6466e-09
0.00103432
-7.61373e-11
-0.0649476
-0.00545683
-3.46069e-06
0.00150686
-1.11915e-05
0.0172288
0.023138
0.0130751
-1.51534e-05
0.244716
0.0309392
-0.027051
-0.0190832
0.048112
-0.0790225
0.0432419
0.00711689
0.00201108
-0.121053
-1.85758e-08
0.0156097
-0.123443
-0.000251571
-0.0229091
0
0.0366021
0.0263119
0.00361567
-4.46372e-15
-0.0535419
-0.0131557
-2.56767e-05
-0.0061385
-0.000360498
-1.11121e-08
-0.0299475
0.0254822
-0.0551145
0
-1.11165e-321
-0.0414997
-0.00133701
0.2786
-0.0440618
0.0174349
-1.42648e-06
0.129981
-0.103417
0.310249
-1.67154e-08
0.00140093
-0.0002351
-0.000299757
-8.4226e-15
0.00113916
0.0306685
-1.52172e-321
0.0681628
-2.05143e-05
-1.61749e-07
0.143182
-0.000103795
-1.5971e-05
0.0708373
0.00995185
-0.21364
0.0198995
0.086478
-0.1478
-0.0278889
-0.0418302
-7.61373e-11
-0.018548
-0.000299757
0.0779665
0.166236
-0.176552
-1.14082e-15
0.0458757
-6.73618e-11
0.00224947
2.77919e-87
-1.25843e-12
-0.136558
0.0163344
-0.154898
0.0633875
0.000614289
0.00106002
-0.0237663
0
-0.0373393
0.0822425
0.0216452
0.00808543
-0.00986605
0.0164711
0.0873926
-0.34477
0.00344076
0.0555946
-1.85758e-08
-0.000254934
-0.00588194
-0.0475957
0.0638259
-8.925e-15
0
-0.0538772
-0.0232475
-1.42648e-06
0.0555292
-0.0178113
0.017928
-0.0270746
9.20198e-07
0.0322885
-0.0989131
-0.0112455
0.11019
-0.00549982
-2.66476e-09
-6.12069e-08
0.0346275
0.147037
0.00778543
-0.0267393
0.075728
-0.00648223
0.0887665
0.00787846
-1.01778e-321
-0.000244854
0.154594
-0.000249136
-0.0346881
-0.0670464
0.0647255
0.00279765
-0.0152201
-0.0061622
-0.0152201
-0.000360498
0.0357311
0.0954687
0.0872521
0.0566597
-0.0418197
-0.000261665
-0.00165218
0.0172288
-0.0367118
0.225315
0.00234634
-5.00059e-11
-0.0112663
-0.000249136
0.0399491
-1.25187e-07
-0.0214163
-0.0560008
-0.103261
0.0151113
0.0755841
0.0156097
-0.0828905
0
-0.0377895
-0.128225
0.00972318
0.000305354
0.0246766
0.0416695
-0.0661892
-0.0574943
-0.0288195
-0.0842554
-1.01778e-321
-0.0961015
0
0.0561882
-0.0143718
0.0053672
-0.0648751
-0.0378843
-0.0292003
-9.70977e-06
3.72783e-89
-0.0867159
-0.000299757
-0.0253109
0.00681495
-0.0248074
-0.00133701
-1.75389e-15
-0.0278762
0.0138623
-0.000243671
0.072326
-7.61373e-11
0.0110194
-1.13635e-321
-1.82073e-05
0.00877218
0.0325748
0.0435456
0.0517141
0.000636198
0.0903416
0
0.0373503
0.0279528
0.0180594
0.00120168
-0.000239855
0.0759354
-0.034877
-0.062412
-0.0169718
-1.67154e-08
-0.0157153
0.0159071
-1.63521e-11
0.000132303
0.045473
0.0349432
-1.75438e-15
0.00741036
0.0591464
0.117351
-0.000244854
-0.000493868
0.0163344
0.0355566
-0.000266644
-0.261001
-5.16761e-12
0.000871358
-1.1792e-09
-0.0922588
-4.36024e-06
-0.000238329
-0.000253861
0.0444981
-0.0586573
-0.0355129
-0.000270704
-7.61373e-11
-5.52297e-07
-0.000261328
-0.126094
0.131853
0.0525794
-1.67154e-08
0.00473745
0.0335163
-0.000259442
0.109055
-0.0476716
3.45437e-71
-0.0533038
0.00734403
0.000839411
0.146861
-0.00133701
-1.67154e-08
0.00100445
0.0495698
-0.0271359
0.0291643
-0.0256339
-0.027003
-9.8604e-05
0.0489123
0.0623673
-0.0210945
0.00242056
0.00379399
-0.0260929
0.124609
0
0.0513785
-0.109369
0.132133
-0.0190599
-0.0219841
0.120121
0.070749
-0.102444
0
0.0300889
-0.0698169
-0.0164382
0.0221527
-1.6466e-09
-0.000239133
0.172879
0.0203602
-0.0445083
0.00466305
-0.149401
0.0826717
0.217769
-0.0184227
-1.25843e-12
1.082e-321
0.00838518
-0.0383869
-0.0284151
-0.000360498
0.000128078
0.0386912
0.00402451
0.0301423
-0.109369
-0.000360498
-0.0125742
0.0380368
0.00799357
0.0212813
-9.712e-06
-6.79751e-13
0.0133368
-0.00416563
-0.000263601
-0.0323728
-0.0436781
0.0254822
-0.0658602
0.177229
-0.0249486
0.0450052
0.0709944
-1.25866e-07
0.0365506
-0.0132118
0.00140093
-0.0485767
0.159849
0.0364072
-0.0194795
-0.0163716
0.00180294
0.0191375
-0.0159917
-0.000252304
0.00234634
-0.0520774
-0.0242575
-2.65167e-05
0.0300833
0.00379399
-2.72996e-05
-0.00391744
0.0136561
0.0525794
0.012321
0.00729401
-0.00926824
0.099156
-0.113956
-0.0625684
0.00763562
0.0250707
0
0.00821652
7.5486e-19
-0.0199296
0.00471346
-0.00309061
0.000643338
0.0222659
-0.000253662
-0.0846505
0.00200867
-4.76459e-06
-0.00380949
0.0187221
0.0614095
-1.67154e-08
0.0614095
0.262358
0
-0.0289948
0.144767
-0.0378843
-0.0741633
-9.38725e-322
0
0.134724
-0.000360498
-0.00368922
3.45846e-323
-0.0568146
9.20198e-07
-0.000253662
0.0163344
2.45941e-05
1.06722e-19
0.0437509
5.76557e-88
-2.38057e-07
-0.0189388
-0.0815856
0.0685458
0.0294263
0.000864172
-0.0648046
-5.31413e-07
-1.2618e-05
-0.0812517
0.0031302
1.84219e-87
0.0304524
0.138082
0.0876941
-0.0276386
-0.00416246
0.000771646
-0.000245789
-8.28872e-06
0.0796109
-0.0661461
0.0976046
-0.0984095
0.0721564
-0.112395
-4.23259e-08
3.77721e-23
0.0770105
0.040807
-0.000360498
-0.0711589
-1.06481e-06
-9.40556e-09
-0.0210221
0.0388159
0.0770127
-0.0226533
0.241496
0.0555946
0.0003764
0
-0.0585429
0.0984758
-0.00344271
-0.0379359
-0.0427015
0.0438138
-0.000299757
0.0318803
0.00547096
-0.00113953
0.0127625
1.46096e-05
-0.0727757
-5.16761e-12
-6.44049e-12
-1.67154e-08
0.115763
7.86546e-88
0.000398657
-0.01584
0.120537
0.111697
0.0163206
-0.0329529
0.224624
-1.5683e-06
-1.75438e-15
-0.0478641
0.0115209
0.00140093
-0.0150681
-6.12069e-08
0
3.25095e-18
-0.0641081
0.0300695
0.000935109
-0.0507243
0.0437125
0.139788
0.16452
0.0148083
-0.000360498
0
-4.46372e-15
-0.0253109
-0.0551145
-9.68678e-09
-1.62278e-53
0.0123865
0.0194869
0.00695162
-6.48821e-07
-0.000252304
0.0634679
-1.42648e-06
0.0562072
-0.0447022
-0.012349
-1.11915e-05
-0.113794
-0.000299757
0.0300833
0.0139442
-8.97133e-06
-0.0242575
-1.1792e-09
-0.033114
-0.000329426
0.000125431
0.0489201
-0.00998027
-0.0760824
-0.0447193
-1.1792e-09
0.0647738
-0.145707
-1.6626e-07
0.0598627
-0.0417193
-2.49097e-07
-1.20276e-06
-7.34199e-08
-0.104948
0.00869412
0.025568
-1.37306e-05
-8.03017e-14
0
-0.0658364
0
0
0.00831198
-1.31211e-05
0.0254822
8.0293e-05
-0.041503
0.00252401
0.0292718
-0.0857467
-0.033699
-0.000344048
-0.0347568
-0.016265
0.00760799
-0.0934532
0.0789678
0
0.0128319
-0.000277763
0.0703562
-6.36867e-05
0
-0.103515
-0.043271
0.0892659
-0.0234796
0.0555946
-0.0091979
-0.0637437
0.147108
0.0172285
-0.000261328
0.00621339
0.0548398
0.0162097
0.0599462
4.91171e-19
0.0562794
-9.46836e-07
-0.0256445
-0.0561651
-1.08866e-12
-8.925e-15
-1.6466e-09
-0.0526695
0.00767092
-0.109822
0.0156097
0.0696735
-9.8604e-05
0.0333927
-0.0875551
-5.16761e-12
0.0878669
-0.0194282
-0.0618525
-0.000260603
0.00771713
0.0105008
-0.0442045
0.0250707
-0.0108801
0.0454224
-1.01196e-05
0.0662575
-3.57329e-07
0.139135
-0.0314113
0.000816389
0.100908
-0.102887
-1.25843e-12
-0.0203459
0.0139808
-1.67154e-08
0.0170563
0.0357024
-0.0317577
-0.0370995
-0.0002351
0.00140093
0.0809477
-0.00572314
-0.0188258
0.142792
-0.134477
-0.00734328
-0.00509029
-0.237862
-1.01209e-08
6.59135e-88
-0.0290913
0.00542959
0.00816994
0.0163344
0.0312368
0.0563858
0.21073
0.0110102
1.06722e-19
-0.0783284
0.00384241
-0.0499952
-1.20276e-06
0.0243094
0.0708499
0.0128319
0.224624
0.106747
1.01283e-321
-0.0373847
-0.00852644
0.0301688
-0.0880531
0.0151113
-0.0139902
-0.000385724
-0.0965108
0.0675307
0.0308543
1.082e-321
-1.1792e-09
-0.0317577
0.0352028
-1.75438e-15
0.0188281
-1.35131e-06
-0.0743294
0
0.0879647
0.0119502
0.00113916
-0.015029
-1.25866e-07
-0.0358859
0.162907
0.00745514
0
0.0300833
-9.02294e-13
0.0512137
0.0598236
0.0254822
0.0291643
0.102078
-1.75438e-15
-0.00499989
0.0162097
0.0786241
-0.0218982
-3.08406e-05
-1.42774e-05
-0.0443245
0.0248061
-9.02294e-13
0.0561882
-0.000254127
0.0342245
0.160813
0.000601841
0.0295369
-0.0690273
-0.000299835
-0.0243585
-0.111637
-0.064217
0.0456256
-0.0267372
-0.0405807
-0.0568146
0.00640316
0.000388272
-0.000299757
0.0254822
-0.069188
-0.0573617
0
0.0437881
0.0309971
-0.033114
-0.000244951
-0.0294613
0.000868847
0.0430627
0.133635
-0.0243233
-0.000277763
0.00621339
0.0258522
-0.0394506
0.00097552
0
0.000105206
-1.74131e-08
0.0531432
0.314632
-0.000234603
-0.0152201
-0.000226647
0.0708067
0.00207677
-1.75438e-15
-5.13061e-05
0.0194583
-0.0235719
0.00509529
0.019947
-4.34861e-06
-0.0312868
-0.0755175
-2.96439e-322
0.0128319
0.0942063
0.0523446
0.00443547
0.0438992
0.097266
0.0254811
-7.70742e-322
-6.48821e-07
0.0278511
-0.0188092
-0.0229091
-0.0152201
-5.16761e-12
-1.1792e-09
-1.362e-06
-0.0188258
0.0166527
0.0111715
-3.42821e-07
0.0151782
7.11904e-06
-0.0734228
-0.000257076
0.0453226
-9.8604e-05
0.12655
0
-5.38583e-06
0.0552579
0.00639899
-0.0152201
-0.00226922
-4.76459e-06
-1.07706e-321
-0.0314236
-0.0327657
0.0965349
-3.84927e-05
-0.0399724
-0.0668707
-6.38207e-13
0.0287579
0.0510245
-0.0355829
-0.0928119
-1.51901e-05
0.00304021
-0.0002351
-0.0302752
-1.63521e-11
-0.0262228
0.0860241
0.000521525
0.035832
-4.46372e-15
-0.0390531
0.0379395
-0.116873
-0.0489232
-0.0002351
-0.0281575
-8.4226e-15
-5.14069e-08
3.4119e-18
0.142313
0.00695162
-0.0585366
0.0700572
0.0120394
0.00173916
-3.58975e-07
0
-2.67241e-08
0.0224608
-0.0478924
-5.51629e-06
0.0250707
-0.0164125
0.0656338
-6.36867e-05
-0.064682
0.0120612
-0.0193022
-0.000253861
-0.21391
0
8.0293e-05
0.00845739
1.13114e-69
-0.107422
0.0810472
0.124917
0.0319553
-0.0935329
0.0159071
0.0807953
0.124917
0.00530777
-0.00444903
-0.0935218
0.0352205
-2.65167e-05
-1.25866e-07
-0.0720995
-0.0671111
0.0721758
0.033385
0.00607447
-0.202351
-0.0625984
0.00173916
0.0163344
-0.00105819
-0.000137768
-0.034492
0
0.0566154
3.45437e-71
-0.0716586
0.0322885
-1.1087e-07
0.00651492
-5.94779e-05
-0.000253861
0.00640319
-0.0114851
0.0298397
0.0314972
-0.0899983
0
-0.0989131
-0.199791
0.0542234
-0.00411143
0.0185817
0.0416888
-0.206116
0.114183
0.00140613
-1.07706e-321
0.096212
-0.0447022
-0.000263954
0.0396512
-0.111637
0.000184897
0.0810063
-0.053057
0.0231346
-0.0230155
0.0419885
-1.58375e-05
0.0523222
-0.000553617
-0.0697752
-0.0921188
0.0664057
-0.000270704
0.132408
0.00778543
0.0742983
0.00242056
2.77919e-87
-0.0123363
0
-0.0723294
-1.42774e-05
0.0152336
-1.14082e-15
-0.0415645
-0.0836332
-0.161144
-1.35867e-06
-1.67154e-08
0
0.0566597
-1.26869e-05
0.0333927
-0.044664
-0.0196325
-0.00544321
0.0335852
0.0185817
-1.11915e-05
0.00878894
2.89138e-88
-3.76556e-12
-1.0326e-321
-3.42821e-07
-0.000360498
-0.0121361
0.0670886
0.115654
-0.026941
-0.0568479
-0.0604741
0.0357315
0.122612
-0.0317577
0.00683361
0.102674
0.0552579
-0.0267986
-0.118496
0.041992
0.000175346
0.0248
0.0314972
-1.6466e-09
0.0255678
-0.0761048
-0.0822269
-0.000246616
-0.000266644
-0.0698269
-2.77427e-05
-1.475e-07
-0.0735421
0.00942259
0.0359159
-1.6466e-09
-6.73618e-11
-8.37912e-05
-0.034877
-1.42648e-06
0.00173916
-0.0046712
-0.0551336
-0.0508835
-6.79751e-13
0.0186449
1.06722e-19
-0.0783284
-0.0124226
-0.0386908
0.123241
-0.0217395
0.00173916
0.00711312
-6.39088e-06
-0.133589
-0.0243585
0.0232509
-2.66476e-09
-0.0400949
0.0586651
0.0230622
0.0051818
0.0498626
0
0.0284862
-0.0827302
-0.0155141
-0.102351
0.0250707
0.0419885
-0.0365647
0.0411655
-0.0518079
-0.090056
0.0164711
-0.0524887
-0.000364252
0.0407784
-0.0161015
-0.186653
-1.5971e-05
0.00574211
-0.000253164
-0.000360498
-0.0440255
0.00481
0.000599678
0.00365551
0.0309392
-0.109195
0.012321
-7.61373e-11
0.0442897
-0.000244854
0.00745514
-0.0466702
3.79678e-70
0.033595
-0.125019
0.00778543
0.044067
-0.0838423
0.0299222
-0.0528039
0.18162
0.0207737
-0.0268711
0.00745514
0.00899943
0.00238221
-0.0292003
0.0476832
-0.025015
0.00344076
0.0222237
-0.0586898
-0.000250014
0.118051
0.00869412
0.0416079
-0.017862
0.0641251
-0.012965
-0.018548
0
0.0216452
0.15572
0.00203134
-0.0131993
-0.0460194
0.126726
-0.000661573
0.0183673
-0.00633345
-8.85063e-07
-0.0230111
0.0366758
0.0130621
-0.0388976
0.0883273
-1.06271e-11
0.120044
-0.0403387
0.0366758
0.0824838
-6.93437e-07
-0.00016795
-0.000254934
0.00440322
0.116131
0.000399343
-0.000497782
-0.0625983
0.0412577
-0.0243585
0.019755
0.0503858
-0.0760074
0.0546229
0.0318858
-1.71988e-15
0.00173916
0.0139068
-0.0114851
-1.42774e-05
-0.000243239
-0.00283697
-0.000360498
-0.00204324
-0.0170326
-0.000242618
0.00683361
-0.0502391
-0.128811
0.0205145
0.00607447
-0.0188258
-6.3261e-08
-0.0196328
0.168896
0.0394028
0.00759284
-1.13432e-10
0.00771713
-0.0134141
0.0358857
0
-0.0687472
-0.0203459
-0.0693106
-0.12919
3.02091e-18
-0.110593
-0.0250187
0.00760799
-0.0124283
-0.0072619
0
0.102112
0.424204
0.0545776
0.0587518
-0.0916681
-0.000244854
-0.033699
0
-0.0409611
-0.0152201
-3.81842e-05
-0.0782578
-0.000244854
0.0623534
-0.0327406
0.050552
-0.00431313
-1.19293e-08
0.0262352
-0.0127655
0.00730332
-0.000270704
-0.00201089
-0.224729
0.0124878
-0.0337774
-0.0551336
0.00318533
-0.000310562
-0.110263
0.0711644
-1.31211e-05
0.0139808
0.00173916
-0.0137791
0.024714
0
0.00050803
-9.40556e-09
0.0352205
-4.1257e-12
-0.000243272
-0.000254127
0.0250588
0.0424887
0.00150789
-0.000299757
-1.35131e-06
-0.00016795
-4.87369e-09
-0.0327137
-0.0403029
0.00983051
-0.0002351
0.0307239
1.06722e-19
0.0516973
-1.1792e-09
0.00255495
-1.14082e-15
-0.0289033
-0.382069
0.0663641
-1.75438e-15
0.0210817
-0.00926824
0
0.0310595
0.0367964
0.1019
-1.25843e-12
-0.111148
-0.000251996
0.0430627
-0.0418203
0.012578
-0.000257086
0.0300833
-0.0292003
0.0668315
0.0352028
-0.0172898
-0.0567125
0.00381328
-0.000243484
-0.0357092
-4.46372e-15
0
-0.0353341
-1.25898e-06
-0.00182724
0.177947
-0.0495581
0.0995694
-0.0288411
-0.000832756
0.0497626
0.00483385
-4.46372e-15
0.00257435
-0.0836934
0.071705
-4.46372e-15
0.00318533
-3.11866e-10
0.0114662
0.0213934
-3.84927e-05
0.0248142
0.125809
0.0233168
-0.0338289
-0.000261328
-0.0713748
0.0615721
0.0958745
-0.0302798
-0.00957559
-1.13635e-321
-0.165425
-1.8464e-06
0.0300257
0.0568035
-0.0493124
-0.0555934
-2.35521e-07
-0.0621122
1.3488e-321
-2.66496e-09
0.0267684
-0.00133701
0.0379074
0.0333927
-0.0292003
-0.016592
2.39079e-18
-0.286537
0
-9.3281e-07
-6.44049e-12
1.91518e-05
-0.000360498
-0.0206106
-1.27226e-05
0.0441748
-0.0564166
0.0471117
0.0039135
0.0752247
0.00875076
-0.130501
-0.00984004
-0.0371908
0.0814158
-1.19555e-09
0.00899943
-5.56303e-08
0.0708373
0.00173916
0.0696735
0.0584623
1.082e-321
-3.72572e-08
0.0557403
0.00106002
0.00173916
-0.000336252
-0.0292003
0.00787846
-0.0532698
0.0393701
-8.4226e-15
0.100544
0.0278511
0.0535677
-1.39134e-05
2.77919e-87
-4.12745e-12
0.00838518
-0.0636167
0.0253733
0.101004
-0.151596
-0.10826
-3.07003e-05
0.0652652
0.271531
-0.0267372
0.0157381
-1.25898e-06
-2.67336e-06
0.0400133
-0.116985
0.105559
0.0169864
-0.0606172
0
0.014224
-0.0260961
-0.0747104
0.000674823
-0.107348
0.0665655
-0.0721383
-0.000261665
0.033844
0.0355698
0.0908142
0
-0.16995
-0.0386096
-0.0593863
0.0920448
-0.000360498
0.00283981
0.0406748
0.081673
1.70453e-321
0.00113916
-0.00553158
-0.00610922
0.0256606
-0.105276
-0.21339
0.00122475
0.113623
0
-0.000253164
-0.0178686
0.0110131
3.77721e-23
-0.0152201
0.0392584
0.055897
0.0940524
0.0301423
0.00407783
-0.0548557
-0.00559688
-0.164879
-0.085466
0.103245
-0.0695558
-0.0580927
-0.0152201
0.14461
0.00140093
0.0333927
-0.0450293
-0.000277763
0.0332939
-8.4226e-15
-0.000254127
-0.0154837
-6.03084e-09
0.107929
-0.0377336
0
0.0128319
-0.05747
0.0254822
-1.6466e-09
0
-4.34737e-07
0.0333927
-0.0362408
0.0031163
-1.35867e-06
-0.108176
0.0314038
0.107779
-0.00750795
1.06722e-19
0.0379792
-0.103417
0.00173916
-0.0492475
-2.36381e-05
-0.000251324
-0.0238384
-0.0267937
-1.75438e-15
-7.61373e-11
-0.0556356
0.000302376
-0.00926824
-0.123001
3.5553e-05
-1.67154e-08
-8.74967e-09
-1.42648e-06
-0.0313101
-6.93437e-07
0.0183673
-0.0223328
0.0189148
0.0432419
-0.000260603
-8.97133e-06
-0.0700118
0.00730152
-1.28457e-321
-0.0135282
-0.0616749
-1.62278e-53
0.0607655
-1.6466e-09
-0.0621412
-0.0782122
0.0332446
-0.0562814
-1.75438e-15
0.0123865
-3.01536e-06
-0.032961
-0.0540706
-0.0760074
-1.08866e-12
0.119844
0.0174635
-0.0250594
0.0181242
-0.0704228
0.0226737
-0.0418302
-0.000360498
0.25028
-4.34861e-06
-0.025598
-2.64704e-05
-1.5405e-12
-0.141836
-0.000253662
0.00589645
0.0271856
-0.0233358
4.35668e-05
-0.0327137
-2.17309e-10
0.24422
-0.0561651
0.0097862
-0.0400998
-0.0388976
-0.000360498
-0.0307829
-0.0415723
-2.7008e-06
-0.0668478
-0.0334838
-1.75438e-15
-0.050986
0.00460595
5.76557e-88
0.0913577
-0.000253861
0
0.00831198
0.0123858
-0.025015
-0.000270779
-0.0338219
0.0692636
0.104891
-0.0163926
-0.0514749
0.0233454
-1.55815e-09
0.0514116
-0.0812666
-0.0424915
-0.0189388
0.02661
-0.000261665
-0.000360498
0.00729401
0.0188668
0.00808543
0.0823571
0.0291643
-0.0707853
0.0909607
-0.0636964
0.0375958
0.0151113
0.00929731
-0.0457432
0.0250749
0.302621
-2.66476e-09
-0.0327137
-6.93437e-07
0.0333728
-1.63521e-11
-0.10946
0.0550858
0.0120395
0.0171527
-0.0164842
-1.14082e-15
0.0421873
1.082e-321
0.0300008
2.09434e-05
0.0656484
-0.179061
0.000394359
0.0066871
-0.0915489
-0.000263954
0.0486673
0.00173916
-1.13635e-321
-0.0920356
-9.46836e-07
-9.02294e-13
0.0495129
0.00720252
-0.0347191
-0.232249
0.0145111
-0.0384266
-2.36381e-05
-0.0518978
-0.0129382
0.0675307
0.0388073
-3.00898e-08
-0.0815856
0.0333927
0.0134178
0.126679
0.00279062
-0.000263954
-0.0473399
-0.00028712
-4.34737e-07
0.0467967
-0.0230392
0.00244714
0.0333927
-0.0442337
0.0318803
-0.000360498
-9.02294e-13
-0.000266644
-0.0312239
1.37125e-18
0.0348241
0.0845171
0
-3.01536e-06
-7.31975e-08
-0.000277763
-0.0982594
-1.6466e-09
-0.207598
-4.46372e-15
-0.0121181
-0.0606172
0.013706
0.0491945
-0.0417023
-0.00437759
-0.00133701
0.0373758
-0.000266644
-0.000360498
-0.0785054
0.0356611
-0.0782578
-0.0138035
0.0191375
0.0377234
-0.000281122
0
0.000302379
-0.0345433
-0.0378354
0.0743878
-0.0578731
0.0792493
-0.0189697
0.0239949
0.0120395
0.0223458
0.0873636
-3.82957e-06
-0.0918349
-5.81435e-11
3.40349e-06
-7.29219e-09
-0.193079
0.0542218
0.0174349
0.00134123
0.00699112
-0.000238329
0.00686336
0.00397777
0.0233936
0.0174349
-0.00228334
0.0151113
-0.000360498
0.0144486
4.91171e-19
0
0.016529
-0.0680968
-1.42649e-06
-0.000360498
-0.00229894
0.0391087
-0.0637741
-0.030968
0.00150686
0.153181
-6.41461e-07
0.133561
-0.0403386
-0.2734
0.0943609
-1.25898e-06
-3.57329e-07
0.00173916
0.0276621
0.00899943
0.00365551
-0.0235498
0.043119
-5.53631e-310
-0.0694076
0.0506505
0.0992227
-0.000360498
-0.000270704
-0.0846215
0.0432419
0.0166154
0.0329733
-3.55566e-06
0.0151113
0.0151113
-0.0243585
0.0447717
-0.0129444
-0.0202585
-0.0316882
0.00242056
-0.000224436
-0.000360498
-4.64342e-05
-0.351691
0.330806
-0.0129837
0.169843
0.0545969
-0.000589659
0.00621339
0.0272031
-1.14082e-15
-0.0934436
0.0562413
-0.0596219
-0.000263954
0.0541268
-0.0116201
0.0560037
-1.82073e-05
-0.0159494
0.00607447
-0.122509
-0.036526
-0.165775
2.77919e-87
-0.0159222
-0.018548
-0.0152201
0.00097552
0.00748488
6.06445e-05
-0.0851474
0.0644209
-0.00633345
-0.0145568
-0.044863
-4.46372e-15
-0.000251502
-4.46372e-15
0.0505994
0.131408
-0.0120024
0.0789033
-0.000185086
0.0254754
0.0218383
-0.00891803
0.00848968
0.0100837
-0.0267653
-0.0645282
-0.185458
0.000192499
0.0247134
-0.0245449
-0.000793333
-0.0388976
-4.42918e-05
0.0733879
-0.0105226
-1.13432e-10
-0.000251507
0.0453226
-0.0335111
0.0162971
0.0662575
0.00929731
-0.000265228
-1.33892e-321
0.0187882
0.000276311
0.000871358
0.0205145
0
-0.0440063
-0.000249136
0.00706279
0.0687128
-1.14082e-15
-7.10152e-07
-0.046267
0.00150686
0.0311145
-0.000255304
0.0216012
0.0125195
-6.24662e-05
-3.72572e-08
0.0147169
0.186105
-0.000277763
-1.01909e-07
-0.0694076
0.00755187
-9.95727e-06
-0.000251502
0.033595
0.00069828
0.0441883
0.0154917
-0.0640238
-0.0288411
0.0430627
0.0139808
0.00016303
0.00201108
-0.0235498
-0.0451159
0.0504459
0.00306647
-0.049899
0.0101501
0.0981239
-0.143932
-0.00180242
-0.0137124
0.0329802
0.0120395
0.00816192
-5.14069e-08
-1.13635e-321
-0.0264342
-1.5683e-06
-0.0336764
0.0304236
0.000168926
-1.75438e-15
-0.062052
0
-0.0243585
-0.00203012
-5.32809e-09
-0.0204045
0.174362
-5.86275e-07
-0.0976544
0
0.0174635
-0.00201089
-0.00366282
-0.151719
0.0114092
-0.0378843
0.00811014
-0.0139902
-0.00629504
0.00729401
0.0386912
-0.0614845
0.351521
-0.0200236
0.0318803
0.0224608
0.0117882
-1.1792e-09
-7.22654e-08
-0.113863
0.11582
0.00838518
2.77919e-87
-0.295564
0.0255653
-0.00222931
0.0594048
-9.40556e-09
-0.0646973
-1.58502e-06
-8.4226e-15
0
0
0.00591586
0.0443363
0.0027974
-0.0152658
-0.0414774
0.00747332
0.00803125
0.00747332
1.23022e-321
0.012578
-0.0976725
-0.0599466
-0.103484
-0.0463391
0.00762562
-0.111196
0.0241452
0.0362035
-0.120748
0.0322269
-0.000266512
0.0138272
0.118698
-0.0218982
0.00607447
0.052179
-0.00133702
-0.0760074
-0.0292003
0.0388284
0.065928
-0.0294624
0.0842099
0.000686956
0.0190001
0.0152789
-0.000270704
-1.15434e-09
-0.161012
0.111266
-0.000266512
3.02091e-18
0.00640319
0.0103073
-0.00960937
0.0068336
0.0198098
0.0147489
-0.00311826
0.0210814
0.00113916
0.0308766
-0.0577661
0
0.0309864
0.0719272
-3.73899e-12
0.0507897
-0.000260603
0.0102445
0.0439257
-0.033114
0.000305354
-0.000254127
-0.0478571
0.0221222
0.00906106
-0.0921188
0.101269
4.95325e-05
-0.0653776
-1.01778e-321
-0.0269336
-0.000243239
-1.6466e-09
-0.0932322
0.132829
-0.0729209
-0.000132645
0.0173088
0.0746775
-0.0967844
0.159273
-3.55174e-10
-1.35131e-06
-0.139146
-0.0152201
-1.67154e-08
-0.000542958
-3.76556e-12
0.00323882
0.144539
0.0162443
-0.0330887
0.00699112
0.0170425
-0.0367118
-0.011114
0.000150073
0.00016303
0.258284
0.0377234
-0.184843
-0.221963
-6.93437e-07
-0.000360498
-2.77427e-05
-0.0190547
-0.016265
-6.12069e-08
-0.0429045
-0.000261665
-0.336377
0.162956
0.0444627
0.0398069
-0.0149882
0.0212784
-0.000272696
-0.0494364
0.0047529
-3.82957e-06
-0.00026136
0.17688
0.066028
-0.0754831
0.0609303
-5.30511e-06
-0.0253099
-0.0391276
0.0151113
0.0156924
0.0291643
-0.000253861
0.0537327
-0.0334838
1.0512e-05
-0.0251761
-0.00601178
0.00542314
-0.0593104
-0.00936104
-0.0349793
-0.00445097
-0.112065
-0.0663641
0.0243881
-0.000360498
0.017928
0.00369832
-0.0471763
-0.00587498
0.0438992
-0.034877
-1.25866e-07
0
0
-0.0133521
-0.00025125
-0.0562814
-8.4226e-15
-9.18962e-322
0.0808283
0.0291643
-0.0429874
0.0537945
0.00723504
0.0309392
0.024714
-0.192613
-0.0655738
-0.000265228
1.06722e-19
-6.12069e-08
0.0151471
-0.0470917
-0.000258943
0.00868355
-0.0388976
0.0367964
0.0213482
0.0768483
-0.0324602
-0.0193253
-1.5683e-06
-2.82243e-05
-0.00830659
-0.0360741
-1.07706e-321
0.00944603
-0.100932
0.254213
-7.87418e-05
-1.85758e-08
0.28432
0.00845739
-0.0302752
-0.00926824
-0.0275162
0.124917
0.0746785
0.0143867
-0.0194152
-1.13141e-321
-1.74131e-08
-1.23047e-09
-1.99227e-13
-0.0226533
0.0587512
-0.000273377
0.0766376
-0.0143808
0.00134203
-2.66476e-09
-1.11915e-05
-0.069999
0.0685458
-0.0568024
0.0110822
0.0143606
-0.0169494
-2.17309e-10
-0.353517
-3.00898e-08
-0.111637
0.0645284
0.0985803
0.0642016
-9.3281e-07
0.0392253
0.0151113
0.108118
0.0437216
-0.0683894
-0.0270746
-0.180869
-0.0219044
-0.000207255
0.00778543
0.00403176
0.0591464
0.200007
-0.0881424
-8.86957e-06
0.151024
-5.51629e-06
0.0348476
-1.01209e-08
-0.0783339
0.0174349
0.00868355
1.082e-321
0.0278426
0.0145111
-0.000270704
-2.66496e-09
-1.75438e-15
-0.0528713
0.00471281
0.0296108
-0.00380949
-1.15434e-09
-0.0163716
-2.67336e-06
-1.42648e-06
0.0611539
0.0208372
-0.00924718
-5.14069e-08
0.0247135
-0.00133701
0.0244807
0.0313723
0.0243489
0.298312
-0.0535062
0.0250749
-1.6466e-09
-0.0848303
0.0105775
-0.0148906
-0.000360498
-0.00946393
-9.3281e-07
-0.0460194
0.112736
-0.0108801
0.0357876
-0.0493124
0.144145
-5.16761e-12
0.0174349
-0.0275162
-0.00182724
-0.074574
-1.85758e-08
-0.0249161
-0.000277763
-0.108911
-0.01857
-0.0230463
0.0174635
0.0852223
-6.48821e-07
-0.000251502
-0.129055
0.0151113
-0.0341965
0.0727439
-0.0891783
0.183215
0.0213208
0.000175346
-0.129999
0.52654
0.108118
-0.0899983
-0.0161755
-0.000299757
-0.0123363
-0.0231024
-0.0184226
1.85343e-05
0.00239435
-0.0560506
0.0675735
0.0250588
-7.29219e-09
-0.0425981
0.00201108
0.0158659
-0.0328234
-2.7008e-06
-0.0570559
0.0127665
-1.75438e-15
-0.0923649
-0.160414
0.00113916
0.241378
0.0123865
0.159065
0.0174349
-0.125283
-1.75438e-15
0.0502173
0.147097
-0.0344948
-0.0152201
0.012321
-0.00674498
-0.0685058
1.23022e-321
-1.04292e-09
0.0609031
-0.00555705
-0.000360498
2.3588e-20
-0.00026892
-0.017862
7.6628e-07
-0.000299757
-0.0235498
0.0696735
0.000243216
0.0934298
0.025539
-0.000243484
-1.42648e-06
0.124917
-0.0465739
0.00415756
0
0.00391352
-6.73618e-11
-2.46037e-07
-1.06271e-11
-0.0494364
-0.0790984
-9.02294e-13
0.0823571
-0.0222761
-4.46372e-15
0.0220966
-4.46372e-15
0.00173916
0.007296
0.127612
0.0228897
-1.25843e-12
0.061691
-0.0514153
0.0004587
0.083661
0.117116
-0.0580927
0.0710848
-5.00059e-11
0.0301423
-0.039585
-0.000252319
-0.0152201
0.00801687
-1.15434e-09
-1.14082e-15
0.0393841
-0.0237971
-1.75438e-15
-4.23804e-05
-1.19258e-10
-2.67241e-08
-4.43492e-07
-0.0418302
-0.00984004
0.0191375
0.0172816
0.00797744
0.0136763
-5.14069e-08
-1.01778e-321
-1.62278e-53
-6.73618e-11
0.00723879
0.142034
-0.0235201
0.0227731
-0.000257069
-0.043022
-0.0152201
-0.0152201
0.0253805
-0.0176385
0.0159071
0.176757
-1.6466e-09
-1.37842e-05
0.00546345
0.0250707
0.0314972
-3.55566e-06
-0.0294624
0.0172288
-2.89452e-08
0.0172288
-8.28872e-06
-0.114012
-0.00226966
0.0117882
-0.0292003
0.0151113
-2.72996e-05
-0.0144768
-0.0633712
0.00201108
0.0270176
-0.0309367
-4.63674e-09
-0.0471646
3.77721e-23
-0.000243239
-1.63521e-11
0.0432416
3.72783e-89
-6.03084e-09
0.108503
-0.0017088
-9.02294e-13
-1.85758e-08
0.0931107
-0.0885469
0.0477721
6.59135e-88
-0.00204265
-0.0341782
-7.61373e-11
0.0329823
-1.31211e-05
0.00514714
-6.05953e-13
0.0216193
0.00838518
7.86546e-88
0.112669
0
-8.85063e-07
0.00641531
0.0149069
-0.000522715
0.00574761
0.0159071
-0.0551742
-0.229669
0.00944889
0.0113757
-1.75438e-15
0
0.00391352
0.0719773
-0.0936226
0.0149598
0.00344076
-1.67154e-08
-0.00538466
-0.000360498
-0.000242077
-0.00409944
0
-0.000299757
-0.000248136
0.0674761
1.7035e-05
-0.0621122
-1.75438e-15
-0.0452197
0.0034703
0.00289932
-0.0283078
0.0282163
-4.46372e-15
-0.0222476
-0.0229869
-0.0426042
-0.149744
0.0566597
0.00471346
-0.13337
-0.0235338
0.0393701
0.0391087
-0.000360498
-0.0807999
0.0136434
-4.46372e-15
8.0293e-05
0.08578
0
-0.0307826
0.00676727
-0.0153556
0.0128319
0.00305645
0.00777146
-5.38583e-06
0.0189898
0.0954687
0.00868355
-0.000299757
-1.75438e-15
-0.0400949
0.0021606
-0.123957
-0.000254746
-9.68678e-09
-0.0782578
0.0390568
0.00173916
-0.0663641
-0.0251761
-0.0400949
0.0274843
-1.15391e-15
0.515214
-0.0333736
0.019486
0
-0.0243585
-0.102444
-1.14082e-15
0.0835051
-0.0349793
-1.6466e-09
-0.102025
-1.25866e-07
-1.22643e-12
0.00173916
-0.00265448
0.145633
-0.000248167
0.0301423
-0.01584
-1.27963e-321
0.0189898
-0.00937664
0.0256604
0.095069
0.0056864
0.021931
0.0145111
0.00403176
0.0279432
0.113112
-5.14069e-08
0.0252274
1.06722e-19
-6.44049e-12
-3.11866e-10
-0.000252817
0.00173916
0.00698397
-0.0323511
0.034935
0.0739545
-0.0152201
-5.16761e-12
2.75483e-05
0.0447735
0.0319443
-0.000257276
-1.49797e-05
-0.0731659
-0.000103795
-6.12069e-08
-0.0663932
0.0771584
0.0422765
