0.00126493
-1.41843e-08
-5.59723e-16
-0.00609077
-0.0171946
-2.0887e-07
-7.11739e-08
-8.89692e-05
-0.0660092
-7.11739e-08
0.00939521
1.31421e-321
-0.0754131
0
0.000333308
-1.47136e-27
-2.24683e-05
-0.000213459
0.0811905
1.26355e-146
-2.20717e-06
-0.0643242
0.00128755
0.000831907
0.0258976
0.000333308
-0.0367524
0.0141617
1.38247e-05
0.0543293
0.0707208
0.00216894
-1.45135e-08
-5.54642e-06
-0.0131289
8.17305e-05
0.023029
0.0153822
-0.00031174
0
0.0820596
-0.0314372
-2.27735e-174
-1.6526e-05
0.0271064
0.00826978
0.0141822
-0.000106646
0.00606204
-0.000132979
0.0120925
0
0.000549065
0.0487402
-1.08694e-321
0.00377725
0.0533412
-0.000177612
-5.89195e-10
-0.000134757
0.00057393
-0.0114508
-1.28457e-321
-0.0578914
1.02766e-321
0.0169825
0.0530821
1.56511e-05
-0.0679303
-0.0230734
-0.120367
-0.051608
0.00193172
-4.35927e-15
0.0610495
-0.0298431
-0.000104428
0
-0.0472652
-0.0623548
-0.0491606
0.078317
0.00031154
0.0583844
-0.000219737
0.152354
-0.0418322
-0.0641795
0.00533635
0.0169825
0.017237
-0.0459898
-0.217697
-0.0335855
-0.172514
-5.97936e-05
0.113254
-0.172494
0.0510228
0.0528802
0.000549065
0.00057393
-4.18518e-12
-0.000196965
-4.50675e-06
0.000867643
0.00337059
-0.0710877
-5.95205e-06
0.334009
-0.104263
-0.0109302
0.0259957
-0.00652977
-1.15117e-321
-6.65081e-05
-0.028322
-2.39942e-05
-0.0521499
-0.0189323
0.125919
0.0171468
0.21306
-0.0365906
0
0.0359956
-0.0368516
-0.0754348
0.0533349
4.08627e-06
0
-0.0267721
0.0110865
0.0297127
-0.0657901
-0.0390769
-0.0311124
0.00377725
0.0339027
-0.00754425
0.0881958
-0.0232205
0.0355334
0.045602
-0.0452346
-0.000193438
-0.0403159
-0.0515908
-1.9136e-05
-0.0880028
-0.0213201
-0.0298411
0
0.00345919
0.426481
8.17305e-05
-0.000161582
0.0221093
-0.0122513
0.0023342
-0.0735341
-1.63222e-07
-0.0871265
0.00456741
0.00057393
-0.054622
-1.30564e-72
0.0130568
-2.16701e-06
-0.00798959
0.0473294
-0.0230456
-0.01824
-4.57732e-10
-0.291204
1.29016e-13
0.0357195
-0.116823
-0.0025012
-3.04564e-06
0.000549065
-0.0261489
-0.044562
-0.0089258
0.000251779
0.005906
-0.0148619
0.161455
-0.0156517
0.000831907
-0.145976
0.064718
-0.063445
0.0533412
-0.0480246
-0.182416
0.00911393
0.0237438
-7.53747e-06
-0.0232716
0.00257386
-0.00357455
-3.58448e-10
0
-0.00790628
0.00057393
0
0.509707
-0.0420183
-0.0109302
-4.12836e-09
0.0349194
3.19349e-10
0.2803
-0.0175409
-7.11739e-08
0.0810134
-8.45235e-06
-0.0122525
0.00606216
0.0355317
-0.0465486
0.000103908
-0.000112398
8.69556e-322
-9.57172e-07
-3.8388e-06
-0.162883
-0.0260493
0.00377725
-0.132131
-2.3986e-05
0.00345916
0.0234603
-0.033863
0.042144
0.0052654
0.0311222
-0.0505423
0.0130584
0.136054
-0.0976368
0
-0.0101545
0.00293373
3.66975e-05
-8.86593e-07
-0.0443849
-0.110592
-1.36935e-14
-0.0285339
-0.107057
-1.30675e-05
-0.0241492
-0.0261489
0.0317974
0.0190236
-4.37699e-07
0.0233354
-0.151148
-0.072594
-0.0477898
-0.0215152
-0.0025012
1.26355e-146
-0.120485
0.0312841
-0.0508049
-0.0497511
-0.126939
-0.0147954
0.00707189
-0.00713855
-0.0297641
0.00016991
0.0147399
-0.0470788
-5.59723e-16
2.12686e-05
-0.000120266
3.64075e-78
-8.89692e-05
0.220892
0.0507646
0
-2.86711e-14
0.0867138
0.0161296
-0.0265978
-0.0022738
0.000232739
-0.00834916
1.19538e-05
0.0116089
-0.0259611
-0.000347134
4.85414e-05
-0.0597145
0.571052
0
-3.23626e-08
-0.000344012
9.50397e-06
-2.39942e-05
0.0605479
0.140457
1.31421e-321
0
-0.0533614
-0.079443
-0.000344086
-3.68998e-10
0.0499472
-0.0887509
-0.000114186
-0.00373598
0.000251779
-0.00245793
-0.0857519
-0.000234453
0.0700658
0.342845
0.0982247
0.0215971
-0.0605884
0.0714575
-0.0636472
-0.0910457
0
-0.0126182
0.443624
-0.305075
-0.0469707
0.00193172
0.00135527
-0.0487333
0.000224738
0.0211709
0.00912422
-4.85289e-05
-0.0103261
-6.30019e-06
-0.0117267
0.0505693
0.00606216
-2.28444e-07
0.0763443
-0.0507416
-0.00378457
0.0817689
0.114673
0.00438667
0.00268693
0.188712
0.0141822
-0.00873178
-4.35927e-15
0.0200253
-0.000241789
0.0130584
-0.0494794
-0.00935349
-7.2291e-08
-0.0405099
-9.71407e-06
-0.0154724
0.00277845
1.65512e-321
0.00127058
-0.000134757
-0.0730061
-0.000149534
0.099308
-1.11606e-05
8.43966e-06
0.00057393
-0.0605716
-0.0266503
-1.47622e-06
0.00057393
-0.0227148
0.0237438
0.183906
-1.23647e-07
-0.0810742
1.7958e-07
0.0220962
0.0841588
0.000849109
0.00707189
-0.00929238
0.00057393
0.000769641
0.0580917
-4.37699e-07
0.0169635
4.08627e-06
0.0221399
6.5251e-08
-9.57172e-07
-4.18518e-12
0.135206
0.0641958
0.0242314
-7.05974e-05
0.00345919
0.0709035
-3.58448e-10
0.0768202
-6.59283e-10
0.0319788
0.000826933
3.64075e-78
0.110376
0.080945
-0.0287283
0
-0.140535
-0.0131289
-0.0930914
0.03515
-1.95951e-07
0.216144
-0.00022448
-0.0505423
0.11529
-1.30675e-05
0.0406597
-0.0172224
-3.02977e-83
-0.0118896
-0.0956065
0.00529444
-0.0123795
0.0583844
0.0533412
-0.0706189
-8.04043e-12
-0.249941
0.0402181
0.0541296
0.0924877
-0.0156517
0
0.00854243
1.14129e-321
-0.0178907
0.0721485
0.042924
0.0259875
-2.28444e-07
-6.90023e-05
0
-0.0109302
0.00057393
0.131058
-3.57507e-06
-2.10302e-05
0.00347738
0.00169226
0.0319597
0.0325865
0.000232739
0.0794212
0.184676
-1.80929e-06
0.00494037
0.0118057
-3.55634e-05
-0.000164297
-2.14594e-07
0.033214
0.147174
-0.0290609
-0.0955151
0.031867
-4.4693e-12
0.00295067
-0.0163434
0.00222137
-0.371426
-0.053412
-0.00298342
1.01414e-07
-0.351274
2.91223e-08
0.0537668
-1.62367e-05
6.16792e-05
-0.14567
0.00377725
0.00206926
0.0245776
-0.0320578
-0.0835892
-0.0147954
7.41098e-323
0.0182864
-4.57732e-10
0.000413092
0.00355873
-0.0109302
-0.0810727
-0.0715799
-0.000219737
-0.000149534
0.000232739
-0.0196266
6.57989e-05
-0.158258
0.0190236
0.18026
0.0590465
0.0758666
-2.46085e-06
-0.0907288
-9.63212e-09
-2.85305e-05
0.0277935
-0.000149534
-6.37289e-07
0.0820145
-0.122588
0.0351041
0.00252631
-1.3651e-05
0.0118555
0.0995215
0.0048394
-3.55634e-05
0.0450109
-0.156525
0.00672603
-0.0737461
6.24856e-05
4.80368e-06
-0.0244105
-1.17125e-07
-1.96928e-06
-1.83021e-07
0.000160462
0.0392041
0.0208511
-0.032537
-0.000653068
-0.00938005
-0.0297135
0.228245
-0.000139331
0.11305
-1.84003e-05
-0.0392398
-0.00638809
-0.0364935
-0.0806888
0.0049545
-0.0428139
0.0351527
-0.0496464
-0.0323542
0.0131021
0.0103116
0.00456258
0.73473
-0.0359466
-9.36449e-09
-4.71447e-11
-0.0111141
-0.0305587
-0.0754348
-4.37699e-07
-0.0135678
0.0365726
-0.0860044
0.157518
-0.0132338
0.00684318
-0.00802009
0.0223297
-0.00718853
0.018078
2.06073e-06
0.0895197
0.000127035
0.015702
0.00197383
0.0202066
-0.0230042
0.00930704
-0.00518735
0
0.0122148
-0.119491
-0.0189566
-0.00764305
0.00057393
-4.18518e-12
0.00949632
0.0714387
0.0960621
0.102718
0.0258976
0.0566134
0.0249296
0
-0.0433661
-0.000185334
0.0435992
-0.000321911
0.0809206
2.01766e-192
-0.145584
-0.020799
0.0398883
-0.0568329
0.0689729
-0.0364115
-3.14595e-83
-0.0813706
0.0142956
-0.0633328
-8.20924e-10
0.139194
0.279845
-0.0859991
0.0906523
6.57989e-05
0.00372546
-0.00423428
-2.28444e-07
0
-0.030894
-0.0754348
0.0141191
-2.27735e-174
0.00377725
0
0.371081
0
0.0125179
-0.128154
0.0578941
0.0994398
0.00345919
0.000234248
0.00443472
0.358152
-5.08143e-06
6.48418e-05
-0.00656264
-0.00966701
-0.0231455
0.0487269
-0.0444112
0.0185381
0.0313715
0.000831907
0.0277696
-0.0172107
-0.0387546
-0.0531002
0.0677523
-0.0196266
0.00131959
0.043004
0.0117986
-1.52172e-321
0.00058636
-0.0103619
0.0258179
0.0431131
1.7958e-07
-2.83307e-09
0.0843527
0.0589326
-1.81899e-05
-0.0432194
0.128675
0.113264
-0.0234152
-1.12892e-06
-5.59723e-16
-0.198684
-0.029271
0.0770632
-0.0172072
0
-1.1505e-06
-0.0189343
0.032526
0.114362
0.0907296
-1.14349e-06
-0.150554
-1.10573e-09
0.127115
-0.072594
0.131883
-0.0266973
3.64075e-78
0.204833
-0.0236047
0.00057393
0.0148638
-7.05128e-08
-0.0826459
0.0115439
-0.00711953
-0.11068
0.0107682
0.125624
-0.0887509
0.00377725
-0.0936863
0.0386237
0.105842
-0.00380671
0.0211871
0.00584126
0.173368
-0.0703335
-1.01085e-10
-0.0109302
0.0153611
-0.0235915
0
0.105933
-0.000297731
0.101739
0.00158247
0.0251978
-3.49269e-09
-0.121189
-0.0290328
0.0484955
-0.0748615
-0.255432
0.16156
0
-0.10096
0.101906
0.133357
-0.0235587
0.0484981
-1.66932e-09
-0.0572131
0.0118555
0
0.0458896
0.0499903
-6.42285e-323
0.00563772
0.0713457
0.0397186
-0.000325842
-0.00927953
-3.02977e-83
-0.00661812
-0.0201931
-0.00443978
0.0207829
-1.95951e-07
-8.86593e-07
-5.54642e-06
-1.55137e-321
-0.029274
-1.3651e-05
-0.0868099
-0.0565274
-0.274141
0
-1.30675e-05
-2.66511e-08
0.000131784
-0.0387573
-0.00279846
0.121508
0.0288714
0.00474896
0.00803706
-0.00583015
0.0646775
-0.0156517
-0.0133805
-7.05128e-08
-7.74076e-11
0
-0.160709
-4.18518e-12
-0.145614
-0.417892
1.29016e-13
0.0211573
0.114468
-0.169279
1.29016e-13
0.00969088
-3.48707e-05
0.0117665
0.413554
0.0667595
0.0321323
0.0488672
0.0691258
0.00345919
0.0285516
-0.000100556
0.0107682
0.00057393
0.0432037
-0.187681
0.0110865
-6.69926e-08
0.0169825
0.0118555
0.0402738
0.0161535
0.0644589
0.0395003
0.013514
0.0874031
1.01599e-07
0.0241124
-9.70916e-05
-0.000114246
-0.0252057
0.257388
-0.072594
0.234308
0.0815009
0.0657456
0.00718654
-0.0686
-0.000718624
0.0110865
-0.0287283
0.0077967
-0.0529347
-3.3845e-06
0.00209694
0.0183628
0.018078
-0.122734
-0.0487274
-0.0301487
0.0691258
0
0.000251779
0.00144157
-2.66256e-06
-3.55859e-10
-0.0505423
-1.45135e-08
0.00377725
-0.0956034
-0.0320578
0.0217954
-4.50675e-06
-0.0295667
0.0325865
-4.43855e-06
0.0110865
0
0.144014
0.0023342
-0.0293196
-0.0545514
0.0956665
-0.0265823
0.00377725
0.0106013
-0.0665561
0.0240619
-0.00976648
0.00344743
0.0579393
-0.112272
3.64075e-78
-0.0348091
-0.000344086
0.0215971
-0.0119811
0.140031
0.0556374
0.00844452
-0.0681509
-0.0433639
-2.28444e-07
0.0918908
-0.000213459
-0.00307953
0
-0.112891
0.0755243
-0.107201
0.00372546
0.0155357
0.0558426
2.11213e-07
-0.0370075
0.110912
-9.25454e-84
0.0110865
0.000351801
0.00057393
-1.23647e-07
-3.14595e-83
4.44659e-323
0.0432878
-1.47136e-27
6.57989e-05
-7.05975e-05
0.0211871
0.167741
0.000831907
-1.49702e-07
0.00552354
-0.0548144
0.0221399
-1.7362e-07
-0.115835
0.00345919
-0.067044
0.00930704
9.0414e-322
-0.0165465
-0.00653712
0.000549065
0.00092506
-0.0294307
0.0196387
-6.03143e-06
0.131822
-0.0729098
-0.021126
-0.023569
-0.0348593
-8.89692e-05
-0.0443849
-1.47136e-27
0.00552364
-0.0160321
-0.0273651
0.0167542
-0.000344086
0.0237438
-7.05128e-08
0.0167901
9.0414e-322
0.17801
6.71786e-06
0.108471
0.0125179
-4.12836e-09
0.046466
-0.12494
0.0255125
1.96663e-05
0.0412998
3.82623e-189
0.0133362
-0.00834167
-0.0199363
-0.0073549
0
1.65512e-321
-0.00826083
0.0377595
-0.0384365
-0.0948527
0.0666258
-0.043314
0
0.0183592
-8.86593e-07
0.0633827
0.14279
0.0406912
-0.087063
-0.0112294
-0.0466019
0.103616
0.00131102
0.000234248
0.0397488
-2.3986e-05
0.0349841
-0.131643
-0.0820901
0.105919
-1.51803e-85
-0.0233501
0.00057393
0.000109179
-4.70721e-05
0.0535603
0.193527
-1.63422e-05
0.000690875
0.103673
-4.12836e-09
-0.00542665
-0.00607482
0.0221399
0.0159235
-5.97936e-05
-0.000182817
0.00446959
0.000331716
0.0237438
-3.73081e-06
0.0681252
0.00057393
-0.0267721
-0.00380671
-0.0201313
0.0350746
0.0177904
0
-0.161013
0.012587
-9.08233e-05
-0.0130356
-0.0564335
-0.00715292
9.44354e-192
0.0487095
-0.000356136
0.00656065
-0.0394684
0.0556078
0.00345919
0.118056
0.00057393
0.0224633
-1.70208e-05
0
-0.0521097
-3.90536e-08
0.00964941
0.000370065
-3.90536e-08
0.0254321
0.100865
-1.68908e-08
0.0680899
0.000171181
0.00446959
-0.000231816
-4.94775e-07
-0.0481219
1.36311e-06
0.00707168
-0.000303051
-0.00949305
1.29016e-13
-1.41843e-08
-1.3651e-05
-0.0215152
-0.000184316
0.00337059
0.0310916
-0.0569494
0.0488672
-0.0122944
0.0189331
-0.139904
0.0444374
-3.48707e-05
-1.83848e-07
0.269047
0.0280289
-0.0025012
-0.171099
-0.0156517
-2.27735e-174
-3.23626e-08
0.000234248
-0.0486341
0.0143226
0.112348
-0.109716
-0.0131289
0.00531974
-0.0359889
0.0202066
0.0317378
0.0450495
0.0685035
1.31421e-321
-0.0502115
0.00648881
-0.0190795
0.00377725
0.0212157
0.026173
-0.0693063
-3.34437e-06
-0.00704818
0.0444374
-0.022991
0.00057393
0.00057393
-0.0761662
0.0807822
0.0164956
-0.0131289
0.00057393
0.000698544
0.197248
-2.10302e-05
-0.0299581
0.0260879
0.0563971
0.148016
0.0444374
0.0761923
-0.0109302
-0.0478665
0.131976
-0.0193025
-0.10404
-0.0126034
0.0826076
0.033898
-0.0777349
0.005906
0.118689
-6.30019e-06
0.131841
0.005906
0.00092506
-8.05041e-05
-0.00886516
0.00377725
0.0530348
6.57237e-08
0.0319761
-0.0184165
-0.0881818
0.0986068
-9.28843e-322
0.309738
0.000251779
-0.0743797
0.105334
-0.0160944
0.0301629
-4.50675e-06
0.0469204
-7.05128e-08
0.0434316
0
-0.0121739
0.0118555
-0.0264031
0.0294688
0.031647
0.00251689
-0.0558404
-1.47136e-27
0.00014479
0.100415
-0.0176731
0.0433008
-9.95439e-07
-1.62054e-84
0.00609747
-0.0147954
-9.71407e-06
-3.48707e-05
0.0217954
0.000831907
-0.100023
0.0189468
-7.2291e-08
0.0525641
-1.24505e-321
-0.0679996
-0.0984247
-0.0510336
-0.000149534
-0.0710613
0
0.0246144
0.0618865
-3.179e-74
-7.22539e-05
-0.031801
-0.0721799
1.99794e-06
-0.0654327
-9.95439e-07
-2.14594e-07
-0.138031
0.0468497
-0.0456166
0.0246144
0.0747171
0.0827505
0.00197426
0.000490043
-0.0469231
0.0709035
0.0325865
-1.17535e-07
-2.96326e-06
0.215322
-0.175327
-0.0281723
0.0202058
0.00991039
1.65512e-321
0.00307688
-3.68998e-10
0.0635249
-0.0109302
-0.00400706
-4.16539e-05
0.0173244
-1.46323e-05
-0.0322364
-0.0202684
-0.210169
-0.0582623
-0.130266
-0.00305896
0.269913
-0.0298782
0.0348797
0.079696
0.00297488
-0.014237
0.00803528
0.0321205
-1.75286e-05
-0.00421606
1.72033e-06
-0.250808
-0.0997517
0.0149785
-0.0530497
0.00762096
-9.64449e-05
-0.0115701
-7.56912e-07
-0.0235252
0.0350746
-0.0290253
-0.0290253
0.114975
8.51231e-140
-0.17592
0.0173874
0.0550541
0.000370065
0.0236708
-0.0320578
0.0550541
0.0211871
0.118406
-0.0148945
-1.51803e-85
-6.37289e-07
0.0527479
0.10098
0.050054
-0.0139659
-0.035938
-0.000289419
0.0190368
0.0221399
-2.61198e-05
0.000234248
-0.0327828
-0.102494
-0.00153465
-0.133158
0.00949909
-0.0137651
0.0652177
-0.00799488
0.00193172
-0.0669133
-0.0761662
-0.0067084
-0.0114518
0.0170373
0.194488
-0.00024256
0
3.19349e-10
-0.0491934
0.0153822
0
-0.0105951
0.00801614
0.050269
-0.173972
-0.00010052
0.0166505
0.0123164
-0.069472
-0.0865696
0.0363272
-0.0356157
0.00339526
-3.16679e-06
-0.0503923
0.0457007
0.0215971
-1.77677e-10
-1.17588e-321
0.00131102
-2.27513e-08
0.202416
-0.000185334
-0.0405773
-0.106118
0.000300826
-5.20275e-08
0.129586
7.26689e-07
-1.47622e-06
0.0369712
-0.0820695
-0.0432017
0.0361008
0.129142
-0.0262511
-0.0579545
0.00498526
-0.0370075
-0.0370075
-9.57172e-07
-3.38643e-06
-7.2291e-08
0.0738337
-0.0156517
-0.0806927
-0.0109302
-9.44325e-35
-0.0523644
0.0276152
0.00345919
-1.57608e-05
0.0131143
0.073021
-0.000161642
-0.000157353
0.0536208
-0.0108178
0.000313499
0.0190368
-2.37999e-08
-0.0122019
0.122991
0.0249406
3.45989e-09
0.108959
0.0691258
-0.0944119
0.0353648
6.2174e-05
0.0206433
0.045661
-0.167828
0.000413092
-0.0135678
0.104278
0.000867643
-0.0172224
-7.2291e-08
0.000549298
-2.25037e-09
-1.17125e-07
-6.65081e-05
0.00345919
0.0785909
-0.0325004
-0.0452264
0.0345854
-4.12836e-09
-0.20106
-0.000258728
-0.0905214
1.31421e-321
-7.52957e-10
-0.115642
-0.0287283
0.0758666
-0.0446552
0.0528438
-0.0289203
2.2727e-322
0.0111057
-3.81065e-05
0.0691258
-0.0448896
-0.029015
-0.0377818
0.0240104
0.104158
-0.0171946
-0.0198796
0.00057393
-0.00689839
0
0.0310916
0.0237436
0.124866
0.0461455
0.0264365
-0.010283
0.00057393
2.02714e-06
0.0584626
-2.27735e-174
0.00057393
1.29016e-13
0.00115503
-0.000231816
-0.0290663
0.0048394
-2.27735e-174
-0.0472917
0.0667332
0.069276
-0.025005
1.18086e-06
0.121576
-0.0128487
-0.000185334
0.012587
-0.0327121
0.0141822
0
0.0469445
0.0292437
-0.16532
-0.0196266
6.57989e-05
0.000129446
0.000232739
-7.05128e-08
0.0211871
0.0145645
-1.84092e-10
-9.71407e-06
-0.0209974
0
0.000170722
0.0254321
0
0.000136364
1.18094e-06
-0.0563691
0.00230689
0.0646426
-0.000289419
-3.38643e-06
-5.59723e-16
0.000291021
0.0789047
-0.217719
-7.56912e-07
-0.0273583
-0.00718298
-0.203425
0.027771
-0.0676694
0.0900936
0.0254321
-0.0579924
-0.137193
-4.18518e-12
-0.0529156
-0.0234152
0.000215473
0
-4.75059e-08
6.71786e-06
0.0474228
-0.0835025
-0.00013434
-0.038312
-5.59723e-16
-1.76522e-05
-0.00286557
-0.0290253
-0.000120266
0.000251779
-1.68908e-08
-0.0567619
5.43132e-09
0.0131779
-7.64829e-05
-0.000653068
-0.229103
-0.0615634
-4.13156e-10
0.0646107
-2.53534e-07
-0.000367441
-0.118649
0.0999719
-1.40613e-07
-0.0163435
-0.000234453
0.0687157
-0.0447686
-0.0896128
0.040079
-0.069923
0.0733476
0.0504624
-0.0135678
0.0991595
9.52627e-05
-0.00711953
-0.0073549
0.268182
-1.45135e-08
-1.62054e-84
0.120326
-0.0457433
-7.56912e-07
-2.93145e-06
0.0141402
0.00174701
-0.0711098
0.0530348
-0.0551307
-0.00534675
-0.0431507
0.0002864
-0.000346063
-0.0335855
0.00606216
0.544805
0.0554027
0.0558424
0.030026
-0.0629762
-0.0477023
0.00552354
-0.0126034
0.085811
0.0469806
0.108376
-0.0505423
-0.0485081
-0.00381283
0.0439321
0.0826505
-3.55634e-05
-6.10339e-07
-0.0250293
-7.05128e-08
6.49123e-05
-6.97659e-06
-5.34827e-06
-0.104276
-3.34599e-06
-0.0396826
0.0787952
0.041072
0.0131143
-5.59723e-16
0.0213982
-0.225534
0.082339
0.0838005
-0.0565747
0.0226536
-0.00391222
-0.120391
-0.0401985
-2.14594e-07
-1.47136e-27
-1.39078e-05
0.0402181
0.0754766
0.0351544
0.0850837
-0.0628531
0.164284
0.0550541
-5.73874e-06
0.149224
-1.47136e-27
0.00057393
0.0657527
-1.3651e-05
-0.000177612
-0.000177612
0.119826
0.125855
0.0381519
0.433075
1.38247e-05
2.06073e-06
-0.0951132
0.00345919
0.0656489
0.0232014
1.60299e-07
-0.0392633
8.51231e-140
-0.0282286
0.0826874
-0.0155467
1.16674e-05
2.25682e-191
-0.149735
0.0557707
-0.00727906
-8.26183e-10
-0.0245229
-0.132546
-0.00770814
-0.0290253
8.91492e-05
0.168111
-0.015348
0.0142422
-0.268631
-0.0131289
0.112594
0.0918969
-0.0241492
0.00268298
-0.0291795
0.406995
0.062032
-0.0132683
-0.000234453
-0.0949937
0.0835948
-0.00279845
-0.018749
0.26907
0.0298306
-0.0327753
-0.0298782
0.0285819
-1.02766e-321
0.0251978
0.0801882
-0.00618512
0.0583844
-0.0550825
0.000610124
-0.0290447
0.0237248
-0.0495765
0.0668338
-3.57507e-06
0.0126164
0.000166335
-9.71407e-06
0.0304291
-8.55243e-11
-0.0109302
-1.62367e-05
0
-1.47136e-27
0.146394
-0.0314624
0.0358942
0.00284332
-0.164836
0.0237248
0.245188
-2.27735e-174
-0.048273
0.00057393
-1.83021e-07
0.00292204
6.57989e-05
0
-9.2024e-05
0.074933
0.00577279
0.0370686
-0.249849
-0.0505423
0.0487095
-1.23244e-07
0
0.0128796
-0.000915414
0.0939733
-0.108721
-0.0172506
0.000831907
-0.23183
-6.65081e-05
0.0177767
-0.0819017
0.000573652
-0.138323
0.0254321
-0.00117191
1.72033e-06
-0.0515475
0.0198438
0.0110865
0.396955
9.20534e-05
-0.000193438
-0.131759
-1.0771e-10
-0.0327121
0.0009844
-0.00926031
-0.0269891
0.103366
-0.0399814
-9.84554e-05
-0.00801129
0.00057393
-0.0556804
0.0841588
-0.0504835
0.00210977
-5.54642e-06
-0.00574075
0.00969088
-2.14594e-07
-0.0466763
0.00131102
0.141924
0.00691158
-0.000100556
-0.0994183
-0.0724692
0.159835
-0.00816562
0.00339526
-0.0299581
0.0168532
-0.253951
0.0110865
-0.101932
0.0124374
-7.11739e-08
-0.138637
0.0339354
0.0687157
-1.41843e-08
0.000849109
0.0291572
0.0370357
-0.0902725
0.0310132
0.04003
0.0149053
-0.0772746
0.0142325
1.29016e-13
-0.0870298
-0.0518173
0.00140628
-0.0719901
-0.0863748
-0.0874325
-0.0850439
0.0375108
-0.000156682
-0.0865696
-0.188417
0.0215971
-1.51803e-85
-0.0431507
-2.68059e-05
0.00377725
-0.00950239
0.0583178
-0.0866672
0.0358411
0.0280289
0.0254321
0.000831907
0.0599017
0.0563371
-2.14594e-07
0.0823192
-0.0761663
0.0446895
-3.7193e-07
-0.0274017
0.0487095
-0.000366037
0.151449
-0.044256
-0.0191574
-0.000149534
3.62794e-06
1.16674e-05
0.0217556
0.0436362
0.155096
-0.0410737
0.0110865
-0.0155467
-0.031198
0.0613124
-0.0357926
-0.0409422
0.0184196
-1.18295e-05
-0.00015801
-3.28705e-06
0.0237438
0.00949632
0.0988696
-0.0298782
0.102744
0.0048394
-0.000368198
-0.0296695
0.0507646
-0.000262665
6.57989e-05
0.00135224
-1.64613e-06
0.0125179
-0.0563252
-0.0105992
0.0278073
0.027763
-0.132057
-0.0123696
1.29016e-13
0.211342
-0.00013434
-0.109119
0.0355334
-8.89318e-323
-0.019753
0.0790499
-0.0252183
-3.03454e-05
-0.0859123
-0.0414894
0.0317753
-0.000114186
-1.55137e-321
0.00962502
0.00548582
-0.0377013
0.00345919
0.0051499
-0.0568593
-0.0494375
0.00084921
0.0285819
0.0040811
0.00432632
-0.00536767
-2.05085e-05
-0.0293831
0.0128373
0.00834257
-0.0437198
-0.153171
0.0796841
-0.00742506
-0.0438066
0.0461728
-0.0266781
-0.0358155
0.00193172
0.00671814
-6.30019e-06
0.050914
-4.40927e-06
-0.0317206
0.0325865
-0.0325841
0
-0.0555544
-1.47136e-27
0.00377725
0.0763443
0.0444042
0.0249832
-8.1758e-05
-0.0107645
-0.141982
0.0450054
0.043004
-0.0300285
0
-0.000381301
0.0693886
-4.00428e-06
-0.0196266
0.0190236
-1.55137e-321
0.00058636
0.0378795
0.0699366
-0.0451639
-0.0122513
0.290433
-0.211013
-3.99904e-83
0
0
-0.0292231
-0.10223
-0.000162723
0.087042
-0.021126
0.0732046
0.00345919
-0.0231452
-0.00632622
0.000370065
1.91954e-05
-0.0295073
-0.0122019
-0.0524274
6.2174e-05
0.03498
0.0211871
-0.0414894
-0.0687686
0.113163
-0.00566402
0.0449082
-1.64613e-06
0.0383454
-0.131643
0.00563772
0.000549065
-9.84554e-05
-0.000124055
0.0254321
0.172336
-3.8388e-06
0.000234248
-0.0581404
0.0708606
0.0244651
0.0541923
-0.0450583
0.381149
-0.0584331
1.52101e-05
-4.35927e-15
0.157748
0.0319808
-0.0320787
0.207912
-0.0499611
0.0254624
0
-6.81826e-06
0.158952
-0.0171946
0.0181794
-0.00746508
-0.000177612
0.00377725
-1.30675e-05
-0.0107141
0.00483973
-0.0471222
0.000232739
0.0365386
-5.54642e-06
-0.0413875
-0.165931
3.19349e-10
-0.0730839
-0.0130269
-0.0495765
0.016116
0.0154867
0.0351544
0.0214456
0
0.0709414
4.80368e-06
-0.0267721
0.125144
-3.68998e-10
0.0120907
0.0351525
0.170641
-0.000367441
-0.0220636
-0.000161642
-0.0963882
-0.0243737
0.00307688
-0.000177612
0.0212522
0.13007
9.50397e-06
0.0110865
9.20534e-05
0.0764231
-7.05128e-08
0.0566138
3.7609e-05
-2.31237e-10
0.00307688
0
0.0948083
2.02714e-06
0.00269725
0.00339526
0.0678296
0.0118555
-8.94259e-322
0.00252631
-0.000284914
0.0238096
0.0723084
-0.0149685
-0.0437176
0.00269725
-0.0314771
0.0629743
-0.018749
0.0202066
-2.66511e-08
0.0447541
0.1993
-1.80929e-06
0.0743909
0
-1.55137e-321
-2.3986e-05
0.0215971
0.0592288
-0.0245229
0.00652482
-0.0347216
0.0240544
0.0321323
0.13691
-2.39942e-05
-1.10573e-09
-1.47622e-06
0.0397186
-1.98471e-05
-0.0365764
-3.49269e-09
0.0325262
-0.00013944
0.0751635
0.00877859
-0.00233705
-0.000587269
0
-2.27735e-174
-1.19664e-07
0.0317753
0.041355
-0.0122019
0.000313499
-0.0269165
-1.80929e-06
0.130047
0.0458328
0.321378
0.00212822
0.000286318
0.0491898
0.0482994
0.0132691
-0.0360221
0.0168377
0.00324489
0.0719804
-0.0440556
-0.0410497
0.0183592
-0.0410448
0.000217035
-2.86711e-14
-0.000346425
0.100106
0.000286348
-0.0703011
-1.95951e-07
0.0188362
0.00057393
0
0.0267301
0.0118555
-0.0109302
0.0067293
-1.30564e-72
-8.89692e-05
0.0603732
-0.0302437
-0.0444112
0.000831907
-9.57172e-07
-0.114393
-5.61428e-06
-0.0201523
-0.0816237
-0.000213459
0.147593
-0.0196266
-0.00801129
0.011688
-3.02609e-07
-0.121835
0.0926366
0.0221756
-2.93937e-05
-2.31875e-09
0.243988
-1.41843e-08
-3.61034e-07
-1.83021e-07
-1.47136e-27
-0.0883334
0.142528
0.0635249
0
0.00377728
-0.0437244
0.00126493
0.0354807
-0.0124497
-0.00331306
0
-4.12836e-09
0.0667498
0.00930704
0.00345919
0.0118555
0.000529981
0.0285819
0.147901
-0.000114186
1.29016e-13
-0.141497
0.0237347
-0.00712924
0.0622795
0.215302
0.0119594
0.0161345
0.0602585
0.0285819
-3.34599e-06
-0.00013298
-0.131824
0.0311203
-3.54977e-05
-3.61034e-07
-0.00535163
-0.0574866
0.0147035
-7.11739e-08
-0.166398
-0.033937
-0.0578318
0.0569471
0.0567418
0.0451247
-0.0287287
0.0317784
0.0995381
0.0118551
0.217681
0.0227398
-7.74076e-11
0.00230689
8.00386e-322
0.0241407
0.000333308
1.26355e-146
-0.018016
0.0567589
1.7958e-07
-0.00629589
-6.10339e-07
-0.117831
0.0406912
-0.000185334
-0.196623
0
-0.0385527
-0.111458
-0.000231816
-0.0676138
-5.59723e-16
-1.75286e-05
-0.00395015
-0.0176563
0.0335498
-0.0123924
0.0358795
-0.0110585
-0.0859991
-1.86148e-06
-0.0451522
0.0803938
0.0224633
-2.14594e-07
-0.0134539
0.00606216
0.000251779
-5.06373e-08
0.0474047
-0.172779
-0.0196266
8.69556e-322
0.00377725
-1.96928e-06
2.76677e-322
-0.0126035
-0.0299584
0.000849109
-0.0298782
0.110585
0.107817
0.0614989
-0.0577094
-0.0507416
-0.116614
1.40336e-06
0.018078
-0.0387546
-9.08233e-05
-0.0108018
0.0714052
-3.14595e-83
1.90215e-321
-8.26183e-10
0.0110865
0.031249
-0.000149317
-1.90225e-05
-0.0443849
2.24261e-05
4.43552e-05
0.0167998
-9.84554e-05
0.0730028
-0.00718298
0.0850837
0.109026
0.023311
0.00897898
-0.0458235
0.0991088
-0.0909729
0.000251779
0.04963
-2.14594e-07
0.155902
0.00377725
-3.57507e-06
0.135204
-0.14758
0.0597939
-0.0896806
-0.0843589
0.0545697
0.00862625
0.0124574
-0.132992
-0.0451007
0.0153822
3.45989e-09
-0.0478423
-0.0606703
-0.000120266
0.000234248
0
-0.0201483
0.0125179
0.0270741
0.00209628
0.0127299
1.7958e-07
0.005906
-0.0124247
0.0528456
0.084173
0.00158247
0.087042
-0.0569897
-0.00373598
0.104651
0.0143226
-0.0299
-1.31476e-06
-0.0405772
-0.0147954
-0.18237
-0.0540215
-0.0411377
0.0130584
0.0169825
-0.018731
-3.99904e-83
0
-0.0739073
-0.0401588
-0.000718624
0.0967088
-0.0555909
0.0141418
-1.56619e-321
0.0169825
-1.45135e-08
0.0785151
0.12267
0.0385153
0.0355334
-3.179e-74
2.12686e-05
1.01414e-07
-0.0181473
-0.119526
0.215331
-7.05128e-08
0.0110865
0.0195287
0
-0.0390918
1.18094e-06
4.93309e-05
0.0118555
0.00126493
-0.0234152
0.0406837
-2.27735e-174
-4.94775e-07
0.0486797
-0.0262204
0.00057393
-1.63422e-05
-7.05128e-08
0.00243641
-0.0202387
0.057942
0
0.0907021
8.17305e-05
0.00057393
-0.0182399
-0.0668451
-4.43855e-06
-0.0453159
0.0559761
0.0153822
-0.000325842
-0.0509839
-8.22619e-05
1.02766e-321
0.000832883
-1.28457e-321
-0.00681642
-7.52957e-10
5.08569e-05
-1.24979e-171
-0.0265462
-0.0385927
0.0312841
0.00057393
-0.0505423
0.0413556
-1.30901e-07
-1.84092e-10
-0.0213201
-0.0162613
0.0312413
-0.107747
0.0881278
0.0166087
-0.0982592
0.0125179
-6.90023e-05
-0.0887392
0.00111102
-0.0122714
-0.0164098
-0.000231816
0.000826933
0.0597583
-7.05128e-08
0.202556
-0.0122019
-1.90225e-05
0.000769827
-0.179419
-0.0519469
-0.0752101
0.0969903
0.144046
0.0142085
-1.9136e-05
-6.71232e-07
0.0519199
0.00152248
-0.0834818
0.0534777
-1.03813e-06
0.0358132
-0.0294144
0.0285819
-0.0358622
-0.145169
-0.0499611
0.0667595
0.00209628
-0.0141651
-2.33016e-07
-0.00802009
-0.0265896
0.0237438
0.0439004
0.0125667
0.139762
0.0944185
0.0237438
-0.017979
0.130982
-0.086587
0.00277845
-0.240965
-0.0292396
2.01766e-192
-0.000303051
0.110306
-0.0109302
-3.02977e-83
-0.0505423
0
-1.45135e-08
1.60299e-07
-0.0384792
0.0266644
-2.25037e-09
-6.92707e-08
0.0630747
-4.40927e-06
-0.0466019
0.0166295
0.000232739
-1.1505e-06
0.00548582
-0.183242
0.0215971
-0.0269891
-0.0356171
-0.00373457
0.000286348
2.21136e-06
0.0254321
-0.0383021
-0.0523022
-4.25401e-06
0.0317753
-4.18518e-12
1.26355e-146
-0.0293581
-0.0365765
0
2.30042e-06
0.000418824
-1.28457e-321
0.018078
0
-0.0965825
0.0177679
-0.0645914
-0.0217595
0.0700242
0.0174771
-5.95205e-06
0.0292058
0.0289995
0.117143
0.0254321
8.51231e-140
-1.90225e-05
0.00111947
0.0281708
0.0826076
1.29016e-13
-0.0505423
-0.246221
-2.46085e-06
0.0455256
-0.0422425
-1.37716e-05
-0.00013434
-0.13102
0.100092
-0.033938
-0.0350575
-0.0276823
-2.0865e-74
-1.30675e-05
0.00057393
-0.260241
-1.20552e-321
-2.05085e-05
-0.0771754
0
-4.40927e-06
0
0.257526
0.0143226
0.013643
0.0978691
-0.061545
-0.000262665
0.013053
-0.000120266
0.162334
0.00377725
-0.36276
-0.058264
0.0398774
0.305869
0
-0.0405773
0.00158247
0.00158061
-0.0432512
0.00550976
-0.0300284
0.00301158
-8.05041e-05
-0.048726
0.00314002
-0.0125329
0.119592
-0.00862417
3.7609e-05
2.91223e-08
0.00636113
-1.28457e-321
0.0540649
-0.0711322
-0.0232621
0.215511
0.167602
-0.000358068
-0.0171448
-6.65081e-05
-0.0073549
0.00377725
0.0466987
-0.127906
-2.46085e-06
-0.00392344
-0.134136
0.263837
0.0183993
-0.000114246
0.0735012
0.000849109
-7.53747e-06
0.230292
0.00315367
0.121649
-5.47398e-06
0.0237438
-0.0437176
0.00446959
0.0250252
0.000831907
0.0649043
0.00057393
0.27494
-0.00518735
-0.000367441
-0.0342185
0.119556
-6.58277e-08
0.0503691
-7.56912e-07
0.0255125
-0.0437176
0.0312841
0.267091
-4.40927e-06
-6.75427e-08
-3.28071e-06
-0.0600008
-0.0741483
-2.66511e-08
-0.0524026
0.0826076
0.222964
0.00284409
-1.51803e-85
0.0556801
-4.95781e-05
0.0276437
0.0125179
-2.92777e-08
-0.0806327
0.0491172
-7.56912e-07
0.0384348
-0.000653068
0.0153822
0.000326669
0.0422076
-0.00035614
-8.52739e-10
0.00337059
-1.9084e-05
0.468534
-0.0414894
0.043004
0.0580948
0.0270545
-2.00097e-321
-3.16679e-06
0.00230321
0.0552762
0.0381519
-0.0446933
0.0168398
-0.0589872
-5.32351e-06
0.000549065
-0.0596061
0.0810423
-1.80929e-06
-0.0122019
-0.0411128
0.00345919
-0.0273583
0.0141887
0.0613099
-0.0351342
-6.17175e-05
-4.43284e-07
-4.37699e-07
-0.0373754
0.0277683
0.00643575
-0.0903505
0.0183592
0.00297488
0.0757912
0.0161574
1.99794e-06
-0.00935162
-0.0754348
-0.000539649
-0.000162582
-5.59723e-16
0.0783389
0
-9.36449e-09
-0.400468
0.0880718
-0.0857515
0.00315367
-0.244384
0.0709592
-0.038772
0.0294314
1.38247e-05
-4.85289e-05
0.221994
0.023184
-3.7193e-07
1.71568e-06
-4.37699e-07
-2.24683e-05
0.0217954
-0.00976648
0.00057393
0.0161857
0.570389
-0.000125063
-0.0323602
0.0110865
-0.000202373
0.0215971
0.0954001
0.0221399
0.00297488
0.00277845
-0.0025012
-0.109639
-4.57732e-10
-0.000167326
0.0173244
0.0215971
0.0048168
0.0110865
0.0117986
-0.0859123
1.56511e-05
-0.0402128
0.0555323
0.0033441
-0.0133755
0.0167954
0.0110864
-0.0218992
-0.164069
0.109229
0.0758666
-0.0165465
-0.000347134
-0.105917
-0.0137993
-0.00029776
-0.0437473
0.000831907
0.0237438
-2.28444e-07
-0.000156682
-0.0322364
-0.104838
0.0163593
0.0118027
-1.41843e-08
-0.0311585
0.302478
-2.27735e-174
0.000234248
-0.0231011
0.0353446
0.0110865
0.00057393
-0.0387546
1.29016e-13
-2.25037e-09
2.76677e-322
-0.000222852
-0.0518524
1.31421e-321
-0.00373598
0.112668
0.00803528
-0.00373598
-0.0267721
-0.053234
-1.93377e-08
0.108471
-0.00653712
-0.0207084
-1.37803e-05
4.85414e-05
0.0128199
0.0217954
-0.0547026
0.393888
0.0470384
0.055477
-0.0209974
-2.27735e-174
-0.0350424
0.158132
0.000831907
0.0482818
0.250778
-0.000142911
0.0227053
-0.0579938
0.226923
-2.05085e-05
-0.0147954
0.00552354
0.0380441
0.0461728
-1.90463e-05
-0.00976648
3.46358e-07
-0.111325
-0.0125952
0.00707189
-2.0856e-07
-0.0414894
-0.00380671
-0.0414551
0.0080636
0.00058636
7.81761e-20
0.0173641
0.0351246
0.00718684
0.0227156
-0.000367441
0.0417712
0
0.0566138
-0.0130631
-0.0817593
-0.0130638
0.0141822
2.91223e-08
0.00170599
0.0221399
-1.02766e-321
-0.00400706
-2.39942e-05
0.00343112
-0.0505423
-0.00645919
0.0182864
0.0191107
0.00949632
-6.30019e-06
0.00057393
-0.0286665
-1.51803e-85
-0.018178
-0.018749
-0.183482
-0.0391256
-0.0105602
0.0397186
0
-9.31501e-05
0.355652
0.0340965
6.57989e-05
-5.59723e-16
0.0654422
-0.00351996
0.00372546
0.000314437
-0.0189566
0.00263898
0.00552354
-0.000241789
0.0178982
0.00377725
0.00344669
0.0350746
-0.0502093
0.0248476
-0.000327956
-0.0138946
-0.0208021
0.00345919
0.100923
0.0796431
0.00803528
-0.022507
0.0142628
-0.0326704
0.000187248
0.064898
0.0325865
0.0441516
-0.000177612
-0.279092
-0.0655108
-0.0155467
2.25682e-191
-0.0773703
-3.02977e-83
-0.0220387
-0.147484
-4.13156e-10
0.00889278
3.82623e-189
0.000654289
0.00242828
-0.00981112
-0.0616995
-0.0681478
-0.0389929
0.0140422
-0.160508
-4.6813e-11
0
-0.0341915
-0.0108866
0.0325865
0.00345919
-0.05237
7.81761e-20
0.171982
-0.0381053
0.110138
-0.027393
-7.05974e-05
-0.0724921
0.0264813
-0.00445752
0.000374542
1.29016e-13
0.00345919
0.0939943
-0.0131964
0.00057393
-1.01085e-10
-0.0901677
-0.0165465
-0.073306
-0.0938218
0.102062
-0.000234337
-1.80929e-06
0
-0.0337193
0.00198666
-7.05128e-08
-2.10302e-05
0
0.17391
-1.62054e-84
-0.0189571
-2.20717e-06
-5.34909e-06
0.00377725
0.00345919
-1.51803e-85
-0.0287835
-1.33391e-07
-0.000258728
-0.0506551
0.0357899
-1.80929e-06
-0.0579545
0.0684643
-0.089032
-0.0390769
0.556084
0.141972
0.0221399
0.039902
0.115739
-6.90023e-05
6.57989e-05
-6.03143e-06
0.0207056
0.000500325
-3.61034e-07
7.57587e-06
0.0536504
-7.16875e-05
0.00135224
0.0312841
-0.0499158
-0.0590595
-0.0245229
-8.90259e-06
0.0173244
-0.0109302
-1.69881e-05
0.00260572
0.0351544
-5.95205e-06
0.0142683
0.0687157
0
0.0418092
-0.0505423
0.0131143
0.01449
-7.11784e-08
-0.151313
0.0609758
-4.57732e-10
0.104198
-0.0358596
0.000234248
-0.000185334
0.0691154
2.91223e-08
-9.71407e-06
0.00398246
-0.0457406
-4.91891e-12
-0.0287608
-9.71407e-06
0.0270741
-7.83234e-05
-1.51803e-85
-0.0562795
0.0285246
-0.0578552
6.57237e-08
-0.00948986
0.0426604
0.0504941
-0.000177612
0.00377563
-8.75759e-13
-0.00402017
0.00860454
0.0512789
0.0822935
-0.00713059
-0.000756301
-2.28444e-07
-0.0387546
-1.83479e-07
-0.0230405
0.0165278
0.00519249
4.43552e-05
-0.00711953
0
-0.0217111
0.0246144
-0.0232621
-0.00378457
0.0579686
0.0786729
0.000171275
-0.133117
-0.0880506
0.0823851
-9.5357e-05
-0.110074
-0.025674
0.081658
0.00055614
-0.133471
0.00709732
-0.236654
0.0791114
0.057747
-6.69971e-08
0.0296136
0.0284822
-0.0175784
0.0749544
0.132526
-0.0660423
0.0472368
-2.61198e-05
0.0241407
-0.0710877
-0.0505423
-1.16457e-05
0.0558424
-0.0387278
-0.0760015
-3.39598e-05
-0.0708748
0.0377884
-0.00939219
0.0307659
0.0714047
-0.0273583
0.000654289
-7.56912e-07
0
0.0845299
0.0125179
0.0742443
0.0349194
0.0556078
0
-2.72053e-06
-0.0784281
0.020643
0.0465692
0.000867643
0.00057393
0.0235048
-2.0899e-321
0.0301515
0.644388
-0.0187271
-0.0644875
-5.61428e-06
-7.56557e-07
-0.102709
0.00345919
-0.0201788
-3.14595e-83
0.0142628
0.0206189
-0.0144716
0.36131
0.0210018
0.028582
-1.1505e-06
0.308492
0.0213212
0.005906
-1.80929e-06
-0.000235612
-0.0499611
0.0691258
0.00691151
0.0852718
0.00057393
0.0277935
-0.0327691
-4.18518e-12
0.00151497
0
-0.0327269
0.000153994
0.0330736
0.000924566
-0.0108288
0.0826742
-0.0964224
0.00803528
0.0669907
0
-1.10573e-09
-7.05128e-08
0.119536
-0.0175069
-0.0227796
-0.0626255
-1.08694e-321
-0.0401985
0.00211795
0.0486831
7.36578e-08
-0.0234893
0.0266868
-0.0382585
2.25682e-191
0.0600074
-0.134563
0.00377725
0.0332264
-0.114725
-0.0327225
0.073021
0.0664165
0.000158081
0.137214
0.0433008
-2.93937e-05
0.0677273
-5.89195e-10
0.00356379
0.0221399
0.148016
0.0137628
0.0803938
-1.11404e-15
-0.160135
-0.000303051
-0.125623
0.0171803
-0.0699175
0.0950715
-0.0457449
0.0952598
3.19349e-10
0.000831907
-0.0408253
-3.55634e-05
-0.0365764
-0.0155467
0.00889278
-0.00373598
0.0147035
-0.0114132
-0.0575648
-0.0819036
0.0745933
0.0555703
-8.30015e-15
-0.0269891
-0.00948986
-0.0278769
0.0664227
0.011839
-1.90225e-05
0.00377725
0.0613091
-6.30019e-06
-0.0602641
0.000514194
0.159094
0.0952107
0.000232739
-9.36449e-09
-0.0159026
0.176316
-0.0820701
-0.0460368
-1.88657e-08
0.0426581
0.0572259
-0.102774
-0.162381
-0.0520284
-1.24505e-321
-2.11246e-224
-0.108713
-0.364311
0.000413092
0.0348596
0.005906
0.000689524
0.187324
-0.162993
0.00974481
-1.09345e-05
0.0098279
0.0256772
-0.0128792
-0.187129
0.0806881
0.0538161
-0.0123924
-1.62054e-84
-0.0853864
-9.02073e-06
-0.00844656
-0.0292056
-0.0703592
0.00252631
0.0115296
0.0914984
0.124818
-0.0217009
-0.00296328
0.000251779
0.000849109
0.0141822
-0.0582749
-0.00376279
-0.0284821
-0.0109302
-0.0218539
-0.0360221
-0.115835
-8.04043e-12
-0.286484
0.0583844
1.35868e-321
0.0773476
0.133336
0.0372034
0.347487
0.0102231
0.0119485
-0.00535163
0.0386952
0.142406
0.00563772
-0.000303051
0.00887795
-0.0105221
-2.28444e-07
0.0266057
-0.0207564
-4.12836e-09
-0.0604192
0.023987
-0.0155467
0.0168377
0.00660167
-0.00373598
-0.0025012
-1.66932e-09
-0.0351384
-0.000162582
0
0.0258225
0.00446959
-0.00981112
0
-0.0615386
0.0326972
0.00150581
0.00057393
0.0870195
0
-0.00976648
0.000549065
-0.0213217
0.00925876
-0.182165
0
0.0639699
0.0148638
-6.65081e-05
-1.42123e-07
-0.000120266
-0.0905074
-0.015348
-0.0703364
-3.90536e-08
6.57989e-05
-4.12836e-09
0.0841588
-7.83234e-05
0.010795
-0.000262665
0.0326207
-0.0365765
-0.0258262
0.223311
-0.00022448
-0.0310239
0.180465
0.0495375
-0.148326
0.0177767
-3.34599e-06
0.00377725
-0.0357146
-0.070066
-0.0153572
9.0414e-322
-0.0305587
0.00709732
-9.57172e-07
0.216963
-0.0750688
0
-0.0578552
1.35868e-321
-0.0124497
0.0325386
0.0111523
-0.0647619
-6.67041e-05
0.0182637
0.0328811
0.000331716
-0.058106
0.0997971
0.0237438
0.00313431
0.0254321
0.00377725
0.0195287
-1.15611e-321
-0.00844656
0.0302307
0.00969088
0.0381586
0.0276142
0.00243447
0.13496
-0.0277697
-1.62367e-05
0.0235695
-0.147741
-0.00949305
8.69556e-322
0.166274
0.0312841
-0.000225707
-0.0604192
0.0954001
-0.000236332
0.00860461
0.00158247
-0.0261489
0.170129
-0.115835
-0.00661812
-0.0109302
0.0108492
0.0689897
8.83527e-05
-3.61034e-07
-0.0185401
-8.11409e-05
8.17305e-05
0.0788186
-0.0604301
0
0.00202459
0.0665877
-0.000161373
-0.0305262
-0.0558689
0.0237836
-0.0982181
0.000351801
0.0110865
0.017222
-3.57507e-06
0.128213
0.0295016
-0.000100556
-4.12836e-09
0.0833242
0.0533412
-0.188087
0.00672603
-0.0810727
0.0415305
-0.058691
-0.00027096
-0.0109302
-0.00031174
9.20534e-05
2.2727e-322
-7.17021e-14
0.0543854
0.00057393
-0.108432
-0.0876257
-3.55634e-05
0.043306
-0.0155274
-2.3986e-05
0.000831907
0.00776277
-1.19664e-07
0.0118555
-0.00518735
-0.0604192
-3.57507e-06
-0.00247969
-0.0194129
-5.76026e-14
0.00969088
-0.000106727
0.00803528
-0.0360003
-5.59723e-16
-0.0147954
-0.0955717
-0.0800673
-0.0290253
0
1.98477e-07
-0.000114246
0.00057393
-0.117812
0.00373415
-2.79506e-06
0.0290825
0.0504624
0.0086889
-0.0263997
0.0153454
0.145255
0.0292437
0.436614
-0.0177178
-1.86194e-06
-0.0501419
0.0588525
0.050216
2.2727e-322
0.0251978
-2.33443e-05
-0.00711953
0.0242347
-0.155147
0.051635
0.00222137
-0.0102571
0.00345934
-0.000270893
-0.0497196
-0.0267721
0.005906
0.00278266
0.018132
-1.10573e-09
0.00563772
0.0118555
-0.113948
-0.0565747
-3.23626e-08
-1.84329e-05
-6.69926e-08
-1.24505e-321
-1.03108e-07
-1.93377e-08
-0.000135175
0.0249949
0.00707189
0.000907884
0.0667595
0.024412
0.0347795
0.00377725
-0.0454073
-0.00163818
-0.0161192
0.274649
-0.0503581
-7.11739e-08
0.158972
-1.6526e-05
0.0156196
-1.41843e-08
0.0165123
-0.0269891
-0.103348
0.0344579
-1.83021e-07
-1.02766e-321
-1.1505e-06
0.0303782
-0.0484917
0.0317753
0.00057393
0.0126025
0.0259303
0.00057393
0.0477572
0
0.0743968
0.00947399
-1.6526e-05
-0.0880737
-0.179809
0
-1.03108e-07
-0.018749
-0.0209974
-0.106561
0.0100264
0.005906
-1.17535e-07
-0.00930589
0.0378722
-0.0051989
-0.0633704
0.0558372
-2.3986e-05
-5.20275e-08
-0.0101741
-0.0906027
0.0485515
0.458832
-7.05128e-08
0.00345919
0.108839
0.00345934
-0.069472
-0.0924405
0.0158236
0.0373315
-0.12785
0.159599
0.0456092
0.00297488
0
9.48588e-06
-0.0282983
-2.46085e-06
-0.0414833
-7.74076e-11
-0.0854732
0.0613124
0.0605795
0.000831907
0.0143226
0.0530348
-0.0395109
-0.0172107
-0.162254
6.2174e-05
0.0891153
-0.0245229
0.0377921
-1.62054e-84
-0.00631898
-0.00661812
0.0227139
-0.0722102
-1.64613e-06
0.118271
0.0605772
-1.84092e-10
-0.0230681
-0.0431507
-0.000115375
-0.010283
0
0.0541296
-0.0437176
0.00278266
0.12385
-3.8388e-06
0.000831907
-0.19509
0.0125179
0.0169319
0.0215781
-0.000186982
0.0216629
0.0420322
-0.0849223
-2.10302e-05
1.29016e-13
-0.0287608
-2.27735e-174
0.0301819
-0.00692967
0.00991039
-0.212566
0.0898603
-0.0682008
-0.000180847
-1.98471e-05
-0.00740614
-0.157284
-0.0220227
-0.00949305
-0.06541
0.0161213
-0.0443849
0.047762
0.00209628
-8.90259e-06
0.00889278
-0.00963671
-0.0554775
-5.89195e-10
0.00253508
0.00749202
0.167949
0.0240733
-5.34827e-06
-0.0413875
-0.000114459
0.0698452
-0.0650247
3.64075e-78
0.00057393
-0.000108106
0.108287
0.0999339
9.53658e-05
-0.0264299
0.260758
0
-0.0171057
0.00755951
-1.23647e-07
0.00097903
-4.44969e-14
-0.000114186
-0.0175069
0.000826572
0.000907884
-8.90259e-06
0.0504624
-2.14594e-07
-0.0209974
-0.0128902
0.0397488
0.017164
-4.40927e-06
0.000826933
-0.00948986
0
0.000232739
-0.0157022
-0.00666183
-1.24763e-06
0.30431
0.000158263
-0.0327753
0.100415
0.00653962
-0.0579938
0.000120533
0.0230955
-7.56912e-07
-2.33016e-07
0.062126
-0.183242
0.0325865
-9.31501e-05
-1.41843e-08
-3.8388e-06
0.417482
-1.90225e-05
0.0368052
-0.0307416
0.00548582
-0.026802
0.099929
-0.0575638
0.0130584
-4.6813e-11
-0.0178969
-0.029271
0.00057393
0.302094
0.0466124
0.0170265
0.0151685
-0.0505423
-0.0245229
-0.155088
0.0728951
0.0691258
-0.0657792
-0.00476643
0.0381519
0.005906
-0.0137668
0.000810346
-1.63422e-05
-0.0156517
0.069276
1.26355e-146
-2.72053e-06
-5.02412e-07
-0.0400967
-0.0819294
-1.84329e-05
-1.47622e-06
-0.0342257
0.000251779
-0.0432194
0.00182516
-1.30564e-72
0.0054768
-5.59723e-16
0.0851263
0.0330094
6.57989e-05
-0.0444112
-0.0936769
0.0317463
0.000699583
0.0583789
0.000699582
7.36578e-08
-2.3986e-05
0.000198485
-2.3986e-05
0.0397488
0.0430763
-0.010376
0.0648786
-0.0761662
0.00057393
0.112635
0.000671497
-0.0122019
-0.127967
0.0202545
-0.0674191
0.00057393
-0.047699
0.142192
-0.000120266
0.0133674
-0.0294144
0.0256841
0.0572531
-0.000347134
-0.000653068
-0.00537952
0.0952827
0.000862441
-3.26083e-322
-1.62054e-84
-4.88827e-05
-7.2291e-08
-1.45135e-08
-0.0137651
0.0707208
0.0962111
4.39385e-08
-6.03143e-06
-2.0856e-07
0.0418092
1.91954e-05
-9.08233e-05
-0.165145
0.0181177
-0.000371266
-0.0126034
0.0168377
-0.0943497
0.00157565
-1.24505e-321
-1.17535e-07
0.00344743
0.00949909
0.0586624
-6.03143e-06
-2.25037e-09
-0.178554
0.0781502
-0.132255
-0.174075
-1.75286e-05
-0.0269163
0.012587
-0.0473667
-0.00818941
-0.000329229
0.0333636
-0.0261913
0.0665131
-0.115723
0.00349728
-1.42123e-07
3.45389e-08
0.0110865
0.0687233
0
0.0507646
0.0279452
-0.189102
-0.131798
-0.179012
-1.39078e-05
0.0237438
-0.0471222
0.0249177
-2.99618e-07
-4.50675e-06
-7.05128e-08
-0.0915195
1.29016e-13
-0.0283852
-0.0515475
0.00995881
0.0466078
0.0486576
0.0077967
-0.000367441
0.0431131
1.26355e-146
-0.113996
0.0493092
3.42814e-05
0.0118555
0.0169618
0.0111057
-0.0857515
0.00911393
0.223337
-0.0325415
-0.0191318
0.00991039
0.0533412
0.00233344
0.000826933
0.0118555
-0.0518173
0.00376411
-0.0524053
-0.0976424
-0.0241263
-0.00015801
-1.65429e-06
0.0026919
0.0250647
0.00889278
0.0232189
-0.0320578
-0.0186919
0.00113839
-0.0102571
0.0211871
2.24261e-05
0.00860454
0.0431131
1.38247e-05
0
-0.0751659
-1.11404e-15
0.0422624
-0.0810531
-0.021496
0.0780405
0.0224716
-4.18518e-12
0.00057393
0.0250472
0.182985
-0.0290253
0.0182864
0.0939761
0.01549
0.000102571
-0.0172224
0.0760686
-0.0085726
0.0321323
0.114541
0
0.0558424
0.0667595
-0.0568466
0.278852
0.193548
-0.000234453
-0.000120266
0.0489386
0.0762437
0.0408262
-0.004675
-1.96286e-172
0.0326972
0
-0.0517892
0.0134433
0.0681327
-0.0613955
-1.64613e-06
0.0254321
0.0182864
0.0734082
0.0380303
-5.06373e-08
-5.06373e-08
0.0304371
0.0110865
0.313614
-0.020407
-0.065469
-0.0924696
-0.0122021
0.0145167
-0.0589379
0.0316768
2.24261e-05
0.00991039
-0.00191508
-2.77857e-05
-0.0722117
-0.0453776
1.29016e-13
0.00624913
-0.0371198
7.51993e-07
0.194964
1.38247e-05
0.012424
-0.0576522
-4.57732e-10
0.136017
0.119665
6.57796e-05
-1.55137e-321
-1.00426e-08
-4.12836e-09
-0.0388638
-7.56912e-07
-0.147141
0.0244431
-0.0414894
-0.0565747
-0.00886516
-0.00049318
0.00057393
0.0362363
0.000849109
0.0110865
-0.0209974
2.01579e-321
9.20534e-05
0.0325227
0.0971911
0.123533
1.99794e-06
-0.000101104
0.0237437
-0.00754139
0.0787127
0.213105
-0.0637939
-0.0443849
-0.0291306
0
-0.0907469
-0.0167642
-0.220391
-0.0461886
0.00223053
0.00888704
-0.032515
0.137278
-0.0515475
-0.367151
0.000831907
4.85414e-05
0.0170268
-0.0786917
-0.0349434
-1.33391e-07
0.0221399
-0.066263
0.13648
0.0934329
1.31421e-321
-0.0308665
-8.55243e-11
0.134246
1.1954e-05
-3.34599e-06
-0.233834
-0.000149317
0.0841588
-1.47136e-27
-1.51803e-85
-0.034189
0.0508857
0.060619
-0.0557672
-0.0189565
-0.00380671
-0.000139331
-0.0385527
-6.58277e-08
-0.0855578
0.0430973
0.005906
0.0339371
0.0214407
0.0401253
-0.132609
0.0814012
0.000414288
-0.00373598
-1.41843e-08
0.172642
-0.0992474
-0.0175027
-6.7637e-05
0.000413092
0.109944
-0.0073549
-0.00711953
-0.000303051
-0.146439
-0.000347134
-1.42123e-07
1.96663e-05
0.00803528
0.083689
0.0801882
0.0350746
0
-3.14595e-83
0.0250698
0.135206
0.0691258
-0.0419252
-1.17588e-321
-4.4693e-12
0
0.0990859
0.0821054
-7.74076e-11
0.0440415
0.00193172
-0.107975
0.0165276
0.0141249
-0.135926
-8.26183e-10
0.00377725
-0.00952833
0.353424
-0.0269891
-5.59723e-16
-0.0187864
-0.0201313
-0.0175319
-0.000722948
-4.12836e-09
-3.8388e-06
-0.0762328
-3.90536e-08
0.012587
-0.072594
0.231001
0.000331716
0.0527706
-0.0502093
0.015579
-0.0363203
-0.0128487
-0.000344086
-1.03813e-06
-0.035139
0.0436661
0.00826257
-0.0282286
-0.00746508
0
2.01766e-192
-3.38643e-06
-6.75427e-08
-0.000371266
0.060553
-8.90259e-06
-0.0107141
0.0221399
-0.0165465
0.00197432
-0.0124497
-0.000100556
2.11213e-07
-1.17535e-07
0.0137453
-0.043387
0.0533349
-1.41843e-08
0.099929
-1.84092e-10
0.000826933
0.0317753
2.06055e-06
0.0106156
-0.0641765
-0.0119736
9.90288e-05
-2.27735e-174
0.0601906
-0.0350424
0.000545158
0.0667039
-0.000234453
-0.00015801
-0.09958
0.0264883
0.158817
-0.00976648
-0.0349486
0.00377725
-0.0269891
-0.000241789
4.08627e-06
-0.00015801
0.0637569
-5.13828e-322
-0.0613914
-4.50675e-06
-0.0109302
0.0230955
-0.177724
0.283948
-0.0820801
-6.92707e-08
-0.0245229
0.0493092
-0.187221
0.0729421
0.000699583
-1.10511e-06
0.0135885
-5.76026e-14
-0.0299581
-0.033786
0.00336007
1.96663e-05
0.00057393
-1.08694e-321
-0.0321056
0.0251978
-1.47622e-06
0.215806
-0.0126561
0.0277935
-0.0298782
-0.000303051
0.000217035
-6.58277e-08
0.00473139
0.0327456
0.000109144
-1.93377e-08
-1.96928e-06
-0.239095
-0.0187546
0.0251978
0.133819
-0.000235612
0.0202066
0.0357956
-0.0231454
0.00253508
0.0161213
0.0183592
-0.0641795
-0.287573
0.00216894
-1.86148e-06
0.238438
-0.0761873
-3.04564e-06
0.00911393
-0.0447997
-1.65429e-06
-0.246188
0.067056
-0.129929
1.40659e-181
0.0733938
0.181296
-0.0431462
-0.00911712
-0.000111813
5.10123e-10
-0.0252987
0.00057393
1.31421e-321
-0.0196266
0.0876313
0.0392051
-0.000159006
0.0360565
-0.0596061
0.0999031
-4.6813e-11
0.0110641
0
0.0376106
0.000849109
-1.9136e-05
6.68378e-05
0.00930704
-0.0787333
0.0364808
0.0251978
0.00446959
0.000690875
-1.33391e-07
0.000573652
-0.0461886
-2.46085e-06
0
-2.91173e-05
0.000136364
-1.6775e-05
0.0669907
0.135502
4.80368e-06
-0.0365764
0.0406912
-0.000185334
-0.000215896
0.148406
-1.64613e-06
0.0813765
0.000331716
0.0744175
0.029369
0.164594
0.00057393
0.0763799
0.000549065
-0.0258816
-0.0201523
-1.23647e-07
0.0807445
-0.00413361
-0.0514295
0.326267
0.0293842
0.0758666
-0.026698
0.00925876
0.0512152
0.000831907
6.57989e-05
-0.0655124
0.156029
-0.00751931
0.0807581
-0.0189566
-0.0843164
-4.16038e-07
0.000831907
0.0705563
-1.47136e-27
-0.0073549
-0.12147
-2.27735e-174
-4.45531e-09
0.0409835
-9.84554e-05
-4.94775e-07
1.97426e-05
0.0334501
0.0167901
-4.47222e-06
0.020342
-0.0110882
4.08627e-06
-1.13684e-05
0.0141249
0.0583844
0.0541296
0.0186559
-0.00373598
-0.00711953
0.278012
-0.0896128
-0.0118896
0.0929077
-0.0269163
0.0566751
0.00057393
0.023659
0
0.073021
-1.56619e-321
-0.0344071
-0.0282983
-0.012556
-0.0187627
0
-0.0231669
-0.0859123
0.0342412
6.57989e-05
-0.0254383
0.0241454
-0.0162613
-0.0210146
-0.0178048
0.113199
0.113384
-0.0714825
0.00155693
-0.012101
-0.000119469
-3.90536e-08
-0.0375367
-0.310761
-0.00501309
-1.33149e-05
-0.0619476
-0.0025012
-0.0210607
1.54919e-06
-8.30015e-15
0.196841
0.0853747
-0.0122019
0.0265849
-0.0370075
0.148035
-0.0437242
-1.90225e-05
0.0310916
-0.142557
-1.6844e-08
-0.0431509
0.0285819
0.0214195
-0.17953
0.00606216
-1.30675e-05
-0.0306273
-0.0948527
-0.0538894
0.000171181
-0.018829
0.0368052
-1.96928e-06
0.059967
0.0504624
0
-1.36935e-14
0.00383974
0
-0.0201523
-0.0596061
-0.11527
0.00377725
-5.61428e-06
-5.54642e-06
-0.0529156
-0.034846
0.0839567
-0.0705061
-0.0257512
0.144189
1.60299e-07
-0.115297
-0.0150754
-0.000100556
-0.0364418
-0.0290268
0.0547465
7.51993e-07
0.141523
-1.33892e-321
-0.00504399
0
0.0725996
-0.00801129
0.00707189
0.0183592
-0.169846
0.012587
-0.0209974
0.0533725
-0.00349108
-0.256294
0.00057393
-0.0296563
0.0787131
-0.000196455
-0.00511768
0.0329535
0.0202066
-0.0286343
-0.132745
-0.0669067
-1.23647e-07
-0.00035615
0.0451153
-0.0131289
-0.0207017
-0.0590083
0.0240104
0.0295702
-0.0387546
-0.07947
0.0285819
-4.13156e-10
0.0687157
-0.0255081
0.0726517
0.0167901
0.0317784
-1.55137e-321
-4.60433e-09
0.0138876
-0.000160302
-0.0155467
0.00057393
-0.000831829
0.0536445
9.25746e-05
0.17801
0.0107931
-0.00681642
-1.65429e-06
0
-4.35927e-15
-0.0327754
0.00414152
0.0380303
0.03951
-0.304545
0.0626921
-0.053521
0.0662608
-0.0342792
-1.90225e-05
0.230119
-0.000325842
-8.05041e-05
0.0237438
9.53658e-05
-0.0725941
-0.059204
0.0687157
3.66975e-05
-0.00652977
-0.0177818
0.00962502
-1.41843e-08
0.0155287
0.0801882
-0.0230454
0.01966
-6.90023e-05
0.00889278
-0.0774532
0.0450495
-1.3651e-05
0.000369842
0.000466591
-2.27735e-174
0.221404
0.0285819
-0.0365764
-0.00022448
0.0221399
-9.36449e-09
0.0169921
0.262657
0.0327844
-0.0706812
0
0
0.0586164
0.00377725
-3.28071e-06
0.00168461
-1.47624e-05
0.00155693
-0.0659252
-0.0244105
0.00930704
0.0181794
-0.512613
0.0208511
-1.41843e-08
-0.0025012
0.0939939
0.0512152
0.230504
-3.34599e-06
-0.0839354
0.219019
-0.0729873
0.0264883
-1.33892e-321
-2.51697e-06
0.0329535
0.0183592
-0.0737247
-0.053227
-0.000163026
0.00924328
-0.0250293
-0.000114246
-0.033578
-6.74653e-05
-1.17125e-07
-0.109619
-6.92105e-06
0.000374542
-8.41467e-12
-1.44712e-05
-0.0845906
0.0914325
-0.000114246
1.29016e-13
-0.191624
-6.69926e-08
-0.0394701
-0.0437176
3.46358e-07
0.0142085
-7.52957e-10
-0.069472
-1.37803e-05
-0.00834916
-6.04459e-11
-4.12836e-09
0.085811
-9.17296e-05
0.031249
-0.00846558
-0.0197475
0.000549065
-0.019753
-6.69926e-08
0.0728759
-0.0379556
7.05557e-05
2.05531e-321
-0.0518401
6.57989e-05
0.165291
0.0215973
0.0746432
0.00161875
0.000232739
-0.090933
-0.09958
-0.0450816
-0.0122019
0.0215971
0.0312841
-0.052508
-1.23647e-07
0.12
-0.0813706
-5.59723e-16
-0.0641795
-1.65429e-06
-0.0482736
0
0.0120238
0.000103908
1.26355e-146
0.00057393
0.0418005
0
-0.0189566
-0.00447829
-0.0405773
0
0
0
-2.72053e-06
-0.000234453
0.0178982
-0.0453843
-0.0501803
-1.47136e-27
0.0398774
-6.04119e-06
3.64075e-78
0.0721952
0.0534777
0.0489677
0.0722826
0.000848202
-8.20924e-10
-0.0298782
-0.134065
-1.30927e-321
-1.59146e-07
-0.000367441
-1.62367e-05
-0.000120266
-0.00654247
-0.000120266
-4.43855e-06
-0.631158
-1.23647e-07
0.0286724
-0.0340937
-0.0812122
0.000549065
0.0136993
0.0325262
0.0353648
0.00307688
0.740771
0.0337121
8.17305e-05
0
-7.56557e-07
0.128158
-0.221933
-7.16317e-08
0.000413078
-2.05085e-05
-0.135176
-2.14594e-07
0.0296255
0.0141402
7.36578e-08
0.0119647
-0.0453805
0.0236694
4.80368e-06
-8.04043e-12
1.60299e-07
-0.0261489
0.00057393
-0.004675
7.57587e-06
0.00446959
4.59559e-07
-0.0828748
0.0438642
0.0305138
0.00684318
0.0855858
-7.11739e-08
-1.14349e-06
-0.0702724
0.114716
-0.0254383
0.0106695
-0.0267721
-0.0131289
0.0766949
0.0576124
-0.0853934
-0.204006
0.00158691
0.0384923
1.18094e-06
-0.0897669
-7.05128e-08
0.0533412
-3.34609e-06
-6.69926e-08
-9.16921e-06
0.0125179
-0.000149534
0.0245199
0.00377925
0.025332
0.0240496
-0.00579818
0.00284332
-0.0357073
0.129614
-4.12836e-09
-2.27735e-174
-0.0213297
-1.77677e-10
0.0496903
0.000566895
0.142638
0.00252465
-0.0240282
0.0118555
3.64075e-78
-1.03118e-08
0.0202066
0.0107682
0.0367373
-9.95439e-07
-0.0155467
0.00345934
8.17305e-05
3.64075e-78
-1.26882e-05
0
-0.0563717
0.000215473
-0.0894209
-4.88827e-05
0.000831907
-1.84127e-07
-0.00790628
0
-6.69926e-08
-0.209362
-8.55243e-11
0.102718
-1.86148e-06
-0.0887509
0.00057393
-9.1016e-05
0.0167901
-0.0437176
-9.01554e-06
0.000122369
-0.0824681
0.0510789
0.00392826
0.0450358
6.57989e-05
-0.0363771
-0.069472
-0.0373754
-0.0455852
-0.0196738
-0.0122019
0.00295864
-0.0800673
-4.43855e-06
-1.47136e-27
0.00092506
-0.0704
0.0116089
-0.0371504
-3.57507e-06
-0.0211201
6.57989e-05
-0.0853504
-0.069472
-3.23626e-08
-3.55634e-05
0
-0.000213459
-1.37803e-05
-0.207622
-0.0694659
-4.6813e-11
-0.0890231
-0.0531261
-0.0561738
0.0365642
0.0962767
0.000831907
-8.26183e-10
-0.0257979
-6.89079e-05
-0.048273
-1.03108e-07
-0.000234453
0.0901328
-9.57172e-07
-0.0197475
0.0428618
-0.0208022
1.31421e-321
0.00186734
0
0.000100252
-7.56912e-07
-0.0641795
0.00057393
-8.41467e-12
0.00539693
-4.88827e-05
0.0134628
0.00158691
0.0110865
0.0240104
-0.0710218
0.0221399
-5.02412e-07
0.0324555
-0.0388088
-0.0197475
-0.00981112
-0.0296563
-1.30564e-72
0.000831907
-0.0694958
-0.0644611
-0.0361675
-0.0980212
0.0254321
-1.52918e-06
0.00624913
0.000232739
-1.9084e-05
0.0142628
-0.112385
3.66975e-05
0.00405297
-0.000356136
-4.40927e-06
0.0068286
-0.0459994
-0.0237565
0
-0.00769883
-0.0201523
-0.0789419
0.0398126
-1.9084e-05
0.0756036
0.029054
8.69556e-322
-0.261717
-0.0421491
-0.00619737
0.0142628
-0.0142702
-7.17021e-14
0.0406912
-0.0143618
0.082225
-0.0575321
-0.146378
0.0284795
0.120422
-1.41843e-08
-0.0968634
0.0110865
6.57989e-05
0.00779667
0
-1.41843e-08
-0.00168233
0.00057393
0.00057393
-0.0338717
0.113913
-3.14595e-83
-0.181426
-4.29366e-05
-0.000241789
-0.00653712
-0.063745
-0.111135
0.0402807
0.144046
-0.00668565
0.000549065
2.01766e-192
0.0970557
0.036268
-0.06257
-0.0394684
-5.57307e-06
0.00280503
-8.55243e-11
-0.0981605
0.0101838
0.00200761
0.0141822
-0.0156517
-0.0225378
0.0472681
0.0406912
0.0130584
-0.00283915
0.104108
-0.00976648
0.0248707
-0.000442229
-0.0689928
-0.0245517
-0.0109071
-0.0213235
1.31421e-321
0.0486512
-0.0635543
-0.0180741
0.104745
-0.0208974
0.0118555
-0.0124497
-0.0109696
0.0177116
0.0826874
0.00624913
0.00548582
0.333149
0.0161604
-7.53747e-06
0.0106593
0.0118555
0.0326207
-0.00013944
0.195632
-0.0579545
0.0661536
-0.0674939
0.00230311
0.00621115
-0.0463704
0.0994124
0.179053
-2.37999e-08
0.0406912
-1.84121e-10
0.232792
-0.0905732
0.00916051
1.31421e-321
0.0518766
0.0672665
0.00307688
-1.12949e-07
-1.37803e-05
0.133837
-0.00022448
-0.0849462
-0.00661812
0.0265896
0.0189432
0.0579675
-0.00783644
0.108764
0.00949909
-0.0622952
0.0133083
0.0412997
0
-1.66932e-09
0.000140261
0.031249
0.00109839
-0.0722142
-0.000356136
-1.30675e-05
0.0306662
-3.55634e-05
-2.66511e-08
-2.10302e-05
0.0505282
0.0549848
0
-0.0245229
-0.0131289
-0.0320946
0.0826874
-1.27963e-321
-4.18518e-12
-4.43284e-07
1.86076e-07
0.0325865
-0.00022448
-8.21398e-11
-0.045632
0.0571678
-2.10302e-05
0.000311265
0.000549065
0.0635955
-0.0113248
7.36578e-08
-1.45135e-08
-0.0789419
-4.18518e-12
0.0418092
0.00606216
-0.17116
0.121675
0
0.0142651
0.000232739
0
7.41036e-05
0.110393
-0.107021
0.00482726
0.0353648
0.000232739
-0.00844656
-0.0535592
0.0147035
7.36578e-08
0.56446
-0.0207017
0.00356717
0.000251779
0.0280289
0.0530821
0.023659
0.0107682
-0.0290662
-0.113441
1.72033e-06
0.00345919
0.0669907
0.210108
0.0311074
-4.50675e-06
-0.0134307
-6.65081e-05
0.0174374
0.00315432
-0.0259246
-0.000234453
-0.00485512
-0.0135472
0.0102942
-0.0353657
-3.34599e-06
0.00057393
-3.55634e-05
2.24261e-05
0.0210625
-1.36935e-14
-0.0446932
0.00236648
0.0817035
0.00678011
-0.123737
0.00377725
0.0676112
-0.057167
-0.0182401
-0.0374849
0.0889954
1.29016e-13
-0.000139331
0.00226866
-0.00518735
0.131439
-1.10573e-09
-7.74076e-11
-0.00559765
-1.11404e-15
-3.28071e-06
-0.0201778
-0.0189566
-0.00206047
0.00758285
2.77332e-05
0.013092
0.00278259
-0.344588
8.27632e-05
-0.0137651
0.00230689
0.0118555
-1.64613e-06
0.00643131
-7.05128e-08
-5.54642e-06
-8.89318e-323
0.104417
0.0542348
0.0733826
-2.08699e-05
-0.176807
1.31421e-321
0.0669056
0.00339526
0.000831907
0.00027827
-0.0515873
0.0305868
-9.84554e-05
0.026532
-0.0816966
0.0723978
0.0432386
-2.10421e-05
0.0350746
0.00118025
0.213709
0.00345919
-0.0471222
0.000831907
0.0533412
-3.58448e-10
0.0424863
0.000831907
0.0116089
0.0167901
0.00991039
0.00120756
0.393158
-0.000213459
0.0698452
0.0449959
-0.0763422
-0.080632
0.00991039
0.0378231
0.04289
0.109976
-0.020883
0.0553118
0.0171704
0.0351527
0.0211573
-0.0819017
-4.50675e-06
0.260109
0.000131784
0.0458896
-0.0596642
-0.000177612
0.0590317
-0.0857514
7.81761e-20
-0.147633
-3.99904e-83
-0.0633737
0.0826874
-0.100643
0.0174145
-6.65081e-05
-0.0313851
0.000234248
0.082385
-0.0563461
-1.23244e-07
-0.00106746
1.33398e-321
0.00379606
0
0.0215971
0.0234007
7.86544e-06
-0.00529114
0.00444823
-7.05128e-08
0.015243
0.0285819
0.127527
0.289381
0.155933
-0.0159416
0.167373
0.000427315
0.00345919
0.0266057
-0.0883927
0.00278266
-0.0365765
0.0326207
0.139114
-0.0197475
0.148352
-0.00022448
-0.0479349
-0.000303118
0.0702783
-0.000348366
-1.36935e-14
0.0215971
7.52643e-182
0.00057393
0.00976682
-0.119181
1.72033e-06
0.0984201
0.00057393
1.38247e-05
0.00377725
0.00197196
0.0576762
0.00336007
-0.0302799
-0.0241492
0.00057393
-0.0556728
-0.0219066
0.0526113
-0.0554989
-0.0502093
-0.179497
-0.0761662
0.0270477
0.000624809
-0.0298782
-0.000213459
0.0682035
0.0695378
-0.0147298
-7.05128e-08
3.21401e-05
-0.0288642
-0.0385927
-0.115481
3.45389e-08
-1.11404e-15
0.060391
-0.0588202
0.0110865
0.0534777
0.0864898
0.00516992
3.45389e-08
-0.0146839
0.00377725
0.0419738
0.00057393
-7.53747e-06
0.0407069
-0.0604192
-0.000192245
0
-2.20717e-06
-0.205709
-0.0812122
-0.0282286
-0.0757237
-2.3986e-05
0.0211871
-0.0109302
0.0222741
0.00707189
-0.0291795
0.081631
0.0116089
-0.0176455
0.0594655
-0.0410497
-5.59723e-16
0.00860461
-0.0902725
0.00484412
0.087042
0.0490064
0.0541689
0.130696
0.00057393
-0.000149317
0.00932958
-9.00754e-05
0.0274207
0.015579
0.0392597
1.31421e-321
-0.0358656
-0.0263475
-0.0815731
0.005906
-0.00583196
0.0676024
0.00345919
-0.113729
-1.62054e-84
0.012695
-6.03143e-06
0.0616391
-0.0287608
-0.00391222
6.24856e-05
0.00446959
0.00707189
-0.191505
0.0128199
-0.0122019
0.00345919
0.0349194
0.0520253
0.0330094
-0.509069
-1.30433e-321
-0.0785767
1.35868e-321
-1.90266e-05
0.00057393
-0.059417
0.0313715
0.0175105
0.0902894
-3.34923e-05
0.182499
0.00667597
-0.226567
-0.0486115
0.0207829
-7.52957e-10
0.000331716
0.015579
6.57989e-05
0.165438
0.00016991
3.15084e-06
0.00158247
3.64075e-78
-0.0159965
0.00718684
0.100168
0.0837979
0.0840185
-0.046901
0.00345919
-4.40927e-06
-0.0865696
0.0450495
0.055817
-0.149707
-0.0388553
-4.50675e-06
0
0.0251978
-0.00653712
-7.11739e-08
1.54919e-06
0.0251978
-0.000653068
-8.90259e-06
0.182208
-0.0653897
0.175077
0.0819477
-1.03108e-07
-0.0575648
0.0805828
6.57989e-05
-0.0116205
0.000232739
3.64075e-78
-0.0460234
0.295195
-0.000231816
3.42814e-05
-0.0414894
0.000849109
-4.4693e-12
0.0251978
0.432397
-1.17588e-321
0.665125
-0.153889
-0.147725
-9.84877e-05
-6.89079e-05
0.0260262
0.000234248
0.0313717
0.0143226
0.0023342
-7.56912e-07
0.0254321
0.0253879
0.1133
0.000549065
-0.00739548
0.233341
-0.00525388
0.0115403
0.028582
-0.127236
0.000849109
-0.0385527
-4.16539e-05
-1.03813e-06
-0.0623349
-0.0893739
-5.99459e-05
-0.0724692
-0.00846162
0.0557513
1.26355e-146
-1.47136e-27
0.0329535
0.00972027
-0.093945
0.0980561
0.0178895
-0.0113093
0
-0.00770814
-8.26183e-10
0.0306299
-1.3651e-05
0.107338
0.0315487
-0.0649761
-0.000344086
3.77642e-06
-0.119585
-6.71232e-07
0.0110865
6.57989e-05
-0.191704
-0.000193438
0.00345919
-0.0249221
-0.000327956
0.0110863
-0.00938005
0.127752
-2.86711e-14
-0.0501435
0.0330279
0.00532043
-0.00147949
0.00586856
0.0141402
-0.00380671
0.0230961
-2.27735e-174
-0.0156517
0.00345919
0.112248
0.00317449
0.0701079
-5.76026e-14
0.0989312
-0.11997
0
0.0270545
0.00242828
-2.27735e-174
-0.188557
-0.0917603
-0.0287608
-1.11606e-05
0.0483051
0.0277935
4.06192e-05
-0.0073549
-2.27735e-174
-1.21316e-06
0.189753
-4.18518e-12
-0.398762
-0.0546527
0.0621292
-0.0146748
-1.30564e-72
-0.0588401
0.0155892
-0.0282286
-0.0505423
2.01766e-192
0.0615086
-0.000110666
-8.59674e-322
0.0110996
0.0324645
1.24779e-05
-0.0457406
0.0541923
-0.103355
0.0175105
0.0556455
-0.0570502
0.250145
0.000202424
0.0122686
0.003587
-1.6844e-08
-0.000234453
-0.0175069
0.00057393
-0.0809033
0.0339597
-2.3986e-05
0.0179174
-0.0505423
-0.478471
-0.0298782
-0.000100558
-0.00031174
-0.0156866
0.023819
0.00460551
-0.0287283
-0.00829688
0.229027
-0.00372541
0.00057393
0.117324
0.00412246
-0.000100556
0.00345919
-0.0612168
0.0785412
-0.011436
-4.50675e-06
3.64075e-78
0.0283867
0.000331716
3.15949e-09
-6.71232e-07
0.000523882
0.309106
-0.0109302
-0.113184
-6.65081e-05
0.0305868
-0.048273
-1.00426e-08
-0.045225
-0.0400967
-1.41843e-08
0.129878
0.189561
-0.0287335
-0.0864293
0.00057393
0.0110865
-0.242336
-1.96286e-172
-0.000371266
6.68378e-05
0.0822929
-0.0755179
0.20589
0.20589
0.139256
-0.0765117
0.187825
1.38247e-05
0.140899
-0.291296
0.00057393
0.0141402
0.0130584
0.00057393
0.000831907
-0.021126
-0.000112369
0.00911393
-1.95951e-07
0.00158247
-0.0318792
0
-0.347602
-0.0364418
-0.0985124
1.35868e-321
-0.0321424
-0.0810731
0.000337849
0.09817
-1.17535e-07
-0.125449
-0.0120701
0.0549848
0.00345919
-0.00380262
-0.282203
-6.65081e-05
0.118352
0.00057393
0.0223297
-0.0442498
-6.81842e-06
0.27524
-8.89692e-05
-1.45135e-08
-1.39078e-05
0.108859
0.0742062
-0.00331493
0.162182
0.110459
1.29016e-13
0
-0.221728
-1.51803e-85
0.224169
-0.0175069
0.0613124
0
-0.200522
-0.0548567
0.000158263
-0.0261489
1.26355e-146
0.474201
-0.0777886
0.144495
-2.46085e-06
-2.91173e-05
-0.0228562
-8.11409e-05
0.0793561
-0.00704429
-6.73242e-06
-3.63955e-05
6.57237e-08
0.185696
3.64075e-78
0.0060266
1.29016e-13
0.0220065
0.00949909
0.0292197
0.0325252
-2.27735e-174
-1.23647e-07
0.000217035
-4.71447e-11
-0.00331417
0.00057393
0.0533412
0.0319788
0.000117287
0
-0.0057427
3.7609e-05
-0.000315404
-0.0147954
0.0292195
0.00110062
0.0513664
0.0228177
-3.76249e-05
0.0811905
-4.12836e-09
0.120301
-0.0458044
-0.0502026
-0.133936
-0.0155749
-0.069965
-1.36856e-321
0.100415
2.25682e-191
4.06192e-05
0.0153823
0.0523148
0.0406912
4.56606e-05
0.041853
-2.17158e-05
-0.0776464
-0.0373754
0
0.00377725
-0.171789
0.0254321
-0.0327579
-0.000149534
1.26355e-146
-0.0471956
0.112302
-0.0954399
1.50134e-05
-0.0929887
-0.0215535
0.00349643
-1.37803e-05
0.197783
-8.21398e-11
2.84579e-05
0.0145645
-0.033353
-0.0750793
0.0173244
-0.0268918
0.0118555
-0.116639
0.000251779
-0.0365764
0.00057393
0.00652482
-0.0555544
-2.27735e-174
0.0985077
0.0221399
0.0589011
0.0240104
-0.0787672
-0.0459938
0.00057393
0.0807892
0.050071
-0.00948986
-2.27735e-174
0.000490043
0.000329509
-0.0324708
0.000580721
0.12208
0.150661
-1.0771e-10
0.00653232
0.0118555
0.132145
-0.0495011
0.0853164
0.0181716
0.0285819
-0.0129238
-0.121837
0.130007
7.36578e-08
2.25682e-191
-0.0777349
0.000251779
0.0376858
-0.104892
0.00230321
-1.08694e-321
0.00365557
-1.67022e-10
0.030309
0.0714952
0.000234248
-3.28836e-06
0.107605
1.91954e-05
-0.0210607
0.0285889
-0.0298782
-0.00031174
-0.0127767
-0.0694833
0.145227
0.0882199
-1.23244e-07
0.0351527
-0.00607482
-0.00819882
-0.0848417
0.0116882
0.0155357
-0.0418419
-0.000185334
0.197032
-1.47136e-27
0.00142002
-0.00443978
0.0758724
0
-0.0107075
-3.99904e-83
0.121508
0.00277845
0.039888
-1.17588e-321
0.0110865
0.00057393
-0.0470124
0.000549065
0.0221399
0.00962663
-0.231835
0.00150399
0.00345919
0.0796711
0.0389015
-0.00195214
-0.0300525
0.0169825
0.0657527
-1.36935e-14
0.0351246
0.0822881
0.00707168
0.108176
0
0.0359986
-0.0122019
0.0147287
0.015579
0.0916251
-0.0156517
-1.30675e-05
-0.0298782
0.0141822
0.0142652
0.00307734
-0.0908987
0.236082
-0.0335855
-0.0296563
0.158737
0.000187296
-0.000262665
0.0237438
0.0400945
0.10657
0.000232739
0.0186559
-0.000367456
-1.30564e-72
0.0397488
-1.47136e-27
0.0634037
0
-0.00176408
0.0426997
0.0733476
-9.95439e-07
-5.34827e-06
0.0448406
-0.0314372
-0.0654973
0.000654289
0.0160505
-0.031198
-0.310566
-0.0710877
0.0215971
0.00345919
0.0574285
-0.00247651
-0.125027
-0.0194594
-0.0913327
0.00152243
-1.23647e-07
0.0371922
-0.0287283
0.000831907
0.0450495
-0.00652919
0.0209291
0.000413092
-0.0555544
0.0754267
-3.49269e-09
0.130949
-1.62054e-84
-9.00754e-05
-0.0894209
0.0231041
0.00232721
-8.21398e-11
-0.00886516
0.006292
-0.0341964
0.000127034
0.00057393
-0.0207181
-0.0387373
-2.72053e-06
0
0.0901196
0.0321323
-0.0866366
-0.0722102
-0.0284441
-0.104263
0.404549
-0.122621
0.155588
0.0809145
-2.05085e-05
-0.00378457
0.0285819
1.29016e-13
-0.010706
-1.96286e-172
-0.0073549
0.0353648
0.0256841
-0.000114943
-0.0564231
0
-0.00475679
-0.00843127
-3.58448e-10
1.91954e-05
0.000849109
-0.000156682
0
-0.00572418
-0.0453253
-0.0109302
0.078274
0.0110865
-1.9084e-05
-0.0109302
0.0451247
0.00451933
1.31421e-321
0.0215971
-0.0263395
0.000102571
0.0674423
0.00031154
-0.0290253
-5.34827e-06
0.000549065
0.000573648
-0.0997745
-0.000161373
0.0646088
0.258224
0.037409
0.0128199
-0.000220131
0.0141048
0.00803528
0.00803528
-7.64829e-05
0.00991039
0
0.0867138
-0.0365764
-5.97936e-05
6.68378e-05
0.00197432
0.0213473
-7.05831e-06
-0.0029806
-0.000523621
-0.312062
0.00345919
-7.60329e-06
0.0407245
-0.0200596
0.000333308
-0.022284
-0.00948986
-0.0283852
0.00969088
-0.157211
-1.90225e-05
0.0342412
0.00057393
-1.30675e-05
-0.144654
-0.11563
-8.21398e-11
-0.0149685
-1.41843e-08
-0.0171946
-0.106941
-0.000114246
0.0647419
0.00650034
0.0681327
-0.132683
-0.029271
-0.0160844
0.226008
-0.0209974
0.00057393
0.0259532
-0.0132094
0.0242243
0.096912
0.00057393
0.0322627
0.00344427
-0.0324214
0.121508
-3.38643e-06
-0.0025012
-1.22222e-05
0.0293842
-7.56557e-07
-0.0563691
0.00057393
0.000322669
-9.28843e-322
0.00057393
-0.0335855
0.0820715
-6.90023e-05
0.0330736
-0.0791306
0.00031154
-0.000270893
-9.25454e-84
0
0.000176388
-0.123604
0.0934329
-0.00740777
0
-0.0261489
1.29016e-13
0
-2.16701e-06
-0.0294147
0
-0.0595565
1.38247e-05
0.0118555
0.00057393
0.0276152
0
-0.122992
-0.191337
0.0183628
-0.112385
-0.011511
-7.05128e-08
0.232781
0.0681327
-0.0948527
0.000549065
-0.0175069
0.000232739
0.0397186
0.109062
1.40659e-181
0.045661
0.00684318
-0.0518899
-6.34292e-09
0.137281
-3.14595e-83
-0.181995
0.141924
-0.0622952
-0.0495765
0.0989043
1.98477e-07
0.00949632
-0.0640552
0.000234248
0.129173
-0.143027
0.00345919
-1.6526e-05
0.0763598
0.0625358
-0.0572001
-0.0245229
0.0110865
-0.0241175
-0.002962
-1.64613e-06
-1.02766e-321
0.00092506
-0.0515661
0.123106
0.0533725
-0.0505423
0.00057393
0.0130584
-0.0859123
-0.00619737
0.0277683
2.29741e-321
0.0559147
-1.41843e-08
0.0197821
8.83527e-05
-3.14595e-83
0.000831907
-1.96286e-172
-0.025005
0.196402
-4.71447e-11
-0.0397479
0.0169809
0.00126493
-2.14594e-07
3.62794e-06
0.00389962
-2.27735e-174
-6.89079e-05
0.0210754
0.0797351
-0.0394818
7.24326e-08
-3.57507e-06
0.0178982
0.00803528
-0.112385
6.57989e-05
-0.000344086
-0.000325842
0.00057393
0.0110865
0.0151027
0
0.456457
0.00552354
-0.0171946
0.129801
0.000370065
0.0215971
0.275356
-0.0633328
-0.036691
0.0177767
0.034548
0.0547483
-0.0489272
0.000213543
0.0878363
-8.21398e-11
-0.119002
0
0.0117986
-0.0572082
0.0207829
0.269604
6.57989e-05
0.052288
0.126124
-0.0869789
0.0938147
0.00057393
-0.0620291
-0.103348
-0.0299581
0.0397488
1.35868e-321
-0.0145469
-1.22222e-05
0.117805
-0.0513074
-0.0252953
-1.41843e-08
0.0460035
0.0481619
0.0533412
-0.069472
0.012587
0.0237438
0.0110865
0.014024
-0.00620928
0.0501385
-4.68136e-11
-0.0677811
0.252673
0.00707189
0.288439
0.0110865
0.0211573
-8.41467e-12
0.0277683
2.91223e-08
-7.83234e-05
-1.33149e-05
0.045122
-0.0749163
-0.000130163
0.0868911
0.123809
0.0588895
0.0143226
0.000573652
0.0215971
0.00057393
-0.0776813
0.000549065
6.57989e-05
-0.0531261
-0.0298782
0.0493092
0.0183368
-0.000156682
-0.0131289
0.0733476
7.81761e-20
0.00648732
-0.0578552
-0.147504
-0.023701
-0.0298782
0.0388004
-0.0291795
0.0634037
0.0118555
0.066614
-0.0327828
0.00246399
-0.05237
-0.0349377
0.000387825
-1.11404e-15
0.0110865
-1.62054e-84
-0.0210607
0.125121
0.157991
-0.00323945
0.0141402
0.00031154
-0.000293248
-0.128332
-0.0014747
0.153682
0.0174681
-1.28049e-05
-0.00844656
-0.0357146
0.00057393
-2.93937e-05
-0.000100556
-0.00572418
0.0549848
-0.0607747
0.0789233
-9.63212e-09
-0.0378244
0.0237438
0.000369841
0.100917
0.0648786
-1.51803e-85
6.57989e-05
3.64075e-78
-0.0259377
0.00643575
0.0230955
0.0278761
-0.000149534
0.00277845
-0.0647619
-0.127906
0.140898
-0.0287283
-0.0313675
-1.37803e-05
-6.71232e-07
-0.0021208
-1.51803e-85
-1.30675e-05
-2.27735e-174
-0.0499611
0
0.0187213
0.0178982
0.0433008
0.0351527
0.0165278
-0.0298784
-0.0317729
1.29016e-13
0.0877439
0.00057393
0.00111947
-6.65081e-05
-0.00711206
-0.0703238
7.26689e-07
-0.000149534
0.0449643
-0.0109967
-0.105777
0.146622
-0.122831
1.72033e-06
-1.90225e-05
-0.00653712
0.0491138
-0.0149685
-0.0109302
-0.00846162
0.0219066
0.0522857
-3.90536e-08
0.000867643
0.00563772
-0.0665636
-0.289537
-1.22359e-07
0.126083
0.00692114
6.57989e-05
-0.0777349
-0.00013434
0.05566
-0.0641795
0.00278266
-0.0665684
-0.000177612
-3.04564e-06
6.2174e-05
0.00482366
0.0758666
0
-1.80929e-06
0.0392602
0.0461329
-0.000100556
-0.103394
-0.000237258
-0.0014747
0
-0.000153938
-6.59283e-10
-4.85859e-05
0.11225
0.0433008
-1.90225e-05
0.0530348
0
0.0215971
-2.27735e-174
-0.0387546
0.00377725
0.122178
0.0541296
1.26355e-146
-0.0261489
0.192443
-9.95439e-07
-7.05128e-08
0.00884216
0.0214819
0.0730803
0.0237058
0.11362
-0.0191072
-0.0223022
0.100732
0.000291021
0.266718
-0.000177612
-8.41467e-12
-6.71232e-07
0.0187013
0.0477669
0.00548582
0
0.0118555
0.0124703
-0.104537
0.000251779
-0.00180574
-0.102605
0.0756626
-0.0123924
-0.0187271
-9.94208e-07
-0.069562
0.0351158
0.000331716
-1.47136e-27
0.0760287
-0.0808605
-0.0201878
0.0321205
-1.62054e-84
0.0154759
0.127645
-6.65081e-05
-0.246864
0
0
-0.000100556
0.00896578
0.0317753
0.00803528
0.0143226
-0.0810727
-1.03108e-07
-6.69926e-08
0.00795638
0.064642
0.00949632
-0.0735341
0.0110996
-0.0800673
0.0770632
-0.0232565
0.0402807
0.000232739
0.0174145
-0.000268354
-0.0100894
-0.0751986
-0.275337
-0.0501222
-0.069472
0.0392471
-0.0414894
-0.00373598
0.0243541
-0.0431507
0.0265928
-0.0073549
0.0990254
-1.19664e-07
-0.0287608
-0.0643993
0.0293842
0.179208
0.0296623
-0.000177612
-1.30675e-05
0.000862441
-0.0288289
0
-0.0131289
-7.56912e-07
0.00268198
-0.0976551
0.000826933
0.0438965
1.61585e-09
-0.414146
0.0116237
-1.1505e-06
0.023179
-0.133039
0.0860928
-0.00423428
0.000690875
-0.0565747
-7.56912e-07
-0.0162613
-0.00619737
-0.0579721
0.00345919
-0.0862701
0.00180328
-0.0998849
-0.0330462
-0.0553125
-0.0515475
0.106976
0.00297488
0.0937455
0.0215971
-1.52172e-321
0.00434643
-0.0547072
-0.385298
-0.127889
0.0359986
0.225048
0.0125179
-0.0549489
-3.28071e-06
-0.0637072
-0.07646
0.108852
0.0190034
-0.0497669
1.31421e-321
0.124326
-0.00634538
-0.0618692
-1.64613e-06
-0.00628382
0.00057393
0.0183592
-4.6813e-11
-5.59705e-06
-1.37803e-05
-5.20275e-08
0.000549065
0.0672613
-0.0787527
0.00151618
0.00345919
-0.0260591
-0.0865696
-0.0258726
-0.0814271
-0.0595342
-1.47136e-27
0.055054
-0.0207506
-1.83021e-07
-0.025005
-6.65081e-05
0.000436793
8.51231e-140
0.0496745
-0.0231452
-0.000149534
-0.127779
1.29016e-13
-0.00115567
0.00462203
-0.000106727
-0.000718624
-0.000203509
-0.0838526
-0.0222958
0.000831907
-1.0966e-06
0.0723978
0.0398774
-0.00932591
-0.0265823
-0.0130356
-4.85859e-05
0.108248
0.0801882
0.0822674
-3.57507e-06
-0.0156408
-3.61034e-07
0.0098279
6.57989e-05
-1.41843e-08
0.000699583
-0.0282286
-0.0342162
0.00016991
0.00057393
-0.12485
0.00377725
0.0153765
-0.0505423
0.07636
0.00813963
-1.28457e-321
-0.0241492
-0.0514188
-0.0276823
-0.0380184
-0.053227
0.0110832
8.83527e-05
-0.0372315
0.0276143
-1.03813e-06
0.00377725
-0.0873166
0.0413556
1.38247e-05
-0.133045
0.045661
-0.0124497
-0.0265823
-0.0450614
0.211512
0.00609324
-0.00380671
0.00652482
-6.65081e-05
0.259808
0.0325084
-1.49702e-07
-0.0361627
-0.0655273
-0.00233344
-3.04564e-06
-0.0327225
-0.111483
-0.0437176
0.0213473
-0.0397842
0.00057393
-0.0109302
-3.90536e-08
-0.0296388
0.0397488
0.0258976
-0.16723
-1.26882e-05
-0.0850439
-2.20717e-06
0
-0.0120814
0.00707189
0.0558424
-0.0269951
0.0555998
-7.56912e-07
0.00889278
0.00276875
-0.0741591
-1.64613e-06
-0.056104
0.0520456
-5.59723e-16
0.00552354
0.108107
0.0650506
-0.0175069
-9.28843e-322
0.0252633
0.000614864
0.0600505
-0.000100556
0.110113
-0.00970342
-8.26183e-10
0.000831907
-0.122533
-0.0211323
-1.47136e-27
0.0141822
-0.110847
-0.0463765
-7.83234e-05
-8.55243e-11
-0.00022448
7.36578e-08
-0.0291795
-0.000653068
0.00503929
-0.0236087
0.00057393
-9.36449e-09
0.0431952
-4.94775e-07
-0.00018361
0.00345919
-0.000185334
0.00268693
0.00345919
0.103477
0.1389
0.000291021
-0.0238851
0
0.115866
-0.0235461
-5.99459e-05
-2.72053e-06
-0.0170839
0
1.33398e-321
-0.0268641
0.079696
-6.69926e-08
-0.0132667
-1.93377e-08
-0.0499611
0.000300826
-0.0361625
-0.0122019
0.044875
0.00399042
0.000251779
0.113803
1.69925e-05
-0.0523748
0.00347587
0.00222859
0.0510218
-0.0414894
0
-0.0684166
1.26355e-146
0.00949909
-0.0244288
-0.0735341
0.0637573
-0.0835362
0.00150399
-0.0273048
0.0723978
0.00345934
0.109614
-0.118386
0.162062
0
9.20534e-05
-4.12823e-09
-0.0815328
0.0468144
-0.0568466
-0.0394762
0.0118555
-3.14595e-83
0.0211573
0.0316068
-0.0587203
0.00307688
0.0122823
0.00660062
0.00889278
0.0348972
-0.00746508
-0.000175368
0.0891016
0.00911393
0.0193564
-1.36856e-321
-0.0109967
-0.0535024
0.00624913
0.0548864
-1.41843e-08
-0.000174688
-3.48707e-05
-0.099336
0.0212937
0.0758666
0.0180778
0.0725297
-0.0487966
-0.0138767
-0.0175675
0.0143158
0.0298267
0.0118555
-0.160562
-0.00380671
0.0107676
-0.143787
1.7958e-07
-0.000149534
0.00119506
-2.81786e-05
-0.000161373
0.00193172
0.00135224
0.0758666
0.000831907
0.0320983
-0.0865019
0.120723
0.0841588
0.00410897
-0.0444323
0.083692
0.00377561
-4.85289e-05
0.0450495
-0.0737638
-0.0394701
-0.0661434
0.0110865
-4.12836e-09
0.0733476
-0.0292973
0.00972027
0.0406912
-0.0410998
-2.39942e-05
-8.55243e-11
-1.01085e-10
0.000549065
-0.0133755
0.00345919
0.246941
0.141924
0.00744443
-0.0414894
-0.00555597
-0.0154492
-0.0300284
-0.0274071
0.0512152
-6.50906e-06
-0.0558465
-0.0122019
0.0989129
-0.0267721
-4.4693e-12
-1.19664e-07
0.00968325
0
0.0372
0.0293674
-0.000387062
0.065804
-0.0418582
-1.62054e-84
-0.0296563
-0.0414894
0
-0.00395015
0.0236229
-0.00594378
0.0687157
0.0773763
0.000215225
0.0202066
-0.0327121
0.0312519
1.31421e-321
-0.0250039
0.0110865
0.0286171
-6.97659e-06
0.020643
-0.0327753
0.0380207
0.222277
-1.33149e-05
0.0950531
0.00548701
-2.28444e-07
-0.0318087
-3.8388e-06
-8.86593e-07
-0.0813491
1.7958e-07
-0.00542906
0.00432632
9.25746e-05
-4.57732e-10
-0.0724692
-2.3986e-05
-3.90536e-08
-0.000114246
-6.90023e-05
0.0215971
-2.33016e-07
0.0363457
-4.16539e-05
-0.0415765
0.0321323
0.0576192
-0.00948993
-0.108424
0.0345479
-0.12186
0.030247
0.0254321
-0.0779113
-4.18518e-12
0.0351544
-0.156946
-0.0003032
-0.0292708
0
0.0155592
0.034464
0.00662034
-7.05128e-08
0.14535
-0.0101959
0.0125179
-0.0114575
0.00057393
0.00242829
-0.00992165
-0.000213459
0.0107682
0
1.14129e-321
0.301912
-0.0122019
0.121162
-0.00606164
-0.00022448
-0.0505423
0.109649
-0.0789419
0.247529
0.0118555
0.000234248
0.0451766
6.57989e-05
-1.62054e-84
-7.56912e-07
0.0320967
1.02766e-321
0.0124264
0.00110071
0.00529445
0.164672
0.00031154
-1.87678e-06
0.0305868
0.00450491
-0.0610227
0.020722
0.0619467
-0.114734
-0.0385927
-0.0269891
-4.57732e-10
0.00193172
6.57989e-05
0.0213473
0.229797
-0.0733292
3.64075e-78
0.0563711
0.00297488
0.0401069
1.31421e-321
-1.47136e-27
0.147794
0.0173244
-0.0625398
0.015579
0.000860486
0.000127035
0.0780134
0
-0.0446137
-0.0494026
-0.00012265
0.00956489
-0.0785932
0.0406912
0.146191
-0.245663
0.0258976
0.0321205
-4.18518e-12
-7.11739e-08
-0.168255
-0.000347134
0.0280289
-3.68998e-10
0
-0.113567
0.0589894
-0.0505423
-4.16929e-05
0.0150745
-0.0437242
-0.0595931
9.53658e-05
0.0397488
0.111172
0.0115321
-0.110387
-0.069667
-6.69926e-08
-0.0777349
-0.0172293
0.113865
8.17305e-05
0.00114477
0.0358993
-0.0614285
0.0963536
0.0314189
7.81761e-20
0.00624913
0.0527994
-0.0431507
-0.0190529
-0.0314714
-0.0261297
0.0444374
1.29016e-13
0.183014
1.29016e-13
0.00057393
-0.0383005
0.0487095
0.174087
0.0493092
-0.0267721
-4.35927e-15
0.0531
0.0221454
-0.0213201
0.0251141
-5.20275e-08
-8.30015e-15
-0.0394684
-0.0431507
0.0272056
0.0398774
0.0257335
-0.0317166
-0.214021
0.0110865
0.0471457
0.0351544
-0.0787527
0
-0.0754843
-0.0969063
0.000905646
4.43552e-05
0.0567498
0.027369
-0.0351149
-0.132923
0.0334649
-0.00572418
7.81761e-20
-0.0326986
0
0.0550541
0.128585
-6.59283e-10
-0.000280793
-0.0495765
-0.0156517
-3.28071e-06
-4.79244e-322
-0.0213597
6.57989e-05
-0.018749
-0.1633
-0.0387373
-0.0122019
-4.12836e-09
-0.00926031
-0.0241492
-0.000262665
-0.0621568
-4.57732e-10
0.0387985
-1.24505e-321
-1.38544e-05
0.00058636
0.0107835
0.0652186
0.0566138
1.15923e-06
-0.0885608
0
0.0245301
-0.0639219
0.0169644
0.0311851
0.00341747
0.00105007
-0.000161642
0.00194763
0.0762437
0.0118555
-0.0250897
0.0230955
-3.99904e-83
4.06192e-05
0.0872326
-9.00754e-05
-2.27735e-174
0.00155693
0.064718
0.13693
0.00624913
-0.0969183
0.0173244
0.0552921
-1.45135e-08
-0.153602
-1.83021e-07
-0.00844656
-7.52957e-10
-0.0460389
-3.03454e-05
-1.17535e-07
0.0237438
0.0564392
-0.0767064
0.000471589
-3.55634e-05
-4.57732e-10
-2.93937e-05
-0.000149534
-0.0482645
0.146622
0.0491172
0.0118555
0.0203846
-0.0195121
0.00230689
0.0359086
0.0787131
-0.00373598
-0.0533619
0.0471075
-0.054657
0.0728759
-0.0122019
0.0118555
-0.00072197
0.0733476
0.246745
0.000232739
-0.00713696
-0.00468549
-2.83307e-09
0.0424384
0.0279179
0.00373786
1.36311e-06
-6.97659e-06
0.0830503
-0.0380813
0
0.0535258
0.035188
-0.00772986
0.00672426
-0.0658304
-0.00981112
0.0600596
-0.12485
0
0.0753215
3.68716e-05
-0.0159341
-0.0312634
0.000549065
-0.0574864
0.0911831
-2.66511e-08
0.15299
-0.0607074
-0.0589741
-0.0992806
0.0670729
0.00050714
-1.47136e-27
-9.28843e-322
0.00949909
-0.0517969
-0.0165465
0.00057393
-0.00534654
0.0350746
6.71786e-06
-0.000114186
0.035188
0.00057393
-0.120432
-9.83064e-05
-0.0813196
-0.0051989
-3.28705e-06
-8.26183e-10
0.080235
0.0688164
-2.14594e-07
0.0515486
-0.0215153
-0.000213459
-0.0459695
-0.0768233
-0.0188852
-0.0282286
0.0503946
-6.65081e-05
0.000134074
0.0238896
0.000234248
-0.0397869
0.0550483
0.11265
0.00392757
-1.96286e-172
0.00652482
0.0167901
-0.00141089
-2.10421e-05
-5.20275e-08
-0.0018523
-0.0148619
-1.98471e-05
0.00446959
-6.97659e-06
0.0049545
0.010956
-0.000149383
0.0491172
0.069276
-0.0227231
0.0285819
0.0820042
0.0141869
-0.0444113
-0.00760665
0.0143226
0
-0.0122513
0.0207829
-0.0341734
-2.3986e-05
-0.0289098
-0.00331306
-0.00977986
0.00548582
-0.0215483
0.0215971
-4.43855e-06
-0.0300284
0.0246144
0.0583844
0.0118555
0.0583844
0.186402
0
-0.0132053
0.0882942
-0.0495765
0.126617
4.44659e-323
0
0.167184
0.00057393
-0.00607482
4.10074e-322
-0.0694778
9.53658e-05
0.00548582
0.0173244
0.0006416
-1.51803e-85
0.0363048
1.40659e-181
-1.90378e-11
-0.00948986
-0.00485512
-0.153872
0.020643
0.000289451
-0.0165542
-3.7193e-07
-0.0506113
0.0816613
0.0273163
1.27535e-167
0.00126357
0.386393
-0.0504619
-0.235426
0.00969088
4.74196e-05
0.000134799
-9.94208e-07
0.0460847
-0.0116855
0.0115597
0.156887
-0.0138173
0.139769
-4.91891e-12
-3.34599e-06
-0.0518151
0.0224758
0.00057393
-0.162429
-4.60522e-06
-2.51697e-06
0.00344743
0.0443276
0.000176365
-0.00834916
-0.0756915
0.0321205
-0.00801129
0
0.0111757
0.0386254
1.91954e-05
-0.0406726
0.117289
0.031212
6.57989e-05
0.00462203
0.0179096
-0.00759745
-0.0721799
0.00197432
-0.000132979
-1.8715e-07
-1.30675e-05
0.0118555
0.0555373
-9.43665e-322
-0.0270744
0.000654289
0.122821
0.0375604
0.0238155
-0.268631
-0.0997956
-6.30019e-06
-2.27735e-174
-0.038772
0.0117527
0.000234248
-0.00296328
-0.0777349
0
0.00377725
0.0315627
0.0310614
-6.10339e-07
0.0500561
0.0219792
-0.110461
0.0545797
0.00232721
0.00057393
0
-7.05128e-08
-0.0194602
0.0107682
0.00359192
2.01766e-192
-0.000367441
0.0218908
-1.03108e-07
-1.95951e-07
-2.10421e-05
0.128957
-0.0505423
0.0726027
-0.0287608
-0.00527216
-6.90023e-05
0.00253508
6.57989e-05
0.00446959
0.000232739
-4.47222e-06
-0.0148619
-7.52957e-10
-5.06373e-08
0.0874434
-0.0750679
0.0576792
0.0148295
-0.0693167
-0.0807052
-7.52957e-10
0.0364768
-0.126844
0.000374411
0.0726068
-0.0722794
-3.16679e-06
-2.86711e-14
-7.05985e-05
-0.147813
0.0130584
0.0313715
-0.000231816
-1.10016e-09
0
-0.182809
0
0
0.0190236
-8.04043e-12
-0.000213459
3.7609e-05
-0.103355
-0.0160844
-0.0413487
-0.0236087
-0.0171774
5.24841e-05
-0.0960993
-0.0196266
0.0412015
0.142762
0.0634037
0
-1.90225e-05
-3.57507e-06
0.0113085
0.0211573
0
-0.0789419
-0.122928
0.0723874
0.0542563
0.0321205
-0.0321741
-0.0187271
-0.139464
0.0215971
-0.000149534
0.00377728
0.0600909
-3.39597e-05
0.00580252
-4.12836e-09
0.0623746
0.031249
-0.0248699
-0.0209974
-9.95439e-07
-3.68998e-10
0.000549065
-0.0472652
-0.0299581
-0.0737247
0.0351544
-0.0284821
-2.83307e-09
7.36578e-08
-0.112951
-1.83021e-07
0.169273
-0.0394701
-0.0287287
0.0312841
4.80368e-06
0.0915277
0.0022286
0.0143226
-0.115835
-0.000241789
0.000907884
0.13648
-1.3651e-05
0.132235
0.00326518
0.000178577
0.206903
0.025713
-1.47136e-27
1.56511e-05
0.0183592
0.0118555
0.0531582
0.0433008
0.000109196
-0.0793639
0.0451766
0.000234248
0.0821052
-0.0182559
-0.0131289
0.13419
-0.0416833
-0.0641795
-0.047878
-0.186472
-3.61034e-07
8.29475e-183
-0.0290662
-1.32096e-05
-0.139211
0.0173244
-0.0727219
0.0292169
0.279752
-0.223477
-1.51803e-85
0.0556078
-0.0545057
-0.00911712
-2.86711e-14
-2.16701e-06
0.0139553
-1.90225e-05
-0.0997956
0.0935483
8.69556e-322
0.0464811
0.0958647
-0.139703
-0.0269439
0.0110865
-0.0180509
-0.000177615
-0.0773692
0.0534777
0.0026479
-9.28843e-322
-7.52957e-10
0.000109196
0.0202066
-2.27735e-174
0.107817
-0.000234453
0.0634988
0
-0.10897
-0.00378457
-7.56912e-07
-0.0147168
-6.65081e-05
-0.143178
0.171193
-0.0387546
0
0.00446959
0.00606216
-0.00129282
0.0707208
-0.000213459
0.000232739
-0.0726061
-2.27735e-174
0.0622953
-3.39597e-05
-0.209702
-0.0865696
-0.0365764
-9.36449e-09
-0.118311
0.0580203
0.00606216
0.0550541
-0.0290253
0.0151678
0.0180409
-0.0025012
0.0264836
-0.15444
-0.0650821
1.26355e-146
-0.0360221
-0.0367677
0.0576732
-0.0109302
0.0705967
-0.0694778
-3.48708e-05
-0.103265
6.57989e-05
-0.000213459
-0.0432948
-0.035843
0
0.0178835
0.037853
-5.06373e-08
-0.00018603
0.014344
0.00055614
-8.11409e-05
0.0247791
-0.0134147
-3.57507e-06
2.91223e-08
0.0723954
-0.0356838
-0.0615853
0
-0.132254
0.012587
0.102568
0.019652
-0.00031174
1.29016e-13
0.0820174
0.00897898
-0.0352948
-2.27735e-174
0.0436661
0.0217954
-0.0183548
-0.0240747
0.032364
-2.92777e-08
-0.0234152
0.0490049
-2.00097e-321
-1.90225e-05
0.0919978
0.112598
0.0077967
-0.000270893
0.0160968
-0.0272422
1.35868e-321
-1.95951e-07
0.0141402
-0.0199383
1.60299e-07
1.29016e-13
-1.83021e-07
-7.52957e-10
0.0258179
-0.0131289
-0.0210657
0.117252
0.00661788
0.027321
7.26689e-07
-0.00282705
0.00949632
0.0222741
-2.83307e-09
0.0808757
0
-0.000344086
0.0374078
-0.140495
1.29016e-13
0.00238751
-4.43855e-06
-1.28457e-321
-0.046615
-0.097052
0.0643813
-0.00015735
-0.0327579
0.0178142
-9.63212e-09
0.0639895
0.0226518
-0.0504825
-0.0603473
-2.27513e-08
0.0285278
0.0451766
2.24261e-05
-3.99904e-83
-0.00414649
0.115228
-0.156231
0.0301752
-7.05128e-08
2.33503e-05
0.208546
-0.0202983
-0.010283
0.0451766
-0.0941686
-1.62054e-84
0.000831907
-4.44969e-14
0.0867063
-1.03108e-07
-0.0735341
0.0482109
-0.013135
0.00345919
0.000535414
0
0.000867643
0.00345934
0.0131687
0.000690875
0.0143226
-0.0293196
0.0307103
0.0211573
-0.0397709
0.0102036
0.000107219
0.0237438
0.346751
0
3.7609e-05
0.0128199
-0.029271
0.0814712
0.0407836
0.108376
0.0418092
-0.0969113
0.0230955
0.0515199
0.108376
-0.0130594
0.0287028
0.0035319
-2.6834e-05
-1.98471e-05
-6.65081e-05
0.00691158
-0.0688476
-0.0320416
-0.11621
0.0325865
-0.0780702
-0.0103046
0.00345919
0.0173244
-0.0443849
0.0098279
-0.0626336
0
0.0530348
-0.00373598
-0.00373496
0.0397488
-9.1016e-05
0.0795285
0.0154934
0.0237438
-3.48707e-05
-0.0604192
-0.000356136
-0.00661812
-0.0754348
0
0.111172
-0.218219
0.0189468
-0.0562529
-0.0531261
0.000312072
-0.202625
0.0126663
-0.0692976
-1.28457e-321
0.0191985
-0.0287608
0.005906
0.0412848
-0.0360221
6.92151e-07
0.0376914
-0.0340913
-0.120281
0.052907
0.000251779
-1.01093e-10
-0.0843701
0.0238096
0.103136
-0.0459938
0.0401493
-3.55634e-05
-0.107857
8.17305e-05
0.0993937
1.36311e-06
1.31421e-321
0.00131102
0
-0.0579938
-9.36449e-09
0.0340181
3.64075e-78
-0.199796
-0.066957
-0.0117492
-5.99459e-05
0.0118555
0
0.0493092
-3.02609e-07
7.36578e-08
-0.0155225
0.156955
-0.00262682
0.00660062
-0.0531261
-6.90023e-05
-0.0162847
-0.0230454
-1.41843e-08
-6.42285e-323
0.00661788
0.00057393
-0.0171946
-0.0620432
0.0565194
-0.0658005
0.0152569
1.4286e-05
-0.0382961
0.0181778
0.000109196
-0.000258728
0.119339
0.0374078
-0.021126
0.0988696
0.031194
0.000136364
0.0142861
-0.00661812
0.000549065
0.0313626
0.0330736
-0.0746652
-1.53053e-05
-1.45135e-08
-0.127947
-1.00426e-08
-1.30901e-07
-0.0516863
-5.97936e-05
0.42839
0.000549065
0.00297488
0.0118708
-0.000161642
-0.0505423
0.00345919
-0.0728089
-0.0722102
2.01579e-321
-8.26183e-10
0.0426997
-1.51803e-85
0.0556078
-0.0586528
0.00414333
-0.0495276
-0.0795809
0.00345919
0.000839211
-6.22801e-05
-0.109717
1.26355e-146
0.0474696
-6.69926e-08
-0.00380671
-0.0410737
0.0735258
-0.0942224
-4.09069e-06
0
-0.00454225
-0.0630032
-0.0499611
-0.0998103
0.0143226
0.000251779
-0.121456
0.0681327
-0.0529368
-0.0931064
0.0406912
-0.0261275
0.000475475
0.0639835
0.0319173
0.116467
-1.87678e-06
-0.0191574
-0.000161373
0.00057393
-0.0513942
0.00655185
0.018078
4.08609e-06
0.0321323
-0.0125137
0.069276
-4.57732e-10
0.00125061
0.00624913
-0.0387546
-0.0674018
7.11455e-322
0.00684318
0.0394537
8.17305e-05
0.122057
-0.0157541
-0.0697553
4.85414e-05
0.175278
-0.0577456
-0.0146748
-0.0387546
0.00307688
-0.000213459
-0.0156517
0.148825
9.20534e-05
0.0258976
0.0566747
0.016739
-2.54088e-05
0.141096
0.0130584
0.0270545
8.51231e-140
0.00058072
-0.100973
0.00193172
0
-0.00012265
0.243209
0.00315367
-0.0185829
0.116733
0.00135398
0.0199296
0.00552354
1.96663e-05
-1.10573e-09
0.123335
0.0284823
-0.0420933
-0.0258726
-0.0516815
-1.84092e-10
0.0702387
-0.0412921
0.0345445
-0.0492959
-2.46085e-06
0.0106695
-7.11739e-08
0.00482726
-0.113067
8.43966e-06
0.0237888
-0.0523022
0.0662457
1.26355e-146
-0.0539153
0.0408662
-1.39078e-05
0.0945187
0.0109944
-0.000162582
0.00345919
0.0704108
-0.0604192
-9.36449e-09
-1.87801e-08
-0.108615
0.00057393
1.79572e-07
-0.0042422
-0.000125063
-0.000258728
-0.0902725
0.195529
0.0165278
0.0325865
-0.0131289
-1.37803e-05
-0.088221
-0.0855349
-0.00823293
6.57237e-08
-6.89079e-05
4.80368e-06
-0.110872
-0.0399552
0
-0.0217457
1.56511e-05
0.0149342
0.213176
-9.44325e-35
-0.0524235
0.00715825
0.0412015
-0.056238
0.0680899
0
-0.0268786
0.470046
0.0801475
-0.00652977
0.257591
0.00624913
-0.0201523
0
-0.0176806
1.29016e-13
-0.000138604
0.0165222
0.00624913
0.0496398
0.0537244
0.0190368
-0.00628375
-9.57172e-07
0.0474709
-0.12124
0.0499867
-3.55634e-05
0.000849109
-0.166254
0.00724888
-0.0656542
-0.0603547
0.000699583
-0.0367508
-0.0641247
0.128062
-8.04043e-12
0.0183592
0.00345919
-0.0172107
-3.8399e-06
0
-0.0475231
-2.51697e-06
-2.6834e-05
-8.41467e-12
-0.000100556
-0.0290253
-0.000325842
0.137786
-1.62367e-05
6.57989e-05
0.0035428
0.0106695
0.011688
-0.0124497
-0.0318249
0.00394759
0.0451766
-0.000134757
-1.51803e-85
0.0358795
-7.52957e-10
-0.0137008
3.64075e-78
-0.0563252
-0.0626644
0.0377884
-2.27735e-174
0.0431131
0.0285819
0
-0.102981
-7.24775e-07
0.108492
-1.47136e-27
-0.079634
-0.0257039
-8.11409e-05
-0.00949305
0.0237248
0.00931099
0.00446959
-0.0156517
0.0990859
0.0202066
-0.00158894
0.00306891
0.0312489
0.0256772
-0.0701702
-7.05128e-08
0
-0.0582337
-6.71232e-07
-0.0350424
0.0445333
-0.0701701
-0.139484
-0.0207017
-0.0127219
0.0431706
-0.0293914
-7.05128e-08
0.000286318
0.0507939
0.0023342
-7.05128e-08
0.000699583
-2.17645e-14
0.0590127
4.73785e-06
-0.000161856
0.0148552
0.0904524
0.0297537
-0.0539683
-0.000149534
0.124179
0.0970026
-0.0620562
-0.0364418
0.124696
-1.24505e-321
0.341077
-8.0738e-06
0.00427248
0.146107
-0.0502093
-0.0187382
-0.0073549
0.00188183
-1.14623e-321
-6.69971e-08
0.000251779
-0.0122019
0.0789985
7.36578e-08
-0.0156517
0.122564
-1.36935e-14
-0.466386
0
-2.10302e-05
-1.30675e-05
1.99794e-06
0.00057393
0.00016991
-6.81826e-06
0.0326972
-0.0212868
0.0329897
0.0118499
-0.066799
0.0938142
0.0326365
0.000313499
-0.176746
0.0316648
-7.52957e-10
0.00307688
0.00925876
0.0305868
0.00345919
-0.0224199
0.0668017
-9.28843e-322
-7.2291e-08
0.0353888
0.000127035
0.00345919
0.00138721
-0.0156517
0.0314189
-0.0507887
-2.20717e-06
-1.62054e-84
-0.116392
0.0141394
0.0671264
0.0757387
1.31421e-321
-8.41467e-12
0.00949909
-0.0144026
0.0208045
0.116898
-0.0761621
-0.274192
-7.72219e-06
-0.0881769
0.273644
-0.0109302
-0.012477
-6.71232e-07
-1.40487e-06
-1.93293e-05
0.182115
0.0541354
-0.0417357
-0.135195
0
0.0219623
0.00742774
-0.0372054
-0.0351737
-0.00150428
-0.00648044
-0.0505661
-4.35927e-15
-0.00939219
0.00709732
0.0238641
0
-0.0596301
0.00328206
-0.0722014
0.039888
0.00057393
0.0195287
-5.26128e-06
-0.103314
1.38338e-321
-7.56912e-07
-0.0576046
-0.0127866
-0.00282705
-0.0857515
-0.410288
-0.0566974
0.046261
0
-0.000161373
0.0450495
-0.0297132
-3.34599e-06
1.29016e-13
0.0276152
-7.56909e-07
0.0137919
-0.000114186
1.01599e-07
0.000370065
0.000413092
-0.18815
-0.123034
0.00577032
0.0325224
-0.0448005
1.29016e-13
0.263128
0.000234248
7.36578e-08
0.145878
-3.57507e-06
0.0120079
-1.62054e-84
-0.0290253
0.0118422
-1.03813e-06
0.212886
0.108323
0
-1.90225e-05
-0.0540736
-0.000213459
0.000549065
0
-0.000236332
7.36578e-08
-0.200789
0.000490043
-5.99459e-05
-0.123062
-0.0717814
0.101508
-0.0391828
-1.51803e-85
-0.225594
-0.0789419
0.00345919
0.0873776
-0.00015801
-6.13217e-11
-0.208749
-0.0231452
-2.27735e-174
-4.57732e-10
-0.112359
0.0627102
0.0285819
-0.136083
0.00197467
0.0156327
-7.17021e-14
-0.0505423
-0.0351029
-2.46085e-06
0.00552354
-0.0296302
0.0493349
-0.12186
0.0312841
-4.47222e-06
-0.0639564
-0.0320278
-0.0175069
0.00170599
-0.0489062
2.01766e-192
-0.121941
0.000549065
0.174833
-0.0518173
-0.0137072
0.000322669
-2.27735e-174
-0.000367446
0.0277683
-0.0554945
-0.01824
-1.39078e-05
-9.95439e-07
-0.0396317
-0.000303051
0.191396
0.0296136
0.0530504
0.0466078
-0.0524274
0.00057393
0.520702
-2.92777e-08
-0.0189266
-1.40613e-07
0.00606215
0.00690647
0.00548582
0.0240104
0.041353
-0.0410497
0.00022453
-0.0124497
-1.6844e-08
0.0536028
-0.0209974
-0.0231347
0.0159851
-0.0258726
0.00057393
0.0726427
-0.04152
-2.05085e-05
-0.0296388
-0.0312748
-2.27735e-174
-0.00689839
2.36963e-05
1.40659e-181
0.0640665
0.0237438
0
0.0190236
-0.000369902
9.20534e-05
-9.58126e-05
-0.0107538
0.24967
0.11362
0.0132202
-0.0608898
0.0770456
-1.67022e-10
0.045122
0.0196432
-0.0108288
-0.00948986
-0.0505035
-4.35927e-15
0.00057393
-0.0227231
0.0167545
0.00956489
0.0451247
0.000232739
0.136692
0.0447729
0.00178565
-0.0170364
0.0110865
0.00215166
-0.0551323
-1.64613e-06
0.0326719
-6.69926e-08
-0.0124497
-2.46085e-06
0.0361314
-3.99904e-83
-0.0636729
0.0593403
0.00991039
0.0214628
-0.0354043
3.64075e-78
0.130473
-9.28843e-322
-0.0447949
3.46358e-07
0.042486
-0.251339
0.0168377
0.0710294
-0.127906
0.005906
0.0520253
0.00345919
-1.24505e-321
-0.0789895
0.031249
0.00606216
0.0355788
0.00198666
-0.0155467
0.136529
0.0221399
-0.0546235
-0.00015801
-0.0800673
-0.034189
0.0534777
0.0232363
-2.72053e-06
-0.00485512
7.36578e-08
-1.63144e-06
0.00780427
0.00755951
0.005906
-0.0655124
-0.000177612
-0.000236332
-0.0412942
0.0627745
0.00124313
7.36578e-08
-0.0415503
0.00462203
0.00057393
0.00606216
-1.45135e-08
0.0165717
-4.50675e-06
0.0140371
0.0757955
0
0.0277683
-0.000120266
-3.57507e-06
-0.102209
0.000549065
0.0462847
-7.05128e-08
0.0796841
-0.135195
0.000331716
0.0764133
-0.0290055
-1.08694e-321
-0.0122019
1.24173e-06
-1.45135e-08
0.00057393
-0.0334
0.0486831
0.0165222
-0.00668496
0.0167901
0.0156196
-7.05831e-06
0
0.0627103
0.0237902
-0.0405777
0.0003496
-0.0271639
0.090669
-0.0460663
0.0446535
0.00991039
-0.0317729
0.0456259
-0.0761662
-0.0638094
-3.49269e-09
8.83527e-05
0.0142652
-0.173944
0.00692114
-0.00022448
-0.023569
-0.025005
-1.17535e-07
0.059209
-0.00816562
0.017222
-0.00022448
0.00909756
0.0110865
0.00057393
0.0221387
-4.12836e-09
0
-3.38643e-06
0.00935146
-0.0505424
0.00057393
0.000650467
0.0632826
0.00937145
-0.0235982
-0.000114246
0.091968
-4.45531e-09
0.0839821
-0.041289
0.0888665
-0.0896128
-6.71232e-07
-1.3651e-05
0.00345919
-0.0387893
0.00307688
4.08627e-06
-0.00653712
-0.0202184
-0.029271
-0.0642677
-0.0413875
0.0946616
0.00057393
-3.55634e-05
0.0920798
-0.12186
0.050684
0.0207598
0.0147035
0.0110865
0.0110865
1.26355e-146
0.0538059
-0.054837
0.00724616
0.176863
1.36311e-06
0.0785133
0.00057393
-7.53747e-06
-0.445695
0.057916
-0.0394762
-0.0451438
-0.0860674
0.0468502
2.91223e-08
0.0520593
3.64075e-78
-0.0555544
0.0590969
0.227312
0.005906
-0.0189452
-0.0118896
-0.0419691
-1.38544e-05
-0.0184165
0.0325865
-0.0238718
-0.00532923
-0.216206
1.31421e-321
-0.0622221
0.00193172
1.29016e-13
-0.0615853
0.0629299
0.000102571
0.0069433
0.0693535
1.96663e-05
0.0276465
-0.0414266
-7.05128e-08
-0.0335855
-7.05128e-08
0.0718102
0.0499082
-0.019316
0.057045
-0.0955151
-0.000275816
0.0406912
-0.0155238
0.0242314
0.000331716
-0.00886516
-0.0551307
-0.265943
0.00197196
-0.000235655
-0.0252049
-0.033832
-0.0258726
-1.33149e-05
-0.0489775
-0.000367281
-6.89079e-05
-0.000289419
0.0222741
-0.000202359
0.000331745
0.13648
0.00215166
0.0549848
-1.56619e-321
0.00947733
1.18094e-06
-0.00844656
0.0165278
0
-0.0370075
-0.0431507
0.00442309
0.00718684
3.64075e-78
0.011853
-0.00760423
-0.000114246
0.0355334
0.029369
0.0216294
-0.0240909
-1.1505e-06
-7.2291e-08
-0.00132743
0.291459
-3.57507e-06
-3.04564e-06
-0.0642677
0.0585174
0.0116089
-0.0335855
0.00684318
0.018078
0.102428
0.0224633
-0.0214995
-0.0207017
-8.1141e-05
0.0183592
0.00347587
0.0254321
-0.00653712
-0.0896942
0.0130717
-0.00934092
-0.038081
0.00889278
0.0494776
-0.145238
-0.0121361
0.00240982
-1.37716e-05
0.00991039
1.72033e-06
0.000831907
-1.24505e-321
-0.0014747
-6.30019e-06
0.199765
0.0687157
-1.18463e-06
-2.27735e-174
-0.0410998
0
1.26355e-146
1.7958e-07
-4.37699e-07
-0.0201313
0.00767174
0.0364997
9.68996e-08
0
-0.000303051
0.000849109
3.33107e-05
-0.103992
0.056051
-0.0495765
-0.0296695
-0.0180509
0.00597048
-0.0227231
0.0350746
-0.0244119
0.326267
0.0538379
0.00462203
0.00345934
0.0153822
-7.52957e-10
-7.05974e-05
-0.175333
0.0295771
0.00949909
1.31421e-321
-0.210909
-0.0739788
0.0347693
-0.0121718
-2.51697e-06
0.0030273
0.0118491
-1.62054e-84
0
0
-0.045923
-0.000175368
0.0487637
-0.00423428
0.0406553
-0.0135678
0.00284332
-0.0135678
2.25682e-191
0.0237248
-0.0813706
0.0689129
-0.0277331
-0.0520498
-0.0398
-0.0923589
-0.0124154
0.343035
-0.0521459
0.0642725
-4.94775e-07
-0.0541231
0.0381939
-0.0865696
0.0325865
0.0527715
-0.012202
-1.39078e-05
-0.0156517
0.03299
0.0861773
-0.0681509
0.0888685
0.0230955
0.00669569
0.0221403
-3.55634e-05
-3.14595e-83
0.0609839
0.00142215
-4.94775e-07
-9.44325e-35
-3.48707e-05
0.0359956
-0.133419
-0.000261245
-0.000465685
-0.0245294
-0.0271513
0.049731
-7.56912e-07
0.00158691
7.52643e-182
0
6.2174e-05
0.0505696
-2.16387e-11
0.0469076
0.0312841
0.0672119
-0.0104534
-5.06373e-08
4.43552e-05
-0.0290253
0.00105741
0.0101932
-0.0332715
-0.0459938
-0.0575898
0.0626723
-0.0579545
7.81761e-20
-0.014676
-1.87801e-08
0.000549065
-0.0385866
-0.14652
0.140898
0.0259324
0.0479941
0.0498778
0.25214
0.101472
-4.71447e-11
-0.000234453
0.110171
1.29016e-13
0.0118555
-0.000305467
-1.41843e-08
0.000862441
0.267659
0.199249
0.0450495
-0.025005
-0.00106746
-0.0213201
-0.00715945
2.06073e-06
0.00347587
0.235532
0.0156196
-0.106648
-0.120668
-2.46085e-06
0.00057393
-1.00426e-08
-0.00203796
-0.0196266
-0.0777349
-0.0577157
-4.35927e-15
-0.555687
-0.0257539
0.074777
-0.00310072
-0.0050225
0.0257296
-4.6813e-11
-0.072284
0.00100623
-0.0761662
-0.000152255
0.135699
0.0698452
0.0259875
0.0952599
-7.9697e-06
-0.00518735
4.84755e-05
0.0110865
-0.0236899
0.000232739
0.0237438
0.00355692
-0.0312748
0.000217035
-0.0122513
-0.0600716
-0.000142911
-0.117006
-0.0794429
-0.004675
-0.00711953
-0.0688174
-9.09692e-06
-0.0515475
0.00057393
-0.0437242
-0.133045
0.117805
-0.0194177
-0.000270893
-0.000161642
-6.65081e-05
0
0
-0.0953458
0.0811905
0.000322669
-1.62054e-84
-0.0261489
0.0346431
0.000232739
-8.89692e-05
-2.77857e-05
0.00268693
0.0321323
0.00377341
-0.0616935
0.154016
0.0549848
-1.51803e-85
-0.0777349
-9.64449e-05
0.0346531
-0.000123938
0.00707189
-0.0258726
-7.24775e-07
0.0342412
0.0713838
-0.033786
-0.0346937
-6.30019e-06
-0.000268354
-0.00307953
-0.0287283
-1.28457e-321
-0.068907
-0.0269827
-0.058113
-1.90614e-07
-4.18518e-12
0.458097
0.0128199
2.24261e-05
0.0285819
0.000291021
0.108376
0.121739
0.0174145
0.0541528
-2.11246e-224
0.012587
-4.57732e-10
-4.4693e-12
-0.00834916
-0.00653223
-3.69682e-05
0.0386237
-2.24773e-05
-0.0207181
-6.69926e-08
-6.90023e-05
-0.0348091
-0.153872
-0.0327225
-0.0569874
-0.0660692
0.00243641
-1.6844e-08
-0.349155
-2.72053e-06
-0.0360221
-0.00113263
0.150775
0.155331
-2.10302e-05
-0.0105668
0.022942
0.100415
-0.00208311
-0.00532051
-0.0633704
-0.310258
-0.0291795
-1.80929e-06
8.17305e-05
0.0011793
0.064718
-0.0798257
-0.172358
-2.66256e-06
-0.159789
0.000690875
-0.10826
-3.61034e-07
0.05525
-0.00022448
0.00707189
-9.28843e-322
-0.159229
0.0221399
-3.55634e-05
-6.69971e-08
-2.27735e-174
-0.0828844
-2.4182e-05
-0.000350171
-0.0300284
-3.14595e-83
-1.96286e-172
-1.40487e-06
-0.0505423
-0.0230206
0.057238
0.0110865
0.000831907
-5.20617e-06
-0.0122019
0.0548962
-0.0404427
-0.00711423
0.360909
-0.00859234
-1.64613e-06
0.000549065
-0.0228778
1.37325e-05
0.125538
0.00057393
-0.0392994
-2.10302e-05
0.116733
0.0576013
-0.115835
-0.265448
-0.0502093
-0.0686007
-1.83021e-07
-0.000387062
0.000291021
-0.0296563
-0.0941657
-4.18518e-12
0.0323592
-3.57507e-06
-0.0757384
-0.0147954
0.0277679
-0.000303051
0.0705681
-1.95951e-07
-0.0335855
0.129989
0.0110865
-0.0578552
-0.0360676
-0.0470972
-0.113808
-0.0077462
0.000136364
-0.0917135
0.257213
0.100415
-0.0754348
-0.0123287
6.57989e-05
0.00131102
0.139256
0.000573652
-0.00525369
-0.00571571
-0.0105603
0.0740774
-0.000325842
0.0142652
7.5592e-322
0.0254314
0.024412
-0.0702397
-2.05085e-05
-0.099341
0.014716
-2.27735e-174
-0.0401985
-0.08138
-7.56912e-07
0.158546
-0.000367441
0.0760853
-0.000387062
-0.160689
-2.27735e-174
0.123785
0.0485515
-0.0354453
1.29016e-13
0.069276
-0.0430435
0.063713
2.25682e-191
-5.54642e-06
-0.382224
0.0687705
0.00057393
-9.25454e-84
-8.21398e-11
8.51231e-140
3.32439e-05
6.57989e-05
-0.00653712
-0.0284821
6.24856e-05
0.205085
0.00900404
0.0256772
-0.0505423
0.108376
-0.0622181
0.00168461
0
-5.61428e-06
0.00297488
-7.74076e-11
-1.84092e-10
-0.072284
-0.0481219
0.00606216
0.0451247
0.0246012
-7.05128e-08
0.0541296
-7.05128e-08
0.00345919
5.08567e-05
0.200811
-1.86148e-06
-1.47136e-27
0.366428
-0.00361016
0.0517434
-0.0894209
-0.0421899
-0.0448005
-0.00501716
-8.30015e-15
-0.000114186
-0.0275822
0.0142085
1.29016e-13
-0.0997745
-3.14595e-83
3.64075e-78
0.0121752
0.000924911
-2.27735e-174
-2.39942e-05
-7.73818e-08
0.000867643
-5.76026e-14
-0.0269892
0.000313499
0.0167901
-2.91173e-05
1.15948e-05
-6.58277e-08
0.000831907
7.81761e-20
2.01766e-192
0.00297488
0.0557707
0.107684
0.00161914
0.017631
0.00930704
-0.00258537
1.29016e-13
1.29016e-13
0.0169825
-0.0948679
0.0230955
0.0232823
0.000549065
0.0265918
-0.05237
0.0143226
-0.00661812
0.0147035
-0.0681509
0.0215971
-1.0771e-10
0.0215971
-9.94208e-07
-0.116043
-0.130297
0.0153822
-0.0156517
0.0110865
0.0049545
0.0305386
-0.0532795
0.0254321
-9.84839e-06
-0.0707816
-7.56557e-07
-0.0617845
-3.34599e-06
-1.87801e-08
-3.99904e-83
-0.121869
-4.79244e-322
-1.03813e-06
0.00815967
5.26428e-05
0.00606216
-4.18518e-12
0.0245616
0.126996
0.0380571
8.29475e-183
0.00313431
-0.120537
-4.57732e-10
-1.23647e-07
-8.04043e-12
0.0533349
-6.92707e-08
0.0672676
0.00949909
-9.43665e-322
0.0244071
0
-1.10573e-09
0.0507646
0.0139311
0.128754
-0.00792369
0.0230955
-0.0576522
0.0274787
0.00919856
0.0277935
-2.27735e-174
0
-5.61428e-06
-0.00514528
0.0673772
0.123186
0.0258976
0.0118555
0.00131092
0.00057393
-0.0265823
0.0650005
0
6.57989e-05
0.031867
-0.00306117
-0.0131964
0.00188183
-2.27735e-174
-8.05041e-05
-0.017979
0.00158247
-0.00017864
0.00850318
-7.05128e-08
-0.0320578
0.00586475
-0.00770814
-0.0504604
0.0493092
-2.3986e-05
-0.135716
0.0117986
-2.20717e-06
0.0632826
0.00057393
0.0327456
0.0533412
-7.05128e-08
3.7609e-05
0.0181794
0
0.0660248
-0.000187527
-0.0438918
-1.90225e-05
-0.00645919
0.000769641
-0.000344086
-5.34827e-06
0.0487095
0.00707189
6.57989e-05
-2.27735e-174
-0.00380671
-0.090656
-0.230584
0.0237438
-0.000185334
0.0165222
0.0169824
0.00345919
-9.09692e-06
-0.0122513
-0.00380671
0.043078
-1.03118e-08
0.576668
-0.00745535
0.0217954
0
1.26355e-146
-0.12485
3.64075e-78
0.0512005
-0.004675
0.000549065
-0.0201546
-6.65081e-05
-1.11606e-05
0.00345919
-0.0193325
0.143257
0.0504624
-0.000114186
0.000654289
-0.0175069
-5.34827e-06
-0.0108323
-0.00283308
0.0651291
0.20177
0.0192788
0.0221399
