-3.80743e-08
4.77274e-77
-0.0229374
0.00954613
0.0185207
-1.28808e-06
-1.51359e-06
-4.45419e-05
-0.0590954
-1.51359e-06
0.00663942
0.0199422
-0.0400063
0
-2.92038e-06
-2.89371e-08
-1.97464e-08
0.01953
0.00157675
-0.00843259
-1.55103e-06
-0.0771837
-0.178137
0.0227726
-7.44378e-06
-2.92038e-06
0.065518
0.0189772
-0.0319812
0.00344847
-0.0226058
0.00268239
-5.3787e-07
1.717e-76
0.0118538
0.0278691
0.00843083
0.0174833
-5.47068e-06
0
0.103787
0.0446328
-4.70147e-51
-3.3531e-08
0.0345533
0.0588592
0.0189776
-1.95489e-06
-4.521e-05
-0.031116
-0.0825776
0
-0.0205293
0.082713
-1.57024e-30
-3.3005e-156
0.0245642
0.00228062
-2.66327e-08
0.0839784
8.19975e-80
0.032405
6.22347e-67
0.0406776
-0.167349
0.0311008
0.00480819
0.0276263
-0.0784495
0.00315197
-0.0103134
0.0544923
-0.0400677
-0.00805312
-0.402088
-0.0167577
-3.53539e-06
0
-4.04829e-06
-0.0628801
0.0457473
0.0191238
-0.000104219
0.10356
0.0714314
0.133162
0.0188841
0.000453278
0.0262136
0.0311008
0.10622
0.00013401
0.11045
-0.0159739
0.0685402
-0.0399843
0.201895
0.149907
0.00232209
0.0597857
-0.0205293
8.19975e-80
-0.00173247
0.0092478
0.00795381
-1.12235e-13
0.000101653
-4.28957e-06
-6.72672e-05
0.192308
-2.16311e-08
-0.0243737
0.0245035
0.00860558
-0.0013623
-2.92422e-05
-0.0733559
-1.45786e-06
-0.109533
-0.045368
0.0322707
0.00225273
-0.16866
-0.0633484
0
-1.4129e-08
0.0182687
-0.0159039
-0.0114591
1.76578e-05
0
0.000842844
-0.00843259
0.0234935
0.00389041
0.0858746
-0.0142061
-3.3005e-156
-0.0877809
-0.0164988
0.0746894
-0.00765164
-4.70352e-06
0.319734
-3.9883e-05
0.0255109
0.0418257
-0.000108764
0.0275592
0.0659116
-0.0311053
-0.0238991
0
0.0156542
0.0981698
0.0278691
-0.000469695
-0.0017531
0.00295261
0.0068812
0.0575231
-0.122619
0.0302131
0.126037
8.19975e-80
-0.0297829
-0.0206487
0.0185916
0.0307438
-3.73676e-05
0.101498
0.00247745
8.13733e-36
0.00420965
0.0754515
-0.0387109
0.00577099
-0.0561498
-0.0364091
-3.57961e-06
-0.0205293
-0.00396325
-0.0178377
0.0292396
-0.0210962
-0.0324989
-0.0446043
0.134062
0.0164965
0.0227726
0.00735118
-0.0892729
-0.00310428
0.0245642
0.0554537
-0.177864
-0.0841508
-3.61785e-05
-0.0871759
-0.101125
-0.127188
-0.024862
0.0278943
0
0.0851101
8.19975e-80
0
0.00609775
0.0118731
-0.0243737
-2.98774e-14
-0.00523871
0.032938
-0.108251
-0.103992
-1.51359e-06
-0.103977
0.0174065
0.289655
-7.07306e-08
0.0438837
-0.0205315
0.0022793
0.00242687
-0.00358487
0.00305168
-3.12385e-08
0.22141
-0.0292414
-3.3005e-156
0.065254
-1.52122e-06
-0.0152325
0.0930499
-0.0130608
-0.0773391
0.0726909
-0.0346212
-2.33003e-07
0.00562986
0.0112413
-0.0484725
0
0.026522
0.0411683
0.00142621
0.0253721
0.106634
0.167499
-2.0323e-08
-0.148305
0.128012
-1.65046e-15
0.0583813
-0.00396325
-0.0282534
-0.0580222
-9.00418e-08
-0.0183734
0.101191
-0.0704459
-0.153902
-0.0017969
-0.0364091
-0.00843259
0.102565
-0.036242
-2.33139e-07
-0.0451245
-0.0275455
-0.0296538
-0.0258165
0.0158971
-0.061794
0.000208549
-0.0310124
-0.135869
-0.0229374
-0.000229806
-1.22886e-06
-9.38909e-11
-4.45419e-05
-0.356738
0.0140797
0
8.22249e-78
0.0328288
-0.120146
0.0785527
-0.0267705
-0.0219165
-0.0262104
-0.128191
0.00112519
-0.0012517
-0.0169973
0.0167637
-0.0194751
-0.152026
0
-0.0171293
-0.021917
0.0043909
-1.45786e-06
0.145578
0.140221
0.0199422
0
-0.017726
-0.0116288
-1.21938e-05
0.038708
0.00190111
0.116828
0.0512459
-0.0282487
-0.0210962
0.0578242
0.0987125
-1.87872e-09
0.0933955
0.165076
0.207974
0.00252226
-0.0275039
-0.068622
0.00280386
9.09455e-06
0
0.410557
0.148032
-0.160779
0.0953344
-0.0400677
0.075681
-0.00400802
-0.00199549
-0.0181184
-0.0119458
-0.0882413
-0.012813
-7.34116e-06
-0.0235291
0.143385
-7.07306e-08
0.0111705
-0.013236
0.00429937
0.0417094
0.153206
0.143768
-0.0263745
0.0853411
0.126188
0.0189776
-0.0637111
-0.00805312
-0.0676158
-0.0443429
0.00562986
0.122322
0.0718129
-0.0184852
0.115436
0.0458598
-0.0331043
-0.0201069
-0.0706416
0.126921
0.0839784
-0.14954
0.00131901
0.0470013
-4.03887e-06
0.0714339
8.19975e-80
-0.0153301
0.0173437
-4.50686e-12
8.19975e-80
-0.0510925
-3.61785e-05
-0.030069
-4.51392e-05
0.00545664
0.0403958
-0.0494357
0.00399245
-0.0196472
-0.0258165
0.0413477
8.19975e-80
-0.108582
-0.0494357
-9.00418e-08
0.0420757
1.76578e-05
6.03647e-05
-0.0825106
0.00305168
-0.00173247
0.00551635
-0.0179779
-0.00740121
-1.01439e-05
0.0156542
0.0634067
0.0278943
-0.0013685
-1.11673e-05
0.018721
0.0268458
-9.38909e-11
0.0268269
-0.0626734
-0.00970601
0
0.0158401
0.0118538
2.68443e-06
-0.0225169
-2.58419e-11
0.0556609
-2.63309e-06
-2.33003e-07
0.0152247
-1.65046e-15
0.020591
0.0778403
-0.000168752
0.0539484
-0.00928462
-0.081684
0.00639778
0.10356
0.0245642
0.0628361
-2.98378e-05
-0.0404608
0.149534
-4.64988e-05
-0.0849631
0.0164965
0
0.0196815
0.000321371
-0.0254564
-0.0339292
0.00793488
-0.0682588
0.0111705
0.0392797
0
-0.0243737
8.19975e-80
-0.0764322
-0.0218825
0.00257904
-0.161046
0.0133722
-7.51451e-06
-0.048884
-0.0219165
0.0066559
0.000695041
-1.09893e-05
0.0464387
0.040464
0.016255
0.160222
0.0123988
-0.0543863
0.00889814
-0.0122198
-2.49527e-07
-0.0545759
-0.109488
0.0137454
-0.111751
-0.0142139
-0.344014
0.00975163
-0.0543675
0.00232772
0.0915283
0.0201191
-0.0508517
-0.0181082
-0.0379882
-0.210363
-3.3005e-156
0.169762
0.0116558
0.00927554
0.122358
-0.0296538
0.0303596
0.0465954
0.00420965
-4.49766e-07
0.138526
-0.0243737
-5.94264e-13
-0.00390261
0.0714314
0.00131901
-0.0219165
0.010552
0.00399464
-0.104456
0.00295618
0.126203
0.0868327
0.0611863
-9.86538e-14
-0.260197
-9.26253e-08
0.0301888
0.00730267
0.00131901
-4.39755e-05
-0.03808
-0.16068
-0.115534
-0.00471689
-3.33887e-06
-1.59329e-09
-0.103393
0.0339199
0.016255
-0.0896026
-0.203676
-0.0380589
0.1472
0.0301893
0.0498083
-0.0342105
-1.28525e-09
0.0205788
-0.013133
0.000104069
0.217795
-0.000212486
-0.061073
-0.0229706
0.0373153
-0.146433
-0.262703
-2.68732e-11
-0.117779
0.0433732
0.0654715
0.124706
0.0174007
0.0342683
-1.67381e-05
-0.111863
-0.027293
0.00149102
-0.0172158
-0.0621687
0.0642065
-0.074496
0.32565
-0.0141276
-2.45997e-05
-1.28568e-06
-0.0771462
0.002666
-0.0159039
-9.00418e-08
0.0028888
-0.029569
0.054385
0.101438
-0.0868146
-0.0237133
-0.0297827
0.00157707
0.0442018
0.00781589
5.77891e-06
-8.23965e-05
-0.0259273
0.0272776
-6.15597e-09
-0.0146212
-0.0244777
-0.0332293
0.00327824
0
-0.0142974
-0.0995657
-0.0325048
-0.00460877
8.19975e-80
-0.00173247
-2.36382e-06
0.0922251
0.000890803
0.0587418
-7.44378e-06
-2.0734e-05
-0.168142
0
-0.0612923
0.00695426
0.0391585
0.0725007
0.0258576
1.32054e-170
-0.0291293
0.16073
-0.0536398
0.0444621
0.0907005
0.0469625
-0.000137883
-0.0497688
-0.0318233
-8.93656e-05
9.59403e-77
-0.133845
0.188331
0.0544007
-0.110435
0.00399464
0.00378672
-0.0595281
0.0111705
0
0.0062819
-0.0159039
0.0270825
-4.70147e-51
-3.3005e-156
0
0.0493115
0
-3.64261e-07
-0.160442
-0.0973976
0.0494596
0.0156542
0.00184321
0.00067559
-0.0359008
0.0759624
0.00704632
0.183874
0.0332395
-0.0427572
0.13407
-0.0310825
-0.045359
-0.0158645
0.0227726
-4.37628e-06
-9.78507e-12
0.00172843
0.0097571
-0.00273206
0.010552
-0.00647917
-0.00445849
0.0014788
1.06224e-321
-0.0184081
0.0122213
-5.14586e-07
-2.03465e-08
0.0403958
-1.37464e-06
-0.0882053
0.0167545
0.0871481
0.0824496
-0.124906
0.117165
0.0524732
-1.04152e-05
-0.0229374
-0.0813708
1.16599e-321
0.0041767
-0.0793785
0
0.028968
-0.100536
-0.0250506
-0.119391
-0.1166
0.118867
-0.0913786
0.00149798
-0.101586
-0.0704459
-0.179898
0.0629806
-9.38909e-11
0.0209859
0.0607657
8.19975e-80
-3.26036e-11
-1.86007e-11
-0.0923503
-0.027878
0.00492216
-0.0375034
-4.78842e-08
0.0501122
0.116828
-3.3005e-156
-0.0102751
-0.0311508
0.0970778
0.0090476
-1.01881e-05
-0.0231607
0.585418
-0.0683998
-4.33697e-09
-0.0243737
0.0200624
-0.0527513
0
-0.0433546
-0.0126406
-0.0417428
3.89733e-07
0.0351751
-6.59797e-07
0.0474741
0.0400892
-0.0297103
0.362592
-0.168117
0.0819304
0
0.125214
0.129759
0.409011
0.145127
-0.0677334
0.00899185
-0.0286712
-1.59329e-09
0
0.0696102
0.0900334
0.143243
-0.0246987
-0.00901492
0.0605168
0.0230814
-0.113225
-0.000168752
0.000450004
0.00320877
-1.33845e-06
-0.0466933
-2.58419e-11
0.0253721
1.717e-76
8.36293e-172
-0.106038
-3.33887e-06
0.0234896
0.0207533
-0.122299
0
-1.65046e-15
-0.0308866
1.13856e-05
-0.0757347
0.023176
0.0211048
-0.163267
-0.210208
0.0058735
0.136854
-0.0127146
0.0164965
-0.0227465
-0.0759436
-9.37787e-10
0
0.0784332
-0.00173247
-0.186148
-0.152074
-0.0116506
0.0286102
0.0707126
-0.200442
-0.0116506
0.0301982
-4.88839e-10
0.0620029
0.470365
-0.0637389
0.000493932
-0.00892907
0.0579122
0.0156542
0.0546302
-0.0197359
-4.78842e-08
8.19975e-80
-0.239066
0.440979
-3.26036e-11
-7.57002e-06
0.0311008
-2.07598e-05
-8.21445e-08
0.212664
0.0418884
0.0897914
-0.132231
-0.0812422
0.00232777
-0.000193236
0.20316
0.041934
-2.108e-05
0.0530773
-0.0704459
-0.125321
0.136276
-0.0363437
0.147329
-7.55356e-06
-0.0162836
-3.26036e-11
-0.00970601
0.0717616
-0.141374
0.00127979
-0.0250755
0.0227096
0.00781589
-0.0523277
-0.0673204
0.00173498
-8.13062e-05
0
-0.0210962
-1.12235e-13
-4.1631e-12
-4.36563e-07
-2.33003e-07
-5.3787e-07
0.0558754
-0.0624331
-0.0136651
0.000805861
0.00795381
-0.000104226
-0.048884
-0.0219703
-3.26036e-11
0
0.0801102
0.0068812
0.0580706
0.095949
0.0716591
0.0166807
-3.3005e-156
0.00163539
-0.0553445
0.0594028
-8.00631e-06
-0.03708
0.00131757
0.0359079
-9.38909e-11
0.00512588
-1.21938e-05
0.00252226
0.00442957
-0.0919547
-0.0795334
-0.033458
-1.13838e-06
0.105677
0.0111705
-0.0448671
0.01953
0.000368963
0
0.0593067
0.131727
-0.133732
0.00378672
0.0461986
0.0168808
0.00267814
0.029341
0.0605829
-5.8236e-09
-1.11673e-05
-0.0843698
0.155825
-4.51392e-05
-0.000137883
-8.95322e-171
0.00785176
-2.89371e-08
0.00399464
0.00935079
-1.01881e-05
0.26411
0.0227726
-0.0638101
-1.75681e-06
-0.010064
6.03647e-05
0.00936595
-0.012994
0.0156542
-0.0481953
-0.0332293
-0.0136514
0.00050526
-0.0198728
-0.0205293
-0.0313709
-0.0833968
-0.0363487
-1.06429e-06
-0.00954902
-0.036886
6.06392e-68
-0.0543573
0.000206721
-0.0548552
0.106634
-2.89371e-08
0.00232601
-0.127695
-0.0551551
0.00448766
-1.21938e-05
-3.61785e-05
-1.86007e-11
-0.0301591
-0.0136514
0.0691557
-0.000238468
0.0216549
-3.64261e-07
-2.98774e-14
0.0728298
0.0977088
0.00859959
-0.0543321
0.00675988
0.042208
-0.027737
0.0530929
0.0721526
1.33723e-24
0
-0.0706416
-9.13934e-07
-0.0480453
-0.0500225
-4.22847e-05
-0.0279439
0.122619
0
-0.000142083
0.0253721
0.0451313
0.173376
-3.63038e-07
0.141226
-0.109831
-1.55721e-07
0.114846
-0.00647688
0.00184321
0.0262598
-1.52122e-06
-0.0347992
-0.0159109
0.160162
0.00123401
-0.0390245
0.000161116
8.19975e-80
-0.0242404
-0.0639013
0.134173
-0.0322972
-2.38138e-05
0.000467876
-0.181133
-2.98774e-14
0.0189906
0.120506
6.03647e-05
0.0192215
-0.0399843
0.00698081
0.00067559
-3.08182e-12
-3.61785e-05
0.178022
-0.0265068
8.19975e-80
0.000842844
0.0090476
0.000627601
-0.0325298
0.0115699
0
0.00351513
0.063002
-3.38904e-05
-0.0644857
-0.0496064
-0.0579185
-8.40793e-315
0.0622217
-0.0297161
-0.000109214
0.0148243
0.0044319
0.0156542
0.0825441
8.19975e-80
0.0170439
-3.82666e-08
0
-0.157281
-0.00017923
0.012612
-0.00834691
-0.00017923
0.00207343
-0.272131
-0.0332848
0.0351933
0.00326061
0.00067559
0.011989
-4.73556e-09
0.0838719
-4.10817e-10
-0.0134177
-0.014297
-0.0662902
-0.0116506
4.77274e-77
-3.33887e-06
-0.0017969
0.00190821
0.000101653
-0.0543233
0.0187968
-0.00892907
0.0857065
-8.57386e-07
-0.126466
0.0075632
-4.88839e-10
-0.0132224
-0.185943
-0.0472746
-0.0364091
0.0900998
0.0164965
-4.70147e-51
-0.0171293
0.00184321
0.114155
0.0144635
0.00300529
0.0649368
0.0118538
-0.0422499
0.349352
-0.0146212
0.220412
3.98131e-05
0.0502647
0.0199422
-0.045876
0.0645151
-0.0977345
-3.3005e-156
0.252275
-0.0311509
-0.102606
0.00200451
-0.0996223
0.0075632
0.0813912
8.19975e-80
8.19975e-80
-0.0748827
0.0109557
-0.0819315
0.0118538
8.19975e-80
-0.0260756
-0.059787
0.00257904
0.000467082
0.00785021
-0.0917606
0.0886327
0.0075632
0.00558093
-0.0243737
-0.0145792
-0.0312152
-0.0481802
-0.0172578
-0.035966
0.079354
-0.102937
-1.50435e-07
-0.0324989
0.175304
-7.34116e-06
0.0311008
-0.0324989
-0.0313709
0.000441281
-0.0142139
-3.3005e-156
0.0764589
0.0456306
0.124924
-0.0052898
-0.0322004
0.0949797
0.0455643
0.335368
-0.0210962
-0.0315031
0.114539
0.0123146
0.0631493
0.00795381
0.030547
-1.86007e-11
-0.00543884
0
0.122634
-1.59329e-09
-0.106785
-0.0418276
0.0144351
-2.14499e-05
-0.19425
-2.89371e-08
-5.20726e-10
-0.0736117
-0.0213318
0.00785176
-1.58954e-07
-0.000141226
-1.75681e-06
-0.0296538
0.0458598
-4.88839e-10
0.000805861
0.0227726
-0.0890035
-0.000247303
-0.0184852
-0.000227087
-0.00916709
0.015651
-0.111312
0.00254884
0.00131901
-0.119174
0
-4.21226e-08
-0.112296
-0.0759436
0.0035293
-0.00854559
0.00193815
-0.0792216
-0.105187
-1.58954e-07
0.0123988
-0.109376
0.282125
-0.10558
-4.21226e-08
-0.00491524
0.0228881
-7.57144e-06
-0.0264778
-0.176513
0.0634067
-0.048884
-6.74342e-22
-0.0515268
0.150725
0.304471
-0.00831499
-0.0210089
0.00116752
-0.0706416
0.0198919
0.038708
0.102633
-0.0243737
0.0672329
-1.67266e-05
-2.78892e-05
-0.019058
0.00927522
0.0763871
0.728657
-0.126562
-0.00115719
0.127726
-0.180428
-7.23208e-09
0.0123212
0.101997
0.00257639
-0.00305146
-0.0427677
0.00091125
-0.0387165
-0.0398151
0.0148256
-0.334869
-0.262788
0.0332714
-0.0363298
-0.0463458
0.0155152
0.129695
-0.00638712
-0.12195
-0.0325298
0.0285279
0.0285279
0.0976196
0.0579935
-0.235682
0.133326
-0.0602228
-0.00834691
-0.00908465
-0.0136651
-0.0602228
-1.01881e-05
-0.0610502
0.0546873
-0.0390245
-4.39755e-05
0.123024
-0.00392922
0.171551
-0.02595
-0.0575646
-0.0647591
0.0644016
6.03647e-05
-1.47799e-07
0.00184321
-0.000203789
-0.0397224
-0.00671744
-0.0998897
-1.01881e-05
-0.0234527
-0.0730579
-0.025852
-0.0400677
-0.072191
-0.0748827
-0.212726
-0.0164331
-0.000131377
-0.198888
-8.70523e-08
0
0.0558754
-0.104078
0.0174833
0
0.00280542
-0.0152085
0.0411198
-0.234054
-3.22722e-07
0.0265311
-0.070182
-2.83157e-07
-3.02079e-06
-0.0175284
0.18377
-0.0712151
0.0553469
0.00444543
0.00925651
0.00252223
0.0105687
1.73417e-321
-0.00647688
0.0179339
0.0480083
0.00695429
-0.00388376
0.143794
-0.000108943
0.0275798
0.0237165
1.84395e-06
-4.50686e-12
-0.0209191
0.00430214
0.0468844
0.0117504
-0.0855595
4.00247e-06
-9.66987e-05
0.283304
0.029341
0.029341
0.00305168
-4.26782e-06
-0.0184852
-0.0036927
0.0164965
-0.0731798
-0.0243737
0.021366
-0.0186102
-0.00763654
0.0156542
0.00231417
-0.000238516
-0.100384
-0.0735974
-0.0378717
-0.226027
0.0103585
-0.0279225
0.0644016
-6.40773e-05
0.00411716
0.0105354
-0.0484317
1.91427e-06
0.0981888
-8.13062e-05
0.121123
-0.130007
-0.0379882
0.0601214
-0.0405127
0.044128
-4.49766e-07
0.0028888
0.010847
-1.12235e-13
0.0577212
-0.0184852
-7.418e-08
0.0263647
-1.28525e-09
-2.92422e-05
0.0156542
0.199538
-0.0946426
0.174386
0.0437364
-2.98774e-14
0.0943907
0.0477813
0.521803
0.0199422
-1.79266e-11
-0.140076
-0.00970601
0.0611863
-0.0178662
0.274786
0.0446114
-0.00396325
-0.0115305
0.0109544
-8.13062e-05
0.0214222
0.0135512
0.0305758
0.040132
-0.103412
0.0185207
-0.0267622
8.19975e-80
0.0157996
0
-0.0543233
-0.0131692
-0.0180219
0.0875166
0.0364421
-0.0156968
8.19975e-80
-0.031959
0.0261112
-4.70147e-51
8.19975e-80
-0.0116506
0.0351216
0.0119591
-0.0429019
0.0339199
-4.70147e-51
-0.111131
0.0663486
0.0592686
-9.28539e-05
0.051153
-0.0363155
-0.0219905
0.00695429
0.063002
-0.0345108
0.0189776
0
0.10623
0.00108586
-0.0280984
0.010552
0.00399464
0.135672
-0.0219165
-1.86007e-11
-1.01881e-05
-0.0627428
-4.78678e-08
0.0458598
0.030629
0
-0.0256353
0.00207343
0
0.000409292
0.051153
0.000831273
-4.64942e-05
-0.0166352
-0.0647591
-4.26782e-06
-0.0229374
-0.0155362
-0.141277
-0.0563144
-0.00638712
0.000394739
-0.0520139
-0.162962
0.00730265
0.13705
-8.23965e-05
0.00207343
0.0757121
-0.0657071
-0.00173247
-0.0455027
0.0524732
0.00159196
0
-8.38486e-07
-0.000238468
0.122777
-0.223721
0.0176369
-0.0596928
-0.0229374
-0.0387617
-0.100783
0.0285279
-1.22886e-06
-0.0210962
-0.0332848
-0.0697234
-0.0160837
-0.239486
0.0900748
-0.0269338
-0.176434
0.107052
-4.81076e-11
0.0185309
-0.013133
0.0319361
-0.0193966
0.132665
-3.19617e-08
-0.0292402
-1.87872e-09
-1.27621e-08
-0.0550742
-0.0948941
0.0701649
-0.13438
0.0318999
0.0300513
0.0028888
-0.0406495
0.0241697
0.00492216
1.33723e-24
0.292941
-5.3787e-07
-0.000141226
0.00316968
0.0605885
-0.00638712
0.0558265
0.0245035
0.061609
-0.0372187
0.0764589
0.0571412
0.0235275
0.000571049
-0.0205293
-4.41798e-06
-0.0159739
-7.07306e-08
0.0359987
-0.0390949
0.0170838
-0.0329444
0.026829
-0.0381909
-1.75681e-06
-0.035966
0.0686717
0.115308
0.0651439
-2.33003e-07
-0.108232
-0.0229401
0.0282855
0.0324233
0.016255
-3.30287e-07
0.00160678
-1.86007e-11
0.0293667
-0.00162784
-1.56811e-05
0.357492
0.0035293
7.65197e-06
0.134183
0.00128216
-0.000238516
-0.0229374
0.0912933
-0.52463
0.0325275
-8.30795e-06
0.139155
0.0434314
-0.0233254
-0.0249375
-0.00858184
0.0123988
-2.89371e-08
-0.0292188
0.149534
0.111109
-0.0124674
-0.00663585
-0.0140839
0.167881
-0.0602228
0.00235945
-0.0789213
-2.89371e-08
8.19975e-80
0.0018413
-3.33887e-06
0.00228062
0.00228062
-5.75847e-06
-0.0572658
0.0773499
-0.208539
-0.0319812
5.77891e-06
-0.0603629
0.0156542
-0.0084662
0.0168733
0.0312987
-0.0425495
0.0579935
-0.0463236
0.000299225
-2.72489e-15
0.00620941
3.37633e-171
-0.0403936
0.0514344
-0.0818438
-8.94477e-05
-0.00173825
0.182452
0.0266365
0.0285279
0.0734856
-0.100531
0.0294477
0.00252226
-0.0644542
0.0118538
0.021198
-0.0960754
0.0583813
0.0776734
0.0013377
0.494064
0.0311406
0.0240633
-1.87872e-09
0.13188
0.0789861
0.0249085
-0.0122598
0.191454
-0.0419634
-0.0741483
-7.23208e-09
0.00146198
0.0368536
0.0351751
-0.0205336
-0.0379179
0.10356
0.161186
-0.0192436
0.00122493
0.0109388
-0.0476733
0.0360449
-0.0218825
0.0772427
-0.0216739
0.0458598
0.0260932
-3.83511e-09
-0.024374
-0.0181082
0
-2.89371e-08
0.0010493
0.00120009
0.0210847
0.0383472
-0.207403
0.0109388
-0.13871
-4.70147e-51
0.00199941
8.19975e-80
-0.013133
-0.0736422
0.00399464
0
0.0103986
-0.159688
-0.150316
0.0349152
-0.43167
-2.33003e-07
0.0622217
3.99797e-76
0
-0.0881463
0.0771571
0.023141
-0.100092
-0.00993353
0.0227726
-0.247073
-2.92422e-05
0.0395889
-0.047722
-0.0305086
0.0998879
0.00207343
0.507119
0.0147958
0.00296622
7.53677e-06
-3.26036e-11
0.382502
0.0708573
0.0255109
-0.0920815
0.0320133
-0.0345108
-0.0566024
-0.0882067
-7.90505e-322
0.0250072
-0.0150963
-0.0708461
0.000712003
8.19975e-80
0.0109251
0.00399245
-0.0110687
0.109389
1.717e-76
0.136445
0.0301982
0.0123988
0.129551
-0.00647688
-0.0875817
-0.0862682
-0.0197359
0.027059
0.0149754
0.0880644
-0.0348444
-0.0991095
0.000467082
0.00616033
0.191184
-3.26036e-11
-0.0850571
0.000440917
-1.51359e-06
0.00162416
0.00249853
-1.27621e-08
4.77274e-77
-0.0196472
-0.0441863
0.109232
-0.0476072
-0.0364715
-0.137414
-0.00775975
0.074074
0.0581224
-0.0116506
-0.10771
-0.0394713
0.0176928
0.170335
-0.0847461
-0.00239683
-0.0540215
0.130735
-0.000779987
-3.02079e-06
-0.11888
0.00252226
-0.0390245
0.000571049
0.0126807
-3.3005e-156
0.0137431
0.082173
0.0128854
-0.0151889
-0.0472746
0.00207343
0.0227726
0.0014596
-0.110257
0.0123988
-0.020524
-0.0748859
0.0437902
-8.41749e-05
-0.0194778
0.0622217
-0.0380221
-0.129529
-0.0421773
-0.0431762
0.00131901
0.000342132
0.00620941
0.0159081
0.0325403
0.155452
-0.0364412
-3.26036e-11
-2.72489e-15
0.00396011
0.0359122
0.0237195
-0.0518708
-0.0180721
-0.0194931
0.0138055
0.00631639
-3.61785e-05
-2.36382e-06
0.0500435
-7.23208e-09
-0.0868504
0.0339199
0.025549
-0.0482873
0.0140797
-1.35646e-10
0.00399464
-0.0107871
0.0129617
-3.64261e-07
-0.0724567
0.0567979
0.0773975
0.0959398
0.105454
-0.0140505
-0.0116506
-0.00350746
0.0176369
-0.146451
-4.70352e-06
-1.12647e-321
0.118307
0.0475814
-0.0036086
-0.0562448
-0.0542873
-0.00765206
-4.76026e-09
0.0512459
8.36293e-172
0.102011
0.00226522
0.108154
0.0156542
-3.64261e-07
0.055681
-0.128575
-9.43083e-07
0.00146198
-0.0239263
-0.0205293
0.262741
-3.97726e-07
-0.0075551
-0.0702009
0.0350598
-0.140816
-0.138368
0.0785409
0.173399
-0.129981
-0.0606853
-0.0161861
-0.0781148
-0.0400677
-0.0997818
-7.34116e-06
-0.0195172
0.039008
-0.0224326
-0.048884
0.0163432
0
-0.0101396
-2.89371e-08
-3.3005e-156
-0.013236
0.0559669
0.0384075
-1.41827e-05
-0.0387976
-0.200617
-0.0553295
-0.00445849
0.00173621
0
-0.000130947
0.0182664
-0.03196
0.010552
0.00295618
8.36293e-172
-0.0184081
0.00554473
-0.0870515
-0.0219345
0.00295261
-0.102408
0.00649994
-9.26903e-10
0
0
-0.0441406
0.0694485
-0.0345005
0.00395307
6.06392e-68
0.137453
0.0156542
0.0027876
-0.0646112
-0.00834691
0.0497502
-0.00584941
0.00411716
-7.90505e-322
-0.0379882
0.043009
-1.01881e-05
-0.00765206
-0.0740282
-0.0561002
-0.0286447
0.0238292
0.0129617
0.184455
-0.0159109
-0.0246987
-0.0205293
-3.20622e-06
-0.000140649
0.00207343
0.136206
-3.12385e-08
0.00184321
-0.0725497
0.089411
0.0228897
-0.000119282
0.0170752
0.0717343
-0.0420002
0.000877237
-0.00805312
0.108037
-0.0805903
-0.0465169
0.135679
0.0134772
0.0223231
0
0.0217691
0.0973387
0.0185207
-0.0368631
-1.36965e-05
0.00228062
-3.3005e-156
-1.65046e-15
-0.0389839
-0.000503199
-0.0601032
-0.0219165
-0.029569
1.717e-76
-1.97748e-05
0.0767457
0.0558754
-0.113273
-0.0236866
-0.0476733
0.000656228
-0.0314678
-0.0124674
-0.0598936
0
0.0942662
0.0498083
0.000842844
0.0958154
0.038708
-0.151824
-0.0125933
-0.129514
0.031798
-0.086297
-0.0735974
-0.0175717
0.0613491
0.0198919
0.00228062
-0.0699689
0.0858333
0.0043909
-3.26036e-11
0.0708573
-0.244809
-1.86007e-11
0.100452
-0.000233743
-1.33355e-06
0.0198919
0
-0.0719049
-0.031959
0.0231517
-0.0282666
-0.0244707
-1.59329e-09
2.42092e-322
-0.00471689
0.0115964
0.00395846
0.0257722
-0.0167829
0.0650096
0.0231517
0.00114774
-0.197397
-0.0122598
-0.0146212
-0.0308866
0.077932
0.207493
-1.09893e-05
-0.101281
0
8.36293e-172
-1.52122e-06
0.00252226
0.170719
-5.8351e-06
0.0371605
-0.0990983
0.00528428
0.000493932
-0.00402355
-0.00358632
0.00135676
-4.50686e-12
0.0605168
0.00402898
-0.000108757
-6.59797e-07
0.014447
0.0206421
-0.077247
-0.0644644
-0.103356
-0.0189759
0
-4.70147e-51
-0.00015733
-4.76026e-09
-0.0126932
0.00411716
-0.0279225
0.0970393
-1.09893e-05
0.193595
0.179084
0.0939446
-0.0187439
-0.0013212
0.0418172
0.0246979
0.00795144
0.000777213
0.0378723
-0.112386
-0.0869549
0.041309
-5.35373e-07
-8.57386e-07
-0.00504168
0.000842844
8.22249e-78
0.00411716
-0.0518128
0.0407322
0.0131609
-2.58419e-11
0.0362721
8.19975e-80
0
0.0415735
-1.59329e-09
-0.0243737
-0.0921478
-0.0206487
-4.45419e-05
0.0320324
-0.0738354
-0.0310825
0.0227726
0.00305168
-0.134473
0.0174071
0.00624675
-0.221834
0.01953
0.126557
0.010552
0.000712003
-8.87225e-11
0.000231204
-0.0587223
-0.0367516
-0.0171135
-1.94286e-06
0.000755154
-0.0519373
4.77274e-77
-0.0352454
-0.013133
-2.89371e-08
-0.0237824
-0.0871479
0.102633
0
0.0201191
-0.0701219
-3.80743e-08
0.0476847
4.53101e-10
0.0196815
0
-2.98774e-14
-0.0198205
-0.0332293
0.0156542
-1.59329e-09
-0.0205498
0.00146198
0.0703202
0.0512459
-0.0116506
-0.0744862
-0.02982
0.0900492
0.0124062
0.0132902
0.0022793
0.000917812
0.0109833
0.00146198
0.0035293
-0.00322169
0.00301731
-0.0324758
0.0618857
-0.0352454
0.0766498
-0.00619049
0.0044392
-1.51359e-06
-0.151421
-0.042851
0.0168112
0.030996
0.342849
-0.00329769
-0.0569098
0.0704524
0.0294819
-0.00888069
-0.35011
0.0286106
-9.37787e-10
-4.64942e-05
9.53547e-322
-0.0795691
-2.92038e-06
-0.00843259
-0.0297095
0.0354966
0.0403958
-0.265744
-3.30287e-07
-0.0173723
-3.63038e-07
0.00695429
0.279428
0
0.0631493
-0.0801701
0.011989
0.016315
-0.0229374
-0.0387165
-0.000100995
-0.027253
0.0170439
-0.0185881
0.0344202
0.0144937
0.0544007
-0.000125935
0.0483598
0.00024678
0.0170439
0.0123988
-0.00127166
-7.07306e-08
-0.0210962
4.03829e-07
0.09173
0.536237
0.010552
-0.00358487
-3.3005e-156
0.0205788
-0.132332
-0.035966
0.000466659
-0.0196472
-7.23208e-09
0.173412
0.0491567
0.00187275
-0.0743355
0.00429937
-0.084302
0.000451252
0.00781589
0.00172843
-3.38904e-05
0.0244829
-0.00210777
-0.000137883
1.42785e-321
-8.94477e-05
-3.26036e-11
-0.0338967
0.0171737
0.010975
0.106634
-2.28908e-06
0.0727919
0.0313791
-3.20622e-06
-0.239593
-0.0520139
-0.00663585
0.0208437
0.061401
-0.0217581
-0.0394787
-0.0972145
0.0240521
-0.0210963
0.0144823
0.0123988
0.262219
0.0558754
-0.0218825
-0.0523648
0.00266827
-0.0137711
-0.0332389
-0.0139553
0.0908823
-0.188519
0.0725751
0.115507
0.0561516
0.0174833
1.91427e-06
0.00560002
-0.0306247
-1.22886e-06
0.00184321
0
0.0109819
-3.64261e-07
-1.41869e-07
-0.0120846
-0.057727
0.0403958
-0.0324989
-0.0888289
-0.0700918
-0.106606
3.89733e-07
0.00395307
-0.132406
-0.0282487
0.136448
0.0144635
0.0586709
0.000812246
0.0274149
-0.0296538
-0.0571444
-0.0174141
-0.00553436
0.00562986
0.0311007
-3.36482e-06
-9.26903e-10
0
0.00334313
-0.0413847
-0.0162836
-0.0335597
0.173704
0.0144616
9.58487e-322
0.181957
-5.3787e-07
0.0192771
-0.147068
0.0471346
-4.70352e-06
0.246741
-0.000229806
0.00232772
0.00176389
0.0446929
-0.190537
-1.86007e-11
-3.26036e-11
0.00048632
0
-0.173619
0.051153
0.00017481
-0.000141227
-0.000168791
0.0566828
0.0520816
-4.70147e-51
-4.73556e-09
0.00344806
0.00418283
8.19975e-80
-2.38138e-05
-1.86007e-11
0.0311766
0.029346
0.0038109
0
-0.030315
0.0278691
8.19975e-80
0.0403958
0.0140545
-0.0219703
0.255358
-0.150382
0.0174833
0.0230814
0.157028
-0.0399843
-0.167349
0.182524
6.22347e-67
-0.0219119
-9.44829e-10
-0.0652547
1.4822e-322
0.027264
-0.0400592
-0.036242
8.19975e-80
-2.33003e-07
0.00812281
-5.77032e-07
-4.78678e-08
-0.0404663
0.00915415
-0.0460892
-0.00291439
-0.00732834
-0.0483968
-0.0761646
-3.64261e-07
0.0392797
0.0545614
0.0179446
0.00999271
-0.104572
0.011989
0.0268458
-0.0197308
-1.86007e-11
0.00562821
0.00411716
0.010975
-0.0681884
0.0291693
0.09568
-0.0227992
-0.0890687
0.000866381
0.0341973
0.0275592
-0.0370917
-0.126614
0.0681306
0.015034
0.102325
-9.09176e-08
-0.13641
-0.0652886
0.00146198
-0.03715
-0.181252
0.0134772
-0.0916332
0.0269399
0.036094
-9.20595e-05
-0.0297827
-0.0218481
-3.61785e-05
0.0924155
0.0682442
-0.0314372
0.148983
-3.61785e-05
0.00059589
-0.165864
0.0313428
-0.0201069
0.0199142
-0.0482016
1.32054e-170
-0.014297
0.0196812
-0.0243737
-0.000168752
-2.33003e-07
0
-5.3787e-07
0.0312987
0.0104216
0.0375785
0.0263647
-3.18143e-06
0.0610886
0.039008
-1.55721e-07
0.014417
-0.0219165
0.028968
0.00226522
-0.072997
0.00252226
-7.90505e-322
0.0565904
-0.0333213
0.0407322
-0.043395
0.00207343
0.00105727
0.0052882
-0.000162542
-4.76026e-09
-0.00173247
-0.00843259
-0.0130894
-0.000108758
0
-0.0300348
0.000149944
6.22347e-67
0.00781589
0
-0.0374824
0.0258225
0.164557
-0.0649166
0.0357465
0.00287683
-6.72672e-05
0.0101532
0.0188295
0.00400873
0.00207343
0.0579935
0.010975
0.0386138
-0.0415652
0.079354
-0.0116506
-2.33003e-07
-0.132204
-9.86538e-14
0.0438812
-0.0136605
-0.000245607
0.0176369
0.0400861
-0.0147457
-0.0397993
-0.0861732
0.000419757
-0.0548107
-1.65046e-15
8.19975e-80
-0.0283742
-0.125
-3.97726e-07
0.105987
0
0.039008
0
0.00601902
0.0144635
-0.0424574
-0.0105813
-0.0438885
-1.35646e-10
0.00561418
-1.22886e-06
-0.0275678
-3.3005e-156
-0.15979
-3.5667e-06
0.00806724
0.187713
0
-0.00388376
3.89733e-07
-0.000125546
0.0502319
-1.77531e-06
0.00173621
0.0040026
0.000441281
0.137336
0.239619
-0.106584
0.283255
-0.00677757
-0.0118844
0.0201191
-0.116861
6.22347e-67
-0.0100682
-0.116498
0.0053659
0.208981
0.0332598
-0.0168835
-0.0463242
-2.92422e-05
1.33723e-24
-3.3005e-156
0.0112276
-0.0740991
-9.86538e-14
-0.027011
-0.159061
0.0909665
0.0447523
0.041934
0.0917037
-0.0196472
-0.0163331
-0.118782
-7.98066e-05
-0.049218
2.49651e-10
-3.61785e-05
0.0650096
0.00067559
-0.0138466
0.0227726
0.00765864
8.19975e-80
0.0402002
0.00327824
0.0319361
0.0649994
-0.112664
-2.99769e-10
0.189319
-0.00638712
0.00859959
0.0650096
-0.036242
0.0386817
0.039008
-6.65842e-05
0.00643049
-0.0502121
0.0897753
-0.0308866
0.040409
0.079354
0.259622
0.0193301
-0.0390245
-0.0644858
-0.0371755
0.0321965
-3.64261e-07
-0.0609783
0.0820385
0.00449705
-0.00638712
-0.0380881
-0.0229706
0.0174833
-0.072098
-0.0789337
-0.0314486
-4.10362e-05
0.000101653
-2.05637e-05
0.121842
-0.00765206
-0.00445849
0.000653808
-3.47287e-05
0.00208316
0.0553469
0.0838781
-0.0799733
0.0773499
-0.0854312
0.0128854
0.0439932
-5.72523e-07
-0.0205293
-0.0371139
-0.0688388
-1.09893e-05
0.00832682
-0.0066176
0.0156542
0.000394739
0.0412672
0.0358857
-0.00963958
-0.02971
0.0624778
-9.00418e-08
0.0850723
0.00010454
0.0138614
-0.167264
-8.86323e-07
0.00257639
0.120554
0.0363453
-0.0792216
0.0118538
-0.0159039
-0.0158954
-0.0345005
-0.0229374
0.0601955
0
-2.45997e-05
-0.0797289
-0.00948954
0.0536004
9.6411e-06
-0.202853
-0.0220112
0.0898793
-0.0156334
-0.0319812
-0.0882413
0.118517
0.0581124
-8.41749e-05
0.0030106
-9.00418e-08
-1.97464e-08
0.000805861
-8.00631e-06
8.19975e-80
0.0172445
0.367082
-0.069873
-0.000135894
-3.26036e-11
-0.0748968
0.00252226
0.0474894
6.03647e-05
0.00257639
-0.0201069
-0.0364091
0.1053
0.00420965
-0.000535675
-2.78892e-05
0.00252226
-0.0138432
-3.26036e-11
0.00147883
-0.0542873
0.0276263
0.0143163
0.114009
0.0170301
-0.0320273
0.0703871
-1.38913e-10
0.0343488
-0.0364243
-0.637007
0.0611863
0.00050526
-0.0169973
0.306459
0.102637
-0.0327596
0.00808526
0.0227726
-3.61785e-05
0.0111705
-0.000779987
0.00927522
-0.153038
-0.0186221
-0.0387938
4.77274e-77
-0.0283876
0.147409
-4.70147e-51
-0.00980743
-0.0484043
-0.00857254
-3.26036e-11
8.19975e-80
0.00172843
-0.0116506
0.0263647
-0.132332
0.00202157
-0.0430563
0.0199422
-0.0282487
-0.0858361
-0.0427677
-0.0282487
0.000842844
0.0213179
0.016027
0.0216549
-0.0198728
-0.0636888
-1.84992e-08
0.0167637
-0.0361666
0.000805861
-0.145163
0.482595
0.00564381
0.0512399
0.030629
-4.70147e-51
0.0467227
0.165426
0.0227726
-0.0724318
0.232429
0.0541302
0.113217
0.0545563
-0.0167737
-3.97726e-07
-0.0296538
-1.75681e-06
-0.011012
-0.0606853
0.0109109
-8.00631e-06
-9.68557e-07
-0.100938
0.0808277
-0.0258165
0.0159075
-0.00765206
0.0090476
0.00395739
-0.0488898
-0.0184081
-0.030409
0.0695698
0.101151
0.147097
0.00300985
0.0319361
0.0472024
0
0.100452
0.0158484
0.00907612
0.304458
0.0189776
0.0201191
0.0225712
6.03647e-05
0.0368536
0.0672329
-1.45786e-06
-0.0686379
-2.33003e-07
0.0779012
0.0465954
-0.0448323
-2.36382e-06
-7.34116e-06
8.19975e-80
-0.0257873
-0.0390245
0.0834088
-0.0122598
-0.000444018
-0.113629
-0.0422793
0.0605168
0
-2.84874e-05
0.165725
-0.132561
0.00399464
-0.0229374
0.00566135
0.0128021
0.00378672
-0.0364211
-0.0325048
-0.0492635
-1.75681e-06
-0.0443429
0.010219
-3.3005e-156
0.051243
-0.0325298
-0.0458744
-0.0864931
0.0171734
-0.00247367
0.00342849
0.0156542
0.0637074
0.0944008
-0.0427677
-0.0415111
0.0207245
0.0136121
-0.0256353
0.010374
-0.048884
0.00105442
0.00228062
-0.165334
-0.0167831
-2.72489e-15
3.37633e-171
-0.103584
-0.000168752
-0.0567499
-0.151319
-4.81076e-11
0.00193815
0.042208
-0.00360282
-0.0370976
-0.051754
0.175738
0.0704512
-9.23099e-08
0.0440241
-0.0612568
0.00936094
0
0.00155482
-0.0464113
-0.048884
0.0156542
-0.146059
-0.030409
-0.0252137
-0.0989973
0.13387
0.00314595
-1.01439e-05
0.0149548
0.0310886
0.208899
-3.32841e-07
-0.0116506
0.0156542
-0.0363788
-0.0314505
8.19975e-80
-4.33697e-09
0.0765317
0.00050526
-0.110058
0.0294664
0.00240564
0.0265143
-1.09893e-05
0
0.0275656
-0.0206123
-1.86007e-11
0.00257904
0
0.298473
-0.000141226
-0.0325048
-1.55103e-06
-0.000105129
-3.3005e-156
0.0156542
-0.0390245
0.0204916
0.0213019
0.0477813
-0.0288551
0.0720282
-1.09893e-05
-0.000529018
0.0222915
-0.0233743
0.0858746
-0.389041
-0.0750445
6.03647e-05
0.0338674
0.0207111
0.0392797
0.00399464
-1.06429e-06
-0.0828749
0.00102514
-0.0352454
-0.11203
0.0391368
-9.78294e-07
-0.0107871
-0.036242
-0.0868748
-0.0719064
-5.78723e-06
0.0757512
-2.78892e-05
-0.0243737
-0.0231928
0.0421734
-0.0124674
-6.72672e-05
0.00423433
-1.27621e-08
0
0.0461177
-2.33003e-07
-0.000238516
0.0239692
-0.0549122
-0.0194865
0.130127
0.00420965
0.010281
-0.00216906
0.00184321
0.00695429
0.0731243
0.0201191
0.0458598
0.0518485
0.0341361
-0.0341987
-0.0252583
0.0458598
-1.41869e-07
-9.76397e-06
-0.0390245
0.0124248
0.0416016
-0.0526798
0.0456306
-0.0717515
0.00403587
-0.128682
-0.0113708
0.0330808
-1.29321e-05
0.0285776
-0.0757063
0.130416
-0.000749135
-0.078531
0.303067
0.0111705
0.00172843
-0.00892333
0.332996
0.00382149
0.101197
0.0727919
0.00492216
0
0.023714
-4.21226e-08
0.0053659
0.0417094
-0.0688361
0.0449195
-0.020655
-0.269853
-0.0968165
0.182968
-0.0237292
-0.0671997
0.0163579
0.0142946
0.0650024
0.110307
-0.000126961
-0.0347481
-0.0577479
-0.0872172
-0.0335523
-0.0136464
0.0810693
-0.0570898
0.0323492
-0.168998
-0.025359
0.141589
-1.47799e-07
-0.0795691
-4.28957e-06
-2.33003e-07
0.017406
0.0170838
0.0357035
-0.0604356
0.0749164
0.0206929
-0.00653702
-0.0663988
-0.0384768
-0.0254813
0.000394739
-0.00360282
-0.00638712
0
0.00414815
-3.64261e-07
0.0698766
-0.00523871
0.0044319
0
-5.72416e-07
-0.00125393
-0.0267871
-0.130359
-1.12235e-13
8.19975e-80
0.0275386
-1.64805
0.0363208
0.277918
-3.33358e-06
0.158218
0.0174071
-4.34757e-08
-0.0594599
0.0156542
-0.100028
-0.000137883
0.0436621
-0.0736319
-0.168375
-0.113016
0.0069441
0.021581
0.028968
0.178773
-0.0278299
-0.0324989
-1.09893e-05
0.0567721
0.0134772
-8.13062e-05
-0.104753
-0.0933994
8.19975e-80
0.00730267
-8.26566e-07
-0.00173247
-0.0731016
0
0.0850014
0.0496374
0.0110726
-0.0313709
-0.0168575
-0.0500484
-0.00317337
-0.0427677
0.0499578
0
0.00149798
-1.86007e-11
0.0125833
0.0206661
0.0523561
0.000607543
-1.57024e-30
-0.00858184
-0.0317644
-2.73155e-05
-0.0219048
-0.0280641
0.0375762
-0.0831625
3.37633e-171
-0.127486
0.242523
-9.38909e-11
6.03646e-05
-0.190383
0.0459934
-0.100384
-0.0328926
-0.0192845
-0.0968401
0.00785176
-1.94286e-06
0.0595369
-2.66327e-08
0.01953
6.03647e-05
0.0886327
-0.00896359
0.00024678
-6.26609e-14
0.0388034
-0.014297
0.00303112
-0.0709735
-0.0515722
0.0594054
-0.0276499
-0.00776763
0.0558754
0.0227726
0.017139
0.016255
-0.000108757
-2.72489e-15
0.00193815
-0.0282487
0.0044392
-0.0836584
-0.0483151
-0.047733
-0.0337904
-0.120809
0.00168576
-7.90505e-322
-0.0717515
-0.0395189
0.00258292
-3.51243e-08
0.010975
-3.3005e-156
0.0423427
-7.34116e-06
0.0654008
-0.0205293
0.117702
0.145813
-0.0219165
-2.45997e-05
0.0199253
0.267754
-0.286226
-0.0874985
0.00298089
-7.26247e-05
0.016815
0.594416
-0.0722906
-0.0173809
-0.00916709
-0.0173787
-0.0572316
-0.124917
-4.49766e-07
-0.0623522
-0.0324989
-0.000108614
0.0716629
-0.0737642
0.0400244
0.000113872
0.0462672
0.0159086
0.0632446
-0.12649
0.115684
0.0582734
-0.0185881
-0.000141226
-0.0586755
-7.91357e-06
-0.00905819
-0.0312507
-0.0276498
-0.00471689
0.0230814
-0.023492
0.198743
-0.124562
1.66107e-06
-0.0210962
-0.0196472
0.0189776
-0.137413
-0.0155681
0.0211462
-0.0243737
-0.0185405
0.000777213
-0.012994
-2.98378e-05
-0.0297861
0.10356
1.69959e-321
-0.00444247
0.109209
-0.0544158
0.0771153
-0.0395328
-0.00835221
0.0766498
-0.0356152
-0.0793973
-0.0246987
-0.014297
-0.064577
0.00303148
-0.0192385
0.0610084
-0.134844
-2.98774e-14
0.000276236
0.107494
-2.72489e-15
0.0378723
-0.0242715
-0.0282487
-0.0364091
0.00899185
-2.42318e-05
-0.0345005
0
0.0356784
0.00067559
-0.051754
0
0.0462298
0.0306269
0.105293
8.19975e-80
0.00395305
0
-8.00631e-06
-0.0205293
-9.12481e-07
-9.33255e-09
-0.0943881
0
0.0153177
-3.26036e-11
-2.92422e-05
-1.0631e-10
-1.22886e-06
0.0157787
0.0570275
-0.068404
-0.00017923
0.00399464
-2.98774e-14
0.00399245
-9.50524e-06
-0.0414835
-1.35646e-10
0.0748359
0.0277856
0.00054316
-0.278492
-2.63309e-06
-0.0197621
0.150483
0.0133834
-0.0358571
0.0395889
0.0035293
-3.3005e-156
0.0971278
0.0868743
0.00787372
-0.0136514
0.002666
-0.000126961
0.00305168
-0.132854
-0.0161339
0
-0.0526798
1.69959e-321
4.53101e-10
-0.00938085
0.00399464
-0.0412457
-0.0390537
0.0379674
-0.00778252
-3.08182e-12
0.0147138
-0.104332
-3.61785e-05
7.33106e-05
0.00207343
-3.3005e-156
0.00048632
0.055157
-0.00905819
0.0916989
0.0407669
0.134447
0.00363512
-0.0660987
-0.0209787
0.0136357
-0.0181082
-0.0108276
0.121905
-0.0662902
-0.00358487
-0.00505911
-0.036242
-0.0801175
0.000276236
0.0474893
0.0108613
-0.0757048
3.89733e-07
-0.00396325
0.00406108
-0.012994
0.000450004
-0.0243737
-0.0234527
-0.00888451
3.51641e-08
-0.0352454
0.076935
-0.0401492
0.0278691
-1.09136e-05
0.0136801
0
0.0269389
0.0410128
-0.000468407
0.149481
0.0738148
0.00162826
-0.06721
-0.0843698
-3.26036e-11
0.0668766
-0.0218825
0.233457
0.200255
-0.0197359
-2.98774e-14
-0.0305074
0.0245642
0.16549
-0.0380589
-5.94264e-13
-0.0151873
-0.0488697
-0.000237089
-0.0243737
-5.47068e-06
0.0708573
-0.00396325
-5.04461e-08
-0.0559694
8.19975e-80
-0.0851919
-0.112797
0.016255
-0.0381808
-0.0318279
-0.00396477
0.0227726
-0.0253486
-0.00015733
-1.59329e-09
0.00327824
0.000276236
-0.0218825
0.000275224
0.107857
-0.0708429
0.0301982
-3.16763e-05
-0.0427677
0.0666662
-0.0229374
-0.0296538
-0.00816728
-0.0804203
0.0285279
0
0.000544363
0.041934
8.19975e-80
0.0632337
0.0655883
-0.00848748
-0.0288284
0.0300513
-0.0161152
-0.0570168
0.0706496
-0.134722
0.0352846
0.217446
-0.125197
0.00394249
-0.0758217
-0.0795877
0.0689759
-0.00396325
0.0351751
0.0217691
0.00492216
0.00106207
-0.0858479
0.0402539
-0.0142139
-2.71832e-06
-0.00826608
-0.000229519
0.116044
0.000842844
-0.0324989
0.0332395
0.00752827
0.00149798
-0.0246987
-1.59329e-09
-0.0987491
0.139155
-0.0171293
-9.45185e-07
-7.57002e-06
-0.00916709
0.00936595
0.016027
-0.0375192
0.0436749
-0.0258165
0.0135161
-0.0916332
-1.07288e-05
0.130252
-3.3005e-156
-0.0444068
-0.0270847
-0.0670865
0.156187
-0.0132259
-1.51359e-06
-0.0387941
-3.3531e-08
-0.036455
4.77274e-77
0.0167832
-7.90505e-322
-0.100591
-0.0519853
-0.013133
0.0368536
0.028968
0.122737
0.0512211
-4.76026e-09
8.19975e-80
0.0913293
0.00141979
8.19975e-80
-0.0405923
0
-0.0442966
-0.0881417
-3.3531e-08
-0.00883913
-0.169461
0
0.00936595
-0.0122598
-0.0120167
-0.117381
0.0320088
-0.0324989
-6.74342e-22
-0.0365334
0.0664456
0.0453221
-0.0388924
0.083425
-1.52122e-06
0.0275798
-0.0854865
-0.0340332
-0.0146641
-0.0506472
-1.86007e-11
0.0156542
-0.0115775
-0.00826608
-2.83157e-07
-0.101482
-0.0320877
0.036431
-0.0908964
0.0371608
-0.0871234
0.00257639
0
0.0535724
0.00173726
-9.86538e-14
-0.000159904
-9.37787e-10
0.222325
0.0359122
-0.0120273
0.0227726
0.0501716
0.0764589
-0.0392243
-9.78507e-12
-0.123632
-0.0379884
0.0356179
-5.78723e-06
-0.0666712
-0.000141226
-0.0568285
0.000450004
0.181684
0.0713016
0.0129617
-0.149103
0.275207
-4.78678e-08
0.0473033
0.000571049
-0.0385832
-0.0156968
0
-4.64988e-05
0.0650096
0.0332395
-0.00459942
-3.12385e-08
0.0227726
-0.0625465
-3.64261e-07
-0.0486577
0.0134972
0.0233433
0.0065169
0.04204
-0.0657305
0.00257904
-0.0116506
-0.0252583
-4.70147e-51
0.0661445
-0.0282368
0.00116752
-0.0110332
0.120485
-0.149633
-1.8789e-06
0.00402898
0.00243302
-0.22637
0.00239976
-0.0662902
-0.0944603
0.000671881
0.106634
0.00956069
0.0269399
0.0757512
0.00193815
-0.00748326
0.0758766
-2.66327e-08
0.0264864
0.0441816
0.0331944
0.00059366
-1.56811e-05
-1.97748e-05
0.0212281
-0.0421922
0.0389495
-9.38909e-11
8.19975e-80
-0.0455868
-0.137821
0.092204
0.0148037
-0.029738
0.218684
0
0.102499
0.0237098
-4.51392e-05
-0.121724
-9.029e-11
0.0512459
0.0206661
-0.00839956
0.0135161
0.0757512
0.0300513
0.0123988
0.030629
-0.00903951
0.0262598
-0.0456995
0.039008
0.0268458
-0.0717515
0
-0.0219165
0.000712569
-0.00490687
-0.0402823
0.25937
-0.00923878
-0.0741483
-0.0736117
0.00246983
0.0545563
0.0361128
0.00846007
-0.00638712
-9.20595e-05
0.220958
-0.072997
-0.048884
-2.84874e-05
-9.38909e-11
-3.12385e-08
0.342054
0.010975
0.0946677
0.0483491
0.00226522
-0.0229706
-0.0136491
-0.0513667
0.00562986
0.00936094
-0.119291
1.16599e-321
8.19975e-80
0.196209
0.0483905
-0.0181096
0.192692
-2.33003e-07
-5.78723e-06
-0.257119
-0.0756494
-8.13062e-05
-0.0941378
0.0709158
0.0773499
-0.0324989
0.0405548
-0.0491001
-2.38138e-05
0.0164965
0.0592686
-0.00843259
-5.72416e-07
-0.0515268
-0.0822406
0.0190695
-9.43065e-07
-4.50686e-12
0.039744
-0.0210962
0.0824496
0.0615563
-0.0206487
0.00225731
-0.0229374
0.151653
-0.026927
0.00399464
-0.0310825
-0.0504467
-0.0174194
-0.0260756
0.10356
-0.0262176
-0.0219048
-1.52122e-06
0.000386282
-1.52122e-06
0.0262598
-1.43981e-05
0.0314955
-0.0168963
-0.0748827
8.19975e-80
0.0734962
-0.0933102
0.00411716
0.0203413
-0.00112734
0.0655019
8.19975e-80
0.00199941
0.0733186
-1.22886e-06
-0.0513787
-0.0652886
0.0103555
0.0338448
-0.0169973
-0.0229706
0.123227
-0.00323002
-0.0628973
-0.0996802
-0.000141226
-4.13305e-06
-0.0184852
-5.3787e-07
-0.0624772
-0.0226058
0.0328076
-0.0317653
-1.06429e-06
0.0159075
0.0461192
0.0497502
-3.38904e-05
0.0674804
-0.0665731
-2.29917e-05
-0.035966
0.0378723
-0.0165686
0.0217695
-0.00916709
-6.74342e-22
-0.03708
-1.01881e-05
0.146041
-1.06429e-06
0.0263647
-0.0978739
-0.0571864
-0.0931613
0.0957915
-0.0387165
-0.0467518
0.063002
0.220724
0.0545447
0.0230772
0.0645251
-0.0129921
0.00452649
-0.134939
0.0220023
-1.0631e-10
0.00211354
-3.26036e-11
0.0420363
0
0.0140797
0.119636
-0.571964
0.169498
-0.244866
-0.0292188
-3.61785e-05
-0.0601032
-0.0931678
0.011169
0.00795381
-1.86007e-11
0.277694
-0.0116506
-0.022555
0.00296622
-0.0409357
0.00128871
0.096985
0.0717616
0.0319361
-2.35657e-11
-0.00843259
-0.0251614
0.0528923
-0.0158954
-1.59329e-09
0.0179674
0.0497502
0.0536004
-0.0841508
-0.067992
-0.000140696
-0.0234216
0.00116752
0.0245642
0.0428431
0.0268458
-1.59329e-09
-0.0394713
0.00302992
-0.0233421
-0.0250855
0.0524732
0.0138055
0.0438884
0.023136
0.0340095
0.00193815
-0.0957288
-0.0136651
0.102088
-0.0136626
-2.71832e-06
-1.01881e-05
-2.28908e-06
-0.0831373
-2.35657e-11
-0.0319812
0
0.0130592
-6.26609e-14
-0.0477165
-0.0543321
0.0479533
-0.00376449
6.03357e-05
-0.00173247
8.19975e-80
-0.00470701
-0.0706139
0.0285279
0.0465954
0.0507693
-0.000146041
0.000253626
0.0577212
0.0818307
0.0941769
0.000493932
0.163623
0
0.0170838
-0.0916332
-0.0491737
0.152904
0.171935
-1.87872e-09
-1.22886e-06
-0.0168469
0.00110819
0.313747
-0.0397953
3.26458e-48
0.0306269
0
0.0104801
0.104089
-0.0101737
0.00302598
0.0129617
0.00207343
0.0465954
-0.0863295
0.0209692
4.03829e-07
4.03829e-07
0.0856326
-3.26036e-11
0.0950144
0.110907
0.0508261
-0.150699
0.0320115
0.0628032
-0.00805875
-3.21098e-06
0.150854
0.00116752
0.0183945
-0.00699157
-0.12128
0.00452812
-0.0116506
-4.45698e-06
-0.0297772
-0.0389082
-0.0132158
-0.0319812
0.0583709
-0.0513668
0.00420965
-0.0181934
0.0084144
0.0200217
8.36293e-172
-2.07582e-05
-2.98774e-14
-0.021043
-0.00638712
-0.0120807
-0.0397288
-0.00765206
0.139155
-0.0142139
0.0477812
8.19975e-80
-0.0249322
-0.0196472
-3.26036e-11
0.030629
1.4822e-321
0.0708573
-0.0186201
-0.012454
-0.190766
-0.0792216
0.021086
-0.000174062
0.066985
-0.0321445
-0.0630275
0.0521155
0.106634
-0.0158595
0
0.104776
-0.0833889
-0.328432
-0.0463776
-0.032515
0.0042976
-0.200951
0.0453124
0.00296622
0.0235625
0.0227726
0.0167637
0.0659066
-0.0356269
-0.0458585
0.0213019
6.03647e-05
0.032595
0.0977548
-0.0531389
0.0199422
0.000664368
-3.83511e-09
0.118662
0.00522326
0.0035293
-0.171832
0.0171737
0.00399245
-2.89371e-08
-0.0390245
0.00158134
0.0645896
-0.039451
-0.0473126
-0.0544096
0.0090476
-2.68732e-11
0.0631493
-2.99769e-10
0.0983214
0.0138134
-0.0324989
-0.0255291
-0.043205
0.0706553
-0.0304294
0.0777659
0.0754219
-0.0282487
4.77274e-77
0.073147
-0.0793741
0.247277
-0.00020841
-4.49766e-07
0.405549
1.33723e-24
0.00492216
-0.014297
-0.30567
-0.0169973
-1.0631e-10
-0.0543321
-0.0427677
-0.012078
0.00137113
-0.0325298
0
-0.000137883
-0.0554886
0.00551635
-8.13062e-05
0.0794883
1.73417e-321
-0.0335447
0
-0.0543119
0.0764084
-9.37787e-10
0.0340935
-0.0400677
0.108748
0.00382149
0.0503685
-0.0418163
-8.94477e-05
-3.3005e-156
0.116959
0.0129711
-2.11955e-09
-0.0229374
-0.0745369
0.000627601
-0.0146256
-0.0194931
-2.98774e-14
-3.12385e-08
-0.0749122
-0.00017923
0.063002
-0.0704459
0.27232
-3.08182e-12
0.004752
-0.0458744
0.0198085
-0.127157
-0.0219905
-0.0116628
-9.09176e-08
-0.0292824
0.0174986
0.127404
-0.0463236
-1.36965e-05
0
1.32054e-170
-4.26782e-06
-6.65842e-05
-2.29917e-05
0.0903016
0.0757512
-0.0389839
6.03647e-05
0.00050526
-1.42042e-09
4.53101e-10
-0.0197359
0.00267814
-6.74342e-22
0.0818177
0.157438
-0.0114591
4.77274e-77
-0.0136491
-4.78678e-08
0.0268458
-4.76026e-09
5.73104e-06
0.0574704
0.199426
0.0212087
0.00841178
-4.70147e-51
-0.0664146
0.0446396
-0.0496203
0.219422
-1.87872e-09
0.0138055
0.000338895
0.0115703
-0.102496
-8.00631e-06
0.025768
-3.3005e-156
-7.90505e-322
-0.0443429
1.76578e-05
0.0138055
-0.160424
0.143243
-0.0228579
0.00795381
-0.0243737
0.00846007
0.0544722
-0.0232689
0.0540843
-3.18143e-06
-5.78723e-06
0.0528923
0.227886
0.092508
-0.0260756
-3.35022e-07
-0.0265909
-0.0708429
0.000467082
0.00104193
-0.0227066
-0.0543321
8.19975e-80
-1.57024e-30
0.00560012
0.0351751
-4.50686e-12
-0.0423594
0.0441672
0.00730267
-7.23208e-09
-0.014297
0.000842844
-2.99769e-10
-0.291316
-0.114524
0.0461272
0.016027
0.0205788
-0.0531304
-0.0122598
0.0351751
0.579866
0.0567721
-0.0146212
0.0562969
0.0027876
0.0264864
0.00067191
-0.0708437
0.000453278
-0.0819992
0.00268239
-0.000125935
0.0154597
-0.0723037
-3.57961e-06
-0.0841508
-0.0311197
0.0438884
-0.0859816
0.00139271
-0.366596
2.64299e-171
0.100773
0.00135042
-0.00738276
0.0119776
0.00627526
-2.68162e-05
-5.7883e-06
8.19975e-80
0.0199422
0.010552
0.170515
0.0202652
0.0138054
0.0572225
-0.0371139
0.0816573
0.00936094
-1.9779e-08
0
0.0754957
-0.0196472
0.0275592
-0.0640683
-0.0332293
-0.0722779
-0.00176209
0.0351751
0.00067559
0.000467876
0.0213019
-0.0305086
-0.0463776
-9.86538e-14
0
-2.03579e-10
0.000409292
0.0494163
0.0499578
0.0916327
0.0498083
-0.000108757
-3.63038e-07
0.00695429
0.0171445
-0.087421
0.0129617
0.0721242
-3.08182e-12
-0.0099028
0.068632
-0.20236
8.19975e-80
-0.0126021
-0.0205293
0.0517072
-0.021333
-4.51392e-05
0.0965323
0.00217982
-0.0072666
0.0959654
0.0502265
0.0611863
0.0812565
-9.33255e-09
0.0451577
0.0227726
0.00399464
-0.081581
0.0477057
0.000367625
0.0952782
-0.0325048
-0.0399928
-0.013225
0.0227726
0.000453549
-2.89371e-08
1.33723e-24
0.0262174
-4.70147e-51
-1.44959e-07
0.0605168
-3.20622e-06
-4.73556e-09
0.0598845
0.00252226
-0.0301591
0.0437049
0.0779427
-0.0105682
1.76578e-05
0.0897482
0.0503685
0.10356
-4.64988e-05
0.0395316
-0.0282487
0.00492216
0.140127
-0.0948941
0.0539484
-0.190926
-0.0467518
0.0131271
8.19975e-80
0.0716334
0
-0.100384
9.58487e-322
-0.0199087
0.00173726
0.0906884
-0.0397259
0
-0.0056558
-0.0542873
-0.000113093
0.00399464
-1.77864e-322
-0.219022
0.00915415
0.0776894
-0.049047
0.0101329
0.128383
0.000824761
-0.0135167
0.0415195
-7.67352e-06
-0.00017923
-0.0388947
0.0924511
0.0990633
-7.06395e-08
0.14683
-0.0364091
0.00320877
-0.000202963
0.00168576
0.0792207
0.0594288
0.00411716
0.027506
0.029341
0.218747
-0.0569889
0.010975
-0.0543233
-0.165033
-0.0426458
0.000571049
0.00146198
0.00480288
0.178259
-7.07306e-08
-1.65046e-15
-0.00534506
-4.22783e-05
0.000556049
0.00326061
0.0349486
0.0946677
0.0205788
-0.0212502
0.0300513
0
-2.0323e-08
0.0301893
0
-0.021333
-0.0371139
-0.0371801
-3.3005e-156
0.0174071
1.717e-76
-0.0455027
-0.0505179
0.295386
0.00314595
-0.0625973
0.0420598
0.0312987
-0.0460171
-0.0228546
-0.0197359
0.000206331
0.0285279
-0.0783963
-0.0389082
0.0984304
1.28457e-321
0.018495
0
-0.0309509
0.000712003
-0.0258165
-8.57386e-07
0.0680934
0.063002
0.030629
-0.01553
0.0975276
0.133405
8.19975e-80
0.0443182
-0.0320603
-0.114629
0.0984031
0.00158658
-0.0146212
-0.0191919
-0.0513954
-0.202071
-4.51392e-05
-0.0297161
0.00403446
0.0118538
-0.0184538
0.0185171
0.0384462
-0.0159552
0.00172843
-0.0657337
0.00146198
-4.81076e-11
-1.27621e-08
0.0215832
0.00408275
-0.0301591
0.0704524
8.36293e-172
-1.40985e-06
-0.0256528
0.0851082
-2.72489e-15
8.19975e-80
0.011624
-0.05651
0.135904
0.0691557
-0.013818
-0.0219119
0.0438884
0
-0.00805312
-0.0741558
0.00953811
0.0209692
0.0515063
-0.150952
0.0870113
0.0649602
0.0031638
-0.0171698
0.010975
0.123384
0.0230814
0.000441281
-3.61785e-05
0.0148037
-0.100863
-0.0163119
-1.27621e-08
0.00142621
0.00860558
0.0550417
0.102011
4.77274e-77
0.0541525
0.00137113
1.07147e-67
0.0260718
0.0392797
0.00193815
0.094103
3.98131e-05
-3.33887e-06
-0.048931
-0.122879
-4.70147e-51
0.0907877
0.00146198
-0.000108757
-2.63309e-06
6.01059e-05
-2.45997e-05
0.143242
-0.367839
0.0826455
0.0228518
0
0
-0.081393
-3.3005e-156
0.00643049
-0.0451095
0.125015
-0.0135167
-0.0358282
-0.0342105
-0.0332293
-0.0368631
-0.0394066
-0.000212486
4.77274e-77
-0.0364091
0.0231414
0.0451577
0.0995826
0.0035293
-0.0976569
0.155828
0.0256893
0.0115703
1.28457e-321
-2.65168e-05
0.00158658
-8.57386e-07
-6.97332e-06
-0.0163588
0.0558716
0.0175187
-0.00260287
0.041934
-0.14552
0.00302218
-1.28525e-09
-0.0164151
-0.0183532
-3.32841e-07
-2.58732e-07
-1.73741e-09
0.0606756
-2.15803e-05
0.041934
-0.0116506
-0.21251
-7.57002e-06
-1.26942e-06
0.0650096
-9.68557e-07
0.0341973
-1.79266e-11
-2.83157e-07
-1.84992e-08
-0.0262104
0.0199253
-2.98774e-14
0.088597
0.0438827
-0.0338967
0.00191678
0.0140558
-0.0205293
0.118307
-7.57002e-06
0.136448
-0.118242
0.226297
8.90663e-25
0.0505085
0.00399464
0.00567531
0.0429181
-0.0226308
-0.12823
-0.0219165
-0.143396
0.00430214
0.0475336
0.00411716
0.00252226
-0.0752665
-0.0599004
-4.51392e-05
0.152741
-0.0497688
-0.0229374
0.000453278
0.0438884
0.00199908
0
-0.053802
0.0022793
-0.00843259
8.19975e-80
0.0220056
0
-0.0325048
-0.0743031
-0.00388376
0
0
0
-5.72416e-07
-1.87872e-09
0.010219
0.0927214
0.0692368
-2.89371e-08
0.00806724
-4.73556e-09
-9.38909e-11
0.0651551
0.102325
0.00581606
0.109834
0.026616
9.59403e-77
-7.23208e-09
0.185831
1.29939e-321
-0.0016675
0.0319361
-0.0265408
-1.22886e-06
-0.0198885
-1.22886e-06
-0.0219703
-0.736681
-4.51392e-05
0.13761
-0.0414529
0.0206421
-0.0205293
-0.0620389
-0.0119177
-0.130007
0.0198919
0.143661
0.116284
0.0278691
0
-4.34757e-08
0.232971
0.132646
0.00420814
-4.49766e-07
-3.97726e-07
-0.120277
0.0123988
0.0318955
0.0245035
-0.0219048
0.0185474
0.0143009
0.115734
0.0498083
-2.98378e-05
0.0312987
-0.00396325
8.19975e-80
-0.0397953
-0.11203
0.00067559
0.00289508
-0.0541613
-0.0301593
-0.00830081
-0.0237133
0.0437259
-1.51359e-06
0.118867
0.0702689
-2.1244e-05
-0.108128
-0.0441375
0.000842844
0.0118538
0.0401146
-0.000892241
-0.0117111
0.113211
0.0555902
0.0026295
0.051153
-0.0148474
-1.86007e-11
0.0245642
-0.0512814
-7.57002e-06
-0.048269
-3.64261e-07
0.00131901
0.159199
-0.0792216
0.1226
0.0593994
0.0465032
0.0383472
-0.0788171
-0.198876
-2.98774e-14
-4.70147e-51
0.151009
0.0105687
0.0185146
0.16572
-0.0205404
-0.0167159
-0.102802
-1.59329e-09
-9.38909e-11
-8.19825e-05
-0.0146212
-4.78842e-08
0.0603984
-1.58954e-07
-1.79293e-11
-0.00826608
0.0278691
-9.38909e-11
-2.46692e-05
0
-0.102768
0.00159196
0.000683818
-4.13305e-06
0.0227726
-0.011635
0.0868426
0
-7.57002e-06
-0.0319151
-3.83511e-09
0.0587418
-0.000125935
0.116828
8.19975e-80
-5.70011e-07
-0.0301591
0.0650096
0.0839193
-0.068062
0.283607
-0.0354744
0.0301144
0.0808242
0.00399464
-0.0649413
-2.83157e-07
0.0850723
-0.0259757
0.0725235
-0.00504992
-0.0155318
-0.0804203
-0.0219703
-2.89371e-08
-0.0313709
-0.0256078
0.00112519
0.00567662
-0.0218825
0.0305093
0.00399464
0.0298028
-1.32153e-05
-0.0171293
0.016255
0
0.028891
-1.84992e-08
-0.468094
0.00128636
0.00936094
0.025736
-0.0241188
0.0838565
0.0277473
-0.143567
0.0227726
-8.94477e-05
0.0166066
-9.98679e-13
0.00199941
0.00936595
-1.87872e-09
-0.0105912
0.00305168
0.0140558
-4.79286e-09
0.00327116
0.0199422
-0.0587313
0
-0.0388735
-0.00638712
0.000453278
8.19975e-80
-2.58732e-07
-0.0274767
-4.13305e-06
-0.0506413
0.0555902
-3.26036e-11
0.0384462
0.016686
6.03647e-05
-0.0515268
-0.0258342
0.0053659
0.0140558
-0.051754
0.0443182
-0.0206487
0.0227726
0.0931238
-0.0487904
-0.122459
0.0610565
0.00207343
-9.31876e-05
-4.45698e-06
-0.0234711
-2.05637e-05
0.0436621
-0.0845345
0.00142621
0.317774
-0.0297161
0.039008
-0.0378053
0.0010605
1.07147e-67
0
-5.2061e-07
-0.021333
-0.0683484
0.192804
-2.05637e-05
-0.0174788
-0.0175047
-0.00358487
-0.258585
-0.035766
0.0188086
0.0436621
-0.0178623
-5.04461e-08
-3.63038e-07
0.0272195
-0.101494
0.0147138
-0.0602708
0.00153158
0.0233985
4.77274e-77
0.113357
-3.26036e-11
0.00399464
0.0807535
0
4.77274e-77
0.202357
8.19975e-80
8.19975e-80
-0.0888974
-0.0427543
-0.000137883
-0.141893
-0.0875025
-0.0443429
-0.0198728
0.087428
-0.0254932
-0.0382409
0.000866381
-0.0753225
-0.0205293
1.32054e-170
-0.272726
0.00083999
-0.072456
0.0148243
-0.0308866
-6.87703e-06
-3.83511e-09
0.0202112
0.113768
0.00330412
0.0189776
0.0164965
0.0373002
0.0816932
-3.63038e-07
0.00562986
0.0143575
-0.097991
-8.00631e-06
0.0732101
-0.0763798
-0.0234934
-0.0890565
-0.0252206
-0.0391865
0.0199422
0.0552804
-0.000749334
0.0208894
0.0145034
0.0221725
-1.59329e-09
4.53101e-10
0.00860424
-0.0244075
0.000299225
-4.45698e-06
0.00226522
-0.0552818
0.0357576
-0.0163331
0.154757
-1.59329e-09
0.0748359
0.0206421
0.166048
-0.000237925
-0.0249516
-0.224947
0.067926
0.00107878
-0.0105295
0.0165454
0.267528
-6.40773e-05
-3.63038e-07
-4.78678e-08
0.122182
-0.13133
-0.00411211
0.0199422
-0.0340598
0.0645384
0.0198919
0.00816809
-1.84992e-08
-0.0363052
-2.63309e-06
-0.0143682
0.000450004
0.0706375
-0.0221298
-0.0305073
-0.0189281
0.128419
-1.01881e-05
0.0841024
0.0891235
0.00675931
0
0.00899185
0.0370193
-0.0338967
-0.0603237
0.429197
-0.0297161
-1.65046e-15
-0.0245337
0.016255
-0.0308866
0.00257904
0.034046
-0.0128208
0
-5.78723e-06
0.0118538
0.000618532
0.000299225
-0.167349
-0.00173247
0.0624778
-0.000202962
-0.048884
-2.63309e-06
0.0400978
-0.223419
-0.0150523
0.00257904
-0.132332
-0.0205293
-0.0643118
0.146378
-0.0219048
-5.3787e-07
-0.0666635
-0.00173247
0.0461192
-1.44537e-06
0.20738
0.17394
0
-4.52108e-05
-0.0219165
0
0.0676078
0.087922
0.0529005
0.0227616
-0.130007
-0.0219165
-0.00905819
0.00557849
0.0044392
-0.0219048
0.414375
-0.0448185
0.20996
-0.0210962
-0.0472746
0.00480819
0.0716334
-4.78842e-08
-0.0429019
-0.0786579
0.0148256
0.0156542
0.0499578
0.111612
0.0814693
0.00795381
0.0516163
-2.95009e-05
-0.0388766
-0.243064
0.156457
-1.87872e-09
-0.095835
-0.0720371
0.0155644
-0.066296
0.0035293
8.19975e-80
0.016255
-2.28908e-06
0.0459521
-2.0323e-08
0.0250042
0.00793524
0.0513909
-0.00629595
0.0654498
-3.3005e-156
-0.204181
0.220289
-0.0116522
-0.0413204
0.012168
-0.0116506
-2.68732e-11
-0.043397
0.00327824
0.093531
0.00149798
-9.37787e-10
0.0159051
-6.26609e-14
0.00643049
0.0226688
-0.0325048
0.0551791
-0.0692167
-0.0261087
0.00615043
0.0147543
0.0730176
-0.0164102
-0.0234527
-4.64942e-05
-1.59329e-09
0.0129617
0.359772
-1.86007e-11
1.717e-76
-1.12647e-321
-0.0527075
-0.0673655
0.0899094
0.0247106
-0.0591357
0.0199422
0.0148504
-0.0282666
0.0227726
-0.0621949
-0.000790904
0.0470579
-3.20622e-06
-0.0402125
-0.0163133
0.0950888
0.00782901
0.0322382
-0.0325298
-0.00735196
0.043649
0.0156542
-0.0601032
0.0227726
0.0245642
0.0278943
0.0194741
0.0227726
0.00112519
-0.0301591
0.00116752
0.0161257
0.32923
0.01953
-0.0421922
-0.0922827
0.106591
-0.023236
0.00116752
0.0146809
0.00249654
0.010506
0.0118916
0.116913
0.0328504
-0.027293
0.0286102
-0.047722
0.00795381
0.485027
1.13856e-05
0.0696102
0.181617
0.00228062
0.0338006
0.0737195
-0.030409
-0.050283
-9.26903e-10
-0.0353631
0.000299196
0.0670155
-4.11181e-05
-2.92422e-05
0.0332055
0.00184321
-0.0657388
-0.0604174
3.99797e-76
-0.0119302
8.89318e-322
-0.031003
0
0.00252226
0.0518237
-0.0242822
0.0713538
-0.0515247
-1.86007e-11
0.038688
0.00146198
0.0812188
0.203869
0.124485
-0.00386332
0.121425
-0.0151269
0.0156542
0.0610084
0.113137
0.0332395
-0.000108758
0.0748359
0.383354
0.0140558
0.0248429
-2.63309e-06
0.000455403
-0.0143046
0.0809843
0.000694669
-0.0390245
0.00252226
-0.00043232
8.19975e-80
0.0710406
-0.010882
0.0148256
-0.0101251
8.19975e-80
-0.0319812
-3.3005e-156
1.89415e-05
-0.277023
-0.0121379
0.0507187
0.0583813
8.19975e-80
-0.523229
0.0863706
-0.0717988
1.84712e-170
-0.0458744
-0.041533
-0.0748827
0.0174833
0.020746
-7.23208e-09
0.01953
0.00423729
0.00462767
-0.0524261
-1.86007e-11
-0.0617507
-0.0548381
-0.0400592
-0.127534
0.00211354
-6.26609e-14
0.100314
0.000110066
-3.26036e-11
0.102325
-0.0418911
0.00460483
0.00211354
0.109811
-3.3005e-156
-0.00535576
8.19975e-80
-0.0163331
0.0276259
0.000276236
0.0154751
0
-1.55103e-06
0.196318
0.0206421
-0.0463236
0.0386768
-1.52122e-06
-1.01881e-05
-0.0243737
-0.0171103
-0.0258165
0.0013377
0.329107
0.00112519
-0.0389817
0.15734
-5.35373e-07
-0.0229374
-0.0757048
-0.0476072
0.0281553
0.00395307
0.0970102
0.00223791
0.0096274
8.19975e-80
0.0171737
-0.0948709
-5.73067e-06
0.000730877
0.0198085
-0.17095
0.0199422
-0.0880874
-0.0792114
-0.0977478
-0.0324989
0.146962
-0.0551562
0.0156542
0.0799022
-0.000141226
0.00809233
-1.06429e-06
0.0179587
-0.0252583
-0.0233254
0.0301893
0.00067559
-0.0258165
-0.0546477
-0.0361666
0.00411716
0.0156542
-0.00523871
0.12686
-0.026927
-0.32061
-1.99108e-321
0.051783
1.69959e-321
0.010975
8.19975e-80
0.120018
-0.0158645
-3.01634e-13
-0.0342207
-2.69808e-10
0.099516
-0.0294964
-0.305213
0.0452504
-0.0466933
-1.79266e-11
-3.08182e-12
0.0198085
0.00399464
-0.0560496
0.000208549
0.0712076
3.89733e-07
-9.38909e-11
0.0322413
0.147097
-0.040521
0.0391153
0.0414421
-0.0261462
0.0156542
0.039008
-3.02079e-06
3.98131e-05
0.0170358
-0.137391
-0.0400592
0.00795381
0
0.0351751
-0.0198728
-1.51359e-06
-0.000202963
0.0351751
-0.0229706
0.0641006
0.101326
0.24139
-0.172187
-0.0787993
0.00936595
-0.0483151
-0.0116231
0.00399464
0.0102924
-0.0219165
-9.38909e-11
-0.0737326
0.159805
0.011989
-0.0158954
-0.00765206
-0.0196472
-0.0335447
0.0351751
-0.0523718
1.73417e-321
0.402774
0.080645
-0.0347398
-0.0171325
-9.98679e-13
-0.0291175
0.00184321
-0.0303092
0.0144635
0.0068812
-0.00638712
0.00207343
-0.0124754
0.0383009
-0.0205293
-0.0579186
-0.0377178
-0.0456977
-0.0572018
0.021581
-0.0224341
-0.0196472
0.0631493
-1.67266e-05
-9.09176e-08
0.0301709
-0.10923
-3.70284e-06
0.0149754
-0.0209678
0.0262233
-0.00843259
-2.89371e-08
0.00158658
0.0964165
0.0765317
-0.0119791
0.0415758
0.104594
0
0.0266365
-8.94477e-05
0.0852329
-3.33887e-06
-0.188271
0.0243951
0.0247494
-1.21938e-05
-0.0567095
0.0170867
-0.0370917
-3.26036e-11
0.00399464
0.0479371
0.0255109
0.0156542
-7.4076e-05
0.0171734
0.0134791
0.0373153
0.0678908
8.22249e-78
-0.0408421
0.0818553
-0.00730263
-0.024481
-0.0162582
0.0265866
0.0090476
0.00303642
-4.70147e-51
0.0164965
0.0156542
0.0216549
0.0982803
0.0820412
-0.0708429
0.0177159
-0.119179
0
-3.47287e-05
-0.0370976
-4.70147e-51
-0.132459
0.0969852
-0.0252583
-4.03887e-06
0.115575
0.00730267
9.43967e-07
1.33723e-24
-4.70147e-51
0.00314002
-0.0235413
-0.00173247
-0.354124
-0.0531804
0.0792248
0.000122376
-0.0206487
0.183006
-0.0218569
-0.0634529
-2.33003e-07
1.32054e-170
0.121611
0.040043
-1.49966e-244
-0.016954
-0.0416277
-0.0753225
0.0341361
-0.000119282
-0.0378378
-3.01634e-13
-0.0405239
0.00220721
0.00411078
-0.00264252
-4.51359e-07
0.0180497
-0.0426458
-1.87872e-09
0.0206661
8.19975e-80
-0.0770155
0.0270788
-0.00396477
0.0245035
-2.33003e-07
-0.185251
-7.23208e-09
0.00662881
-5.47068e-06
0.0164965
0.223912
0.0382672
-0.00970601
-0.249841
0.27232
-0.00209649
8.19975e-80
0.103114
-0.0163217
-0.0197359
0.0156542
0.086701
0.0364579
0.00907919
0.00795381
-9.38909e-11
-0.143317
-3.08182e-12
0.230141
-0.0370917
0.0125488
-0.100363
-0.0243737
-0.116151
-2.92422e-05
0.0470579
0.00199941
-2.07582e-05
-0.257031
-0.0822406
4.77274e-77
-8.15929e-06
0.0833657
-0.145886
-0.0101448
8.19975e-80
-3.26036e-11
-0.179091
3.26458e-48
-2.29917e-05
-0.0640683
0.091181
0.120228
0.167682
0.167682
-0.0860706
-0.0293766
0.150414
-0.0319812
0.08534
-0.0793203
8.19975e-80
0.0245035
0.00562986
8.19975e-80
0.0227726
6.06392e-68
0.0225459
-0.0841508
-2.58419e-11
3.89733e-07
-0.00947417
0
-0.318853
0.000206331
0.0443166
1.69959e-321
0.0265146
-0.0352454
-0.0312352
0.181838
-6.74342e-22
-0.166561
0.00412855
-0.0128208
0.0156542
0.00906526
-0.0348159
-2.92422e-05
0.0424302
8.19975e-80
0.00157707
-0.0772438
0.0216271
0.497141
-4.45419e-05
-5.3787e-07
-0.0292188
0.117186
0.0300152
0.00287692
0.0351736
-0.0339198
-0.0116506
0
0.106665
-0.0390245
0.026903
0.0206661
0.0359122
0
-0.205674
-0.0410056
0.00241186
-0.00396325
-0.00843259
-0.0286874
-0.129432
0.037315
-9.86538e-14
-2.03579e-10
-0.113555
-0.0401492
0.0746141
-0.0956292
0.00352504
-1.17292e-05
0.0456306
0.243681
-9.38909e-11
0.016255
-0.0116506
0.00263507
-1.01881e-05
0.0352831
-0.0119178
-4.70147e-51
-4.51392e-05
0.000842844
-1.28568e-06
0.00926404
8.19975e-80
0.0245642
0.018721
0.00790046
0
0.176057
-0.000233743
0.136633
-0.0296538
0.0105776
-0.0964663
0.222537
0.11079
0.00407084
0.00157672
-2.98774e-14
-0.0549631
0.0157028
0.0316632
-0.0939205
0.00547399
-0.288593
0.0314739
-0.0736117
3.37633e-171
9.43967e-07
0.0578791
0.0162786
-3.63038e-07
-0.122926
0.0374223
0.0962265
0.224615
0.0850723
0
-3.3005e-156
-0.0698916
0.00207343
-0.0726744
0.00131901
-0.00843259
-0.0488853
0.156059
0.00170727
0.0026801
0.171603
-0.120326
5.53065e-05
-1.84992e-08
0.0894542
0.0400978
-0.051881
-0.0627428
0.0564979
-0.00542756
-2.78892e-05
0.044354
-1.59329e-09
0.0767684
-0.0210962
-0.0391333
8.19975e-80
0.0371605
-0.0101396
-4.70147e-51
0.115972
6.03647e-05
0.02741
0.0384462
0.00448031
4.072e-06
8.19975e-80
0.0153521
0.199047
-0.0717515
-4.70147e-51
-0.0264778
-1.55103e-06
-0.0463233
-0.0658754
-0.0190781
0.118236
0.0320133
-3.6222e-05
-1.59329e-09
0.0927373
0.0867848
-0.0285523
0.00120277
0.00146198
-0.0281846
0.0103547
0.0635184
-0.0219048
3.37633e-171
-1.50435e-07
-0.0210962
-0.0460924
0.0111607
0.0838781
-1.57024e-30
0.00726929
-0.000142063
0.0701936
-0.0103339
0.00184321
-9.93499e-05
0.25642
0.0497502
0.00320877
0.114434
-7.23208e-09
-5.47068e-06
0.174636
0.0126542
0.136238
0.0613826
3.99797e-76
-0.027293
0.120506
0.00191566
-0.0407768
0.0312987
0.0461986
0.00595857
0.00695429
0.187776
-2.89371e-08
-0.0248498
-1.33845e-06
0.0113349
0
-0.00181837
-9.26903e-10
0.0211048
-0.0201069
-0.0433803
1.73417e-321
-3.26036e-11
8.19975e-80
0.106477
-0.0205293
6.03647e-05
-0.0816055
-0.0928224
-0.0129753
0.0156542
0.0825042
0.251161
-0.0569384
0.0159614
0.0311008
0.0018413
-2.0323e-08
0.101151
-0.0250574
-0.0134177
0.0421189
0
-0.029569
0.00411716
0.0119296
0.0198085
0.0778334
0.0164965
-1.65046e-15
-7.23208e-09
0.0189776
-2.06111e-05
0.022787
0.0308811
-0.0404944
-0.0159739
0.0443182
0.270711
-0.00628746
-1.35646e-10
-3.61785e-05
-0.104202
0.0326892
-0.0219165
0.0397004
0.0319361
-0.0206487
0.0262598
-2.89371e-08
0.0425523
0
-0.0935548
-5.58982e-05
0.0318999
-1.58954e-07
-1.56811e-05
-0.0297544
0.0446328
-0.0209848
-0.00360282
-0.122112
0.00396011
-0.0535926
-4.28957e-06
0.00252226
0.0156542
0.104078
-0.0213496
0.00316341
-0.021136
-0.0049006
0.0957104
-4.51392e-05
0.0456332
-0.00970601
0.0227726
3.98131e-05
-0.0210962
0.0600079
-4.49766e-07
-0.0101396
-0.218546
-6.59797e-07
-0.0187351
-0.000141226
-5.73067e-06
0.000683818
0.173979
0.0126292
0.0400978
-0.0142139
-0.0283015
-0.0404187
-0.0244293
8.19975e-80
-0.0178289
-0.0499135
-5.72416e-07
0
-0.151483
0.000493932
-0.0705728
0.0713016
0.0268458
-2.16311e-08
-0.0630139
0.0396766
-0.0264087
-0.0169726
-3.97726e-07
0.0417094
0.00146198
-0.0116506
0.109891
3.26458e-48
1.33723e-24
-0.130007
0.0120816
0.0448587
-0.0204729
0
-0.055496
0.00425847
0.0278943
0.0497502
-0.0196472
-0.000779987
0
-0.0705951
0.0402855
-0.0243737
-0.0134347
-3.26036e-11
-2.05637e-05
-0.0245529
-0.00329769
0.243387
0.0199422
0.00252226
-0.0791036
0.000253626
-0.0289609
-0.000104219
0.0285279
-1.56811e-05
-0.0205293
-0.0305086
-0.0238257
-0.000468407
0.018405
-0.0403481
0.0973293
-0.0362807
0.00130887
0.0555898
-0.0427677
-0.0427677
0.0900748
0.00116752
0
0.0328288
-0.000108757
-0.0399843
-0.0640683
-1.42042e-09
0.0650731
-0.000167569
0.0383203
-0.040368
-0.172749
0.0156542
-0.0163331
-0.0148639
0.0120598
-2.92038e-06
0.0246595
-0.0717515
-0.022555
0.0301982
-0.0869169
0.010975
-0.0174918
8.19975e-80
-1.65046e-15
0.00835004
0.135401
0.0400978
-0.0167829
4.77274e-77
0.0185207
0.0332509
0.041934
0.102305
0.0608338
-0.0101737
-0.0513726
1.16599e-321
-0.000177922
0.131118
0.030629
8.19975e-80
-2.06112e-05
0.0122951
-0.113616
0.00406244
8.19975e-80
0.00436484
0.0654058
0.0176863
0.0211048
-0.0116549
-0.0364091
-0.0715879
0.0502265
-4.34757e-08
0.000831273
8.19975e-80
-0.103168
0.0455643
8.19975e-80
-0.0159739
-0.0295318
0.0392797
-0.0165071
0.0034478
-0.000104219
-0.000229519
-5.8236e-09
0
-0.0852812
-0.0586167
-0.0773227
0.0759518
0
-0.00396325
-0.0387109
0
0.0307438
-0.0652906
0
-0.0474816
-0.0319812
-1.59329e-09
8.19975e-80
-0.00763654
0
0.00467768
0.171378
0.0227096
-0.0845345
0.00458504
-1.86007e-11
0.00337387
-0.0101737
-4.22783e-05
-0.0206705
0.0206661
-0.0219165
0.0605168
-0.157308
2.64299e-171
-0.0405127
-0.0237133
-0.0241793
-0.000114099
0.0453124
-0.000137883
-0.19464
-0.0875817
0.0841024
-0.0476733
0.00333589
0.000544363
-2.36382e-06
-0.0633548
0.00184321
0.316345
-0.0222731
0.0156542
-3.3531e-08
-0.00126137
0.0264719
-0.0826545
-5.78723e-06
-1.28572e-06
0.138883
0.0390092
0.0129617
0.0368536
-0.0313709
0.0923537
0.0353707
-0.01553
-2.33003e-07
8.19975e-80
0.00562986
-0.0542873
0.0188086
0.00010454
0.528202
-0.0116558
4.77274e-77
0.0251173
3.51641e-08
-0.000137883
0.0227726
3.26458e-48
-9.28539e-05
-0.0708954
-1.28578e-06
0.0188888
0.0440625
-3.80743e-08
0.0123988
0.000342132
-0.0593431
-4.70147e-51
-9.98679e-13
-0.122968
0.0801163
-0.00748698
2.49651e-10
-0.0218825
0.010219
-0.0427677
-0.0845345
0.00399464
-1.21938e-05
0.0230814
8.19975e-80
-3.26036e-11
0.00443875
0
0.151108
-1.75681e-06
0.0185207
0.00207662
-0.00834691
0.00252226
0.267784
-8.93656e-05
-6.23624e-05
0.0395889
0.0454122
-0.0123225
0.0014626
-0.107401
-0.123851
0.0400978
0.0158197
0
0.00147883
-0.0613077
-0.0466933
-0.0417083
0.00399464
0.0147124
-0.00540718
0.0206658
-0.0958867
8.19975e-80
0.000451003
-0.057945
0.000467082
0.0262598
1.69959e-321
0.000880526
-0.0715879
-0.0228562
0.0431522
-0.0388387
4.77274e-77
0.0513918
0.0561278
0.0245642
-2.83157e-07
0.063002
-3.61785e-05
-3.26036e-11
0.0351129
-1.663e-05
-0.0608563
-0.0135765
0.382222
0.503788
-0.0258165
-0.0569606
-3.26036e-11
0.0284723
-2.58732e-07
0.00010454
0.0201191
-9.50524e-06
-7.06395e-08
-0.0738457
-0.121555
0.0590475
0.0504439
0.0940663
0.0154592
0.0144635
-0.0305086
-0.0181265
8.19975e-80
-0.0167958
-0.0205293
0.00399464
-0.0241188
-7.23208e-09
0.0528923
0.0376867
-0.000779987
0.0118538
0.0318999
-0.030409
0.0252036
-0.0526798
-0.0603363
0.238333
-7.23208e-09
0.0643376
0.0013377
0.0425523
-1.59329e-09
0.0846916
-0.000203789
0.0640605
-0.146059
0.169576
-0.0138291
-6.26609e-14
-3.26036e-11
-0.000141226
-0.00595831
0.0671687
0.166508
0.0378447
0.0245035
-0.000104219
-0.000145705
-0.135507
-0.00671373
0.264403
-0.105505
-7.716e-08
-0.00905819
0.0971278
8.19975e-80
-1.94286e-06
-0.0197359
-0.0705951
-0.0128208
0.0309522
0.124951
-9.26253e-08
0.0599423
-3.61785e-05
-0.0490204
0.111861
-0.0168963
-0.0390245
0.00399464
-9.38909e-11
-0.0200152
0.0138614
0.00846007
-0.0338485
0.00131901
-0.0201069
-0.0412457
-0.0740991
0.173502
-0.00970601
-0.0151971
-1.84992e-08
-0.0370917
0.0148245
-0.0390245
-1.65046e-15
-4.70147e-51
0.0134772
0
-0.0717814
0.010219
0.00785176
-0.027293
0.00382149
-0.013133
0.00256455
-0.0116506
-0.0654871
8.19975e-80
0.0386125
-2.92422e-05
-0.000946448
0.0116224
1.84395e-06
0.00131901
0.14988
-0.024403
0.0231108
0.060739
-0.0339054
0.0148256
0.010975
-0.0198728
-0.00189064
-0.0167829
-0.0243737
-0.0209678
0.035852
0.0162786
-0.00017923
-1.12235e-13
-0.0246987
-0.0603145
-0.19748
-2.41216e-08
0.262459
0.0635358
0.00399464
-1.50435e-07
0.0176369
-0.06591
0.000453278
0.0332395
-0.0994628
0.00228062
-3.57961e-06
-0.0379882
0.000877795
0.0611863
0
-1.09893e-05
0.103526
0.0840828
-0.0197359
-0.0734076
0.0697338
-0.00671373
0
0.0524886
-1.11673e-05
0.00624568
0.0990815
0.00785176
0.010975
0.0764589
0
0.00252226
-4.70147e-51
0.00172843
-3.3005e-156
-0.137447
-4.64988e-05
-0.00843259
-0.00396325
-0.0962849
-1.58954e-07
-1.86007e-11
0.0538407
-0.0360794
-0.0603297
0.0545384
-3.56909e-07
0.0015103
0.164061
0.0615962
-0.0155362
-0.0471626
0.00228062
-2.58732e-07
-0.0370917
0.00169952
0.064489
0.00226522
0
-5.39463e-07
0.048271
-0.0260074
-0.0210962
-0.0211734
-0.0660751
-0.0686577
-0.0185881
-3.33358e-06
0.0654681
-0.0223653
0.143504
-3.08182e-12
-2.89371e-08
-0.0955972
0.0301614
-0.00507796
0.00091125
-0.000141226
0.0854119
0.202059
-2.92422e-05
-0.100748
0
0
-0.0197359
0.126105
-4.76026e-09
-0.0427677
0.0144635
-5.94264e-13
0.00936595
-7.57002e-06
-0.031794
-0.051741
-2.36382e-06
0.0575231
-0.016954
-0.0804203
0.0041767
-0.0951651
-0.0382409
-0.0219165
-4.11181e-05
0.0343756
-0.0554305
-0.172125
0.0514125
-0.0329906
-2.83157e-07
-0.074509
-0.00765206
-0.0282487
0.0194477
0.000571049
-0.0223447
1.33723e-24
-0.248606
-0.00015733
-0.0252583
-0.0714267
0.0582796
-0.0882394
0.0352651
0.00228062
-1.65046e-15
-0.0628973
-0.0294419
0
0.0160634
-0.00638712
0.143142
-0.120523
0.0268458
0.0171162
-0.0015248
0.34852
0.011989
0.028968
-0.0261819
-0.100641
-0.11012
-0.0595281
0.000467876
0.139155
-0.00638712
0.00915415
0.0188086
-0.030454
0.0156542
-0.182655
-0.138963
-0.0335641
-4.85715e-05
0.0756392
0.00296622
0.0222017
0.00257639
-0.0570432
0.00252226
1.06224e-321
-0.00379976
-0.0672864
-0.043397
-0.0202847
-0.029569
0.0633643
-3.64261e-07
-0.02837
0.00643049
-0.231628
0.00790753
0.0721169
0.0123477
-0.0634407
0.0199422
0.0517218
-0.0715308
-0.00917406
0.0129617
0.0307491
8.19975e-80
-8.57386e-07
0.00936094
4.03829e-07
-1.84992e-08
0.0275798
-0.0205293
-0.0735357
-0.0690396
0.0681233
0.0156542
0.0669792
-3.02079e-06
-5.7883e-06
0.0765313
0.0252899
-2.89371e-08
-0.0602234
0.0396014
-0.013133
-9.28539e-05
-2.92422e-05
7.67853e-05
0.0579935
-0.0273169
0.0027876
0.00131901
-0.100026
-0.0116506
-0.0380564
0.0382672
-3.16763e-05
-0.0162836
-0.0459283
0.0442746
0.0278013
0.0227726
-7.63913e-08
0.0950888
0.00806721
-0.121987
0.0166807
-0.0644857
0.00624568
-0.00928658
0.00137113
0.0304167
-0.0218825
0.0344762
-0.0352454
0.0462672
0.00399464
4.77274e-77
-0.0260756
-0.0463236
-0.010227
0.000208549
8.19975e-80
-0.0744359
-3.3005e-156
0.0163414
-2.33003e-07
0.0300439
0.0687885
6.22347e-67
0.0583813
-0.021134
0.000419757
-0.0495467
-0.0163588
0.0035293
3.51641e-08
0.000357826
0.0237637
-9.09176e-08
-3.3005e-156
-0.151235
0.00812281
-0.0319812
-0.0959884
-0.0405127
-7.56957e-06
0.0166807
-0.0388006
-0.0706436
-0.0581342
0.0090476
0.0371605
-2.92422e-05
0.303512
-0.0827442
-0.0638101
0.0320664
0.103458
-0.173019
-3.57961e-06
0.0459934
-0.152299
0.0650096
0.0650731
-0.041385
8.19975e-80
-0.0243737
-0.00017923
-0.0713269
0.0262598
-7.44378e-06
-0.205684
-2.46692e-05
-0.0540215
-1.55103e-06
0
0.0419625
-0.0258165
0.0170838
-0.0646716
0.00442414
-0.00638712
0.00193815
0.00402069
-0.0726975
0.0129617
0.186826
-0.104145
-0.0229374
0.331179
0.00840456
0.152774
0.0206661
0.0455643
0.0339683
-0.0165346
0.0296398
-0.0197359
0.124276
0.0123024
-8.94477e-05
0.0227726
-0.0143716
0.0201117
-2.89371e-08
0.0189776
-0.0603756
0.00845979
-9.50524e-06
-3.83511e-09
-2.63309e-06
-0.0219048
0.0013377
-0.0229706
-0.105136
0.0660663
8.19975e-80
-2.45997e-05
-0.106021
-4.73556e-09
-0.0652547
0.0156542
0.00695429
0.0853411
0.0156542
-0.171151
-0.115787
-0.0155362
0.0398323
0
-0.0479769
0.0756443
-3.70284e-06
-5.72416e-07
0.103227
0
8.89318e-322
0.160262
0.101997
-7.57002e-06
-0.0633431
0.016027
0.0134772
-0.00369381
0.0318634
0.00411716
-0.00224037
0.149816
-0.0210962
0.232037
0.0554596
-0.0183565
-0.0287657
-0.00183308
0.0280859
-0.00765206
0
-0.00141797
-0.00843259
-1.01881e-05
0.043086
0.0575231
0.0646916
0.074961
-0.0129753
0.0627968
0.0950888
-0.00826608
0.000546992
0.0851436
0.0394644
0
0.0708573
-0.0116506
-0.00932407
-0.0235082
-0.0491737
0.000607892
-1.59329e-09
-0.000137883
0.0286102
0.0614954
-0.0920091
0.0198919
0.0567717
-0.0237134
0.00193815
-0.00635724
-1.36965e-05
0.118673
0.147054
-0.0841508
0.00479017
0.0314739
-0.024403
-0.0466076
-4.45698e-06
-0.135692
4.77274e-77
-0.000468478
-4.88839e-10
0.169299
0.110041
0.0611863
0.00781589
-0.0282782
-0.194516
0.0324642
0.00171824
0.00807531
-0.143374
-1.59329e-09
-0.0906856
0.0090476
-3.78171e-07
-0.0495215
0.0403958
0.00131901
0.133887
0.00569754
-0.000468407
-0.0400677
-0.0107871
0.0611863
0.0227726
0.0515529
0.00917161
-0.108252
0.00399245
-3.08182e-12
0.0011557
0.0373967
0.0129617
-0.0882413
3.98131e-05
-0.0021323
-1.26942e-06
0.101456
-3.26036e-11
-2.98774e-14
0.0318999
-0.100685
0.0964165
-3.63038e-07
-0.0066176
-1.45786e-06
-3.83511e-09
-4.33697e-09
-0.0205293
-0.0320273
0.0156542
-0.312433
-0.0875817
0.021891
-0.00765206
0.034289
0.0560102
0.00173621
-0.0415855
0.0451577
-8.62924e-06
-0.0199315
0.00411716
-0.18923
0.000842844
-0.0549107
-0.00015733
-0.0324989
0
-0.0508865
0.0382048
-0.0345031
0.0221234
0.0484354
-0.000141226
0.0443182
-0.00765206
0
-0.000100995
-0.0125533
0.0128643
-1.27621e-08
-0.0506937
0.0128182
-0.0146212
-0.0345108
-0.0496693
0.0199422
0.00595081
-3.26036e-11
-0.110228
-0.00162784
-0.0267871
-0.0741483
0.0519754
0.0563186
-7.06395e-08
0.172954
0.0534183
0.0111705
-0.045419
-3.12385e-08
0.0253721
-0.077644
0.0403958
0.00860496
-0.0205293
0.135904
0.00420965
0.0149754
-0.00396477
-0.00017923
0.041934
0.0392797
0.00252226
-9.20595e-05
-0.0278837
-1.67266e-05
-0.123344
0.000493932
-0.0638417
-0.0717591
-0.14166
0.0121233
-0.0093211
0.00550906
0.00207343
-0.000229408
-0.00173247
-0.0124674
0.0144458
-0.0606389
0.0312987
0
-0.0910885
0.00725451
-0.0454234
-1.86007e-11
0.0100371
0.00803538
-3.64261e-07
-0.120027
8.19975e-80
-0.0370976
0.0969657
0.01953
-4.78842e-08
0
0.000321371
0.218667
0.00411716
-0.0486296
-0.00210259
-2.63309e-06
-2.33003e-07
0.0827674
-0.0683484
-0.0301875
-1.59329e-09
0.00184321
-0.00806929
0.00399464
-0.000141226
-0.00638712
0.0431137
0.575062
0.121468
-6.22728e-07
-0.0302413
0.0673287
-0.000104219
-1.43976e-05
0.0470579
-2.85357e-05
-0.0485235
-0.0487851
0.192376
-0.00620669
-0.0400592
-7.90505e-322
0.00420965
-0.0400677
0.00399464
0.0650731
0.0674638
0.00570343
-9.38909e-11
-0.0237101
0.00257639
0.0304239
0.0199422
-2.89371e-08
0.245113
-2.78892e-05
0.00397191
0.0198085
-0.0422875
-0.0259273
0.0638474
0
0.030594
-0.0284797
-0.000119721
0.00398445
-0.0257775
-3.63038e-07
0.0501563
-0.100082
-7.44378e-06
0.00091125
-0.00173247
-1.51359e-06
-0.0402529
-0.0169973
-0.0472746
0.038708
0
-0.0166358
-0.0606253
-2.33003e-07
0.0544722
0.0230608
-0.0569889
-0.0388924
0.0148037
0.0262598
0.100036
-0.00427818
-0.181399
0.00564859
-7.57002e-06
-1.50435e-07
0.0424677
0.0663279
0.0278691
-0.0387397
-0.069501
0.00110738
0.160359
0.00391484
-0.030409
-4.45698e-06
0.0289628
0.000571049
-0.0925319
-0.0412743
-0.115395
0.0075632
-0.0387109
-0.276614
-0.0116506
8.19975e-80
0.00106102
0.0622217
0.13998
0.0528923
0.000842844
-0.00805312
0.0941929
-0.0180071
-0.0404663
0.171531
0.0275798
0.00168576
0.0148243
0.000571049
0.00811098
0.00806724
-0.0419874
-0.112658
-0.128186
-3.26036e-11
0.0438185
-0.0124674
-0.0690396
0
0.00830868
-0.0177549
-3.08182e-12
0.0727919
-0.0247707
-0.064846
-0.078256
-0.124155
0.0217022
-0.0705951
-0.030409
0.0399724
0
-0.0602241
-0.0293225
-1.11673e-05
-0.0149714
-0.0476733
0.0164965
0.00643049
-0.15536
-0.0251471
0.00399464
-0.0122598
0.0286942
-0.0499135
0.00411716
-2.98774e-14
-0.126918
0.0583813
0.150857
0.0160157
0.00420965
-0.0573562
-0.00916709
4.41785e-77
-0.0184081
-0.014297
-0.0123291
0.100452
0.00183402
0.101534
0
-0.018915
0.0362985
0.0467216
-0.0522064
-0.0686412
-0.0510736
-0.0735974
-0.00906768
0.00110819
-1.59329e-09
0.135711
0.00846007
-9.26903e-10
9.43967e-07
0.0939576
-5.73067e-06
-4.70147e-51
-0.0135167
-0.0892729
0.0023917
-4.45698e-06
-0.0160633
-2.78892e-05
-0.0103074
-5.3787e-07
-0.135874
-0.013133
-0.00905819
-1.79266e-11
-0.0875149
0.0145981
-6.74342e-22
-3.61785e-05
-0.215249
-0.0586344
-0.0117911
0.016255
0.00420965
-1.94286e-06
0.00131901
-0.0413148
0.060739
0.00449705
-1.59329e-09
-0.0447668
0.0038259
-4.64942e-05
-0.0295747
-0.0320603
-0.0282487
-0.155168
-0.0177865
-0.115945
0.136448
-0.0188203
-1.59329e-09
-0.0127543
0.0318999
-0.0512798
-0.0219165
-0.0544033
0.0222213
-1.37464e-06
-0.0259812
-0.0795691
-0.070068
-4.10817e-10
-0.00162784
0.149683
0.0762291
0
0.0319741
0.0669293
0.200613
-0.124472
-0.0515696
-0.051754
0.0154364
-0.0744359
0
0.154516
-0.000231828
-0.0500581
0.0210279
-0.0205293
0.0656015
0.0610336
-0.0308866
-0.0216704
0.0093312
0.143489
0.00356124
-0.115389
-0.0305378
-2.89371e-08
-0.0784711
-1.01881e-05
-0.0776151
0.00050526
8.19975e-80
0.000687424
-0.0325298
-0.000238468
0.0512459
0.0669293
8.19975e-80
-0.0859959
0.0153893
0.102492
0.0453221
0.00631639
-8.94477e-05
-0.0730281
0.040605
0.0123988
-0.0115024
-0.00179748
0.01953
-0.0356441
0.124661
-0.0247044
-0.0463236
-0.0142956
-2.92422e-05
0.0256595
0.083819
0.00184321
-0.142218
-0.0143454
0.0890183
-0.0131504
3.26458e-48
0.0371605
-0.0301591
0.0741699
0.0322382
0.0275798
0.0410237
-0.0446043
0.00402898
0.00067559
-0.00162784
-1.53283e-05
-0.0319685
0.0171737
0.00449705
0.0592686
0.0982877
0.00146198
-0.0414881
-0.0261893
-0.0035027
-0.0338636
0.0144635
0
-0.0189522
-0.0466933
-0.0260483
-1.52122e-06
0.00223137
0.0196815
0.00785786
0.00226522
0.00657885
-0.00912838
-0.0219703
0.00173621
-4.21226e-08
0.10356
-1.59329e-09
0.10356
0.191863
0
-0.0488877
0.14101
-0.0476733
-0.108558
-8.95322e-171
0
0.203855
8.19975e-80
0.120506
5.01362e-227
-0.0415197
0.0148037
0.00226522
-2.78892e-05
0.0338001
-0.0390245
0.0811565
2.64299e-171
-5.9406e-05
-0.0717515
-0.095835
0.118211
-0.0267871
0.0470204
0.0401477
-8.41749e-05
0.0392795
-0.136107
-0.0488312
-4.10074e-322
0.0319915
-0.00372003
0.00952702
-0.0431601
0.0301982
-0.0214736
-0.000112765
0.0654681
0.000981489
-0.11603
0.171246
-0.0616951
0.0578304
-0.0986542
-0.0341987
0.0035293
-0.00349336
-0.0419619
8.19975e-80
-0.0126036
0.039008
-2.65168e-05
-0.03708
0.0736859
-0.0486093
-0.0262104
-0.014437
0.00091125
0.000712003
0
-0.0506516
-0.0163252
0.0497502
-0.0449731
0.108928
0.0384825
0.00399464
0.0382672
-0.0431886
-0.0287053
0.00193815
-1.42042e-09
-0.031116
-0.013133
-1.65046e-15
-1.59329e-09
-0.0128472
-0.00155456
-0.0329463
-0.00360282
-0.128262
0.111293
0.0062568
-0.0644542
0.244463
-7.34116e-06
-4.70147e-51
0.0898793
0.00815992
0.00184321
1.66107e-06
-1.50435e-07
0
-3.3005e-156
0.0801369
0.000447385
-3.30287e-07
0.0145936
0.00785085
-0.00223901
0.0537868
0.0126292
8.19975e-80
0
-1.86007e-11
-0.0122598
-4.78842e-08
0.00695429
1.32054e-170
0.0319361
0.0156096
0.00936595
-2.58419e-11
0.0322382
-0.0365114
-2.33003e-07
-0.0309473
-0.0252583
-0.0848082
0.0392797
0.0264864
0.00399464
0.00067559
-0.0335671
0.0437049
-0.0446043
-1.79266e-11
4.03829e-07
-0.0603382
0.144358
-0.133595
0.181335
-0.169745
-0.103012
-1.79266e-11
0.0391301
-0.0270857
-9.09874e-07
-0.0309297
0.0991375
0.0553469
8.22249e-78
-0.000148027
-0.0732809
0.00562986
-0.0158645
0.0119591
-8.2821e-13
0
-0.15958
0
0
0.00295618
-2.98378e-05
0.01953
-0.000233743
-0.0378378
-0.000177922
-0.0758343
0.0660663
-0.0187566
0.00399457
0.0478649
0.010552
0.0147124
0.173931
0.0425523
0
0.0108337
-0.0218825
-0.0436017
-0.0104143
0
-0.0683498
0.0940156
0.021786
0.131816
0.00091125
0.000223232
0.0790583
-0.0503442
0.00252226
0.00131901
0.020119
-0.0240401
0.0348186
0.0103364
-2.98774e-14
0.101438
-0.0338967
-0.0541487
0.030629
-1.58954e-07
0.038708
-0.0205293
-4.04829e-06
0.000467082
-6.97332e-06
-0.0124674
0.0211462
-1.37464e-06
-0.0219048
-0.0577557
-0.013133
0.149753
-1.26942e-06
-0.0569098
-0.036242
0.0498083
-0.14176
0.00752785
0.0144635
-0.012994
-0.0443429
0.0135161
0.0977548
-3.33887e-06
0.123882
-0.0167689
0.000309901
0.07172
0.0764622
-2.89371e-08
0.0276263
-8.57386e-07
-1.59329e-09
-0.057035
0.00785176
0.0185474
0.140132
-0.00806932
0.00184321
0.065282
0.0395446
0.0118538
-0.102437
-0.13597
0.000453278
0.00943359
-0.0228087
-0.0352454
1.38832e-321
-0.0429019
-1.06311e-10
-0.286797
-2.78892e-05
0.0916656
0.0479653
0.211938
0.047471
-0.0390245
0.0044319
0.0240677
0.0119776
8.22249e-78
0.0307438
0.0244948
0.010975
0.244463
0.0497776
-0.00358487
-0.0380753
0.021214
-0.00327856
-0.305498
-3.26036e-11
0.00668877
0.00227924
-0.0438086
0.102325
0.117218
-0.0784711
-1.79266e-11
0.0185461
-0.0146212
-4.70147e-51
0.0491567
-1.87872e-09
0.148254
0
0.027913
0.0417094
-0.00638712
0.00789844
-2.92422e-05
0.189845
-0.0616439
0.00172843
0
0.00067559
-7.07306e-08
0.0251449
-0.0226058
0.01953
-0.0219165
0.0993347
-4.70147e-51
0.0932077
0.0348186
0.0102764
-3.02079e-06
-0.000108757
-2.45997e-05
0.025147
0.00627679
-7.07306e-08
-0.0602228
0.0285279
0.0230806
0.145887
-0.0364091
0.0130716
0.0610896
0.0669965
-0.00843259
0.000777213
0.0220208
5.54024e-05
-0.0243737
0.0334984
-0.0415197
0.0320132
-0.19742
0.00399464
0.01953
-0.0354768
-0.0651158
0
0.147745
-0.0526367
4.03829e-07
0.0050655
-0.0374155
0.0650024
-0.0401492
0.0153767
-0.0698906
-0.0218825
0.0201191
0.00786863
0.0636366
0.124492
0
0.114305
0.063002
0.0150696
-0.00790987
-5.47068e-06
-0.0116506
0.0284226
-0.0217581
-0.0906594
-4.70147e-51
0.0174986
0.000785102
-0.0420954
0.00337824
0.0766618
-0.0609783
0.0524732
-0.0495161
0.00208316
0.010975
0.132535
0.0176687
0.0717616
-0.000229519
0.030979
-0.0236704
1.69959e-321
-2.58419e-11
0.0245035
0.1229
0.0312987
-0.0116506
-0.013133
-1.79266e-11
-5.14586e-07
0.0118538
-0.0303781
-0.00820127
-0.10155
0.0888674
1.84395e-06
0.023489
-2.36382e-06
0.0215977
-1.37464e-06
0.0858264
0
-1.21938e-05
0.0461763
-0.0210148
-0.0116506
0.0053562
-0.0219703
6.22347e-67
-0.0309689
-0.0113168
0.0150609
-0.0204265
-0.0726744
-0.0425873
-9.26253e-08
-0.0319246
-0.0829523
0.206546
-0.0577546
0.0179339
0.0294658
-0.00806929
-2.28908e-06
-9.26903e-10
-0.0253225
-0.101955
-0.0531136
-0.0427074
-1.86007e-11
0.069491
0.302964
-0.0203503
-0.0156968
-0.00806929
-0.0888265
-0.000141226
0.0227726
-9.029e-11
-2.55544e-05
0.00936595
0.0575231
0.00265319
-0.000564951
0.0156542
-0.0205326
0
-1.12235e-13
-0.00826608
-0.0481846
0.000467876
0.0144635
0.0580706
0.0456198
0.0286102
0.0470949
0.011261
0.0378452
-3.61785e-05
0.315281
0
-0.000233772
-0.0361666
0.0455643
-0.00215382
0.02085
0.0651439
0.0461192
-0.172007
0.00846007
0.0739475
0.0651439
-0.152106
0.0252896
0.111143
0.0771082
0.00402895
-2.92422e-05
-0.0862682
-0.0172245
-0.0164557
-0.0855576
-0.048884
-0.164263
0.0706272
0.0156542
-2.78892e-05
0.106634
0.0462672
-0.0296752
0
0.0764589
-0.0282487
-0.0955728
0.0262598
-5.70011e-07
0.00344122
-5.47433e-07
-3.61785e-05
-5.8273e-10
0.000276236
-0.0297161
0.000450004
-0.0159039
0
0.100036
-0.389534
-0.000247303
0.0720796
-0.0241188
-0.00914794
0.481025
-0.024111
-0.00622046
6.22347e-67
-0.0213435
0.0115953
-0.0324989
0.010191
0.000777213
-0.0211288
0.00897819
-0.0889576
-0.00199305
0.0294571
-0.0210962
0.00168576
-0.0160359
0.00395846
-0.0237952
4.072e-06
0.0627466
0.016255
0.183372
0.0278691
0.0956922
-4.10817e-10
0.0199422
-0.00647688
0
0.0545563
-2.45997e-05
0.0708029
-9.38909e-11
0.0035821
-0.0390945
-0.34902
-3.70284e-06
-1.59329e-09
0
0.0528923
0.000231204
-0.0219048
-0.206506
0.00790805
0.0157048
-0.0237134
-0.0241188
0.0392797
-0.0229024
1.07147e-67
4.77274e-77
0.0125817
-0.0625251
8.19975e-80
0.0185207
0.00904002
0.030161
0.0189839
-0.0124269
0.00219981
-0.037947
-0.0106571
0.0185474
0.0477813
0.355138
0.0461763
6.06392e-68
0.0500435
-0.101152
0.000409292
0.0337702
0.000450004
-0.0205293
0.0598868
-0.0165071
-0.124486
0.0438851
-5.3787e-07
-0.0704619
-2.07582e-05
-5.77032e-07
0.299275
-0.0399843
-0.0884296
-0.0205293
0.00257639
0.0307539
-0.0735974
-2.33003e-07
0.0156542
-0.217743
0.0713016
1.4822e-321
-8.94477e-05
-5.58982e-05
-0.0390245
0.0044319
0.0338897
-0.0299764
-0.0960906
-0.0377231
0.0156542
-0.015187
-2.27485e-05
0.371339
-0.00843259
-0.00946301
-7.57002e-06
0.0090476
-0.0364412
0.0308309
-0.0589564
0.0539924
0
-0.0592535
0.0582084
-0.0946511
0.194781
0.0144635
-0.0210962
-0.148778
-0.0101737
-0.147649
0.0536004
-3.63038e-07
-0.013572
-3.20622e-06
0.0273218
-0.0920765
-0.0028775
-1.43976e-05
-0.0431762
-0.000468407
8.19975e-80
0.0575834
-0.0457337
0.00781451
0.0105864
0.000493932
-0.0912382
0.0592686
0.00420965
0.0473206
-4.45698e-06
0.00172843
0.101909
-0.0270602
-0.0237133
-0.0571731
0.0278691
0.0245642
-0.0243953
-8.5227e-06
0.0167637
-0.0215041
-0.00960255
0.000122376
0.00172843
0.0198919
0.0193922
0.0164965
0.0433627
0.0708573
-7.44378e-06
-0.0222562
-0.091214
-4.7916e-05
-0.216727
0.00548864
-3.47287e-05
0.0579935
-0.0658754
0.0376021
-0.0400677
0
-0.000119721
0.109036
9.6411e-06
-0.0148503
-0.00902874
-0.0797688
0.0590044
-1.75681e-06
-0.0543321
0.00149798
-0.0511059
0.0335642
-0.0190426
-5.7883e-06
-0.10691
-4.78678e-08
0.0399955
-0.0743529
0.0335641
-0.028448
-9.86538e-14
-0.0441375
-1.51359e-06
0.0227616
0.0268322
0.0714339
-0.036126
0.0052882
0.02598
-0.00843259
9.41498e-07
-0.0029051
-0.0292188
0.072194
-0.0330068
-0.0345005
0.0156542
-0.00376479
0.000276236
-2.45997e-05
0.00298089
-0.023242
8.19975e-80
-0.0144447
3.41905e-07
-0.069873
0.0477813
-0.0476072
-0.0927184
0.00382149
-0.048884
0.0117159
-1.84992e-08
-0.0107621
-0.0356949
-0.001222
0.0456306
-9.98679e-13
0.0498083
-0.0358727
0.0767389
0
-0.0649165
0.0276263
0.0153941
0.158314
0.021366
-0.0263092
0.0661866
0.0147124
-0.00903835
0.0351933
0
-0.10637
0.000815432
-0.0889593
0.00860558
0.152633
-4.45698e-06
-0.021333
0
-0.0755085
-0.0116506
1.84392e-06
-0.00488023
-4.45698e-06
0.0686242
0.00190111
0.0644016
0.458605
0.00305168
-0.246189
0.124506
0.0903029
0.016255
-0.0196472
-0.404341
0.0498666
-0.00626045
0.0713016
-0.0260756
0.013673
0.0287306
0.127479
-2.98378e-05
-8.57386e-07
0.0156542
-9.78507e-12
-3.12393e-08
0
-0.0469987
-2.65168e-05
0.0771082
-2.58732e-07
-0.0197359
0.0285279
0.0230814
0.158153
-0.0181082
0.00399464
-1.87872e-09
0.106719
-8.87225e-11
4.53101e-10
0.0528122
-0.000468407
-0.00806929
0.0839784
-0.0390245
0.0344202
-1.79266e-11
-0.021554
-9.38909e-11
-0.0724567
-0.16671
-0.00653702
-4.70147e-51
-2.35657e-11
0.00146198
0
0.128756
0.0257723
0.0214251
-2.89371e-08
-0.00704454
-0.0448314
-0.0401492
-0.0662902
0.0109388
0.00695193
0.00067559
0.0164965
-0.0543119
-0.0146212
0.0132042
0.0505005
-0.0191702
0.0159086
-0.0287463
-1.86007e-11
0
-0.0311368
-0.0370917
0.0467227
0.0859563
0.0283248
0.0676717
-0.0448185
-0.0322401
-0.0442601
0.000392298
-1.86007e-11
-0.0013212
-0.148267
0.0068812
-1.86007e-11
-0.0260756
-2.11955e-09
0.0512369
0.0498083
-0.0124727
-0.0060671
0.0299084
0.010219
0.0533511
0.00131901
-0.0172454
0.025104
-8.5229e-06
0.000206331
0.0747104
-0.00916709
-0.445526
0.0335728
0.0248713
0.0397547
-0.0458744
-0.0036876
-0.000168752
-0.0130623
-0.00973476
-0.0335523
-0.0327469
0.00411716
-0.037638
-0.0219048
0.0164965
0.0137071
-2.0323e-08
0.00465005
0
0.00257904
-1.65046e-15
-0.0792216
8.19975e-80
0.000208549
0.0217691
0.0306269
-0.0341301
0.0678751
0.0174071
0.054179
-0.0744719
-0.0315389
-0.0279225
-0.0106355
0.0411441
-9.44829e-10
0.0198919
-9.33255e-09
0.0470579
0.0156542
0.0210049
0.0191975
-0.0784711
-0.0184852
0.0232515
-0.0259273
0.0156542
0.0268425
0.0164965
0.00391484
0.00104929
-1.55103e-06
-0.000141226
-0.0039744
0.0245034
-0.0391304
0.0197563
0.0199422
-2.58732e-07
-1.01881e-05
-0.110836
0.0481402
0.0216975
-0.0684778
-0.0235971
0.05303
0.116828
0.451531
-0.0243737
0.128203
-0.037233
-1.07072e-06
0.010975
0.243543
-0.0143012
0.00243289
-0.0844327
0
0.00234098
-0.0665253
0.0429533
-0.0435165
0.40328
0.00878039
-0.0463233
-0.00805312
-0.0663988
-0.000126961
0.145771
0
0.0149791
-0.0508334
-0.0212373
-0.0433803
8.19975e-80
0.00048632
0.00126539
-0.0325777
0.00208316
-0.00638712
-0.00691821
0.00572187
-0.0133276
0.0419498
-0.0152946
-0.128834
0.0538035
0
-0.000468407
3.98131e-05
-0.0204371
0.0035293
-0.0116506
-0.00763639
0.0592419
-0.0214942
0.0512459
0.00232777
-0.00834691
-4.49766e-07
-0.0692878
0.000563344
0.029959
-0.0570139
-0.0577546
-0.0116506
0.0637086
0.00184321
-0.0219048
0.0725035
-0.0218825
-0.027128
-0.000141226
0.0285279
-0.0221893
-9.09176e-08
0.0670449
-2.52072e-06
0
0.010975
-0.0494053
0.01953
-0.0205293
0
0.0108613
-0.0219048
0.10612
-0.0264778
-3.70284e-06
-0.0474182
-0.0533666
0.240194
0.0117567
-0.0390245
-0.0693095
-0.0683484
0.0156542
0.227637
0.0138055
0.0199124
0.110227
0.0027876
-4.70147e-51
0.00420965
0.00225863
-0.000136762
0.00146198
-0.208546
0.115542
-1.59329e-09
-5.04461e-08
-2.33003e-07
-0.0546704
-9.86538e-14
-1.75681e-06
0.140862
-0.00831542
-0.0093211
-0.036242
0.0437049
-0.0355933
-0.0830379
0.0575197
0.0225712
0.0839459
1.32054e-170
0.01449
-0.0205293
0.116479
-0.0394713
-0.0707764
-0.103168
-4.70147e-51
0.0319361
0.00010454
-0.0560365
0.0456306
-0.0292188
-1.58954e-07
-0.0502036
-0.014297
-0.0366477
-0.0136467
-0.0184672
0.00128871
-7.90505e-322
8.19975e-80
0.0143253
-0.0609783
-0.00997922
-3.19617e-08
-1.63356e-07
0.204509
0.00226522
0.0384462
0.00812281
-5.35373e-07
-0.00199678
4.53101e-10
-0.0426458
-0.00446423
0.030629
0.000300892
0.00362134
-5.7883e-06
8.19975e-80
-0.0726369
0.0722564
-3.97726e-07
-0.0713269
-3.5667e-06
-4.70147e-51
0.0157996
0.00268623
2.64299e-171
0.0365525
-3.61785e-05
0
-0.0360683
0.0319361
0.0708573
-2.84874e-05
-0.11118
-0.0238778
-3.56909e-07
0.0426873
-0.0800595
0.134966
-0.000142063
-0.0738457
0.288623
-0.0167154
-0.0717515
-0.00480764
-0.00805312
8.19975e-80
0.0982877
-0.0139041
0.00398445
-0.00329769
-0.0310836
-0.097028
-0.00274177
-0.0660062
0.0199676
-3.26036e-11
0.0515616
0.0678898
0.0129617
0.0760856
-7.57002e-06
4.53101e-10
-9.86538e-14
-0.0616023
-9.26903e-10
0.272279
0.00913566
0.00116752
0.0201592
-0.0645201
-9.38909e-11
0.0322685
-0.0784711
-0.0488834
-9.68557e-07
0.0936953
-0.0315951
0.0378723
-0.00315462
-0.0740991
-0.0324989
0.12686
0.0156542
-0.00916709
-0.00675915
-0.0338967
-7.07306e-08
-0.0691769
-0.0206123
-2.72489e-15
-0.0221424
6.03647e-05
-0.0270296
0.0138055
-0.0804203
0.00158134
0.102325
0.0454776
-5.72416e-07
-0.095835
-0.0219048
-0.023439
-0.224198
-0.00983499
-0.0324989
-0.081581
0.00228062
0.0108613
0.0473692
0.00905992
-0.000129389
-0.0219048
-0.0691597
0.0382672
8.19975e-80
-7.07306e-08
-5.3787e-07
-0.0147093
0.00795381
-0.0364554
-0.0695179
0
0.00010454
-1.22886e-06
-0.0218825
-0.0849576
-0.0205293
0.15655
-1.86007e-11
0.0825042
-0.0844327
-0.082492
0.0215503
-0.000203789
-1.57024e-30
0.00411716
0.00243449
-5.3787e-07
8.19975e-80
0.0621672
-2.73155e-05
-0.00488023
-0.0997362
-0.0301591
-0.036455
-0.000167569
0
-2.26625e-05
-0.00576607
-0.0620665
0.0408944
0.000104813
-0.0447366
-0.0718603
-0.0124776
0.00102629
0.00256455
0.159664
-0.0748827
0.0175199
-6.59797e-07
3.51641e-08
-2.06111e-05
-0.0627209
0.0635358
-2.63309e-06
-0.0543573
-9.28539e-05
-6.74342e-22
0.0506128
-0.0348444
0.0668766
-2.63309e-06
0.0399274
-3.26036e-11
8.19975e-80
0.0290284
-0.030409
0
-4.26782e-06
0.108486
-0.0131332
8.19975e-80
-0.0147875
-0.0143625
-0.117359
-0.044311
0.041934
0.217014
-1.44959e-07
0.155375
-0.0743417
-0.0254493
-0.0948941
-0.0370917
-3.33887e-06
0.0156542
-0.110561
0.0198919
1.76578e-05
-0.0198728
0.0711497
1.16599e-321
-0.0355933
-1.97748e-05
0.0622165
8.19975e-80
0.016255
0.0432584
-0.0093211
0.180626
0.0767314
0.0044392
-3.26036e-11
-3.26036e-11
-0.00843259
-0.00780427
-0.00749955
0.106287
0.0307663
-4.10817e-10
0.0362549
8.19975e-80
-0.0163331
-0.44372
0.167076
0.000607892
0.534413
0.0543604
-0.0085735
0.0201191
-0.0174336
-9.38909e-11
-0.0101396
-0.0283197
1.2598
-0.0324989
0.00401719
0.0539484
0.037971
4.41785e-77
-0.0052898
-0.048884
0.109778
0.00949544
-0.204427
0.0199422
0.0039623
-0.0400677
-0.0116506
0.124492
0.0164739
0.000253626
-0.13305
-0.00541454
-0.0543321
-0.0934818
0.00372479
-1.86007e-11
-0.0159739
-1.86007e-11
-0.175485
-0.0561054
-0.0192309
0.00198017
-2.49527e-07
-0.0513356
-1.15304e-05
0.00453762
-0.00740121
-3.08182e-12
-0.0142139
0.0913399
0.181729
1.89415e-05
0.011989
-0.105713
0.0028493
-5.7883e-06
-7.06395e-08
0.0324055
0.0632348
-9.98679e-13
-0.0647591
-0.0171103
-0.0748963
0.0201191
0.0977548
0.0515616
-0.0128208
9.58487e-322
0.0310917
0.051153
-0.00905819
0.00382149
0
0.029341
0.000571049
0.00847419
0.147097
-9.38909e-11
-1.59339e-09
0.0289158
0.041934
-4.70352e-06
0.068632
0.142796
-0.0224503
0.028968
-0.0184852
-0.129914
0.0619553
-0.0218825
-3.57961e-06
-0.0355933
0.0302743
0.00112519
-0.0159739
-0.0237133
0.00780832
0.0969371
0.0170439
0.0258293
-0.0448185
-0.0202239
-8.57386e-07
-0.0385005
0.00207343
-0.0198728
0.0125771
-0.0572629
-0.0789948
-0.0467166
0.00193815
0.0133796
-0.101112
0.0171037
0.0253119
-0.000245607
0.00116752
0.0148256
0.0227726
-0.00916709
-0.00671373
-7.34116e-06
0.0943581
-1.27621e-08
-0.0211432
-4.70147e-51
-0.0066176
0
-0.00843259
0.0403958
-9.00418e-08
0.000627601
0.0552436
0.0734144
0.164877
0
-0.014297
-0.0196472
0.00226915
0.0536004
-0.0193419
-0.0476733
-0.0482873
0.00668877
0.0278783
0.0982877
-0.0325298
-0.0142139
0.0959654
-0.0434183
0.0382672
-0.00826608
0.0174833
-1.79266e-11
-1.01439e-05
0.0910269
-0.000122638
-1.01881e-05
0.0199422
0.117747
-0.0963532
-0.033541
0.0347229
-2.65168e-05
-0.0819969
-1.05242e-05
-0.00930831
0
0
-0.0639343
0.118673
-0.0131073
-0.0595281
-0.0382412
0.0028888
0.0383472
0.0028888
3.37633e-171
0.0109388
-0.0497688
-0.134692
-0.0662902
0.0233608
-0.0721842
0.156183
0.0236472
0.0322026
0.00363106
0.0515124
-4.73556e-09
-0.0508875
0.0539175
-3.02079e-06
-0.048884
0.10165
0.00410959
-0.0292188
0.0164965
0.0130309
-0.0346336
-1.13838e-06
0.071121
0.00737815
-0.0138476
0.00295545
0.016255
-0.000137883
-0.0334834
-0.0105498
-4.73556e-09
0.021366
-4.88839e-10
-1.4129e-08
0.0273375
0.0477547
-0.0212177
-0.056458
0.11786
-0.0625251
-0.00638712
0.0555902
-0.00043232
0
-0.0379882
0.0103055
-2.59869e-09
-0.00373454
-0.036242
0.00626519
0.031198
4.03829e-07
0.0727919
0.0285279
0.0316526
0.00116336
-0.0228979
4.072e-06
0.0691604
0.0330738
-9.66987e-05
-0.030409
0.0290904
0.00298089
-0.0205293
-0.0088064
0.00353493
0.173502
0.0404078
0.0027677
-0.0209859
-0.0800827
-0.143099
-1.28568e-06
-1.87872e-09
-0.0702171
-0.0116506
-1.59329e-09
0.00397165
4.77274e-77
-0.0628973
0.0325054
-0.0328375
-0.0116108
-9.28539e-05
0.0184789
-0.074665
0.0747211
5.77891e-06
-0.0287657
0.195418
-0.036455
-0.24981
0.395849
-9.86538e-14
8.19975e-80
-2.07582e-05
0.119699
0.010552
-1.50435e-07
-0.00981931
-0.00805312
0.409176
0.26716
0.0258702
0.01931
0.0277031
0.00126403
0.00936094
0.0624622
0.00169386
-0.0748827
0.00118056
0.0467237
-0.0421922
-0.0682588
-0.00776763
-0.000107785
0.00327824
0.0167637
-3.26036e-11
0.0541069
-0.0219165
-3.61785e-05
0.138515
-3.5667e-06
0.000842844
0.00295261
0.00734424
0.0541302
-2.12049e-07
-0.0116287
-0.0397953
0.00492216
-0.0790046
-0.0297838
-0.024094
8.19975e-80
-0.0569889
-0.0959897
-0.0228562
-0.130488
-0.000229519
-0.0735974
-2.92422e-05
0
0
-0.0143671
0.00157675
-0.103168
-0.000141226
1.54643e-321
-4.22439e-06
-0.0219165
-4.45419e-05
-0.00699157
0.0853411
0.000493932
-3.12385e-08
0.128857
0.181355
-0.0128208
-0.0390245
-1.50435e-07
0.0155152
0.00291231
-0.000140648
-0.0258165
-5.7883e-06
0.0257723
-0.000113093
-0.111053
0.00104193
0.0028888
-7.34116e-06
0.0343756
0.000368963
-0.00970601
6.22347e-67
0.0762827
0.00907919
-0.098132
0.0134791
-0.00173247
0.473754
-0.0361666
-2.28908e-06
0.00146198
-0.0155362
0.0651439
0.0596901
-4.11181e-05
-0.13162
-0.0173787
0.063002
0.00407177
-0.0549107
-0.0262104
0.00860558
0.016254
-0.0311508
0.0419818
-0.0178289
-7.57002e-06
0.0392797
0.00512588
0.118211
0.0459934
0.0182358
0.00547613
0.0311766
-0.0426458
0.178784
-5.72416e-07
0.000777213
-0.0734462
-0.0133603
-0.036107
0.00257904
-0.0220989
-1.62589e-09
-0.0736117
0.0531371
-0.057139
-0.0388924
-0.468548
0.0013377
-1.09893e-05
0.0278691
-0.0637208
-0.0892729
-0.0338143
-0.256974
-4.1631e-12
0.00133822
-0.0265923
-0.00613824
-0.0352454
0.00441969
-2.63309e-06
-0.0258165
-0.0784711
-0.0393629
6.03647e-05
0.016255
-0.0335523
-4.70147e-51
-0.0313406
-1.77998e-06
0.0423071
0.00173621
-0.000137883
3.26458e-48
-1.07072e-06
-2.33003e-07
0.0205905
0.0520543
-0.00843259
0.0227726
-8.43651e-05
0.00411716
-0.0361733
0.0123356
0.0297973
0.255883
0.0399343
0.0129617
-0.0205293
-0.0839664
-0.104597
-0.0367476
8.19975e-80
-0.00938867
0.00257904
-0.00902874
0.0222515
-0.012994
-0.133451
-0.0458744
0.0257518
-0.013133
-0.0345031
-0.0155362
0.0443182
-0.196934
-0.00173247
0.0014639
-0.0218825
0.092692
-0.0296538
0.179769
-0.014297
-0.0446711
-2.58419e-11
-0.0159739
0.0838884
-3.26036e-11
-0.0526798
0.0652021
-0.00622224
-0.146774
0.0158688
0.000409292
0.121078
0.441358
-0.0736117
-0.0159039
0.0524732
0.00399464
-0.00647688
-0.0860706
-0.0305086
-0.0459006
-0.0219126
-0.0733047
0.0684942
0.0230814
-2.06111e-05
-0.0127344
0.0020721
-1.07288e-05
-0.0798333
-3.97726e-07
0.0286727
-0.0708833
-4.70147e-51
0.000779093
0.0761451
-0.00638712
0.22871
0.0319361
-0.109916
-0.0345031
-0.238103
-4.70147e-51
0.0321029
-0.0146
-0.0489523
-0.0116506
0.0592686
-0.035629
-0.030315
3.37633e-171
1.717e-76
-0.0987056
0.0145079
8.19975e-80
-5.8236e-09
0.0400978
0.0579935
-0.0148636
0.00399464
-0.0198728
0.0211462
0.0301893
-0.021988
0.0271424
0.0159086
-2.33003e-07
0.0651439
-0.0319363
-0.0451095
0
0.0174071
0.00257639
-9.37787e-10
-4.78678e-08
0.0624622
0.141865
-7.07306e-08
-0.00329769
0.0927234
-1.86007e-11
-4.64988e-05
-1.86007e-11
0.0156542
-0.0652548
0.0913462
-0.000125935
-2.89371e-08
0.0274915
0.0705136
0.0506758
0.000683818
-0.0963589
-0.0577546
0.0248766
0.00168576
0.0512459
-0.0242647
0.0341973
-0.0116506
-0.0238257
-0.000137883
-9.38909e-11
0.000752731
-0.0951811
-4.70147e-51
-1.45786e-06
-4.67364e-10
-1.12235e-13
-0.0708429
-0.0184852
-0.0279225
-0.0301591
-2.03579e-10
-0.0672082
-2.99769e-10
0.0227726
-0.030409
1.32054e-170
0.00257639
0.0514344
-6.66016e-06
0.00947544
0.0420582
-0.0332293
0.20442
-0.0116506
-0.0116506
0.0311008
-0.0299606
0.00846007
0.0657608
-0.0205293
-0.000228205
-0.146059
-0.0614801
0.000450004
0.0044392
-1.13838e-06
0.00252226
0.0320133
0.00252226
0.0654681
-0.0326592
-0.176937
0.0174833
0.0164965
-3.26036e-11
-1.53283e-05
-0.0511033
-0.0164082
0.00207343
-1.86139e-06
-0.00105064
-4.34757e-08
-0.0744327
0.0035293
0.00298089
-9.26903e-10
0.0664301
-0.15536
-9.09176e-08
-0.0482687
-0.0450945
-7.07306e-08
-0.00173247
0.0640997
0.018193
0.0324099
1.38832e-321
7.33106e-05
-0.0160019
0.00420965
-4.51392e-05
-2.98378e-05
-0.0107152
-3.18143e-06
-0.0735284
-1.01881e-05
-0.00155456
0.132724
0
0.00149798
0.0140797
-0.00322506
-0.200818
-0.0444457
0.00846007
-0.0513668
-0.0445815
-0.0459672
0.00730267
-4.70147e-51
0
0.0174071
-0.0727322
-0.0017881
0.127184
-7.44378e-06
-1.59329e-09
0.00288907
8.19975e-80
0.0166807
-0.141529
0
0.00399464
-0.0545759
-0.113251
-0.0314505
-0.0130623
-4.70147e-51
0.000441281
0.00059589
3.89733e-07
0.00936061
0.0405465
-1.86007e-11
0.00927554
-0.0698092
0.0266365
-0.221702
0.0528923
-1.52122e-06
-0.00586277
0.00147883
-1.55103e-06
-0.0143625
8.19975e-80
-0.114524
0.0245642
-1.86007e-11
-0.000233743
-0.0368631
0
-0.0101118
0.00120366
-0.0176036
0.010975
0.0779012
-0.108582
-1.21938e-05
-1.56811e-05
0.0622217
-0.0258165
0.00399464
-4.70147e-51
0.0090476
0.00227054
-0.0376679
0.0014618
0.00695429
-0.00488023
0.0311008
0.0156542
-0.0297838
0.00295261
0.0090476
-2.08612e-08
-8.19825e-05
-0.039865
-0.00858686
0.000805861
0
-0.00843259
-0.129247
-9.38909e-11
0.173562
-0.0397953
-0.0205293
0.0397734
-2.92422e-05
-4.03887e-06
0.0156542
0.067661
0.182741
0.0300513
0.0512459
-0.00360282
0.0206661
-1.56811e-05
-0.0605027
-0.0133287
-0.0508082
0.0338027
0.00309421
6.03647e-05
-0.0637208
0.010975
-0.115079
0.0227726
0.0210866
-0.0390245
-1.65046e-15
-2.11955e-09
0.00108324
0.0156542
0.00772616
-0.0492635
0.0983026
-0.035028
-0.0116506
-0.013133
-0.0015248
0.129359
-0.103058
-0.0352454
-4.39755e-05
-0.0786267
-0.000104219
-1.50435e-07
-1.55721e-07
0.0125438
0.0834715
0.0445975
-2.97391e-05
0.0225712
0.0118538
0.00915411
-0.0220204
0.0534024
0.00252226
-0.0197568
0.0474888
-0.0681291
0.108606
-4.70352e-06
0.00590351
0.0125158
0.0177175
0.0219927
0.171992
0.0403958
0.0551246
-2.27485e-05
0.0058698
-0.0127917
0.0848758
-0.0364091
0.00112519
-0.00022966
-0.0823348
-0.108232
-0.0649165
-0.0492574
-4.70147e-51
-0.00928451
-1.87872e-09
0.0118666
-0.0302413
0.0199422
-0.0189457
0
0.0665527
0.000110886
-6.59797e-07
0.0156542
-4.34757e-08
0
-1.27621e-08
-0.0263745
0.0348186
-2.36382e-06
0
0.00295261
-0.0662902
0.113101
-0.0923503
0.0316234
-5.04461e-08
-0.0319812
0.0311522
-0.0695547
0.0277952
0.0266166
-0.0649802
0.00252223
0.00399464
-0.000141226
-0.0370917
-0.0270297
-0.00655401
-8.57386e-07
-0.0210596
0.0460487
-0.0350421
0.00142621
0
-3.32841e-07
-0.0426458
0.0108769
0.00013401
-1.22886e-06
-0.0301591
-1.29321e-05
0.00326061
-0.0276498
-0.0187703
-0.0237133
-0.0229374
0.000796164
-0.0368631
0.0530066
0.196191
-0.0267871
0
-0.0168648
0.0449256
0.0561802
0.00399464
0.0443182
-4.70147e-51
-1.79266e-11
0.0382672
0.0839708
-0.0950034
